{"timestamp_utc": "2026-03-06T14:12:20+00:00", "case_id": "elephant_7_high_small_3", "bgmm_weights": [0.01386339129160935, 0.006637520068339471, 0.0008864087187395787, 0.007726657324641446, 0.00029959651898173043, 0.000299808065708066, 0.0004987185043548493, 0.0007950669662071692, 0.006948011163009525, 0.011869305915850385, 9.988709339090014e-05, 0.004688472753626854, 0.0002995975548470688, 9.985549074548059e-05, 0.0037945253200545614, 9.983434953147011e-05, 0.00039901813367401934, 9.981316802751194e-05, 9.98025772773294e-05, 9.979198765088628e-05, 0.002539063999259529, 9.977078423483303e-05, 9.97601704508351e-05, 0.03647623462932261, 0.0007925817889519801, 0.016889662651846292, 0.021012016782702075, 9.970468780132094e-05, 0.0002990848917341234, 9.968163446309099e-05, 0.013101993210618161, 0.003246746079098658, 0.03000576595899672, 9.963449152528816e-05, 0.0004970648564908428, 0.0002988873837856358, 0.007509393016644596, 9.958568117727838e-05, 9.957339555539087e-05, 0.0239146785962391, 9.954845538298499e-05, 9.9535800925643e-05, 0.004261207895348736, 9.951042922801358e-05, 0.04012510480484996, 0.0003978137404175441, 0.008899225260101123, 0.09784432650965132, 9.944166391202833e-05, 0.0002982764420893629, 0.013639997598123668, 9.939432521719889e-05, 0.1918785984332308, 0.010349416784579187, 0.0007960649327224685, 0.0004959326393823476, 9.928366101942651e-05, 0.004487207628731916, 0.0003969255564970339, 9.921165679377062e-05, 0.010591384116934778, 0.04938771434297302, 0.018780386382658838, 0.0002963845036720416, 0.0003961415661153163, 9.904524397589923e-05, 0.03454521082252898, 9.898215057809135e-05, 0.19422399498646822, 0.0061397424679547445, 0.01064024144273207, 0.005175053684780578, 9.850620387847806e-05, 0.03683262560566747, 9.814795677707549e-05, 9.791439235802848e-05, 9.768138375633762e-05, 0.020861374100880497, 0.017346019098964896, 0.0027414576709740815], "bgmm_means": [[0.008718310409041606, 0.011227678316634182, 0.0027690315729961656, 0.003881136435633389, -0.0010887380184611086, 0.0036433583886035636, -0.00011464953097506606, -0.0009620407088131091, 0.0017338579253277828, -9.838849437399166e-06, 0.0001347762881690134, -0.00043802687592140924, 1.7361193127137053e-05, 0.0013676389021496469, -0.0002696432248059145, 6.172465564602375e-05, 0.0009569318876869843, 6.929529969293297e-05, -4.716803623429664e-05, 0.0004254347445012674, -0.00016842085705374188, -0.00021378018839525383, -0.00012020045382460558, 0.0001577705799372098, 0.00016930606004712537, 5.562865260516457e-05, 6.482152007256393e-05, 8.951212815508589e-05, -0.00025066376056257005, 6.344679528598578e-05], [0.007222149720517575, 0.0009234679094727464, -0.005586525189307893, 0.0030287844894733656, -0.0034133361513782505, -0.001300047413658072, -0.0012244920693939899, -0.0008926111503924268, 0.00042081634583208814, 0.00020374790896040242, -0.0004304074932250464, 0.0010028160173544056, 0.0003793542688054443, -0.0001369193811700572, 0.00039577489786408955, 0.0003582252305629536, -0.0004170780241659469, -5.2059821347456164e-05, -0.0006641182717185113, 0.0007689685901692417, 9.359605251075848e-05, 0.0006784235696284295, 3.87441710749952e-05, 0.0006405397804514073, -0.00011139874931320864, 0.0004344504518124495, 0.0001419695744486156, -0.0001525718252511119, 0.00010081963460657474, -0.000100868467380671], [-0.0052346408817037955, 0.004341910338671856, -0.0005018751079710755, -0.0015811040523865804, -0.0010949574264959125, 0.006209037488039438, -4.360158319872574e-05, -4.194288400857047e-05, -0.000671758617611708, -0.00064155358214384, 0.0005009648534140605, -0.0002898923220452922, 0.0006484217644372266, 0.0005458449560839377, 0.0005583884210850857, 0.00020736425847774306, -0.0001664098411109466, 0.0004371630858631994, -0.00010594085249016862, -4.725607519678927e-05, -0.00037690365709886734, -0.00014568088609467092, -0.00039580475498191843, 0.0006347335354204124, 0.0005530460957404938, 0.00010420384311647967, 4.705639431983502e-05, -3.220854522680797e-05, -6.601469741509709e-05, -0.00011532163857767407], [-0.006914068976803991, 0.014802998347613228, -0.0008934964209441924, -0.00012669071351846458, -0.002552669973618322, 0.0026254600436408037, -0.0014824777136616294, -0.0011144334684506075, -0.0016807209819584372, -0.000574424247089356, 0.0010761180717265115, -0.0004194134835685729, 0.0006249920401661943, -0.0003191871671879415, -0.0005547080750121093, 0.00015456463301787216, 9.594502382099648e-05, 0.0005206617035125672, 0.00023753798232144653, -0.00034800175668026686, 0.00012670710429790274, 6.688816930986294e-05, -0.0001270988148674348, -0.00021991367267168443, 0.00029617165855235384, 0.00015893624928087853, 0.0002008245665169685, 5.838896104774768e-05, 0.0003279651586271142, -0.00010974211256022256], [0.013945425623982384, 0.002129495602850681, 0.0010629009896682355, 0.001916027029846895, -0.0013892106096456936, -0.0019072014523501151, -0.0009754424361898595, -0.0007756914178990631, -0.0004986227249104966, 0.000589981541611829, -0.0015176670319646663, 0.0005907853377810585, 0.0005639317897194284, -0.001335141750808856, -0.0005494145598971996, -0.00027906902643460804, 0.0002756025174643632, -0.00022152803831573803, -0.0006304121488193544, 0.00044956793370892246, 0.00010021670531698593, -1.0639126753891353e-05, 0.00013800322737783847, -1.502980070848042e-05, -0.00026154148242430884, 0.00017967187944744736, 0.00017359957601370535, -0.0002884111248901969, -8.248371307396122e-06, 0.00013435628561246835], [0.0011513326773059348, 0.007589162737953651, -0.0004956279412113149, 0.0031648812058218804, -0.000888092453839014, 0.0002806103313550169, -0.0005936446106824985, -0.00042761674225829776, 0.00025506577560528975, 0.00031001055095449914, -0.00046087456419431877, -0.00014477343897118726, 0.00023413572258198335, 0.000811584657952105, -0.0001509307657477778, -0.0003166726736550627, 0.00010020695261995922, 0.0004224563770852477, -0.00012386423845313463, 0.0002636189575650416, -0.0004411583412100099, 0.0003142639083745344, -0.00011643270076647448, 0.00010196533320303057, 0.0001873307484840658, -0.0002615535168735114, -0.0004732358844762262, 0.00019765370554361715, 0.00016636930308482387, -0.0001947648740043852], [-0.010345463561261276, 0.013939277912766392, 0.0017721371777729572, 0.00233137652627829, 0.0048385427343708666, -0.0002518057899153651, -0.0020723077177051347, 3.2572368603723356e-05, -0.0002772073516730874, -0.000968787283020253, 0.000709886697021305, -0.0001525213508244887, 0.0008203708228209797, -0.0008066574097553142, -0.0006060818743089456, 2.877346829286493e-05, 0.00037998786165344145, -0.0004904960223075225, -6.933746781313766e-05, -0.000502807699213429, 0.00047841525207537863, 0.0007074807327128173, -0.00011032714668137759, 0.00013087004735780957, 0.0003496068224515828, 0.0001938938230141879, 0.0004446031756791811, -0.00023163661734304936, 5.103596045139479e-05, 5.2557016155595096e-05], [0.02010425108825995, 0.007365807907234929, -0.0033536400186319312, -0.002377018839435867, -0.0003194533790668898, 0.002532552347599927, -0.0011665550109380292, 0.002255585907141599, 3.787126296548693e-05, 0.0008430565112529313, -4.7319402690057574e-05, 0.0007932606474119784, -0.0006856402242190115, 0.0007792404414146128, -0.0003806384183658787, -0.0005895402590097262, -0.00017389994269063162, 0.0007132216147677328, 0.0001129802047295592, 8.298484246365463e-05, 0.00017376153350994418, -0.00015429670702947953, -0.0003098214216006723, -0.00018028238934598965, -0.00024989768208779977, -3.091515300590697e-05, -0.0003394349086887039, -0.0003277710863221166, 0.00028890427392585507, 0.00015712716691583571], [0.026661916884350278, 0.0075293994584445575, -0.004946278281263014, -0.0007481231999017457, -0.0013657301242705389, -0.00066016416901583, -0.001972259440812788, 0.0006729954041943207, -0.0008039471623293543, 0.0008620723393026812, -0.0005212275908507901, 0.0004319160950040247, -0.00041731127337866976, -0.00016806587369299096, -0.0002714601131618244, -0.0003290192677606247, 8.727437745863645e-05, 0.0003472052486956644, -0.00043680808861600967, 0.000643088227988301, 5.8870767795959905e-05, 0.00010409444681622009, 4.257220676758118e-05, -0.00029080106268758124, -0.00010170565442830865, -0.00018132620889754563, -0.00023161778384568735, -0.00015817168346042408, 2.8727615838960815e-05, 4.5270738856742036e-05], [0.004641055747514319, -0.005367009496397329, -0.004026733615943017, -0.0033051542057101527, 0.001468430572361981, 0.0023043261104529577, -0.0011870507687447996, -0.0011129253604249885, 0.001393853054905254, -0.0003922997057655239, -0.0008985477388971288, -0.0002611048843721936, -0.0008853785337944447, -0.0003223441456251196, 0.0007586595519082502, 4.815967666055323e-05, 0.0002606342181408555, -0.0005716372771511339, 0.00018083596864890668, -0.00025946248550747116, 0.00016800258924430962, 0.0003567422714063259, -0.0003684282060830458, -2.9763971023698517e-05, -8.071499125291828e-05, -0.0003092537632632417, 0.00012787046458138292, 0.000221191802240962, 0.00019380992847586593, 0.000145639881271996], [-2.0202286066250918e-07, 8.726495792643598e-08, 1.763042121183385e-07, 1.612543165663279e-08, 3.107144763703211e-08, -5.3763645979642996e-08, 2.2716884373608032e-08, 8.008643703760737e-08, 8.775396054261344e-08, -4.035732104057379e-07, 6.23805007649024e-08, 2.2463575888309556e-08, -4.55542732424873e-08, -9.30676264943029e-08, 1.3080841654300428e-07, 2.598978454670936e-08, -2.1693646878873047e-09, -5.664527957804909e-09, 2.808762999961794e-08, 8.58987547758259e-08, -8.17368217553847e-08, 1.8653727806849887e-07, -1.1464833704621899e-07, 5.872581976262823e-09, -3.0418331675718877e-07, -2.453522256473656e-07, 3.0177076837389836e-07, -8.230014714172266e-08, -4.972222811261406e-08, -4.552483545694476e-08], [-0.012239604521684122, 0.010822968188646163, -0.0026397007250316537, -0.0032788645256730236, -0.0010425374122334957, 0.000603553511997672, -0.0017269582585564935, 0.00011561472580959872, -0.002245873823083566, -0.0013089684443427555, 0.0007826147683458534, 0.00011323731041504163, 0.0005455816431445584, -8.842964229654965e-05, 0.0007863020760580296, -0.0003824337536809242, 0.00016924666833435635, -0.00024290905490181625, -0.0005380509440955982, -0.0005540506988558966, 0.0005570432971647177, -0.00011936998944722275, 0.00015628519696633507, -0.00013538991654325758, -0.000161275359931432, 0.0002737120786267105, 0.00026211885385624844, -2.8489435775027064e-05, -5.049338745069845e-05, 0.00015764439850967187], [0.0038584320639662886, 0.01778037876707096, -0.005514496390145708, 0.0005182703736504409, -0.0026316169373262048, -0.0015097653559553094, -0.000511945906636575, -0.0004199204320870592, -0.0014044435576979065, 0.00040048992155668737, -0.0009303743835346017, -0.0016332367047221777, 0.0006601001885687805, 0.0006099688045104127, -0.0009427727065471874, -0.0003752752960120095, -0.0005938188105084422, -0.00018120605534662634, -0.0004001174684446175, -0.0003955915144592904, -3.106373070152765e-05, -0.000593451320302912, -7.406655330178757e-05, -0.0006093450329991882, -0.00019000942591051133, 0.0005217410968598162, 7.63835903067608e-05, 0.0004331427823840267, 0.0003091118845232806, -0.0001574558866913211], [-2.0202286066250918e-07, 8.726495792643598e-08, 1.763042121183385e-07, 1.612543165663279e-08, 3.107144763703211e-08, -5.3763645979642996e-08, 2.2716884373608032e-08, 8.008643703760737e-08, 8.775396054261344e-08, -4.035732104057379e-07, 6.23805007649024e-08, 2.2463575888309556e-08, -4.55542732424873e-08, -9.30676264943029e-08, 1.3080841654300428e-07, 2.598978454670936e-08, -2.1693646878873047e-09, -5.664527957804909e-09, 2.808762999961794e-08, 8.58987547758259e-08, -8.17368217553847e-08, 1.8653727806849887e-07, -1.1464833704621899e-07, 5.872581976262823e-09, -3.0418331675718877e-07, -2.453522256473656e-07, 3.0177076837389836e-07, -8.230014714172266e-08, -4.972222811261406e-08, -4.552483545694476e-08], [0.0031315681201759095, 0.0061280324215773705, -0.0025545453106864194, -0.0001712601835413852, 0.003615456240597217, 0.002212957186254547, -0.00031599259002117614, -8.417785655463837e-05, -0.0008420532018614531, 0.0002979585698057893, 4.848645376546735e-05, -0.001128237574261975, -0.0015562881885371747, 5.1910919403693765e-05, -0.0003570629020012014, -0.0003209484298240089, -3.0227472616686042e-05, -0.0005620843843543287, 0.0003908662302500239, 0.00012103507278679968, -0.0004570767457370549, 0.0003927233006210498, -0.00020878367737908737, 0.0002831642342210871, -9.024968567337588e-05, -0.00012860583800703869, 0.00014649165792583914, -9.839166109110807e-05, -2.6719260054368626e-05, 0.00022741267835313855], [-2.0202286066250918e-07, 8.726495792643598e-08, 1.763042121183385e-07, 1.612543165663279e-08, 3.107144763703211e-08, -5.3763645979642996e-08, 2.2716884373608032e-08, 8.008643703760737e-08, 8.775396054261344e-08, -4.035732104057379e-07, 6.23805007649024e-08, 2.2463575888309556e-08, -4.55542732424873e-08, -9.30676264943029e-08, 1.3080841654300428e-07, 2.598978454670936e-08, -2.1693646878873047e-09, -5.664527957804909e-09, 2.808762999961794e-08, 8.58987547758259e-08, -8.17368217553847e-08, 1.8653727806849887e-07, -1.1464833704621899e-07, 5.872581976262823e-09, -3.0418331675718877e-07, -2.453522256473656e-07, 3.0177076837389836e-07, -8.230014714172266e-08, -4.972222811261406e-08, -4.552483545694476e-08], [-0.007446184187196604, 0.010416495493641568, 0.0035646746017760998, -0.0016148162206637694, 0.0015715594155096457, 0.0014038690976191312, -0.0007122644834620522, 0.0004082750126207723, 0.00025371536840562437, 0.000299786742528243, 0.0008904578105177951, -0.000994746400185549, 0.001310178200666378, 0.00039582826681608494, 0.00019269952027970688, 0.00026582507373678997, -0.00019217817794176223, -0.00022961837664426662, -0.0006121863668872178, -0.0009073374387866378, 0.0004767411915121205, 0.00046464492089999223, -0.0002670239844994259, 0.0005126041835699232, 0.000852878142928565, -0.00027979355357201616, -5.338145689173591e-05, 0.0002889403671098663, -0.0002606518598845397, 0.00010086338136898679], [-2.0202286066250918e-07, 8.726495792643598e-08, 1.763042121183385e-07, 1.612543165663279e-08, 3.107144763703211e-08, -5.3763645979642996e-08, 2.2716884373608032e-08, 8.008643703760737e-08, 8.775396054261344e-08, -4.035732104057379e-07, 6.23805007649024e-08, 2.2463575888309556e-08, -4.55542732424873e-08, -9.30676264943029e-08, 1.3080841654300428e-07, 2.598978454670936e-08, -2.1693646878873047e-09, -5.664527957804909e-09, 2.808762999961794e-08, 8.58987547758259e-08, -8.17368217553847e-08, 1.8653727806849887e-07, -1.1464833704621899e-07, 5.872581976262823e-09, -3.0418331675718877e-07, -2.453522256473656e-07, 3.0177076837389836e-07, -8.230014714172266e-08, -4.972222811261406e-08, -4.552483545694476e-08], [-2.0202286066250918e-07, 8.726495792643598e-08, 1.763042121183385e-07, 1.612543165663279e-08, 3.107144763703211e-08, -5.3763645979642996e-08, 2.2716884373608032e-08, 8.008643703760737e-08, 8.775396054261344e-08, -4.035732104057379e-07, 6.23805007649024e-08, 2.2463575888309556e-08, -4.55542732424873e-08, -9.30676264943029e-08, 1.3080841654300428e-07, 2.598978454670936e-08, -2.1693646878873047e-09, -5.664527957804909e-09, 2.808762999961794e-08, 8.58987547758259e-08, -8.17368217553847e-08, 1.8653727806849887e-07, -1.1464833704621899e-07, 5.872581976262823e-09, -3.0418331675718877e-07, -2.453522256473656e-07, 3.0177076837389836e-07, -8.230014714172266e-08, -4.972222811261406e-08, -4.552483545694476e-08], [-2.0202286066250918e-07, 8.726495792643598e-08, 1.763042121183385e-07, 1.612543165663279e-08, 3.107144763703211e-08, -5.3763645979642996e-08, 2.2716884373608032e-08, 8.008643703760737e-08, 8.775396054261344e-08, -4.035732104057379e-07, 6.23805007649024e-08, 2.2463575888309556e-08, -4.55542732424873e-08, -9.30676264943029e-08, 1.3080841654300428e-07, 2.598978454670936e-08, -2.1693646878873047e-09, -5.664527957804909e-09, 2.808762999961794e-08, 8.58987547758259e-08, -8.17368217553847e-08, 1.8653727806849887e-07, -1.1464833704621899e-07, 5.872581976262823e-09, -3.0418331675718877e-07, -2.453522256473656e-07, 3.0177076837389836e-07, -8.230014714172266e-08, -4.972222811261406e-08, -4.552483545694476e-08], [0.0026899259849808336, 0.00926510544848893, 0.0018848011589769147, 0.006627750683313742, 0.006604981739322719, -0.0006190827017262861, -0.000875270463186215, 0.0005237186362021152, 0.0002541389257226658, -5.5009322242470224e-05, -0.00020920022671377743, -0.00022479026829271828, -0.0009350473439814907, -0.00020676735357572483, -0.00038899784248494273, 8.288210948186805e-05, 6.165323520648741e-05, -1.014871648697996e-05, 0.0001093496392549947, 0.000255618041342724, 0.00016945244154491335, -6.790223900737745e-05, -9.475944065407756e-05, 0.00022603912440833404, 0.00019343633705032052, 0.000305939207157688, 0.0002729673917097227, 2.377946856698907e-06, -0.00021009582366394815, 0.00013038241315502672], [-2.0202286066250918e-07, 8.726495792643598e-08, 1.763042121183385e-07, 1.612543165663279e-08, 3.107144763703211e-08, -5.3763645979642996e-08, 2.2716884373608032e-08, 8.008643703760737e-08, 8.775396054261344e-08, -4.035732104057379e-07, 6.23805007649024e-08, 2.2463575888309556e-08, -4.55542732424873e-08, -9.30676264943029e-08, 1.3080841654300428e-07, 2.598978454670936e-08, -2.1693646878873047e-09, -5.664527957804909e-09, 2.808762999961794e-08, 8.58987547758259e-08, -8.17368217553847e-08, 1.8653727806849887e-07, -1.1464833704621899e-07, 5.872581976262823e-09, -3.0418331675718877e-07, -2.453522256473656e-07, 3.0177076837389836e-07, -8.230014714172266e-08, -4.972222811261406e-08, -4.552483545694476e-08], [-2.0202286066250918e-07, 8.726495792643598e-08, 1.763042121183385e-07, 1.612543165663279e-08, 3.107144763703211e-08, -5.3763645979642996e-08, 2.2716884373608032e-08, 8.008643703760737e-08, 8.775396054261344e-08, -4.035732104057379e-07, 6.23805007649024e-08, 2.2463575888309556e-08, -4.55542732424873e-08, -9.30676264943029e-08, 1.3080841654300428e-07, 2.598978454670936e-08, -2.1693646878873047e-09, -5.664527957804909e-09, 2.808762999961794e-08, 8.58987547758259e-08, -8.17368217553847e-08, 1.8653727806849887e-07, -1.1464833704621899e-07, 5.872581976262823e-09, -3.0418331675718877e-07, -2.453522256473656e-07, 3.0177076837389836e-07, -8.230014714172266e-08, -4.972222811261406e-08, -4.552483545694476e-08], [0.007081582451519998, 0.00570019599479841, -0.0015494231153097412, 0.0017518512850920728, 0.0002786281820257323, -0.0007365809824806699, 0.002609619647743582, -0.0005640230333137075, 0.0007304448520620913, -0.00026166618683272065, 0.0002156781307496973, 0.00046177457333137193, -0.0005891371998988172, -0.00017104787204994367, 0.00020446264053611214, -0.00012161123353485802, -0.00014112402740232212, 6.847362457601875e-05, -0.0003017280567555321, -0.00010683253318516599, 0.0001379000802771964, -9.592188077138893e-05, -0.00010325159782809102, -4.2684061514028083e-05, -0.00014186930917530345, 7.082022749694807e-05, -6.0086429975993274e-05, 0.00012694736218894727, -6.333758261349366e-05, 4.53949698960844e-05], [0.019223669827981224, -0.0008731496608013864, -0.007457228235845984, 0.0004675735341796436, -0.001563764900637984, 1.6931549060421543e-05, -0.003830850919704972, -0.0023487435909586153, 0.0018112613676397045, 0.0011793636287006203, -0.00014741270965442347, 0.0009193755754354837, -0.00039081438403051395, 3.952270620580643e-05, 0.0008405496676710878, 0.0012946194829120139, -0.0009336595305499709, 0.0004653359743057925, -0.00013711552959891574, 0.000528530992957536, 0.0004655585677067705, 0.0012619801535501116, 0.001016601845007784, -6.905398096225314e-05, 0.00028184727972305944, 0.0009673241515095955, 0.00045263495055012, 0.00010171769604127686, 0.00017750597826206714, -0.00010298590891756643], [0.025034832109027922, -0.005236220117065425, -0.004028506616337972, -0.003527555513005671, 7.704609816686675e-05, -0.0005101767381261376, -0.0013458079890830605, 5.119783891584383e-05, 0.0008460689989728975, -5.5946832051103285e-05, -0.0009083752190901689, -0.00034927437946208903, -0.00015685741326378825, -0.0003424307390606574, 0.00023635805005350866, 0.0006427822857837689, -0.00019488618291901415, 0.00031952365509762637, 0.00021020814367029536, -1.6957429475914186e-05, 0.00034699691663104003, -0.0002011330193226651, -0.00026654013072876354, 4.841400884031203e-05, 0.00027001823291261185, -5.25513447396893e-05, -9.28893735754864e-05, 6.990059758945659e-05, -0.0001827224596395466, 0.00017332530372644297], [0.002485751024074617, 0.0022943929496609203, -0.0006026887564477459, -0.0027241273710937562, -0.0002583553958964307, 0.004594683217754553, 0.0005836684795269129, 0.0003817277507298791, 0.0007437803281493652, 0.00016850425084625022, 0.00021890973360817986, 0.0004594619647604337, -0.0002447938305849073, -0.00048375746350789073, 0.00021114616510321149, -6.217923316529305e-05, 2.7771135429586876e-05, -0.00023661473197861027, 0.00022219935023610235, -4.943060994020887e-05, -0.0003691676243467639, -4.822118320307969e-05, -0.0003055696297012038, 0.0002396552987996348, 0.00015117908060031357, 0.00011324142067171348, -0.00015012444732783587, -3.2221205898752274e-05, 0.00010107117987495961, 8.002952587765071e-05], [-2.0202286066250918e-07, 8.726495792643598e-08, 1.763042121183385e-07, 1.612543165663279e-08, 3.107144763703211e-08, -5.3763645979642996e-08, 2.2716884373608032e-08, 8.008643703760737e-08, 8.775396054261344e-08, -4.035732104057379e-07, 6.23805007649024e-08, 2.2463575888309556e-08, -4.55542732424873e-08, -9.30676264943029e-08, 1.3080841654300428e-07, 2.598978454670936e-08, -2.1693646878873047e-09, -5.664527957804909e-09, 2.808762999961794e-08, 8.58987547758259e-08, -8.17368217553847e-08, 1.8653727806849887e-07, -1.1464833704621899e-07, 5.872581976262823e-09, -3.0418331675718877e-07, -2.453522256473656e-07, 3.0177076837389836e-07, -8.230014714172266e-08, -4.972222811261406e-08, -4.552483545694476e-08], [0.016393089235316797, 0.0007192977704779203, -0.001715520861328212, 0.0009523604196313353, -0.0022853166796376885, -0.0009068872884144362, -0.001179439499120836, 0.0009366820231000681, 0.0007380731327886744, 0.000249484806775281, -0.0005088984191999458, -0.00010905801330913319, 0.00011228184371428782, -0.0009631327074667973, 2.2517143743761396e-06, 0.0008764317054806882, 0.0007367486984869318, 0.0001193170379116688, -0.0004986849370141762, 0.0005805969808501219, -0.00013350519540563928, 0.0007512537731448163, 0.0005933662830354964, 0.0003282307578600517, 0.00030184439178917256, 0.00030611893423870617, 0.00021007345113213912, -0.00045074976752343095, -8.029997254353561e-05, -0.0001834789349473964], [-2.0202286066250918e-07, 8.726495792643598e-08, 1.763042121183385e-07, 1.612543165663279e-08, 3.107144763703211e-08, -5.3763645979642996e-08, 2.2716884373608032e-08, 8.008643703760737e-08, 8.775396054261344e-08, -4.035732104057379e-07, 6.23805007649024e-08, 2.2463575888309556e-08, -4.55542732424873e-08, -9.30676264943029e-08, 1.3080841654300428e-07, 2.598978454670936e-08, -2.1693646878873047e-09, -5.664527957804909e-09, 2.808762999961794e-08, 8.58987547758259e-08, -8.17368217553847e-08, 1.8653727806849887e-07, -1.1464833704621899e-07, 5.872581976262823e-09, -3.0418331675718877e-07, -2.453522256473656e-07, 3.0177076837389836e-07, -8.230014714172266e-08, -4.972222811261406e-08, -4.552483545694476e-08], [-8.568619893124402e-05, 0.006109386445359447, 0.005869928206228214, -0.004451422048129677, -0.0007339914961703125, -0.0013933160711456464, 0.002195977937737554, 0.0003145045960861657, 0.0013110491667278595, -0.0008567578355612082, -0.0019708090894896583, 0.0011027308057632934, -2.9570555085546118e-05, 2.6078044997139373e-05, -0.0006643909785004461, -0.00038802084406999385, -0.0003940085337784408, -0.0006746447607430987, -0.00011318769454729964, 0.00021215462764999932, -0.0005254216971635775, 2.6537523181091725e-05, 1.2694937675672479e-05, 9.632183027175e-07, -8.029171833197293e-05, 0.0001591725667994758, 7.318374300384775e-05, 9.730660800796162e-05, -9.352640291880482e-05, -0.00036056312770310395], [0.028778747260815134, 0.012284500536157341, -0.0008563270764621299, 0.0003312421393275115, 0.0022906724388668896, 0.0002298815637688489, -0.001433469241909366, 0.002202710010038968, -0.0012040972734435993, -0.00036318739078923534, 0.0002274679209569765, 0.0011999505909336219, -0.00014908656162265695, 0.00047498416258951614, -0.00070388692022089, -0.0004008625336357218, -9.05906023795719e-06, 0.0006213663371187598, -8.703223054136454e-05, 0.00011639077591909048, 5.889116858053594e-05, 0.00013599781883242787, 0.00017447431774167342, -0.0009356009465388014, -0.0001599262925012395, -0.0003879916236649795, -0.00024393475242551817, -0.0001244774415276544, 0.00012814228241227952, 0.00016230261021049118], [-0.014115710320629152, 9.973665180714334e-05, -0.0009081252870215463, 0.0035154984012312177, 0.006170464324914799, -0.0010517926284383569, -0.0012835938976676709, 0.0006065684540389148, 0.0009087701595200238, -0.0002789541318841124, -0.00015630878464664437, 0.00024142832563424962, 0.0001877217117292972, -0.0004025659851280022, -3.0050540002465848e-05, -0.0002508984961147368, 0.000208932149435353, -8.71992168685441e-05, 0.00047147708944126845, -4.435504021549321e-05, 9.833128705377892e-05, 6.525476336075123e-05, -8.305531786028582e-05, 0.00025151961772022, -5.277054649339766e-06, 0.00026252414735288443, -5.002334410099169e-05, -8.122405803115335e-05, -4.208107990260822e-05, -0.00018999273542067953], [-2.0202286066250918e-07, 8.726495792643598e-08, 1.763042121183385e-07, 1.612543165663279e-08, 3.107144763703211e-08, -5.3763645979642996e-08, 2.2716884373608032e-08, 8.008643703760737e-08, 8.775396054261344e-08, -4.035732104057379e-07, 6.23805007649024e-08, 2.2463575888309556e-08, -4.55542732424873e-08, -9.30676264943029e-08, 1.3080841654300428e-07, 2.598978454670936e-08, -2.1693646878873047e-09, -5.664527957804909e-09, 2.808762999961794e-08, 8.58987547758259e-08, -8.17368217553847e-08, 1.8653727806849887e-07, -1.1464833704621899e-07, 5.872581976262823e-09, -3.0418331675718877e-07, -2.453522256473656e-07, 3.0177076837389836e-07, -8.230014714172266e-08, -4.972222811261406e-08, -4.552483545694476e-08], [-0.0027152574747288986, 0.016820467836557305, 0.0011226850683505483, 0.002187483517808696, -0.0015859152180932887, -0.0005769981867930327, -0.0005208036299993419, -0.0014295086780141029, 0.00023652334106174505, 0.0010915311298589632, -0.0004955875053684052, -0.0013738332613021098, 0.0002862320958133216, 0.0005765586477970231, -0.0004090895621754246, 0.00017609637716278312, 0.0015484369579079234, 0.00040728824608381354, -0.0002608878950033273, -0.00038378793634477116, 6.525869384933983e-05, -0.0004229903644822217, -0.0001832011056969203, -0.0007815033152987469, 9.685860362983652e-05, 0.0006763721983608197, 9.724006807311192e-05, 0.00043843623239305847, 0.0003812966533416169, 0.0004669098207136531], [-0.0063887745138699195, 0.007552069941595687, -0.0008063212684142515, 0.0010464311282704108, -0.0009403236698570419, -0.0005581992150756888, -0.00033678637511843544, -0.0006382799895384513, -0.0011392024850519346, 0.00015004268313915267, 0.0005902325676126755, -0.0005357352032828937, 0.0001624286687506288, -8.203316882544285e-05, 0.00024014846902722998, 0.0002770279938860781, 0.0005467250608637905, 0.0003995746869213012, 0.00031905838780026986, 0.00033490340657834776, -0.0002678423465905054, 4.0501346749216726e-05, -0.0001874192144969276, -0.00038500476790366377, -0.00011184070398935494, 0.00048756860410270446, 0.00012837687843225335, -0.00021961215561732534, 0.00029959756449691115, 0.0001630613323068866], [0.006194291200079909, 0.015209301916413634, -0.0009464151718944229, 0.004634400683193119, -0.001178948413348357, -0.00032330870890036984, -0.000587233693920916, -0.0002552885259403167, 0.00034522452456063954, 0.0005226244886781319, -0.00021393375071728827, -0.0007420349928964043, 0.0001986114993598905, 0.0008672123220992518, -0.000508931459898808, -0.0002173817079394662, -0.0001489648478236496, -0.0001551576726727941, -0.0003237479964319981, 4.8496656722183644e-05, -8.65268170203162e-05, -0.0002271569518268692, -0.00035253001270433486, -7.663183474675852e-05, 0.000159217370327507, -2.162755329151985e-05, -1.0279585409694168e-05, 0.00035941143321915425, 0.00020509419009533575, -9.835299528420974e-05], [-2.0202286066250918e-07, 8.726495792643598e-08, 1.763042121183385e-07, 1.612543165663279e-08, 3.107144763703211e-08, -5.3763645979642996e-08, 2.2716884373608032e-08, 8.008643703760737e-08, 8.775396054261344e-08, -4.035732104057379e-07, 6.23805007649024e-08, 2.2463575888309556e-08, -4.55542732424873e-08, -9.30676264943029e-08, 1.3080841654300428e-07, 2.598978454670936e-08, -2.1693646878873047e-09, -5.664527957804909e-09, 2.808762999961794e-08, 8.58987547758259e-08, -8.17368217553847e-08, 1.8653727806849887e-07, -1.1464833704621899e-07, 5.872581976262823e-09, -3.0418331675718877e-07, -2.453522256473656e-07, 3.0177076837389836e-07, -8.230014714172266e-08, -4.972222811261406e-08, -4.552483545694476e-08], [-2.0202286066250918e-07, 8.726495792643598e-08, 1.763042121183385e-07, 1.612543165663279e-08, 3.107144763703211e-08, -5.3763645979642996e-08, 2.2716884373608032e-08, 8.008643703760737e-08, 8.775396054261344e-08, -4.035732104057379e-07, 6.23805007649024e-08, 2.2463575888309556e-08, -4.55542732424873e-08, -9.30676264943029e-08, 1.3080841654300428e-07, 2.598978454670936e-08, -2.1693646878873047e-09, -5.664527957804909e-09, 2.808762999961794e-08, 8.58987547758259e-08, -8.17368217553847e-08, 1.8653727806849887e-07, -1.1464833704621899e-07, 5.872581976262823e-09, -3.0418331675718877e-07, -2.453522256473656e-07, 3.0177076837389836e-07, -8.230014714172266e-08, -4.972222811261406e-08, -4.552483545694476e-08], [0.020095661253081716, 0.00392759679560454, -0.0017019620428179766, -0.0006009292107265011, 0.0002280028666952977, -0.0009241871423172004, 0.0017070786302417734, 0.0017692734051397083, 0.0002327566497110177, -0.0004616435731702589, 0.0010110531566701136, 0.0004765994882282327, -2.503841526857641e-06, -0.0003130991621926402, -0.00021396897741591465, -7.816120422305229e-05, 9.011197605533823e-05, 0.0002765625122778058, -0.0002199414282769868, 0.00013489008168142674, 4.1124352148308026e-05, 0.00021525015443410008, -0.000199680685110598, 2.439876017548326e-05, 2.983184016440947e-05, -2.416837198104238e-05, 0.0001338322855674647, -0.0002371053287858749, -7.023875753276669e-05, 0.00013529040499315732], [-2.0202286066250918e-07, 8.726495792643598e-08, 1.763042121183385e-07, 1.612543165663279e-08, 3.107144763703211e-08, -5.3763645979642996e-08, 2.2716884373608032e-08, 8.008643703760737e-08, 8.775396054261344e-08, -4.035732104057379e-07, 6.23805007649024e-08, 2.2463575888309556e-08, -4.55542732424873e-08, -9.30676264943029e-08, 1.3080841654300428e-07, 2.598978454670936e-08, -2.1693646878873047e-09, -5.664527957804909e-09, 2.808762999961794e-08, 8.58987547758259e-08, -8.17368217553847e-08, 1.8653727806849887e-07, -1.1464833704621899e-07, 5.872581976262823e-09, -3.0418331675718877e-07, -2.453522256473656e-07, 3.0177076837389836e-07, -8.230014714172266e-08, -4.972222811261406e-08, -4.552483545694476e-08], [-2.0202286066250918e-07, 8.726495792643598e-08, 1.763042121183385e-07, 1.612543165663279e-08, 3.107144763703211e-08, -5.3763645979642996e-08, 2.2716884373608032e-08, 8.008643703760737e-08, 8.775396054261344e-08, -4.035732104057379e-07, 6.23805007649024e-08, 2.2463575888309556e-08, -4.55542732424873e-08, -9.30676264943029e-08, 1.3080841654300428e-07, 2.598978454670936e-08, -2.1693646878873047e-09, -5.664527957804909e-09, 2.808762999961794e-08, 8.58987547758259e-08, -8.17368217553847e-08, 1.8653727806849887e-07, -1.1464833704621899e-07, 5.872581976262823e-09, -3.0418331675718877e-07, -2.453522256473656e-07, 3.0177076837389836e-07, -8.230014714172266e-08, -4.972222811261406e-08, -4.552483545694476e-08], [0.029686244792922544, 0.0019677060944875233, 0.000750922467032458, 0.0003139464698753097, 0.0033553175566983584, -0.0016223440224518238, -0.0019366672796353446, -0.0008327047262350387, -0.0006571630671474598, -0.001120345156261528, -0.0006883128074023165, -0.000981218634573462, -4.307418100457011e-05, 0.0003802834080877702, -0.00047367457529555115, 0.0008289244697469946, 0.0005292840921880376, -0.00010925755073329634, -0.00022336871477955547, 0.00012671258852098492, -0.00029020002713081003, 0.0002628497330277354, 0.0002995306163629046, -0.0002783439618908919, -3.2143934971840605e-05, -0.0003399207188050453, 0.00016455215937103473, -0.0003691964290283454, -8.577981236974162e-06, -1.5859955720603635e-05], [-2.0202286066250918e-07, 8.726495792643598e-08, 1.763042121183385e-07, 1.612543165663279e-08, 3.107144763703211e-08, -5.3763645979642996e-08, 2.2716884373608032e-08, 8.008643703760737e-08, 8.775396054261344e-08, -4.035732104057379e-07, 6.23805007649024e-08, 2.2463575888309556e-08, -4.55542732424873e-08, -9.30676264943029e-08, 1.3080841654300428e-07, 2.598978454670936e-08, -2.1693646878873047e-09, -5.664527957804909e-09, 2.808762999961794e-08, 8.58987547758259e-08, -8.17368217553847e-08, 1.8653727806849887e-07, -1.1464833704621899e-07, 5.872581976262823e-09, -3.0418331675718877e-07, -2.453522256473656e-07, 3.0177076837389836e-07, -8.230014714172266e-08, -4.972222811261406e-08, -4.552483545694476e-08], [0.016002252661247517, 0.001645599530465133, 0.004976195309735352, 0.0025091466616374318, 0.002105340135209443, 0.0008608645231478606, 0.0007174702921242649, -3.898522915622633e-05, -0.0006530008903649393, 0.0002925525510311233, -7.019785326442611e-05, 0.00021098510514610183, -0.0002949909884809948, 0.000273245259837099, 0.0005281766715016274, 3.728353452895443e-05, 7.070530275695061e-05, -6.217679099176595e-05, -0.00013629561210300013, -1.8901464819147031e-06, 7.554887429697918e-05, -0.00016203484696251908, 0.0003483437047368017, 0.00013344418285232484, -0.00012356851469432967, -0.00017412605095335553, 7.430830324296796e-05, -8.677690949172658e-05, 0.00011674386842166611, -4.434074263929413e-05], [0.0036727718503293473, 0.015407763992619354, 0.0027340968359028817, 0.0033052239431311395, -0.0011760927506598213, 0.0006657369524541569, -0.0006112191113356, -0.0007623771727094661, 0.00023529080933097206, 0.0007094740549973381, 0.0013371799654021263, -0.001097998706638339, 0.0006619133160335327, 0.0012307200226746237, -0.00024819174497038414, 0.00028768937456179753, 0.0002923132717478915, -0.00019545281876751013, 0.00034288280704271, 0.00011673643185274457, 0.00018823325898775672, 7.92352107953429e-05, -0.0009469298032642816, -2.08151101223248e-05, 0.0001827816542834949, -0.00028063973901400457, 3.505910359710723e-05, 0.0008854827744853862, -0.0001176512707206377, 0.00010137670413914846], [-0.0023917345005420028, 0.0019946629911823444, -0.005769980534563665, -0.001227153513740813, -0.0012194328795895046, 0.002742709928521464, -0.002050554151482017, 3.887550554104786e-05, -0.0004880431675079083, -0.0010525465268814954, -0.0007320679617067155, 0.0008407562912830561, -0.0006391323621826271, 0.0005363125819614023, 0.0005424374139892864, -0.0008081545954919771, -5.253285983152743e-05, -7.383655988203743e-06, 2.204447538949e-05, -9.486230937548634e-05, -0.0001205874011545773, -0.0001319304374615738, 0.00022787992972991017, 6.59320094721664e-05, -1.3306623566255127e-06, -3.8578013307740444e-05, 0.00011341653264760286, 0.00016150173498326117, -0.0001006361507778325, -0.00018181026486416974], [0.010462805635127468, -0.005826762135971274, 0.0017504577011737525, 0.000236730313783581, -0.0010409062735017543, 0.0007189622530214066, -7.12920778264908e-05, 0.00027390960374778383, -0.00010806677313879777, 0.0007637359941661179, -0.0002588390286896319, -0.00025254497830067024, 2.7611429886178725e-05, -0.0003639084511960464, -8.45326793226295e-05, -0.00028596149542530955, 0.00016196663759490945, -2.8263328739187104e-05, -1.0316549531184816e-05, -0.00018466850364896737, 0.0001553285695151916, 0.0002730989190673843, -2.7787764903170144e-05, 3.3073452499573544e-05, -0.00012994142317702717, 8.687037381870738e-05, 8.876316138973959e-05, 2.5312766968150693e-05, 1.0969814945115378e-05, -3.7707249862231095e-05], [-2.0202286066250918e-07, 8.726495792643598e-08, 1.763042121183385e-07, 1.612543165663279e-08, 3.107144763703211e-08, -5.3763645979642996e-08, 2.2716884373608032e-08, 8.008643703760737e-08, 8.775396054261344e-08, -4.035732104057379e-07, 6.23805007649024e-08, 2.2463575888309556e-08, -4.55542732424873e-08, -9.30676264943029e-08, 1.3080841654300428e-07, 2.598978454670936e-08, -2.1693646878873047e-09, -5.664527957804909e-09, 2.808762999961794e-08, 8.58987547758259e-08, -8.17368217553847e-08, 1.8653727806849887e-07, -1.1464833704621899e-07, 5.872581976262823e-09, -3.0418331675718877e-07, -2.453522256473656e-07, 3.0177076837389836e-07, -8.230014714172266e-08, -4.972222811261406e-08, -4.552483545694476e-08], [7.03868471045412e-05, 0.0025914835731816388, -0.0020079639280278696, -0.0013746671433770548, -0.0009307779183081086, 0.002878711581407869, 5.8656649457550905e-05, -0.0012818557619301302, -0.0012723416943468083, 0.00036776210133581565, -0.0007226595095853768, -7.624841188580924e-05, -0.0011703076050592742, -0.0002088574208648983, 0.00017812550858366716, -0.0006888703963363191, -0.00032537895527025035, 0.00024896358442468177, 0.00044585336163059034, 5.09075342314195e-05, -0.0002456310094493287, -0.0003641141826989869, -0.00021457921522757955, 0.00021108550628964044, -0.00025824048976894623, -0.000344960935199517, -0.00012464382976655334, -0.00039443835782745646, -0.000185485186274037, -0.00023970589160490332], [-0.002666455992782658, 0.0165301126653378, -0.0014161378991242694, 0.0021802852654190727, 0.0011875056615741418, -0.0017733111460305367, 0.00022097584193332462, -0.0003264502750971283, 7.282160391850751e-05, 0.0003053658995856423, -0.00023540241810580636, -0.0015014205381617522, -3.28610655256489e-05, 3.480164791094965e-06, -4.836577846050032e-05, -0.00020159696271241894, 5.890652183222045e-05, 0.00021006525283176732, 6.87487073719296e-05, -6.330836166766054e-05, -0.00014818646324570562, 3.759213656360229e-05, -0.00030872167630882847, -0.000362712038829204, -2.360070167838711e-06, 0.0002994646659852075, 5.820097745662975e-05, 0.00037541486061796716, 0.00019022216586547683, 4.6101613065149215e-05], [-2.0202286066250918e-07, 8.726495792643598e-08, 1.763042121183385e-07, 1.612543165663279e-08, 3.107144763703211e-08, -5.3763645979642996e-08, 2.2716884373608032e-08, 8.008643703760737e-08, 8.775396054261344e-08, -4.035732104057379e-07, 6.23805007649024e-08, 2.2463575888309556e-08, -4.55542732424873e-08, -9.30676264943029e-08, 1.3080841654300428e-07, 2.598978454670936e-08, -2.1693646878873047e-09, -5.664527957804909e-09, 2.808762999961794e-08, 8.58987547758259e-08, -8.17368217553847e-08, 1.8653727806849887e-07, -1.1464833704621899e-07, 5.872581976262823e-09, -3.0418331675718877e-07, -2.453522256473656e-07, 3.0177076837389836e-07, -8.230014714172266e-08, -4.972222811261406e-08, -4.552483545694476e-08], [-0.014166944018831696, -0.001201790386918209, -0.0016624840562104353, -0.0004474713794085744, 7.579004682401075e-05, -0.0008404288207017444, 8.044745067909658e-05, -0.00020769371475099792, -0.00016107745801205212, 0.0003146630424642873, 0.00012429960392716777, 0.0001765439320732724, 0.0003168787547092596, 0.0001358548044807253, 7.303319109890875e-05, 0.00012549108262975626, 0.00016180525644596743, -8.976354858608515e-06, 5.738252293767161e-05, -9.017222640285693e-05, -7.30159165295134e-05, -7.025798221917848e-05, 8.840402398542738e-05, -6.884420943467394e-05, 6.531319032813745e-06, -2.802572193450519e-05, -2.17604964399847e-05, -0.00010194839287643152, 8.386328800012998e-06, 3.439239535914331e-05], [0.013389723973307533, 0.0009963683265665137, -0.004086670504485372, -0.0017491360082932726, -0.0012624021815138052, 0.00245199422024009, -0.0027319875245784965, 0.0011193519307093173, 0.0011221667330330513, 0.00015357764716498912, -0.0007854824593274271, 0.0011188724887455624, -0.0010160851598565066, 0.000246987736704419, 0.0001833913071040197, -0.00010422653890034793, -0.0003495994840921757, 0.0002909215995377948, 0.00037962158262960305, -0.00010527819890737332, 0.0004039897698814639, -9.588079480581139e-05, 0.0003169413838616039, -0.00013836846554074188, -0.00012121670610003216, -3.315789961333482e-05, 0.0001390341267549593, 7.74017248261422e-05, 7.831731372688376e-05, 7.560407673918631e-05], [-0.007243580035069736, 0.008604344976489143, -0.00205907066320984, -0.0006092617882939219, -0.0011722199923353378, 0.0021846637123525683, -0.0027324444953730725, -0.0002977896260437975, -0.0013564481981790887, -0.0010817847733582114, 0.0016705150088205955, 0.001387109556119223, -0.00036450219543551933, 0.0005065426718159336, -0.000736888021421175, -4.2928205757867306e-06, -0.000872150889792211, 0.0001204944416712592, 0.0006426073590699475, -0.0011167821491721956, 0.000145310656560174, -0.0003228067944473231, 0.0004395936584252285, -0.0003320180528277081, -8.406435532942149e-05, 7.125632243881829e-05, 8.416634305528816e-05, -0.00020243798887000853, -8.900524212174989e-05, -6.410735480352485e-05], [-0.00788030222227788, -0.00034550711288472977, -0.0005380727960069326, -0.00016405124664979357, 0.005224259260218345, 0.0027516502917201906, -0.0026759132035898397, -0.0035874882538895095, -0.0002920795577674144, -0.0013113791283701172, 0.0006312129637845276, -0.0007830921427323781, -0.002053141502112402, -0.0010624612675125752, 0.00014196052634501694, -0.0010362081853356568, -0.0003615739883257085, -4.842577515273325e-05, 0.0005026206737682727, 0.00024023470993943992, -0.0002799151985981112, 0.0003405253476750666, -0.0006598129543967338, -0.00012587175354805108, -1.0400923957794065e-06, 0.00015878265990983131, 0.00014906607992169955, -0.0007699393247915122, 0.0005589583198310705, 0.00010036057142069223], [-2.0202286066250918e-07, 8.726495792643598e-08, 1.763042121183385e-07, 1.612543165663279e-08, 3.107144763703211e-08, -5.3763645979642996e-08, 2.2716884373608032e-08, 8.008643703760737e-08, 8.775396054261344e-08, -4.035732104057379e-07, 6.23805007649024e-08, 2.2463575888309556e-08, -4.55542732424873e-08, -9.30676264943029e-08, 1.3080841654300428e-07, 2.598978454670936e-08, -2.1693646878873047e-09, -5.664527957804909e-09, 2.808762999961794e-08, 8.58987547758259e-08, -8.17368217553847e-08, 1.8653727806849887e-07, -1.1464833704621899e-07, 5.872581976262823e-09, -3.0418331675718877e-07, -2.453522256473656e-07, 3.0177076837389836e-07, -8.230014714172266e-08, -4.972222811261406e-08, -4.552483545694476e-08], [0.0004437765069491677, 0.007594261869671481, -0.0007139956491957114, 0.0010041259913807267, -0.0022436440986745654, 0.0017358204816521423, -0.0025117875818873154, 0.0016546038377680868, -0.0015624304408876563, -0.0020052217183608536, -0.0009007813400800687, 0.0009514848180108117, 0.0004250808644217765, -0.0002707974148908468, 0.0010022922044846544, -0.00027738334497743824, 9.306651876507134e-05, -0.0005094580985478584, -0.0007350733870773251, -0.000213897388473705, 0.0002444545143652984, -0.0008104943284585358, -0.0004831302223348713, -0.0002604238155863891, 0.0002724927462687048, -0.0003257105862887643, -9.866884391684374e-05, 7.145137966281638e-05, 0.00016862062213793768, -0.0003240509458642635], [0.0027562492510021168, 0.012335016005820654, -0.003454309560622333, -0.0015634117643799053, -0.0016603581341526536, 0.0005567849839551736, 0.0008634419762795547, 0.000548288263307248, -0.002413469090183062, 0.00028968109591149155, -0.0009187152378226606, -0.000448513906435304, 1.1590261787231421e-05, 1.6813635278257079e-06, 0.00019133632647842867, -0.0002278005456288646, 0.0003062197653046427, -7.269526380231178e-05, -0.0007336821483903886, -0.00017125392793910295, -7.029541266735397e-05, -0.00015374210060570075, -0.0002729902520564808, -0.00048251726149478537, 2.82913673521933e-05, 0.00034326169929999533, -0.0004260767096906322, 0.00016682964663783647, 0.0004630776078243202, -0.00018288150407323644], [-2.0202286066250918e-07, 8.726495792643598e-08, 1.763042121183385e-07, 1.612543165663279e-08, 3.107144763703211e-08, -5.3763645979642996e-08, 2.2716884373608032e-08, 8.008643703760737e-08, 8.775396054261344e-08, -4.035732104057379e-07, 6.23805007649024e-08, 2.2463575888309556e-08, -4.55542732424873e-08, -9.30676264943029e-08, 1.3080841654300428e-07, 2.598978454670936e-08, -2.1693646878873047e-09, -5.664527957804909e-09, 2.808762999961794e-08, 8.58987547758259e-08, -8.17368217553847e-08, 1.8653727806849887e-07, -1.1464833704621899e-07, 5.872581976262823e-09, -3.0418331675718877e-07, -2.453522256473656e-07, 3.0177076837389836e-07, -8.230014714172266e-08, -4.972222811261406e-08, -4.552483545694476e-08], [-0.012605415320901519, 0.0026724387314577404, -0.006790561192349983, -0.002824119978855003, 0.0008997980338980126, 0.0030040416203976667, -0.0007537686229690804, -0.0011909095289707, -0.0015883811677298452, -0.0006519274393523898, 0.00018219066740099101, 3.289054007462874e-05, -0.00027964247055648384, 0.00032952123157401934, 0.00026275692829669727, -0.0005335957172292367, -0.0001329109484517968, 0.00016691137132680004, 0.0001562867938146432, -5.198168864761092e-05, -1.900901914060131e-05, -8.721881635820581e-05, 8.832252965421808e-05, 0.0003022201514906176, 5.647869908510314e-05, 0.000133925975886617, 3.819851038114536e-05, 8.194089170531377e-05, -0.0003441230994634693, -0.0001295699372885996], [-0.017591351785931197, 0.004988374259790318, 0.007487514921420776, -0.004394683156237662, -0.00041571902988277474, -0.0018688951358844152, -0.000761573305214691, 0.0001474769787018454, 0.0004929180495670164, -1.4025535275066286e-05, -4.240331411825693e-05, -9.200695859850926e-05, -0.00017205879115852004, 6.018557249472254e-05, 0.00013697392216218679, 4.5092901124159525e-05, -6.016679195213813e-05, 0.00030861369371938685, 7.017521055439858e-05, 0.0001962617124954975, 0.00026912192699922764, 0.00015658496411519396, 2.185478816203029e-05, 0.0002467805285489291, -9.060614896842244e-05, -0.000200870235617808, -1.1388111177962341e-05, -1.3206716084811197e-05, -7.56554887543797e-05, 2.6004508413742584e-05], [0.0031701437492827386, 0.005268453901295497, -0.006351133319487929, 0.0018124663987848005, -0.002364295524989062, -0.0020185104664878703, 0.0009428509741701296, 0.0006865736025972261, 0.0010175591521443003, 0.0003964391734005142, 0.0003168123695041604, -0.0008157043420567509, -0.00020263389902375824, -6.169335719365075e-05, 0.00013370550913448866, -7.315141144826164e-05, -0.0003547672309314877, -0.00015314850760440125, -3.0016046807465498e-05, 0.0001027732877422766, -4.980231498657887e-06, 0.0001485855827591556, -0.0001297172732868817, 0.00019446363226488568, 0.00014382257432822858, -0.0002760638599387242, -1.7734409486167586e-05, 5.876259873237946e-05, -4.547954035903547e-05, -0.0001359356663445177], [0.001948784396780893, 0.010500678304864166, 0.008815167446243662, 0.0014970109965008554, -0.0021880375374166306, -0.0007359431742227601, -0.0011198652745085856, 0.0007646514782015397, 0.0006032991717731722, -0.0002380786612966294, -0.00048384201027297795, -0.0002601013195239892, 0.0005074606414233667, 0.001261884740322387, -0.0008529280913783227, 0.0001836392061768868, -0.0006149708509434023, -0.00038348972969929506, 0.0003030472688103149, 0.0003476845279580131, 0.00036159051830618883, -0.00013488322964230862, -0.0003725670022770038, 0.0003991588262943467, 0.000132212368800995, -0.0003622439678308314, -0.0003014593485661657, 0.00018194096637811038, 1.1263071101274116e-06, -0.0003963356793475883], [0.014792871429938353, 0.0004800881564650138, 0.0012020621893774955, 6.587699674498817e-05, -0.001660671788957417, -0.00280330050348995, -9.737564366749996e-05, -0.0010027208388327245, 0.0004500672209168, -0.00033781073310858655, -0.0016692160334349866, 0.001001903902201956, 0.0009700314595725715, -0.0005912680163265244, -0.0013657781059486554, -0.0011927683539795573, 6.23440242483082e-05, -0.00021226778367884196, -0.0004659611023408666, 0.0004183708734732286, -0.00022569248582488105, 3.6781680508175554e-07, 0.00027409378105234036, 6.421642115098205e-05, -9.607291226603033e-05, 3.941852328003231e-05, 0.00026312179080700235, -0.0004517824711266749, 0.00012170927004592918, 0.0001789688614519428], [-2.0202286066250918e-07, 8.726495792643598e-08, 1.763042121183385e-07, 1.612543165663279e-08, 3.107144763703211e-08, -5.3763645979642996e-08, 2.2716884373608032e-08, 8.008643703760737e-08, 8.775396054261344e-08, -4.035732104057379e-07, 6.23805007649024e-08, 2.2463575888309556e-08, -4.55542732424873e-08, -9.30676264943029e-08, 1.3080841654300428e-07, 2.598978454670936e-08, -2.1693646878873047e-09, -5.664527957804909e-09, 2.808762999961794e-08, 8.58987547758259e-08, -8.17368217553847e-08, 1.8653727806849887e-07, -1.1464833704621899e-07, 5.872581976262823e-09, -3.0418331675718877e-07, -2.453522256473656e-07, 3.0177076837389836e-07, -8.230014714172266e-08, -4.972222811261406e-08, -4.552483545694476e-08], [-0.01613088747815505, -0.007953855750240862, -0.00220018928610349, -0.0017689035027317478, 0.0027748670924546506, 0.0017079236134299473, 0.0003979918538430954, 0.000536934140608921, 0.00014704036401641134, 7.378207781501365e-05, 0.0006575177544044256, -0.0006210692966107874, -0.00021493110627392032, 0.0003578880747228425, -0.00047692703437844305, 0.00015279309040234018, -0.00024676104947836034, -3.662223555279602e-05, -0.0007870765651053806, 0.0007121673222019866, 1.9816235379693025e-06, -0.00023337756060423938, 0.00013692230815169924, -0.000403111833025739, 0.00010059204539434699, -0.00012009607423003601, 5.6430663077119796e-05, 4.297646244261864e-05, 1.5433007895054137e-05, -0.00019327006937392316], [-2.0202286066250918e-07, 8.726495792643598e-08, 1.763042121183385e-07, 1.612543165663279e-08, 3.107144763703211e-08, -5.3763645979642996e-08, 2.2716884373608032e-08, 8.008643703760737e-08, 8.775396054261344e-08, -4.035732104057379e-07, 6.23805007649024e-08, 2.2463575888309556e-08, -4.55542732424873e-08, -9.30676264943029e-08, 1.3080841654300428e-07, 2.598978454670936e-08, -2.1693646878873047e-09, -5.664527957804909e-09, 2.808762999961794e-08, 8.58987547758259e-08, -8.17368217553847e-08, 1.8653727806849887e-07, -1.1464833704621899e-07, 5.872581976262823e-09, -3.0418331675718877e-07, -2.453522256473656e-07, 3.0177076837389836e-07, -8.230014714172266e-08, -4.972222811261406e-08, -4.552483545694476e-08], [-0.005602265657756007, -0.003332291172970356, 0.0006294835312782518, 0.0019307923466743478, -0.0013460938125996738, 0.00032870996301242073, 0.000213868263130635, 3.9371636745744015e-05, -0.00035370494540223175, -0.0002911715769789832, -0.00019938534877396888, 4.117670493154207e-06, -9.074399191002616e-05, -7.162519320129412e-05, -0.00010309664694692644, 7.057986740507812e-05, -0.00014879403737452283, -3.9510135182075616e-05, 4.790049271686575e-05, -1.0339548399531773e-05, -4.555543406753149e-05, 1.664031375349819e-05, -4.890801838007611e-05, 8.290912637390827e-06, 1.0313312683862991e-05, 1.691797250227336e-05, -4.201520129909617e-05, 3.485766906215433e-05, -8.87083810552266e-06, 7.074880290195808e-05], [0.009693618038571597, 0.01092652778502055, -0.002125480218094718, 0.001136613878253058, -0.0029919025262300693, 0.0019915485339695184, -0.002465827600810275, 0.0013996053678882864, 0.0005780837116391144, 0.0003557687317737377, 0.0010961233976057641, 0.0009066385731101752, -0.00046015394747978407, 0.00036789137381032587, -0.00016186899799225293, -0.0003190212772938599, -0.0008375769653128965, -0.00021257016137072514, 0.00015491249650641058, -0.0003549700442770472, -3.071144968611961e-05, 3.681397142542634e-05, 0.00022276766983824318, -0.0005461886734565751, 0.000121949907321909, 0.00015799778256936554, -0.00028690865236863475, -3.094604171243653e-05, 2.3780769703693427e-05, -0.000355378509575335], [-0.00744989472948805, 0.01749598361303634, 0.006182489376750968, -0.003235360538532959, -0.0009766711160244302, -0.0016110114106905177, -0.0011473506615826393, 0.0004205460247399008, 0.0007239941742049639, -0.0004582559749449625, -0.00016615816143154084, -0.001605350801185879, 0.00012010070584437181, -0.00038248566855921467, -0.00012040409485561458, -0.000109634800530386, -0.0005731708760524745, -0.00019164055510684943, -0.00010940934611897496, -4.0650291096778e-05, 1.700861906450822e-06, 8.662585627989415e-05, 3.487953544248682e-05, 3.453496701082578e-05, -0.00021756034746538356, 8.974419035900521e-05, 0.00010108436022605017, 0.00047483065092958175, 0.00024221648831442447, -0.00019081830500685185], [-0.004578159977640866, 0.007525368542047279, 0.0017799775592988484, -0.0013720375022627958, -0.001707359244877489, 0.0050124284574937315, 0.00032398694128324364, -0.0013696004572078472, 0.00037846201555867055, -0.0009342036547073382, 0.0012662386442248146, 2.665777803494291e-05, -0.000328652425755293, -0.0008460584083656768, -0.00029474513344371274, 0.0003259037461656189, 0.00044692372881742937, 0.0002547290601438907, 0.000191912926732457, -3.889300317079257e-05, -0.0005252018185054674, -0.000167853459095774, -0.00024132193972244118, 0.00018636948282488536, 0.00039516944965054635, 0.00030960594779240805, 0.00027287047343347714, -0.00042118263561162625, 0.00021201701579943075, 0.00021966732557161705], [-2.0202286066250918e-07, 8.726495792643598e-08, 1.763042121183385e-07, 1.612543165663279e-08, 3.107144763703211e-08, -5.3763645979642996e-08, 2.2716884373608032e-08, 8.008643703760737e-08, 8.775396054261344e-08, -4.035732104057379e-07, 6.23805007649024e-08, 2.2463575888309556e-08, -4.55542732424873e-08, -9.30676264943029e-08, 1.3080841654300428e-07, 2.598978454670936e-08, -2.1693646878873047e-09, -5.664527957804909e-09, 2.808762999961794e-08, 8.58987547758259e-08, -8.17368217553847e-08, 1.8653727806849887e-07, -1.1464833704621899e-07, 5.872581976262823e-09, -3.0418331675718877e-07, -2.453522256473656e-07, 3.0177076837389836e-07, -8.230014714172266e-08, -4.972222811261406e-08, -4.552483545694476e-08], [0.027155940647475296, -0.004410796258441798, 0.002181254929998829, -0.0015226700895055617, 0.0011981751014891562, -0.001618373503779995, 0.00033389559513997724, -0.0006951965960091009, -0.0008484121093057344, -4.9585027903460806e-05, 0.0010466295458199776, -3.526251687343673e-06, 0.0005933480398087041, 5.5049691310458905e-05, 0.00014928698225604936, -0.0003178636205023605, 0.0001823542904583144, 1.9539162947617856e-05, 0.00020780322822331457, 0.00017322874567081122, -0.00016229967670939246, -0.00027186791183861635, 0.00023471418951625695, 0.00011123693687548083, 0.00010460163858871298, 5.6732949556531554e-05, 4.3044336113027354e-05, 6.148975915677273e-05, 1.6979052491629537e-05, -0.00020515225190730887], [-2.0202286066250918e-07, 8.726495792643598e-08, 1.763042121183385e-07, 1.612543165663279e-08, 3.107144763703211e-08, -5.3763645979642996e-08, 2.2716884373608032e-08, 8.008643703760737e-08, 8.775396054261344e-08, -4.035732104057379e-07, 6.23805007649024e-08, 2.2463575888309556e-08, -4.55542732424873e-08, -9.30676264943029e-08, 1.3080841654300428e-07, 2.598978454670936e-08, -2.1693646878873047e-09, -5.664527957804909e-09, 2.808762999961794e-08, 8.58987547758259e-08, -8.17368217553847e-08, 1.8653727806849887e-07, -1.1464833704621899e-07, 5.872581976262823e-09, -3.0418331675718877e-07, -2.453522256473656e-07, 3.0177076837389836e-07, -8.230014714172266e-08, -4.972222811261406e-08, -4.552483545694476e-08], [-2.0202286066250918e-07, 8.726495792643598e-08, 1.763042121183385e-07, 1.612543165663279e-08, 3.107144763703211e-08, -5.3763645979642996e-08, 2.2716884373608032e-08, 8.008643703760737e-08, 8.775396054261344e-08, -4.035732104057379e-07, 6.23805007649024e-08, 2.2463575888309556e-08, -4.55542732424873e-08, -9.30676264943029e-08, 1.3080841654300428e-07, 2.598978454670936e-08, -2.1693646878873047e-09, -5.664527957804909e-09, 2.808762999961794e-08, 8.58987547758259e-08, -8.17368217553847e-08, 1.8653727806849887e-07, -1.1464833704621899e-07, 5.872581976262823e-09, -3.0418331675718877e-07, -2.453522256473656e-07, 3.0177076837389836e-07, -8.230014714172266e-08, -4.972222811261406e-08, -4.552483545694476e-08], [-2.0202286066250918e-07, 8.726495792643598e-08, 1.763042121183385e-07, 1.612543165663279e-08, 3.107144763703211e-08, -5.3763645979642996e-08, 2.2716884373608032e-08, 8.008643703760737e-08, 8.775396054261344e-08, -4.035732104057379e-07, 6.23805007649024e-08, 2.2463575888309556e-08, -4.55542732424873e-08, -9.30676264943029e-08, 1.3080841654300428e-07, 2.598978454670936e-08, -2.1693646878873047e-09, -5.664527957804909e-09, 2.808762999961794e-08, 8.58987547758259e-08, -8.17368217553847e-08, 1.8653727806849887e-07, -1.1464833704621899e-07, 5.872581976262823e-09, -3.0418331675718877e-07, -2.453522256473656e-07, 3.0177076837389836e-07, -8.230014714172266e-08, -4.972222811261406e-08, -4.552483545694476e-08], [0.03286078612173464, -0.006395988068163546, -0.0015504680339474826, -0.003340911466425173, 0.0012319541976747804, -0.0027290269598910987, -0.0014321765988332446, -0.002249564926314067, 0.00024932143758612244, -0.0008515470466085896, -7.950986641789995e-05, -0.0004586575086627175, 0.0004861687423114343, 0.00029527719976477784, -0.00045832265724361353, 0.0008564318313650071, -0.0001640157025233899, 0.00013896482240142064, 3.213604552591382e-05, -0.00015253465807877893, -5.2063328368979834e-05, -0.00047189658588945075, -6.850184289547788e-05, -8.493768011736007e-05, 0.00027655254139773443, 0.00017625142944198598, -0.0002807852174810592, 0.0001286519065518814, -9.239987063448408e-05, 3.113209851848552e-05], [0.0252931524767569, 0.002166219100976622, -0.0017560416822354297, -0.002021136345063253, 0.0022311553788522073, 0.00044859972890967653, 0.0005136764855793169, 0.0006194300320657053, -0.00024251903364102263, -0.00025064080805972536, -7.447399976998256e-05, -2.3994709212729354e-05, 0.0004798304633730613, 0.0002737427975881162, 0.00015073174074676645, 7.189152160545229e-05, -2.4793711906610846e-05, 0.00010796864170310625, 0.00011773903241735869, 6.612249388606147e-05, -4.005177327828153e-05, 0.00033597732855701514, -0.00012181438783766905, -0.00015255193134194672, -0.00016587302413658412, -0.00042396032030548507, -3.0062304917699676e-06, -0.00026206917284471703, 9.101319810642661e-05, 0.0002683229632281261], [0.020445657604270053, 0.013426225726497435, 0.0024067546543848277, 0.0020995440161444535, -0.0006805807242056962, 0.0011921298929940764, -0.0009851652243204688, 0.0022136497711385777, 0.0030799745646956146, -0.0007474471944400706, 0.0016817675723220966, 0.00039387968826551064, 2.8545208775098717e-06, 0.0007303872424311878, -0.0007782045653606241, 0.001078903629640927, -0.0012327096360094517, -0.000667635843461249, -4.8400344627434824e-06, -0.001528909516817199, -0.0005954051842445135, -7.483435396010706e-05, 0.0007186360921650137, -0.0011837824358568612, -0.00022728837411317964, 0.0002879745432663372, -0.0004382710931239876, -4.283469493224198e-05, -0.0007458121424826692, -0.00028057165976164974]], "bgmm_covariances": [[4.4282906964668116e-05, 1.660333331419951e-05, 9.061933558014256e-06, 5.130161835455885e-06, 5.441230922676019e-06, 4.9748432761817284e-06, 2.25940710669637e-06, 2.4557175898672315e-06, 2.0088905523516677e-06, 2.1751880440228155e-06, 2.024123979972543e-06, 1.4330790798663763e-06, 1.5697342475524076e-06, 1.5441502112766163e-06, 1.1753630585001565e-06, 1.2397266523055856e-06, 1.3074445516648223e-06, 1.0976964776843219e-06, 1.0781523074919777e-06, 1.1140528571240296e-06, 1.0124168161858404e-06, 1.0082154648747514e-06, 9.927684866108546e-07, 9.89326710059653e-07, 1.0145346097066377e-06, 9.332188864298309e-07, 1.0237931781640695e-06, 1.0328672526062324e-06, 1.0012565266689152e-06, 9.420191913725638e-07], [4.454840783874436e-05, 1.2258172252646171e-05, 9.112202354601037e-06, 2.74170115030188e-06, 1.974692938098379e-06, 2.6260437746435685e-06, 2.071308870189803e-06, 2.4119793814837354e-06, 1.408926377478849e-06, 1.2490121175961344e-06, 1.1128333081412733e-06, 1.1053179779281316e-06, 9.92384268527354e-07, 1.0976316996361175e-06, 1.00838205613198e-06, 9.465156800501332e-07, 8.70801872473345e-07, 1.0760380989505352e-06, 8.67936562635666e-07, 8.710372213139454e-07, 8.633110701515132e-07, 9.49041068074164e-07, 8.375918198016808e-07, 7.827029728349943e-07, 1.0048973941263553e-06, 7.844732855401883e-07, 7.884042331220881e-07, 7.687758486089989e-07, 7.498473627780221e-07, 7.540113331177482e-07], [9.267008805289119e-06, 2.7400009069528482e-06, 7.921892477484227e-07, 6.287948772211245e-07, 7.083143188439037e-07, 2.1614110692704394e-06, 3.219802401759072e-07, 4.089511404593696e-07, 3.110382283548776e-07, 2.9507687392246854e-07, 2.730349242303778e-07, 2.8392613985891497e-07, 3.3120503788014284e-07, 2.4242642415512194e-07, 2.655240904667545e-07, 2.3643544042621146e-07, 2.3584081255058085e-07, 2.6144706083884614e-07, 2.3252742938216054e-07, 2.4843850074110685e-07, 2.6259984725051006e-07, 2.4079278516284607e-07, 2.230979033079954e-07, 2.3015388528656008e-07, 2.5693884138080553e-07, 2.1630396390875052e-07, 2.3144271857450722e-07, 2.3831689568169396e-07, 2.3108898834986073e-07, 2.188301615269298e-07], [1.5217215936634262e-05, 1.5322301253851526e-05, 6.918572687652013e-06, 3.513287940402897e-06, 3.3885723667193164e-06, 5.230281158652991e-06, 2.4846873403328453e-06, 1.6578564964626252e-06, 1.8732043113293095e-06, 1.3724793786761099e-06, 1.4715909466138308e-06, 1.5707387001739588e-06, 1.350237954003237e-06, 1.1741004160787022e-06, 1.2384349706233494e-06, 1.1582181780457005e-06, 1.2142576164075907e-06, 1.0638521514341839e-06, 9.722742754063293e-07, 1.001855556105136e-06, 8.911926669325244e-07, 9.290278338473213e-07, 9.046380122754795e-07, 9.439946291000181e-07, 9.004579482015987e-07, 8.197494274554259e-07, 8.680786799428702e-07, 8.707719846506403e-07, 8.07464861852001e-07, 8.140513712261598e-07], [1.6293238702350395e-05, 1.959983781459432e-06, 6.707341569298731e-07, 4.937599689840741e-07, 3.6926515238694515e-07, 3.851978346700404e-07, 1.7636362621773109e-07, 1.4981370759598232e-07, 1.3905355720361714e-07, 1.0916957436565023e-07, 2.0629604203263086e-07, 1.0446276562405677e-07, 9.853223869840238e-08, 1.6321202992439492e-07, 1.1132003537330465e-07, 8.565306866062039e-08, 8.521682573921555e-08, 7.864324474126566e-08, 9.119693829985727e-08, 8.361281125304993e-08, 6.976175374266155e-08, 6.900524421578928e-08, 6.962751530628107e-08, 7.052694510008316e-08, 7.042725802956777e-08, 6.881176636842243e-08, 6.775201354936723e-08, 7.017307892002349e-08, 6.626860932719008e-08, 6.624760371406e-08], [7.339402287343818e-06, 4.4113145952342945e-06, 5.967009422841022e-07, 7.885495394749561e-07, 3.0104097461618496e-07, 2.3390354665027436e-07, 1.4882851216530588e-07, 1.255308874575023e-07, 1.1556690492443871e-07, 1.0325626586662822e-07, 9.981424131618199e-08, 8.990547795177187e-08, 8.456333149928882e-08, 1.1449809727896597e-07, 7.796159862284537e-08, 8.342567096934362e-08, 7.366247698569697e-08, 8.066008348914271e-08, 7.343537634660756e-08, 7.495137161237379e-08, 7.840104877090601e-08, 7.382376755889415e-08, 7.01230307577999e-08, 6.857831710411004e-08, 6.866166345287808e-08, 6.973801516575682e-08, 7.67828460010966e-08, 6.855745278775695e-08, 6.700320794013231e-08, 6.750671736833314e-08], [1.0900744920521884e-05, 8.843492728683443e-06, 8.584588965598037e-07, 5.71094243297473e-07, 1.17711259477456e-06, 2.690836204633196e-07, 3.7181301345647343e-07, 2.1442076687888926e-07, 1.834432132509771e-07, 2.598817886314255e-07, 1.7019573997430743e-07, 1.545006895671596e-07, 2.212533864259298e-07, 1.784179908634702e-07, 1.5689903910608743e-07, 1.5144184907715583e-07, 2.0916571723412934e-07, 1.4945344002159668e-07, 1.306576864313842e-07, 1.392701155773447e-07, 1.7069224412807026e-07, 1.5270297582679297e-07, 1.2494949950058247e-07, 1.2528598421722784e-07, 1.3315324284275184e-07, 1.2801594147198105e-07, 1.3051663437630508e-07, 1.2378028773652873e-07, 1.2355322859945832e-07, 1.2202391034774368e-07], [2.277073434344711e-05, 6.032436997308413e-06, 1.100336038320386e-06, 8.309265586641151e-07, 4.2242969745926e-07, 6.321315873515106e-07, 3.696678120184095e-07, 5.187900397382733e-07, 2.475123925563001e-07, 2.866718654495965e-07, 2.5706596275678945e-07, 3.158584355355281e-07, 2.6753122051226773e-07, 2.3876156446307006e-07, 2.3196446352112096e-07, 2.7496441001360756e-07, 2.3163707970708682e-07, 2.2055640412555804e-07, 2.4962645774999326e-07, 2.278500253450035e-07, 2.1568660513421895e-07, 2.0915355769881754e-07, 2.091014544128165e-07, 2.312178956714837e-07, 2.036001560006036e-07, 2.0259580946937867e-07, 2.2123378434723964e-07, 2.021255021162518e-07, 2.0184645730155218e-07, 1.9600207662238493e-07], [4.3353967507966216e-05, 1.1971909797171947e-05, 8.85354494799864e-06, 3.6941035129930034e-06, 2.669516503769093e-06, 3.0258545161954883e-06, 1.871456513882381e-06, 2.2164013540382746e-06, 1.901997819869825e-06, 1.2931775997053247e-06, 1.410944505147782e-06, 1.4487411562696913e-06, 1.274225769387458e-06, 1.2558981553488013e-06, 1.17470621161753e-06, 1.1625133175182739e-06, 1.0406505726291527e-06, 1.077875804010281e-06, 9.925951621937912e-07, 9.086055904414825e-07, 8.661117895078293e-07, 9.530470227982507e-07, 9.342458517676025e-07, 8.45984421926891e-07, 8.534728642388994e-07, 8.157262735198735e-07, 8.022230163327202e-07, 7.926512806954398e-07, 8.600395330040955e-07, 8.149794583706428e-07], [4.054422952190092e-05, 1.0453381773660345e-05, 3.582380920285907e-06, 2.3127627412463985e-06, 3.922675034469475e-06, 2.587557011205907e-06, 1.831055219436774e-06, 2.8302278903474514e-06, 1.4411955299232662e-06, 1.2273724362353185e-06, 1.3839913188417941e-06, 1.1886697854551863e-06, 1.592990762341709e-06, 1.0400115827875497e-06, 1.1792691672618604e-06, 1.0348083256119413e-06, 1.0783849431187977e-06, 1.015817504957726e-06, 9.721253010715435e-07, 9.775445967487222e-07, 9.972240319600631e-07, 9.840340657849637e-07, 1.0441077629353009e-06, 8.958390447500121e-07, 8.951722061248019e-07, 9.062650343780773e-07, 8.840061280059483e-07, 8.809911744683268e-07, 8.564870910217772e-07, 8.794610412370853e-07], [7.568478273848691e-06, 1.757623855761873e-06, 5.493837913187842e-07, 2.636865550205888e-07, 2.080367570063876e-07, 1.5936454171120817e-07, 7.3557877537193e-08, 5.769772618198968e-08, 5.2943706426352406e-08, 3.233930480443336e-08, 2.917438450822381e-08, 2.7205963230396032e-08, 1.9158299361758277e-08, 1.8330500021572103e-08, 1.5066326379080006e-08, 1.4266904220979461e-08, 1.140692423480997e-08, 9.90553701285542e-09, 9.231644071405827e-09, 7.988667978982824e-09, 7.22558487116968e-09, 6.950754993795345e-09, 5.981393750668528e-09, 5.767085535050453e-09, 4.7585160700692366e-09, 4.181505156945375e-09, 3.746216492572858e-09, 3.676864442544151e-09, 3.3366741073830306e-09, 3.151158978198583e-09], [1.0256534534404293e-05, 1.345294957294076e-05, 5.626396653007374e-06, 2.021220625123982e-06, 1.2645905538085536e-06, 2.2761894117361446e-06, 1.5424531187988677e-06, 1.825108861584948e-06, 1.1829481040684902e-06, 1.2658557334802254e-06, 9.92371439465122e-07, 9.283611126297862e-07, 8.866438437153716e-07, 9.294862839764946e-07, 1.1298489131074273e-06, 8.045705923446246e-07, 8.491814518169295e-07, 8.287521594719146e-07, 8.638288685597686e-07, 7.724848012270032e-07, 7.424299673582564e-07, 7.706665894466169e-07, 7.666649550313136e-07, 6.987515408443335e-07, 7.491671991045372e-07, 6.664278402799379e-07, 6.812563385866919e-07, 7.360760177377737e-07, 6.7138520117701e-07, 6.642668042464872e-07], [7.856097371139528e-06, 1.652932573774493e-05, 2.0188264922378126e-06, 3.242756574710988e-07, 5.822323582472952e-07, 3.1882527302777687e-07, 1.4378902199148112e-07, 1.260087242900944e-07, 2.0952451091105423e-07, 1.0042677392380613e-07, 1.304333140327403e-07, 2.1334046784536485e-07, 1.0208856759891881e-07, 9.714963068346576e-08, 1.1854778928368106e-07, 8.642191853249926e-08, 8.98066592432079e-08, 7.343229991617861e-08, 7.96601662382603e-08, 7.736388283591287e-08, 6.935948649839675e-08, 8.553598428425761e-08, 6.892256270853762e-08, 8.569106873193199e-08, 6.878241721617107e-08, 7.952973737002253e-08, 6.634513276644605e-08, 7.488143815916717e-08, 7.021169897314035e-08, 6.66298583841752e-08], [7.568478273848691e-06, 1.757623855761873e-06, 5.493837913187842e-07, 2.636865550205888e-07, 2.080367570063876e-07, 1.5936454171120817e-07, 7.3557877537193e-08, 5.769772618198968e-08, 5.2943706426352406e-08, 3.233930480443336e-08, 2.917438450822381e-08, 2.7205963230396032e-08, 1.9158299361758277e-08, 1.8330500021572103e-08, 1.5066326379080006e-08, 1.4266904220979461e-08, 1.140692423480997e-08, 9.90553701285542e-09, 9.231644071405827e-09, 7.988667978982824e-09, 7.22558487116968e-09, 6.950754993795345e-09, 5.981393750668528e-09, 5.767085535050453e-09, 4.7585160700692366e-09, 4.181505156945375e-09, 3.746216492572858e-09, 3.676864442544151e-09, 3.3366741073830306e-09, 3.151158978198583e-09], [1.9817773551604e-05, 8.414847761066721e-06, 4.6233104468121405e-06, 2.2353890733935767e-06, 2.743662514281255e-06, 1.3008129005841056e-06, 2.367033570219741e-06, 1.456800156523783e-06, 1.2693488850790026e-06, 9.75410035766103e-07, 9.327936274673308e-07, 9.027823610320122e-07, 1.0899319532852188e-06, 9.248568371809374e-07, 6.557842983093165e-07, 7.099871456364874e-07, 7.003923198660247e-07, 6.897849843732925e-07, 7.466171739308221e-07, 7.284705511573011e-07, 6.809952938101686e-07, 6.690862174566521e-07, 6.332856066530107e-07, 6.377446442400335e-07, 6.203212167505988e-07, 6.27701351930971e-07, 6.4298577614374e-07, 6.292523692810128e-07, 6.436121220854199e-07, 5.960130076665402e-07], [7.568478273848691e-06, 1.757623855761873e-06, 5.493837913187842e-07, 2.636865550205888e-07, 2.080367570063876e-07, 1.5936454171120817e-07, 7.3557877537193e-08, 5.769772618198968e-08, 5.2943706426352406e-08, 3.233930480443336e-08, 2.917438450822381e-08, 2.7205963230396032e-08, 1.9158299361758277e-08, 1.8330500021572103e-08, 1.5066326379080006e-08, 1.4266904220979461e-08, 1.140692423480997e-08, 9.90553701285542e-09, 9.231644071405827e-09, 7.988667978982824e-09, 7.22558487116968e-09, 6.950754993795345e-09, 5.981393750668528e-09, 5.767085535050453e-09, 4.7585160700692366e-09, 4.181505156945375e-09, 3.746216492572858e-09, 3.676864442544151e-09, 3.3366741073830306e-09, 3.151158978198583e-09], [9.751331117253167e-06, 6.142426832469576e-06, 1.174870414759346e-06, 5.384295995608368e-07, 3.9492211103492685e-07, 3.1634008186146714e-07, 2.4035381646076536e-07, 1.6098997669796987e-07, 1.7206218385907497e-07, 1.326655538022999e-07, 1.509654353415411e-07, 1.697384023479387e-07, 2.0458361089615907e-07, 1.178559075400569e-07, 1.5367350323365706e-07, 1.276985463258641e-07, 1.0360913783064026e-07, 1.142992818203893e-07, 1.2773282234599945e-07, 1.4256744369980377e-07, 1.1148161301366128e-07, 1.071819726421136e-07, 9.916432152970287e-08, 1.0744001308673932e-07, 1.2502286394025665e-07, 9.912670456753264e-08, 9.742054738722431e-08, 1.0399392383224511e-07, 9.775819221181736e-08, 9.68392691482894e-08], [7.568478273848691e-06, 1.757623855761873e-06, 5.493837913187842e-07, 2.636865550205888e-07, 2.080367570063876e-07, 1.5936454171120817e-07, 7.3557877537193e-08, 5.769772618198968e-08, 5.2943706426352406e-08, 3.233930480443336e-08, 2.917438450822381e-08, 2.7205963230396032e-08, 1.9158299361758277e-08, 1.8330500021572103e-08, 1.5066326379080006e-08, 1.4266904220979461e-08, 1.140692423480997e-08, 9.90553701285542e-09, 9.231644071405827e-09, 7.988667978982824e-09, 7.22558487116968e-09, 6.950754993795345e-09, 5.981393750668528e-09, 5.767085535050453e-09, 4.7585160700692366e-09, 4.181505156945375e-09, 3.746216492572858e-09, 3.676864442544151e-09, 3.3366741073830306e-09, 3.151158978198583e-09], [7.568478273848691e-06, 1.757623855761873e-06, 5.493837913187842e-07, 2.636865550205888e-07, 2.080367570063876e-07, 1.5936454171120817e-07, 7.3557877537193e-08, 5.769772618198968e-08, 5.2943706426352406e-08, 3.233930480443336e-08, 2.917438450822381e-08, 2.7205963230396032e-08, 1.9158299361758277e-08, 1.8330500021572103e-08, 1.5066326379080006e-08, 1.4266904220979461e-08, 1.140692423480997e-08, 9.90553701285542e-09, 9.231644071405827e-09, 7.988667978982824e-09, 7.22558487116968e-09, 6.950754993795345e-09, 5.981393750668528e-09, 5.767085535050453e-09, 4.7585160700692366e-09, 4.181505156945375e-09, 3.746216492572858e-09, 3.676864442544151e-09, 3.3366741073830306e-09, 3.151158978198583e-09], [7.568478273848691e-06, 1.757623855761873e-06, 5.493837913187842e-07, 2.636865550205888e-07, 2.080367570063876e-07, 1.5936454171120817e-07, 7.3557877537193e-08, 5.769772618198968e-08, 5.2943706426352406e-08, 3.233930480443336e-08, 2.917438450822381e-08, 2.7205963230396032e-08, 1.9158299361758277e-08, 1.8330500021572103e-08, 1.5066326379080006e-08, 1.4266904220979461e-08, 1.140692423480997e-08, 9.90553701285542e-09, 9.231644071405827e-09, 7.988667978982824e-09, 7.22558487116968e-09, 6.950754993795345e-09, 5.981393750668528e-09, 5.767085535050453e-09, 4.7585160700692366e-09, 4.181505156945375e-09, 3.746216492572858e-09, 3.676864442544151e-09, 3.3366741073830306e-09, 3.151158978198583e-09], [1.4258227243746516e-05, 9.823484946113708e-06, 3.096297239342222e-06, 2.658708485495956e-06, 4.073802952444395e-06, 1.1866137201061906e-06, 7.345068413939323e-07, 7.626381745886804e-07, 9.561711999500521e-07, 1.1038471463175396e-06, 7.304739821545294e-07, 6.442463730946927e-07, 8.942974920610181e-07, 6.762100619247221e-07, 6.534031286676133e-07, 6.19236580947204e-07, 6.203293969149127e-07, 6.068662786487178e-07, 5.688068511899044e-07, 5.673067702867536e-07, 5.389091355177113e-07, 5.17164644840374e-07, 4.870229834543886e-07, 5.014630045931747e-07, 5.883786006800794e-07, 5.212125367212722e-07, 5.137535091697477e-07, 4.940699170335875e-07, 4.902771319840769e-07, 4.923755583750988e-07], [7.568478273848691e-06, 1.757623855761873e-06, 5.493837913187842e-07, 2.636865550205888e-07, 2.080367570063876e-07, 1.5936454171120817e-07, 7.3557877537193e-08, 5.769772618198968e-08, 5.2943706426352406e-08, 3.233930480443336e-08, 2.917438450822381e-08, 2.7205963230396032e-08, 1.9158299361758277e-08, 1.8330500021572103e-08, 1.5066326379080006e-08, 1.4266904220979461e-08, 1.140692423480997e-08, 9.90553701285542e-09, 9.231644071405827e-09, 7.988667978982824e-09, 7.22558487116968e-09, 6.950754993795345e-09, 5.981393750668528e-09, 5.767085535050453e-09, 4.7585160700692366e-09, 4.181505156945375e-09, 3.746216492572858e-09, 3.676864442544151e-09, 3.3366741073830306e-09, 3.151158978198583e-09], [7.568478273848691e-06, 1.757623855761873e-06, 5.493837913187842e-07, 2.636865550205888e-07, 2.080367570063876e-07, 1.5936454171120817e-07, 7.3557877537193e-08, 5.769772618198968e-08, 5.2943706426352406e-08, 3.233930480443336e-08, 2.917438450822381e-08, 2.7205963230396032e-08, 1.9158299361758277e-08, 1.8330500021572103e-08, 1.5066326379080006e-08, 1.4266904220979461e-08, 1.140692423480997e-08, 9.90553701285542e-09, 9.231644071405827e-09, 7.988667978982824e-09, 7.22558487116968e-09, 6.950754993795345e-09, 5.981393750668528e-09, 5.767085535050453e-09, 4.7585160700692366e-09, 4.181505156945375e-09, 3.746216492572858e-09, 3.676864442544151e-09, 3.3366741073830306e-09, 3.151158978198583e-09], [2.401459037890701e-05, 2.257736235271088e-05, 7.006337192043652e-06, 5.4917779166077915e-06, 3.964511304563662e-06, 4.8875776162680145e-06, 2.69140766729299e-06, 2.965217777749906e-06, 2.86681081287788e-06, 1.9390974464001604e-06, 1.963965913828988e-06, 1.694739287087561e-06, 1.4648975112933683e-06, 1.4538018563651e-06, 1.4823325283500317e-06, 1.4105819478266528e-06, 1.369465226643271e-06, 1.1905925075488203e-06, 1.1424167038210652e-06, 1.1252660312313397e-06, 1.1640410120664587e-06, 1.130442892084798e-06, 1.0968398528135416e-06, 1.074524571255791e-06, 1.0839762958404985e-06, 1.0339933340680302e-06, 1.0390467091111528e-06, 1.0297718723473291e-06, 1.0310352335361847e-06, 1.0556075978953136e-06], [2.9844215729174952e-05, 2.0110106860970385e-06, 3.1645386472750126e-06, 4.745597192853803e-07, 9.136494383525606e-07, 4.1782585629322717e-07, 7.746536239645767e-07, 5.42036472361587e-07, 5.36300588938204e-07, 2.696790604547257e-07, 3.1054407876919194e-07, 3.645853152347534e-07, 2.9375404633405667e-07, 2.757704401700468e-07, 2.3705757131198871e-07, 3.252666111981081e-07, 2.3216278843992513e-07, 2.470221813414992e-07, 2.2771285318536844e-07, 2.156396870600121e-07, 2.2994570658928218e-07, 2.621643651094671e-07, 2.898982505799021e-07, 2.3370928787472976e-07, 2.2319443083174557e-07, 2.3385645109759765e-07, 1.9901239965142824e-07, 2.289278678805565e-07, 2.2661640829406156e-07, 2.075510045923134e-07], [2.0363362490392867e-05, 1.151414915945303e-05, 4.806003831409436e-06, 2.1327602310131497e-06, 3.2132589929489074e-06, 1.8405763303772552e-06, 2.6138904676677253e-06, 2.64681639188595e-06, 2.015590774132234e-06, 1.5100321547613267e-06, 1.4966172846189145e-06, 1.3194530215290678e-06, 1.5380445945880845e-06, 1.1817649902259212e-06, 1.1177272194705366e-06, 1.325906583943681e-06, 1.16064999534809e-06, 1.1150319674877253e-06, 1.0743734775417837e-06, 9.991410582150383e-07, 9.929174096403967e-07, 1.1093489366115861e-06, 1.1480013114789557e-06, 9.485477100909129e-07, 9.792269175683307e-07, 9.963925763141369e-07, 9.163869306022466e-07, 9.303485684781806e-07, 9.402844502522076e-07, 9.34597778447689e-07], [3.308377718982127e-05, 1.4208308126474851e-05, 4.925681684816965e-06, 3.1183761048607403e-06, 2.8765451803437187e-06, 4.02366494558514e-06, 2.486244822298667e-06, 3.1659443481220333e-06, 1.959210201336384e-06, 1.3409122218376797e-06, 1.7813452949732019e-06, 1.650775828293121e-06, 1.5455694490969602e-06, 1.6104402939630356e-06, 1.2986018541987998e-06, 1.1382774030248073e-06, 1.3081194208694719e-06, 1.1703932635764475e-06, 1.0805750858708515e-06, 1.109318320596404e-06, 1.0761696915930883e-06, 1.0608853182927646e-06, 1.0362916059754595e-06, 9.982761559073377e-07, 1.0322776965058636e-06, 1.024368676540799e-06, 9.90473188529375e-07, 9.956391740370012e-07, 9.526136705611831e-07, 9.562346528463172e-07], [7.568478273848691e-06, 1.757623855761873e-06, 5.493837913187842e-07, 2.636865550205888e-07, 2.080367570063876e-07, 1.5936454171120817e-07, 7.3557877537193e-08, 5.769772618198968e-08, 5.2943706426352406e-08, 3.233930480443336e-08, 2.917438450822381e-08, 2.7205963230396032e-08, 1.9158299361758277e-08, 1.8330500021572103e-08, 1.5066326379080006e-08, 1.4266904220979461e-08, 1.140692423480997e-08, 9.90553701285542e-09, 9.231644071405827e-09, 7.988667978982824e-09, 7.22558487116968e-09, 6.950754993795345e-09, 5.981393750668528e-09, 5.767085535050453e-09, 4.7585160700692366e-09, 4.181505156945375e-09, 3.746216492572858e-09, 3.676864442544151e-09, 3.3366741073830306e-09, 3.151158978198583e-09], [1.9755367504032888e-05, 1.7345621280216636e-06, 7.155304510691674e-07, 3.5222066294812996e-07, 5.023530252010428e-07, 2.504530663691958e-07, 1.9667055506656782e-07, 1.577131917064883e-07, 1.3766514777281665e-07, 9.574676393332761e-08, 1.0199565600370874e-07, 8.856598848168445e-08, 8.105414855453049e-08, 1.2316009618388077e-07, 7.662665325502224e-08, 1.1188127518169706e-07, 9.863956702631729e-08, 7.245605131676464e-08, 8.281508548883308e-08, 8.578736490523444e-08, 7.011075710951991e-08, 9.546098214549033e-08, 8.461987687303248e-08, 7.295811501391718e-08, 7.124321421663007e-08, 7.082137585566529e-08, 6.80764261195081e-08, 7.54695703064314e-08, 6.59316197183181e-08, 6.703338511638627e-08], [7.568478273848691e-06, 1.757623855761873e-06, 5.493837913187842e-07, 2.636865550205888e-07, 2.080367570063876e-07, 1.5936454171120817e-07, 7.3557877537193e-08, 5.769772618198968e-08, 5.2943706426352406e-08, 3.233930480443336e-08, 2.917438450822381e-08, 2.7205963230396032e-08, 1.9158299361758277e-08, 1.8330500021572103e-08, 1.5066326379080006e-08, 1.4266904220979461e-08, 1.140692423480997e-08, 9.90553701285542e-09, 9.231644071405827e-09, 7.988667978982824e-09, 7.22558487116968e-09, 6.950754993795345e-09, 5.981393750668528e-09, 5.767085535050453e-09, 4.7585160700692366e-09, 4.181505156945375e-09, 3.746216492572858e-09, 3.676864442544151e-09, 3.3366741073830306e-09, 3.151158978198583e-09], [6.696751308390518e-05, 1.9620770863661585e-05, 9.498100347321758e-06, 6.2270812919454184e-06, 3.862578912834944e-06, 2.277682838218635e-06, 2.8576898377272155e-06, 2.2617265463530707e-06, 2.042322379167597e-06, 1.7692300240553856e-06, 1.3670509702720247e-06, 1.3590744902682242e-06, 1.295506889604006e-06, 1.1850568374453235e-06, 1.4144403079872334e-06, 1.156362159516247e-06, 1.0103314027075091e-06, 1.0772261123373202e-06, 1.0496179569778676e-06, 9.708318399097446e-07, 1.056265221740222e-06, 9.48593178669677e-07, 8.912776380721833e-07, 9.462563646722138e-07, 9.799906819617978e-07, 8.686379217049239e-07, 9.216353556736302e-07, 9.577401717453529e-07, 9.056340485653617e-07, 9.76421627641765e-07], [3.4478985135124366e-05, 1.0252314117609969e-05, 2.299844142027089e-06, 1.920789855631054e-06, 1.954454041143326e-06, 1.2237880634807059e-06, 1.5182668393734029e-06, 1.2850033427975745e-06, 1.3875214893591494e-06, 7.96146668550857e-07, 1.3119830900264797e-06, 9.057568317122041e-07, 8.082222993177847e-07, 7.883755687042527e-07, 6.868794996339748e-07, 9.39645437535068e-07, 8.439883506731722e-07, 6.487041839515511e-07, 6.263270050420268e-07, 7.113991227720759e-07, 6.164737510561842e-07, 6.358123207297871e-07, 6.81508807068091e-07, 6.453344651003243e-07, 5.735958401885369e-07, 5.940006674430949e-07, 5.974455849508443e-07, 5.817764343245497e-07, 6.006974076873811e-07, 5.595322096149804e-07], [1.8136518882335005e-05, 3.0216255358741778e-05, 5.056676507364344e-06, 4.8771632947801035e-06, 6.109136714501772e-06, 2.9007114410059592e-06, 1.5845490884322979e-06, 1.5705495715668984e-06, 2.0942052522277263e-06, 1.5929145323950115e-06, 1.234098728591196e-06, 1.410322896756935e-06, 1.2512546751827073e-06, 1.124175570034764e-06, 1.1432188058936429e-06, 1.1627801783929905e-06, 1.0601365604996695e-06, 1.1190672553302411e-06, 1.2148366589461987e-06, 1.1037191055189312e-06, 1.065710838671235e-06, 1.0142308146488318e-06, 9.731180655070564e-07, 9.920209307946125e-07, 9.972409815544382e-07, 1.0050798592461838e-06, 9.90919964771141e-07, 9.802965362726121e-07, 9.9079460026326e-07, 9.684192643331816e-07], [7.568478273848691e-06, 1.757623855761873e-06, 5.493837913187842e-07, 2.636865550205888e-07, 2.080367570063876e-07, 1.5936454171120817e-07, 7.3557877537193e-08, 5.769772618198968e-08, 5.2943706426352406e-08, 3.233930480443336e-08, 2.917438450822381e-08, 2.7205963230396032e-08, 1.9158299361758277e-08, 1.8330500021572103e-08, 1.5066326379080006e-08, 1.4266904220979461e-08, 1.140692423480997e-08, 9.90553701285542e-09, 9.231644071405827e-09, 7.988667978982824e-09, 7.22558487116968e-09, 6.950754993795345e-09, 5.981393750668528e-09, 5.767085535050453e-09, 4.7585160700692366e-09, 4.181505156945375e-09, 3.746216492572858e-09, 3.676864442544151e-09, 3.3366741073830306e-09, 3.151158978198583e-09], [7.193618847559879e-06, 1.3310421873682714e-05, 7.777848340620944e-07, 6.108581785683782e-07, 4.341845843039203e-07, 3.122194093406879e-07, 2.1388889794303038e-07, 2.6146761821274917e-07, 2.2375414739777992e-07, 2.401914785567342e-07, 1.7838447380128405e-07, 2.54439109895396e-07, 1.4248225002696365e-07, 1.5808470355294672e-07, 1.6320030683008017e-07, 1.4647063274888624e-07, 2.2588809357650646e-07, 1.377335662914097e-07, 1.4002570457974812e-07, 1.359516731815756e-07, 1.2696101178052308e-07, 1.3608508795969422e-07, 1.254812500072527e-07, 1.4862121779265538e-07, 1.4405893063256083e-07, 1.4287980357192474e-07, 1.2947123412968247e-07, 1.5815835434277437e-07, 1.2724363650932554e-07, 1.352517971691368e-07], [9.071036021405615e-06, 4.396188885081399e-06, 6.48249510685646e-07, 3.7939577724386735e-07, 2.9992061477796276e-07, 2.3084087657112866e-07, 1.4051518273115477e-07, 1.3591013112760748e-07, 1.7434223218412806e-07, 9.394439434621565e-08, 1.1102270824288393e-07, 1.0303587343740542e-07, 8.762043591569479e-08, 9.62013669462635e-08, 7.992667228997577e-08, 7.96066344562279e-08, 8.746987199181883e-08, 7.978209214520525e-08, 7.969864719814466e-08, 7.842127528364786e-08, 7.558041484675721e-08, 6.923997719986086e-08, 6.97963882642142e-08, 7.488001106900503e-08, 6.759612938710533e-08, 7.763022603432418e-08, 6.846977264710511e-08, 6.824979384603702e-08, 7.065510741785865e-08, 6.746744096873554e-08], [1.1101690411103274e-05, 2.394593666040875e-05, 5.299641169214347e-06, 3.929309957168881e-06, 4.4837030801164095e-06, 3.1695348090832403e-06, 1.8455606518782381e-06, 1.7508534368098752e-06, 2.2756682620911652e-06, 1.398911503133201e-06, 1.4964510112376296e-06, 1.1888501143170786e-06, 1.143616253161361e-06, 1.3527906667363624e-06, 1.035690593714277e-06, 1.1316649753419764e-06, 1.265485424694024e-06, 9.91219556391378e-07, 9.458635423309535e-07, 1.010238381512047e-06, 8.744407314532693e-07, 8.550736475301852e-07, 8.958614449089701e-07, 9.199728863658149e-07, 8.919160929480391e-07, 8.219023073820278e-07, 8.315471335903965e-07, 8.46103728888329e-07, 8.672359362466123e-07, 8.146269406068121e-07], [7.568478273848691e-06, 1.757623855761873e-06, 5.493837913187842e-07, 2.636865550205888e-07, 2.080367570063876e-07, 1.5936454171120817e-07, 7.3557877537193e-08, 5.769772618198968e-08, 5.2943706426352406e-08, 3.233930480443336e-08, 2.917438450822381e-08, 2.7205963230396032e-08, 1.9158299361758277e-08, 1.8330500021572103e-08, 1.5066326379080006e-08, 1.4266904220979461e-08, 1.140692423480997e-08, 9.90553701285542e-09, 9.231644071405827e-09, 7.988667978982824e-09, 7.22558487116968e-09, 6.950754993795345e-09, 5.981393750668528e-09, 5.767085535050453e-09, 4.7585160700692366e-09, 4.181505156945375e-09, 3.746216492572858e-09, 3.676864442544151e-09, 3.3366741073830306e-09, 3.151158978198583e-09], [7.568478273848691e-06, 1.757623855761873e-06, 5.493837913187842e-07, 2.636865550205888e-07, 2.080367570063876e-07, 1.5936454171120817e-07, 7.3557877537193e-08, 5.769772618198968e-08, 5.2943706426352406e-08, 3.233930480443336e-08, 2.917438450822381e-08, 2.7205963230396032e-08, 1.9158299361758277e-08, 1.8330500021572103e-08, 1.5066326379080006e-08, 1.4266904220979461e-08, 1.140692423480997e-08, 9.90553701285542e-09, 9.231644071405827e-09, 7.988667978982824e-09, 7.22558487116968e-09, 6.950754993795345e-09, 5.981393750668528e-09, 5.767085535050453e-09, 4.7585160700692366e-09, 4.181505156945375e-09, 3.746216492572858e-09, 3.676864442544151e-09, 3.3366741073830306e-09, 3.151158978198583e-09], [2.648684308509617e-05, 1.5034274915747624e-05, 4.9120564273338415e-06, 4.994934965473596e-06, 3.732757597018296e-06, 4.407378830362112e-06, 2.369460838884214e-06, 2.1166595005866e-06, 1.899192597972525e-06, 2.161126586686111e-06, 2.036635405698728e-06, 1.3397915748105284e-06, 1.2928085993138404e-06, 1.3964119577476863e-06, 1.3656740732305323e-06, 1.4348273828774465e-06, 1.3848610440499567e-06, 1.1349477428857609e-06, 1.0959239227943036e-06, 1.050816243234339e-06, 1.085381001131481e-06, 1.0753993545745965e-06, 1.0444729573501255e-06, 1.0208454381527869e-06, 1.0782886215187952e-06, 9.842469476476918e-07, 9.770908617593207e-07, 9.94361392633747e-07, 1.0318791306327784e-06, 1.0025707047256245e-06], [7.568478273848691e-06, 1.757623855761873e-06, 5.493837913187842e-07, 2.636865550205888e-07, 2.080367570063876e-07, 1.5936454171120817e-07, 7.3557877537193e-08, 5.769772618198968e-08, 5.2943706426352406e-08, 3.233930480443336e-08, 2.917438450822381e-08, 2.7205963230396032e-08, 1.9158299361758277e-08, 1.8330500021572103e-08, 1.5066326379080006e-08, 1.4266904220979461e-08, 1.140692423480997e-08, 9.90553701285542e-09, 9.231644071405827e-09, 7.988667978982824e-09, 7.22558487116968e-09, 6.950754993795345e-09, 5.981393750668528e-09, 5.767085535050453e-09, 4.7585160700692366e-09, 4.181505156945375e-09, 3.746216492572858e-09, 3.676864442544151e-09, 3.3366741073830306e-09, 3.151158978198583e-09], [7.568478273848691e-06, 1.757623855761873e-06, 5.493837913187842e-07, 2.636865550205888e-07, 2.080367570063876e-07, 1.5936454171120817e-07, 7.3557877537193e-08, 5.769772618198968e-08, 5.2943706426352406e-08, 3.233930480443336e-08, 2.917438450822381e-08, 2.7205963230396032e-08, 1.9158299361758277e-08, 1.8330500021572103e-08, 1.5066326379080006e-08, 1.4266904220979461e-08, 1.140692423480997e-08, 9.90553701285542e-09, 9.231644071405827e-09, 7.988667978982824e-09, 7.22558487116968e-09, 6.950754993795345e-09, 5.981393750668528e-09, 5.767085535050453e-09, 4.7585160700692366e-09, 4.181505156945375e-09, 3.746216492572858e-09, 3.676864442544151e-09, 3.3366741073830306e-09, 3.151158978198583e-09], [3.3711534430953684e-05, 5.5601221130655955e-06, 3.772560138339875e-06, 1.6095451002362455e-06, 4.0371892738624045e-06, 1.6407591470955156e-06, 1.757830322332976e-06, 1.749569682074085e-06, 1.9326542726109406e-06, 1.1227322836238702e-06, 9.018986294054943e-07, 1.0127567623542405e-06, 1.3296710976422596e-06, 8.71964544500185e-07, 9.907967376300521e-07, 9.208209800276883e-07, 7.853559299572123e-07, 7.10410794729535e-07, 7.53738073603876e-07, 7.361425367789417e-07, 6.628367899026672e-07, 7.057390756769216e-07, 7.877341141634458e-07, 6.366817925719092e-07, 7.023955738252851e-07, 6.594126702646676e-07, 6.697526047640732e-07, 6.328024771865391e-07, 6.406648450433313e-07, 6.331296121543511e-07], [7.568478273848691e-06, 1.757623855761873e-06, 5.493837913187842e-07, 2.636865550205888e-07, 2.080367570063876e-07, 1.5936454171120817e-07, 7.3557877537193e-08, 5.769772618198968e-08, 5.2943706426352406e-08, 3.233930480443336e-08, 2.917438450822381e-08, 2.7205963230396032e-08, 1.9158299361758277e-08, 1.8330500021572103e-08, 1.5066326379080006e-08, 1.4266904220979461e-08, 1.140692423480997e-08, 9.90553701285542e-09, 9.231644071405827e-09, 7.988667978982824e-09, 7.22558487116968e-09, 6.950754993795345e-09, 5.981393750668528e-09, 5.767085535050453e-09, 4.7585160700692366e-09, 4.181505156945375e-09, 3.746216492572858e-09, 3.676864442544151e-09, 3.3366741073830306e-09, 3.151158978198583e-09], [4.254674761208385e-05, 1.861734769970005e-05, 9.131837922893258e-06, 3.3725565479753137e-06, 3.7514295317063288e-06, 3.46539241408036e-06, 2.155451996650953e-06, 2.1964057606538743e-06, 2.1779332902323646e-06, 1.5425994795469073e-06, 1.6062732148397226e-06, 1.8288166772558264e-06, 1.4834816188248008e-06, 1.471267132945724e-06, 1.4035557597996708e-06, 1.1755960533741277e-06, 1.2489402981879317e-06, 1.1056622453281266e-06, 1.1661900198473828e-06, 1.0708238642956922e-06, 1.0768076079073446e-06, 1.1065265093772175e-06, 1.0412573339463137e-06, 1.021176086716553e-06, 1.059345454793219e-06, 1.000164826757506e-06, 1.048129972502945e-06, 1.0065478812897242e-06, 9.982321194192554e-07, 1.0209110450260797e-06], [7.7523771306849e-06, 1.1679911700029295e-05, 1.1182723732393662e-06, 8.889832202288108e-07, 3.5208095927300316e-07, 2.6082861486345426e-07, 1.8335060653367656e-07, 1.7454306262828377e-07, 1.5921228301958904e-07, 1.5168670614189675e-07, 2.050465373362111e-07, 1.7910418001283827e-07, 1.2926226940007204e-07, 1.7988312161015186e-07, 1.1278636541222385e-07, 1.1841070765229819e-07, 1.1052526677076753e-07, 1.0493370218489544e-07, 1.0912312483121448e-07, 1.0242212404148135e-07, 1.0078211997020712e-07, 9.902144353481827e-08, 1.3333567973039034e-07, 9.638622705878226e-08, 9.901369808295367e-08, 1.0175332552492479e-07, 9.87689052781388e-08, 1.2694026854961307e-07, 1.0614988412593142e-07, 9.548500540269036e-08], [1.8989855420222006e-05, 1.3817705529093718e-05, 3.631524230782289e-06, 1.928068868273577e-06, 2.012291426100419e-06, 3.7502437967894726e-06, 1.6167977820200109e-06, 1.932475829425434e-06, 1.5430153896700949e-06, 1.410037435385558e-06, 1.3289750984150535e-06, 1.2482487250348817e-06, 1.1325615268132253e-06, 1.1148363321306184e-06, 1.2448882054473128e-06, 9.865919673264403e-07, 1.1003043457887025e-06, 9.83972899003513e-07, 9.786157842032412e-07, 9.363327547632789e-07, 9.394132085161893e-07, 9.712648931887483e-07, 9.625699212271191e-07, 8.854483123322739e-07, 9.069406512557217e-07, 8.316278683878485e-07, 8.694878036957389e-07, 8.168522449383361e-07, 8.310079232962857e-07, 8.29351676192477e-07], [4.8928248996923235e-05, 1.943370305546374e-05, 1.0685496156696464e-05, 3.5291877427763496e-06, 3.163682188521752e-06, 3.000799336659849e-06, 2.1244406567029616e-06, 2.14419644546449e-06, 1.71198589353641e-06, 1.382775800358435e-06, 1.4976579982095142e-06, 1.7249256413819944e-06, 1.4130774519969774e-06, 1.2277696335333715e-06, 1.2155841866613086e-06, 1.2134923761602802e-06, 1.1592783130802912e-06, 1.1600389243278357e-06, 1.0935502729494983e-06, 1.0950016449690035e-06, 1.0872869270812242e-06, 1.0931712822817325e-06, 1.064951947281772e-06, 1.0364704301866946e-06, 1.0617255321524886e-06, 1.06658250341687e-06, 1.0477091944288564e-06, 1.0255325885185612e-06, 1.0342160210812364e-06, 1.0219563724968224e-06], [7.568478273848691e-06, 1.757623855761873e-06, 5.493837913187842e-07, 2.636865550205888e-07, 2.080367570063876e-07, 1.5936454171120817e-07, 7.3557877537193e-08, 5.769772618198968e-08, 5.2943706426352406e-08, 3.233930480443336e-08, 2.917438450822381e-08, 2.7205963230396032e-08, 1.9158299361758277e-08, 1.8330500021572103e-08, 1.5066326379080006e-08, 1.4266904220979461e-08, 1.140692423480997e-08, 9.90553701285542e-09, 9.231644071405827e-09, 7.988667978982824e-09, 7.22558487116968e-09, 6.950754993795345e-09, 5.981393750668528e-09, 5.767085535050453e-09, 4.7585160700692366e-09, 4.181505156945375e-09, 3.746216492572858e-09, 3.676864442544151e-09, 3.3366741073830306e-09, 3.151158978198583e-09], [7.158453949889893e-06, 2.0272081614506932e-06, 7.7747958453377e-07, 3.995025077471906e-07, 2.985952040403128e-07, 6.011695631995426e-07, 1.3162142624940347e-07, 1.9648246994336058e-07, 1.901406137913726e-07, 9.917298372848386e-08, 1.1566718115710872e-07, 8.918931056369269e-08, 1.4482603431915325e-07, 8.177831141482438e-08, 7.891345682764048e-08, 9.812119078256144e-08, 7.815656799291899e-08, 7.484417714695268e-08, 8.076904513122116e-08, 7.012103912546221e-08, 7.22126576442527e-08, 7.526310444547719e-08, 7.069869026392746e-08, 7.005441261870606e-08, 7.03866416917874e-08, 7.203479476229153e-08, 6.691162283397011e-08, 7.323859126214781e-08, 6.787330205654727e-08, 6.817692923973269e-08], [1.8944441689512835e-05, 2.050946369780899e-05, 9.231116187010076e-06, 6.122007575374146e-06, 6.064818244414407e-06, 4.625199028426218e-06, 2.5471745749386652e-06, 2.3613465125010055e-06, 3.3234563391896966e-06, 1.8808848560193475e-06, 1.86771373247441e-06, 1.436603874861314e-06, 1.449365246012058e-06, 1.3453171379765012e-06, 1.2421836738547019e-06, 1.179809972627369e-06, 1.301427376101805e-06, 1.208653451311065e-06, 1.1367715572010235e-06, 1.0986727591664637e-06, 1.0526257480571397e-06, 1.0692693809979678e-06, 9.727918554396959e-07, 9.842416347804863e-07, 1.0066928086134702e-06, 1.0497775162979852e-06, 9.989620366768486e-07, 9.981585839557598e-07, 9.89240680749029e-07, 9.126316734214596e-07], [7.568478273848691e-06, 1.757623855761873e-06, 5.493837913187842e-07, 2.636865550205888e-07, 2.080367570063876e-07, 1.5936454171120817e-07, 7.3557877537193e-08, 5.769772618198968e-08, 5.2943706426352406e-08, 3.233930480443336e-08, 2.917438450822381e-08, 2.7205963230396032e-08, 1.9158299361758277e-08, 1.8330500021572103e-08, 1.5066326379080006e-08, 1.4266904220979461e-08, 1.140692423480997e-08, 9.90553701285542e-09, 9.231644071405827e-09, 7.988667978982824e-09, 7.22558487116968e-09, 6.950754993795345e-09, 5.981393750668528e-09, 5.767085535050453e-09, 4.7585160700692366e-09, 4.181505156945375e-09, 3.746216492572858e-09, 3.676864442544151e-09, 3.3366741073830306e-09, 3.151158978198583e-09], [9.643962078820016e-06, 2.1060443387385613e-05, 6.683942889299127e-06, 3.527964615761607e-06, 3.905739980012321e-06, 2.809850858809233e-06, 1.8575988272598823e-06, 1.7502517899335984e-06, 1.930832090002374e-06, 1.647370116175038e-06, 1.365891194583902e-06, 1.3807811403423834e-06, 1.235370227995911e-06, 1.3768512895656303e-06, 1.267565292373187e-06, 1.3090127388065625e-06, 1.1788225209271421e-06, 1.1962447505613594e-06, 1.1962767304957633e-06, 1.1311498727608252e-06, 1.1790076358773058e-06, 1.1015623778855672e-06, 1.1012169236995624e-06, 1.1133592061769946e-06, 1.071885875714996e-06, 1.0628567031229515e-06, 1.0688343686345547e-06, 1.0524161231323252e-06, 1.0480190577318915e-06, 1.043364185163429e-06], [2.8505213980383043e-05, 9.033782258151567e-06, 5.2364624955765725e-06, 3.2493278654409917e-06, 2.1214702328220073e-06, 2.2513411680420588e-06, 1.7324891873508957e-06, 2.005185900199854e-06, 1.5593608734528694e-06, 1.1714823958428902e-06, 1.5875300527540486e-06, 1.2507051520588616e-06, 1.172311845329044e-06, 1.283567926130161e-06, 1.0942486801036292e-06, 1.0766284165645031e-06, 1.1985318907736504e-06, 1.0685756891126802e-06, 1.037071219324353e-06, 9.747568591324519e-07, 9.316883859851283e-07, 9.173665921443976e-07, 1.0342473188792745e-06, 8.667647061479781e-07, 9.138654335413596e-07, 9.256388003521408e-07, 9.118534106922979e-07, 8.546626891685288e-07, 8.869240703590677e-07, 8.633537327692233e-07], [9.295236468268731e-06, 4.66833132818393e-06, 1.4227039362873964e-06, 4.357501366442248e-07, 6.965015500600092e-07, 6.132703974225231e-07, 6.605981468736291e-07, 2.8603683531271503e-07, 3.65251366284297e-07, 2.602768861807669e-07, 3.8369882027664205e-07, 3.609799108591314e-07, 2.2854751892020822e-07, 2.927657662586188e-07, 2.3238761108500867e-07, 2.866158460330253e-07, 2.3668898782951476e-07, 2.240133610757147e-07, 2.3871553200517357e-07, 2.6608614054090973e-07, 2.129558449588534e-07, 2.2097614918019212e-07, 2.368929318050585e-07, 2.1757648434227664e-07, 2.1810770140151843e-07, 2.0941181255199218e-07, 2.0580457024119833e-07, 2.011608758958693e-07, 1.934686258162613e-07, 2.0044608471160803e-07], [1.0655071427645073e-05, 3.2822352266155107e-06, 6.177479598266534e-07, 4.709274746119363e-07, 1.518116849895797e-06, 8.76769611835411e-07, 4.5044578561912605e-07, 6.984293342985655e-07, 1.701402254928053e-07, 3.0991370816001104e-07, 1.651845132848549e-07, 2.3751289922628747e-07, 2.978154476895813e-07, 2.3807525104450174e-07, 1.426376258981416e-07, 1.7070985393666822e-07, 1.4525723516770688e-07, 1.655360139761324e-07, 1.795419815096531e-07, 1.6457414800612546e-07, 1.2814141666367113e-07, 1.4403513740184924e-07, 1.4668560240879198e-07, 1.529708352558592e-07, 1.3931372147398224e-07, 1.2577000152683353e-07, 1.230191851569276e-07, 1.61624065301706e-07, 1.3505475321504646e-07, 1.2286212048135145e-07], [7.568478273848691e-06, 1.757623855761873e-06, 5.493837913187842e-07, 2.636865550205888e-07, 2.080367570063876e-07, 1.5936454171120817e-07, 7.3557877537193e-08, 5.769772618198968e-08, 5.2943706426352406e-08, 3.233930480443336e-08, 2.917438450822381e-08, 2.7205963230396032e-08, 1.9158299361758277e-08, 1.8330500021572103e-08, 1.5066326379080006e-08, 1.4266904220979461e-08, 1.140692423480997e-08, 9.90553701285542e-09, 9.231644071405827e-09, 7.988667978982824e-09, 7.22558487116968e-09, 6.950754993795345e-09, 5.981393750668528e-09, 5.767085535050453e-09, 4.7585160700692366e-09, 4.181505156945375e-09, 3.746216492572858e-09, 3.676864442544151e-09, 3.3366741073830306e-09, 3.151158978198583e-09], [1.5117333376829031e-05, 1.1659044827765567e-05, 3.1342001403099807e-06, 1.6678034789956445e-06, 2.0353047458835498e-06, 2.2967514147553966e-06, 1.2762819511120885e-06, 1.0760218698438618e-06, 1.2553483222712172e-06, 1.3647293291805637e-06, 9.280760800172312e-07, 9.16559564841976e-07, 8.803276974356926e-07, 8.758669264393989e-07, 8.932302972535716e-07, 8.132802909159273e-07, 7.805933632019077e-07, 8.414081996719648e-07, 7.375716522272991e-07, 7.507607993566806e-07, 7.075138034112615e-07, 7.789932658091841e-07, 7.497331948193808e-07, 7.543117165602793e-07, 7.125853100068747e-07, 6.718789574886919e-07, 6.56396459313197e-07, 6.484040241835562e-07, 6.653781150695636e-07, 6.875366954922508e-07], [7.789065873694851e-06, 7.950453699564102e-06, 1.7413406955050892e-06, 4.2978859256137173e-07, 4.3089843824668027e-07, 2.7082028718492674e-07, 1.901818044582732e-07, 1.5579105186357592e-07, 4.528877355616334e-07, 1.2464423668451241e-07, 1.5861851044682044e-07, 1.3961688415389781e-07, 1.1010122786366951e-07, 1.1985385558545712e-07, 1.1104548347568942e-07, 1.0815527329123771e-07, 1.0526162802186472e-07, 1.0091896893974954e-07, 1.3929722075381632e-07, 1.0257957813045124e-07, 1.0158606133931366e-07, 1.0692967871575544e-07, 1.0287212902939733e-07, 1.0691463031017106e-07, 