{"timestamp_utc": "2026-02-19T14:20:06+00:00", "case_id": "elephant_7_val_1", "bgmm_weights": [0.018744770016451643, 0.029303940643774423, 9.996930935942446e-05, 0.041879157149391104, 0.0004984274038833971, 0.008117535301226424, 0.012868002723572379, 9.991453307740633e-05, 9.990329724647598e-05, 0.018243038639954735, 0.06051353451985387, 0.05098323198584358, 0.009048506427984857, 0.012534915854375705, 9.982830050728699e-05, 0.03418232136905747, 9.980060145313113e-05, 9.978642700113326e-05, 9.97722545623005e-05, 0.0005985481125348485, 9.974390565430709e-05, 9.972972918743581e-05, 0.04626827896167959, 0.024209378580185997, 0.016215715825357153, 0.00998603224826356, 9.96520588594931e-05, 0.04574498853997961, 9.961788842262211e-05, 0.0008961739188307037, 9.958236495637375e-05, 0.0003981020090452259, 0.0244387222098166, 0.06016670259433673, 0.023639172063108314, 9.948526345044889e-05, 9.94632363440985e-05, 0.0010922977343059011, 0.000397425134514235, 0.019366734407123422, 0.008259282723846873, 0.00932800875851913, 0.03522987402707501, 9.930020335065717e-05, 0.030620696555916108, 0.000992219563404872, 9.921671404060409e-05, 9.918807621621304e-05, 0.06258737729798264, 0.011494068113064724, 0.010360939572959265, 9.905013088777104e-05, 0.012414051355940961, 0.014048866609749215, 9.89304177681298e-05, 0.000492986329790316, 0.029434094435749993, 0.017178937970431584, 0.004113031437963215, 9.869154645255835e-05, 0.02045272504769986, 9.85772801380771e-05, 0.001081439699770199, 0.0002953637036663983, 0.02988334082573294, 0.00039328124560591125, 0.016970932320491343, 9.815923533878651e-05, 9.807316386149406e-05, 0.030585319628508786, 0.009356447704441807, 9.773580242593875e-05, 0.025476973247809696, 0.013524143949690167, 9.710798526199877e-05, 9.681967539666879e-05, 9.653222151221641e-05, 9.624562106726738e-05, 9.595987152799274e-05, 0.0322241063844093], "bgmm_means": [[-0.03132947039247495, 0.05152848268482571, 0.004406982005340791, 0.01172846281046786, 0.0058269894342852695, 0.013079961965018101, 0.0020049897418005203, 7.574433096986372e-05, -0.003493947183397883, 0.0020681847473850287, -0.000888887601887609, -0.0012688670010251677, 0.0026064755901421175, 0.00043173693429037136, -0.0019556438243907197, 0.0008097869203556733, -0.0022017997604481844, -2.5862201720391734e-05, 0.0004973658520864882, 0.0027800104069383275, 0.001638884154132027, 0.001888543916693808, 0.0016132100997959821, 0.0012377549146925504, 0.0018757019292493452, 0.00024897347490504247, -0.0007048115283512775, 0.0006018040614753378, -0.0005796894345401444, -0.00040820147026727707], [-0.02850457293976763, -0.009726050107695878, -0.0070890993861546835, 0.00271560558731931, -0.0022937154332836234, 0.004126696907433925, -0.0016837036482417014, 0.003454650654873689, 0.0014840926860826224, -0.001782288301169609, -0.00024656995128634606, 0.0035810974787373133, -0.006001567963758839, -0.001863392425192549, 0.0012913563537004923, -0.001994688350857974, 0.00041206852413953497, -0.0011439871269424066, -0.0005803871939599268, 0.0008529247100584133, -0.00028749830594293615, 0.0005623837396766617, -0.0019862497900742116, -0.0004077603349096321, -0.0007232479734711535, -0.0008238592248254411, 0.000550532785694848, 0.001129084435951032, 0.001000629020910184, -0.00017215960980765605], [-2.967752488203239e-09, -3.5308861612293106e-08, -1.793717885334441e-08, -5.5335952708901333e-08, 9.556626601181484e-09, 3.729810771346811e-08, -5.920463053143963e-08, -5.932013280585111e-08, 2.988185698882255e-08, 9.939865819319472e-09, -4.2126867327851776e-08, -1.122991699631368e-09, -7.399416190878566e-09, -3.7064612712356313e-08, -1.8674031210252863e-08, 5.8599123775593266e-08, -8.996709510711278e-08, 3.9700999820979546e-08, -7.708539584427836e-08, -2.9435090809215514e-08, -7.546178437678446e-08, 4.766787142784768e-08, -4.6577660839375206e-08, -4.5476767240870587e-08, 7.57249640770395e-09, 7.281867198116727e-08, 3.578830387596091e-08, 2.1234701108596663e-08, -8.406704665730994e-08, -8.070156098938223e-08], [0.01160256897090514, 0.010945327777875366, 0.0021704729312221195, -0.0044616607390957855, 0.0004571219167864985, -0.004217263121289063, -0.012217584489704397, -0.0028638023091440866, 0.0014496764024472073, 0.0012011805046993446, 0.0033809535600212866, -9.172539672091458e-05, -0.0020352312082885897, 0.00010156869961272161, -0.001028923320775895, -0.00032266584755914914, 0.000795656147519286, 0.0003775410382457665, -0.0007724121087720155, 0.0006307728892336901, -0.0003513002778921209, 0.001686758916164467, -0.00063474754772562, -0.0005411935836537114, -5.857306247504116e-05, -2.727807697727482e-05, 0.0006047740181487978, -0.00015967005152199624, -0.00040326938720709613, -0.0007594596274846598], [-0.019680021715379584, -0.01655460420647343, 0.004202705729252285, 0.004043756785923558, -0.00775026493640623, -0.006299895502360028, 0.006058346399332151, -0.0008055921075882534, 0.004319823600284127, 0.0011881216635357132, -0.00011602081589857998, -0.0006431739470632985, -0.0004189124093914083, 0.00046286980849634315, 0.00036816420121509903, 0.0007322484646435251, -0.0009736446462872199, -0.0024515867365019696, 0.002488474749921114, -0.0002517185753120691, -0.0006985812515570535, 0.00028364291967131167, 0.0020753657446774413, 0.0002468023767620991, 0.0005419247447048108, 0.0015576605277811651, 0.0012153727826835928, 0.0006710779186731839, -0.00018957822478372915, -0.0013474275516416087], [0.0002931767451325849, -0.01121316472511689, -0.008222962054489694, 0.010294176351889119, -0.013461904757633413, -0.006326827842624607, 0.003866368775690348, -0.0012804472742734344, 0.008483693827798901, -0.007947951764266954, -0.0006809824632101697, -7.153582974683016e-05, 9.941272889045455e-05, 0.000982791317611299, -0.000580227889546553, -0.00010487223397254526, -0.0009478893226312931, -0.002077099449389178, 0.0028870522182417075, 0.0031017824214347417, 0.000992059693907603, -4.335963265949541e-05, 0.0033605143714360904, -0.00044679081622803554, 0.0013702137180663478, 0.001956389397625422, 0.0024903856556274567, 1.0845839742029016e-05, 0.00012421348100025308, -0.0010307516775927726], [-0.015733279230423617, 0.022350127673596894, -0.021724104415672234, -0.005376802175070178, 0.010356147194583323, -0.009246445655779797, 0.0003420855170844005, -0.0013251709722568502, -0.00014494991856208497, -0.002446791335752726, -0.0034776581590574276, 0.0005169971091547527, 0.0021546520712120033, -0.00027284457746682566, 0.00191885088312334, -0.0015250809139691274, -0.0017023922138556793, 0.0012349479230933861, -0.0004003572647307785, 0.0017109185101692704, -0.002366777329799846, -0.0004576296364133211, 0.0004694351217804565, -0.0008502333265546254, 0.0003753860614964831, 0.00022235853526595637, -0.0018961924278723087, -0.0011563720222350427, -0.0005356436638033771, 0.0005176640769637525], [-2.967752488203239e-09, -3.5308861612293106e-08, -1.793717885334441e-08, -5.5335952708901333e-08, 9.556626601181484e-09, 3.729810771346811e-08, -5.920463053143963e-08, -5.932013280585111e-08, 2.988185698882255e-08, 9.939865819319472e-09, -4.2126867327851776e-08, -1.122991699631368e-09, -7.399416190878566e-09, -3.7064612712356313e-08, -1.8674031210252863e-08, 5.8599123775593266e-08, -8.996709510711278e-08, 3.9700999820979546e-08, -7.708539584427836e-08, -2.9435090809215514e-08, -7.546178437678446e-08, 4.766787142784768e-08, -4.6577660839375206e-08, -4.5476767240870587e-08, 7.57249640770395e-09, 7.281867198116727e-08, 3.578830387596091e-08, 2.1234701108596663e-08, -8.406704665730994e-08, -8.070156098938223e-08], [-2.967752488203239e-09, -3.5308861612293106e-08, -1.793717885334441e-08, -5.5335952708901333e-08, 9.556626601181484e-09, 3.729810771346811e-08, -5.920463053143963e-08, -5.932013280585111e-08, 2.988185698882255e-08, 9.939865819319472e-09, -4.2126867327851776e-08, -1.122991699631368e-09, -7.399416190878566e-09, -3.7064612712356313e-08, -1.8674031210252863e-08, 5.8599123775593266e-08, -8.996709510711278e-08, 3.9700999820979546e-08, -7.708539584427836e-08, -2.9435090809215514e-08, -7.546178437678446e-08, 4.766787142784768e-08, -4.6577660839375206e-08, -4.5476767240870587e-08, 7.57249640770395e-09, 7.281867198116727e-08, 3.578830387596091e-08, 2.1234701108596663e-08, -8.406704665730994e-08, -8.070156098938223e-08], [0.011677606050782824, 0.0024974145906788646, -0.020879925080942746, -0.02122650328035986, -0.0029066510539998563, -0.000621977236182873, 0.001313581722926201, 0.000949140937910027, -0.0025067665499472935, 0.000909236470498345, -0.0018276731900925055, -0.0014332131468188741, 0.0005636451810330628, 0.0033137354852441434, -0.001318210622289421, 0.00014493723934749485, 0.0020805475256198123, -9.790129715530723e-05, 0.0009734011077189146, 0.0005043179804194665, -0.002271047072074671, 0.0009561373419994872, -0.0007377585013361088, -0.00023115801958270793, -0.0007462983682528422, -0.0022118124725195136, -0.0004265477181672214, 0.0013333518790018067, -0.0005333426217439461, 0.0004651526585511638], [0.006462912886940993, 0.010044397455465582, 0.011529272252428897, -0.00013235497169348436, -0.005710378200417495, 0.003054169323976738, -0.0031060771096512074, 0.004888869971196141, 0.00048746276237681893, -0.005823767868987648, -0.0010814228954347056, 6.67030156808318e-05, 0.0014098515751703666, -0.0005096633195440475, 0.0012033432242266626, 0.0006043584882599183, 0.00028405817558626076, 0.0017506618627024483, -0.000629959393998839, -0.0005626695568558272, -0.001107591785363916, 0.0007297231778910935, 0.0013174816332401657, 0.00041606834812953764, -0.0007285484691229847, 0.0004612341603646265, 0.0007150660151394378, -0.00037691952776332564, 0.0002666146633438835, -0.0007435938022782734], [0.05174774667397625, -0.004845948227347725, -0.0053351976337961265, 0.01222103791870556, -0.005167214489309706, -0.0007116958209451781, 0.00029239235771704223, -0.003373891910537655, 0.0008833464545202085, 0.0005846182094716311, 0.0008231908042414537, 0.0031089388194905938, 0.0018994786141320733, 0.0003018394441554733, -0.001840245850573545, -0.0016834074410707449, -0.002794408311973015, -0.0011349457482137703, 0.0004840431343405814, 0.0004007129537644454, 0.00015635195882436956, 0.00047484213002900927, -0.0003110307639368431, 0.0013289993889910956, -0.0006051608869969643, 0.00029655259720362006, 0.00012675405527112638, -2.027295285835703e-05, -0.0006763302498879812, 1.9779658519448194e-05], [0.02284677954412784, -0.030146826724336096, -0.0013185049906926092, -0.002681627690513968, 0.017290152802509708, 0.010434138481915373, 0.0038015331882985154, 0.0008836390903415841, 0.002934354042632595, -0.0024227205609088447, 0.004999875747657099, -0.005611047136510568, 0.00019984723388219466, 0.003220884186688487, 0.002434601560819558, -0.002722794309392835, -0.0014437299360652329, -0.0008290967376791308, -0.0011167134314975435, -0.0012385886565141606, 0.0019230209921558409, 0.0005043632976416468, -0.0006209432307902876, -0.0003302038805462829, 0.0008395245915974194, 0.0008701927106126149, -0.002826278741692642, -0.0009071844940605608, 0.0022587574420834707, -0.0007161554105706391], [-0.027376333948286855, 0.003097606049794188, -0.019191366023531945, -0.006946162711822525, 0.0014919799417806546, -0.007985909494236734, 0.0038750981794471798, 0.0031369698304285006, 0.0016205935615361637, 0.0008042383600111781, -0.004331075374603682, 0.003125939883314585, 0.00015294754319844864, 0.0015907696742184722, -0.00045576199512297225, -0.0025315842548999, -0.0006791091684409282, 0.0003861573976032749, -0.002288659062804277, 0.0004977384060617417, 0.0009374055830581715, 9.241650246136233e-05, 0.0013924175228555609, -0.001157526079176331, 1.4191116618879447e-05, 0.00040074717655324264, -0.0022185923488706127, -0.0016773183866619355, 0.00081854287380714, 0.00023514448851549556], [-2.967752488203239e-09, -3.5308861612293106e-08, -1.793717885334441e-08, -5.5335952708901333e-08, 9.556626601181484e-09, 3.729810771346811e-08, -5.920463053143963e-08, -5.932013280585111e-08, 2.988185698882255e-08, 9.939865819319472e-09, -4.2126867327851776e-08, -1.122991699631368e-09, -7.399416190878566e-09, -3.7064612712356313e-08, -1.8674031210252863e-08, 5.8599123775593266e-08, -8.996709510711278e-08, 3.9700999820979546e-08, -7.708539584427836e-08, -2.9435090809215514e-08, -7.546178437678446e-08, 4.766787142784768e-08, -4.6577660839375206e-08, -4.5476767240870587e-08, 7.57249640770395e-09, 7.281867198116727e-08, 3.578830387596091e-08, 2.1234701108596663e-08, -8.406704665730994e-08, -8.070156098938223e-08], [-0.005825731196159325, -0.02989429896144348, 0.01110526954946641, -0.0034416622777253165, 0.006999407828346398, 0.005173652934389118, 0.0009875418258622776, -0.005512076510578039, -0.003640090785053219, -0.0025666413716865727, 0.0011486596021007013, -0.001965831609446874, 0.00046987047389469074, 0.0013463690804153868, 0.0003648382033962345, -8.571882225283146e-05, 0.0003820890220912182, -0.0018853034599860042, -0.0010422737143639, -0.00030807561369698244, -0.0004764855261593143, -0.0008627366653827999, 8.173994931053343e-05, -0.0014048900810123815, 4.551903080033089e-05, -0.00030511279010487277, -0.00013676112641993206, -0.001626910604127163, 0.00034700728823786064, 0.0013833312886239364], [-2.967752488203239e-09, -3.5308861612293106e-08, -1.793717885334441e-08, -5.5335952708901333e-08, 9.556626601181484e-09, 3.729810771346811e-08, -5.920463053143963e-08, -5.932013280585111e-08, 2.988185698882255e-08, 9.939865819319472e-09, -4.2126867327851776e-08, -1.122991699631368e-09, -7.399416190878566e-09, -3.7064612712356313e-08, -1.8674031210252863e-08, 5.8599123775593266e-08, -8.996709510711278e-08, 3.9700999820979546e-08, -7.708539584427836e-08, -2.9435090809215514e-08, -7.546178437678446e-08, 4.766787142784768e-08, -4.6577660839375206e-08, -4.5476767240870587e-08, 7.57249640770395e-09, 7.281867198116727e-08, 3.578830387596091e-08, 2.1234701108596663e-08, -8.406704665730994e-08, -8.070156098938223e-08], [-2.967752488203239e-09, -3.5308861612293106e-08, -1.793717885334441e-08, -5.5335952708901333e-08, 9.556626601181484e-09, 3.729810771346811e-08, -5.920463053143963e-08, -5.932013280585111e-08, 2.988185698882255e-08, 9.939865819319472e-09, -4.2126867327851776e-08, -1.122991699631368e-09, -7.399416190878566e-09, -3.7064612712356313e-08, -1.8674031210252863e-08, 5.8599123775593266e-08, -8.996709510711278e-08, 3.9700999820979546e-08, -7.708539584427836e-08, -2.9435090809215514e-08, -7.546178437678446e-08, 4.766787142784768e-08, -4.6577660839375206e-08, -4.5476767240870587e-08, 7.57249640770395e-09, 7.281867198116727e-08, 3.578830387596091e-08, 2.1234701108596663e-08, -8.406704665730994e-08, -8.070156098938223e-08], [-2.967752488203239e-09, -3.5308861612293106e-08, -1.793717885334441e-08, -5.5335952708901333e-08, 9.556626601181484e-09, 3.729810771346811e-08, -5.920463053143963e-08, -5.932013280585111e-08, 2.988185698882255e-08, 9.939865819319472e-09, -4.2126867327851776e-08, -1.122991699631368e-09, -7.399416190878566e-09, -3.7064612712356313e-08, -1.8674031210252863e-08, 5.8599123775593266e-08, -8.996709510711278e-08, 3.9700999820979546e-08, -7.708539584427836e-08, -2.9435090809215514e-08, -7.546178437678446e-08, 4.766787142784768e-08, -4.6577660839375206e-08, -4.5476767240870587e-08, 7.57249640770395e-09, 7.281867198116727e-08, 3.578830387596091e-08, 2.1234701108596663e-08, -8.406704665730994e-08, -8.070156098938223e-08], [-0.013646880005018326, 0.049195456002677905, 0.000740167344039274, 0.00877334032283756, 0.009239295993760378, 0.011611259375364457, 0.008490713409143084, -0.012537539074964733, 0.0012971797829308379, 0.0037709544592562433, -0.009284124393699874, 0.0010612696541540062, 0.0008110434145835909, -0.000187034759744075, 0.00828182936633605, 0.0013391289916407333, 0.00017009767715999848, -0.0015453993008264914, 0.0001339171616704866, 0.006274905641485424, -0.0030961713319574893, -0.0002023049116984297, 0.0019732419894965924, 0.005820414496835709, -0.0008646940641301536, -0.0016568964250837542, -0.0010236449329413743, -0.0013528141804610956, -0.00015867162591535556, -0.000701102931743981], [-2.967752488203239e-09, -3.5308861612293106e-08, -1.793717885334441e-08, -5.5335952708901333e-08, 9.556626601181484e-09, 3.729810771346811e-08, -5.920463053143963e-08, -5.932013280585111e-08, 2.988185698882255e-08, 9.939865819319472e-09, -4.2126867327851776e-08, -1.122991699631368e-09, -7.399416190878566e-09, -3.7064612712356313e-08, -1.8674031210252863e-08, 5.8599123775593266e-08, -8.996709510711278e-08, 3.9700999820979546e-08, -7.708539584427836e-08, -2.9435090809215514e-08, -7.546178437678446e-08, 4.766787142784768e-08, -4.6577660839375206e-08, -4.5476767240870587e-08, 7.57249640770395e-09, 7.281867198116727e-08, 3.578830387596091e-08, 2.1234701108596663e-08, -8.406704665730994e-08, -8.070156098938223e-08], [-2.967752488203239e-09, -3.5308861612293106e-08, -1.793717885334441e-08, -5.5335952708901333e-08, 9.556626601181484e-09, 3.729810771346811e-08, -5.920463053143963e-08, -5.932013280585111e-08, 2.988185698882255e-08, 9.939865819319472e-09, -4.2126867327851776e-08, -1.122991699631368e-09, -7.399416190878566e-09, -3.7064612712356313e-08, -1.8674031210252863e-08, 5.8599123775593266e-08, -8.996709510711278e-08, 3.9700999820979546e-08, -7.708539584427836e-08, -2.9435090809215514e-08, -7.546178437678446e-08, 4.766787142784768e-08, -4.6577660839375206e-08, -4.5476767240870587e-08, 7.57249640770395e-09, 7.281867198116727e-08, 3.578830387596091e-08, 2.1234701108596663e-08, -8.406704665730994e-08, -8.070156098938223e-08], [-0.014294758881760026, -0.018013073553327, 0.0019474398483654556, -0.004432185849729214, -0.008198685493896414, 0.0023867666057258386, -0.0034858437701356495, -0.0003631066514580824, -0.0012759755870699182, 0.00033178100125489296, -0.0007577442229336084, -0.0010758188907186255, -0.0010515413408387817, 0.000810390260085566, 0.0004918867226788306, 0.00046633639691028684, -0.0007794092974568144, -0.0018820682591165255, 0.0010270723048756809, -6.926187272459295e-05, -0.0004471181817153382, -0.0013096425236501937, -0.0010776935428086687, -0.0006378983527575562, -0.00024890891350896226, -0.00017057856419416906, 0.000515483719487464, 0.000853793985833478, 0.00021980691948879756, 0.000598189050153626], [0.002954192796245841, -0.02857608017751462, 4.440995389628755e-05, 0.005327918571029734, 0.013767198277442693, 0.003444881141369514, 0.0020412816136989942, 0.0011429102352649412, 0.005114041887514817, -0.004836104591743535, 0.0033325824166568372, -0.0017988207479751339, -0.0024849540267203353, 0.0002059088221780934, 0.000886983329933014, 0.0010959920488044274, 0.0026376380560881743, 0.001896271519806159, -0.0003565113708911728, 0.0008111341620432427, 0.0010676983376498512, -0.0012140583707624616, -3.084634604640361e-05, -0.0002002273559594983, 0.0006409657794657848, -0.0006904682000946686, -0.0021257300265314196, -0.0003052444760468854, 9.229301149087686e-05, 0.0005984996605794051], [-0.008603620396574346, 0.037817363852269595, 0.003419022421741719, -0.004185649475673048, 0.011046063521900787, -0.005666021063609177, -0.0029799709679455824, -0.003320928856072563, 0.001246696801381421, 0.0011033538558360427, 0.002248616284596156, -0.00585322137920365, 0.0009611837724741243, -0.004361740721444487, -0.001229586024026429, 0.0003452629205191061, 0.0004301649566135238, -0.0013410775814781952, 0.0016943449133997059, 0.001033421624188365, 0.001665277546235048, 0.00016538307291336928, -0.0006755073628309965, -0.00037416457697495313, -0.0023860509824603507, 0.0009759064988133212, 0.001006985321852552, 0.0008643095682127975, -0.000562868532242338, -0.001255053386437875], [-0.03263708736732987, 0.0354814340030951, -0.026331742986912612, 0.01037422987718291, 0.013262757688778139, 0.007283726903662676, 0.0030739359200141116, 0.0017877313464234668, -0.003410407734543598, -0.0014361840223480664, 0.0010125565425856333, 0.0007285717202131715, 0.0026531871900135587, -0.0016106779819823564, 8.030846537001443e-05, 0.0008848922185785423, -0.0019498214991709856, -0.0010933212637457667, 0.0002763238003942251, 0.0020838532296504333, -0.0005813125878485107, -0.0002854371401835289, 0.0016004627326078097, -0.0007041397818039006, 6.323192661601656e-05, -0.0017609082542288555, 0.00045808820396421433, -0.0008974503315722775, -0.0013132441809738976, -0.0006389042708305216], [-2.967752488203239e-09, -3.5308861612293106e-08, -1.793717885334441e-08, -5.5335952708901333e-08, 9.556626601181484e-09, 3.729810771346811e-08, -5.920463053143963e-08, -5.932013280585111e-08, 2.988185698882255e-08, 9.939865819319472e-09, -4.2126867327851776e-08, -1.122991699631368e-09, -7.399416190878566e-09, -3.7064612712356313e-08, -1.8674031210252863e-08, 5.8599123775593266e-08, -8.996709510711278e-08, 3.9700999820979546e-08, -7.708539584427836e-08, -2.9435090809215514e-08, -7.546178437678446e-08, 4.766787142784768e-08, -4.6577660839375206e-08, -4.5476767240870587e-08, 7.57249640770395e-09, 7.281867198116727e-08, 3.578830387596091e-08, 2.1234701108596663e-08, -8.406704665730994e-08, -8.070156098938223e-08], [0.05583562079363008, 0.018470384155597486, 0.013245925791168883, 0.007428626792774484, -0.0012489773643874992, -0.006093384428780409, 0.004309348813875589, 0.007503746646433237, -0.003495375394936809, 0.004569488801957661, 0.00017263404241065869, 0.0018883732187804563, -0.0006173399426550601, -0.00019207527058953352, 0.0019408539475915018, -0.00025771904568058605, 0.00030989583702965595, -0.0019566556925583157, -0.0004890783061733142, 0.0005191000891958044, -0.0002736022122169911, -0.0005011963649175494, -0.00034830111348194056, -0.002805160356597012, 0.00010840875617111003, -0.0013001835807764336, -0.0005261665431266735, -0.00027893003979138307, 6.61747718400662e-05, -0.00021268456149868564], [-2.967752488203239e-09, -3.5308861612293106e-08, -1.793717885334441e-08, -5.5335952708901333e-08, 9.556626601181484e-09, 3.729810771346811e-08, -5.920463053143963e-08, -5.932013280585111e-08, 2.988185698882255e-08, 9.939865819319472e-09, -4.2126867327851776e-08, -1.122991699631368e-09, -7.399416190878566e-09, -3.7064612712356313e-08, -1.8674031210252863e-08, 5.8599123775593266e-08, -8.996709510711278e-08, 3.9700999820979546e-08, -7.708539584427836e-08, -2.9435090809215514e-08, -7.546178437678446e-08, 4.766787142784768e-08, -4.6577660839375206e-08, -4.5476767240870587e-08, 7.57249640770395e-09, 7.281867198116727e-08, 3.578830387596091e-08, 2.1234701108596663e-08, -8.406704665730994e-08, -8.070156098938223e-08], [0.03208982715339007, -0.020054392662869326, -0.0064021552885723185, -0.010951172852736663, 0.011045086075207705, 0.004963194760261065, 0.005277343069303142, 0.00030121874353406165, 0.001730748235415764, 0.0032754008408607087, 0.003453802857304563, -0.006521011697542153, -0.0010687770757976656, 0.0013633968594401035, -0.0008082637211091757, -0.002917515293516437, -0.0022992652633099164, 0.004184498070122953, -0.004370220462666725, 0.00043341285594508634, -0.0005284293467920316, 0.0036104803765896016, -0.002529267321210012, 0.0013103792811142699, 0.00046981495883428864, 0.00012577260107576776, 5.6509161945041426e-05, -0.0014586641024521662, 0.0024181404169229927, -0.0012810212518850712], [-2.967752488203239e-09, -3.5308861612293106e-08, -1.793717885334441e-08, -5.5335952708901333e-08, 9.556626601181484e-09, 3.729810771346811e-08, -5.920463053143963e-08, -5.932013280585111e-08, 2.988185698882255e-08, 9.939865819319472e-09, -4.2126867327851776e-08, -1.122991699631368e-09, -7.399416190878566e-09, -3.7064612712356313e-08, -1.8674031210252863e-08, 5.8599123775593266e-08, -8.996709510711278e-08, 3.9700999820979546e-08, -7.708539584427836e-08, -2.9435090809215514e-08, -7.546178437678446e-08, 4.766787142784768e-08, -4.6577660839375206e-08, -4.5476767240870587e-08, 7.57249640770395e-09, 7.281867198116727e-08, 3.578830387596091e-08, 2.1234701108596663e-08, -8.406704665730994e-08, -8.070156098938223e-08], [0.009083261054103753, -0.0006175361557499063, -0.006676301154415386, -0.009053494139313821, 0.008866750173377022, -0.005112542505092285, -0.005995538649771713, -0.0021099434678298248, -0.0001360543806934411, -0.0015197928071063087, 0.003747515817141223, 0.0007173967783311788, 0.001035566164772349, -0.0024218998353432294, -0.003294705757659852, -0.0005522830480072767, 0.0030256051269253056, 6.0984428492881265e-06, -0.0032660516648500087, 0.000143107413537796, -0.0015531491598872096, 0.0013409567031456337, -8.08900126240846e-05, -0.0008237709868459374, 0.0008024865646045737, 7.306439649286961e-05, 0.001641247664914454, -0.0008984920669861267, 0.00022271777163274968, 0.002120895291586817], [0.011566013726284515, -0.02605342268288835, 0.0010239589005205717, -0.019889862992771193, 0.003850577065879097, 0.007238581453293352, 0.0016562564258309803, -0.005261601000165935, -0.00609545363760066, -0.0009202286468156217, -0.002315351264151082, 9.259466872747779e-05, 0.0033396929016517012, 0.003176014264445078, -0.0007174475129449545, -0.0015439814834905204, 0.0004657112128281909, -0.0028204434438004445, -0.0011955319190855354, -0.000566624815786173, 0.001306431828192871, 0.0006857328571989266, 0.0005972368249874142, 0.00047719961560540404, -0.00013578731020893794, -0.00034825850633419435, 0.0007137893545506124, -0.0007635571985621562, 0.0006807817572610293, -0.00031267806867437857], [0.026243466314241615, -0.02087798172014577, -0.00010500090317156106, -0.0032023441564006717, 0.0011691237477294354, 0.004024314866200521, -0.0034006312149541533, -0.00048714058668071746, -0.0017886053019188404, -0.0018895721043438896, -0.0019366074742376584, 0.0005863695382574692, -0.0012240208409753253, -0.0027733540444044246, -0.0006109645997580032, 0.0012390095898995443, -0.0004969936831066495, 0.0012446743981973246, 0.0007709565805593492, 0.0002943602451057661, 0.0009319977539812769, -0.00047660294359329656, 0.0008851500208646278, 0.000701207409536652, 0.0009649805340563465, 0.0004264600255698587, 6.286740937652727e-05, -9.665348017866117e-05, -0.00036252126970800586, 0.0003740745617114002], [-0.017614318007297732, -0.00278358100043874, 0.0007437577331857215, -0.005249695369317989, 0.0010760110468332465, -0.010165959041311547, -0.005090657816825143, -0.0014863461767806953, -0.0011822261695239636, 0.0005548386528773824, 0.0002545632143791542, -0.0007064558063540724, 0.0027281249516140004, -7.159977919718275e-05, 0.0001462224605751483, -0.0010469844751510684, -0.000440098475862129, 0.0015100507252015362, -0.002325884782723334, 0.0013194406043350452, -0.00015060130165891664, -4.616163272691047e-05, -0.0013089312888941572, -0.00021627209178877677, 0.0011239926027694234, 0.0003119457771039952, -0.0005848309567090981, -0.0001907943317954322, 0.0003476173730480391, 0.0007895724488884278], [-2.967752488203239e-09, -3.5308861612293106e-08, -1.793717885334441e-08, -5.5335952708901333e-08, 9.556626601181484e-09, 3.729810771346811e-08, -5.920463053143963e-08, -5.932013280585111e-08, 2.988185698882255e-08, 9.939865819319472e-09, -4.2126867327851776e-08, -1.122991699631368e-09, -7.399416190878566e-09, -3.7064612712356313e-08, -1.8674031210252863e-08, 5.8599123775593266e-08, -8.996709510711278e-08, 3.9700999820979546e-08, -7.708539584427836e-08, -2.9435090809215514e-08, -7.546178437678446e-08, 4.766787142784768e-08, -4.6577660839375206e-08, -4.5476767240870587e-08, 7.57249640770395e-09, 7.281867198116727e-08, 3.578830387596091e-08, 2.1234701108596663e-08, -8.406704665730994e-08, -8.070156098938223e-08], [-2.967752488203239e-09, -3.5308861612293106e-08, -1.793717885334441e-08, -5.5335952708901333e-08, 9.556626601181484e-09, 3.729810771346811e-08, -5.920463053143963e-08, -5.932013280585111e-08, 2.988185698882255e-08, 9.939865819319472e-09, -4.2126867327851776e-08, -1.122991699631368e-09, -7.399416190878566e-09, -3.7064612712356313e-08, -1.8674031210252863e-08, 5.8599123775593266e-08, -8.996709510711278e-08, 3.9700999820979546e-08, -7.708539584427836e-08, -2.9435090809215514e-08, -7.546178437678446e-08, 4.766787142784768e-08, -4.6577660839375206e-08, -4.5476767240870587e-08, 7.57249640770395e-09, 7.281867198116727e-08, 3.578830387596091e-08, 2.1234701108596663e-08, -8.406704665730994e-08, -8.070156098938223e-08], [-0.03226454232655354, 0.01507752311416959, -0.02065750211795997, -0.00010639728145686647, 0.0006928264177898288, 0.0034617585323382513, 0.003191306987845021, 0.008021553464970571, 0.0009488765649360318, -0.0026784990627621236, -3.2387602170516426e-05, 0.0007855829799016152, -0.004464219881077833, -0.002753411785339034, -0.0014774514480162364, -0.003990072108062036, -0.0026179293915641485, -0.0024253508450725976, -0.000591192441679723, 0.0011565327363060969, -0.00192787049440836, 0.0010287804256156054, 0.00012842559612152667, -0.0006197696068066884, -0.0012955443228527706, -0.0009472983392787393, -0.001502080233341801, -0.0015462550974971805, 0.0007590064688142207, 0.00040214685281999814], [0.007503358385045747, 0.02775580389794704, -0.019169393012171312, -0.009458461374154372, 0.01032921389799922, 0.001406790864890756, 0.0008981126488569711, -0.0008056614301049469, -0.0024732971274889445, 0.00136399271335628, 0.0011915203832619367, -0.0002846596172508682, 0.0013193572452567478, -0.000583598900055282, -0.001237113494752104, 0.002155196250841565, 0.002037911278208201, -0.003165539863017841, 0.002701353105702858, -0.0003732854165585218, -0.0056814501556172615, 0.0004257958976504852, -0.0005836420282275327, -0.0008552422443697144, -0.001928424928271795, -7.99071249139473e-05, 0.0019374845529887565, 0.00018439719268641838, -0.0008678348541147526, 0.0006533881351908251], [-0.012742631776883949, 0.06137527066551742, 0.016025256437681656, -0.0069316630468267545, 0.007495189147818977, 0.0026958091536657294, 0.007183640643598968, -0.004728319126423634, 0.002743423202538, 0.0022493435397752, -0.002891364314549709, 0.00039621762219814514, -0.0042928460654995055, -0.00015209562967339298, -0.0033683983170668, -0.0002907173993405301, 0.0006126663310840386, -0.0018235328971235435, 0.004122543511691798, -0.0012432634932234468, 0.0031343811369348743, -0.0006133975953768351, -0.0007164830787195327, 0.002664393852507935, 0.0022703248467302924, -0.00022540766119177294, 0.0008237932429308995, -0.0005739476528226725, 0.0007203976409384154, 0.002902891504305003], [0.05509195663753491, -0.02454989379679532, -0.008138869881320286, -0.01906219274703354, 0.011123105476737066, 0.004540889240605222, 0.00818285638837336, -0.002678721795241608, -0.002242269486911894, 0.00559334215194853, -0.002616454614647327, 0.0019555209159899016, -0.003978679723315038, -0.0007252065497433792, -0.0023934146358777788, 0.001503040122606137, -0.003363204456066439, 0.0037448222200114163, -0.0008811952561392828, -0.00012158530354853765, 0.0013081147468507442, 0.0014679930137403102, 0.0039137807795537145, 0.0005346838230607151, 0.0021226978936385484, -0.000822248526845275, 0.000806558845312893, 0.0018518789983020692, 0.00012019373402773908, -0.002907693387041023], [-0.03680797886907213, 0.012801223579771648, 0.00038017421481007744, 0.011377587220771597, -0.0064828503447043155, 0.01470661324891551, -0.0026499726347583882, 0.006177095215287412, -0.0031194005934966264, 0.0033864167042603, 0.000984225924889157, -0.0032002653398721316, -0.0033132178136591195, -0.0010769190722846906, 0.0016059313014433758, -0.005356270088336585, -0.003339578913539524, 0.0008243359761391896, -0.003322532711109852, 0.0009108704354292517, -0.001067658076073193, 0.0032891198075894333, 0.002129323993611104, -0.0006951635036032382, 0.0016405552594163338, 0.00024972731473541166, 0.0031260598793580226, 0.0001093214889326209, 0.0003750581267920744, 0.001187605546929705], [0.007518646605976746, 0.03311911153209867, 0.01761034928932341, -0.0030843102062684956, -0.008097493157746537, 0.0059062106001188325, 0.0012601147172953656, -0.0026361747582035154, 0.009605276213408327, 0.0019636921803671856, -0.003148124349627054, 0.0006230615955440438, 0.0020325119784604952, 0.0012153364829464142, -0.0021688434487798893, -0.0007772897423584225, 0.0020271942150686755, 0.0020013260626470402, -0.0019076343346034698, -8.772540939053497e-05, 0.00036301247483766985, -0.0017478263305084852, -0.0006109025319904315, -0.00018162309773720942, -0.00022997087905488237, -0.0006533902671205241, -0.001111595772366237, 0.0012394764103947453, 0.00020295156764413275, 0.0007002306284377528], [-2.967752488203239e-09, -3.5308861612293106e-08, -1.793717885334441e-08, -5.5335952708901333e-08, 9.556626601181484e-09, 3.729810771346811e-08, -5.920463053143963e-08, -5.932013280585111e-08, 2.988185698882255e-08, 9.939865819319472e-09, -4.2126867327851776e-08, -1.122991699631368e-09, -7.399416190878566e-09, -3.7064612712356313e-08, -1.8674031210252863e-08, 5.8599123775593266e-08, -8.996709510711278e-08, 3.9700999820979546e-08, -7.708539584427836e-08, -2.9435090809215514e-08, -7.546178437678446e-08, 4.766787142784768e-08, -4.6577660839375206e-08, -4.5476767240870587e-08, 7.57249640770395e-09, 7.281867198116727e-08, 3.578830387596091e-08, 2.1234701108596663e-08, -8.406704665730994e-08, -8.070156098938223e-08], [-0.021982553597275495, 0.007263779327343959, 0.0013861957935637735, -0.006804639947613339, -0.006290797884170425, -0.001206357602238903, -0.0012422123769046372, 0.007059350599347407, 0.000616746649266779, -0.0027170748774762703, -0.00034971866224034503, -0.0016968569658238055, -0.0023554916072714366, -0.0011539182664464197, -0.0009612744181641429, 5.642411595782699e-06, -0.0030248655614269816, -0.0007938700482924026, -0.0018146537993312913, -0.00022977315009039076, -0.00033569403914806987, -0.0010257898865438544, -8.606604518153175e-05, 0.001461741356642107, -0.0015392788675339163, 0.0008698684685502013, -0.001158501897603966, -0.0006754647092814341, 9.47806251890086e-06, -0.0003832861868770613], [0.028822762289540803, -0.028963192094892985, -0.0014572104075105394, -0.01979032863627073, 0.017537706085313774, 0.010824207417115681, 0.005285644007079421, -0.007127960873149904, -0.005201665141356593, 0.0005218378163959031, -0.0015466233094235033, 0.00211111683956368, 0.0010611336191119073, 0.0003974573694749193, -0.0021398691868244973, -0.00177706869400861, -0.0011324384073326849, -0.0009145143521559814, -0.00310019387884205, -0.0014696535357819386, 0.0028391671521355347, 0.001208119123759725, 0.0045706870878813415, 0.00019765237052277626, 0.002043750270595197, -2.1067103464611234e-05, -9.32987731602714e-06, 0.0012961132583018502, 0.0017583341652360274, -0.0029813899179765607], [-2.967752488203239e-09, -3.5308861612293106e-08, -1.793717885334441e-08, -5.5335952708901333e-08, 9.556626601181484e-09, 3.729810771346811e-08, -5.920463053143963e-08, -5.932013280585111e-08, 2.988185698882255e-08, 9.939865819319472e-09, -4.2126867327851776e-08, -1.122991699631368e-09, -7.399416190878566e-09, -3.7064612712356313e-08, -1.8674031210252863e-08, 5.8599123775593266e-08, -8.996709510711278e-08, 3.9700999820979546e-08, -7.708539584427836e-08, -2.9435090809215514e-08, -7.546178437678446e-08, 4.766787142784768e-08, -4.6577660839375206e-08, -4.5476767240870587e-08, 7.57249640770395e-09, 7.281867198116727e-08, 3.578830387596091e-08, 2.1234701108596663e-08, -8.406704665730994e-08, -8.070156098938223e-08], [-2.967752488203239e-09, -3.5308861612293106e-08, -1.793717885334441e-08, -5.5335952708901333e-08, 9.556626601181484e-09, 3.729810771346811e-08, -5.920463053143963e-08, -5.932013280585111e-08, 2.988185698882255e-08, 9.939865819319472e-09, -4.2126867327851776e-08, -1.122991699631368e-09, -7.399416190878566e-09, -3.7064612712356313e-08, -1.8674031210252863e-08, 5.8599123775593266e-08, -8.996709510711278e-08, 3.9700999820979546e-08, -7.708539584427836e-08, -2.9435090809215514e-08, -7.546178437678446e-08, 4.766787142784768e-08, -4.6577660839375206e-08, -4.5476767240870587e-08, 7.57249640770395e-09, 7.281867198116727e-08, 3.578830387596091e-08, 2.1234701108596663e-08, -8.406704665730994e-08, -8.070156098938223e-08], [-0.03857700326421623, -0.019504136784560068, 0.005158546548855202, 0.003706929543180298, -0.0016950517640901485, -0.005853919700505934, 0.0047780592460408226, -0.00023373863638773417, -0.000796559587844783, 0.006112086857655203, 0.0007916139243616864, 0.002243561556176947, 0.0019052394802317556, -0.0011147943857098361, -0.00017459266005527825, 0.0005474008766612399, 0.0003898686845472305, -0.0005391734142995081, 0.00016993116514485584, -0.0018771125332111217, -0.000371397524725588, 0.0006975545537767275, 0.0004791950376086218, 0.0006152951808528205, -0.0002469474929408813, 0.0005949434546976279, 0.0005527276844586624, 0.0006558047578903807, -0.0007334426945190285, -0.000604339972102156], [-0.010972892483570851, 0.04855605963061112, -0.0037899312167809585, -0.001286395686588499, 0.014918007729829768, -0.0036766884230834502, 0.003915317604198204, -0.008703932297627025, -0.001829241014653992, -0.0035692711835965127, -0.002127344131766882, -0.0005561138652472553, -0.001479598547623463, -0.002263518206269528, 0.004319799275165987, 0.0005715162097273443, -0.0028064404745160687, -0.0012263829609424964, 0.002470419252744708, 0.001494905362601738, -0.004332511909560815, 0.0002500695363434946, 7.930169382637206e-06, 0.001365924048544113, -0.0016406912355936883, 0.00030685708678482613, -0.000745359024615546, -0.0005960406815498328, -0.00010861363875926507, -0.0004736185268023249], [0.03150814800926113, -0.0024004783230120934, -0.005819334848156055, 0.023689675385682174, 0.009914768830307858, -0.008153927269053266, -0.004355068575224197, 0.004016485148250276, -0.003114825333285009, -0.0046774509842319074, -0.008578455433580167, -0.0004578494326749382, 0.0018355984933317217, 0.0012674191286423959, -0.000706433802008892, 0.0024138543777514907, 0.0029267581348827384, -0.0006877799048707003, -0.0017923431380879218, -0.0038436054465519737, 0.00182759342835829, -4.957589861584363e-05, -0.0006878413877538563, 0.0014733900874694282, -0.0013951156316614549, -0.000973436320282339, 0.0017704185723392025, 0.0013967029196124926, -9.143643604301953e-05, 0.0013340405078096334], [-2.967752488203239e-09, -3.5308861612293106e-08, -1.793717885334441e-08, -5.5335952708901333e-08, 9.556626601181484e-09, 3.729810771346811e-08, -5.920463053143963e-08, -5.932013280585111e-08, 2.988185698882255e-08, 9.939865819319472e-09, -4.2126867327851776e-08, -1.122991699631368e-09, -7.399416190878566e-09, -3.7064612712356313e-08, -1.8674031210252863e-08, 5.8599123775593266e-08, -8.996709510711278e-08, 3.9700999820979546e-08, -7.708539584427836e-08, -2.9435090809215514e-08, -7.546178437678446e-08, 4.766787142784768e-08, -4.6577660839375206e-08, -4.5476767240870587e-08, 7.57249640770395e-09, 7.281867198116727e-08, 3.578830387596091e-08, 2.1234701108596663e-08, -8.406704665730994e-08, -8.070156098938223e-08], [-0.030715315889373842, 0.004618929495604597, -0.015576031087303632, 0.003227347988645826, -0.007262518668476067, 0.0031641896295763437, -0.0002444673811892239, 0.0021484048985934714, -0.0015077388260077349, 0.0029086850347034613, 0.00041214732729735927, 0.002466203312628625, -0.0027750826044848583, 0.005198293899070025, 0.0023541787239923567, 0.0010596043732124677, -0.0012179680980146396, 0.0023877320429616226, 0.00022851826444890343, 0.0006355613710591906, 0.003334313877654044, -0.00012221078136750654, 0.00031472977877443456, -0.0020176606544903023, -0.0019276711762811316, -8.848620405643304e-05, 0.0016534819515664333, -0.0010499067558631828, 0.001285656023008981, 0.0006508477318675763], [0.046331108399402514, -0.012939232570370782, -0.007778101839055116, 0.007560798302536369, 0.016800619271920423, 0.0012734245314320726, 0.003901812299209192, 0.008553530953966442, 0.0033112230081381146, 0.004478588962038871, 0.0036968289948375362, -0.004189578195892328, -0.0025259517178267245, 0.00577745342018811, 0.00045556711008703344, -0.0020728001033301943, -0.0011868871357854297, 0.0013178022745674793, -0.0015350237646580102, -0.001258313267909004, -0.0022549105687116153, -0.0010211715901912437, -0.0008789597179791164, 0.0028078898067347828, -3.38996480444898e-05, 0.0035921964262502076, 0.0008780219743334147, 0.002547039526309391, 0.0013152435951731154, 0.00042864006428974924], [-2.967752488203239e-09, -3.5308861612293106e-08, -1.793717885334441e-08, -5.5335952708901333e-08, 9.556626601181484e-09, 3.729810771346811e-08, -5.920463053143963e-08, -5.932013280585111e-08, 2.988185698882255e-08, 9.939865819319472e-09, -4.2126867327851776e-08, -1.122991699631368e-09, -7.399416190878566e-09, -3.7064612712356313e-08, -1.8674031210252863e-08, 5.8599123775593266e-08, -8.996709510711278e-08, 3.9700999820979546e-08, -7.708539584427836e-08, -2.9435090809215514e-08, -7.546178437678446e-08, 4.766787142784768e-08, -4.6577660839375206e-08, -4.5476767240870587e-08, 7.57249640770395e-09, 7.281867198116727e-08, 3.578830387596091e-08, 2.1234701108596663e-08, -8.406704665730994e-08, -8.070156098938223e-08], [-0.0020943706988725734, -0.01376426990154745, 0.006651147692445343, 0.0010102411519965749, 0.003735931794080004, -0.0004381636809563582, -0.0019434861945824286, 0.004640052921889633, 0.002612990582577117, -0.0072066528940101056, -0.002792445660560202, -0.0018413662060969337, 0.0009721022024333322, -0.0028555064711142837, 0.001013581970479542, -2.6387331803039034e-05, 0.001281629538472843, 0.0004536953967091382, 0.0015092507659791182, -0.0015502846901821609, 0.0005543652563948835, -0.001425186743786723, 0.0003831377299608974, 0.0005934191036943761, -0.0007197264197679148, 0.00013981787809659588, -0.001286691252179008, -0.0008245400465315374, -0.0010278923513557135, -0.0009690100857717602], [-0.03328500211068837, -0.010861686867827368, -0.006460299161735046, -0.00150055820893173, -0.003797283770502536, -0.006341535444914588, 0.003452439841890468, 0.0020644987959070786, 0.0016035380550170877, 0.0033672496490251137, -0.002518284489431748, 0.002543354444037966, 0.00020682194903621462, 0.0007619881279678408, -0.0003998535417567797, -0.0012541865006376037, -4.3819231127773436e-05, -0.0009542795826324968, -0.0006388516252551875, -0.0011432471621081969, 0.0007262238080507718, 0.00019714021417352483, 0.0004866004427802747, -0.0002667995675536123, -0.0001344487440856205, 0.0013592413042603376, -3.3861599476193275e-05, -0.00040494960898453103, 0.001105381348749964, -0.0005785268868016268], [-0.00942012148869581, 0.0247094547406431, -0.02057125981346966, 0.0023771663962430453, -0.0009383392372619293, 0.00922505850024443, -0.0038344984110520023, 0.004938610165158636, -0.0026835056211081325, 0.0029197971992328273, 0.0046925497876252505, -0.0017330206145458318, 0.002386820347618141, -0.0003837407419678337, -0.0020817093346292307, 0.0018017517402828685, 0.0027630978565542277, -0.0003050805619138858, 0.00068122179177131, -0.00041172802664835766, 0.001247515615099458, -0.0005552660474360127, 0.0012746051555636495, -0.0009442810845153055, -0.00107035472764655, -0.0006925565214721995, 0.0007802486521898793, -0.0010488165718067688, -0.0009221997941269907, -0.00017131238132964182], [-0.0016821268743380654, -0.013059241982133749, -0.005692957746423347, -0.010941317582025028, -0.013967952120290086, 0.004295062168088612, 0.0020209783570937145, -0.002198819224437549, -0.006377474150188366, -0.0003309422018930969, 0.0018634846377016334, -0.0003862503524963071, 0.002078568029791078, 0.003872147812863021, 0.003368419632991854, 7.023356464280208e-05, 0.00231398876977364, 0.0014602028034842371, 0.0035004764863798337, -0.0008756034268301776, 0.003942083229657137, 0.0017979207425875623, -0.0016568719455666528, -9.450343762799843e-05, -0.004087290222965937, 0.0003418818131730689, 9.71307249857718e-06, 0.0016816487175801463, 0.000940774472741613, 0.0013855096335130292], [-2.967752488203239e-09, -3.5308861612293106e-08, -1.793717885334441e-08, -5.5335952708901333e-08, 9.556626601181484e-09, 3.729810771346811e-08, -5.920463053143963e-08, -5.932013280585111e-08, 2.988185698882255e-08, 9.939865819319472e-09, -4.2126867327851776e-08, -1.122991699631368e-09, -7.399416190878566e-09, -3.7064612712356313e-08, -1.8674031210252863e-08, 5.8599123775593266e-08, -8.996709510711278e-08, 3.9700999820979546e-08, -7.708539584427836e-08, -2.9435090809215514e-08, -7.546178437678446e-08, 4.766787142784768e-08, -4.6577660839375206e-08, -4.5476767240870587e-08, 7.57249640770395e-09, 7.281867198116727e-08, 3.578830387596091e-08, 2.1234701108596663e-08, -8.406704665730994e-08, -8.070156098938223e-08], [0.005618922769896001, -0.016726580800847164, -0.010190813566808555, 0.014274786683068587, 0.0051404671722678815, -0.003970793146038805, -0.006161778224468316, 0.0022181715342061243, 0.005294658815060277, -0.001807656341286995, -0.006136605897988251, -0.0009804972886899958, 0.001316800272002644, 0.0013001316054136339, -0.0004010605688517717, 0.0018768563434572074, 0.0017896606642665244, 0.0016597245349448274, 0.002554158375378662, -0.0003946882976103407, 0.0005531914039782585, 0.0015128456820148364, -0.00033807691837867723, 0.0007260062913285704, 0.0006794947244085802, 0.0003297847174098898, 7.81245162462128e-05, -0.0002989024054142436, 0.0010195862921702048, 0.0002682524947201039], [-2.967752488203239e-09, -3.5308861612293106e-08, -1.793717885334441e-08, -5.5335952708901333e-08, 9.556626601181484e-09, 3.729810771346811e-08, -5.920463053143963e-08, -5.932013280585111e-08, 2.988185698882255e-08, 9.939865819319472e-09, -4.2126867327851776e-08, -1.122991699631368e-09, -7.399416190878566e-09, -3.7064612712356313e-08, -1.8674031210252863e-08, 5.8599123775593266e-08, -8.996709510711278e-08, 3.9700999820979546e-08, -7.708539584427836e-08, -2.9435090809215514e-08, -7.546178437678446e-08, 4.766787142784768e-08, -4.6577660839375206e-08, -4.5476767240870587e-08, 7.57249640770395e-09, 7.281867198116727e-08, 3.578830387596091e-08, 2.1234701108596663e-08, -8.406704665730994e-08, -8.070156098938223e-08], [0.017270210430533436, 0.004913629562922523, -0.011866183723060838, -0.023323836755935693, 0.007324780717769058, -0.004670848492858196, -0.004172641674496283, -0.003662263933118484, -0.0048565792763888204, -0.00010879679467393159, 0.00026030654082748335, -0.0005755191562707828, 0.0028304125322922914, 0.0017078988080426237, -0.0022299280562834644, -0.0017897110669596085, 0.0020874720264567217, -0.0011760435860491607, -0.0014139057924157125, 0.0008519344555741528, -0.003834875816219162, 0.0020897157280006778, 0.00023207349250193947, -0.000645500246624794, 0.00015976631742113377, -0.0010213089084847521, 0.000419202103436955, 0.0026075431707541508, 0.0004294159515318375, 0.0022283644367589845], [0.017665669223254146, -0.009481004298602578, -0.003165148180688515, 0.004779837619844628, -0.007647759719892474, 0.005626551639198144, 0.001253362798672257, -0.00632981787091746, -0.009978395429596207, 0.0004227556831994667, 0.002687455219967112, 0.0017033616603655533, -0.0001107332252895449, -0.0010547664658615763, -0.00225862589053136, -0.0037914558998528966, 0.0018483126272785168, 0.0061445067828649344, 0.0013525447911081408, 0.0009823429583282, 0.001924560668846299, -0.000646910656159604, 3.1126211442675854e-05, 0.0007870781386156836, -0.003062651041168453, 0.0007704367774670008, -0.0018860291197519744, -0.0004839100350869258, -0.0008377759543419338, 0.00012194028093544403], [-0.016590538721411013, -0.02768933057576898, 0.006328741064133927, 0.009725709559117711, 0.001633028737985801, -0.0008605408037194928, 0.0013085284772997845, -0.0021036844540710414, 0.004085648960806104, -0.00019967930680259616, 0.0004964858858133233, -0.0024796069223842494, -0.0021173011622869983, 0.0006405567624149724, 0.0008090536309835595, 0.00107491836525117, 0.0015633923036187853, 0.0011245070226684405, 0.003022911185332547, 0.0013307413790164056, -0.0015828056800647225, 8.032758367287797e-05, -0.00021099566247296324, -0.0001981213548780203, 0.0009772315707912973, -0.0011990666610702538, -0.0008034121999678563, -7.967412887339504e-05, -0.00012173887614446429, -0.0003828665302742484], [0.04917884730111322, 0.01636465966872829, 0.015313747045597915, -0.010897081209462102, 0.0046904327490683365, -0.0015787812768149514, -0.0025595076895501604, -0.005179583838789838, 0.008907271103322168, 0.013128835398893108, 0.002239255063844287, 0.00989196491291949, -0.002218327821478555, -0.002962814189451114, 0.0009014915439554479, -0.006539398357191204, 0.0030958539337290667, -0.0007201871913563581, -0.00131179107581519, 0.0021909167743998877, -0.0010058935647759043, -0.006087191593133978, 0.005607675176020744, -0.0013582877477870566, -0.0024129968646647753, -0.0009989094248842453, 0.0002446398042719626, -0.0008903777370949234, 0.002190136521516795, 0.003628780796972244], [-0.01668998598346757, 0.030773043746308338, 0.005103976179397213, -0.008952428108924632, 0.006216125995589417, -0.013064872463059091, -0.004558336948146615, -0.0035474211627283554, -0.0036199543544453644, -0.005987923541726227, 0.0017245466351745009, 0.0011182619614615006, -0.001380599297280244, 0.003674289340905283, 0.001302948360629554, -0.0024618761656602824, -0.0029789332394669008, 0.001823544945525885, 0.0003463927041941875, 0.00019957294442663528, 0.001150934627644922, 0.0011417575014450183, 0.0002930005158368938, -0.0007006473097620089, 0.0010453345372510646, -0.00024411129518885186, -0.0011353931461882518, 0.001070395352410637, -0.0007299160722783178, -0.0006646645222465753], [-2.967752488203239e-09, -3.5308861612293106e-08, -1.793717885334441e-08, -5.5335952708901333e-08, 9.556626601181484e-09, 3.729810771346811e-08, -5.920463053143963e-08, -5.932013280585111e-08, 2.988185698882255e-08, 9.939865819319472e-09, -4.2126867327851776e-08, -1.122991699631368e-09, -7.399416190878566e-09, -3.7064612712356313e-08, -1.8674031210252863e-08, 5.8599123775593266e-08, -8.996709510711278e-08, 3.9700999820979546e-08, -7.708539584427836e-08, -2.9435090809215514e-08, -7.546178437678446e-08, 4.766787142784768e-08, -4.6577660839375206e-08, -4.5476767240870587e-08, 7.57249640770395e-09, 7.281867198116727e-08, 3.578830387596091e-08, 2.1234701108596663e-08, -8.406704665730994e-08, -8.070156098938223e-08], [-2.967752488203239e-09, -3.5308861612293106e-08, -1.793717885334441e-08, -5.5335952708901333e-08, 9.556626601181484e-09, 3.729810771346811e-08, -5.920463053143963e-08, -5.932013280585111e-08, 2.988185698882255e-08, 9.939865819319472e-09, -4.2126867327851776e-08, -1.122991699631368e-09, -7.399416190878566e-09, -3.7064612712356313e-08, -1.8674031210252863e-08, 5.8599123775593266e-08, -8.996709510711278e-08, 3.9700999820979546e-08, -7.708539584427836e-08, -2.9435090809215514e-08, -7.546178437678446e-08, 4.766787142784768e-08, -4.6577660839375206e-08, -4.5476767240870587e-08, 7.57249640770395e-09, 7.281867198116727e-08, 3.578830387596091e-08, 2.1234701108596663e-08, -8.406704665730994e-08, -8.070156098938223e-08], [0.02763958172813016, 0.015488397380326585, -0.01562558978844599, 0.0006043961182154948, -0.015615486250819951, 0.0011094480296128437, 0.006602820048963196, -0.003699418050933593, -0.003007308342467948, -0.0014332230810962362, 0.005169525174031609, -0.0019748035115878695, -0.00025485437781883784, -0.00150347647210639, 0.001065227653456251, 0.0009440823138770452, 0.0037527304888195444, 0.0016830829095439937, 0.00032577366663205133, -0.0011188683355320718, -2.642317987639526e-05, 0.0005719790289984742, -0.000446813040104543, -0.00025391288294846886, 0.0005454934941282306, 0.0014449477396774977, -0.0006470187102518158, -0.0002915739922378456, 0.0004900855800310731, -0.0002678237641929097], [0.012937265266014145, -0.023335022827005447, 0.007281825539247287, -0.01857874839344893, -0.00016303723614232796, 0.0028587372782557336, 0.006356137123835019, 0.001735598663097818, 0.002005434717324967, -0.006368487103716567, 0.001865377935079911, 0.002209759169322228, 0.004100443417544596, -0.0016711761631692742, 0.0007890628645989839, 0.0013891820139982716, -0.0009842947183239144, -0.0034495035444632623, -0.000571856292438482, 0.002618389387255413, 0.0024619506955013467, -1.5849461786988914e-05, -0.0020907042475181983, 0.0013253751356384071, -0.0003443116103502547, 0.0002162949685284644, 0.0019558750911654052, -0.0018985865969296117, -0.0017947181839000307, -6.228245105245019e-06], [-2.967752488203239e-09, -3.5308861612293106e-08, -1.793717885334441e-08, -5.5335952708901333e-08, 9.556626601181484e-09, 3.729810771346811e-08, -5.920463053143963e-08, -5.932013280585111e-08, 2.988185698882255e-08, 9.939865819319472e-09, -4.2126867327851776e-08, -1.122991699631368e-09, -7.399416190878566e-09, -3.7064612712356313e-08, -1.8674031210252863e-08, 5.8599123775593266e-08, -8.996709510711278e-08, 3.9700999820979546e-08, -7.708539584427836e-08, -2.9435090809215514e-08, -7.546178437678446e-08, 4.766787142784768e-08, -4.6577660839375206e-08, -4.5476767240870587e-08, 7.57249640770395e-09, 7.281867198116727e-08, 3.578830387596091e-08, 2.1234701108596663e-08, -8.406704665730994e-08, -8.070156098938223e-08], [-0.012728874122011574, 0.005516229257704155, -0.019384917495751133, -0.004980473292408466, -0.0010103779360757694, -0.0032073813538673526, -0.003985071509594284, 0.0022354962301075164, 0.0007734512965265806, -0.00022018670138457928, -0.0006091854897184232, -0.0026274858255138428, 0.0018268868115693057, -0.0016524944432502833, -0.0027067339870327704, -0.0004312959333768161, -0.0005237897423828439, 0.0002843424000710082, -0.0006781169554552388, -0.0003908506727046179, -0.0004638152881366419, -0.002594651105195015, -0.0003997833923859464, -0.0014191824681399551, 0.0006469817501190244, -0.0009329162941823056, -0.00034945435276325, -0.0007502489128447721, 9.392665734752705e-05, -0.00016481363269289112], [-0.002821948463951237, 0.04518668124868029, -0.009307368619846117, -0.0015757851054364923, 0.005157417608388686, 0.0031645143283661205, 0.0009603089473244704, -0.008480067509157726, -4.855932481687382e-05, -0.002199908269660992, 0.0010337078763618856, 4.449378401028135e-05, 0.0002674153975016037, 0.00043413226222608687, 0.006167163921424441, 0.0034134625564135753, -0.0014762364456359593, 0.0009413165633450654, 0.00019647338153121278, -0.0016048980909348608, -0.0006201821863069257, -0.0025310404478033465, -0.0018857927770725435, 0.0009249261109391997, -0.0007192900308317421, 0.00040125412821972887, 0.0011469669126622506, 0.0006847855587948388, -0.0009062324209065855, -0.0008685982971654252], [-2.967752488203239e-09, -3.5308861612293106e-08, -1.793717885334441e-08, -5.5335952708901333e-08, 9.556626601181484e-09, 3.729810771346811e-08, -5.920463053143963e-08, -5.932013280585111e-08, 2.988185698882255e-08, 9.939865819319472e-09, -4.2126867327851776e-08, -1.122991699631368e-09, -7.399416190878566e-09, -3.7064612712356313e-08, -1.8674031210252863e-08, 5.8599123775593266e-08, -8.996709510711278e-08, 3.9700999820979546e-08, -7.708539584427836e-08, -2.9435090809215514e-08, -7.546178437678446e-08, 4.766787142784768e-08, -4.6577660839375206e-08, -4.5476767240870587e-08, 7.57249640770395e-09, 7.281867198116727e-08, 3.578830387596091e-08, 2.1234701108596663e-08, -8.406704665730994e-08, -8.070156098938223e-08], [-2.967752488203239e-09, -3.5308861612293106e-08, -1.793717885334441e-08, -5.5335952708901333e-08, 9.556626601181484e-09, 3.729810771346811e-08, -5.920463053143963e-08, -5.932013280585111e-08, 2.988185698882255e-08, 9.939865819319472e-09, -4.2126867327851776e-08, -1.122991699631368e-09, -7.399416190878566e-09, -3.7064612712356313e-08, -1.8674031210252863e-08, 5.8599123775593266e-08, -8.996709510711278e-08, 3.9700999820979546e-08, -7.708539584427836e-08, -2.9435090809215514e-08, -7.546178437678446e-08, 4.766787142784768e-08, -4.6577660839375206e-08, -4.5476767240870587e-08, 7.57249640770395e-09, 7.281867198116727e-08, 3.578830387596091e-08, 2.1234701108596663e-08, -8.406704665730994e-08, -8.070156098938223e-08], [-2.967752488203239e-09, -3.5308861612293106e-08, -1.793717885334441e-08, -5.5335952708901333e-08, 9.556626601181484e-09, 3.729810771346811e-08, -5.920463053143963e-08, -5.932013280585111e-08, 2.988185698882255e-08, 9.939865819319472e-09, -4.2126867327851776e-08, -1.122991699631368e-09, -7.399416190878566e-09, -3.7064612712356313e-08, -1.8674031210252863e-08, 5.8599123775593266e-08, -8.996709510711278e-08, 3.9700999820979546e-08, -7.708539584427836e-08, -2.9435090809215514e-08, -7.546178437678446e-08, 4.766787142784768e-08, -4.6577660839375206e-08, -4.5476767240870587e-08, 7.57249640770395e-09, 7.281867198116727e-08, 3.578830387596091e-08, 2.1234701108596663e-08, -8.406704665730994e-08, -8.070156098938223e-08], [-2.967752488203239e-09, -3.5308861612293106e-08, -1.793717885334441e-08, -5.5335952708901333e-08, 9.556626601181484e-09, 3.729810771346811e-08, -5.920463053143963e-08, -5.932013280585111e-08, 2.988185698882255e-08, 9.939865819319472e-09, -4.2126867327851776e-08, -1.122991699631368e-09, -7.399416190878566e-09, -3.7064612712356313e-08, -1.8674031210252863e-08, 5.8599123775593266e-08, -8.996709510711278e-08, 3.9700999820979546e-08, -7.708539584427836e-08, -2.9435090809215514e-08, -7.546178437678446e-08, 4.766787142784768e-08, -4.6577660839375206e-08, -4.5476767240870587e-08, 7.57249640770395e-09, 7.281867198116727e-08, 3.578830387596091e-08, 2.1234701108596663e-08, -8.406704665730994e-08, -8.070156098938223e-08], [-2.967752488203239e-09, -3.5308861612293106e-08, -1.793717885334441e-08, -5.5335952708901333e-08, 9.556626601181484e-09, 3.729810771346811e-08, -5.920463053143963e-08, -5.932013280585111e-08, 2.988185698882255e-08, 9.939865819319472e-09, -4.2126867327851776e-08, -1.122991699631368e-09, -7.399416190878566e-09, -3.7064612712356313e-08, -1.8674031210252863e-08, 5.8599123775593266e-08, -8.996709510711278e-08, 3.9700999820979546e-08, -7.708539584427836e-08, -2.9435090809215514e-08, -7.546178437678446e-08, 4.766787142784768e-08, -4.6577660839375206e-08, -4.5476767240870587e-08, 7.57249640770395e-09, 7.281867198116727e-08, 3.578830387596091e-08, 2.1234701108596663e-08, -8.406704665730994e-08, -8.070156098938223e-08], [-0.031297759517048516, -0.027591232876493423, 0.013370568830010778, 0.007490265958073381, 0.002075505997746383, -0.001731706217382175, 0.0037809677035169076, -0.0032963139118530726, -0.0011109477671518069, 0.0032200364505725314, 0.0034593790520785384, 0.0002254847176158608, 0.0003930109108002126, -0.0014425242064234729, 0.0008100477246967414, 0.001528442070125041, 0.0010607767321313697, 0.00027717853686177264, 0.0006759804713816302, -0.000578911371770522, -0.001552810030454248, 8.690830061459415e-05, -0.00018109268808502244, 4.238873597182493e-05, 0.00031002884779162435, -0.0011687405807316148, -0.0004159396757533188, 0.0005089077232137392, -0.0011095071380861784, 0.0004252918753038795]], "bgmm_covariances": [[0.0001370440705562556, 0.00011074653547118875, 0.00013254774914705277, 8.138612683696573e-05, 4.47625158803286e-05, 3.828909718171601e-05, 2.5399726244250527e-05, 4.060692773253075e-05, 1.8590900506765638e-05, 1.9802419569448552e-05, 2.0957008180866272e-05, 1.4424796101032889e-05, 1.7950922902273002e-05, 1.3044500223366537e-05, 2.6802230628960894e-05, 1.5553152841726646e-05, 9.116649186312929e-06, 7.1374930596035755e-06, 9.26462700142742e-06, 1.2948261211566138e-05, 9.220251861076636e-06, 8.928141122978363e-06, 8.25975507582161e-06, 6.5366740556732345e-06, 8.775783334356173e-06, 8.897823087913449e-06, 8.524404356379531e-06, 4.874094331055134e-06, 4.638859036273416e-06, 5.155779485314127e-06], [0.0001075361218205336, 7.320581153258156e-05, 5.5992234068174465e-05, 3.042952667011447e-05, 1.1513230529226474e-05, 2.0859038279030724e-05, 1.2828270710519163e-05, 7.099673538307114e-06, 8.587348418103274e-06, 1.126134116385606e-05, 5.345943737980263e-06, 8.842774149385592e-06, 4.735354117680163e-06, 8.789672149002055e-06, 3.7585537226388873e-06, 5.200090107550146e-06, 4.152188742198271e-06, 2.974252791799448e-06, 4.6738944368808075e-06, 2.2651289997916107e-06, 2.7513230181401243e-06, 2.2554616500382692e-06, 1.8863108175588897e-06, 1.8193739266777585e-06, 2.9130970932218846e-06, 1.526590048972097e-06, 2.846073936195398e-06, 2.1334176060269186e-06, 1.8724835035399882e-06, 2.148041436168518e-06], [3.0254727850357688e-05, 2.193585969507694e-05, 6.5995312373464295e-06, 4.975514699860165e-06, 3.0659321055281903e-06, 2.0715104862271494e-06, 1.6117404205336543e-06, 1.2074445597439383e-06, 1.021955419370594e-06, 9.713393107328254e-07, 6.756306902389043e-07, 5.411113306763583e-07, 5.298657318538366e-07, 4.924835896720955e-07, 4.123616842358994e-07, 3.7125285719715373e-07, 3.3525778538508655e-07, 3.274568674290398e-07, 2.616543194259672e-07, 2.3351622076006613e-07, 2.1901766255420328e-07, 2.0528273125819402e-07, 1.9416440106094044e-07, 1.877015771848771e-07, 1.7191026320991423e-07, 1.5269453494208096e-07, 1.4701825724235588e-07, 1.418692894124737e-07, 1.3547746675612877e-07, 1.2682460995468627e-07], [0.0002445639816145524, 0.00021102712235139247, 0.00010134278052161622, 9.502484904806828e-05, 6.37815024308673e-05, 3.4392957744459605e-05, 1.8921302062243627e-05, 1.849422519105729e-05, 2.576753034636944e-05, 1.7172105766816384e-05, 2.0619987181359434e-05, 1.4967025160845762e-05, 1.3052415737862562e-05, 1.4941469495300055e-05, 1.0245419271063302e-05, 1.3034694725904428e-05, 1.4292362090264562e-05, 8.662725838761179e-06, 5.719733204055158e-06, 5.858966106215403e-06, 4.861363041511779e-06, 5.756595395063586e-06, 5.5290066139706854e-06, 3.4462924974334942e-06, 6.636577140641879e-06, 3.746408525002316e-06, 5.011104598320278e-06, 4.330039729362162e-06, 3.86566001018969e-06, 5.341198596829056e-06], [4.3475269734760264e-05, 2.9893209251997176e-05, 7.264508360008557e-06, 6.296194023981892e-06, 5.56813384215648e-06, 3.900847856253566e-06, 3.0929128003902733e-06, 1.3023600411544224e-06, 1.8305351276438254e-06, 1.4429802450340594e-06, 1.1010661222516053e-06, 7.482612734441371e-07, 7.795434258454528e-07, 5.848605167691194e-07, 5.133339077503742e-07, 5.246114174680954e-07, 4.6335762072372495e-07, 9.002478455138976e-07, 6.102714453297175e-07, 4.1048600175073686e-07, 4.452794386821409e-07, 3.552755477835249e-07, 4.53114584628623e-07, 3.0082253563275373e-07, 3.026231615184073e-07, 3.900129536694613e-07, 3.0634141728820887e-07, 3.0787402409280236e-07, 4.5752160205202e-07, 3.1956280383869633e-07], [0.00010807746496869374, 4.852841191379831e-05, 9.05087179916469e-05, 4.271338354831135e-05, 1.5335800469346004e-05, 1.2590341167746551e-05, 1.934325098795512e-05, 7.513473420071593e-06, 1.210937353115766e-05, 1.1325557338644158e-05, 5.814022795989243e-06, 8.486010722119938e-06, 6.983781134077197e-06, 8.376410359938706e-06, 3.5545231211628314e-06, 3.465651620840812e-06, 2.8960836542089638e-06, 7.928877777017685e-06, 4.254198377243597e-06, 3.004321246369068e-06, 2.593000381173666e-06, 2.3877493484823314e-06, 4.260584382009417e-06, 2.2250846234383805e-06, 3.22186806747927e-06, 3.135132468902969e-06, 2.5178928026497137e-06, 2.9366723245805273e-06, 3.4135677612687327e-06, 2.5428967368705655e-06], [3.129850434309907e-05, 4.033564298158849e-05, 7.051940486264469e-05, 1.0038333350030704e-05, 1.0281044139480904e-05, 1.6839551730457663e-05, 9.921059600175336e-06, 6.280675595972558e-06, 4.473398751074654e-06, 3.2750212633360897e-06, 4.203392214543195e-06, 8.475421399597128e-06, 5.875607256461462e-06, 5.711803825244661e-06, 3.0927027383127043e-06, 2.2042810129497958e-06, 1.6824782508529025e-06, 2.40199956701239e-06, 1.853583163197296e-06, 1.2862119121095854e-06, 4.013528986714309e-06, 2.0205994864976893e-06, 1.525554321479356e-06, 1.5080155429474231e-06, 2.1844395982011327e-06, 2.1429437948472787e-06, 1.916739009455414e-06, 1.773213095050214e-06, 1.3399057080691298e-06, 1.301425341706897e-06], [3.0254727850357688e-05, 2.193585969507694e-05, 6.5995312373464295e-06, 4.975514699860165e-06, 3.0659321055281903e-06, 2.0715104862271494e-06, 1.6117404205336543e-06, 1.2074445597439383e-06, 1.021955419370594e-06, 9.713393107328254e-07, 6.756306902389043e-07, 5.411113306763583e-07, 5.298657318538366e-07, 4.924835896720955e-07, 4.123616842358994e-07, 3.7125285719715373e-07, 3.3525778538508655e-07, 3.274568674290398e-07, 2.616543194259672e-07, 2.3351622076006613e-07, 2.1901766255420328e-07, 2.0528273125819402e-07, 1.9416440106094044e-07, 1.877015771848771e-07, 1.7191026320991423e-07, 1.5269453494208096e-07, 1.4701825724235588e-07, 1.418692894124737e-07, 1.3547746675612877e-07, 1.2682460995468627e-07], [3.0254727850357688e-05, 2.193585969507694e-05, 6.5995312373464295e-06, 4.975514699860165e-06, 3.0659321055281903e-06, 2.0715104862271494e-06, 1.6117404205336543e-06, 1.2074445597439383e-06, 1.021955419370594e-06, 9.713393107328254e-07, 6.756306902389043e-07, 5.411113306763583e-07, 5.298657318538366e-07, 4.924835896720955e-07, 4.123616842358994e-07, 3.7125285719715373e-07, 3.3525778538508655e-07, 3.274568674290398e-07, 2.616543194259672e-07, 2.3351622076006613e-07, 2.1901766255420328e-07, 2.0528273125819402e-07, 1.9416440106094044e-07, 1.877015771848771e-07, 1.7191026320991423e-07, 1.5269453494208096e-07, 1.4701825724235588e-07, 1.418692894124737e-07, 1.3547746675612877e-07, 1.2682460995468627e-07], [0.00016631480851311446, 0.00016214150424077983, 5.7412591545226145e-05, 3.858522105703294e-05, 3.840929804444712e-05, 2.0075880216338057e-05, 2.965841510591603e-05, 1.6808118102704824e-05, 6.154849999128118e-06, 8.4128343324473e-06, 1.1180737945361716e-05, 7.751706418437192e-06, 8.429234295366974e-06, 7.649222153599597e-06, 5.284091723095825e-06, 6.53606589290877e-06, 3.6861118095799157e-06, 6.513505650526106e-06, 4.180447759633782e-06, 2.8265923705520696e-06, 5.818098137036067e-06, 5.057671554611856e-06, 3.0140460305881998e-06, 3.4913102201544655e-06, 3.940056409755742e-06, 2.7537965274559007e-06, 2.9963373096636297e-06, 3.6349633926204784e-06, 2.812012357385846e-06, 3.2371431767338433e-06], [0.00024170209838628723, 0.00022904611335333814, 0.00015106065036443647, 0.00012608377691539577, 5.478135734269468e-05, 8.389944843198553e-05, 3.845690602377097e-05, 2.3356941040283934e-05, 2.6531958675068137e-05, 3.787588922847758e-05, 2.7483810594151857e-05, 1.8622175710443427e-05, 1.6176797132082146e-05, 2.1447951676853025e-05, 1.1848034476639848e-05, 1.648791241265428e-05, 7.524962228085217e-06, 1.0551751159807764e-05, 7.696753269748376e-06, 1.1267455895208192e-05, 6.634104032350635e-06, 9.217275883299245e-06, 7.69263466528835e-06, 5.449794353036749e-06, 8.161509172970346e-06, 5.392793461136014e-06, 5.693313924165322e-06, 5.763673738225681e-06, 8.735031959358207e-06, 6.1697384562506245e-06], [0.00022776755636041296, 0.0001415877177450874, 0.00010997680784606148, 0.0003419391924265804, 7.386539100234736e-05, 3.7799274152102795e-05, 8.52194043142735e-05, 6.127488456450222e-05, 0.00010486539873712027, 5.344088413958409e-05, 3.159996376557746e-05, 2.560060299503078e-05, 2.0687041030458372e-05, 1.768681933781823e-05, 1.8153263497844536e-05, 2.40427166348415e-05, 1.5688652605015363e-05, 2.176499075642288e-05, 1.2034904163505246e-05, 1.5817240089616815e-05, 8.158192429488262e-06, 1.4377269663748877e-05, 1.2513859660087799e-05, 1.553622615738303e-05, 8.735731278657473e-06, 8.202547311319121e-06, 8.405558189121186e-06, 9.664207287267615e-06, 6.598794078635479e-06, 9.295414800207056e-06], [8.988587834046314e-05, 2.0868701720942777e-05, 2.6885824100954196e-05, 2.5665344004861542e-05, 1.7044968687847368e-05, 7.411257732413162e-06, 9.668512694355425e-06, 7.431375210344728e-06, 1.0375261131150996e-05, 4.52294521700793e-06, 6.1588761169367725e-06, 5.957068570375609e-06, 3.138565089807359e-06, 2.646247364114561e-06, 3.290319116127099e-06, 3.427662706749631e-06, 2.7435304709040402e-06, 3.827030090563999e-06, 4.460287884044811e-06, 2.552917280313678e-06, 2.245416693892549e-06, 3.088306390593394e-06, 3.0307119462546465e-06, 1.905535524174011e-06, 1.9364644866908317e-06, 1.621481763451332e-06, 2.204128307123901e-06, 2.852945623329389e-06, 1.6467107848113015e-06, 2.018507478580821e-06], [3.284952199887549e-05, 3.0324415209770073e-05, 3.587442731255361e-05, 7.858229958227783e-06, 7.762285808093598e-06, 1.1753208311072194e-05, 8.84099294478193e-06, 3.4600705036460477e-06, 4.6756273877312055e-06, 2.863206402661678e-06, 2.9216344747000325e-06, 8.284929557055341e-06, 1.0789059291774201e-05, 3.1775938189895675e-06, 1.7656181379113464e-06, 1.7326131685733819e-06, 1.8212451620977164e-06, 1.9953223065783804e-06, 2.0275530637681593e-06, 1.7652472456029365e-06, 1.7260133392278579e-06, 2.2735796967806977e-06, 1.634544578498072e-06, 1.6169638185788225e-06, 1.5365517265657245e-06, 1.465879966331633e-06, 1.6338328743251194e-06, 1.5367167344352891e-06, 1.3030327341799678e-06, 1.2481124140352341e-06], [3.0254727850357688e-05, 2.193585969507694e-05, 6.5995312373464295e-06, 4.975514699860165e-06, 3.0659321055281903e-06, 2.0715104862271494e-06, 1.6117404205336543e-06, 1.2074445597439383e-06, 1.021955419370594e-06, 9.713393107328254e-07, 6.756306902389043e-07, 5.411113306763583e-07, 5.298657318538366e-07, 4.924835896720955e-07, 4.123616842358994e-07, 3.7125285719715373e-07, 3.3525778538508655e-07, 3.274568674290398e-07, 2.616543194259672e-07, 2.3351622076006613e-07, 2.1901766255420328e-07, 2.0528273125819402e-07, 1.9416440106094044e-07, 1.877015771848771e-07, 1.7191026320991423e-07, 1.5269453494208096e-07, 1.4701825724235588e-07, 1.418692894124737e-07, 1.3547746675612877e-07, 1.2682460995468627e-07], [9.447670638372974e-05, 1.4579648392543184e-05, 1.9786206128720334e-05, 2.9786639433140086e-05, 3.0686398624016436e-05, 1.3542809514196214e-05, 7.81876788329463e-06, 6.074168023112911e-06, 8.826579626798356e-06, 5.303356710747352e-06, 5.778470380829363e-06, 8.519134193062233e-06, 6.097698572642277e-06, 6.541772381230495e-06, 4.00710503073573e-06, 4.160196585020245e-06, 3.5926539182363004e-06, 4.131061266271918e-06, 5.422363399195049e-06, 2.0746203020686535e-06, 2.5060556216797442e-06, 2.076278602075022e-06, 2.5841432219939342e-06, 1.8299936887818339e-06, 2.418259929135057e-06, 1.767650241543139e-06, 2.6131301880817313e-06, 2.787287767790073e-06, 2.3633852917688465e-06, 1.750320548063185e-06], [3.0254727850357688e-05, 2.193585969507694e-05, 6.5995312373464295e-06, 4.975514699860165e-06, 3.0659321055281903e-06, 2.0715104862271494e-06, 1.6117404205336543e-06, 1.2074445597439383e-06, 1.021955419370594e-06, 9.713393107328254e-07, 6.756306902389043e-07, 5.411113306763583e-07, 5.298657318538366e-07, 4.924835896720955e-07, 4.123616842358994e-07, 3.7125285719715373e-07, 3.3525778538508655e-07, 3.274568674290398e-07, 2.616543194259672e-07, 2.3351622076006613e-07, 2.1901766255420328e-07, 2.0528273125819402e-07, 1.9416440106094044e-07, 1.877015771848771e-07, 1.7191026320991423e-07, 1.5269453494208096e-07, 1.4701825724235588e-07, 1.418692894124737e-07, 1.3547746675612877e-07, 1.2682460995468627e-07], [3.0254727850357688e-05, 2.193585969507694e-05, 6.5995312373464295e-06, 4.975514699860165e-06, 3.0659321055281903e-06, 2.0715104862271494e-06, 1.6117404205336543e-06, 1.2074445597439383e-06, 1.021955419370594e-06, 9.713393107328254e-07, 6.756306902389043e-07, 5.411113306763583e-07, 5.298657318538366e-07, 4.924835896720955e-07, 4.123616842358994e-07, 3.7125285719715373e-07, 3.3525778538508655e-07, 3.274568674290398e-07, 2.616543194259672e-07, 2.3351622076006613e-07, 2.1901766255420328e-07, 2.0528273125819402e-07, 1.9416440106094044e-07, 1.877015771848771e-07, 1.7191026320991423e-07, 1.5269453494208096e-07, 1.4701825724235588e-07, 1.418692894124737e-07, 1.3547746675612877e-07, 1.2682460995468627e-07], [3.0254727850357688e-05, 2.193585969507694e-05, 6.5995312373464295e-06, 4.975514699860165e-06, 3.0659321055281903e-06, 2.0715104862271494e-06, 1.6117404205336543e-06, 1.2074445597439383e-06, 1.021955419370594e-06, 9.713393107328254e-07, 6.756306902389043e-07, 5.411113306763583e-07, 5.298657318538366e-07, 4.924835896720955e-07, 4.123616842358994e-07, 3.7125285719715373e-07, 3.3525778538508655e-07, 3.274568674290398e-07, 2.616543194259672e-07, 2.3351622076006613e-07, 2.1901766255420328e-07, 2.0528273125819402e-07, 1.9416440106094044e-07, 1.877015771848771e-07, 1.7191026320991423e-07, 1.5269453494208096e-07, 1.4701825724235588e-07, 1.418692894124737e-07, 1.3547746675612877e-07, 1.2682460995468627e-07], [3.435973140421917e-05, 0.00010206424878304124, 5.92846772450713e-06, 8.05733302429162e-06, 5.792923809804582e-06, 7.527044871155465e-06, 4.084290835277775e-06, 6.850909197200203e-06, 1.290297248153469e-06, 1.8205277048956114e-06, 4.887702205163598e-06, 1.021535655855082e-06, 7.470370066852561e-07, 8.364784416672107e-07, 2.9815619502029476e-06, 5.534021007462575e-07, 6.508342449309279e-07, 5.472217566837069e-07, 4.7319167973059675e-07, 1.9228095642333106e-06, 7.416615265743892e-07, 5.015753008708471e-07, 8.115068498185223e-07, 1.5560780745485888e-06, 3.9723607673954985e-07, 4.3743485865256473e-07, 4.169661229479905e-07, 3.7293724303995736e-07, 3.6354004106431423e-07, 3.7761346903687493e-07], [3.0254727850357688e-05, 2.193585969507694e-05, 6.5995312373464295e-06, 4.975514699860165e-06, 3.0659321055281903e-06, 2.0715104862271494e-06, 1.6117404205336543e-06, 1.2074445597439383e-06, 1.021955419370594e-06, 9.713393107328254e-07, 6.756306902389043e-07, 5.411113306763583e-07, 5.298657318538366e-07, 4.924835896720955e-07, 4.123616842358994e-07, 3.7125285719715373e-07, 3.3525778538508655e-07, 3.274568674290398e-07, 2.616543194259672e-07, 2.3351622076006613e-07, 2.1901766255420328e-07, 2.0528273125819402e-07, 1.9416440106094044e-07, 1.877015771848771e-07, 1.7191026320991423e-07, 1.5269453494208096e-07, 1.4701825724235588e-07, 1.418692894124737e-07, 1.3547746675612877e-07, 1.2682460995468627e-07], [3.0254727850357688e-05, 2.193585969507694e-05, 6.5995312373464295e-06, 4.975514699860165e-06, 3.0659321055281903e-06, 2.0715104862271494e-06, 1.6117404205336543e-06, 1.2074445597439383e-06, 1.021955419370594e-06, 9.713393107328254e-07, 6.756306902389043e-07, 5.411113306763583e-07, 5.298657318538366e-07, 4.924835896720955e-07, 4.123616842358994e-07, 3.7125285719715373e-07, 3.3525778538508655e-07, 3.274568674290398e-07, 2.616543194259672e-07, 2.3351622076006613e-07, 2.1901766255420328e-07, 2.0528273125819402e-07, 1.9416440106094044e-07, 1.877015771848771e-07, 1.7191026320991423e-07, 1.5269453494208096e-07, 1.4701825724235588e-07, 1.418692894124737e-07, 1.3547746675612877e-07, 1.2682460995468627e-07], [0.000130482478476024, 4.029561933874205e-05, 7.232199669567044e-05, 5.700424681617136e-05, 1.926351517831147e-05, 2.171365962232554e-05, 1.6153611912889746e-05, 8.96873383327082e-06, 1.0626261987060423e-05, 1.0178156121476334e-05, 6.862126551183175e-06, 7.027494968492919e-06, 8.022392199901154e-06, 1.0872249071525488e-05, 6.030861724074964e-06, 7.289871794800103e-06, 7.118195008959735e-06, 4.678035990855567e-06, 7.056436342657937e-06, 3.3471562221167823e-06, 3.0570891701176684e-06, 2.9852356600493913e-06, 2.5907772664844187e-06, 2.5223749394395267e-06, 3.8927722364023685e-06, 2.0558322880564265e-06, 3.1466234208966258e-06, 3.253490396427266e-06, 3.8830968572230035e-06, 2.090452974506642e-06], [9.194087161674474e-05, 1.8170098448037747e-05, 5.35163226025017e-05, 2.086381141608006e-05, 2.5758894383584337e-05, 1.077560215320467e-05, 8.949016942988394e-06, 9.71090254700825e-06, 9.011047532756391e-06, 5.11811294276377e-06, 7.105400232583226e-06, 8.647725909993725e-06, 2.9619946015907496e-06, 6.271147474774164e-06, 4.43137003373456e-06, 4.923754595188395e-06, 3.5950442560226716e-06, 3.93932246186593e-06, 4.546646482953732e-06, 2.2159511847056547e-06, 1.9317760362699432e-06, 1.913860284429793e-06, 2.235113557040371e-06, 2.1817382590926038e-06, 2.211800241414904e-06, 2.0631955174014387e-06, 2.69871343406703e-06, 2.1033582829385626e-06, 1.646303040531343e-06, 1.6202481098067723e-06], [6.798338810611179e-05, 8.05052418429934e-05, 8.747654847227564e-05, 3.290414060016878e-05, 1.3393411813094192e-05, 2.570101707425302e-05, 1.559742653403377e-05, 1.3175397839611278e-05, 1.292122241719256e-05, 8.367209827168927e-06, 1.2903865649702681e-05, 6.585342143520254e-06, 8.6029711529074e-06, 5.703305561015899e-06, 5.927881593522809e-06, 3.825098965107423e-06, 7.4947014584743634e-06, 3.2900956928876707e-06, 3.3863816904301777e-06, 3.3415914643735647e-06, 6.780240079491935e-06, 3.2760996448823956e-06, 2.739575333808951e-06, 3.1237806176107946e-06, 2.8647399587989987e-06, 4.838551038979605e-06, 3.9836415870695275e-06, 2.1125144432777185e-06, 2.9693150962886233e-06, 3.272508180789669e-06], [6.689314769576458e-05, 5.2295195017213085e-05, 5.191167833556801e-05, 3.2759312227933255e-05, 2.1407009378435464e-05, 2.6055557173037505e-05, 6.337518488658579e-06, 1.101173426650483e-05, 6.935252709934817e-06, 5.692209793210359e-06, 4.708715796259452e-06, 9.713291745353204e-06, 9.134910253524788e-06, 9.29866933726259e-06, 5.482216719074762e-06, 5.655433600010428e-06, 2.8393268973552546e-06, 2.34877163771361e-06, 2.719885098111807e-06, 2.541659731887194e-06, 8.27593404009555e-06, 2.528545373142936e-06, 2.2199090619906066e-06, 2.5449793620475123e-06, 2.456687191152435e-06, 2.722741093696519e-06, 6.041956320366673e-06, 2.42507286000585e-06, 1.479799719161387e-06, 1.6756674680678455e-06], [3.0254727850357688e-05, 2.193585969507694e-05, 6.5995312373464295e-06, 4.975514699860165e-06, 3.0659321055281903e-06, 2.0715104862271494e-06, 1.6117404205336543e-06, 1.2074445597439383e-06, 1.021955419370594e-06, 9.713393107328254e-07, 6.756306902389043e-07, 5.411113306763583e-07, 5.298657318538366e-07, 4.924835896720955e-07, 4.123616842358994e-07, 3.7125285719715373e-07, 3.3525778538508655e-07, 3.274568674290398e-07, 2.616543194259672e-07, 2.3351622076006613e-07, 2.1901766255420328e-07, 2.0528273125819402e-07, 1.9416440106094044e-07, 1.877015771848771e-07, 1.7191026320991423e-07, 1.5269453494208096e-07, 1.4701825724235588e-07, 1.418692894124737e-07, 1.3547746675612877e-07, 1.2682460995468627e-07], [0.0004134199063153643, 0.0002268850967568616, 0.00018921471737213963, 0.00022833276821903535, 0.00011329413104967972, 9.458073456396016e-05, 0.00010994426337635979, 5.54732161441491e-05, 4.9135694237664273e-05, 6.5637510440299e-05, 5.14414204624354e-05, 3.585106020366599e-05, 3.3329685197039995e-05, 2.7460429172626627e-05, 3.219653397436293e-05, 2.0511633001776596e-05, 1.9638972965018704e-05, 2.9985277791456144e-05, 1.5994108204038634e-05, 1.966332784519198e-05, 1.5111929459407414e-05, 1.3913035702552877e-05, 1.7963360894145596e-05, 2.1238296554397466e-05, 1.1994899087789683e-05, 1.0834483948527973e-05, 1.0554003633769911e-05, 9.220137755079809e-06, 1.1338783675387283e-05, 8.238403727731288e-06], [3.0254727850357688e-05, 2.193585969507694e-05, 6.5995312373464295e-06, 4.975514699860165e-06, 3.0659321055281903e-06, 2.0715104862271494e-06, 1.6117404205336543e-06, 1.2074445597439383e-06, 1.021955419370594e-06, 9.713393107328254e-07, 6.756306902389043e-07, 5.411113306763583e-07, 5.298657318538366e-07, 4.924835896720955e-07, 4.123616842358994e-07, 3.7125285719715373e-07, 3.3525778538508655e-07, 3.274568674290398e-07, 2.616543194259672e-07, 2.3351622076006613e-07, 2.1901766255420328e-07, 2.0528273125819402e-07, 1.9416440106094044e-07, 1.877015771848771e-07, 1.7191026320991423e-07, 1.5269453494208096e-07, 1.4701825724235588e-07, 1.418692894124737e-07, 1.3547746675612877e-07, 1.2682460995468627e-07], [7.628144218977679e-05, 3.1543731376438415e-05, 9.693682824006334e-06, 1.1392155836452861e-05, 7.393428424178089e-06, 3.1700703001120106e-06, 3.553643392990242e-06, 1.8596035732225292e-06, 1.5912619341647751e-06, 2.397217801925597e-06, 1.3984558886280899e-06, 2.0354972548815366e-06, 8.798569830184247e-07, 7.926894043396137e-07, 8.689108970136296e-07, 1.1389565299607007e-06, 1.129950231276315e-06, 1.5453384012504064e-06, 1.1757208885803006e-06, 5.661668129936635e-07, 4.985840462989553e-07, 1.6111874286688213e-06, 6.672169179965015e-07, 5.137756002898268e-07, 5.0625653224276e-07, 4.591712357425756e-07, 3.7369009868085344e-07, 6.56782014161293e-07, 6.138013103273031e-07, 8.166608292121294e-07], [3.0254727850357688e-05, 2.193585969507694e-05, 6.5995312373464295e-06, 4.975514699860165e-06, 3.0659321055281903e-06, 2.0715104862271494e-06, 1.6117404205336543e-06, 1.2074445597439383e-06, 1.021955419370594e-06, 9.713393107328254e-07, 6.756306902389043e-07, 5.411113306763583e-07, 5.298657318538366e-07, 4.924835896720955e-07, 4.123616842358994e-07, 3.7125285719715373e-07, 3.3525778538508655e-07, 3.274568674290398e-07, 2.616543194259672e-07, 2.3351622076006613e-07, 2.1901766255420328e-07, 2.0528273125819402e-07, 1.9416440106094044e-07, 1.877015771848771e-07, 1.7191026320991423e-07, 1.5269453494208096e-07, 1.4701825724235588e-07, 1.418692894124737e-07, 1.3547746675612877e-07, 1.2682460995468627e-07], [3.3867334908590775e-05, 2.2844039520296056e-05, 7.953130213288147e-06, 8.62949128756704e-06, 6.111220205482826e-06, 3.5707135187030235e-06, 3.2415743390709346e-06, 1.4366359456082425e-06, 1.0747981071036903e-06, 1.136574806995219e-06, 1.3480709999741453e-06, 6.439019245313071e-07, 6.438822602085234e-07, 7.895593427645741e-07, 9.364673710559755e-07, 4.4686182744968823e-07, 8.150786123222551e-07, 4.7645850500269435e-07, 8.15718702727541e-07, 3.849165473968291e-07, 4.676050820166543e-07, 3.5786812476831673e-07, 2.824339734371389e-07, 2.9659362619330796e-07, 2.9158054366408434e-07, 2.637705557579514e-07, 3.5340762713470413e-07, 2.757942667678748e-07, 2.2226226988194646e-07, 4.455038652136545e-07], [0.0001139619963693381, 3.469562077910805e-05, 4.554679002881793e-05, 3.175558339092039e-05, 3.106987093589527e-05, 1.3557085209764238e-05, 1.0560023543694035e-05, 7.811293524738883e-06, 6.648070646794042e-06, 5.269407503669904e-06, 6.322341559039383e-06, 6.5736806012792105e-06, 5.07655690804754e-06, 4.148994234197452e-06, 4.2301047155965355e-06, 4.845185692877623e-06, 4.585755388637665e-06, 6.863170759301614e-06, 5.960452404440289e-06, 2.7765091143727854e-06, 2.8503745567264132e-06, 2.9375298385319687e-06, 4.407277141350814e-06, 2.3371401460455807e-06, 2.5634168095345297e-06, 2.135640617944432e-06, 1.9670857275472597e-06, 4.274491928454267e-06, 3.3334446485122088e-06, 3.559534158689976e-06], [0.00022733173410084494, 6.530957657676553e-05, 7.677988460174086e-05, 0.0001046641588318708, 0.00010306468083059409, 2.843667639662138e-05, 2.3920647248757647e-05, 2.7464438407237413e-05, 2.2801486635159226e-05, 1.7757770438245847e-05, 1.5992490287069192e-05, 1.043719828334008e-05, 9.837821609517143e-06, 1.6312336102036138e-05, 1.349484369475476e-05, 1.3620748378434864e-05, 1.0418554333438722e-05, 1.1105246159316117e-05, 9.00373105172181e-06, 5.404452361198328e-06, 3.7791566758671705e-06, 5.1653381455294245e-06, 6.082181825089423e-06, 4.348007031297666e-06, 4.061590539851458e-06, 3.2629181007772846e-06, 3.5929061969688147e-06, 4.538764033736863e-06, 3.962266272576527e-06, 3.917948656755571e-06], [7.475117632867488e-05, 8.796035275553497e-05, 5.801482303144873e-05, 1.9526741174700243e-05, 1.8634345164886488e-05, 1.0882006108413233e-05, 1.694168226022676e-05, 5.1364560056294914e-06, 6.133025926904519e-06, 5.2117215158807455e-06, 6.662768899607863e-06, 6.523042715937866e-06, 8.817348819016246e-06, 5.922565082501682e-06, 3.877124936062648e-06, 2.800553849828087e-06, 3.8019885474111085e-06, 2.8214706708930723e-06, 2.0240187630500995e-06, 2.2597429176631348e-06, 2.7795621386657955e-06, 3.2781739520636585e-06, 2.7712820444350773e-06, 2.068899832854001e-06, 2.7880805061665862e-06, 2.0040642543742566e-06, 1.8351761058006046e-06, 2.4982701371936905e-06, 1.503447510561954e-06, 2.5618605867251444e-06], [3.0254727850357688e-05, 2.193585969507694e-05, 6.5995312373464295e-06, 4.975514699860165e-06, 3.0659321055281903e-06, 2.0715104862271494e-06, 1.6117404205336543e-06, 1.2074445597439383e-06, 1.021955419370594e-06, 9.713393107328254e-07, 6.756306902389043e-07, 5.411113306763583e-07, 5.298657318538366e-07, 4.924835896720955e-07, 4.123616842358994e-07, 3.7125285719715373e-07, 3.3525778538508655e-07, 3.274568674290398e-07, 2.616543194259672e-07, 2.3351622076006613e-07, 2.1901766255420328e-07, 2.0528273125819402e-07, 1.9416440106094044e-07, 1.877015771848771e-07, 1.7191026320991423e-07, 1.5269453494208096e-07, 1.4701825724235588e-07, 1.418692894124737e-07, 1.3547746675612877e-07, 1.2682460995468627e-07], [3.0254727850357688e-05, 2.193585969507694e-05, 6.5995312373464295e-06, 4.975514699860165e-06, 3.0659321055281903e-06, 2.0715104862271494e-06, 1.6117404205336543e-06, 1.2074445597439383e-06, 1.021955419370594e-06, 9.713393107328254e-07, 6.756306902389043e-07, 5.411113306763583e-07, 5.298657318538366e-07, 4.924835896720955e-07, 4.123616842358994e-07, 3.7125285719715373e-07, 3.3525778538508655e-07, 3.274568674290398e-07, 2.616543194259672e-07, 2.3351622076006613e-07, 2.1901766255420328e-07, 2.0528273125819402e-07, 1.9416440106094044e-07, 1.877015771848771e-07, 1.7191026320991423e-07, 1.5269453494208096e-07, 1.4701825724235588e-07, 1.418692894124737e-07, 1.3547746675612877e-07, 1.2682460995468627e-07], [5.378015984892795e-05, 2.9143129555227757e-05, 2.0988396667640574e-05, 6.381081134940334e-06, 4.40263703222777e-06, 2.778293810932703e-06, 2.640282316183748e-06, 3.561034704516612e-06, 1.7222480542959542e-06, 1.5612272194956878e-06, 1.019838828485366e-06, 1.6976783372884445e-06, 2.78819735389657e-06, 2.2153679704312216e-06, 8.039685047144915e-07, 1.35252575260122e-06, 8.184325006853586e-07, 7.928751680285598e-07, 7.066064196248567e-07, 5.129485414744049e-07, 6.91678480811726e-07, 5.38629716059428e-07, 6.730030361410791e-07, 6.172963995103476e-07, 7.58865491042051e-07, 7.509244135072201e-07, 6.7591152018731e-07, 5.766249848502316e-07, 4.5857206862247445e-07, 4.284531328152343e-07], [3.2068705415514296e-05, 5.1605712200491275e-05, 2.1014172101305306e-05, 9.848068202172183e-06, 7.311195080670654e-06, 2.203112109885519e-06, 1.6650074479761129e-06, 1.2853484358387012e-06, 1.2732396678103168e-06, 1.1317160628338196e-06, 9.320451071525783e-07, 6.092416310414878e-07, 6.793575478035136e-07, 5.90007531549144e-07, 5.638704639876773e-07, 9.843020433218316e-07, 5.736094646786294e-07, 8.633688787102345e-07, 6.322860415288053e-07, 3.1836668233243623e-07, 1.5988273739675532e-06, 3.7214003576613163e-07, 2.898796832167213e-07, 3.001986743612657e-07, 3.988521009588343e-07, 2.710106953311219e-07, 4.601278067904152e-07, 2.9290590181118514e-07, 2.458965591454616e-07, 2.2874447299539245e-07], [0.00010260448274888462, 7.456342468919456e-05, 5.625500794772169e-05, 4.668353631389189e-05, 2.6424178158581403e-05, 5.3542086314570505e-05, 2.7359141601879107e-05, 1.9318321038990365e-05, 2.9402054609306058e-05, 2.3347683872599394e-05, 1.5140921013648106e-05, 1.887929281717257e-05, 1.4673781971686878e-05, 8.973836604402701e-06, 2.1179098340726365e-05, 6.9802402093457726e-06, 1.215907560039372e-05, 7.959459765422836e-06, 7.0079475747159455e-06, 1.1933720102907727e-05, 1.2878909847835256e-05, 9.5972850660339e-06, 5.526265350320886e-06, 8.314597612303582e-06, 9.407662742214915e-06, 1.1370626988389175e-05, 5.375193817324071e-06, 4.66893382873184e-06, 5.854796989992575e-06, 5.878303358014322e-06], [0.00015881583305039733, 3.9913872587699906e-05, 3.2452890169268437e-05, 7.046291479836842e-05, 5.942682234513629e-05, 1.9610668916289283e-05, 1.5366753397200158e-05, 1.2310881455276642e-05, 6.916412013017531e-06, 8.843149726364836e-06, 6.564027595601178e-06, 7.0710024808641085e-06, 9.705571740725106e-06, 3.924201683951705e-06, 6.07811366641309e-06, 7.134171806576354e-06, 6.656078131389146e-06, 7.109194206102961e-06, 6.78500160150518e-06, 2.2705577216908394e-06, 4.0198654211134246e-06, 4.524120306209461e-06, 4.268684152201748e-06, 2.323833964145315e-06, 2.392235829523224e-06, 4.158730047733589e-06, 1.6998832175784066e-06, 4.019453024337705e-06, 2.7957079531844284e-06, 3.222372118436537e-06], [0.00010100497221529923, 0.00012306904540432094, 7.765719229079865e-05, 3.1541132479865004e-05, 1.6681997020613345e-05, 1.6505231433357144e-05, 1.055082211305424e-05, 7.712889531318425e-06, 9.251860429751576e-06, 1.1657954156882059e-05, 6.895843320047625e-06, 5.632873045868879e-06, 7.263226692282e-06, 1.3803886961379958e-05, 6.8064642574473336e-06, 1.086856048746368e-05, 4.334795880731781e-06, 4.0763408812735525e-06, 5.169487634051885e-06, 3.098829337849463e-06, 4.335927862579232e-06, 4.0540111299804556e-06, 4.062808093662259e-06, 3.1299841069515926e-06, 3.4538149406511336e-06, 2.5846696834856313e-06, 2.590005428027219e-06, 2.284151057359537e-06, 2.2533327908268975e-06, 1.8400596498456263e-06], [0.0003547194817401006, 0.000259831790113616, 0.00018169331795359693, 9.691503076971261e-05, 5.24622363238913e-05, 4.892334948673564e-05, 4.532018664313044e-05, 7.403299544814493e-05, 3.400643178035018e-05, 3.175983694151092e-05, 2.4602119297314136e-05, 1.8169816471916984e-05, 2.522787817727031e-05, 1.7732790474989375e-05, 2.4933783831972185e-05, 1.302848137663022e-05, 1.916368578343901e-05, 1.394157058525347e-05, 1.0183963538975855e-05, 1.8181974080796977e-05, 1.3457943524829142e-05, 1.3791470961910608e-05, 1.3177861733250056e-05, 1.3567535198723803e-05, 1.3206648764520218e-05, 1.4937674134963516e-05, 1.0159792636564403e-05, 9.732032092547897e-06, 1.3896926161802331e-05, 8.342981186307496e-06], [3.0254727850357688e-05, 2.193585969507694e-05, 6.5995312373464295e-06, 4.975514699860165e-06, 3.0659321055281903e-06, 2.0715104862271494e-06, 1.6117404205336543e-06, 1.2074445597439383e-06, 1.021955419370594e-06, 9.713393107328254e-07, 6.756306902389043e-07, 5.411113306763583e-07, 5.298657318538366e-07, 4.924835896720955e-07, 4.123616842358994e-07, 3.7125285719715373e-07, 3.3525778538508655e-07, 3.274568674290398e-07, 2.616543194259672e-07, 2.3351622076006613e-07, 2.1901766255420328e-07, 2.0528273125819402e-07, 1.9416440106094044e-07, 1.877015771848771e-07, 1.7191026320991423e-07, 1.5269453494208096e-07, 1.4701825724235588e-07, 1.418692894124737e-07, 1.3547746675612877e-07, 1.2682460995468627e-07], [8.292091099643764e-05, 0.00017197543063916402, 0.00010527426317373935, 2.2526321593670816e-05, 3.379609376803013e-05, 3.190532474560817e-05, 1.7889312375390932e-05, 1.0818075543572408e-05, 1.1001089719929006e-05, 1.4251028707477536e-05, 9.66241784711066e-06, 1.1278646680578513e-05, 1.0358864548218121e-05, 1.5344639828823096e-05, 4.871140045806934e-06, 9.403950322016045e-06, 6.448872601435056e-06, 5.8954461929402745e-06, 4.201227338676683e-06, 3.985392562380564e-06, 3.882653951955237e-06, 4.048760699432027e-06, 3.2407163060857365e-06, 2.645476257182143e-06, 3.4313688809031913e-06, 2.5763002746646754e-06, 3.916835552398384e-06, 2.887939443826955e-06, 4.836865946778694e-06, 2.9741491934085126e-06], [5.4842190606516865e-05, 4.444663697984656e-05, 5.995392346469372e-06, 1.769524617246443e-05, 1.2140580322485225e-05, 5.869740808875444e-06, 2.9381786949947814e-06, 3.3579323817550986e-06, 2.214280119098331e-06, 1.2971123764946476e-06, 1.4054536232816763e-06, 1.2964247268188535e-06, 1.45378718468494e-06, 6.639704972427368e-07, 1.1254830108727443e-06, 9.7263940651041e-07, 8.333039459550962e-07, 7.12610009440081e-07, 9.013340108122774e-07, 5.566457505283947e-07, 8.070189666103694e-07, 5.908582936079539e-07, 1.4478776580190792e-06, 5.394316303527833e-07, 5.899989974888689e-07, 5.962032160669692e-07, 5.171326653829619e-07, 5.217185855542381e-07, 5.058296398927292e-07, 6.07429898941366e-07], [3.0254727850357688e-05, 2.193585969507694e-05, 6.5995312373464295e-06, 4.975514699860165e-06, 3.0659321055281903e-06, 2.0715104862271494e-06, 1.6117404205336543e-06, 1.2074445597439383e-06, 1.021955419370594e-06, 9.713393107328254e-07, 6.756306902389043e-07, 5.411113306763583e-07, 5.298657318538366e-07, 4.924835896720955e-07, 4.123616842358994e-07, 3.7125285719715373e-07, 3.3525778538508655e-07, 3.274568674290398e-07, 2.616543194259672e-07, 2.3351622076006613e-07, 2.1901766255420328e-07, 2.0528273125819402e-07, 1.9416440106094044e-07, 1.877015771848771e-07, 1.7191026320991423e-07, 1.5269453494208096e-07, 1.4701825724235588e-07, 1.418692894124737e-07, 1.3547746675612877e-07, 1.2682460995468627e-07], [3.0254727850357688e-05, 2.193585969507694e-05, 6.5995312373464295e-06, 4.975514699860165e-06, 3.0659321055281903e-06, 2.0715104862271494e-06, 1.6117404205336543e-06, 1.2074445597439383e-06, 1.021955419370594e-06, 9.713393107328254e-07, 6.756306902389043e-07, 5.411113306763583e-07, 5.298657318538366e-07, 4.924835896720955e-07, 4.123616842358994e-07, 3.7125285719715373e-07, 3.3525778538508655e-07, 3.274568674290398e-07, 2.616543194259672e-07, 2.3351622076006613e-07, 2.1901766255420328e-07, 2.0528273125819402e-07, 1.9416440106094044e-07, 1.877015771848771e-07, 1.7191026320991423e-07, 1.5269453494208096e-07, 1.4701825724235588e-07, 1.418692894124737e-07, 1.3547746675612877e-07, 1.2682460995468627e-07], [1.0719169012427548e-05, 9.453823176803058e-06, 1.4635146678782594e-05, 7.253558349524707e-06, 3.57053494235064e-06, 3.7019559136252297e-06, 3.299687154132353e-06, 2.0197975450674704e-06, 2.5963323995113114e-06, 2.886561398134053e-06, 2.9346580817497948e-06, 2.9544666251725815e-06, 4.882155637851853e-06, 1.96132977780719e-06, 1.317470849680057e-06, 1.659067475457029e-06, 1.3556960150949823e-06, 1.7896793458541797e-06, 1.4666481804726505e-06, 1.528772474433106e-06, 1.5864480624968956e-06, 1.5226854452479692e-06, 1.5851882127043908e-06, 1.2940338657014857e-06, 1.1925764131691977e-06, 1.3455864838303878e-06, 1.1303312712124046e-06, 1.4059896584086006e-06, 1.5000631829102412e-06, 1.1990501135004638e-06], [2.805297161074118e-05, 6.993722525252042e-05, 6.718783939437103e-05, 1.917036047691815e-05, 6.985028979787925e-06, 2.189271358272612e-05, 1.4256331186691463e-05, 5.2659829525892106e-06, 5.156827930940643e-06, 5.800345195991933e-06, 4.436248627544563e-06, 9.934365624258796e-06, 5.701660432889475e-06, 5.2829615303853696e-06, 5.856864348535638e-06, 2.8044149817972022e-06, 2.063337128012867e-06, 1.986981642687731e-06, 2.3320359396968725e-06, 2.108539301806598e-06, 5.832680949591271e-06, 2.196336317149773e-06, 1.7101958795895349e-06, 3.846245970536184e-06, 2.3148853914784628e-06, 4.078044700021948e-06, 2.472783535207095e-06, 1.993065912404466e-06, 3.2579386368493552e-06, 1.990952732493505e-06], [9.627442230319467e-05, 6.939407664805621e-05, 6.483726899626813e-05, 7.596177244825431e-05, 4.927235284949577e-05, 1.7272511436778683e-05, 2.1363674598013808e-05, 2.2302660023420566e-05, 2.5185949760627492e-05, 2.11280602584663e-05, 7.008717066581765e-06, 8.758256096239423e-06, 1.2598853637611475e-05, 1.956803600072468e-05, 2.165869295699757e-05, 1.0783416601180192e-05, 6.310712528368963e-06, 5.175732566075791e-06, 7.256799712932883e-06, 5.944543589751086e-06, 4.612522708457757e-06, 6.189907290086614e-06, 3.64335564242816e-06, 4.162208152465394e-06, 3.1092799002432005e-06, 3.7781432359732147e-06, 2.269247803145414e-06, 2.952660183805292e-06, 2.9832114272026723e-06, 2.8136192851158453e-06], [3.0254727850357688e-05, 2.193585969507694e-05, 6.5995312373464295e-06, 4.975514699860165e-06, 3.0659321055281903e-06, 2.0715104862271494e-06, 1.6117404205336543e-06, 1.2074445597439383e-06, 1.021955419370594e-06, 9.713393107328254e-07, 6.756306902389043e-07, 5.411113306763583e-07, 5.298657318538366e-07, 4.924835896720955e-07, 4.123616842358994e-07, 3.7125285719715373e-07, 3.3525778538508655e-07, 3.274568674290398e-07, 2.616543194259672e-07, 2.3351622076006613e-07, 2.1901766255420328e-07, 2.0528273125819402e-07, 1.9416440106094044e-07, 1.877015771848771e-07, 1.7191026320991423e-07, 1.5269453494208096e-07, 1.4701825724235588e-07, 1.418692894124737e-07, 1.3547746675612877e-07, 1.2682460995468627e-07], [0.00010020238032034802, 7.23405305514584e-05, 5.8302028130421134e-05, 4.2165224760133174e-05, 3.0168872490805782e-05, 2.1102014196538915e-05, 1.1642988387746881e-05, 6.773184837890141e-06, 4.942208596810245e-06, 7.634179946596112e-06, 5.858417878571581e-06, 6.700747331547193e-06, 5.422062131599764e-06, 3.8195741973940195e-06, 3.6090484082000907e-06, 3.917772657414782e-06, 3.771506370118135e-06, 4.488449183485597e-06, 4.069782701885601e-06, 2.7176192249941167e-06, 2.2443637318308774e-06, 2.887467837199824e-06, 2.425047276656436e-06, 2.0179338348399042e-06, 3.455227482834197e-06, 1.8211624689207943e-06, 3.3908622763811013e-06, 3.225454046294395e-06, 1.77424808473991e-06, 1.8575188731921102e-06], [0.00012399668425136946, 7.489797465760275e-05, 3.6028240637063317e-05, 9.421638731572988e-05, 3.346081874830946e-05, 1.2612184141481984e-05, 3.207181557823267e-05, 1.9263967052852498e-05, 1.251328008040996e-05, 1.5368048786627762e-05, 2.0919909215562703e-05, 2.026470107231302e-05, 5.925858692873888e-06, 1.4342579221164968e-05, 8.438799190725348e-06, 1.4307768467775247e-05, 1.0279824031435065e-05, 5.825331166049684e-06, 7.74750367555718e-06, 4.304502320832692e-06, 4.6953989040553335e-06, 9.549162088688096e-06, 6.654944314879139e-06, 4.485709840077275e-06, 2.632568433904443e-06, 2.491703770230097e-06, 3.2702817311904644e-06, 4.67567962330489e-06, 3.874584958948128e-06, 2.8330040372617183e-06], [3.0254727850357688e-05, 2.193585969507694e-05, 6.5995312373464295e-06, 4.975514699860165e-06, 3.0659321055281903e-06, 2.0715104862271494e-06, 1.6117404205336543e-06, 1.2074445597439383e-06, 1.021955419370594e-06, 9.713393107328254e-07, 6.756306902389043e-07, 5.411113306763583e-07, 5.298657318538366e-07, 4.924835896720955e-07, 4.123616842358994e-07, 3.7125285719715373e-07, 3.3525778538508655e-07, 3.274568674290398e-07, 2.616543194259672e-07, 2.3351622076006613e-07, 2.1901766255420328e-07, 2.0528273125819402e-07, 1.9416440106094044e-07, 1.877015771848771e-07, 1.7191026320991423e-07, 1.5269453494208096e-07, 1.4701825724235588e-07, 1.418692894124737e-07, 1.3547746675612877e-07, 1.2682460995468627e-07], [3.1696849555538666e-05, 2.7232881792856228e-05, 8.85544036548485e-06, 4.764547514010654e-06, 3.441099309082406e-06, 2.084567783804404e-06, 2.3249444418415435e-06, 2.0247733514053574e-06, 1.4316617837961565e-06, 3.10050410664939e-06, 1.4453626768084236e-06, 9.963226277337672e-07, 7.257783667186162e-07, 1.5029992246693748e-06, 5.721877963258304e-07, 5.646140215417199e-07, 4.869833154340983e-07, 4.49889582664252e-07, 5.059418250977433e-07, 5.875534433960631e-07, 3.974753332213796e-07, 4.866716488872159e-07, 3.0740444575960236e-07, 3.306423329279873e-07, 3.4292694488745833e-07, 2.7108734027238114e-07, 3.311416757227881e-07, 2.8079880266182784e-07, 3.1686545177493135e-07, 2.815820070943528e-07], [3.2818905758522204e-05, 2.112648899501321e-05, 2.570696905601705e-05, 1.1717590430978003e-05, 7.1550094254010674e-06, 8.47656684591549e-06, 7.728837438375113e-06, 3.189656157150301e-06, 4.917673562291296e-06, 4.744134729731103e-06, 3.2656157948938735e-06, 9.552071524939118e-06, 1.006051954536183e-05, 3.6370284202127953e-06, 2.085393818587808e-06, 2.172355124061145e-06, 2.0467199370555396e-06, 2.617522918422196e-06, 2.4649180355423745e-06, 1.882079431578516e-06, 2.5501320907558953e-06, 2.454965086944918e-06, 2.1179453683714683e-06, 1.7755028917554342e-06, 1.7023007707140837e-06, 1.56128823803814e-06, 1.6599854609296603e-06, 1.6188682759511745e-06, 1.7608374217369818e-06, 1.6071689954443343e-06], [0.0001904556898166275, 0.00013533537019234845, 6.904128721498731e-05, 4.896895023927661e-05, 6.505433273384657e-05, 2.1188851712923575e-05, 3.8200794354855446e-05, 1.6808059887844516e-05, 1.0886236822444563e-05, 9.474655867821116e-06, 6.801225270012028e-06, 8.182693743221292e-06, 1.0695499017991493e-05, 1.3458651354833357e-05, 1.5817271625756455e-05, 2.680102376355919e-05, 9.565797254449496e-06, 6.5801066786852376e-06, 7.09075951496012e-06, 6.1105204235765426e-06, 5.755069263319091e-06, 4.693109511345036e-06, 4.708392960523342e-06, 2.9300141693402056e-06, 5.024806655161693e-06, 4.450903438489781e-06, 4.2897030404522205e-06, 4.75622244177507e-06, 3.1382211186054393e-06, 3.221456991177386e-06], [4.724167013989338e-05, 3.794967111483576e-05, 2.358881371220179e-05, 1.343111718496556e-05, 1.4488538992634468e-05, 5.4743272242667916e-06, 1.4336442172658519e-05, 9.796676449154614e-06, 3.946881596693477e-06, 4.244608769027036e-06, 5.093579025755803e-06, 2.3527783520495535e-06, 4.440405625453428e-06, 3.865345593562415e-06, 2.4883282204629855e-06, 2.8353410288294968e-06, 3.624379847146894e-06, 3.7018377326999384e-06, 1.8440924322324143e-06, 1.7185319295330953e-06, 2.2125111533061775e-06, 2.370780624867875e-06, 1.5821414305922221e-06, 1.6887661878033132e-06, 2.0813732916365096e-06, 1.327935834973372e-06, 1.466560008966053e-06, 2.3775818720038318e-06, 1.4280966416323047e-06, 2.3360683939255368e-06], [3.0254727850357688e-05, 2.193585969507694e-05, 