{"timestamp_utc": "2026-03-05T08:25:16+00:00", "case_id": "elephant_7_low_large_11", "bgmm_weights": [0.008781423286651513, 9.997991108992203e-05, 0.08708062228225331, 9.995877298644569e-05, 9.994772063465339e-05, 0.00029980837568436777, 9.992561715300222e-05, 9.991456602341367e-05, 9.990351611600887e-05, 9.989246743065264e-05, 0.15183612290960208, 9.986814307909036e-05, 9.985486795582123e-05, 9.984159459716782e-05, 9.98283230028956e-05, 0.007569909477761431, 9.980165178777977e-05, 9.978825220208846e-05, 9.977485441545455e-05, 9.976145842763646e-05, 9.974806423839265e-05, 9.973467184748169e-05, 9.972128125466209e-05, 9.970789245969246e-05, 9.969450546233143e-05, 9.968112026233761e-05, 9.966773685946971e-05, 9.965435525348642e-05, 9.96409754441465e-05, 9.962759743120875e-05, 9.961422121443196e-05, 9.960084679357495e-05, 9.958747416839664e-05, 0.0005958676506017601, 9.95607253517704e-05, 0.0005935071085639738, 9.95339658476804e-05, 0.18919073829772215, 0.008317167280489451, 9.948437556478103e-05, 9.946614015412806e-05, 0.005661459013504821, 9.942949054832302e-05, 9.941107642152212e-05, 9.939266570497769e-05, 9.93742583980582e-05, 0.12693164370789334, 9.933175704732658e-05, 9.930766543904052e-05, 9.928357967385646e-05, 9.925949975035726e-05, 9.923542566712608e-05, 9.921135742274644e-05, 9.918729501580219e-05, 9.916323844487758e-05, 9.913918770855715e-05, 0.010504933789366963, 9.909047562742812e-05, 0.03231041326798117, 9.903898890975389e-05, 0.15808538566487879, 9.896496162613001e-05, 0.0025022190245721243, 9.88700586423248e-05, 0.00077865027391216, 9.877453571627115e-05, 0.0002961801730075239, 9.86789002142107e-05, 9.863109405453488e-05, 9.858331105511821e-05, 9.853555120474045e-05, 0.0003931833365830524, 9.84400316398401e-05, 0.16251962106815188, 0.017025428028612632, 9.774002184076091e-05, 0.004154737759671426, 0.0003851614887948874, 0.0055699558824464455, 0.01304801875700898], "bgmm_means": [[0.01605075975837213, 0.007096013541301468, 0.004441283671355384, 0.002861736144264802, -0.0024977051737065633, -0.0009207693424260348, -3.0548824185202684e-05, 0.0002893272750593872, 0.001965545689994302, -0.0015605972854684817, -0.001262774616825644, -0.0004196387242063295, 0.0011624357709333582, -0.0004017571018025169, -0.0003822832464157491, 2.2166559922408163e-05, -0.0004041100549513626, -0.00011397605661671828, 4.982284390792218e-05, 0.00010975517455355265, 0.00020011241270561793, -0.00047227782129616574, -2.2131339336430935e-05, -0.00012956447261201583, -0.0001935311954352831, -0.00031505552819455576, -3.933358301676656e-05, 0.00019443801658626303, 5.498218893293595e-06, -2.735384796192023e-05], [6.542056496527934e-08, -1.1166669366957624e-07, 5.8572855010652215e-08, 2.71984994526519e-08, -1.3410891597231937e-07, -6.624613035910428e-08, -2.7903157118203063e-08, -1.1157777635162322e-07, -2.3958163453130457e-08, -1.17208927008505e-07, 3.953855554073007e-08, -3.9787543926195126e-08, -4.469368164450306e-08, -1.2299057772224814e-08, -1.2127048876209274e-07, 3.738250242690802e-08, -6.685002773565415e-08, 7.831474846398106e-08, -1.0876398448544908e-08, -1.4753043231507912e-08, 2.91600361634891e-08, 6.46870361720174e-08, 4.7919463952439295e-08, -4.296321876040556e-08, 2.2220085327262446e-08, 8.279945262756864e-08, -2.7515223877116964e-08, -8.203871715295445e-08, -4.327618086108477e-08, 9.917187071550848e-08], [0.049241242267771455, 0.0013377264043788278, 0.0013642897961770358, -0.0006283369338568364, -0.0009736144262937362, -0.002159000386579102, -0.0005026961090302738, -0.001105444299520997, -0.00028508943243592906, 0.0009070394324360197, 0.0008391768620709505, -0.0003842392549853797, -0.00012860654923969707, -4.73217496370673e-05, -0.00016042681919080056, -0.0002025313090582846, 0.00015596818878613772, -7.441422140473568e-08, 8.388689318839322e-05, -0.00012664167249250147, 0.00011398451212031001, 3.701815133879877e-05, -2.3422969017884095e-06, -0.00010959461641553773, 9.056664556448883e-05, 4.471370519451604e-05, 5.47405485575768e-06, -1.8924264142281487e-05, 8.339965824837336e-06, 1.657881272120277e-05], [6.542056496527934e-08, -1.1166669366957624e-07, 5.8572855010652215e-08, 2.71984994526519e-08, -1.3410891597231937e-07, -6.624613035910428e-08, -2.7903157118203063e-08, -1.1157777635162322e-07, -2.3958163453130457e-08, -1.17208927008505e-07, 3.953855554073007e-08, -3.9787543926195126e-08, -4.469368164450306e-08, -1.2299057772224814e-08, -1.2127048876209274e-07, 3.738250242690802e-08, -6.685002773565415e-08, 7.831474846398106e-08, -1.0876398448544908e-08, -1.4753043231507912e-08, 2.91600361634891e-08, 6.46870361720174e-08, 4.7919463952439295e-08, -4.296321876040556e-08, 2.2220085327262446e-08, 8.279945262756864e-08, -2.7515223877116964e-08, -8.203871715295445e-08, -4.327618086108477e-08, 9.917187071550848e-08], [6.542056496527934e-08, -1.1166669366957624e-07, 5.8572855010652215e-08, 2.71984994526519e-08, -1.3410891597231937e-07, -6.624613035910428e-08, -2.7903157118203063e-08, -1.1157777635162322e-07, -2.3958163453130457e-08, -1.17208927008505e-07, 3.953855554073007e-08, -3.9787543926195126e-08, -4.469368164450306e-08, -1.2299057772224814e-08, -1.2127048876209274e-07, 3.738250242690802e-08, -6.685002773565415e-08, 7.831474846398106e-08, -1.0876398448544908e-08, -1.4753043231507912e-08, 2.91600361634891e-08, 6.46870361720174e-08, 4.7919463952439295e-08, -4.296321876040556e-08, 2.2220085327262446e-08, 8.279945262756864e-08, -2.7515223877116964e-08, -8.203871715295445e-08, -4.327618086108477e-08, 9.917187071550848e-08], [0.005288305636962072, 0.002924159951597448, 0.007678946750430234, 0.00023332408861198573, -2.7227796478826346e-05, 0.0006416685777891676, -0.0013144640574077045, 0.0009726922139318783, 0.0007598792275399607, -0.0008677538281655011, -0.002157625172560146, -0.0003785404620921474, 0.001120207557702491, -0.0010005262578877488, -0.0008570314137019658, 0.0004461953943510768, 0.00010135024062991424, 0.000216237282007342, -0.0007514784202886965, -0.0013464752667678936, -0.0006832238996144614, 0.0009562992536813461, 0.00053377364043635, -0.0005220118000568497, 0.0004088712299157212, -0.0006518940486379912, 3.674963707246516e-05, 2.4146841426159355e-05, -0.00014546842605218227, -0.0004616813750643255], [6.542056496527934e-08, -1.1166669366957624e-07, 5.8572855010652215e-08, 2.71984994526519e-08, -1.3410891597231937e-07, -6.624613035910428e-08, -2.7903157118203063e-08, -1.1157777635162322e-07, -2.3958163453130457e-08, -1.17208927008505e-07, 3.953855554073007e-08, -3.9787543926195126e-08, -4.469368164450306e-08, -1.2299057772224814e-08, -1.2127048876209274e-07, 3.738250242690802e-08, -6.685002773565415e-08, 7.831474846398106e-08, -1.0876398448544908e-08, -1.4753043231507912e-08, 2.91600361634891e-08, 6.46870361720174e-08, 4.7919463952439295e-08, -4.296321876040556e-08, 2.2220085327262446e-08, 8.279945262756864e-08, -2.7515223877116964e-08, -8.203871715295445e-08, -4.327618086108477e-08, 9.917187071550848e-08], [6.542056496527934e-08, -1.1166669366957624e-07, 5.8572855010652215e-08, 2.71984994526519e-08, -1.3410891597231937e-07, -6.624613035910428e-08, -2.7903157118203063e-08, -1.1157777635162322e-07, -2.3958163453130457e-08, -1.17208927008505e-07, 3.953855554073007e-08, -3.9787543926195126e-08, -4.469368164450306e-08, -1.2299057772224814e-08, -1.2127048876209274e-07, 3.738250242690802e-08, -6.685002773565415e-08, 7.831474846398106e-08, -1.0876398448544908e-08, -1.4753043231507912e-08, 2.91600361634891e-08, 6.46870361720174e-08, 4.7919463952439295e-08, -4.296321876040556e-08, 2.2220085327262446e-08, 8.279945262756864e-08, -2.7515223877116964e-08, -8.203871715295445e-08, -4.327618086108477e-08, 9.917187071550848e-08], [6.542056496527934e-08, -1.1166669366957624e-07, 5.8572855010652215e-08, 2.71984994526519e-08, -1.3410891597231937e-07, -6.624613035910428e-08, -2.7903157118203063e-08, -1.1157777635162322e-07, -2.3958163453130457e-08, -1.17208927008505e-07, 3.953855554073007e-08, -3.9787543926195126e-08, -4.469368164450306e-08, -1.2299057772224814e-08, -1.2127048876209274e-07, 3.738250242690802e-08, -6.685002773565415e-08, 7.831474846398106e-08, -1.0876398448544908e-08, -1.4753043231507912e-08, 2.91600361634891e-08, 6.46870361720174e-08, 4.7919463952439295e-08, -4.296321876040556e-08, 2.2220085327262446e-08, 8.279945262756864e-08, -2.7515223877116964e-08, -8.203871715295445e-08, -4.327618086108477e-08, 9.917187071550848e-08], [6.542056496527934e-08, -1.1166669366957624e-07, 5.8572855010652215e-08, 2.71984994526519e-08, -1.3410891597231937e-07, -6.624613035910428e-08, -2.7903157118203063e-08, -1.1157777635162322e-07, -2.3958163453130457e-08, -1.17208927008505e-07, 3.953855554073007e-08, -3.9787543926195126e-08, -4.469368164450306e-08, -1.2299057772224814e-08, -1.2127048876209274e-07, 3.738250242690802e-08, -6.685002773565415e-08, 7.831474846398106e-08, -1.0876398448544908e-08, -1.4753043231507912e-08, 2.91600361634891e-08, 6.46870361720174e-08, 4.7919463952439295e-08, -4.296321876040556e-08, 2.2220085327262446e-08, 8.279945262756864e-08, -2.7515223877116964e-08, -8.203871715295445e-08, -4.327618086108477e-08, 9.917187071550848e-08], [-0.023179248634045222, -0.0014743482509286439, -0.0017181848453021033, -4.311995738112183e-05, 0.00033730742335831614, -0.0013386338940735139, -0.0009642810349399538, 5.0694318292355986e-05, 0.00015056498253777995, -0.0001400806171997752, -7.063073333243268e-05, -0.0002660129881349587, -0.00011216489916749684, 2.3297088954133653e-06, 0.00020842326953801843, 0.00011525608120889766, -8.618551127517496e-05, -0.00012497333832575395, 0.00011665228477513546, -2.010475343366559e-05, 3.0901327592989715e-06, 6.533069546372247e-07, -1.7595994228845283e-05, 7.060018211212701e-05, -1.6392307730078794e-06, 4.076063677399877e-05, 4.2781359439550846e-05, 3.630878142070735e-05, -1.1084171135051262e-05, -2.480666357465029e-05], [6.542056496527934e-08, -1.1166669366957624e-07, 5.8572855010652215e-08, 2.71984994526519e-08, -1.3410891597231937e-07, -6.624613035910428e-08, -2.7903157118203063e-08, -1.1157777635162322e-07, -2.3958163453130457e-08, -1.17208927008505e-07, 3.953855554073007e-08, -3.9787543926195126e-08, -4.469368164450306e-08, -1.2299057772224814e-08, -1.2127048876209274e-07, 3.738250242690802e-08, -6.685002773565415e-08, 7.831474846398106e-08, -1.0876398448544908e-08, -1.4753043231507912e-08, 2.91600361634891e-08, 6.46870361720174e-08, 4.7919463952439295e-08, -4.296321876040556e-08, 2.2220085327262446e-08, 8.279945262756864e-08, -2.7515223877116964e-08, -8.203871715295445e-08, -4.327618086108477e-08, 9.917187071550848e-08], [6.542056496527934e-08, -1.1166669366957624e-07, 5.8572855010652215e-08, 2.71984994526519e-08, -1.3410891597231937e-07, -6.624613035910428e-08, -2.7903157118203063e-08, -1.1157777635162322e-07, -2.3958163453130457e-08, -1.17208927008505e-07, 3.953855554073007e-08, -3.9787543926195126e-08, -4.469368164450306e-08, -1.2299057772224814e-08, -1.2127048876209274e-07, 3.738250242690802e-08, -6.685002773565415e-08, 7.831474846398106e-08, -1.0876398448544908e-08, -1.4753043231507912e-08, 2.91600361634891e-08, 6.46870361720174e-08, 4.7919463952439295e-08, -4.296321876040556e-08, 2.2220085327262446e-08, 8.279945262756864e-08, -2.7515223877116964e-08, -8.203871715295445e-08, -4.327618086108477e-08, 9.917187071550848e-08], [6.542056496527934e-08, -1.1166669366957624e-07, 5.8572855010652215e-08, 2.71984994526519e-08, -1.3410891597231937e-07, -6.624613035910428e-08, -2.7903157118203063e-08, -1.1157777635162322e-07, -2.3958163453130457e-08, -1.17208927008505e-07, 3.953855554073007e-08, -3.9787543926195126e-08, -4.469368164450306e-08, -1.2299057772224814e-08, -1.2127048876209274e-07, 3.738250242690802e-08, -6.685002773565415e-08, 7.831474846398106e-08, -1.0876398448544908e-08, -1.4753043231507912e-08, 2.91600361634891e-08, 6.46870361720174e-08, 4.7919463952439295e-08, -4.296321876040556e-08, 2.2220085327262446e-08, 8.279945262756864e-08, -2.7515223877116964e-08, -8.203871715295445e-08, -4.327618086108477e-08, 9.917187071550848e-08], [6.542056496527934e-08, -1.1166669366957624e-07, 5.8572855010652215e-08, 2.71984994526519e-08, -1.3410891597231937e-07, -6.624613035910428e-08, -2.7903157118203063e-08, -1.1157777635162322e-07, -2.3958163453130457e-08, -1.17208927008505e-07, 3.953855554073007e-08, -3.9787543926195126e-08, -4.469368164450306e-08, -1.2299057772224814e-08, -1.2127048876209274e-07, 3.738250242690802e-08, -6.685002773565415e-08, 7.831474846398106e-08, -1.0876398448544908e-08, -1.4753043231507912e-08, 2.91600361634891e-08, 6.46870361720174e-08, 4.7919463952439295e-08, -4.296321876040556e-08, 2.2220085327262446e-08, 8.279945262756864e-08, -2.7515223877116964e-08, -8.203871715295445e-08, -4.327618086108477e-08, 9.917187071550848e-08], [-0.03933572194450163, 0.011450748006924067, -0.0019470172931129492, -0.001360218828920637, -2.313250572440882e-05, -0.00047795950082390906, 0.0005956672278131014, -0.0011010779662329695, 0.0015036979873378014, 0.0005203730216345962, 0.0007083902519721405, 0.00048434665362193075, -0.00026143544817003875, 0.000225756379324829, -0.0005339878358466829, 0.00022586224299703345, 0.00012432617371627345, 0.00021284190051496665, -0.0005202377862498604, 0.00016464375163503065, 5.196385611753614e-05, -4.866483957120454e-05, -3.337714440157624e-05, -0.00038945031302280663, 4.557737377221244e-05, 5.617568991743634e-05, -2.2868046741367574e-06, 3.577103488940046e-05, -0.00010254485418946765, -2.4236610518105634e-05], [6.542056496527934e-08, -1.1166669366957624e-07, 5.8572855010652215e-08, 2.71984994526519e-08, -1.3410891597231937e-07, -6.624613035910428e-08, -2.7903157118203063e-08, -1.1157777635162322e-07, -2.3958163453130457e-08, -1.17208927008505e-07, 3.953855554073007e-08, -3.9787543926195126e-08, -4.469368164450306e-08, -1.2299057772224814e-08, -1.2127048876209274e-07, 3.738250242690802e-08, -6.685002773565415e-08, 7.831474846398106e-08, -1.0876398448544908e-08, -1.4753043231507912e-08, 2.91600361634891e-08, 6.46870361720174e-08, 4.7919463952439295e-08, -4.296321876040556e-08, 2.2220085327262446e-08, 8.279945262756864e-08, -2.7515223877116964e-08, -8.203871715295445e-08, -4.327618086108477e-08, 9.917187071550848e-08], [6.542056496527934e-08, -1.1166669366957624e-07, 5.8572855010652215e-08, 2.71984994526519e-08, -1.3410891597231937e-07, -6.624613035910428e-08, -2.7903157118203063e-08, -1.1157777635162322e-07, -2.3958163453130457e-08, -1.17208927008505e-07, 3.953855554073007e-08, -3.9787543926195126e-08, -4.469368164450306e-08, -1.2299057772224814e-08, -1.2127048876209274e-07, 3.738250242690802e-08, -6.685002773565415e-08, 7.831474846398106e-08, -1.0876398448544908e-08, -1.4753043231507912e-08, 2.91600361634891e-08, 6.46870361720174e-08, 4.7919463952439295e-08, -4.296321876040556e-08, 2.2220085327262446e-08, 8.279945262756864e-08, -2.7515223877116964e-08, -8.203871715295445e-08, -4.327618086108477e-08, 9.917187071550848e-08], [6.542056496527934e-08, -1.1166669366957624e-07, 5.8572855010652215e-08, 2.71984994526519e-08, -1.3410891597231937e-07, -6.624613035910428e-08, -2.7903157118203063e-08, -1.1157777635162322e-07, -2.3958163453130457e-08, -1.17208927008505e-07, 3.953855554073007e-08, -3.9787543926195126e-08, -4.469368164450306e-08, -1.2299057772224814e-08, -1.2127048876209274e-07, 3.738250242690802e-08, -6.685002773565415e-08, 7.831474846398106e-08, -1.0876398448544908e-08, -1.4753043231507912e-08, 2.91600361634891e-08, 6.46870361720174e-08, 4.7919463952439295e-08, -4.296321876040556e-08, 2.2220085327262446e-08, 8.279945262756864e-08, -2.7515223877116964e-08, -8.203871715295445e-08, -4.327618086108477e-08, 9.917187071550848e-08], [6.542056496527934e-08, -1.1166669366957624e-07, 5.8572855010652215e-08, 2.71984994526519e-08, -1.3410891597231937e-07, -6.624613035910428e-08, -2.7903157118203063e-08, -1.1157777635162322e-07, -2.3958163453130457e-08, -1.17208927008505e-07, 3.953855554073007e-08, -3.9787543926195126e-08, -4.469368164450306e-08, -1.2299057772224814e-08, -1.2127048876209274e-07, 3.738250242690802e-08, -6.685002773565415e-08, 7.831474846398106e-08, -1.0876398448544908e-08, -1.4753043231507912e-08, 2.91600361634891e-08, 6.46870361720174e-08, 4.7919463952439295e-08, -4.296321876040556e-08, 2.2220085327262446e-08, 8.279945262756864e-08, -2.7515223877116964e-08, -8.203871715295445e-08, -4.327618086108477e-08, 9.917187071550848e-08], [6.542056496527934e-08, -1.1166669366957624e-07, 5.8572855010652215e-08, 2.71984994526519e-08, -1.3410891597231937e-07, -6.624613035910428e-08, -2.7903157118203063e-08, -1.1157777635162322e-07, -2.3958163453130457e-08, -1.17208927008505e-07, 3.953855554073007e-08, -3.9787543926195126e-08, -4.469368164450306e-08, -1.2299057772224814e-08, -1.2127048876209274e-07, 3.738250242690802e-08, -6.685002773565415e-08, 7.831474846398106e-08, -1.0876398448544908e-08, -1.4753043231507912e-08, 2.91600361634891e-08, 6.46870361720174e-08, 4.7919463952439295e-08, -4.296321876040556e-08, 2.2220085327262446e-08, 8.279945262756864e-08, -2.7515223877116964e-08, -8.203871715295445e-08, -4.327618086108477e-08, 9.917187071550848e-08], [6.542056496527934e-08, -1.1166669366957624e-07, 5.8572855010652215e-08, 2.71984994526519e-08, -1.3410891597231937e-07, -6.624613035910428e-08, -2.7903157118203063e-08, -1.1157777635162322e-07, -2.3958163453130457e-08, -1.17208927008505e-07, 3.953855554073007e-08, -3.9787543926195126e-08, -4.469368164450306e-08, -1.2299057772224814e-08, -1.2127048876209274e-07, 3.738250242690802e-08, -6.685002773565415e-08, 7.831474846398106e-08, -1.0876398448544908e-08, -1.4753043231507912e-08, 2.91600361634891e-08, 6.46870361720174e-08, 4.7919463952439295e-08, -4.296321876040556e-08, 2.2220085327262446e-08, 8.279945262756864e-08, -2.7515223877116964e-08, -8.203871715295445e-08, -4.327618086108477e-08, 9.917187071550848e-08], [6.542056496527934e-08, -1.1166669366957624e-07, 5.8572855010652215e-08, 2.71984994526519e-08, -1.3410891597231937e-07, -6.624613035910428e-08, -2.7903157118203063e-08, -1.1157777635162322e-07, -2.3958163453130457e-08, -1.17208927008505e-07, 3.953855554073007e-08, -3.9787543926195126e-08, -4.469368164450306e-08, -1.2299057772224814e-08, -1.2127048876209274e-07, 3.738250242690802e-08, -6.685002773565415e-08, 7.831474846398106e-08, -1.0876398448544908e-08, -1.4753043231507912e-08, 2.91600361634891e-08, 6.46870361720174e-08, 4.7919463952439295e-08, -4.296321876040556e-08, 2.2220085327262446e-08, 8.279945262756864e-08, -2.7515223877116964e-08, -8.203871715295445e-08, -4.327618086108477e-08, 9.917187071550848e-08], [6.542056496527934e-08, -1.1166669366957624e-07, 5.8572855010652215e-08, 2.71984994526519e-08, -1.3410891597231937e-07, -6.624613035910428e-08, -2.7903157118203063e-08, -1.1157777635162322e-07, -2.3958163453130457e-08, -1.17208927008505e-07, 3.953855554073007e-08, -3.9787543926195126e-08, -4.469368164450306e-08, -1.2299057772224814e-08, -1.2127048876209274e-07, 3.738250242690802e-08, -6.685002773565415e-08, 7.831474846398106e-08, -1.0876398448544908e-08, -1.4753043231507912e-08, 2.91600361634891e-08, 6.46870361720174e-08, 4.7919463952439295e-08, -4.296321876040556e-08, 2.2220085327262446e-08, 8.279945262756864e-08, -2.7515223877116964e-08, -8.203871715295445e-08, -4.327618086108477e-08, 9.917187071550848e-08], [6.542056496527934e-08, -1.1166669366957624e-07, 5.8572855010652215e-08, 2.71984994526519e-08, -1.3410891597231937e-07, -6.624613035910428e-08, -2.7903157118203063e-08, -1.1157777635162322e-07, -2.3958163453130457e-08, -1.17208927008505e-07, 3.953855554073007e-08, -3.9787543926195126e-08, -4.469368164450306e-08, -1.2299057772224814e-08, -1.2127048876209274e-07, 3.738250242690802e-08, -6.685002773565415e-08, 7.831474846398106e-08, -1.0876398448544908e-08, -1.4753043231507912e-08, 2.91600361634891e-08, 6.46870361720174e-08, 4.7919463952439295e-08, -4.296321876040556e-08, 2.2220085327262446e-08, 8.279945262756864e-08, -2.7515223877116964e-08, -8.203871715295445e-08, -4.327618086108477e-08, 9.917187071550848e-08], [6.542056496527934e-08, -1.1166669366957624e-07, 5.8572855010652215e-08, 2.71984994526519e-08, -1.3410891597231937e-07, -6.624613035910428e-08, -2.7903157118203063e-08, -1.1157777635162322e-07, -2.3958163453130457e-08, -1.17208927008505e-07, 3.953855554073007e-08, -3.9787543926195126e-08, -4.469368164450306e-08, -1.2299057772224814e-08, -1.2127048876209274e-07, 3.738250242690802e-08, -6.685002773565415e-08, 7.831474846398106e-08, -1.0876398448544908e-08, -1.4753043231507912e-08, 2.91600361634891e-08, 6.46870361720174e-08, 4.7919463952439295e-08, -4.296321876040556e-08, 2.2220085327262446e-08, 8.279945262756864e-08, -2.7515223877116964e-08, -8.203871715295445e-08, -4.327618086108477e-08, 9.917187071550848e-08], [6.542056496527934e-08, -1.1166669366957624e-07, 5.8572855010652215e-08, 2.71984994526519e-08, -1.3410891597231937e-07, -6.624613035910428e-08, -2.7903157118203063e-08, -1.1157777635162322e-07, -2.3958163453130457e-08, -1.17208927008505e-07, 3.953855554073007e-08, -3.9787543926195126e-08, -4.469368164450306e-08, -1.2299057772224814e-08, -1.2127048876209274e-07, 3.738250242690802e-08, -6.685002773565415e-08, 7.831474846398106e-08, -1.0876398448544908e-08, -1.4753043231507912e-08, 2.91600361634891e-08, 6.46870361720174e-08, 4.7919463952439295e-08, -4.296321876040556e-08, 2.2220085327262446e-08, 8.279945262756864e-08, -2.7515223877116964e-08, -8.203871715295445e-08, -4.327618086108477e-08, 9.917187071550848e-08], [6.542056496527934e-08, -1.1166669366957624e-07, 5.8572855010652215e-08, 2.71984994526519e-08, -1.3410891597231937e-07, -6.624613035910428e-08, -2.7903157118203063e-08, -1.1157777635162322e-07, -2.3958163453130457e-08, -1.17208927008505e-07, 3.953855554073007e-08, -3.9787543926195126e-08, -4.469368164450306e-08, -1.2299057772224814e-08, -1.2127048876209274e-07, 3.738250242690802e-08, -6.685002773565415e-08, 7.831474846398106e-08, -1.0876398448544908e-08, -1.4753043231507912e-08, 2.91600361634891e-08, 6.46870361720174e-08, 4.7919463952439295e-08, -4.296321876040556e-08, 2.2220085327262446e-08, 8.279945262756864e-08, -2.7515223877116964e-08, -8.203871715295445e-08, -4.327618086108477e-08, 9.917187071550848e-08], [6.542056496527934e-08, -1.1166669366957624e-07, 5.8572855010652215e-08, 2.71984994526519e-08, -1.3410891597231937e-07, -6.624613035910428e-08, -2.7903157118203063e-08, -1.1157777635162322e-07, -2.3958163453130457e-08, -1.17208927008505e-07, 3.953855554073007e-08, -3.9787543926195126e-08, -4.469368164450306e-08, -1.2299057772224814e-08, -1.2127048876209274e-07, 3.738250242690802e-08, -6.685002773565415e-08, 7.831474846398106e-08, -1.0876398448544908e-08, -1.4753043231507912e-08, 2.91600361634891e-08, 6.46870361720174e-08, 4.7919463952439295e-08, -4.296321876040556e-08, 2.2220085327262446e-08, 8.279945262756864e-08, -2.7515223877116964e-08, -8.203871715295445e-08, -4.327618086108477e-08, 9.917187071550848e-08], [6.542056496527934e-08, -1.1166669366957624e-07, 5.8572855010652215e-08, 2.71984994526519e-08, -1.3410891597231937e-07, -6.624613035910428e-08, -2.7903157118203063e-08, -1.1157777635162322e-07, -2.3958163453130457e-08, -1.17208927008505e-07, 3.953855554073007e-08, -3.9787543926195126e-08, -4.469368164450306e-08, -1.2299057772224814e-08, -1.2127048876209274e-07, 3.738250242690802e-08, -6.685002773565415e-08, 7.831474846398106e-08, -1.0876398448544908e-08, -1.4753043231507912e-08, 2.91600361634891e-08, 6.46870361720174e-08, 4.7919463952439295e-08, -4.296321876040556e-08, 2.2220085327262446e-08, 8.279945262756864e-08, -2.7515223877116964e-08, -8.203871715295445e-08, -4.327618086108477e-08, 9.917187071550848e-08], [6.542056496527934e-08, -1.1166669366957624e-07, 5.8572855010652215e-08, 2.71984994526519e-08, -1.3410891597231937e-07, -6.624613035910428e-08, -2.7903157118203063e-08, -1.1157777635162322e-07, -2.3958163453130457e-08, -1.17208927008505e-07, 3.953855554073007e-08, -3.9787543926195126e-08, -4.469368164450306e-08, -1.2299057772224814e-08, -1.2127048876209274e-07, 3.738250242690802e-08, -6.685002773565415e-08, 7.831474846398106e-08, -1.0876398448544908e-08, -1.4753043231507912e-08, 2.91600361634891e-08, 6.46870361720174e-08, 4.7919463952439295e-08, -4.296321876040556e-08, 2.2220085327262446e-08, 8.279945262756864e-08, -2.7515223877116964e-08, -8.203871715295445e-08, -4.327618086108477e-08, 9.917187071550848e-08], [6.542056496527934e-08, -1.1166669366957624e-07, 5.8572855010652215e-08, 2.71984994526519e-08, -1.3410891597231937e-07, -6.624613035910428e-08, -2.7903157118203063e-08, -1.1157777635162322e-07, -2.3958163453130457e-08, -1.17208927008505e-07, 3.953855554073007e-08, -3.9787543926195126e-08, -4.469368164450306e-08, -1.2299057772224814e-08, -1.2127048876209274e-07, 3.738250242690802e-08, -6.685002773565415e-08, 7.831474846398106e-08, -1.0876398448544908e-08, -1.4753043231507912e-08, 2.91600361634891e-08, 6.46870361720174e-08, 4.7919463952439295e-08, -4.296321876040556e-08, 2.2220085327262446e-08, 8.279945262756864e-08, -2.7515223877116964e-08, -8.203871715295445e-08, -4.327618086108477e-08, 9.917187071550848e-08], [6.542056496527934e-08, -1.1166669366957624e-07, 5.8572855010652215e-08, 2.71984994526519e-08, -1.3410891597231937e-07, -6.624613035910428e-08, -2.7903157118203063e-08, -1.1157777635162322e-07, -2.3958163453130457e-08, -1.17208927008505e-07, 3.953855554073007e-08, -3.9787543926195126e-08, -4.469368164450306e-08, -1.2299057772224814e-08, -1.2127048876209274e-07, 3.738250242690802e-08, -6.685002773565415e-08, 7.831474846398106e-08, -1.0876398448544908e-08, -1.4753043231507912e-08, 2.91600361634891e-08, 6.46870361720174e-08, 4.7919463952439295e-08, -4.296321876040556e-08, 2.2220085327262446e-08, 8.279945262756864e-08, -2.7515223877116964e-08, -8.203871715295445e-08, -4.327618086108477e-08, 9.917187071550848e-08], [-0.011768600984473111, 0.0031854997919470397, 0.0024801320007144883, 5.399943070478082e-05, -0.00035677153328219323, -0.001591560969192558, -0.00024242648202689506, 0.0015859999349310103, 0.0025787187947948105, -0.00021552784935660217, -0.0012273113459865003, -0.0015076336615460378, 0.0008000750335401372, -0.000286427733213624, 0.0012237081342465917, -0.0005061815492535269, 0.00011460659681086979, -6.860941191997062e-05, 0.00021867010964170497, 0.00100544318778643, 0.00027156579431550164, 0.00012656822146385469, 0.00014432189685207336, -0.0001404630557491796, 0.0005709435327275362, -0.00020925617071615172, 0.00031476671126884386, -0.00027727029749123123, -0.00016704562969390368, 0.0002996486685291775], [6.542056496527934e-08, -1.1166669366957624e-07, 5.8572855010652215e-08, 2.71984994526519e-08, -1.3410891597231937e-07, -6.624613035910428e-08, -2.7903157118203063e-08, -1.1157777635162322e-07, -2.3958163453130457e-08, -1.17208927008505e-07, 3.953855554073007e-08, -3.9787543926195126e-08, -4.469368164450306e-08, -1.2299057772224814e-08, -1.2127048876209274e-07, 3.738250242690802e-08, -6.685002773565415e-08, 7.831474846398106e-08, -1.0876398448544908e-08, -1.4753043231507912e-08, 2.91600361634891e-08, 6.46870361720174e-08, 4.7919463952439295e-08, -4.296321876040556e-08, 2.2220085327262446e-08, 8.279945262756864e-08, -2.7515223877116964e-08, -8.203871715295445e-08, -4.327618086108477e-08, 9.917187071550848e-08], [-0.014967627005907737, 0.005085543055414264, -0.002594265885863256, -0.002437602826531931, -0.00022855983717989887, -0.000280403348642567, -0.0033909665368234043, 0.0044631518872347755, -0.000693656717683995, 0.0018753664224504685, -0.001111231009648389, -0.0006602575101546432, 0.0005796557425836356, 5.1631484712248516e-05, 6.397912170827947e-05, -0.0007191451495992246, -0.0014094380677284865, -0.0008386766313444439, 0.00015710532707705058, -0.00016392115611220498, 0.0008163128153213483, -0.00031440311612261114, -5.7868447733380504e-05, -0.0007647125729542108, 0.00021351296783152858, -0.00020818874789252527, -0.00024098946288069462, -2.9159796842716932e-05, -7.987436344031745e-05, 0.00017983694211841535], [6.542056496527934e-08, -1.1166669366957624e-07, 5.8572855010652215e-08, 2.71984994526519e-08, -1.3410891597231937e-07, -6.624613035910428e-08, -2.7903157118203063e-08, -1.1157777635162322e-07, -2.3958163453130457e-08, -1.17208927008505e-07, 3.953855554073007e-08, -3.9787543926195126e-08, -4.469368164450306e-08, -1.2299057772224814e-08, -1.2127048876209274e-07, 3.738250242690802e-08, -6.685002773565415e-08, 7.831474846398106e-08, -1.0876398448544908e-08, -1.4753043231507912e-08, 2.91600361634891e-08, 6.46870361720174e-08, 4.7919463952439295e-08, -4.296321876040556e-08, 2.2220085327262446e-08, 8.279945262756864e-08, -2.7515223877116964e-08, -8.203871715295445e-08, -4.327618086108477e-08, 9.917187071550848e-08], [0.014911361462722924, -0.0008265031308475532, -0.0009499661558192473, -9.221488093276911e-05, 0.0009442802749986889, 0.0017756635979154362, 0.0010088149754099252, 0.00029467928276890595, 3.8670404397846455e-05, -0.00024420399137390844, -4.5981145844798965e-05, 0.0001790336671807264, 0.0001487792224996872, -3.7274263257479546e-05, 6.493250206383809e-05, -1.5359120139928008e-05, -2.2754375641694107e-05, 3.480725954441109e-05, -0.00010266423013870917, 7.716798948485027e-05, 2.904066343514188e-05, -3.899930766686312e-05, -6.50825245045204e-05, 5.8150449060551504e-05, 2.299898504246664e-06, -1.911495753645484e-05, 5.4498429120132724e-05, 3.37444110751747e-05, 1.389223436548224e-05, -2.1709802867748116e-05], [-0.01901474867914371, -0.005353415157578859, 0.006157310036154481, 0.0034968953071854597, 0.0006025383994781524, 0.0009839419189228485, -0.0013162178067451789, 3.458783367967512e-05, 0.0003684425910209267, 0.0008575816626107611, -6.981505128346792e-05, -0.00011072993387576633, -0.00029763963571321334, 7.351036936037957e-05, -8.253918801584256e-06, -0.0002035640730713978, 0.00010984168463838642, -0.0005442832757758333, 0.00010453554888309338, -0.00032812856231500436, -1.1487883731917567e-05, 0.00044422170203447365, 0.0003201509596207164, 0.00024661273380084295, -0.00023128544198487003, 7.524514571129206e-05, 0.00012099167217056008, 4.5108645031952434e-05, -2.8982744130185806e-05, -2.0981166055320368e-05], [6.542056496527934e-08, -1.1166669366957624e-07, 5.8572855010652215e-08, 2.71984994526519e-08, -1.3410891597231937e-07, -6.624613035910428e-08, -2.7903157118203063e-08, -1.1157777635162322e-07, -2.3958163453130457e-08, -1.17208927008505e-07, 3.953855554073007e-08, -3.9787543926195126e-08, -4.469368164450306e-08, -1.2299057772224814e-08, -1.2127048876209274e-07, 3.738250242690802e-08, -6.685002773565415e-08, 7.831474846398106e-08, -1.0876398448544908e-08, -1.4753043231507912e-08, 2.91600361634891e-08, 6.46870361720174e-08, 4.7919463952439295e-08, -4.296321876040556e-08, 2.2220085327262446e-08, 8.279945262756864e-08, -2.7515223877116964e-08, -8.203871715295445e-08, -4.327618086108477e-08, 9.917187071550848e-08], [6.542056496527934e-08, -1.1166669366957624e-07, 5.8572855010652215e-08, 2.71984994526519e-08, -1.3410891597231937e-07, -6.624613035910428e-08, -2.7903157118203063e-08, -1.1157777635162322e-07, -2.3958163453130457e-08, -1.17208927008505e-07, 3.953855554073007e-08, -3.9787543926195126e-08, -4.469368164450306e-08, -1.2299057772224814e-08, -1.2127048876209274e-07, 3.738250242690802e-08, -6.685002773565415e-08, 7.831474846398106e-08, -1.0876398448544908e-08, -1.4753043231507912e-08, 2.91600361634891e-08, 6.46870361720174e-08, 4.7919463952439295e-08, -4.296321876040556e-08, 2.2220085327262446e-08, 8.279945262756864e-08, -2.7515223877116964e-08, -8.203871715295445e-08, -4.327618086108477e-08, 9.917187071550848e-08], [-0.0381095245583128, 0.010310169278681615, 0.0004702123504360148, -0.004048071968531185, 0.00022206485769282392, -0.0005144078376317572, -0.0002490562164432311, 0.002218928370729414, -0.0003015242002764872, 0.0022146949724639493, 2.7683307622249896e-06, 0.00037549353660278246, 0.00017369752050938622, -0.00010205519419984171, -0.0005019386092940632, 1.879185793801738e-05, -5.522453031927777e-05, 0.00014214635618410874, -0.00043413686087131104, -0.0001474478516460164, -0.0001868892184506087, -0.0005153242179082028, -1.4039342142682394e-05, -0.00023373978342814292, 0.00011380682984475155, -0.00012417234985725867, 4.4067461267696514e-05, 0.0001391607433848623, -0.00023269789616483605, -0.00016394242711276037], [6.542056496527934e-08, -1.1166669366957624e-07, 5.8572855010652215e-08, 2.71984994526519e-08, -1.3410891597231937e-07, -6.624613035910428e-08, -2.7903157118203063e-08, -1.1157777635162322e-07, -2.3958163453130457e-08, -1.17208927008505e-07, 3.953855554073007e-08, -3.9787543926195126e-08, -4.469368164450306e-08, -1.2299057772224814e-08, -1.2127048876209274e-07, 3.738250242690802e-08, -6.685002773565415e-08, 7.831474846398106e-08, -1.0876398448544908e-08, -1.4753043231507912e-08, 2.91600361634891e-08, 6.46870361720174e-08, 4.7919463952439295e-08, -4.296321876040556e-08, 2.2220085327262446e-08, 8.279945262756864e-08, -2.7515223877116964e-08, -8.203871715295445e-08, -4.327618086108477e-08, 9.917187071550848e-08], [6.542056496527934e-08, -1.1166669366957624e-07, 5.8572855010652215e-08, 2.71984994526519e-08, -1.3410891597231937e-07, -6.624613035910428e-08, -2.7903157118203063e-08, -1.1157777635162322e-07, -2.3958163453130457e-08, -1.17208927008505e-07, 3.953855554073007e-08, -3.9787543926195126e-08, -4.469368164450306e-08, -1.2299057772224814e-08, -1.2127048876209274e-07, 3.738250242690802e-08, -6.685002773565415e-08, 7.831474846398106e-08, -1.0876398448544908e-08, -1.4753043231507912e-08, 2.91600361634891e-08, 6.46870361720174e-08, 4.7919463952439295e-08, -4.296321876040556e-08, 2.2220085327262446e-08, 8.279945262756864e-08, -2.7515223877116964e-08, -8.203871715295445e-08, -4.327618086108477e-08, 9.917187071550848e-08], [6.542056496527934e-08, -1.1166669366957624e-07, 5.8572855010652215e-08, 2.71984994526519e-08, -1.3410891597231937e-07, -6.624613035910428e-08, -2.7903157118203063e-08, -1.1157777635162322e-07, -2.3958163453130457e-08, -1.17208927008505e-07, 3.953855554073007e-08, -3.9787543926195126e-08, -4.469368164450306e-08, -1.2299057772224814e-08, -1.2127048876209274e-07, 3.738250242690802e-08, -6.685002773565415e-08, 7.831474846398106e-08, -1.0876398448544908e-08, -1.4753043231507912e-08, 2.91600361634891e-08, 6.46870361720174e-08, 4.7919463952439295e-08, -4.296321876040556e-08, 2.2220085327262446e-08, 8.279945262756864e-08, -2.7515223877116964e-08, -8.203871715295445e-08, -4.327618086108477e-08, 9.917187071550848e-08], [6.542056496527934e-08, -1.1166669366957624e-07, 5.8572855010652215e-08, 2.71984994526519e-08, -1.3410891597231937e-07, -6.624613035910428e-08, -2.7903157118203063e-08, -1.1157777635162322e-07, -2.3958163453130457e-08, -1.17208927008505e-07, 3.953855554073007e-08, -3.9787543926195126e-08, -4.469368164450306e-08, -1.2299057772224814e-08, -1.2127048876209274e-07, 3.738250242690802e-08, -6.685002773565415e-08, 7.831474846398106e-08, -1.0876398448544908e-08, -1.4753043231507912e-08, 2.91600361634891e-08, 6.46870361720174e-08, 4.7919463952439295e-08, -4.296321876040556e-08, 2.2220085327262446e-08, 8.279945262756864e-08, -2.7515223877116964e-08, -8.203871715295445e-08, -4.327618086108477e-08, 9.917187071550848e-08], [0.030888040886543056, -0.0005974592664553939, 0.00031150376734474474, -0.0010019487195624577, 2.7116820305669656e-05, -2.555990716529689e-05, -0.0004994103432543865, -0.0003255842599500822, 0.00034714024464603104, -0.00013576304075680132, -0.00042662922384427985, 0.00053941866754427, -2.1038446695039637e-06, 0.0003029586315861509, 9.850542253221632e-05, 0.00019620150227903468, -0.00011483334058492677, -5.8240479024825806e-05, -7.226449816570908e-05, 4.292444099644357e-05, -0.00015335440380711234, -3.699698097079198e-05, 6.466418304392244e-05, 3.3419331187821674e-05, -8.221111544186172e-05, -7.99293472314565e-05, -1.041059883870128e-05, -4.508063312362303e-05, -2.6749506737605996e-05, 3.456111273573687e-05], [6.542056496527934e-08, -1.1166669366957624e-07, 5.8572855010652215e-08, 2.71984994526519e-08, -1.3410891597231937e-07, -6.624613035910428e-08, -2.7903157118203063e-08, -1.1157777635162322e-07, -2.3958163453130457e-08, -1.17208927008505e-07, 3.953855554073007e-08, -3.9787543926195126e-08, -4.469368164450306e-08, -1.2299057772224814e-08, -1.2127048876209274e-07, 3.738250242690802e-08, -6.685002773565415e-08, 7.831474846398106e-08, -1.0876398448544908e-08, -1.4753043231507912e-08, 2.91600361634891e-08, 6.46870361720174e-08, 4.7919463952439295e-08, -4.296321876040556e-08, 2.2220085327262446e-08, 8.279945262756864e-08, -2.7515223877116964e-08, -8.203871715295445e-08, -4.327618086108477e-08, 9.917187071550848e-08], [6.542056496527934e-08, -1.1166669366957624e-07, 5.8572855010652215e-08, 2.71984994526519e-08, -1.3410891597231937e-07, -6.624613035910428e-08, -2.7903157118203063e-08, -1.1157777635162322e-07, -2.3958163453130457e-08, -1.17208927008505e-07, 3.953855554073007e-08, -3.9787543926195126e-08, -4.469368164450306e-08, -1.2299057772224814e-08, -1.2127048876209274e-07, 3.738250242690802e-08, -6.685002773565415e-08, 7.831474846398106e-08, -1.0876398448544908e-08, -1.4753043231507912e-08, 2.91600361634891e-08, 6.46870361720174e-08, 4.7919463952439295e-08, -4.296321876040556e-08, 2.2220085327262446e-08, 8.279945262756864e-08, -2.7515223877116964e-08, -8.203871715295445e-08, -4.327618086108477e-08, 9.917187071550848e-08], [6.542056496527934e-08, -1.1166669366957624e-07, 5.8572855010652215e-08, 2.71984994526519e-08, -1.3410891597231937e-07, -6.624613035910428e-08, -2.7903157118203063e-08, -1.1157777635162322e-07, -2.3958163453130457e-08, -1.17208927008505e-07, 3.953855554073007e-08, -3.9787543926195126e-08, -4.469368164450306e-08, -1.2299057772224814e-08, -1.2127048876209274e-07, 3.738250242690802e-08, -6.685002773565415e-08, 7.831474846398106e-08, -1.0876398448544908e-08, -1.4753043231507912e-08, 2.91600361634891e-08, 6.46870361720174e-08, 4.7919463952439295e-08, -4.296321876040556e-08, 2.2220085327262446e-08, 8.279945262756864e-08, -2.7515223877116964e-08, -8.203871715295445e-08, -4.327618086108477e-08, 9.917187071550848e-08], [6.542056496527934e-08, -1.1166669366957624e-07, 5.8572855010652215e-08, 2.71984994526519e-08, -1.3410891597231937e-07, -6.624613035910428e-08, -2.7903157118203063e-08, -1.1157777635162322e-07, -2.3958163453130457e-08, -1.17208927008505e-07, 3.953855554073007e-08, -3.9787543926195126e-08, -4.469368164450306e-08, -1.2299057772224814e-08, -1.2127048876209274e-07, 3.738250242690802e-08, -6.685002773565415e-08, 7.831474846398106e-08, -1.0876398448544908e-08, -1.4753043231507912e-08, 2.91600361634891e-08, 6.46870361720174e-08, 4.7919463952439295e-08, -4.296321876040556e-08, 2.2220085327262446e-08, 8.279945262756864e-08, -2.7515223877116964e-08, -8.203871715295445e-08, -4.327618086108477e-08, 9.917187071550848e-08], [6.542056496527934e-08, -1.1166669366957624e-07, 5.8572855010652215e-08, 2.71984994526519e-08, -1.3410891597231937e-07, -6.624613035910428e-08, -2.7903157118203063e-08, -1.1157777635162322e-07, -2.3958163453130457e-08, -1.17208927008505e-07, 3.953855554073007e-08, -3.9787543926195126e-08, -4.469368164450306e-08, -1.2299057772224814e-08, -1.2127048876209274e-07, 3.738250242690802e-08, -6.685002773565415e-08, 7.831474846398106e-08, -1.0876398448544908e-08, -1.4753043231507912e-08, 2.91600361634891e-08, 6.46870361720174e-08, 4.7919463952439295e-08, -4.296321876040556e-08, 2.2220085327262446e-08, 8.279945262756864e-08, -2.7515223877116964e-08, -8.203871715295445e-08, -4.327618086108477e-08, 9.917187071550848e-08], [6.542056496527934e-08, -1.1166669366957624e-07, 5.8572855010652215e-08, 2.71984994526519e-08, -1.3410891597231937e-07, -6.624613035910428e-08, -2.7903157118203063e-08, -1.1157777635162322e-07, -2.3958163453130457e-08, -1.17208927008505e-07, 3.953855554073007e-08, -3.9787543926195126e-08, -4.469368164450306e-08, -1.2299057772224814e-08, -1.2127048876209274e-07, 3.738250242690802e-08, -6.685002773565415e-08, 7.831474846398106e-08, -1.0876398448544908e-08, -1.4753043231507912e-08, 2.91600361634891e-08, 6.46870361720174e-08, 4.7919463952439295e-08, -4.296321876040556e-08, 2.2220085327262446e-08, 8.279945262756864e-08, -2.7515223877116964e-08, -8.203871715295445e-08, -4.327618086108477e-08, 9.917187071550848e-08], [6.542056496527934e-08, -1.1166669366957624e-07, 5.8572855010652215e-08, 2.71984994526519e-08, -1.3410891597231937e-07, -6.624613035910428e-08, -2.7903157118203063e-08, -1.1157777635162322e-07, -2.3958163453130457e-08, -1.17208927008505e-07, 3.953855554073007e-08, -3.9787543926195126e-08, -4.469368164450306e-08, -1.2299057772224814e-08, -1.2127048876209274e-07, 3.738250242690802e-08, -6.685002773565415e-08, 7.831474846398106e-08, -1.0876398448544908e-08, -1.4753043231507912e-08, 2.91600361634891e-08, 6.46870361720174e-08, 4.7919463952439295e-08, -4.296321876040556e-08, 2.2220085327262446e-08, 8.279945262756864e-08, -2.7515223877116964e-08, -8.203871715295445e-08, -4.327618086108477e-08, 9.917187071550848e-08], [6.542056496527934e-08, -1.1166669366957624e-07, 5.8572855010652215e-08, 2.71984994526519e-08, -1.3410891597231937e-07, -6.624613035910428e-08, -2.7903157118203063e-08, -1.1157777635162322e-07, -2.3958163453130457e-08, -1.17208927008505e-07, 3.953855554073007e-08, -3.9787543926195126e-08, -4.469368164450306e-08, -1.2299057772224814e-08, -1.2127048876209274e-07, 3.738250242690802e-08, -6.685002773565415e-08, 7.831474846398106e-08, -1.0876398448544908e-08, -1.4753043231507912e-08, 2.91600361634891e-08, 6.46870361720174e-08, 4.7919463952439295e-08, -4.296321876040556e-08, 2.2220085327262446e-08, 8.279945262756864e-08, -2.7515223877116964e-08, -8.203871715295445e-08, -4.327618086108477e-08, 9.917187071550848e-08], [6.542056496527934e-08, -1.1166669366957624e-07, 5.8572855010652215e-08, 2.71984994526519e-08, -1.3410891597231937e-07, -6.624613035910428e-08, -2.7903157118203063e-08, -1.1157777635162322e-07, -2.3958163453130457e-08, -1.17208927008505e-07, 3.953855554073007e-08, -3.9787543926195126e-08, -4.469368164450306e-08, -1.2299057772224814e-08, -1.2127048876209274e-07, 3.738250242690802e-08, -6.685002773565415e-08, 7.831474846398106e-08, -1.0876398448544908e-08, -1.4753043231507912e-08, 2.91600361634891e-08, 6.46870361720174e-08, 4.7919463952439295e-08, -4.296321876040556e-08, 2.2220085327262446e-08, 8.279945262756864e-08, -2.7515223877116964e-08, -8.203871715295445e-08, -4.327618086108477e-08, 9.917187071550848e-08], [-0.012636059477530662, -4.368963528634399e-05, 0.008838616798627949, 0.0029404474031570252, 0.0009219669873887609, -0.0003123970852173154, -0.0016385360253217904, 0.00395749954149236, 0.002644369885364675, 0.0004224299244222885, 0.0004278336042651893, -0.0008408036177635137, 0.0009071932167250356, 0.0009741277060875432, -0.0005377996555365254, -7.77947847979099e-06, 4.0467559069668846e-05, -3.8619146140450975e-05, 0.00015327873979622362, 0.00033056677532479137, -3.181803317367522e-05, 0.00021532832297803265, -6.81624415561497e-05, -3.0254276773732283e-06, 1.9125853844786806e-05, 4.647368712583168e-05, -5.0173554960066436e-05, -0.00031711300992636864, 0.000291515499958607, -0.0002083796122672377], [6.542056496527934e-08, -1.1166669366957624e-07, 5.8572855010652215e-08, 2.71984994526519e-08, -1.3410891597231937e-07, -6.624613035910428e-08, -2.7903157118203063e-08, -1.1157777635162322e-07, -2.3958163453130457e-08, -1.17208927008505e-07, 3.953855554073007e-08, -3.9787543926195126e-08, -4.469368164450306e-08, -1.2299057772224814e-08, -1.2127048876209274e-07, 3.738250242690802e-08, -6.685002773565415e-08, 7.831474846398106e-08, -1.0876398448544908e-08, -1.4753043231507912e-08, 2.91600361634891e-08, 6.46870361720174e-08, 4.7919463952439295e-08, -4.296321876040556e-08, 2.2220085327262446e-08, 8.279945262756864e-08, -2.7515223877116964e-08, -8.203871715295445e-08, -4.327618086108477e-08, 9.917187071550848e-08], [-0.0022926298548585685, 0.0008840438366377694, 0.0037548145518311103, -0.0005347807906321425, -0.00206963864522898, -0.0006593408158805173, 0.0020288086156240647, 0.0014467712440673277, 0.00031718176536218415, -0.0015371991472043242, -0.0004501835829186552, -0.00039416303040206243, -0.0007806967175199571, -0.0008522543603051812, 0.00017810038801671345, -0.00018890042375422448, 0.00011656850057751412, 2.060130814313657e-05, -5.527523244443778e-05, 9.245318515324845e-05, -4.292276188512407e-05, -0.0001234889480048855, -5.200439297926293e-05, 0.00016108963796362255, 3.213634303259157e-05, 0.00021107378072985456, -0.00019790481980884157, -3.7015602954197554e-05, 7.441893562295138e-05, 1.4960565863452777e-05], [6.542056496527934e-08, -1.1166669366957624e-07, 5.8572855010652215e-08, 2.71984994526519e-08, -1.3410891597231937e-07, -6.624613035910428e-08, -2.7903157118203063e-08, -1.1157777635162322e-07, -2.3958163453130457e-08, -1.17208927008505e-07, 3.953855554073007e-08, -3.9787543926195126e-08, -4.469368164450306e-08, -1.2299057772224814e-08, -1.2127048876209274e-07, 3.738250242690802e-08, -6.685002773565415e-08, 7.831474846398106e-08, -1.0876398448544908e-08, -1.4753043231507912e-08, 2.91600361634891e-08, 6.46870361720174e-08, 4.7919463952439295e-08, -4.296321876040556e-08, 2.2220085327262446e-08, 8.279945262756864e-08, -2.7515223877116964e-08, -8.203871715295445e-08, -4.327618086108477e-08, 9.917187071550848e-08], [-0.036046957023517325, 0.0005862396903201532, 0.0019000558475025257, -0.0013017431109771556, -0.0004348944288200873, -2.819961957948543e-05, 0.0003545545514678169, -0.0011553363691113822, -7.883905558915299e-05, 0.00036562310270116927, 0.00030171659482666893, 0.0002730253056866212, 0.00014794653909289983, 0.0001123790818058415, -4.895654718045318e-05, -8.567848799973794e-05, 5.7068532334018686e-05, -4.1072341978317886e-06, -6.361891380279015e-05, -1.454108035797229e-05, 1.0193120813270888e-06, -1.79203705391878e-05, 1.9857904449277935e-06, -1.2765249968581816e-06, -1.562589105771447e-05, -8.092246451253859e-05, 2.3425334010160798e-05, -1.529768810267918e-05, 1.6365457244047455e-05, 2.1557677553719955e-05], [6.542056496527934e-08, -1.1166669366957624e-07, 5.8572855010652215e-08, 2.71984994526519e-08, -1.3410891597231937e-07, -6.624613035910428e-08, -2.7903157118203063e-08, -1.1157777635162322e-07, -2.3958163453130457e-08, -1.17208927008505e-07, 3.953855554073007e-08, -3.9787543926195126e-08, -4.469368164450306e-08, -1.2299057772224814e-08, -1.2127048876209274e-07, 3.738250242690802e-08, -6.685002773565415e-08, 7.831474846398106e-08, -1.0876398448544908e-08, -1.4753043231507912e-08, 2.91600361634891e-08, 6.46870361720174e-08, 4.7919463952439295e-08, -4.296321876040556e-08, 2.2220085327262446e-08, 8.279945262756864e-08, -2.7515223877116964e-08, -8.203871715295445e-08, -4.327618086108477e-08, 9.917187071550848e-08], [-0.015910080215965076, 0.002145253130729402, -0.0054767748109403784, -7.267133251064742e-05, -0.00032984589451969817, -0.0016048085664279834, -0.0014550910684328763, 0.0040393028382053366, -0.0005031597022187655, 0.0016242477832185364, -5.773697770301471e-06, 0.0002846938309984423, 0.0005487231404486261, -8.607960788249819e-05, -0.00034664855315162343, -0.00010435627384033068, -0.0005542571460035422, -0.00011925782784929933, 0.00010747588403206822, -0.0003205174837433384, 8.219229038177611e-05, -0.00020869056424165813, -0.00015856072398664272, 0.00010143227209524801, 0.0003073161951513768, -0.00019008264291083367, -0.00020119314900138432, 9.016720790024756e-07, -0.00020956764239514133, -3.159092116020214e-05], [6.542056496527934e-08, -1.1166669366957624e-07, 5.8572855010652215e-08, 2.71984994526519e-08, -1.3410891597231937e-07, -6.624613035910428e-08, -2.7903157118203063e-08, -1.1157777635162322e-07, -2.3958163453130457e-08, -1.17208927008505e-07, 3.953855554073007e-08, -3.9787543926195126e-08, -4.469368164450306e-08, -1.2299057772224814e-08, -1.2127048876209274e-07, 3.738250242690802e-08, -6.685002773565415e-08, 7.831474846398106e-08, -1.0876398448544908e-08, -1.4753043231507912e-08, 2.91600361634891e-08, 6.46870361720174e-08, 4.7919463952439295e-08, -4.296321876040556e-08, 2.2220085327262446e-08, 8.279945262756864e-08, -2.7515223877116964e-08, -8.203871715295445e-08, -4.327618086108477e-08, 9.917187071550848e-08], [-0.004316771202668918, -0.004030120714827694, 0.008512629119981794, 0.0018375229026382084, -0.00012343566240849177, 0.003115390497335441, -0.0007454747633734035, 0.0009471271053834809, 0.003027774261486862, 0.0010314025173702786, -0.0002970620090126196, -0.001319319995647209, -0.0007203933556551399, -0.0004934935478732774, 7.164931514479067e-05, -0.00038547291097183945, -9.108951260502388e-05, 0.0002834562007610773, 0.0007550835348339394, -0.0007464383280493693, -0.000813019037831826, -0.0005749320959581073, -0.00010963957545786415, 8.045204545222005e-05, 2.2594752534183816e-05, 0.0002484463740128631, -0.0004389492163274636, -0.00018826111666765094, -0.00023434724331631839, -0.0002028555813205392], [6.542056496527934e-08, -1.1166669366957624e-07, 5.8572855010652215e-08, 2.71984994526519e-08, -1.3410891597231937e-07, -6.624613035910428e-08, -2.7903157118203063e-08, -1.1157777635162322e-07, -2.3958163453130457e-08, -1.17208927008505e-07, 3.953855554073007e-08, -3.9787543926195126e-08, -4.469368164450306e-08, -1.2299057772224814e-08, -1.2127048876209274e-07, 3.738250242690802e-08, -6.685002773565415e-08, 7.831474846398106e-08, -1.0876398448544908e-08, -1.4753043231507912e-08, 2.91600361634891e-08, 6.46870361720174e-08, 4.7919463952439295e-08, -4.296321876040556e-08, 2.2220085327262446e-08, 8.279945262756864e-08, -2.7515223877116964e-08, -8.203871715295445e-08, -4.327618086108477e-08, 9.917187071550848e-08], [0.012038210789908898, 0.00993848505915347, 0.0005446095697732869, -0.0006145547927963051, 0.0008618670396091876, -0.0009673681867198643, -0.0002054063698944201, 0.0009064443835464472, -0.0025310923809118055, -0.00326887613306974, -0.00019667000650490886, 0.0001992763651485078, 3.701039112770068e-05, -0.00046114970053025896, -0.00031506613571178065, -0.0007965932340958302, -4.5566024429604834e-05, 0.0008843048747241468, 1.809236256620373e-05, 0.0006218116940350921, 0.0006986209185477391, 0.00029798971391666626, 0.0005918427376047766, 0.0005803990076828642, -0.0002800893532957128, -0.0008519507702980844, -6.352522889869652e-05, -0.00030671078478829454, -0.000119347489853174, -0.00015606684143047188], [6.542056496527934e-08, -1.1166669366957624e-07, 5.8572855010652215e-08, 2.71984994526519e-08, -1.3410891597231937e-07, -6.624613035910428e-08, -2.7903157118203063e-08, -1.1157777635162322e-07, -2.3958163453130457e-08, -1.17208927008505e-07, 3.953855554073007e-08, -3.9787543926195126e-08, -4.469368164450306e-08, -1.2299057772224814e-08, -1.2127048876209274e-07, 3.738250242690802e-08, -6.685002773565415e-08, 7.831474846398106e-08, -1.0876398448544908e-08, -1.4753043231507912e-08, 2.91600361634891e-08, 6.46870361720174e-08, 4.7919463952439295e-08, -4.296321876040556e-08, 2.2220085327262446e-08, 8.279945262756864e-08, -2.7515223877116964e-08, -8.203871715295445e-08, -4.327618086108477e-08, 9.917187071550848e-08], [6.542056496527934e-08, -1.1166669366957624e-07, 5.8572855010652215e-08, 2.71984994526519e-08, -1.3410891597231937e-07, -6.624613035910428e-08, -2.7903157118203063e-08, -1.1157777635162322e-07, -2.3958163453130457e-08, -1.17208927008505e-07, 3.953855554073007e-08, -3.9787543926195126e-08, -4.469368164450306e-08, -1.2299057772224814e-08, -1.2127048876209274e-07, 3.738250242690802e-08, -6.685002773565415e-08, 7.831474846398106e-08, -1.0876398448544908e-08, -1.4753043231507912e-08, 2.91600361634891e-08, 6.46870361720174e-08, 4.7919463952439295e-08, -4.296321876040556e-08, 2.2220085327262446e-08, 8.279945262756864e-08, -2.7515223877116964e-08, -8.203871715295445e-08, -4.327618086108477e-08, 9.917187071550848e-08], [6.542056496527934e-08, -1.1166669366957624e-07, 5.8572855010652215e-08, 2.71984994526519e-08, -1.3410891597231937e-07, -6.624613035910428e-08, -2.7903157118203063e-08, -1.1157777635162322e-07, -2.3958163453130457e-08, -1.17208927008505e-07, 3.953855554073007e-08, -3.9787543926195126e-08, -4.469368164450306e-08, -1.2299057772224814e-08, -1.2127048876209274e-07, 3.738250242690802e-08, -6.685002773565415e-08, 7.831474846398106e-08, -1.0876398448544908e-08, -1.4753043231507912e-08, 2.91600361634891e-08, 6.46870361720174e-08, 4.7919463952439295e-08, -4.296321876040556e-08, 2.2220085327262446e-08, 8.279945262756864e-08, -2.7515223877116964e-08, -8.203871715295445e-08, -4.327618086108477e-08, 9.917187071550848e-08], [6.542056496527934e-08, -1.1166669366957624e-07, 5.8572855010652215e-08, 2.71984994526519e-08, -1.3410891597231937e-07, -6.624613035910428e-08, -2.7903157118203063e-08, -1.1157777635162322e-07, -2.3958163453130457e-08, -1.17208927008505e-07, 3.953855554073007e-08, -3.9787543926195126e-08, -4.469368164450306e-08, -1.2299057772224814e-08, -1.2127048876209274e-07, 3.738250242690802e-08, -6.685002773565415e-08, 7.831474846398106e-08, -1.0876398448544908e-08, -1.4753043231507912e-08, 2.91600361634891e-08, 6.46870361720174e-08, 4.7919463952439295e-08, -4.296321876040556e-08, 2.2220085327262446e-08, 8.279945262756864e-08, -2.7515223877116964e-08, -8.203871715295445e-08, -4.327618086108477e-08, 9.917187071550848e-08], [-0.005093171134606409, 0.00987568187614475, 0.00020592223661450575, -0.0006617931759057726, -0.0004254635452740673, 0.0009601655648224808, 0.00032478711640556937, 0.0031315792188561305, -0.0006250242406044864, 0.0019653933601175835, -0.00040995633614802104, -0.0011040356859496924, -0.0014202300586936831, -9.55252893880114e-05, -1.6687913194008277e-05, -0.0005205715326863344, -0.0008674270599552488, -0.00022808287518430762, 0.00010948496031591924, -0.0004041414925752664, 0.0007183014387230275, -0.0004354152052694756, -0.0002766576795323679, 9.26262144308147e-05, 5.098134988912535e-05, -6.802160984643058e-05, -0.00015308670244465383, -0.00017489110732978405, -0.0003990332239654446, 0.0005239335007254919], [6.542056496527934e-08, -1.1166669366957624e-07, 5.8572855010652215e-08, 2.71984994526519e-08, -1.3410891597231937e-07, -6.624613035910428e-08, -2.7903157118203063e-08, -1.1157777635162322e-07, -2.3958163453130457e-08, -1.17208927008505e-07, 3.953855554073007e-08, -3.9787543926195126e-08, -4.469368164450306e-08, -1.2299057772224814e-08, -1.2127048876209274e-07, 3.738250242690802e-08, -6.685002773565415e-08, 7.831474846398106e-08, -1.0876398448544908e-08, -1.4753043231507912e-08, 2.91600361634891e-08, 6.46870361720174e-08, 4.7919463952439295e-08, -4.296321876040556e-08, 2.2220085327262446e-08, 8.279945262756864e-08, -2.7515223877116964e-08, -8.203871715295445e-08, -4.327618086108477e-08, 9.917187071550848e-08], [-0.0048280518035826525, -0.0009003609814158383, -0.0026460298827863664, 0.00213531145148579, 3.6126459387557054e-05, 4.4932082120229795e-05, 0.0003702728275252404, 0.0005783129195004614, -0.0005078074056250393, -0.00017969429134287695, -3.829235225762193e-05, -0.00022148191685925642, -9.487626678670203e-05, -4.912191524382476e-05, -6.760651156260355e-05, -4.559060371403121e-05, 8.036120850495088e-05, 0.0001330779053035382, 0.0001075880484548946, 3.580496526683745e-05, 2.0178809283354248e-05, 5.994627588921844e-05, 8.932105792552295e-06, -7.978571366823141e-05, 1.4139738005027654e-05, 7.097406430613133e-05, -8.163274021276491e-05, -2.4079712977634897e-06, -1.3003557590114366e-05, 3.736453285316227e-05], [-0.0029260655934138847, 0.006239145062701722, 0.0034476665418180573, -0.0012209453583883541, -0.0009178804907703116, 0.0036522970286925684, -0.0044403836090188735, 0.0013234018112751062, -0.0022890083063025956, -0.00012597760724940155, -0.00044342548724795715, -0.0007753222814880999, 0.0002470302091139457, -0.0005858396438063623, -0.0003720586542970768, 0.0007569442892497759, 0.00013587549186457585, 0.0004185819205821689, -4.5099171611141526e-05, -0.0002229662893217221, -0.00013037200945882643, 0.0003081333887547887, 0.00020426777295854984, -0.0003717269147007488, -6.500244406356669e-05, -3.5919645157207415e-05, 9.137723886362903e-05, -2.279068860124226e-06, 7.959741507934498e-05, -0.00010679893864812284], [6.542056496527934e-08, -1.1166669366957624e-07, 5.8572855010652215e-08, 2.71984994526519e-08, -1.3410891597231937e-07, -6.624613035910428e-08, -2.7903157118203063e-08, -1.1157777635162322e-07, -2.3958163453130457e-08, -1.17208927008505e-07, 3.953855554073007e-08, -3.9787543926195126e-08, -4.469368164450306e-08, -1.2299057772224814e-08, -1.2127048876209274e-07, 3.738250242690802e-08, -6.685002773565415e-08, 7.831474846398106e-08, -1.0876398448544908e-08, -1.4753043231507912e-08, 2.91600361634891e-08, 6.46870361720174e-08, 4.7919463952439295e-08, -4.296321876040556e-08, 2.2220085327262446e-08, 8.279945262756864e-08, -2.7515223877116964e-08, -8.203871715295445e-08, -4.327618086108477e-08, 9.917187071550848e-08], [0.011842030472196311, -0.005344141478819297, 0.005343134363952084, 0.0037846289298591653, 0.0009259852778578179, 0.0013110601872766553, -0.0008116977959330093, 0.002612451798325702, 0.001524891519099328, 0.0001204787219440937, 0.00028713026183445285, 0.0004930607231286924, 0.0004190999821854442, 0.0003474863400208605, 0.00013787658074316023, -0.0004144158246218494, 0.0005830928525364379, -0.00020671899590045398, -0.0006364458045416458, -6.930839809002893e-05, -2.0514426815278606e-05, 1.3196627988484238e-05, -0.0001648837225917759, -7.345338689403554e-05, -9.286480155771472e-05, 0.00015026885351038837, 3.516787815302283e-05, 0.00023528964055687872, 0.0001452951189817022, 4.200719552198764e-06], [-0.01254310923249077, 0.007974710632584094, -0.000210358585273453, -0.001079849592323052, -0.0003850306214918461, -0.0013444186035481008, -0.0017986175004780594, 0.0028804009489114455, 0.0016531977365770584, 0.0010990218925007898, -0.0012172174766808608, -0.0016250871890061637, 0.0013077831818668075, 0.0012159113475541283, 0.00034487428444440537, 0.00017884927059452253, -0.0006122590638253098, -8.066320230531211e-05, -0.00010473094413017635, 0.0002637113368581696, 0.0008006737560606044, -0.00018392739001514278, 0.00016973719972605204, 0.0001835604611111711, 0.00028402004930408085, 0.0004451822143303013, -0.00024098015324234938, -0.00021632116851157604, -0.00015686632875990363, 1.4638010944281798e-05], [-0.0034639910758165232, 0.007937164536610121, -0.002935038148126857, -0.00156742371791854, 0.0020250676392602565, -0.0007523264982933755, 8.760898550111388e-05, 0.005140760094961489, -0.001149281386839583, 0.002216906196994618, -0.00011906732204483187, 0.00036999014897799666, 0.00030332259095941294, -0.000875594765472418, -0.0008193944802374478, -0.0005930888622974887, -0.0008033330015282641, -0.0006601581242426975, -0.00010986571062266409, -0.00034037485122230613, 0.00030616795049789083, -0.00019340120944186004, -2.1926425137445474e-05, 0.00020787421199316145, 0.00014820867252768032, -0.0002196438349729521, -0.0001929791047634618, 0.00014055817451509345, -0.000322371588442815, -2.487475908448517e-05], [-0.012450509135581577, 0.004038769610275542, 0.004505410296238121, 0.0031011163515977506, -0.0008027302901709302, 0.001750541110764549, -0.0006283299166087218, -0.001071288476789873, 0.0011730638499006312, -0.00030462932916055775, -0.0010506945181512225, -0.0002609223039054687, -0.0006162657375579504, -0.000289909949639375, -0.0001962037421578003, -9.067324110993622e-05, -0.0002602749336821539, -5.1533990544329065e-05, 0.0003392662795740625, -0.0005512918993933726, 5.158218919468683e-05, 0.00029344832099948695, 0.0002157538922900624, 4.546229183165198e-05, 0.00023648959163934943, 0.00015855256617711144, 1.086363758877317e-05, -0.00011405423862018594, -7.090423624710413e-05, -0.00017005056590404814]], "bgmm_covariances": [[6.727365512914634e-05, 2.800776290966084e-05, 8.463807929248224e-06, 2.5981019736717175e-06, 4.189100666518284e-06, 1.9089801439842586e-06, 2.3825695003514003e-06, 2.171863424430696e-06, 1.957865562590026e-06, 1.6036727321029913e-06, 1.5633358052739975e-06, 1.4985289320644027e-06, 1.7280116594295608e-06, 1.511830758649443e-06, 1.2736908302564752e-06, 1.0322656703340683e-06, 1.3071807171650755e-06, 9.566900011388612e-07, 1.1021044448368444e-06, 1.0201728965175957e-06, 1.1243944987357584e-06, 1.0059136602498664e-06, 8.731857209198041e-07, 9.146885503142705e-07, 9.038846544192207e-07, 9.013751706452533e-07, 8.698788835163293e-07, 9.546050295440004e-07, 8.726607337156709e-07, 8.626317332608452e-07], [2.504200092516839e-05, 1.1874965518169725e-06, 4.159376961373103e-07, 1.818519497949941e-07, 1.5879680480187145e-07, 1.179419465794733e-07, 1.0110179573530337e-07, 7.9987701913827e-08, 5.827815433197739e-08, 4.9830502272622416e-08, 2.7478341735331995e-08, 2.2796463857351602e-08, 2.203727641851105e-08, 1.625526806492424e-08, 1.279858850011813e-08, 1.2322738029979591e-08, 1.1102529621590972e-08, 8.417730631057032e-09, 8.26747452720163e-09, 7.879245818761242e-09, 6.693488785458685e-09, 6.242322569960452e-09, 5.581981573262432e-09, 5.142238516479435e-09, 4.377371946399533e-09, 4.25516617497131e-09, 4.148926298815617e-09, 3.6509279747558573e-09, 3.452283910595192e-09, 3.3176846159222634e-09], [5.8156332611531345e-05, 1.1724202151489531e-05, 6.8122212160261425e-06, 3.6405006122736664e-06, 4.876898358391868e-06, 2.588272269663138e-06, 2.312273834871262e-06, 1.8746551934088154e-06, 1.8101952572710807e-06, 1.7060797846903988e-06, 1.787786527736055e-06, 1.4776744273028098e-06, 1.3271371197887105e-06, 1.5886767826774061e-06, 1.1285722428385742e-06, 1.2983835034869469e-06, 1.2422861606477925e-06, 1.1884063622602267e-06, 1.2102372847886633e-06, 1.0880874562598225e-06, 1.149249158329203e-06, 1.075464992383943e-06, 1.1097169024667313e-06, 1.0524360290002935e-06, 1.041773542745946e-06, 1.065439016016486e-06, 1.053379141661878e-06, 1.0957209519691135e-06, 1.0321713827834729e-06, 1.023194560700719e-06], [2.504200092516839e-05, 1.1874965518169725e-06, 4.159376961373103e-07, 1.818519497949941e-07, 1.5879680480187145e-07, 1.179419465794733e-07, 1.0110179573530337e-07, 7.9987701913827e-08, 5.827815433197739e-08, 4.9830502272622416e-08, 2.7478341735331995e-08, 2.2796463857351602e-08, 2.203727641851105e-08, 1.625526806492424e-08, 1.279858850011813e-08, 1.2322738029979591e-08, 1.1102529621590972e-08, 8.417730631057032e-09, 8.26747452720163e-09, 7.879245818761242e-09, 6.693488785458685e-09, 6.242322569960452e-09, 5.581981573262432e-09, 5.142238516479435e-09, 4.377371946399533e-09, 4.25516617497131e-09, 4.148926298815617e-09, 3.6509279747558573e-09, 3.452283910595192e-09, 3.3176846159222634e-09], [2.504200092516839e-05, 1.1874965518169725e-06, 4.159376961373103e-07, 1.818519497949941e-07, 1.5879680480187145e-07, 1.179419465794733e-07, 1.0110179573530337e-07, 7.9987701913827e-08, 5.827815433197739e-08, 4.9830502272622416e-08, 2.7478341735331995e-08, 2.2796463857351602e-08, 2.203727641851105e-08, 1.625526806492424e-08, 1.279858850011813e-08, 1.2322738029979591e-08, 1.1102529621590972e-08, 8.417730631057032e-09, 8.26747452720163e-09, 7.879245818761242e-09, 6.693488785458685e-09, 6.242322569960452e-09, 5.581981573262432e-09, 5.142238516479435e-09, 4.377371946399533e-09, 4.25516617497131e-09, 4.148926298815617e-09, 3.6509279747558573e-09, 3.452283910595192e-09, 3.3176846159222634e-09], [2.5299174643907357e-05, 1.5826008637718325e-06, 3.216476122988607e-06, 2.464269884764885e-07, 2.164719091067219e-07, 1.9314562399553078e-07, 2.3834042414902227e-07, 1.8264313933140196e-07, 1.5084728292578866e-07, 1.494852072581316e-07, 3.083037978459455e-07, 9.07298839246409e-08, 1.4285568149591815e-07, 1.2509342196010558e-07, 1.1141155563069801e-07, 8.339059079463987e-08, 7.412837856852333e-08, 7.707567720838192e-08, 9.761978363100257e-08, 1.5490544425420414e-07, 9.39765345112358e-08, 1.116088086739463e-07, 8.109082716392037e-08, 8.181080391115716e-08, 7.452293122305853e-08, 8.641429984707206e-08, 6.64751509204936e-08, 6.646078859861059e-08, 6.67302228623883e-08, 7.564337082979185e-08], [2.504200092516839e-05, 1.1874965518169725e-06, 4.159376961373103e-07, 1.818519497949941e-07, 1.5879680480187145e-07, 1.179419465794733e-07, 1.0110179573530337e-07, 7.9987701913827e-08, 5.827815433197739e-08, 4.9830502272622416e-08, 2.7478341735331995e-08, 2.2796463857351602e-08, 2.203727641851105e-08, 1.625526806492424e-08, 1.279858850011813e-08, 1.2322738029979591e-08, 1.1102529621590972e-08, 8.417730631057032e-09, 8.26747452720163e-09, 7.879245818761242e-09, 6.693488785458685e-09, 6.242322569960452e-09, 5.581981573262432e-09, 5.142238516479435e-09, 4.377371946399533e-09, 4.25516617497131e-09, 4.148926298815617e-09, 3.6509279747558573e-09, 3.452283910595192e-09, 3.3176846159222634e-09], [2.504200092516839e-05, 1.1874965518169725e-06, 4.159376961373103e-07, 1.818519497949941e-07, 1.5879680480187145e-07, 1.179419465794733e-07, 1.0110179573530337e-07, 7.9987701913827e-08, 5.827815433197739e-08, 4.9830502272622416e-08, 2.7478341735331995e-08, 2.2796463857351602e-08, 2.203727641851105e-08, 1.625526806492424e-08, 1.279858850011813e-08, 1.2322738029979591e-08, 1.1102529621590972e-08, 8.417730631057032e-09, 8.26747452720163e-09, 7.879245818761242e-09, 6.693488785458685e-09, 6.242322569960452e-09, 5.581981573262432e-09, 5.142238516479435e-09, 4.377371946399533e-09, 4.25516617497131e-09, 4.148926298815617e-09, 3.6509279747558573e-09, 3.452283910595192e-09, 3.3176846159222634e-09], [2.504200092516839e-05, 1.1874965518169725e-06, 4.159376961373103e-07, 1.818519497949941e-07, 1.5879680480187145e-07, 1.179419465794733e-07, 1.0110179573530337e-07, 7.9987701913827e-08, 5.827815433197739e-08, 4.9830502272622416e-08, 2.7478341735331995e-08, 2.2796463857351602e-08, 2.203727641851105e-08, 1.625526806492424e-08, 1.279858850011813e-08, 1.2322738029979591e-08, 1.1102529621590972e-08, 8.417730631057032e-09, 8.26747452720163e-09, 7.879245818761242e-09, 6.693488785458685e-09, 6.242322569960452e-09, 5.581981573262432e-09, 5.142238516479435e-09, 4.377371946399533e-09, 4.25516617497131e-09, 4.148926298815617e-09, 3.6509279747558573e-09, 3.452283910595192e-09, 3.3176846159222634e-09], [2.504200092516839e-05, 1.1874965518169725e-06, 4.159376961373103e-07, 1.818519497949941e-07, 1.5879680480187145e-07, 1.179419465794733e-07, 1.0110179573530337e-07, 7.9987701913827e-08, 5.827815433197739e-08, 4.9830502272622416e-08, 2.7478341735331995e-08, 2.2796463857351602e-08, 2.203727641851105e-08, 1.625526806492424e-08, 1.279858850011813e-08, 1.2322738029979591e-08, 1.1102529621590972e-08, 8.417730631057032e-09, 8.26747452720163e-09, 7.879245818761242e-09, 6.693488785458685e-09, 6.242322569960452e-09, 5.581981573262432e-09, 5.142238516479435e-09, 4.377371946399533e-09, 4.25516617497131e-09, 4.148926298815617e-09, 3.6509279747558573e-09, 3.452283910595192e-09, 3.3176846159222634e-09], [3.0266830989191725e-05, 5.6474915412460056e-05, 1.2123028159741453e-05, 3.859323466077715e-06, 4.91105845594392e-06, 3.2660507205708578e-06, 2.539263377364196e-06, 2.540040216781472e-06, 2.3962472301144647e-06, 1.8213373557737808e-06, 1.7257222417243594e-06, 1.4076472361276058e-06, 1.6213958792090387e-06, 1.3207845370583435e-06, 1.4380923818615867e-06, 1.3109054212248374e-06, 1.2269395404318226e-06, 1.2246563603138869e-06, 1.2014253184153655e-06, 1.2180192492045655e-06, 1.1561793188544836e-06, 1.149205863560305e-06, 1.1410494510810152e-06, 1.1330525239151738e-06, 1.122065035438413e-06, 1.077612946458291e-06, 1.1080682480104075e-06, 1.0607514666288468e-06, 1.0792956347107452e-06, 1.0643308620104802e-06], [2.504200092516839e-05, 1.1874965518169725e-06, 4.159376961373103e-07, 1.818519497949941e-07, 1.5879680480187145e-07, 1.179419465794733e-07, 1.0110179573530337e-07, 7.9987701913827e-08, 5.827815433197739e-08, 4.9830502272622416e-08, 2.7478341735331995e-08, 2.2796463857351602e-08, 2.203727641851105e-08, 1.625526806492424e-08, 1.279858850011813e-08, 1.2322738029979591e-08, 1.1102529621590972e-08, 8.417730631057032e-09, 8.26747452720163e-09, 7.879245818761242e-09, 6.693488785458685e-09, 6.242322569960452e-09, 5.581981573262432e-09, 5.142238516479435e-09, 4.377371946399533e-09, 4.25516617497131e-09, 4.148926298815617e-09, 3.6509279747558573e-09, 3.452283910595192e-09, 3.3176846159222634e-09], [2.504200092516839e-05, 1.1874965518169725e-06, 4.159376961373103e-07, 1.818519497949941e-07, 1.5879680480187145e-07, 1.179419465794733e-07, 1.0110179573530337e-07, 7.9987701913827e-08, 5.827815433197739e-08, 4.9830502272622416e-08, 2.7478341735331995e-08, 2.2796463857351602e-08, 2.203727641851105e-08, 1.625526806492424e-08, 1.279858850011813e-08, 1.2322738029979591e-08, 1.1102529621590972e-08, 8.417730631057032e-09, 8.26747452720163e-09, 7.879245818761242e-09, 6.693488785458685e-09, 6.242322569960452e-09, 5.581981573262432e-09, 5.142238516479435e-09, 4.377371946399533e-09, 4.25516617497131e-09, 4.148926298815617e-09, 3.6509279747558573e-09, 3.452283910595192e-09, 3.3176846159222634e-09], [2.504200092516839e-05, 1.1874965518169725e-06, 4.159376961373103e-07, 1.818519497949941e-07, 1.5879680480187145e-07, 1.179419465794733e-07, 1.0110179573530337e-07, 7.9987701913827e-08, 5.827815433197739e-08, 4.9830502272622416e-08, 2.7478341735331995e-08, 2.2796463857351602e-08, 2.203727641851105e-08, 1.625526806492424e-08, 1.279858850011813e-08, 1.2322738029979591e-08, 1.1102529621590972e-08, 8.417730631057032e-09, 8.26747452720163e-09, 7.879245818761242e-09, 6.693488785458685e-09, 6.242322569960452e-09, 5.581981573262432e-09, 5.142238516479435e-09, 4.377371946399533e-09, 4.25516617497131e-09, 4.148926298815617e-09, 3.6509279747558573e-09, 3.452283910595192e-09, 3.3176846159222634e-09], [2.504200092516839e-05, 1.1874965518169725e-06, 4.159376961373103e-07, 1.818519497949941e-07, 1.5879680480187145e-07, 1.179419465794733e-07, 1.0110179573530337e-07, 7.9987701913827e-08, 5.827815433197739e-08, 4.9830502272622416e-08, 2.7478341735331995e-08, 2.2796463857351602e-08, 2.203727641851105e-08, 1.625526806492424e-08, 1.279858850011813e-08, 1.2322738029979591e-08, 1.1102529621590972e-08, 8.417730631057032e-09, 8.26747452720163e-09, 7.879245818761242e-09, 6.693488785458685e-09, 6.242322569960452e-09, 5.581981573262432e-09, 5.142238516479435e-09, 4.377371946399533e-09, 4.25516617497131e-09, 4.148926298815617e-09, 3.6509279747558573e-09, 3.452283910595192e-09, 3.3176846159222634e-09], [4.512753066908838e-05, 1.6512952239223986e-05, 3.3597381103954053e-06, 3.255453529147124e-06, 3.7637114721818793e-06, 2.1089274166630398e-06, 1.7017041770240074e-06, 1.8442951075089497e-06, 1.8555843366205922e-06, 1.3497378161319414e-06, 1.4332527367060506e-06, 1.1914161521810017e-06, 1.316006410833604e-06, 1.0267523402839913e-06, 1.0764459725244803e-06, 1.0323783396637157e-06, 1.0199747282937758e-06, 1.0531400747832817e-06, 1.0346500815853712e-06, 9.105910898974977e-07, 9.374492751396789e-07, 8.657966421249981e-07, 8.033992235833948e-07, 9.169252769795711e-07, 8.892212753255286e-07, 7.890056061186355e-07, 8.339809012221904e-07, 8.142469046198056e-07, 8.055916571945425e-07, 8.021651429839757e-07], [2.504200092516839e-05, 1.1874965518169725e-06, 4.159376961373103e-07, 1.818519497949941e-07, 1.5879680480187145e-07, 1.179419465794733e-07, 1.0110179573530337e-07, 7.9987701913827e-08, 5.827815433197739e-08, 4.9830502272622416e-08, 2.7478341735331995e-08, 2.2796463857351602e-08, 2.203727641851105e-08, 1.625526806492424e-08, 1.279858850011813e-08, 1.2322738029979591e-08, 1.1102529621590972e-08, 8.417730631057032e-09, 8.26747452720163e-09, 7.879245818761242e-09, 6.693488785458685e-09, 6.242322569960452e-09, 5.581981573262432e-09, 5.142238516479435e-09, 4.377371946399533e-09, 4.25516617497131e-09, 4.148926298815617e-09, 3.6509279747558573e-09, 3.452283910595192e-09, 3.3176846159222634e-09], [2.504200092516839e-05, 1.1874965518169725e-06, 4.159376961373103e-07, 1.818519497949941e-07, 1.5879680480187145e-07, 1.179419465794733e-07, 1.0110179573530337e-07, 7.9987701913827e-08, 5.827815433197739e-08, 4.9830502272622416e-08, 2.7478341735331995e-08, 2.2796463857351602e-08, 2.203727641851105e-08, 1.625526806492424e-08, 1.279858850011813e-08, 1.2322738029979591e-08, 1.1102529621590972e-08, 8.417730631057032e-09, 8.26747452720163e-09, 7.879245818761242e-09, 6.693488785458685e-09, 6.242322569960452e-09, 5.581981573262432e-09, 5.142238516479435e-09, 4.377371946399533e-09, 4.25516617497131e-09, 4.148926298815617e-09, 3.6509279747558573e-09, 3.452283910595192e-09, 3.3176846159222634e-09], [2.504200092516839e-05, 1.1874965518169725e-06, 4.159376961373103e-07, 1.818519497949941e-07, 1.5879680480187145e-07, 1.179419465794733e-07, 1.0110179573530337e-07, 7.9987701913827e-08, 5.827815433197739e-08, 4.9830502272622416e-08, 2.7478341735331995e-08, 2.2796463857351602e-08, 2.203727641851105e-08, 1.625526806492424e-08, 1.279858850011813e-08, 1.2322738029979591e-08, 1.1102529621590972e-08, 8.417730631057032e-09, 8.26747452720163e-09, 7.879245818761242e-09, 6.693488785458685e-09, 6.242322569960452e-09, 5.581981573262432e-09, 5.142238516479435e-09, 4.377371946399533e-09, 4.25516617497131e-09, 4.148926298815617e-09, 3.6509279747558573e-09, 3.452283910595192e-09, 3.3176846159222634e-09], [2.504200092516839e-05, 1.1874965518169725e-06, 4.159376961373103e-07, 1.818519497949941e-07, 1.5879680480187145e-07, 1.179419465794733e-07, 1.0110179573530337e-07, 7.9987701913827e-08, 5.827815433197739e-08, 4.9830502272622416e-08, 2.7478341735331995e-08, 2.2796463857351602e-08, 2.203727641851105e-08, 1.625526806492424e-08, 1.279858850011813e-08, 1.2322738029979591e-08, 1.1102529621590972e-08, 8.417730631057032e-09, 8.26747452720163e-09, 7.879245818761242e-09, 6.693488785458685e-09, 6.242322569960452e-09, 5.581981573262432e-09, 5.142238516479435e-09, 4.377371946399533e-09, 4.25516617497131e-09, 4.148926298815617e-09, 3.6509279747558573e-09, 3.452283910595192e-09, 3.3176846159222634e-09], [2.504200092516839e-05, 1.1874965518169725e-06, 4.159376961373103e-07, 1.818519497949941e-07, 1.5879680480187145e-07, 1.179419465794733e-07, 1.0110179573530337e-07, 7.9987701913827e-08, 5.827815433197739e-08, 4.9830502272622416e-08, 2.7478341735331995e-08, 2.2796463857351602e-08, 2.203727641851105e-08, 1.625526806492424e-08, 1.279858850011813e-08, 1.2322738029979591e-08, 1.1102529621590972e-08, 8.417730631057032e-09, 8.26747452720163e-09, 7.879245818761242e-09, 6.693488785458685e-09, 6.242322569960452e-09, 5.581981573262432e-09, 5.142238516479435e-09, 4.377371946399533e-09, 4.25516617497131e-09, 4.148926298815617e-09, 3.6509279747558573e-09, 3.452283910595192e-09, 3.3176846159222634e-09], [2.504200092516839e-05, 1.1874965518169725e-06, 4.159376961373103e-07, 1.818519497949941e-07, 1.5879680480187145e-07, 1.179419465794733e-07, 1.0110179573530337e-07, 7.9987701913827e-08, 5.827815433197739e-08, 4.9830502272622416e-08, 2.7478341735331995e-08, 2.2796463857351602e-08, 2.203727641851105e-08, 1.625526806492424e-08, 1.279858850011813e-08, 1.2322738029979591e-08, 1.1102529621590972e-08, 8.417730631057032e-09, 8.26747452720163e-09, 7.879245818761242e-09, 6.693488785458685e-09, 6.242322569960452e-09, 5.581981573262432e-09, 5.142238516479435e-09, 4.377371946399533e-09, 4.25516617497131e-09, 4.148926298815617e-09, 3.6509279747558573e-09, 3.452283910595192e-09, 3.3176846159222634e-09], [2.504200092516839e-05, 1.1874965518169725e-06, 4.159376961373103e-07, 1.818519497949941e-07, 1.5879680480187145e-07, 1.179419465794733e-07, 1.0110179573530337e-07, 7.9987701913827e-08, 5.827815433197739e-08, 4.9830502272622416e-08, 2.7478341735331995e-08, 2.2796463857351602e-08, 2.203727641851105e-08, 1.625526806492424e-08, 1.279858850011813e-08, 1.2322738029979591e-08, 1.1102529621590972e-08, 8.417730631057032e-09, 8.26747452720163e-09, 7.879245818761242e-09, 6.693488785458685e-09, 6.242322569960452e-09, 5.581981573262432e-09, 5.142238516479435e-09, 4.377371946399533e-09, 4.25516617497131e-09, 4.148926298815617e-09, 3.6509279747558573e-09, 3.452283910595192e-09, 3.3176846159222634e-09], [2.504200092516839e-05, 1.1874965518169725e-06, 4.159376961373103e-07, 1.818519497949941e-07, 1.5879680480187145e-07, 1.179419465794733e-07, 1.0110179573530337e-07, 7.9987701913827e-08, 5.827815433197739e-08, 4.9830502272622416e-08, 2.7478341735331995e-08, 2.2796463857351602e-08, 2.203727641851105e-08, 1.625526806492424e-08, 1.279858850011813e-08, 1.2322738029979591e-08, 1.1102529621590972e-08, 8.417730631057032e-09, 8.26747452720163e-09, 7.879245818761242e-09, 6.693488785458685e-09, 6.242322569960452e-09, 5.581981573262432e-09, 5.142238516479435e-09, 4.377371946399533e-09, 4.25516617497131e-09, 4.148926298815617e-09, 3.6509279747558573e-09, 3.452283910595192e-09, 3.3176846159222634e-09], [2.504200092516839e-05, 1.1874965518169725e-06, 4.159376961373103e-07, 1.818519497949941e-07, 1.5879680480187145e-07, 1.179419465794733e-07, 1.0110179573530337e-07, 7.9987701913827e-08, 5.827815433197739e-08, 4.9830502272622416e-08, 2.7478341735331995e-08, 2.2796463857351602e-08, 2.203727641851105e-08, 1.625526806492424e-08, 1.279858850011813e-08, 1.2322738029979591e-08, 1.1102529621590972e-08, 8.417730631057032e-09, 8.26747452720163e-09, 7.879245818761242e-09, 6.693488785458685e-09, 6.242322569960452e-09, 5.581981573262432e-09, 5.142238516479435e-09, 4.377371946399533e-09, 4.25516617497131e-09, 4.148926298815617e-09, 3.6509279747558573e-09, 3.452283910595192e-09, 3.3176846159222634e-09], [2.504200092516839e-05, 1.1874965518169725e-06, 4.159376961373103e-07, 1.818519497949941e-07, 1.5879680480187145e-07, 1.179419465794733e-07, 1.0110179573530337e-07, 7.9987701913827e-08, 5.827815433197739e-08, 4.9830502272622416e-08, 2.7478341735331995e-08, 2.2796463857351602e-08, 2.203727641851105e-08, 1.625526806492424e-08, 1.279858850011813e-08, 1.2322738029979591e-08, 1.1102529621590972e-08, 8.417730631057032e-09, 8.26747452720163e-09, 7.879245818761242e-09, 6.693488785458685e-09, 6.242322569960452e-09, 5.581981573262432e-09, 5.142238516479435e-09, 4.377371946399533e-09, 4.25516617497131e-09, 4.148926298815617e-09, 3.6509279747558573e-09, 3.452283910595192e-09, 3.3176846159222634e-09], [2.504200092516839e-05, 1.1874965518169725e-06, 4.159376961373103e-07, 1.818519497949941e-07, 1.5879680480187145e-07, 1.179419465794733e-07, 1.0110179573530337e-07, 7.9987701913827e-08, 5.827815433197739e-08, 4.9830502272622416e-08, 2.7478341735331995e-08, 2.2796463857351602e-08, 2.203727641851105e-08, 1.625526806492424e-08, 1.279858850011813e-08, 1.2322738029979591e-08, 1.1102529621590972e-08, 8.417730631057032e-09, 8.26747452720163e-09, 7.879245818761242e-09, 6.693488785458685e-09, 6.242322569960452e-09, 5.581981573262432e-09, 5.142238516479435e-09, 4.377371946399533e-09, 4.25516617497131e-09, 4.148926298815617e-09, 3.6509279747558573e-09, 3.452283910595192e-09, 3.3176846159222634e-09], [2.504200092516839e-05, 1.1874965518169725e-06, 4.159376961373103e-07, 1.818519497949941e-07, 1.5879680480187145e-07, 1.179419465794733e-07, 1.0110179573530337e-07, 7.9987701913827e-08, 5.827815433197739e-08, 4.9830502272622416e-08, 2.7478341735331995e-08, 2.2796463857351602e-08, 2.203727641851105e-08, 1.625526806492424e-08, 1.279858850011813e-08, 1.2322738029979591e-08, 1.1102529621590972e-08, 8.417730631057032e-09, 8.26747452720163e-09, 7.879245818761242e-09, 6.693488785458685e-09, 6.242322569960452e-09, 5.581981573262432e-09, 5.142238516479435e-09, 4.377371946399533e-09, 4.25516617497131e-09, 4.148926298815617e-09, 3.6509279747558573e-09, 3.452283910595192e-09, 3.3176846159222634e-09], [2.504200092516839e-05, 1.1874965518169725e-06, 4.159376961373103e-07, 1.818519497949941e-07, 1.5879680480187145e-07, 1.179419465794733e-07, 1.0110179573530337e-07, 7.9987701913827e-08, 5.827815433197739e-08, 4.9830502272622416e-08, 2.7478341735331995e-08, 2.2796463857351602e-08, 2.203727641851105e-08, 1.625526806492424e-08, 1.279858850011813e-08, 1.2322738029979591e-08, 1.1102529621590972e-08, 8.417730631057032e-09, 8.26747452720163e-09, 7.879245818761242e-09, 6.693488785458685e-09, 6.242322569960452e-09, 5.581981573262432e-09, 5.142238516479435e-09, 4.377371946399533e-09, 4.25516617497131e-09, 4.148926298815617e-09, 3.6509279747558573e-09, 3.452283910595192e-09, 3.3176846159222634e-09], [2.504200092516839e-05, 1.1874965518169725e-06, 4.159376961373103e-07, 1.818519497949941e-07, 1.5879680480187145e-07, 1.179419465794733e-07, 1.0110179573530337e-07, 7.9987701913827e-08, 5.827815433197739e-08, 4.9830502272622416e-08, 2.7478341735331995e-08, 2.2796463857351602e-08, 2.203727641851105e-08, 1.625526806492424e-08, 1.279858850011813e-08, 1.2322738029979591e-08, 1.1102529621590972e-08, 8.417730631057032e-09, 8.26747452720163e-09, 7.879245818761242e-09, 6.693488785458685e-09, 6.242322569960452e-09, 5.581981573262432e-09, 5.142238516479435e-09, 4.377371946399533e-09, 4.25516617497131e-09, 4.148926298815617e-09, 3.6509279747558573e-09, 3.452283910595192e-09, 3.3176846159222634e-09], [2.504200092516839e-05, 1.1874965518169725e-06, 4.159376961373103e-07, 1.818519497949941e-07, 1.5879680480187145e-07, 1.179419465794733e-07, 1.0110179573530337e-07, 7.9987701913827e-08, 5.827815433197739e-08, 4.9830502272622416e-08, 2.7478341735331995e-08, 2.2796463857351602e-08, 2.203727641851105e-08, 1.625526806492424e-08, 1.279858850011813e-08, 1.2322738029979591e-08, 1.1102529621590972e-08, 8.417730631057032e-09, 8.26747452720163e-09, 7.879245818761242e-09, 6.693488785458685e-09, 6.242322569960452e-09, 5.581981573262432e-09, 5.142238516479435e-09, 4.377371946399533e-09, 4.25516617497131e-09, 4.148926298815617e-09, 3.6509279747558573e-09, 3.452283910595192e-09, 3.3176846159222634e-09], [2.504200092516839e-05, 1.1874965518169725e-06, 4.159376961373103e-07, 1.818519497949941e-07, 1.5879680480187145e-07, 1.179419465794733e-07, 1.0110179573530337e-07, 7.9987701913827e-08, 5.827815433197739e-08, 4.9830502272622416e-08, 2.7478341735331995e-08, 2.2796463857351602e-08, 2.203727641851105e-08, 1.625526806492424e-08, 1.279858850011813e-08, 1.2322738029979591e-08, 1.1102529621590972e-08, 8.417730631057032e-09, 8.26747452720163e-09, 7.879245818761242e-09, 6.693488785458685e-09, 6.242322569960452e-09, 5.581981573262432e-09, 5.142238516479435e-09, 4.377371946399533e-09, 4.25516617497131e-09, 4.148926298815617e-09, 3.6509279747558573e-09, 3.452283910595192e-09, 3.3176846159222634e-09], [2.504200092516839e-05, 1.1874965518169725e-06, 4.159376961373103e-07, 1.818519497949941e-07, 1.5879680480187145e-07, 1.179419465794733e-07, 1.0110179573530337e-07, 7.9987701913827e-08, 5.827815433197739e-08, 4.9830502272622416e-08, 2.7478341735331995e-08, 2.2796463857351602e-08, 2.203727641851105e-08, 1.625526806492424e-08, 1.279858850011813e-08, 1.2322738029979591e-08, 1.1102529621590972e-08, 8.417730631057032e-09, 8.26747452720163e-09, 7.879245818761242e-09, 6.693488785458685e-09, 6.242322569960452e-09, 5.581981573262432e-09, 5.142238516479435e-09, 4.377371946399533e-09, 4.25516617497131e-09, 4.148926298815617e-09, 3.6509279747558573e-09, 3.452283910595192e-09, 3.3176846159222634e-09], [2.750912930313939e-05, 2.1023829544056803e-06, 1.0934393234167567e-06, 3.6315049116186996e-07, 2.94499073509849e-07, 4.720953828668212e-07, 2.625587268548421e-07, 3.280132528779165e-07, 4.303978841422696e-07, 2.0554858767772538e-07, 2.4623325710127286e-07, 2.7172129489462395e-07, 1.8780923610511173e-07, 1.6811323772201271e-07, 2.258279730681452e-07, 1.6402144063859242e-07, 1.608361434826259e-07, 1.563604746283751e-07, 1.8122910956157995e-07, 2.2512310908203545e-07, 1.759824077749958e-07, 1.5029149242638401e-07, 1.595430597363402e-07, 1.4823382165300884e-07, 1.6099428339998263e-07, 1.5836658474983968e-07, 1.624135593327616e-07, 1.4847851500566049e-07, 1.5351649243368962e-07, 1.5563152081615693e-07], [2.504200092516839e-05, 1.1874965518169725e-06, 4.159376961373103e-07, 1.818519497949941e-07, 1.5879680480187145e-07, 1.179419465794733e-07, 1.0110179573530337e-07, 7.9987701913827e-08, 5.827815433197739e-08, 4.9830502272622416e-08, 2.7478341735331995e-08, 2.2796463857351602e-08, 2.203727641851105e-08, 1.625526806492424e-08, 1.279858850011813e-08, 1.2322738029979591e-08, 1.1102529621590972e-08, 8.417730631057032e-09, 8.26747452720163e-09, 7.879245818761242e-09, 6.693488785458685e-09, 6.242322569960452e-09, 5.581981573262432e-09, 5.142238516479435e-09, 4.377371946399533e-09, 4.25516617497131e-09, 4.148926298815617e-09, 3.6509279747558573e-09, 3.452283910595192e-09, 3.3176846159222634e-09], [3.347983045730554e-05, 2.3691666825654256e-06, 9.065274377729792e-07, 5.775497553922978e-07, 3.9868630260091435e-07, 3.5655497033488705e-07, 9.18163859450662e-07, 1.0555009662582057e-06, 2.8068099820394845e-07, 3.635642002391533e-07, 2.1725248453540717e-07, 2.0660568371230627e-07, 2.188457999239254e-07, 1.6952589901173449e-07, 1.7397779244818632e-07, 2.1569176575637503e-07, 2.2619833805691297e-07, 1.794402876816839e-07, 1.9614021087469204e-07, 1.9391240957692054e-07, 1.7235405677209563e-07, 1.7013209401310635e-07, 1.6692409437620724e-07, 1.8058590287856993e-07, 1.6420155324846576e-07, 1.6129651405898497e-07, 1.6172299208277176e-07, 1.576816170492498e-07, 1.5326658424460228e-07, 1.6927495059268588e-07], [2.504200092516839e-05, 1.1874965518169725e-06, 4.159376961373103e-07, 1.818519497949941e-07, 1.5879680480187145e-07, 1.179419465794733e-07, 1.0110179573530337e-07, 7.9987701913827e-08, 5.827815433197739e-08, 4.9830502272622416e-08, 2.7478341735331995e-08, 2.2796463857351602e-08, 2.203727641851105e-08, 1.625526806492424e-08, 1.279858850011813e-08, 1.2322738029979591e-08, 1.1102529621590972e-08, 8.417730631057032e-09, 8.26747452720163e-09, 7.879245818761242e-09, 6.693488785458685e-09, 6.242322569960452e-09, 5.581981573262432e-09, 5.142238516479435e-09, 4.377371946399533e-09, 4.25516617497131e-09, 4.148926298815617e-09, 3.6509279747558573e-09, 3.452283910595192e-09, 3.3176846159222634e-09], [4.2469534049321004e-05, 2.7594392929317996e-05, 6.245841245021244e-06, 5.997053699888841e-06, 4.362163863762418e-06, 2.5004065727979062e-06, 3.357449904501218e-06, 2.2956500391333887e-06, 2.5695659479741067e-06, 2.3542803457255932e-06, 1.3954933505894784e-06, 1.637013689380339e-06, 1.3429813502217037e-06, 1.2990777769296356e-06, 1.280309911001126e-06, 1.2909281206553216e-06, 1.257418649194925e-06, 1.1280259233337847e-06, 1.182086501681621e-06, 1.1401492930022943e-06, 1.1745092474833127e-06, 1.1328901562557653e-06, 1.1282027782491287e-06, 1.1073567579973651e-06, 1.097391655739149e-06, 1.1248674303380208e-06, 1.07824334777031e-06, 1.076760916771227e-06, 1.075298032059122e-06, 1.0820045537796588e-06], [5.24538589515437e-05, 9.732606889743708e-06, 7.804804403687916e-06, 1.803649064401877e-06, 3.650411157846573e-06, 2.680858945188045e-06, 1.7107108933486847e-06, 2.026970913443329e-06, 1.4799140439203333e-06, 1.6622687160179895e-06, 1.3538690938094345e-06, 1.1319984562201337e-06, 1.2233631957261184e-06, 1.0542476275604587e-06, 9.796117386807366e-07, 9.62150890408474e-07, 1.0915428394361365e-06, 9.206678127915101e-07, 9.277637977270501e-07, 1.0551057534962286e-06, 8.864219692792657e-07, 9.812741720677234e-07, 8.594045408650473e-07, 8.75838945451409e-07, 8.602378431504405e-07, 8.297761708363769e-07, 8.417587784798677e-07, 7.992620055711581e-07, 8.02920137879108e-07, 7.924253534410987e-07], [2.504200092516839e-05, 1.1874965518169725e-06, 4.159376961373103e-07, 1.818519497949941e-07, 1.5879680480187145e-07, 1.179419465794733e-07, 1.0110179573530337e-07, 7.9987701913827e-08, 5.827815433197739e-08, 4.9830502272622416e-08, 2.7478341735331995e-08, 2.2796463857351602e-08, 2.203727641851105e-08, 1.625526806492424e-08, 1.279858850011813e-08, 1.2322738029979591e-08, 1.1102529621590972e-08, 8.417730631057032e-09, 8.26747452720163e-09, 7.879245818761242e-09, 6.693488785458685e-09, 6.242322569960452e-09, 5.581981573262432e-09, 5.142238516479435e-09, 4.377371946399533e-09, 4.25516617497131e-09, 4.148926298815617e-09, 3.6509279747558573e-09, 3.452283910595192e-09, 3.3176846159222634e-09], [2.504200092516839e-05, 1.1874965518169725e-06, 4.159376961373103e-07, 1.818519497949941e-07, 1.5879680480187145e-07, 1.179419465794733e-07, 1.0110179573530337e-07, 7.9987701913827e-08, 5.827815433197739e-08, 4.9830502272622416e-08, 2.7478341735331995e-08, 2.2796463857351602e-08, 2.203727641851105e-08, 1.625526806492424e-08, 1.279858850011813e-08, 1.2322738029979591e-08, 1.1102529621590972e-08, 8.417730631057032e-09, 8.26747452720163e-09, 7.879245818761242e-09, 6.693488785458685e-09, 6.242322569960452e-09, 5.581981573262432e-09, 5.142238516479435e-09, 4.377371946399533e-09, 4.25516617497131e-09, 4.148926298815617e-09, 3.6509279747558573e-09, 3.452283910595192e-09, 3.3176846159222634e-09], [5.3386489604649554e-05, 1.1865572831858336e-05, 2.8989489255624657e-06, 1.8470823116054805e-06, 4.320441472081161e-06, 2.357400087785834e-06, 1.7685971515497062e-06, 1.8619388598785764e-06, 1.3110828213349986e-06, 1.5460699768934332e-06, 1.3091989216662688e-06, 1.049365241637763e-06, 1.1961049728237953e-06, 9.290359348923715e-07, 8.931278782693252e-07, 8.761199148747787e-07, 9.310144904842775e-07, 9.953062144841205e-07, 8.42452003425963e-07, 8.067554042893896e-07, 7.783137832429943e-07, 7.71631680487834e-07, 8.084495753923478e-07, 7.930645295133874e-07, 7.739029912444901e-07, 7.148100082156169e-07, 8.074351146297321e-07, 7.021099075523437e-07, 7.304863286811411e-07, 7.539225138999931e-07], [2.504200092516839e-05, 1.1874965518169725e-06, 4.159376961373103e-07, 1.818519497949941e-07, 1.5879680480187145e-07, 1.179419465794733e-07, 1.0110179573530337e-07, 7.9987701913827e-08, 5.827815433197739e-08, 4.9830502272622416e-08, 2.7478341735331995e-08, 2.2796463857351602e-08, 2.203727641851105e-08, 1.625526806492424e-08, 1.279858850011813e-08, 1.2322738029979591e-08, 1.1102529621590972e-08, 8.417730631057032e-09, 8.26747452720163e-09, 7.879245818761242e-09, 6.693488785458685e-09, 6.242322569960452e-09, 5.581981573262432e-09, 5.142238516479435e-09, 4.377371946399533e-09, 4.25516617497131e-09, 4.148926298815617e-09, 3.6509279747558573e-09, 3.452283910595192e-09, 3.3176846159222634e-09], [2.504200092516839e-05, 1.1874965518169725e-06, 4.159376961373103e-07, 1.818519497949941e-07, 1.5879680480187145e-07, 1.179419465794733e-07, 1.0110179573530337e-07, 7.9987701913827e-08, 5.827815433197739e-08, 4.9830502272622416e-08, 2.7478341735331995e-08, 2.2796463857351602e-08, 2.203727641851105e-08, 1.625526806492424e-08, 1.279858850011813e-08, 1.2322738029979591e-08, 1.1102529621590972e-08, 8.417730631057032e-09, 8.26747452720163e-09, 7.879245818761242e-09, 6.693488785458685e-09, 6.242322569960452e-09, 5.581981573262432e-09, 5.142238516479435e-09, 4.377371946399533e-09, 4.25516617497131e-09, 4.148926298815617e-09, 3.6509279747558573e-09, 3.452283910595192e-09, 3.3176846159222634e-09], [2.504200092516839e-05, 1.1874965518169725e-06, 4.159376961373103e-07, 1.818519497949941e-07, 1.5879680480187145e-07, 1.179419465794733e-07, 1.0110179573530337e-07, 7.9987701913827e-08, 5.827815433197739e-08, 4.9830502272622416e-08, 2.7478341735331995e-08, 2.2796463857351602e-08, 2.203727641851105e-08, 1.625526806492424e-08, 1.279858850011813e-08, 1.2322738029979591e-08, 1.1102529621590972e-08, 8.417730631057032e-09, 8.26747452720163e-09, 7.879245818761242e-09, 6.693488785458685e-09, 6.242322569960452e-09, 5.581981573262432e-09, 5.142238516479435e-09, 4.377371946399533e-09, 4.25516617497131e-09, 4.148926298815617e-09, 3.6509279747558573e-09, 3.452283910595192e-09, 3.3176846159222634e-09], [2.504200092516839e-05, 1.1874965518169725e-06, 4.159376961373103e-07, 1.818519497949941e-07, 1.5879680480187145e-07, 1.179419465794733e-07, 1.0110179573530337e-07, 7.9987701913827e-08, 5.827815433197739e-08, 4.9830502272622416e-08, 2.7478341735331995e-08, 2.2796463857351602e-08, 2.203727641851105e-08, 1.625526806492424e-08, 1.279858850011813e-08, 1.2322738029979591e-08, 1.1102529621590972e-08, 8.417730631057032e-09, 8.26747452720163e-09, 7.879245818761242e-09, 6.693488785458685e-09, 6.242322569960452e-09, 5.581981573262432e-09, 5.142238516479435e-09, 4.377371946399533e-09, 4.25516617497131e-09, 4.148926298815617e-09, 3.6509279747558573e-09, 3.452283910595192e-09, 3.3176846159222634e-09], [3.261883955332526e-05, 2.9336901156052495e-05, 7.0535339687740414e-06, 6.198631382166185e-06, 6.935952606983757e-06, 2.505235746650345e-06, 3.2020372780987305e-06, 2.077815822252614e-06, 2.366566816794949e-06, 1.971440491274812e-06, 1.3910470743412331e-06, 1.5333289610095674e-06, 1.4830846808963272e-06, 1.3953272264673251e-06, 1.2301143314676629e-06, 1.236369925683114e-06, 1.2408348253646941e-06, 1.2003818447958154e-06, 1.1824840829320727e-06, 1.1313175246095778e-06, 1.1637910407809475e-06, 1.1369243399429139e-06, 1.0994459206342868e-06, 1.080373824999397e-06, 1.1049806514774064e-06, 1.0918706062917158e-06, 1.0683240885874016e-06, 1.0934311507246427e-06, 1.0748742147816978e-06, 1.0447830243352181e-06], [2.504200092516839e-05, 1.1874965518169725e-06, 4.159376961373103e-07, 1.818519497949941e-07, 1.5879680480187145e-07, 1.179419465794733e-07, 1.0110179573530337e-07, 7.9987701913827e-08, 5.827815433197739e-08, 4.9830502272622416e-08, 2.7478341735331995e-08, 2.2796463857351602e-08, 2.203727641851105e-08, 1.625526806492424e-08, 1.279858850011813e-08, 1.2322738029979591e-08, 1.1102529621590972e-08, 8.417730631057032e-09, 8.26747452720163e-09, 7.879245818761242e-09, 6.693488785458685e-09, 6.242322569960452e-09, 5.581981573262432e-09, 5.142238516479435e-09, 4.377371946399533e-09, 4.25516617497131e-09, 4.148926298815617e-09, 3.6509279747558573e-09, 3.452283910595192e-09, 3.3176846159222634e-09], [2.504200092516839e-05, 1.1874965518169725e-06, 4.159376961373103e-07, 1.818519497949941e-07, 1.5879680480187145e-07, 1.179419465794733e-07, 1.0110179573530337e-07, 7.9987701913827e-08, 5.827815433197739e-08, 4.9830502272622416e-08, 2.7478341735331995e-08, 2.2796463857351602e-08, 2.203727641851105e-08, 1.625526806492424e-08, 1.279858850011813e-08, 1.2322738029979591e-08, 1.1102529621590972e-08, 8.417730631057032e-09, 8.26747452720163e-09, 7.879245818761242e-09, 6.693488785458685e-09, 6.242322569960452e-09, 5.581981573262432e-09, 5.142238516479435e-09, 4.377371946399533e-09, 4.25516617497131e-09, 4.148926298815617e-09, 3.6509279747558573e-09, 3.452283910595192e-09, 3.3176846159222634e-09], [2.504200092516839e-05, 1.1874965518169725e-06, 4.159376961373103e-07, 1.818519497949941e-07, 1.5879680480187145e-07, 1.179419465794733e-07, 1.0110179573530337e-07, 7.9987701913827e-08, 5.827815433197739e-08, 4.9830502272622416e-08, 2.7478341735331995e-08, 2.2796463857351602e-08, 2.203727641851105e-08, 1.625526806492424e-08, 1.279858850011813e-08, 1.2322738029979591e-08, 1.1102529621590972e-08, 8.417730631057032e-09, 8.26747452720163e-09, 7.879245818761242e-09, 6.693488785458685e-09, 6.242322569960452e-09, 5.581981573262432e-09, 5.142238516479435e-09, 4.377371946399533e-09, 4.25516617497131e-09, 4.148926298815617e-09, 3.6509279747558573e-09, 3.452283910595192e-09, 3.3176846159222634e-09], [2.504200092516839e-05, 1.1874965518169725e-06, 4.159376961373103e-07, 1.818519497949941e-07, 1.5879680480187145e-07, 1.179419465794733e-07, 1.0110179573530337e-07, 7.9987701913827e-08, 5.827815433197739e-08, 4.9830502272622416e-08, 2.7478341735331995e-08, 2.2796463857351602e-08, 2.203727641851105e-08, 1.625526806492424e-08, 1.279858850011813e-08, 1.2322738029979591e-08, 1.1102529621590972e-08, 8.417730631057032e-09, 8.26747452720163e-09, 7.879245818761242e-09, 6.693488785458685e-09, 6.242322569960452e-09, 5.581981573262432e-09, 5.142238516479435e-09, 4.377371946399533e-09, 4.25516617497131e-09, 4.148926298815617e-09, 3.6509279747558573e-09, 3.452283910595192e-09, 3.3176846159222634e-09], [2.504200092516839e-05, 1.1874965518169725e-06, 4.159376961373103e-07, 1.818519497949941e-07, 1.5879680480187145e-07, 1.179419465794733e-07, 1.0110179573530337e-07, 7.9987701913827e-08, 5.827815433197739e-08, 4.9830502272622416e-08, 2.7478341735331995e-08, 2.2796463857351602e-08, 2.203727641851105e-08, 1.625526806492424e-08, 1.279858850011813e-08, 1.2322738029979591e-08, 1.1102529621590972e-08, 8.417730631057032e-09, 8.26747452720163e-09, 7.879245818761242e-09, 6.693488785458685e-09, 6.242322569960452e-09, 5.581981573262432e-09, 5.142238516479435e-09, 4.377371946399533e-09, 4.25516617497131e-09, 4.148926298815617e-09, 3.6509279747558573e-09, 3.452283910595192e-09, 3.3176846159222634e-09], [2.504200092516839e-05, 1.1874965518169725e-06, 4.159376961373103e-07, 1.818519497949941e-07, 1.5879680480187145e-07, 1.179419465794733e-07, 1.0110179573530337e-07, 7.9987701913827e-08, 5.827815433197739e-08, 4.9830502272622416e-08, 2.7478341735331995e-08, 2.2796463857351602e-08, 2.203727641851105e-08, 1.625526806492424e-08, 1.279858850011813e-08, 1.2322738029979591e-08, 1.1102529621590972e-08, 8.417730631057032e-09, 8.26747452720163e-09, 7.879245818761242e-09, 6.693488785458685e-09, 6.242322569960452e-09, 5.581981573262432e-09, 5.142238516479435e-09, 4.377371946399533e-09, 4.25516617497131e-09, 4.148926298815617e-09, 3.6509279747558573e-09, 3.452283910595192e-09, 3.3176846159222634e-09], [2.504200092516839e-05, 1.1874965518169725e-06, 4.159376961373103e-07, 1.818519497949941e-07, 1.5879680480187145e-07, 1.179419465794733e-07, 1.0110179573530337e-07, 7.9987701913827e-08, 5.827815433197739e-08, 4.9830502272622416e-08, 2.7478341735331995e-08, 2.2796463857351602e-08, 2.203727641851105e-08, 1.625526806492424e-08, 1.279858850011813e-08, 1.2322738029979591e-08, 1.1102529621590972e-08, 8.417730631057032e-09, 8.26747452720163e-09, 7.879245818761242e-09, 6.693488785458685e-09, 6.242322569960452e-09, 5.581981573262432e-09, 5.142238516479435e-09, 4.377371946399533e-09, 4.25516617497131e-09, 4.148926298815617e-09, 3.6509279747558573e-09, 3.452283910595192e-09, 3.3176846159222634e-09], [2.504200092516839e-05, 1.1874965518169725e-06, 4.159376961373103e-07, 1.818519497949941e-07, 1.5879680480187145e-07, 1.179419465794733e-07, 1.0110179573530337e-07, 7.9987701913827e-08, 5.827815433197739e-08, 4.9830502272622416e-08, 2.7478341735331995e-08, 2.2796463857351602e-08, 2.203727641851105e-08, 1.625526806492424e-08, 1.279858850011813e-08, 1.2322738029979591e-08, 1.1102529621590972e-08, 8.417730631057032e-09, 8.26747452720163e-09, 7.879245818761242e-09, 6.693488785458685e-09, 6.242322569960452e-09, 5.581981573262432e-09, 5.142238516479435e-09, 4.377371946399533e-09, 4.25516617497131e-09, 4.148926298815617e-09, 3.6509279747558573e-09, 3.452283910595192e-09, 3.3176846159222634e-09], [2.504200092516839e-05, 1.1874965518169725e-06, 4.159376961373103e-07, 1.818519497949941e-07, 1.5879680480187145e-07, 1.179419465794733e-07, 1.0110179573530337e-07, 7.9987701913827e-08, 5.827815433197739e-08, 4.9830502272622416e-08, 2.7478341735331995e-08, 2.2796463857351602e-08, 2.203727641851105e-08, 1.625526806492424e-08, 1.279858850011813e-08, 1.2322738029979591e-08, 1.1102529621590972e-08, 8.417730631057032e-09, 8.26747452720163e-09, 7.879245818761242e-09, 6.693488785458685e-09, 6.242322569960452e-09, 5.581981573262432e-09, 5.142238516479435e-09, 4.377371946399533e-09, 4.25516617497131e-09, 4.148926298815617e-09, 3.6509279747558573e-09, 3.452283910595192e-09, 3.3176846159222634e-09], [0.00011851117159993714, 6.021340599299826e-05, 1.8323397029748793e-05, 3.220449427237608e-06, 4.722435071407358e-06, 3.985344272584775e-06, 3.5993667895452566e-06, 3.435295311820033e-06, 1.924350548400982e-06, 2.320064401344378e-06, 2.1671555231551437e-06, 1.8447602003004262e-06, 1.6028841108414547e-06, 1.5037789363964778e-06, 1.4332192225535809e-06, 1.4068556420946583e-06, 1.5439604710566053e-06, 1.0762968482991705e-06, 1.0792345814999453e-06, 1.1856392578929298e-06, 1.1542249379331375e-06, 1.1764617813509622e-06, 9.55026407320882e-07, 1.0387635213891752e-06, 1.0653786083763587e-06, 9.352978813794988e-07, 9.637439584313318e-07, 8.92591198929001e-07, 9.627244692989436e-07, 9.245331702368597e-07], [2.504200092516839e-05, 1.1874965518169725e-06, 4.159376961373103e-07, 1.818519497949941e-07, 1.5879680480187145e-07, 1.179419465794733e-07, 1.0110179573530337e-07, 7.9987701913827e-08, 5.827815433197739e-08, 4.9830502272622416e-08, 2.7478341735331995e-08, 2.2796463857351602e-08, 2.203727641851105e-08, 1.625526806492424e-08, 1.279858850011813e-08, 1.2322738029979591e-08, 1.1102529621590972e-08, 8.417730631057032e-09, 8.26747452720163e-09, 7.879245818761242e-09, 6.693488785458685e-09, 6.242322569960452e-09, 5.581981573262432e-09, 5.142238516479435e-09, 4.377371946399533e-09, 4.25516617497131e-09, 4.148926298815617e-09, 3.6509279747558573e-09, 3.452283910595192e-09, 3.3176846159222634e-09], 