{"timestamp_utc": "2026-03-06T15:26:21+00:00", "case_id": "elephant_7_high_small_13", "bgmm_weights": [0.010498732130631051, 9.997989387724032e-05, 9.996979184926436e-05, 9.995969084200331e-05, 9.994959085535405e-05, 9.993949188921345e-05, 0.2995410891372263, 9.991491244020182e-05, 0.0005990941923553611, 0.03249460090006396, 0.05522899559567716, 0.008927302045547054, 9.983731583789995e-05, 9.982048203078413e-05, 0.00621115849770081, 0.00039914162688447146, 9.976963788522787e-05, 9.975263129787371e-05, 9.973562760943767e-05, 9.971862681942564e-05, 9.970162892734354e-05, 0.07916730118347906, 9.966498525755715e-05, 9.964534045533512e-05, 0.00923436274304056, 9.960570103430493e-05, 9.958570655776428e-05, 9.956571609484022e-05, 9.954572964472705e-05, 9.952574720661926e-05, 0.0002982107242961991, 0.012978133467324557, 0.0004961773380822066, 9.94447504294728e-05, 9.942423037843576e-05, 9.940371456163423e-05, 0.03755910099714492, 9.936096612376637e-05, 9.933873424480373e-05, 0.006533255545977201, 9.929395856611239e-05, 0.00029781197104964866, 9.924886613636826e-05, 0.0005933323980889484, 9.920375842864417e-05, 9.918119950532075e-05, 9.915864571189391e-05, 9.913609704719712e-05, 0.022043408238081468, 9.908982018314552e-05, 0.0506487889948715, 9.90390686527784e-05, 9.901205213799406e-05, 0.0002969520954540417, 0.025568943461313214, 0.0002962187248908749, 9.889991828606771e-05, 9.887086848430469e-05, 0.012543721403586087, 9.881167953779012e-05, 0.010368299310097712, 9.875042509911813e-05, 0.0006935482647554214, 9.868816345419355e-05, 9.865701779684963e-05, 9.862588196897196e-05, 0.010116752849803666, 0.24673866973351496, 0.0013857224465779825, 9.820965625382898e-05, 9.80315910051801e-05, 9.785384860902847e-05, 0.01633321850924106, 9.742293407645026e-05, 9.717009755334375e-05, 9.69179172033244e-05, 9.66663913234614e-05, 9.641551821524339e-05, 9.616529618456705e-05, 0.03695727415767089], "bgmm_means": [[-0.0018304392447029436, 0.0076669493271076476, 0.00640785009687821, -0.005183411530522435, -0.0017483171943026012, -0.0014026305740333113, 0.002007204119525662, -0.0004586247669673171, 0.0015594507141943785, -0.0003014292379366297, -0.0016957416667954639, 0.0013091642463905924, -0.00033688152083689014, -0.0001391811918626954, -0.00026330746783121214, -0.00045046004882242675, -0.0005837472844449044, -0.0005564586031908105, -5.878590814801904e-05, 0.0003500274690794949, -0.00022589586643653186, -0.0004106470670513258, 7.700779454233457e-05, -9.79966178406677e-05, -0.000196399006424285, 0.00018581065197396894, -4.843301665077742e-05, 0.00014358138842382123, 3.0305693095688348e-05, -0.00030957997223692425], [1.5943311382216018e-07, -9.616184115657212e-08, -1.6810034253467128e-07, 2.2071134253565055e-07, 8.930771144832741e-08, -9.221135144343842e-08, 1.2237450164320736e-08, -1.6378818656903567e-07, -1.9652712524020857e-07, 5.4055067977287644e-08, 2.216202510396665e-08, -5.405655656431906e-08, 8.935550255273463e-08, 1.6976171934857083e-07, 7.222704567766398e-08, 2.0258082145119216e-07, -1.863141818603249e-07, -5.769715816228414e-09, -4.7891742127603614e-08, -1.533665283659499e-08, 1.8528297118791628e-07, 2.1893575308240495e-07, 8.428811071325963e-08, 6.531674756615743e-08, 1.4976500040120265e-07, 3.605131482231619e-08, 6.242351702212532e-08, -1.3433809442631144e-07, -1.6453255113901795e-07, -8.064606049629201e-08], [1.5943311382216018e-07, -9.616184115657212e-08, -1.6810034253467128e-07, 2.2071134253565055e-07, 8.930771144832741e-08, -9.221135144343842e-08, 1.2237450164320736e-08, -1.6378818656903567e-07, -1.9652712524020857e-07, 5.4055067977287644e-08, 2.216202510396665e-08, -5.405655656431906e-08, 8.935550255273463e-08, 1.6976171934857083e-07, 7.222704567766398e-08, 2.0258082145119216e-07, -1.863141818603249e-07, -5.769715816228414e-09, -4.7891742127603614e-08, -1.533665283659499e-08, 1.8528297118791628e-07, 2.1893575308240495e-07, 8.428811071325963e-08, 6.531674756615743e-08, 1.4976500040120265e-07, 3.605131482231619e-08, 6.242351702212532e-08, -1.3433809442631144e-07, -1.6453255113901795e-07, -8.064606049629201e-08], [1.5943311382216018e-07, -9.616184115657212e-08, -1.6810034253467128e-07, 2.2071134253565055e-07, 8.930771144832741e-08, -9.221135144343842e-08, 1.2237450164320736e-08, -1.6378818656903567e-07, -1.9652712524020857e-07, 5.4055067977287644e-08, 2.216202510396665e-08, -5.405655656431906e-08, 8.935550255273463e-08, 1.6976171934857083e-07, 7.222704567766398e-08, 2.0258082145119216e-07, -1.863141818603249e-07, -5.769715816228414e-09, -4.7891742127603614e-08, -1.533665283659499e-08, 1.8528297118791628e-07, 2.1893575308240495e-07, 8.428811071325963e-08, 6.531674756615743e-08, 1.4976500040120265e-07, 3.605131482231619e-08, 6.242351702212532e-08, -1.3433809442631144e-07, -1.6453255113901795e-07, -8.064606049629201e-08], [1.5943311382216018e-07, -9.616184115657212e-08, -1.6810034253467128e-07, 2.2071134253565055e-07, 8.930771144832741e-08, -9.221135144343842e-08, 1.2237450164320736e-08, -1.6378818656903567e-07, -1.9652712524020857e-07, 5.4055067977287644e-08, 2.216202510396665e-08, -5.405655656431906e-08, 8.935550255273463e-08, 1.6976171934857083e-07, 7.222704567766398e-08, 2.0258082145119216e-07, -1.863141818603249e-07, -5.769715816228414e-09, -4.7891742127603614e-08, -1.533665283659499e-08, 1.8528297118791628e-07, 2.1893575308240495e-07, 8.428811071325963e-08, 6.531674756615743e-08, 1.4976500040120265e-07, 3.605131482231619e-08, 6.242351702212532e-08, -1.3433809442631144e-07, -1.6453255113901795e-07, -8.064606049629201e-08], [1.5943311382216018e-07, -9.616184115657212e-08, -1.6810034253467128e-07, 2.2071134253565055e-07, 8.930771144832741e-08, -9.221135144343842e-08, 1.2237450164320736e-08, -1.6378818656903567e-07, -1.9652712524020857e-07, 5.4055067977287644e-08, 2.216202510396665e-08, -5.405655656431906e-08, 8.935550255273463e-08, 1.6976171934857083e-07, 7.222704567766398e-08, 2.0258082145119216e-07, -1.863141818603249e-07, -5.769715816228414e-09, -4.7891742127603614e-08, -1.533665283659499e-08, 1.8528297118791628e-07, 2.1893575308240495e-07, 8.428811071325963e-08, 6.531674756615743e-08, 1.4976500040120265e-07, 3.605131482231619e-08, 6.242351702212532e-08, -1.3433809442631144e-07, -1.6453255113901795e-07, -8.064606049629201e-08], [0.0008551043759900211, -0.0028942685876917882, 0.0009884496504190532, 0.001591937524513758, -0.0010205730481552004, 0.0005172742614347542, 0.00020075120313539575, -0.00016275645348361937, -0.00024709519726675617, 0.00017794204305251565, -0.00018646382716196614, 7.835605029449584e-05, -0.00019715091611409674, -5.581504037514037e-05, -4.095860714765085e-05, -4.8042201404615464e-05, -9.929098757518133e-05, -3.493013076600753e-05, -4.635565181088287e-05, -3.6356897914574165e-05, 0.000106147441176491, -1.9416677168874087e-05, -4.6809200838785556e-05, 3.603109586310381e-05, -2.768383154866221e-05, 4.878896968865817e-05, 1.0582816197589612e-05, 2.8997457645385492e-05, 4.778097397728424e-06, 2.7720735957248914e-06], [1.5943311382216018e-07, -9.616184115657212e-08, -1.6810034253467128e-07, 2.2071134253565055e-07, 8.930771144832741e-08, -9.221135144343842e-08, 1.2237450164320736e-08, -1.6378818656903567e-07, -1.9652712524020857e-07, 5.4055067977287644e-08, 2.216202510396665e-08, -5.405655656431906e-08, 8.935550255273463e-08, 1.6976171934857083e-07, 7.222704567766398e-08, 2.0258082145119216e-07, -1.863141818603249e-07, -5.769715816228414e-09, -4.7891742127603614e-08, -1.533665283659499e-08, 1.8528297118791628e-07, 2.1893575308240495e-07, 8.428811071325963e-08, 6.531674756615743e-08, 1.4976500040120265e-07, 3.605131482231619e-08, 6.242351702212532e-08, -1.3433809442631144e-07, -1.6453255113901795e-07, -8.064606049629201e-08], [-0.0014512898687049332, -0.0026710844389089185, -0.0031476383509047106, -0.003553357018649725, 0.005579687794272756, 0.00135564096094586, -0.002409525204519539, 0.0023038836267915536, -0.00031782755072722155, -0.0005100804213937159, 0.00015279852439490022, -0.0004351484016872589, -0.0024135999561752893, 0.0005112241472728484, 0.00021800021423838467, -8.342608314215252e-05, -0.0005129345321378385, -0.00024047309074031834, 0.0006884838569865477, -0.0001096545443311167, 0.0006442462451922075, -0.0005018641115937233, -0.0005658623666322119, 8.453718145969401e-05, -9.66460412677334e-05, -0.00015007420560705676, 0.00025841752506236727, -5.847038310637715e-05, 0.0006285458176922583, 0.0003302537001479222], [-0.013524307452718003, 0.0012448624123282536, -0.0010001835567869692, 0.0023897122432122763, 0.007185372065037123, -0.00025245051833991183, -0.001399152127755605, -0.0004194999592569619, 0.0007069213619880224, -0.00024763794459567245, -0.0001774406604372101, 0.0002544261750575142, -0.0002815531468468911, -0.0002885451008493241, 6.942377274487545e-06, -0.00016776718711821015, 6.2918125744618e-05, -0.00010860983375731939, 0.00037638753416502656, 6.786126804153847e-05, 0.0002491719004596145, 7.817122835844886e-05, 4.2304934611096394e-05, 0.00026292138661747393, -7.885347537781348e-06, 0.00029835142058509597, -9.633228260376119e-05, -9.958030508142827e-05, 5.259358362393004e-06, -0.00021576420408337023], [-0.01747635413596508, 0.004257523788145655, 0.006632065219896164, -0.004082530707481016, -0.0006798792179925123, -0.0018001893162270539, -0.000603008622420142, -5.540271243747159e-05, 0.0004619552851933492, 0.00012719908983762016, -2.5115552508575196e-05, 8.096238291563238e-05, 1.867205185112761e-05, 0.0001921675302110355, 8.633009754498486e-05, 8.404693055727634e-05, 1.2073909884465238e-06, 0.00029861002911201937, 5.2934650292212086e-05, 0.00012026288448543056, 0.0002672103169443843, 0.00013914599463788822, 7.881259634334386e-05, 0.0001978337709979322, -4.597462121298343e-05, -0.00022542737847931472, -4.660615741668285e-05, -1.4184555947392597e-05, -0.00013968907292624281, 0.00011887861561800908], [-0.00964258370691878, 0.009221099154082549, 5.584182469483536e-05, -0.0013794944809671626, -0.002639814570225949, 0.004191819846208635, -0.0010198169949230734, 0.001102040289941767, -0.0010938275903949026, -0.0010084882374364287, 0.0008033933342560928, -0.0002347141129047216, 0.0002489166742545097, -0.0005307808408422327, -0.0005947134352281825, 0.0002244791136085532, 0.0001519306166930115, 0.0004067447262981529, 0.0001241400234421322, -0.0004064434553067035, -7.368112777142316e-05, -1.630830994529114e-05, -0.00012273704497367996, 4.395422591362034e-05, 0.000390881383540659, 0.00023750717483756633, -0.0001669596563815027, -0.0001751133672998332, 0.0002009201201361935, 0.00013530599200776338], [1.5943311382216018e-07, -9.616184115657212e-08, -1.6810034253467128e-07, 2.2071134253565055e-07, 8.930771144832741e-08, -9.221135144343842e-08, 1.2237450164320736e-08, -1.6378818656903567e-07, -1.9652712524020857e-07, 5.4055067977287644e-08, 2.216202510396665e-08, -5.405655656431906e-08, 8.935550255273463e-08, 1.6976171934857083e-07, 7.222704567766398e-08, 2.0258082145119216e-07, -1.863141818603249e-07, -5.769715816228414e-09, -4.7891742127603614e-08, -1.533665283659499e-08, 1.8528297118791628e-07, 2.1893575308240495e-07, 8.428811071325963e-08, 6.531674756615743e-08, 1.4976500040120265e-07, 3.605131482231619e-08, 6.242351702212532e-08, -1.3433809442631144e-07, -1.6453255113901795e-07, -8.064606049629201e-08], [1.5943311382216018e-07, -9.616184115657212e-08, -1.6810034253467128e-07, 2.2071134253565055e-07, 8.930771144832741e-08, -9.221135144343842e-08, 1.2237450164320736e-08, -1.6378818656903567e-07, -1.9652712524020857e-07, 5.4055067977287644e-08, 2.216202510396665e-08, -5.405655656431906e-08, 8.935550255273463e-08, 1.6976171934857083e-07, 7.222704567766398e-08, 2.0258082145119216e-07, -1.863141818603249e-07, -5.769715816228414e-09, -4.7891742127603614e-08, -1.533665283659499e-08, 1.8528297118791628e-07, 2.1893575308240495e-07, 8.428811071325963e-08, 6.531674756615743e-08, 1.4976500040120265e-07, 3.605131482231619e-08, 6.242351702212532e-08, -1.3433809442631144e-07, -1.6453255113901795e-07, -8.064606049629201e-08], [0.02069319619058038, 0.008671057768057355, 0.0002567342221711791, 1.1156718226757491e-06, -0.0009230949058359428, 0.0010331723290332862, -0.0013934822130928796, -0.0025332110362356356, 0.002719724355360293, -0.0011114643270617151, 0.001625812780710893, 0.0004454369524609618, 5.425813329520005e-06, 0.0002740430583357682, -0.00048291075498189045, 0.000512402525112659, -0.001089252554672843, -0.00015026984311728467, 0.00017642176144902193, -0.0007554459408872215, -7.263499359714116e-05, -0.00031490465961508816, 0.0003476837891470228, -0.0009744574852677348, 0.00021204540858360999, 0.0001198446085718109, -0.00011755130333363574, -0.00025109313744314945, -0.0004468393489818826, -8.369896734625751e-05], [0.019938184029810162, 0.007122496474179636, -0.0009134978676444048, 7.759671824158123e-05, 0.00016683526085209356, 0.0009560377171134533, -0.0002884895424918216, -0.0002317613827018798, 0.0004278719744419638, 0.0002946657291118713, -0.00046813208236990274, -0.0003009241068939498, -0.00017643734139663982, 0.0012215430880048639, -4.3831200223202846e-05, -2.369174587112213e-05, 0.0010585817465437587, -0.00039568925646303707, -0.000461407778083935, 0.0002518967141560451, -5.581008233679896e-05, -0.00024261139304403249, 0.00013314340556580385, -5.520128320139512e-05, -0.0002212323856808183, -0.00032967989729366893, -5.0334449888838575e-05, -0.0004702688035731727, -0.00017076009716700437, 0.0002335191032256796], [1.5943311382216018e-07, -9.616184115657212e-08, -1.6810034253467128e-07, 2.2071134253565055e-07, 8.930771144832741e-08, -9.221135144343842e-08, 1.2237450164320736e-08, -1.6378818656903567e-07, -1.9652712524020857e-07, 5.4055067977287644e-08, 2.216202510396665e-08, -5.405655656431906e-08, 8.935550255273463e-08, 1.6976171934857083e-07, 7.222704567766398e-08, 2.0258082145119216e-07, -1.863141818603249e-07, -5.769715816228414e-09, -4.7891742127603614e-08, -1.533665283659499e-08, 1.8528297118791628e-07, 2.1893575308240495e-07, 8.428811071325963e-08, 6.531674756615743e-08, 1.4976500040120265e-07, 3.605131482231619e-08, 6.242351702212532e-08, -1.3433809442631144e-07, -1.6453255113901795e-07, -8.064606049629201e-08], [1.5943311382216018e-07, -9.616184115657212e-08, -1.6810034253467128e-07, 2.2071134253565055e-07, 8.930771144832741e-08, -9.221135144343842e-08, 1.2237450164320736e-08, -1.6378818656903567e-07, -1.9652712524020857e-07, 5.4055067977287644e-08, 2.216202510396665e-08, -5.405655656431906e-08, 8.935550255273463e-08, 1.6976171934857083e-07, 7.222704567766398e-08, 2.0258082145119216e-07, -1.863141818603249e-07, -5.769715816228414e-09, -4.7891742127603614e-08, -1.533665283659499e-08, 1.8528297118791628e-07, 2.1893575308240495e-07, 8.428811071325963e-08, 6.531674756615743e-08, 1.4976500040120265e-07, 3.605131482231619e-08, 6.242351702212532e-08, -1.3433809442631144e-07, -1.6453255113901795e-07, -8.064606049629201e-08], [1.5943311382216018e-07, -9.616184115657212e-08, -1.6810034253467128e-07, 2.2071134253565055e-07, 8.930771144832741e-08, -9.221135144343842e-08, 1.2237450164320736e-08, -1.6378818656903567e-07, -1.9652712524020857e-07, 5.4055067977287644e-08, 2.216202510396665e-08, -5.405655656431906e-08, 8.935550255273463e-08, 1.6976171934857083e-07, 7.222704567766398e-08, 2.0258082145119216e-07, -1.863141818603249e-07, -5.769715816228414e-09, -4.7891742127603614e-08, -1.533665283659499e-08, 1.8528297118791628e-07, 2.1893575308240495e-07, 8.428811071325963e-08, 6.531674756615743e-08, 1.4976500040120265e-07, 3.605131482231619e-08, 6.242351702212532e-08, -1.3433809442631144e-07, -1.6453255113901795e-07, -8.064606049629201e-08], [1.5943311382216018e-07, -9.616184115657212e-08, -1.6810034253467128e-07, 2.2071134253565055e-07, 8.930771144832741e-08, -9.221135144343842e-08, 1.2237450164320736e-08, -1.6378818656903567e-07, -1.9652712524020857e-07, 5.4055067977287644e-08, 2.216202510396665e-08, -5.405655656431906e-08, 8.935550255273463e-08, 1.6976171934857083e-07, 7.222704567766398e-08, 2.0258082145119216e-07, -1.863141818603249e-07, -5.769715816228414e-09, -4.7891742127603614e-08, -1.533665283659499e-08, 1.8528297118791628e-07, 2.1893575308240495e-07, 8.428811071325963e-08, 6.531674756615743e-08, 1.4976500040120265e-07, 3.605131482231619e-08, 6.242351702212532e-08, -1.3433809442631144e-07, -1.6453255113901795e-07, -8.064606049629201e-08], [1.5943311382216018e-07, -9.616184115657212e-08, -1.6810034253467128e-07, 2.2071134253565055e-07, 8.930771144832741e-08, -9.221135144343842e-08, 1.2237450164320736e-08, -1.6378818656903567e-07, -1.9652712524020857e-07, 5.4055067977287644e-08, 2.216202510396665e-08, -5.405655656431906e-08, 8.935550255273463e-08, 1.6976171934857083e-07, 7.222704567766398e-08, 2.0258082145119216e-07, -1.863141818603249e-07, -5.769715816228414e-09, -4.7891742127603614e-08, -1.533665283659499e-08, 1.8528297118791628e-07, 2.1893575308240495e-07, 8.428811071325963e-08, 6.531674756615743e-08, 1.4976500040120265e-07, 3.605131482231619e-08, 6.242351702212532e-08, -1.3433809442631144e-07, -1.6453255113901795e-07, -8.064606049629201e-08], [0.022772253906737084, 0.0009661188412553323, 0.0020267623826557804, -0.0003496951522883419, 0.0017315500227444566, -0.0003122837705959137, 0.0007350579229493441, -0.000528558304008514, -0.0005751215701768553, -0.0002924177515938411, 0.00047223848710557006, -2.8276399874127478e-05, 0.00030728972540351127, -1.8852772303268314e-06, 0.00019690716342548372, -0.00021882232453391477, 0.00015458244015170502, 4.185615980286429e-05, 6.45399422411784e-05, 0.0001084491501382439, -2.4945013573168264e-05, -2.596505351177053e-05, 0.00017015391766093567, -3.331796577409844e-05, -6.662042031020764e-05, -0.00017917758762198594, -8.612047337892153e-05, -9.891295049922237e-05, 0.00010914628099412936, 6.0653275900870676e-05], [1.5943311382216018e-07, -9.616184115657212e-08, -1.6810034253467128e-07, 2.2071134253565055e-07, 8.930771144832741e-08, -9.221135144343842e-08, 1.2237450164320736e-08, -1.6378818656903567e-07, -1.9652712524020857e-07, 5.4055067977287644e-08, 2.216202510396665e-08, -5.405655656431906e-08, 8.935550255273463e-08, 1.6976171934857083e-07, 7.222704567766398e-08, 2.0258082145119216e-07, -1.863141818603249e-07, -5.769715816228414e-09, -4.7891742127603614e-08, -1.533665283659499e-08, 1.8528297118791628e-07, 2.1893575308240495e-07, 8.428811071325963e-08, 6.531674756615743e-08, 1.4976500040120265e-07, 3.605131482231619e-08, 6.242351702212532e-08, -1.3433809442631144e-07, -1.6453255113901795e-07, -8.064606049629201e-08], [1.5943311382216018e-07, -9.616184115657212e-08, -1.6810034253467128e-07, 2.2071134253565055e-07, 8.930771144832741e-08, -9.221135144343842e-08, 1.2237450164320736e-08, -1.6378818656903567e-07, -1.9652712524020857e-07, 5.4055067977287644e-08, 2.216202510396665e-08, -5.405655656431906e-08, 8.935550255273463e-08, 1.6976171934857083e-07, 7.222704567766398e-08, 2.0258082145119216e-07, -1.863141818603249e-07, -5.769715816228414e-09, -4.7891742127603614e-08, -1.533665283659499e-08, 1.8528297118791628e-07, 2.1893575308240495e-07, 8.428811071325963e-08, 6.531674756615743e-08, 1.4976500040120265e-07, 3.605131482231619e-08, 6.242351702212532e-08, -1.3433809442631144e-07, -1.6453255113901795e-07, -8.064606049629201e-08], [-0.010161040161585823, 0.010317652024660229, -0.0027565382884173107, -0.0014582988754566738, -0.0016988136437363257, 9.2424425288432e-05, -0.0017707418633835321, -0.0002606143678167215, -0.0023063309842387683, -0.0008068271031628272, 0.0005417724776718841, -0.00015635473885522986, 0.00036991365626605125, -0.0003267414000459044, 0.00026669265065129945, -3.9744737691047134e-05, -0.00011889832124911825, -0.00012427748579706317, -0.00020438397192300913, -0.0004097719755512706, -0.00011925994294104884, 0.000370966903546084, -0.00012355283251179293, -0.00019612202953755598, -0.00034013104784702124, 0.00019954738021759523, -5.57701004627812e-05, -4.6861208183856605e-05, 0.00019482051047920677, -6.650589445153343e-05], [1.5943311382216018e-07, -9.616184115657212e-08, -1.6810034253467128e-07, 2.2071134253565055e-07, 8.930771144832741e-08, -9.221135144343842e-08, 1.2237450164320736e-08, -1.6378818656903567e-07, -1.9652712524020857e-07, 5.4055067977287644e-08, 2.216202510396665e-08, -5.405655656431906e-08, 8.935550255273463e-08, 1.6976171934857083e-07, 7.222704567766398e-08, 2.0258082145119216e-07, -1.863141818603249e-07, -5.769715816228414e-09, -4.7891742127603614e-08, -1.533665283659499e-08, 1.8528297118791628e-07, 2.1893575308240495e-07, 8.428811071325963e-08, 6.531674756615743e-08, 1.4976500040120265e-07, 3.605131482231619e-08, 6.242351702212532e-08, -1.3433809442631144e-07, -1.6453255113901795e-07, -8.064606049629201e-08], [1.5943311382216018e-07, -9.616184115657212e-08, -1.6810034253467128e-07, 2.2071134253565055e-07, 8.930771144832741e-08, -9.221135144343842e-08, 1.2237450164320736e-08, -1.6378818656903567e-07, -1.9652712524020857e-07, 5.4055067977287644e-08, 2.216202510396665e-08, -5.405655656431906e-08, 8.935550255273463e-08, 1.6976171934857083e-07, 7.222704567766398e-08, 2.0258082145119216e-07, -1.863141818603249e-07, -5.769715816228414e-09, -4.7891742127603614e-08, -1.533665283659499e-08, 1.8528297118791628e-07, 2.1893575308240495e-07, 8.428811071325963e-08, 6.531674756615743e-08, 1.4976500040120265e-07, 3.605131482231619e-08, 6.242351702212532e-08, -1.3433809442631144e-07, -1.6453255113901795e-07, -8.064606049629201e-08], [1.5943311382216018e-07, -9.616184115657212e-08, -1.6810034253467128e-07, 2.2071134253565055e-07, 8.930771144832741e-08, -9.221135144343842e-08, 1.2237450164320736e-08, -1.6378818656903567e-07, -1.9652712524020857e-07, 5.4055067977287644e-08, 2.216202510396665e-08, -5.405655656431906e-08, 8.935550255273463e-08, 1.6976171934857083e-07, 7.222704567766398e-08, 2.0258082145119216e-07, -1.863141818603249e-07, -5.769715816228414e-09, -4.7891742127603614e-08, -1.533665283659499e-08, 1.8528297118791628e-07, 2.1893575308240495e-07, 8.428811071325963e-08, 6.531674756615743e-08, 1.4976500040120265e-07, 3.605131482231619e-08, 6.242351702212532e-08, -1.3433809442631144e-07, -1.6453255113901795e-07, -8.064606049629201e-08], [1.5943311382216018e-07, -9.616184115657212e-08, -1.6810034253467128e-07, 2.2071134253565055e-07, 8.930771144832741e-08, -9.221135144343842e-08, 1.2237450164320736e-08, -1.6378818656903567e-07, -1.9652712524020857e-07, 5.4055067977287644e-08, 2.216202510396665e-08, -5.405655656431906e-08, 8.935550255273463e-08, 1.6976171934857083e-07, 7.222704567766398e-08, 2.0258082145119216e-07, -1.863141818603249e-07, -5.769715816228414e-09, -4.7891742127603614e-08, -1.533665283659499e-08, 1.8528297118791628e-07, 2.1893575308240495e-07, 8.428811071325963e-08, 6.531674756615743e-08, 1.4976500040120265e-07, 3.605131482231619e-08, 6.242351702212532e-08, -1.3433809442631144e-07, -1.6453255113901795e-07, -8.064606049629201e-08], [1.5943311382216018e-07, -9.616184115657212e-08, -1.6810034253467128e-07, 2.2071134253565055e-07, 8.930771144832741e-08, -9.221135144343842e-08, 1.2237450164320736e-08, -1.6378818656903567e-07, -1.9652712524020857e-07, 5.4055067977287644e-08, 2.216202510396665e-08, -5.405655656431906e-08, 8.935550255273463e-08, 1.6976171934857083e-07, 7.222704567766398e-08, 2.0258082145119216e-07, -1.863141818603249e-07, -5.769715816228414e-09, -4.7891742127603614e-08, -1.533665283659499e-08, 1.8528297118791628e-07, 2.1893575308240495e-07, 8.428811071325963e-08, 6.531674756615743e-08, 1.4976500040120265e-07, 3.605131482231619e-08, 6.242351702212532e-08, -1.3433809442631144e-07, -1.6453255113901795e-07, -8.064606049629201e-08], [0.01015608349253116, 0.005325975998519634, -0.0035773892002908007, -0.001735633884502568, 0.00043207722686032437, 0.0016516190480063509, 0.000566223236074032, -0.00048081996374454874, 0.0001219051463536469, 3.911292053125782e-05, -8.333073848766801e-05, -4.0800359221704665e-05, -0.00020565180515634326, 5.114837740317725e-05, 0.0002950186179931557, -0.00042636229601388117, 0.0002731376186344556, 4.514155694559901e-06, 0.00022213170985032935, 0.0005574908764306265, 9.653956671003771e-05, -1.542171823456597e-05, -0.0003575507273638905, 0.00016881987619682024, -0.0005417697644989058, -0.0002514167163334155, 0.00010435496718591938, -0.0002807815169378226, 1.3002943232935876e-05, 0.00016949780670263837], [-0.012088299345845635, 0.0014211348551244854, -0.006829132401035914, -0.0030009515765576007, 0.0003404421837509023, 0.0033220686756106686, -0.0008244236877861078, 0.0006750408350594447, -0.0016130167850701071, -0.0007749240747683984, -0.00015338603186917124, -4.069376832992506e-05, -0.0001651105879526129, 0.0005269629656833584, 0.0005152862830383679, -0.00032633658700528156, -2.463364796428494e-05, 0.00013528715501305108, 3.2381449022749166e-05, -8.076579727635159e-05, -9.328084308650446e-05, 1.1334246840165478e-05, 0.00016171166430281673, 0.00011205484991354622, 3.234973370816824e-05, 8.990728040580275e-05, -0.00020316297616760433, 0.00013749775001514278, -0.00017190010992007101, -0.00019617237071784823], [0.007934949056877891, 0.004999361406848484, -0.002565354740278741, 0.0018521553546912673, -0.002686455033458358, -0.001877607708606145, -0.001408852643979793, -0.0023383307036799876, 0.0037150305455396467, -0.0004398797394061984, 0.0014834211206961791, -0.0015102346037283343, -0.00011126031983060146, -0.0003954432029223048, 5.480891698661423e-05, 0.0009551163548539775, -0.00036188669890856124, -0.0009062887559603662, 0.00021653870936555122, -0.0005836763092987765, -8.103469537751413e-05, -0.0007533512002105219, -0.0004897938152801199, -0.00020228958726298732, 0.00045853853237502024, -0.00034452398505228855, -0.0006296525131364045, 7.414804853959957e-05, -0.0006298698179446973, -0.0008593292395388613], [1.5943311382216018e-07, -9.616184115657212e-08, -1.6810034253467128e-07, 2.2071134253565055e-07, 8.930771144832741e-08, -9.221135144343842e-08, 1.2237450164320736e-08, -1.6378818656903567e-07, -1.9652712524020857e-07, 5.4055067977287644e-08, 2.216202510396665e-08, -5.405655656431906e-08, 8.935550255273463e-08, 1.6976171934857083e-07, 7.222704567766398e-08, 2.0258082145119216e-07, -1.863141818603249e-07, -5.769715816228414e-09, -4.7891742127603614e-08, -1.533665283659499e-08, 1.8528297118791628e-07, 2.1893575308240495e-07, 8.428811071325963e-08, 6.531674756615743e-08, 1.4976500040120265e-07, 3.605131482231619e-08, 6.242351702212532e-08, -1.3433809442631144e-07, -1.6453255113901795e-07, -8.064606049629201e-08], [1.5943311382216018e-07, -9.616184115657212e-08, -1.6810034253467128e-07, 2.2071134253565055e-07, 8.930771144832741e-08, -9.221135144343842e-08, 1.2237450164320736e-08, -1.6378818656903567e-07, -1.9652712524020857e-07, 5.4055067977287644e-08, 2.216202510396665e-08, -5.405655656431906e-08, 8.935550255273463e-08, 1.6976171934857083e-07, 7.222704567766398e-08, 2.0258082145119216e-07, -1.863141818603249e-07, -5.769715816228414e-09, -4.7891742127603614e-08, -1.533665283659499e-08, 1.8528297118791628e-07, 2.1893575308240495e-07, 8.428811071325963e-08, 6.531674756615743e-08, 1.4976500040120265e-07, 3.605131482231619e-08, 6.242351702212532e-08, -1.3433809442631144e-07, -1.6453255113901795e-07, -8.064606049629201e-08], [1.5943311382216018e-07, -9.616184115657212e-08, -1.6810034253467128e-07, 2.2071134253565055e-07, 8.930771144832741e-08, -9.221135144343842e-08, 1.2237450164320736e-08, -1.6378818656903567e-07, -1.9652712524020857e-07, 5.4055067977287644e-08, 2.216202510396665e-08, -5.405655656431906e-08, 8.935550255273463e-08, 1.6976171934857083e-07, 7.222704567766398e-08, 2.0258082145119216e-07, -1.863141818603249e-07, -5.769715816228414e-09, -4.7891742127603614e-08, -1.533665283659499e-08, 1.8528297118791628e-07, 2.1893575308240495e-07, 8.428811071325963e-08, 6.531674756615743e-08, 1.4976500040120265e-07, 3.605131482231619e-08, 6.242351702212532e-08, -1.3433809442631144e-07, -1.6453255113901795e-07, -8.064606049629201e-08], [0.018733740789070797, -0.004000676151600789, -0.002796438420389864, -0.0020922103025511063, -0.00100103246876192, 0.0007698943305331908, -0.0013329696852649843, -0.00039770496267754394, 0.0006085699257594046, 0.0006909279717221138, -0.0005497881308192758, 5.450433979024706e-06, -0.0003852565891929862, -0.00018593575422683163, 0.00023269020248075316, 0.0002603419061873754, 0.0001756503671485732, 5.343243072168245e-05, 8.250494142429482e-05, -5.6808665638740784e-05, 0.0002745464995299804, 8.33419645806132e-05, -2.3038553838887856e-05, 5.710713975644822e-05, -5.7489997150319805e-05, -1.985482590128377e-05, -0.0001246116279282832, 7.787972153422453e-06, -7.745378542043657e-05, 8.805512486446616e-05], [1.5943311382216018e-07, -9.616184115657212e-08, -1.6810034253467128e-07, 2.2071134253565055e-07, 8.930771144832741e-08, -9.221135144343842e-08, 1.2237450164320736e-08, -1.6378818656903567e-07, -1.9652712524020857e-07, 5.4055067977287644e-08, 2.216202510396665e-08, -5.405655656431906e-08, 8.935550255273463e-08, 1.6976171934857083e-07, 7.222704567766398e-08, 2.0258082145119216e-07, -1.863141818603249e-07, -5.769715816228414e-09, -4.7891742127603614e-08, -1.533665283659499e-08, 1.8528297118791628e-07, 2.1893575308240495e-07, 8.428811071325963e-08, 6.531674756615743e-08, 1.4976500040120265e-07, 3.605131482231619e-08, 6.242351702212532e-08, -1.3433809442631144e-07, -1.6453255113901795e-07, -8.064606049629201e-08], [1.5943311382216018e-07, -9.616184115657212e-08, -1.6810034253467128e-07, 2.2071134253565055e-07, 8.930771144832741e-08, -9.221135144343842e-08, 1.2237450164320736e-08, -1.6378818656903567e-07, -1.9652712524020857e-07, 5.4055067977287644e-08, 2.216202510396665e-08, -5.405655656431906e-08, 8.935550255273463e-08, 1.6976171934857083e-07, 7.222704567766398e-08, 2.0258082145119216e-07, -1.863141818603249e-07, -5.769715816228414e-09, -4.7891742127603614e-08, -1.533665283659499e-08, 1.8528297118791628e-07, 2.1893575308240495e-07, 8.428811071325963e-08, 6.531674756615743e-08, 1.4976500040120265e-07, 3.605131482231619e-08, 6.242351702212532e-08, -1.3433809442631144e-07, -1.6453255113901795e-07, -8.064606049629201e-08], [0.02527092663908485, 0.008980509600925758, -0.0049983436314064555, -9.881404301038743e-05, -0.0010225714668875398, 1.9919705250639264e-05, -0.002232210120949081, -0.0007682242498191841, -0.0006807110691775826, 0.0005642353344863887, -3.138501058046495e-05, 0.0008834554421799203, -0.0005084139537508241, 0.00036300460278500024, -3.4660510996093695e-05, -0.0004006937158802676, 0.0003591058979972577, 0.0004402203670570555, -0.0004501279792643944, 0.0005160976067975573, 0.0002681586426995618, 0.00010006902261443969, 9.106788904851098e-07, -0.00037423211400411057, -0.00012288932202996427, -0.0002834108958874316, 0.00023674506321193816, -0.00025422057785668816, -7.740748117238887e-05, 0.0001551922198011021], [1.5943311382216018e-07, -9.616184115657212e-08, -1.6810034253467128e-07, 2.2071134253565055e-07, 8.930771144832741e-08, -9.221135144343842e-08, 1.2237450164320736e-08, -1.6378818656903567e-07, -1.9652712524020857e-07, 5.4055067977287644e-08, 2.216202510396665e-08, -5.405655656431906e-08, 8.935550255273463e-08, 1.6976171934857083e-07, 7.222704567766398e-08, 2.0258082145119216e-07, -1.863141818603249e-07, -5.769715816228414e-09, -4.7891742127603614e-08, -1.533665283659499e-08, 1.8528297118791628e-07, 2.1893575308240495e-07, 8.428811071325963e-08, 6.531674756615743e-08, 1.4976500040120265e-07, 3.605131482231619e-08, 6.242351702212532e-08, -1.3433809442631144e-07, -1.6453255113901795e-07, -8.064606049629201e-08], [0.0043419130864322504, -0.0009511761273939054, -0.003708960095449895, -0.00014637601037112104, -0.002244856866940307, -0.005167611876227935, 0.0021276409128472757, 0.0009528047438339113, 0.0011508545815869296, -0.002001321737995972, 0.00032003341364037223, -0.0004143575965856867, -0.0010080455329133265, 0.0011789465035419717, -0.00013526514795979863, -0.0004335773297308541, -7.59846627689516e-05, 0.0008332661650658602, -0.00035397214324560676, 0.0001787963208886465, 0.0006111866525176702, -0.0009926190799645653, -0.00032598869632429514, 0.0006312435623672066, 0.0004064267801526868, 0.00018069653332742993, -0.0002832980589202458, 6.907502731981964e-05, 6.891426417253442e-05, -0.0005339030153686475], [1.5943311382216018e-07, -9.616184115657212e-08, -1.6810034253467128e-07, 2.2071134253565055e-07, 8.930771144832741e-08, -9.221135144343842e-08, 1.2237450164320736e-08, -1.6378818656903567e-07, -1.9652712524020857e-07, 5.4055067977287644e-08, 2.216202510396665e-08, -5.405655656431906e-08, 8.935550255273463e-08, 1.6976171934857083e-07, 7.222704567766398e-08, 2.0258082145119216e-07, -1.863141818603249e-07, -5.769715816228414e-09, -4.7891742127603614e-08, -1.533665283659499e-08, 1.8528297118791628e-07, 2.1893575308240495e-07, 8.428811071325963e-08, 6.531674756615743e-08, 1.4976500040120265e-07, 3.605131482231619e-08, 6.242351702212532e-08, -1.3433809442631144e-07, -1.6453255113901795e-07, -8.064606049629201e-08], [-0.0009845621667009738, 0.020016371528254345, 0.009103318121460518, 0.0010692950368327494, -0.002719126911112359, -0.0004187044823249615, -0.0029629941215434147, 0.000973521231795301, 0.002460768297988221, 0.00013148748850883886, -0.0005250728728134546, -0.0033997277223322703, -0.00018754514466781005, -0.0006729756458867214, -0.00016775545648063417, 0.0002798288303351404, -0.0006537079782958465, -9.272636336672872e-05, 0.0005355647288469796, -9.563271688524154e-05, -0.0003470773425472294, -0.0003619528987975763, -0.0001579985018699284, -0.0008033132593061753, -4.9458811070713805e-05, -1.8539890960576902e-05, -0.00037829403956275904, 6.376632441401728e-05, -0.0007560807751609657, -4.8395780301084705e-05], [1.5943311382216018e-07, -9.616184115657212e-08, -1.6810034253467128e-07, 2.2071134253565055e-07, 8.930771144832741e-08, -9.221135144343842e-08, 1.2237450164320736e-08, -1.6378818656903567e-07, -1.9652712524020857e-07, 5.4055067977287644e-08, 2.216202510396665e-08, -5.405655656431906e-08, 8.935550255273463e-08, 1.6976171934857083e-07, 7.222704567766398e-08, 2.0258082145119216e-07, -1.863141818603249e-07, -5.769715816228414e-09, -4.7891742127603614e-08, -1.533665283659499e-08, 1.8528297118791628e-07, 2.1893575308240495e-07, 8.428811071325963e-08, 6.531674756615743e-08, 1.4976500040120265e-07, 3.605131482231619e-08, 6.242351702212532e-08, -1.3433809442631144e-07, -1.6453255113901795e-07, -8.064606049629201e-08], [1.5943311382216018e-07, -9.616184115657212e-08, -1.6810034253467128e-07, 2.2071134253565055e-07, 8.930771144832741e-08, -9.221135144343842e-08, 1.2237450164320736e-08, -1.6378818656903567e-07, -1.9652712524020857e-07, 5.4055067977287644e-08, 2.216202510396665e-08, -5.405655656431906e-08, 8.935550255273463e-08, 1.6976171934857083e-07, 7.222704567766398e-08, 2.0258082145119216e-07, -1.863141818603249e-07, -5.769715816228414e-09, -4.7891742127603614e-08, -1.533665283659499e-08, 1.8528297118791628e-07, 2.1893575308240495e-07, 8.428811071325963e-08, 6.531674756615743e-08, 1.4976500040120265e-07, 3.605131482231619e-08, 6.242351702212532e-08, -1.3433809442631144e-07, -1.6453255113901795e-07, -8.064606049629201e-08], [1.5943311382216018e-07, -9.616184115657212e-08, -1.6810034253467128e-07, 2.2071134253565055e-07, 8.930771144832741e-08, -9.221135144343842e-08, 1.2237450164320736e-08, -1.6378818656903567e-07, -1.9652712524020857e-07, 5.4055067977287644e-08, 2.216202510396665e-08, -5.405655656431906e-08, 8.935550255273463e-08, 1.6976171934857083e-07, 7.222704567766398e-08, 2.0258082145119216e-07, -1.863141818603249e-07, -5.769715816228414e-09, -4.7891742127603614e-08, -1.533665283659499e-08, 1.8528297118791628e-07, 2.1893575308240495e-07, 8.428811071325963e-08, 6.531674756615743e-08, 1.4976500040120265e-07, 3.605131482231619e-08, 6.242351702212532e-08, -1.3433809442631144e-07, -1.6453255113901795e-07, -8.064606049629201e-08], [1.5943311382216018e-07, -9.616184115657212e-08, -1.6810034253467128e-07, 2.2071134253565055e-07, 8.930771144832741e-08, -9.221135144343842e-08, 1.2237450164320736e-08, -1.6378818656903567e-07, -1.9652712524020857e-07, 5.4055067977287644e-08, 2.216202510396665e-08, -5.405655656431906e-08, 8.935550255273463e-08, 1.6976171934857083e-07, 7.222704567766398e-08, 2.0258082145119216e-07, -1.863141818603249e-07, -5.769715816228414e-09, -4.7891742127603614e-08, -1.533665283659499e-08, 1.8528297118791628e-07, 2.1893575308240495e-07, 8.428811071325963e-08, 6.531674756615743e-08, 1.4976500040120265e-07, 3.605131482231619e-08, 6.242351702212532e-08, -1.3433809442631144e-07, -1.6453255113901795e-07, -8.064606049629201e-08], [-0.0001987243657400125, 0.016268919892390567, -0.0015521842082817574, 0.0032117356042554337, 0.0007835453020940582, -0.001673076487945188, -0.00019381418423720728, 0.00022422650075499417, 0.0003443389479093086, 0.0006772078839940698, -0.00036660361789379, -0.0012234811448388605, -2.8535262103944407e-05, 0.00011415687176213126, -8.906024758046658e-05, -0.0002544249311102367, -3.4950003586953e-05, 0.00018672407899240315, 1.7684199680600602e-05, -1.4947407577487571e-05, -0.00013375946624225268, -8.767460055438521e-05, -0.00042015567840661053, -0.00026940464110177453, -2.635972259226847e-05, 0.00020948675010659326, 0.0001405975085572882, 0.00030063268511196304, 0.0001899564763807517, -8.740195163954592e-05], [1.5943311382216018e-07, -9.616184115657212e-08, -1.6810034253467128e-07, 2.2071134253565055e-07, 8.930771144832741e-08, -9.221135144343842e-08, 1.2237450164320736e-08, -1.6378818656903567e-07, -1.9652712524020857e-07, 5.4055067977287644e-08, 2.216202510396665e-08, -5.405655656431906e-08, 8.935550255273463e-08, 1.6976171934857083e-07, 7.222704567766398e-08, 2.0258082145119216e-07, -1.863141818603249e-07, -5.769715816228414e-09, -4.7891742127603614e-08, -1.533665283659499e-08, 1.8528297118791628e-07, 2.1893575308240495e-07, 8.428811071325963e-08, 6.531674756615743e-08, 1.4976500040120265e-07, 3.605131482231619e-08, 6.242351702212532e-08, -1.3433809442631144e-07, -1.6453255113901795e-07, -8.064606049629201e-08], [0.031110862440013203, -0.0047263514865998855, -0.0012110190981850367, -0.003067480077664036, 0.0011599126026031567, -0.0019276362797230235, -0.0010025096889716251, 0.0015082859830667086, -7.67067077997238e-05, -0.0004340722959227702, -0.00025867899965004485, -0.00036286898067527007, 0.0005712688849494272, -0.0001396666481452954, -0.00039546397792065556, 0.0003395409878284814, -1.9661607588302137e-05, 8.470300744247343e-05, 7.759347681328565e-05, 8.907035410841176e-06, -0.0003234182158777637, 0.00016854433097461083, -3.58131382646132e-05, 2.6723545314128917e-06, 0.0002157529243508599, 6.413545784861306e-05, 8.69440205160809e-05, 4.37286269218612e-05, -9.591301802468555e-05, -8.940422701776995e-05], [1.5943311382216018e-07, -9.616184115657212e-08, -1.6810034253467128e-07, 2.2071134253565055e-07, 8.930771144832741e-08, -9.221135144343842e-08, 1.2237450164320736e-08, -1.6378818656903567e-07, -1.9652712524020857e-07, 5.4055067977287644e-08, 2.216202510396665e-08, -5.405655656431906e-08, 8.935550255273463e-08, 1.6976171934857083e-07, 7.222704567766398e-08, 2.0258082145119216e-07, -1.863141818603249e-07, -5.769715816228414e-09, -4.7891742127603614e-08, -1.533665283659499e-08, 1.8528297118791628e-07, 2.1893575308240495e-07, 8.428811071325963e-08, 6.531674756615743e-08, 1.4976500040120265e-07, 3.605131482231619e-08, 6.242351702212532e-08, -1.3433809442631144e-07, -1.6453255113901795e-07, -8.064606049629201e-08], [1.5943311382216018e-07, -9.616184115657212e-08, -1.6810034253467128e-07, 2.2071134253565055e-07, 8.930771144832741e-08, -9.221135144343842e-08, 1.2237450164320736e-08, -1.6378818656903567e-07, -1.9652712524020857e-07, 5.4055067977287644e-08, 2.216202510396665e-08, -5.405655656431906e-08, 8.935550255273463e-08, 1.6976171934857083e-07, 7.222704567766398e-08, 2.0258082145119216e-07, -1.863141818603249e-07, -5.769715816228414e-09, -4.7891742127603614e-08, -1.533665283659499e-08, 1.8528297118791628e-07, 2.1893575308240495e-07, 8.428811071325963e-08, 6.531674756615743e-08, 1.4976500040120265e-07, 3.605131482231619e-08, 6.242351702212532e-08, -1.3433809442631144e-07, -1.6453255113901795e-07, -8.064606049629201e-08], [-0.0005326073390254656, 0.00451608139214952, -0.002135284664994831, -0.0016399017701054076, -0.0013588216376327672, 0.003053934812204646, -0.00014946476608548482, -0.00036768601527276427, 9.95514687949108e-06, 0.0001120871177139973, 0.000310938908259434, 0.00019351419838379614, -0.00041387764152844874, 0.0006350928887342406, 8.855470140169122e-05, -0.0007929982500639383, -3.805156502507501e-05, 0.0001892834139955861, 9.474768758323433e-05, 0.00010133531464434426, -0.0006264654695462406, 0.0003006464684842682, 5.950666502525368e-06, 0.00043972270016544665, -0.00021403332403332765, 0.0002721103410689384, 0.0002960128782363045, -0.00014365434771794738, -0.00011891078582311301, -9.28052370345251e-05], [0.0024512494420446196, 0.000619344785219863, -0.0010645224443060868, -0.0028938810192977553, 0.00012226421466503642, 0.004532948704530274, 3.6284243982916844e-05, 0.0003655161412160522, 0.0009336871902825045, -0.00015313742980299012, 0.00015585762237211537, 7.406736721603302e-05, -0.000629020348656169, 5.020226279695592e-05, 0.00035475513537713176, 5.418446870330113e-05, -0.00017472664487126207, -0.0002859193048615089, 0.0002679572239801583, 5.9372600085525054e-05, -0.00012452144918556125, -0.00030570304445811985, -0.00031095714420064594, 0.0002788019759663665, 3.5249145679195094e-05, -3.716155679085347e-05, 0.00022334550145261553, -5.1122020036445494e-05, 0.00013571423375246763, 9.489094002583782e-05], [0.0044327392531922395, 0.008142770527440274, -0.0021040724055428777, -0.0016634067570542473, 0.000523218851094306, 0.0027146354028706496, -0.0008743602026058317, 0.0008805578935453161, -0.0007867529301461755, -0.0006010298224344872, 0.0005036621037999908, -0.0007046568367632954, -0.0014607973999157435, 0.0005522872707815597, 0.0003953245955984178, 2.7797122512728246e-06, 0.00018063974019583357, -0.0010422443406122035, 9.473990087858683e-06, 0.0007570302838917953, 0.00037511092033992797, -0.0008578518817999762, 7.290035684426198e-05, 0.00015395681466633424, 0.00015117072663353807, -2.840348116734229e-05, 0.0006576129161281185, -0.0001673087125621625, 0.00023018130207641213, -1.8699056853133507e-05], [1.5943311382216018e-07, -9.616184115657212e-08, -1.6810034253467128e-07, 2.2071134253565055e-07, 8.930771144832741e-08, -9.221135144343842e-08, 1.2237450164320736e-08, -1.6378818656903567e-07, -1.9652712524020857e-07, 5.4055067977287644e-08, 2.216202510396665e-08, -5.405655656431906e-08, 8.935550255273463e-08, 1.6976171934857083e-07, 7.222704567766398e-08, 2.0258082145119216e-07, -1.863141818603249e-07, -5.769715816228414e-09, -4.7891742127603614e-08, -1.533665283659499e-08, 1.8528297118791628e-07, 2.1893575308240495e-07, 8.428811071325963e-08, 6.531674756615743e-08, 1.4976500040120265e-07, 3.605131482231619e-08, 6.242351702212532e-08, -1.3433809442631144e-07, -1.6453255113901795e-07, -8.064606049629201e-08], [1.5943311382216018e-07, -9.616184115657212e-08, -1.6810034253467128e-07, 2.2071134253565055e-07, 8.930771144832741e-08, -9.221135144343842e-08, 1.2237450164320736e-08, -1.6378818656903567e-07, -1.9652712524020857e-07, 5.4055067977287644e-08, 2.216202510396665e-08, -5.405655656431906e-08, 8.935550255273463e-08, 1.6976171934857083e-07, 7.222704567766398e-08, 2.0258082145119216e-07, -1.863141818603249e-07, -5.769715816228414e-09, -4.7891742127603614e-08, -1.533665283659499e-08, 1.8528297118791628e-07, 2.1893575308240495e-07, 8.428811071325963e-08, 6.531674756615743e-08, 1.4976500040120265e-07, 3.605131482231619e-08, 6.242351702212532e-08, -1.3433809442631144e-07, -1.6453255113901795e-07, -8.064606049629201e-08], [0.008361203748111922, 0.0051296796624998465, -0.005521985658667565, 0.0026592048899008918, -0.00306645918476883, -0.0026288786087074, 0.0003685551157187614, -0.0011979696735945897, 0.0020480919411557806, 0.00015708779147095974, 0.0006155807950214994, -0.0007143978317961139, -0.000223619060302825, 0.00012670128054032654, 0.0001698339907493828, 0.00020727431305870488, -0.00021086720627132587, -2.0512815966647683e-06, -0.00012478558194124317, 0.0001385682566884689, 0.00021094608818709873, -0.0002077371174363922, -6.496771862063982e-05, 0.00017010024943140168, 0.00031353414374930204, -0.00020136506911993786, -0.00019766807572707147, 2.0240687290395067e-05, -4.004873224520929e-05, -0.00016637262963279333], [1.5943311382216018e-07, -9.616184115657212e-08, -1.6810034253467128e-07, 2.2071134253565055e-07, 8.930771144832741e-08, -9.221135144343842e-08, 1.2237450164320736e-08, -1.6378818656903567e-07, -1.9652712524020857e-07, 5.4055067977287644e-08, 2.216202510396665e-08, -5.405655656431906e-08, 8.935550255273463e-08, 1.6976171934857083e-07, 7.222704567766398e-08, 2.0258082145119216e-07, -1.863141818603249e-07, -5.769715816228414e-09, -4.7891742127603614e-08, -1.533665283659499e-08, 1.8528297118791628e-07, 2.1893575308240495e-07, 8.428811071325963e-08, 6.531674756615743e-08, 1.4976500040120265e-07, 3.605131482231619e-08, 6.242351702212532e-08, -1.3433809442631144e-07, -1.6453255113901795e-07, -8.064606049629201e-08], [-0.009982997588573902, 0.017953126662212816, 0.006874365282775075, -0.0037284756561293524, -0.0005668286578384739, -0.00174099417079054, -0.0010462302204852782, -0.0002304465933418397, 0.00021429525476134983, -0.0005001335238685218, -0.0009137970879654919, -0.0015156248829921637, -0.0004845386512643074, -0.0005342339810307527, -7.682266320715895e-05, -4.7264346977503526e-05, -0.0002880848507488047, 1.7796044592166743e-06, -0.0003291975520824417, -1.097492566519773e-05, 0.0001795026994959081, 2.1875150602468708e-05, 0.00016588835876918132, 3.951567982763956e-05, -0.0003151235387431239, 0.0003092124602713642, 0.0002269025168423194, 0.00040455317060625605, 3.4164872507729355e-05, 0.00011261071890657772], [1.5943311382216018e-07, -9.616184115657212e-08, -1.6810034253467128e-07, 2.2071134253565055e-07, 8.930771144832741e-08, -9.221135144343842e-08, 1.2237450164320736e-08, -1.6378818656903567e-07, -1.9652712524020857e-07, 5.4055067977287644e-08, 2.216202510396665e-08, -5.405655656431906e-08, 8.935550255273463e-08, 1.6976171934857083e-07, 7.222704567766398e-08, 2.0258082145119216e-07, -1.863141818603249e-07, -5.769715816228414e-09, -4.7891742127603614e-08, -1.533665283659499e-08, 1.8528297118791628e-07, 2.1893575308240495e-07, 8.428811071325963e-08, 6.531674756615743e-08, 1.4976500040120265e-07, 3.605131482231619e-08, 6.242351702212532e-08, -1.3433809442631144e-07, -1.6453255113901795e-07, -8.064606049629201e-08], [-0.009192128619223451, -0.000654971081472306, -0.0023939373536691257, -0.002502073004374364, 6.012257430889366e-05, 0.005972560009284673, -0.00018016598910379814, -6.707173763541531e-05, -0.0005154114291306121, -0.0005006607339230199, -0.00037628428761122065, 7.584677898467428e-05, 0.0010702247849864249, 0.0004000962385419088, 0.0006387949446458833, 0.00016096353578153947, -0.0002931198723665534, 0.00021355208680764597, -0.0005720857288930972, 0.00015675631000990975, -0.0003316044846604584, 1.016117011677522e-05, -0.0002947455194351736, 0.0003818860094681251, 0.000606435031112676, 5.983729282413111e-05, -0.00011017480800586502, 0.0005964838747792824, -2.4699021732139233e-05, -0.0003691388425534763], [1.5943311382216018e-07, -9.616184115657212e-08, -1.6810034253467128e-07, 2.2071134253565055e-07, 8.930771144832741e-08, -9.221135144343842e-08, 1.2237450164320736e-08, -1.6378818656903567e-07, -1.9652712524020857e-07, 5.4055067977287644e-08, 2.216202510396665e-08, -5.405655656431906e-08, 8.935550255273463e-08, 1.6976171934857083e-07, 7.222704567766398e-08, 2.0258082145119216e-07, -1.863141818603249e-07, -5.769715816228414e-09, -4.7891742127603614e-08, -1.533665283659499e-08, 1.8528297118791628e-07, 2.1893575308240495e-07, 8.428811071325963e-08, 6.531674756615743e-08, 1.4976500040120265e-07, 3.605131482231619e-08, 6.242351702212532e-08, -1.3433809442631144e-07, -1.6453255113901795e-07, -8.064606049629201e-08], [1.5943311382216018e-07, -9.616184115657212e-08, -1.6810034253467128e-07, 2.2071134253565055e-07, 8.930771144832741e-08, -9.221135144343842e-08, 1.2237450164320736e-08, -1.6378818656903567e-07, -1.9652712524020857e-07, 5.4055067977287644e-08, 2.216202510396665e-08, -5.405655656431906e-08, 8.935550255273463e-08, 1.6976171934857083e-07, 7.222704567766398e-08, 2.0258082145119216e-07, -1.863141818603249e-07, -5.769715816228414e-09, -4.7891742127603614e-08, -1.533665283659499e-08, 1.8528297118791628e-07, 2.1893575308240495e-07, 8.428811071325963e-08, 6.531674756615743e-08, 1.4976500040120265e-07, 3.605131482231619e-08, 6.242351702212532e-08, -1.3433809442631144e-07, -1.6453255113901795e-07, -8.064606049629201e-08], [1.5943311382216018e-07, -9.616184115657212e-08, -1.6810034253467128e-07, 2.2071134253565055e-07, 8.930771144832741e-08, -9.221135144343842e-08, 1.2237450164320736e-08, -1.6378818656903567e-07, -1.9652712524020857e-07, 5.4055067977287644e-08, 2.216202510396665e-08, -5.405655656431906e-08, 8.935550255273463e-08, 1.6976171934857083e-07, 7.222704567766398e-08, 2.0258082145119216e-07, -1.863141818603249e-07, -5.769715816228414e-09, -4.7891742127603614e-08, -1.533665283659499e-08, 1.8528297118791628e-07, 2.1893575308240495e-07, 8.428811071325963e-08, 6.531674756615743e-08, 1.4976500040120265e-07, 3.605131482231619e-08, 6.242351702212532e-08, -1.3433809442631144e-07, -1.6453255113901795e-07, -8.064606049629201e-08], [0.0029597677265222003, 0.009050821918039246, -0.003642765677429401, 0.00045767714125456764, -0.0024224476706493077, 0.0028348506273484387, -0.002668727156931368, -0.0006140294818059736, -0.0009663868852108556, -0.0009501417514701832, -0.00013671253534144735, 0.0010135387219994752, -0.00017050960360762832, 0.000493444362439399, 0.0006917962886956508, -0.00051312735051525, -0.00027888659641548747, 3.5322323426817024e-05, -7.873858921078558e-05, -0.0003044264102766678, -0.00015769154015151182, 0.0002617165149502953, -0.00017359261632134072, -0.0003921684499349231, 0.00017489796396484228, 7.111179601358545e-05, 0.00018740967317705138, 0.00010809997022454472, 0.00017967034261291663, -0.00016136652002096542], [-0.013791523413041195, -0.0024297489825519376, -0.0017975676112747209, -0.00023903219873611803, 0.00020874942362821691, -0.00048009868999925054, 0.00014103315891606796, 5.824039624424465e-05, -9.883283237562225e-05, 9.576341807672478e-05, 0.0001860281829008333, -3.1843699540833455e-06, 0.0002764267790839046, -4.12119362934908e-06, -5.869939780474461e-05, 7.190624118138255e-05, 9.159109007818262e-05, -4.7442087466906104e-05, -9.8507656649278e-06, 1.3546785994305957e-05, -0.00014560627291179836, -2.1908598565277558e-05, 7.031981311542898e-05, -8.342098017923586e-05, 4.010337423764859e-05, -6.15060530911676e-05, 1.5135922699012734e-05, -5.6390539961899216e-05, 2.5301839370447026e-05, -2.282489309840955e-06], [0.017329107709570624, 0.0008111216607265934, -0.007707979519208088, 0.0017299207626608943, -0.0019053397501074402, -0.0007369727077786271, -0.0032341461390741296, 0.0013750631859477068, 0.00038917635629980366, 0.0012738752935735358, 0.00022450793932226047, 0.0006445201000276484, -0.0005158439231188429, -0.0005921311256079986, 3.6209213481937686e-05, 0.0008670665959818088, -0.0002517386396760121, 0.0006687886166371807, -0.0004939863779470304, 0.001125437835174779, 0.0007808062944147609, -0.00026987176938188094, 0.0010217267990454875, 2.8203160201701867e-05, -0.0005067768741156393, 0.0006799635485187049, -7.058478071615671e-05, -0.00010804460564815386, -0.00027871336306254047, 0.00020448898472388388], [1.5943311382216018e-07, -9.616184115657212e-08, -1.6810034253467128e-07, 2.2071134253565055e-07, 8.930771144832741e-08, -9.221135144343842e-08, 1.2237450164320736e-08, -1.6378818656903567e-07, -1.9652712524020857e-07, 5.4055067977287644e-08, 2.216202510396665e-08, -5.405655656431906e-08, 8.935550255273463e-08, 1.6976171934857083e-07, 7.222704567766398e-08, 2.0258082145119216e-07, -1.863141818603249e-07, -5.769715816228414e-09, -4.7891742127603614e-08, -1.533665283659499e-08, 1.8528297118791628e-07, 2.1893575308240495e-07, 8.428811071325963e-08, 6.531674756615743e-08, 1.4976500040120265e-07, 3.605131482231619e-08, 6.242351702212532e-08, -1.3433809442631144e-07, -1.6453255113901795e-07, -8.064606049629201e-08], [1.5943311382216018e-07, -9.616184115657212e-08, -1.6810034253467128e-07, 2.2071134253565055e-07, 8.930771144832741e-08, -9.221135144343842e-08, 1.2237450164320736e-08, -1.6378818656903567e-07, -1.9652712524020857e-07, 5.4055067977287644e-08, 2.216202510396665e-08, -5.405655656431906e-08, 8.935550255273463e-08, 1.6976171934857083e-07, 7.222704567766398e-08, 2.0258082145119216e-07, -1.863141818603249e-07, -5.769715816228414e-09, -4.7891742127603614e-08, -1.533665283659499e-08, 1.8528297118791628e-07, 2.1893575308240495e-07, 8.428811071325963e-08, 6.531674756615743e-08, 1.4976500040120265e-07, 3.605131482231619e-08, 6.242351702212532e-08, -1.3433809442631144e-07, -1.6453255113901795e-07, -8.064606049629201e-08], [1.5943311382216018e-07, -9.616184115657212e-08, -1.6810034253467128e-07, 2.2071134253565055e-07, 8.930771144832741e-08, -9.221135144343842e-08, 1.2237450164320736e-08, -1.6378818656903567e-07, -1.9652712524020857e-07, 5.4055067977287644e-08, 2.216202510396665e-08, -5.405655656431906e-08, 8.935550255273463e-08, 1.6976171934857083e-07, 7.222704567766398e-08, 2.0258082145119216e-07, -1.863141818603249e-07, -5.769715816228414e-09, -4.7891742127603614e-08, -1.533665283659499e-08, 1.8528297118791628e-07, 2.1893575308240495e-07, 8.428811071325963e-08, 6.531674756615743e-08, 1.4976500040120265e-07, 3.605131482231619e-08, 6.242351702212532e-08, -1.3433809442631144e-07, -1.6453255113901795e-07, -8.064606049629201e-08], [0.006136654059361924, 0.011514399194680764, 0.0037185469146600696, 0.004176256900636897, -0.0012675133538984627, 0.003996918586557596, -7.789264340896436e-05, 0.0013167734017962745, 0.001470000353077213, -0.0001391278806616189, -0.00010833309839229895, -0.00044841207642906905, 0.00079992988176981, 0.0009958835771094853, -0.00041862389945280626, -0.00013337635697073234, 0.0009375003947251344, -0.00013774964738450202, 0.00010917488277931161, 0.000271737295697081, -0.00028721530432966326, 3.3507983888804575e-06, -4.879079795085346e-05, 0.00010356311011854982, 0.00011559021456691442, 7.305969850287898e-05, -0.00012335313128682373, 0.00019164332182824908, -0.00023976546680754817, 9.391230982175749e-05], [1.5943311382216018e-07, -9.616184115657212e-08, -1.6810034253467128e-07, 2.2071134253565055e-07, 8.930771144832741e-08, -9.221135144343842e-08, 1.2237450164320736e-08, -1.6378818656903567e-07, -1.9652712524020857e-07, 5.4055067977287644e-08, 2.216202510396665e-08, -5.405655656431906e-08, 8.935550255273463e-08, 1.6976171934857083e-07, 7.222704567766398e-08, 2.0258082145119216e-07, -1.863141818603249e-07, -5.769715816228414e-09, -4.7891742127603614e-08, -1.533665283659499e-08, 1.8528297118791628e-07, 2.1893575308240495e-07, 8.428811071325963e-08, 6.531674756615743e-08, 1.4976500040120265e-07, 3.605131482231619e-08, 6.242351702212532e-08, -1.3433809442631144e-07, -1.6453255113901795e-07, -8.064606049629201e-08], [1.5943311382216018e-07, -9.616184115657212e-08, -1.6810034253467128e-07, 2.2071134253565055e-07, 8.930771144832741e-08, -9.221135144343842e-08, 1.2237450164320736e-08, -1.6378818656903567e-07, -1.9652712524020857e-07, 5.4055067977287644e-08, 2.216202510396665e-08, -5.405655656431906e-08, 8.935550255273463e-08, 1.6976171934857083e-07, 7.222704567766398e-08, 2.0258082145119216e-07, -1.863141818603249e-07, -5.769715816228414e-09, -4.7891742127603614e-08, -1.533665283659499e-08, 1.8528297118791628e-07, 2.1893575308240495e-07, 8.428811071325963e-08, 6.531674756615743e-08, 1.4976500040120265e-07, 3.605131482231619e-08, 6.242351702212532e-08, -1.3433809442631144e-07, -1.6453255113901795e-07, -8.064606049629201e-08], [1.5943311382216018e-07, -9.616184115657212e-08, -1.6810034253467128e-07, 2.2071134253565055e-07, 8.930771144832741e-08, -9.221135144343842e-08, 1.2237450164320736e-08, -1.6378818656903567e-07, -1.9652712524020857e-07, 5.4055067977287644e-08, 2.216202510396665e-08, -5.405655656431906e-08, 8.935550255273463e-08, 1.6976171934857083e-07, 7.222704567766398e-08, 2.0258082145119216e-07, -1.863141818603249e-07, -5.769715816228414e-09, -4.7891742127603614e-08, -1.533665283659499e-08, 1.8528297118791628e-07, 2.1893575308240495e-07, 8.428811071325963e-08, 6.531674756615743e-08, 1.4976500040120265e-07, 3.605131482231619e-08, 6.242351702212532e-08, -1.3433809442631144e-07, -1.6453255113901795e-07, -8.064606049629201e-08], [1.5943311382216018e-07, -9.616184115657212e-08, -1.6810034253467128e-07, 2.2071134253565055e-07, 8.930771144832741e-08, -9.221135144343842e-08, 1.2237450164320736e-08, -1.6378818656903567e-07, -1.9652712524020857e-07, 5.4055067977287644e-08, 2.216202510396665e-08, -5.405655656431906e-08, 8.935550255273463e-08, 1.6976171934857083e-07, 7.222704567766398e-08, 2.0258082145119216e-07, -1.863141818603249e-07, -5.769715816228414e-09, -4.7891742127603614e-08, -1.533665283659499e-08, 1.8528297118791628e-07, 2.1893575308240495e-07, 8.428811071325963e-08, 6.531674756615743e-08, 1.4976500040120265e-07, 3.605131482231619e-08, 6.242351702212532e-08, -1.3433809442631144e-07, -1.6453255113901795e-07, -8.064606049629201e-08], [1.5943311382216018e-07, -9.616184115657212e-08, -1.6810034253467128e-07, 2.2071134253565055e-07, 8.930771144832741e-08, -9.221135144343842e-08, 1.2237450164320736e-08, -1.6378818656903567e-07, -1.9652712524020857e-07, 5.4055067977287644e-08, 2.216202510396665e-08, -5.405655656431906e-08, 8.935550255273463e-08, 1.6976171934857083e-07, 7.222704567766398e-08, 2.0258082145119216e-07, -1.863141818603249e-07, -5.769715816228414e-09, -4.7891742127603614e-08, -1.533665283659499e-08, 1.8528297118791628e-07, 2.1893575308240495e-07, 8.428811071325963e-08, 6.531674756615743e-08, 1.4976500040120265e-07, 3.605131482231619e-08, 6.242351702212532e-08, -1.3433809442631144e-07, -1.6453255113901795e-07, -8.064606049629201e-08], [1.5943311382216018e-07, -9.616184115657212e-08, -1.6810034253467128e-07, 2.2071134253565055e-07, 8.930771144832741e-08, -9.221135144343842e-08, 1.2237450164320736e-08, -1.6378818656903567e-07, -1.9652712524020857e-07, 5.4055067977287644e-08, 2.216202510396665e-08, -5.405655656431906e-08, 8.935550255273463e-08, 1.6976171934857083e-07, 7.222704567766398e-08, 2.0258082145119216e-07, -1.863141818603249e-07, -5.769715816228414e-09, -4.7891742127603614e-08, -1.533665283659499e-08, 1.8528297118791628e-07, 2.1893575308240495e-07, 8.428811071325963e-08, 6.531674756615743e-08, 1.4976500040120265e-07, 3.605131482231619e-08, 6.242351702212532e-08, -1.3433809442631144e-07, -1.6453255113901795e-07, -8.064606049629201e-08], [0.008585713001738866, 0.004865167819572326, -0.0012112899564492336, 0.001303982650857076, 0.0009775301674388472, -0.0008949423597012436, 0.0029013762622541552, 0.0006390156178939969, 0.0005635214872756454, -0.000521891916049966, 0.0004961795387183004, 0.0004336271009360962, -0.000566306508396074, 0.00019094304264077107, 0.00027475904257213236, 6.707380601055821e-05, -9.53512282724791e-05, 0.00010964972257954833, -0.00028737820887299943, -0.00021531099853903043, 2.723955985927207e-05, 0.0001323788669410386, -0.00011019030681682181, -2.9644303550933246e-05, -0.00015574612096416415, 5.9816100632935325e-05, 5.13345312851485e-05, 6.302267013003704e-05, -0.00010923196267557016, 5.279936887996086e-05]], "bgmm_covariances": [[5.5560919092747117e-05, 2.0068307013641264e-05, 7.614266039762372e-06, 4.79534056166317e-06, 3.7150603623439875e-06, 2.0104002916712907e-06, 2.5682444866163165e-06, 2.1380350735696857e-06, 1.9019705629858942e-06, 1.6803445634363842e-06, 1.1458656241083924e-06, 1.5582865162168211e-06, 1.129942797918199e-06, 1.117610200658571e-06, 1.0290983554348816e-06, 1.3497115558616985e-06, 9.768739973273574e-07, 1.0736062951389702e-06, 9.975367730943979e-07, 9.314588115667979e-07, 8.82023596702195e-07, 9.782538911011651e-07, 8.671116167275044e-07, 8.873308238027335e-07, 9.487025754958655e-07, 8.421270496970501e-07, 9.055528468310261e-07, 8.937600560949025e-07, 9.139690369920817e-07, 8.928039228502598e-07], [7.618584398490686e-06, 1.79893856208461e-06, 5.54780369081224e-07, 2.6158665302015534e-07, 2.1727179652467996e-07, 1.6188494858700635e-07, 7.178872086418178e-08, 5.680568998892953e-08, 5.3938602680621813e-08, 3.2597813515167287e-08, 3.0061803120891826e-08, 2.681624664546696e-08, 1.8609885425272974e-08, 1.7784181712462133e-08, 1.4546334152025107e-08, 1.4128625025478031e-08, 1.1818588063761198e-08, 9.918488785842855e-09, 8.960546438174861e-09, 7.864577848219366e-09, 7.151094886618691e-09, 6.93379291760728e-09, 6.277058635835978e-09, 5.756882615060095e-09, 4.720026917463426e-09, 4.211605168317644e-09, 3.7907428899568434e-09, 3.715985741337209e-09, 3.3849296698918633e-09, 3.3101303624032405e-09], [7.618584398490686e-06, 1.79893856208461e-06, 5.54780369081224e-07, 2.6158665302015534e-07, 2.1727179652467996e-07, 1.6188494858700635e-07, 7.178872086418178e-08, 5.680568998892953e-08, 5.3938602680621813e-08, 3.2597813515167287e-08, 3.0061803120891826e-08, 2.681624664546696e-08, 1.8609885425272974e-08, 1.7784181712462133e-08, 1.4546334152025107e-08, 1.4128625025478031e-08, 1.1818588063761198e-08, 9.918488785842855e-09, 8.960546438174861e-09, 7.864577848219366e-09, 7.151094886618691e-09, 6.93379291760728e-09, 6.277058635835978e-09, 5.756882615060095e-09, 4.720026917463426e-09, 4.211605168317644e-09, 3.7907428899568434e-09, 3.715985741337209e-09, 3.3849296698918633e-09, 3.3101303624032405e-09], [7.618584398490686e-06, 1.79893856208461e-06, 5.54780369081224e-07, 2.6158665302015534e-07, 2.1727179652467996e-07, 1.6188494858700635e-07, 7.178872086418178e-08, 5.680568998892953e-08, 5.3938602680621813e-08, 3.2597813515167287e-08, 3.0061803120891826e-08, 2.681624664546696e-08, 1.8609885425272974e-08, 1.7784181712462133e-08, 1.4546334152025107e-08, 1.4128625025478031e-08, 1.1818588063761198e-08, 9.918488785842855e-09, 8.960546438174861e-09, 7.864577848219366e-09, 7.151094886618691e-09, 6.93379291760728e-09, 6.277058635835978e-09, 5.756882615060095e-09, 4.720026917463426e-09, 4.211605168317644e-09, 3.7907428899568434e-09, 3.715985741337209e-09, 3.3849296698918633e-09, 3.3101303624032405e-09], [7.618584398490686e-06, 1.79893856208461e-06, 5.54780369081224e-07, 2.6158665302015534e-07, 2.1727179652467996e-07, 1.6188494858700635e-07, 7.178872086418178e-08, 5.680568998892953e-08, 5.3938602680621813e-08, 3.2597813515167287e-08, 3.0061803120891826e-08, 2.681624664546696e-08, 1.8609885425272974e-08, 1.7784181712462133e-08, 1.4546334152025107e-08, 1.4128625025478031e-08, 1.1818588063761198e-08, 9.918488785842855e-09, 8.960546438174861e-09, 7.864577848219366e-09, 7.151094886618691e-09, 6.93379291760728e-09, 6.277058635835978e-09, 5.756882615060095e-09, 4.720026917463426e-09, 4.211605168317644e-09, 3.7907428899568434e-09, 3.715985741337209e-09, 3.3849296698918633e-09, 3.3101303624032405e-09], [7.618584398490686e-06, 1.79893856208461e-06, 5.54780369081224e-07, 2.6158665302015534e-07, 2.1727179652467996e-07, 1.6188494858700635e-07, 7.178872086418178e-08, 5.680568998892953e-08, 5.3938602680621813e-08, 3.2597813515167287e-08, 3.0061803120891826e-08, 2.681624664546696e-08, 1.8609885425272974e-08, 1.7784181712462133e-08, 1.4546334152025107e-08, 1.4128625025478031e-08, 1.1818588063761198e-08, 9.918488785842855e-09, 8.960546438174861e-09, 7.864577848219366e-09, 7.151094886618691e-09, 6.93379291760728e-09, 6.277058635835978e-09, 5.756882615060095e-09, 4.720026917463426e-09, 4.211605168317644e-09, 3.7907428899568434e-09, 3.715985741337209e-09, 3.3849296698918633e-09, 3.3101303624032405e-09], [6.693213641790802e-05, 4.372273820024084e-05, 1.309080905598522e-05, 4.7790779502289144e-06, 3.930399402105654e-06, 3.961446954701595e-06, 2.0478358656477114e-06, 2.152409422106734e-06, 1.9466902349053866e-06, 1.8314544782166151e-06, 1.647523972883336e-06, 1.7085702402622758e-06, 1.3660948037058006e-06, 1.3952450168650957e-06, 1.305134749793793e-06, 1.3269575511240001e-06, 1.2568023700560891e-06, 1.2434366739599674e-06, 1.1652394593128626e-06, 1.1545007957417802e-06, 1.168211971946124e-06, 1.1397944301426933e-06, 1.1183097097792226e-06, 1.1186397138216249e-06, 1.1009688508877623e-06, 1.0817241486624235e-06, 1.0846767055332852e-06, 1.069571864462417e-06, 1.0646947151106565e-06, 1.0595307658806808e-06], [7.618584398490686e-06, 1.79893856208461e-06, 5.54780369081224e-07, 2.6158665302015534e-07, 2.1727179652467996e-07, 1.6188494858700635e-07, 7.178872086418178e-08, 5.680568998892953e-08, 5.3938602680621813e-08, 3.2597813515167287e-08, 3.0061803120891826e-08, 2.681624664546696e-08, 1.8609885425272974e-08, 1.7784181712462133e-08, 1.4546334152025107e-08, 1.4128625025478031e-08, 1.1818588063761198e-08, 9.918488785842855e-09, 8.960546438174861e-09, 7.864577848219366e-09, 7.151094886618691e-09, 6.93379291760728e-09, 6.277058635835978e-09, 5.756882615060095e-09, 4.720026917463426e-09, 4.211605168317644e-09, 3.7907428899568434e-09, 3.715985741337209e-09, 3.3849296698918633e-09, 3.3101303624032405e-09], [9.165855594981568e-06, 2.267148699543465e-06, 1.6082794680814013e-06, 8.77349310991636e-07, 1.5570133084511383e-06, 4.4456325465156205e-07, 6.752115208657917e-07, 5.278712888069384e-07, 2.213215805801639e-07, 1.936437903220899e-07, 1.86443664079674e-07, 1.999750860565636e-07, 4.116648757370376e-07, 1.8520717992853635e-07, 1.892466808466456e-07, 1.8902096068519271e-07, 1.7866597366207918e-07, 1.7082898862755603e-07, 1.7977757105890036e-07, 1.5599055091028505e-07, 1.6992375566172802e-07, 1.8203737815458375e-07, 1.6497304026845462e-07, 1.6642617790012626e-07, 1.5275772205121653e-07, 1.510074015003466e-07, 1.5242172996447932e-07, 1.5444660496259566e-07, 1.60132401858893e-07, 1.5481924996735933e-07], [3.457957606485242e-05, 3.8565701848594834e-05, 9.473430125809077e-06, 6.679014769029163e-06, 5.38082972282123e-06, 4.531505076873822e-06, 1.8937146660784361e-06, 1.7678281228554607e-06, 2.457666034871209e-06, 1.6462075894250902e-06, 1.4042525666265646e-06, 1.5414628919954983e-06, 1.334777264724075e-06, 1.211930747988639e-06, 1.2603888362146462e-06, 1.1784541649922163e-06, 1.1614480148708552e-06, 1.1560905230308346e-06, 1.3297254190383078e-06, 1.2311726391193289e-06, 1.0449948735521303e-06, 1.1237219634017097e-06, 1.0056606089917591e-06, 1.0291687006516493e-06, 1.0025256817572032e-06, 1.0178058205503035e-06, 1.0390346034125842e-06, 1.0131706918941944e-06, 1.0300522279937021e-06, 9.760298954165972e-07], [1.4176441045819042e-05, 1.3776273648380667e-05, 1.189967604337723e-05, 5.029801207548662e-06, 4.068690702270177e-06, 2.4009277256542278e-06, 2.1594758352016014e-06, 1.4693490431651824e-06, 1.5775313245261348e-06, 1.6938905033207366e-06, 1.7029608690839245e-06, 1.3164105274238963e-06, 1.3116147658520459e-06, 1.4348638307201568e-06, 1.2399221260976531e-06, 1.1610649491602879e-06, 1.115327201767883e-06, 1.1727405535224025e-06, 1.2304157076273418e-06, 1.0980737727770393e-06, 1.0828298027317955e-06, 1.0434194145261415e-06, 1.1093750445508582e-06, 1.1358873288840557e-06, 1.0720946847232963e-06, 1.030776016652271e-06, 1.01284936900549e-06, 1.0230325848438157e-06, 1.029342877675894e-06, 1.0269399204866632e-06], [1.5018426352165996e-05, 1.2987094698885845e-05, 5.315433829897951e-06, 2.9839648723248738e-06, 2.0410629266841026e-06, 3.426713587634673e-06, 2.539162903154947e-06, 1.8141627285300578e-06, 1.758218944949036e-06, 1.4339269241767785e-06, 1.3026627324304456e-06, 1.3560555221255693e-06, 1.510556252630795e-06, 1.264639012220885e-06, 1.3613364651797931e-06, 1.0118949636684583e-06, 1.1386946160908483e-06, 1.0238074274650427e-06, 1.0193182209102912e-06, 1.0835978828525484e-06, 9.41495437141235e-07, 9.053183290849293e-07, 8.848234541158674e-07, 1.000230921055504e-06, 8.578809701745849e-07, 8.436334870178021e-07, 8.025023784049964e-07, 8.84909747720598e-07, 8.584815025923189e-07, 8.792618377570615e-07], [7.618584398490686e-06, 1.79893856208461e-06, 5.54780369081224e-07, 2.6158665302015534e-07, 2.1727179652467996e-07, 1.6188494858700635e-07, 7.178872086418178e-08, 5.680568998892953e-08, 5.3938602680621813e-08, 3.2597813515167287e-08, 3.0061803120891826e-08, 2.681624664546696e-08, 1.8609885425272974e-08, 1.7784181712462133e-08, 1.4546334152025107e-08, 1.4128625025478031e-08, 1.1818588063761198e-08, 9.918488785842855e-09, 8.960546438174861e-09, 7.864577848219366e-09, 7.151094886618691e-09, 6.93379291760728e-09, 6.277058635835978e-09, 5.756882615060095e-09, 4.720026917463426e-09, 4.211605168317644e-09, 3.7907428899568434e-09, 3.715985741337209e-09, 3.3849296698918633e-09, 3.3101303624032405e-09], [7.618584398490686e-06, 1.79893856208461e-06, 5.54780369081224e-07, 2.6158665302015534e-07, 2.1727179652467996e-07, 1.6188494858700635e-07, 7.178872086418178e-08, 5.680568998892953e-08, 5.3938602680621813e-08, 3.2597813515167287e-08, 3.0061803120891826e-08, 2.681624664546696e-08, 1.8609885425272974e-08, 1.7784181712462133e-08, 1.4546334152025107e-08, 1.4128625025478031e-08, 1.1818588063761198e-08, 9.918488785842855e-09, 8.960546438174861e-09, 7.864577848219366e-09, 7.151094886618691e-09, 6.93379291760728e-09, 6.277058635835978e-09, 5.756882615060095e-09, 4.720026917463426e-09, 4.211605168317644e-09, 3.7907428899568434e-09, 3.715985741337209e-09, 3.3849296698918633e-09, 3.3101303624032405e-09], [6.553224439302464e-05, 1.7401870467049083e-05, 4.019235088860196e-06, 4.469230983422746e-06, 3.4153816513102643e-06, 2.2569179119729184e-06, 1.7451095138509258e-06, 1.6365727950381195e-06, 2.418928792903756e-06, 1.3127774949219279e-06, 1.255201452915928e-06, 1.2764638831256473e-06, 1.0120928066020778e-06, 1.0572991777764727e-06, 9.913200262134768e-07, 1.0458939549628549e-06, 1.0639148926192638e-06, 1.0816003548637546e-06, 9.191493316065642e-07, 9.566546233794489e-07, 7.779376792008283e-07, 1.0010667716671235e-06, 9.167030962127397e-07, 8.689563422380877e-07, 7.954150155288775e-07, 7.541545371713245e-07, 8.60950385031158e-07, 7.912888792992308e-07, 8.712282018061194e-07, 8.485729499448985e-07], [2.3938972230415936e-05, 3.811876790356856e-06, 7.66908546257624e-07, 3.351815341541208e-07, 3.0020907417370554e-07, 3.009155639536666e-07, 1.7215287466960042e-07, 1.5586527967149713e-07, 1.4803660082339154e-07, 1.319207914320743e-07, 1.2724569038812253e-07, 1.2387260111033662e-07, 1.0960328679328926e-07, 2.0005557587898226e-07, 1.0487284013112556e-07, 1.3638624653039274e-07, 1.543030885817833e-07, 1.0828429688119778e-07, 1.1298859109939855e-07, 1.0246991930045942e-07, 9.869306410713675e-08, 1.0916023768067314e-07, 1.0310305221458478e-07, 9.822810711039902e-08, 9.818973986065983e-08, 9.924521441923836e-08, 9.596896150235532e-08, 1.0599853907607022e-07, 9.526420476488638e-08, 9.869612868995877e-08], [7.618584398490686e-06, 1.79893856208461e-06, 5.54780369081224e-07, 2.6158665302015534e-07, 2.1727179652467996e-07, 1.6188494858700635e-07, 7.178872086418178e-08, 5.680568998892953e-08, 5.3938602680621813e-08, 3.2597813515167287e-08, 3.0061803120891826e-08, 2.681624664546696e-08, 1.8609885425272974e-08, 1.7784181712462133e-08, 1.4546334152025107e-08, 1.4128625025478031e-08, 1.1818588063761198e-08, 9.918488785842855e-09, 8.960546438174861e-09, 7.864577848219366e-09, 7.151094886618691e-09, 6.93379291760728e-09, 6.277058635835978e-09, 5.756882615060095e-09, 4.720026917463426e-09, 4.211605168317644e-09, 3.7907428899568434e-09, 3.715985741337209e-09, 3.3849296698918633e-09, 3.3101303624032405e-09], [7.618584398490686e-06, 1.79893856208461e-06, 5.54780369081224e-07, 2.6158665302015534e-07, 2.1727179652467996e-07, 1.6188494858700635e-07, 7.178872086418178e-08, 5.680568998892953e-08, 5.3938602680621813e-08, 3.2597813515167287e-08, 3.0061803120891826e-08, 2.681624664546696e-08, 1.8609885425272974e-08, 1.7784181712462133e-08, 1.4546334152025107e-08, 1.4128625025478031e-08, 1.1818588063761198e-08, 9.918488785842855e-09, 8.960546438174861e-09, 7.864577848219366e-09, 7.151094886618691e-09, 6.93379291760728e-09, 6.277058635835978e-09, 5.756882615060095e-09, 4.720026917463426e-09, 4.211605168317644e-09, 3.7907428899568434e-09, 3.715985741337209e-09, 3.3849296698918633e-09, 3.3101303624032405e-09], [7.618584398490686e-06, 1.79893856208461e-06, 5.54780369081224e-07, 2.6158665302015534e-07, 2.1727179652467996e-07, 1.6188494858700635e-07, 7.178872086418178e-08, 5.680568998892953e-08, 5.3938602680621813e-08, 3.2597813515167287e-08, 3.0061803120891826e-08, 2.681624664546696e-08, 1.8609885425272974e-08, 1.7784181712462133e-08, 1.4546334152025107e-08, 1.4128625025478031e-08, 1.1818588063761198e-08, 9.918488785842855e-09, 8.960546438174861e-09, 7.864577848219366e-09, 7.151094886618691e-09, 6.93379291760728e-09, 6.277058635835978e-09, 5.756882615060095e-09, 4.720026917463426e-09, 4.211605168317644e-09, 3.7907428899568434e-09, 3.715985741337209e-09, 3.3849296698918633e-09, 3.3101303624032405e-09], [7.618584398490686e-06, 1.79893856208461e-06, 5.54780369081224e-07, 2.6158665302015534e-07, 2.1727179652467996e-07, 1.6188494858700635e-07, 7.178872086418178e-08, 5.680568998892953e-08, 5.3938602680621813e-08, 3.2597813515167287e-08, 3.0061803120891826e-08, 2.681624664546696e-08, 1.8609885425272974e-08, 1.7784181712462133e-08, 1.4546334152025107e-08, 1.4128625025478031e-08, 1.1818588063761198e-08, 9.918488785842855e-09, 8.960546438174861e-09, 7.864577848219366e-09, 7.151094886618691e-09, 6.93379291760728e-09, 6.277058635835978e-09, 5.756882615060095e-09, 4.720026917463426e-09, 4.211605168317644e-09, 3.7907428899568434e-09, 3.715985741337209e-09, 3.3849296698918633e-09, 3.3101303624032405e-09], [7.618584398490686e-06, 1.79893856208461e-06, 5.54780369081224e-07, 2.6158665302015534e-07, 2.1727179652467996e-07, 1.6188494858700635e-07, 7.178872086418178e-08, 5.680568998892953e-08, 5.3938602680621813e-08, 3.2597813515167287e-08, 3.0061803120891826e-08, 2.681624664546696e-08, 1.8609885425272974e-08, 1.7784181712462133e-08, 1.4546334152025107e-08, 1.4128625025478031e-08, 1.1818588063761198e-08, 9.918488785842855e-09, 8.960546438174861e-09, 7.864577848219366e-09, 7.151094886618691e-09, 6.93379291760728e-09, 6.277058635835978e-09, 5.756882615060095e-09, 4.720026917463426e-09, 4.211605168317644e-09, 3.7907428899568434e-09, 3.715985741337209e-09, 3.3849296698918633e-09, 3.3101303624032405e-09], [2.3659637320770694e-05, 2.554633759106965e-05, 1.624251915830151e-05, 4.911181803257736e-06, 5.020115894047793e-06, 4.985716228848005e-06, 2.602676851188931e-06, 2.973795035122202e-06, 2.3862810807240276e-06, 2.1938077523950335e-06, 2.0612010751912342e-06, 1.6225349135725174e-06, 1.5953984849490047e-06, 1.5705566446820094e-06, 1.5595751111669492e-06, 1.4772979818630743e-06, 1.2842236240478286e-06, 1.1783713872445415e-06, 1.167829721643588e-06, 1.124188721459032e-06, 1.1455964041821694e-06, 1.148657745403957e-06, 1.1702111744130176e-06, 1.0700532473697441e-06, 1.1344314266220171e-06, 1.0895552263975203e-06, 1.0749410217593681e-06, 1.0738952891412817e-06, 1.0632445469471142e-06, 1.0746287377981236e-06], [7.618584398490686e-06, 1.79893856208461e-06, 5.54780369081224e-07, 2.6158665302015534e-07, 2.1727179652467996e-07, 1.6188494858700635e-07, 7.178872086418178e-08, 5.680568998892953e-08, 5.3938602680621813e-08, 3.2597813515167287e-08, 3.0061803120891826e-08, 2.681624664546696e-08, 1.8609885425272974e-08, 1.7784181712462133e-08, 1.4546334152025107e-08, 1.4128625025478031e-08, 1.1818588063761198e-08, 9.918488785842855e-09, 8.960546438174861e-09, 7.864577848219366e-09, 7.151094886618691e-09, 6.93379291760728e-09, 6.277058635835978e-09, 5.756882615060095e-09, 4.720026917463426e-09, 4.211605168317644e-09, 3.7907428899568434e-09, 3.715985741337209e-09, 3.3849296698918633e-09, 3.3101303624032405e-09], [7.618584398490686e-06, 1.79893856208461e-06, 5.54780369081224e-07, 2.6158665302015534e-07, 2.1727179652467996e-07, 1.6188494858700635e-07, 7.178872086418178e-08, 5.680568998892953e-08, 5.3938602680621813e-08, 3.2597813515167287e-08, 3.0061803120891826e-08, 2.681624664546696e-08, 1.8609885425272974e-08, 1.7784181712462133e-08, 1.4546334152025107e-08, 1.4128625025478031e-08, 1.1818588063761198e-08, 9.918488785842855e-09, 8.960546438174861e-09, 7.864577848219366e-09, 7.151094886618691e-09, 6.93379291760728e-09, 6.277058635835978e-09, 5.756882615060095e-09, 4.720026917463426e-09, 4.211605168317644e-09, 3.7907428899568434e-09, 3.715985741337209e-09, 3.3849296698918633e-09, 3.3101303624032405e-09], [1.2202916980707279e-05, 1.3273639165540934e-05, 6.018043402758343e-06, 3.0568728064991334e-06, 2.479919433063408e-06, 2.323246488664478e-06, 1.9223650432381394e-06, 1.648598229119222e-06, 1.3709008749347918e-06, 1.636669494363546e-06, 1.6527634766574313e-06, 1.3400311770081989e-06, 9.997830807015656e-07, 1.1234990930682418e-06, 1.5003436484285688e-06, 1.0151062125609636e-06, 1.0560382274049866e-06, 1.1094931480788993e-06, 1.1219264618304336e-06, 9.854462305388376e-07, 9.503459534835905e-07, 9.314473674396789e-07, 8.673190323044027e-07, 9.10610635038459e-07, 9.184525946512666e-07, 8.616173230034339e-07, 8.31949796506365e-07, 9.170060335321605e-07, 8.32218035122334e-07, 8.4370062546684e-07], [7.618584398490686e-06, 1.79893856208461e-06, 5.54780369081224e-07, 2.6158665302015534e-07, 2.1727179652467996e-07, 1.6188494858700635e-07, 7.178872086418178e-08, 5.680568998892953e-08, 5.3938602680621813e-08, 3.2597813515167287e-08, 3.0061803120891826e-08, 2.681624664546696e-08, 1.8609885425272974e-08, 1.7784181712462133e-08, 1.4546334152025107e-08, 1.4128625025478031e-08, 1.1818588063761198e-08, 9.918488785842855e-09, 8.960546438174861e-09, 7.864577848219366e-09, 7.151094886618691e-09, 6.93379291760728e-09, 6.277058635835978e-09, 5.756882615060095e-09, 4.720026917463426e-09, 4.211605168317644e-09, 3.7907428899568434e-09, 3.715985741337209e-09, 3.3849296698918633e-09, 3.3101303624032405e-09], [7.618584398490686e-06, 1.79893856208461e-06, 5.54780369081224e-07, 2.6158665302015534e-07, 2.1727179652467996e-07, 1.6188494858700635e-07, 7.178872086418178e-08, 5.680568998892953e-08, 5.3938602680621813e-08, 3.2597813515167287e-08, 3.0061803120891826e-08, 2.681624664546696e-08, 1.8609885425272974e-08, 1.7784181712462133e-08, 1.4546334152025107e-08, 1.4128625025478031e-08, 1.1818588063761198e-08, 9.918488785842855e-09, 8.960546438174861e-09, 7.864577848219366e-09, 7.151094886618691e-09, 6.93379291760728e-09, 6.277058635835978e-09, 5.756882615060095e-09, 4.720026917463426e-09, 4.211605168317644e-09, 3.7907428899568434e-09, 3.715985741337209e-09, 3.3849296698918633e-09, 3.3101303624032405e-09], [7.618584398490686e-06, 1.79893856208461e-06, 5.54780369081224e-07, 2.6158665302015534e-07, 2.1727179652467996e-07, 1.6188494858700635e-07, 7.178872086418178e-08, 5.680568998892953e-08, 5.3938602680621813e-08, 3.2597813515167287e-08, 3.0061803120891826e-08, 2.681624664546696e-08, 1.8609885425272974e-08, 1.7784181712462133e-08, 1.4546334152025107e-08, 1.4128625025478031e-08, 1.1818588063761198e-08, 9.918488785842855e-09, 8.960546438174861e-09, 7.864577848219366e-09, 7.151094886618691e-09, 6.93379291760728e-09, 6.277058635835978e-09, 5.756882615060095e-09, 4.720026917463426e-09, 4.211605168317644e-09, 3.7907428899568434e-09, 3.715985741337209e-09, 3.3849296698918633e-09, 3.3101303624032405e-09], [7.618584398490686e-06, 1.79893856208461e-06, 5.54780369081224e-07, 2.6158665302015534e-07, 2.1727179652467996e-07, 1.6188494858700635e-07, 7.178872086418178e-08, 5.680568998892953e-08, 5.3938602680621813e-08, 3.2597813515167287e-08, 3.0061803120891826e-08, 2.681624664546696e-08, 1.8609885425272974e-08, 1.7784181712462133e-08, 1.4546334152025107e-08, 1.4128625025478031e-08, 1.1818588063761198e-08, 9.918488785842855e-09, 8.960546438174861e-09, 7.864577848219366e-09, 7.151094886618691e-09, 6.93379291760728e-09, 6.277058635835978e-09, 5.756882615060095e-09, 4.720026917463426e-09, 4.211605168317644e-09, 3.7907428899568434e-09, 3.715985741337209e-09, 3.3849296698918633e-09, 3.3101303624032405e-09], [7.618584398490686e-06, 1.79893856208461e-06, 5.54780369081224e-07, 2.6158665302015534e-07, 2.1727179652467996e-07, 1.6188494858700635e-07, 7.178872086418178e-08, 5.680568998892953e-08, 5.3938602680621813e-08, 3.2597813515167287e-08, 3.0061803120891826e-08, 2.681624664546696e-08, 1.8609885425272974e-08, 1.7784181712462133e-08, 1.4546334152025107e-08, 1.4128625025478031e-08, 1.1818588063761198e-08, 9.918488785842855e-09, 8.960546438174861e-09, 7.864577848219366e-09, 7.151094886618691e-09, 6.93379291760728e-09, 6.277058635835978e-09, 5.756882615060095e-09, 4.720026917463426e-09, 4.211605168317644e-09, 3.7907428899568434e-09, 3.715985741337209e-09, 3.3849296698918633e-09, 3.3101303624032405e-09], [1.2310711880231683e-05, 3.0959225683721287e-06, 1.2698289143111205e-06, 4.490536565710301e-07, 3.784537938162008e-07, 3.610745791927914e-07, 1.6486899902188462e-07, 1.3179361228076913e-07, 1.1798969654107652e-07, 9.3308466694372e-08, 9.49030666466209e-08, 8.993567652572509e-08, 8.203175838370248e-08, 8.463798977343734e-08, 8.149534549913088e-08, 8.716872819764942e-08, 8.028059533877908e-08, 7.30242630728828e-08, 7.336925762721714e-08, 8.458565177379376e-08, 7.529857705859594e-08, 7.129916181605728e-08, 7.720972042440161e-08, 6.936138553925081e-08, 8.13517206886553e-08, 6.932637616318358e-08, 6.743241796713505e-08, 6.968756021986845e-08, 6.571570994254317e-08, 6.688413855195936e-08], [2.7064792119872377e-05, 1.7563975392856115e-05, 5.847458976027517e-06, 2.3619232588829138e-06, 4.610892635650113e-06, 3.109023919974786e-06, 2.4251262385403003e-06, 2.227319841738208e-06, 1.6592485963772435e-06, 1.4409592111384696e-06, 1.4413177910642226e-06, 1.7808109534835364e-06, 1.3740227174452495e-06, 1.2913942558477068e-06, 1.4002943748595738e-06, 1.1443025999102705e-06, 1.1335392729953418e-06, 1.2410842339457772e-06, 1.1152153791973211e-06, 1.1730826990849014e-06, 9.76329996130482e-07, 1.0685743602497692e-06, 1.021206545723212e-06, 9.563213297026753e-07, 9.182765111632991e-07, 8.877027085275214e-07, 9.273526308626601e-07, 9.288916628964329e-07, 9.005757117002558e-07, 9.017106202986245e-07], [1.0531347962283168e-05, 3.38550272535218e-06, 9.235604650275152e-07, 6.470698348728699e-07, 7.597105599422076e-07, 3.9632420851081355e-07, 3.3340725795716557e-07, 3.730705379797698e-07, 7.181208638906499e-07, 1.6615932212446575e-07, 2.3287778614494904e-07, 2.5109953349374966e-07, 1.3767076705205332e-07, 1.590039936058194e-07, 1.528651858379271e-07, 1.6682805783046457e-07, 1.51428032145667e-07, 1.6344436882350444e-07, 1.3217936934875676e-07, 1.5071425941197157e-07, 1.379170730699238e-07, 1.533583127442669e-07, 1.3317043016124185e-07, 1.301367546553056e-07, 1.3162397598743247e-07, 1.3078143667203465e-07, 1.5550627053697044e-07, 1.3939139899494866e-07, 1.4553175516592136e-07, 1.6054605203094054e-07], [7.618584398490686e-06, 1.79893856208461e-06, 5.54780369081224e-07, 2.6158665302015534e-07, 2.1727179652467996e-07, 1.6188494858700635e-07, 7.178872086418178e-08, 5.680568998892953e-08, 5.3938602680621813e-08, 3.2597813515167287e-08, 3.0061803120891826e-08, 2.681624664546696e-08, 1.8609885425272974e-08, 1.7784181712462133e-08, 1.4546334152025107e-08, 1.4128625025478031e-08, 1.1818588063761198e-08, 9.918488785842855e-09, 8.960546438174861e-09, 7.864577848219366e-09, 7.151094886618691e-09, 6.93379291760728e-09, 6.277058635835978e-09, 5.756882615060095e-09, 4.720026917463426e-09, 4.211605168317644e-09, 3.7907428899568434e-09, 3.715985741337209e-09, 3.3849296698918633e-09, 3.3101303624032405e-09], [7.618584398490686e-06, 1.79893856208461e-06, 5.54780369081224e-07, 2.6158665302015534e-07, 2.1727179652467996e-07, 1.6188494858700635e-07, 7.178872086418178e-08, 5.680568998892953e-08, 5.3938602680621813e-08, 3.2597813515167287e-08, 3.0061803120891826e-08, 2.681624664546696e-08, 1.8609885425272974e-08, 1.7784181712462133e-08, 1.4546334152025107e-08, 1.4128625025478031e-08, 1.1818588063761198e-08, 9.918488785842855e-09, 8.960546438174861e-09, 7.864577848219366e-09, 7.151094886618691e-09, 6.93379291760728e-09, 6.277058635835978e-09, 5.756882615060095e-09, 4.720026917463426e-09, 4.211605168317644e-09, 3.7907428899568434e-09, 3.715985741337209e-09, 3.3849296698918633e-09, 3.3101303624032405e-09], [7.618584398490686e-06, 1.79893856208461e-06, 5.54780369081224e-07, 2.6158665302015534e-07, 2.1727179652467996e-07, 1.6188494858700635e-07, 7.178872086418178e-08, 5.680568998892953e-08, 5.3938602680621813e-08, 3.2597813515167287e-08, 3.0061803120891826e-08, 2.681624664546696e-08, 1.8609885425272974e-08, 1.7784181712462133e-08, 1.4546334152025107e-08, 1.4128625025478031e-08, 1.1818588063761198e-08, 9.918488785842855e-09, 8.960546438174861e-09, 7.864577848219366e-09, 7.151094886618691e-09, 6.93379291760728e-09, 6.277058635835978e-09, 5.756882615060095e-09, 4.720026917463426e-09, 4.211605168317644e-09, 3.7907428899568434e-09, 3.715985741337209e-09, 3.3849296698918633e-09, 3.3101303624032405e-09], [3.582756095052475e-05, 1.5326934797828268e-05, 7.415624785801251e-06, 2.9797962964351902e-06, 3.1359312873269954e-06, 2.509681036668945e-06, 2.7991570530564545e-06, 2.6797378684112087e-06, 2.0833980695112508e-06, 1.5161353791199645e-06, 1.7847607790226314e-06, 1.6577442407091019e-06, 1.385852954507486e-06, 1.6602476738503138e-06, 1.1832445409203284e-06, 1.5388540834806406e-06, 1.1912737942353932e-06, 1.3014040546548336e-06, 1.1273989663283973e-06, 1.0971493838672774e-06, 1.0856118456149333e-06, 1.1459163367732577e-06, 1.2499335398692387e-06, 1.0531425679316192e-06, 1.0363200983604002e-06, 1.07040561349789e-06, 1.0071850098526414e-06, 1.0099252715706014e-06, 1.024251423053115e-06, 1.0085962643370208e-06], [7.618584398490686e-06, 1.79893856208461e-06, 5.54780369081224e-07, 2.6158665302015534e-07, 2.1727179652467996e-07, 1.6188494858700635e-07, 7.178872086418178e-08, 5.680568998892953e-08, 5.3938602680621813e-08, 3.2597813515167287e-08, 3.0061803120891826e-08, 2.681624664546696e-08, 1.8609885425272974e-08, 1.7784181712462133e-08, 1.4546334152025107e-08, 1.4128625025478031e-08, 1.1818588063761198e-08, 9.918488785842855e-09, 8.960546438174861e-09, 7.864577848219366e-09, 7.151094886618691e-09, 6.93379291760728e-09, 6.277058635835978e-09, 5.756882615060095e-09, 4.720026917463426e-09, 4.211605168317644e-09, 3.7907428899568434e-09, 3.715985741337209e-09, 3.3849296698918633e-09, 3.3101303624032405e-09], [7.618584398490686e-06, 1.79893856208461e-06, 5.54780369081224e-07, 2.6158665302015534e-07, 2.1727179652467996e-07, 1.6188494858700635e-07, 7.178872086418178e-08, 5.680568998892953e-08, 5.3938602680621813e-08, 3.2597813515167287e-08, 3.0061803120891826e-08, 2.681624664546696e-08, 1.8609885425272974e-08, 1.7784181712462133e-08, 1.4546334152025107e-08, 1.4128625025478031e-08, 1.1818588063761198e-08, 9.918488785842855e-09, 8.960546438174861e-09, 7.864577848219366e-09, 7.151094886618691e-09, 6.93379291760728e-09, 6.277058635835978e-09, 5.756882615060095e-09, 4.720026917463426e-09, 4.211605168317644e-09, 3.7907428899568434e-09, 3.715985741337209e-09, 3.3849296698918633e-09, 3.3101303624032405e-09], [2.952821109654197e-05, 1.9092229448443717e-05, 7.278308314190227e-06, 4.82474716107149e-06, 4.430978876742926e-06, 2.719350650993406e-06, 1.852134780835211e-06, 2.1282993112654603e-06, 1.6672224170602005e-06, 1.2205040759486592e-06, 1.2891997759919698e-06, 1.2258128382875355e-06, 1.0451818307753633e-06, 1.2899043815712232e-06, 1.1083183683050131e-06, 9.586119893665476e-07, 1.03841903636943e-06, 1.0149197128063493e-06, 1.0055508634799057e-06, 1.0197393693747989e-06, 8.53716443210829e-07, 8.503721359303885e-07, 8.984957692972966e-07, 9.131535677694217e-07, 8.675324957904925e-07, 7.936181545298523e-07, 7.963561970602866e-07, 7.796287916334169e-07, 7.931834588199833e-07, 7.692030063501755e-07], [7.618584398490686e-06, 1.79893856208461e-06, 5.54780369081224e-07, 2.6158665302015534e-07, 2.1727179652467996e-07, 1.6188494858700635e-07, 7.178872086418178e-08, 5.680568998892953e-08, 5.3938602680621813e-08, 3.2597813515167287e-08, 3.0061803120891826e-08, 2.681624664546696e-08, 1.8609885425272974e-08, 1.7784181712462133e-08, 1.4546334152025107e-08, 1.4128625025478031e-08, 1.1818588063761198e-08, 9.918488785842855e-09, 8.960546438174861e-09, 7.864577848219366e-09, 7.151094886618691e-09, 6.93379291760728e-09, 6.277058635835978e-09, 5.756882615060095e-09, 4.720026917463426e-09, 4.211605168317644e-09, 3.7907428899568434e-09, 3.715985741337209e-09, 3.3849296698918633e-09, 3.3101303624032405e-09], [8.251945449869425e-06, 1.8249476415722512e-06, 1.227445202674762e-06, 3.1207198955493356e-07, 5.02435183262776e-07, 1.4672448877117296e-06, 3.4199801579190007e-07, 1.6838099193332848e-07, 1.7567280348024385e-07, 2.8174599592698303e-07, 9.576907932427314e-08, 9.587371048165469e-08, 1.276823040442259e-07, 1.443852007763999e-07, 7.937143781942726e-08, 8.509392204899976e-08, 7.434287697599237e-08, 1.0437796240520224e-07, 7.731555044221065e-08, 7.319106088505623e-08, 8.707265760253693e-08, 1.1698211294162364e-07, 7.35310318411622e-08, 8.733477788509341e-08, 7.485419562362955e-08, 6.799122963031123e-08, 6.985924848605639e-08, 6.68997238328228e-08, 6.594654536462158e-08, 7.896725668805907e-08], [7.618584398490686e-06, 1.79893856208461e-06, 5.54780369081224e-07, 2.6158665302015534e-07, 2.1727179652467996e-07, 1.6188494858700635e-07, 7.178872086418178e-08, 5.680568998892953e-08, 5.3938602680621813e-08, 3.2597813515167287e-08, 3.0061803120891826e-08, 2.681624664546696e-08, 1.8609885425272974e-08, 1.7784181712462133e-08, 1.4546334152025107e-08, 1.4128625025478031e-08, 1.1818588063761198e-08, 9.918488785842855e-09, 8.960546438174861e-09, 7.864577848219366e-09, 7.151094886618691e-09, 6.93379291760728e-09, 6.277058635835978e-09, 5.756882615060095e-09, 4.720026917463426e-09, 4.211605168317644e-09, 3.7907428899568434e-09, 3.715985741337209e-09, 3.3849296698918633e-09, 3.3101303624032405e-09], [8.419917349822344e-06, 1.6433002026562925e-05, 4.761024866266638e-06, 7.355678024008208e-07, 9.955545772507765e-07, 3.444327137339977e-07, 5.671159031550698e-07, 3.0095176648258644e-07, 6.078948279867523e-07, 2.772126884876218e-07, 2.459236188005405e-07, 6.113762773668342e-07, 2.4583609656686124e-07, 2.3314923980420756e-07, 1.726698035804292e-07, 1.7231813643302687e-07, 2.532804483948002e-07, 2.2915515861801737e-07, 1.7127880318341427e-07, 1.5089536832488863e-07, 1.6770245300801627e-07, 1.8092156101062926e-07, 1.737760687684818e-07, 1.723322334963097e-07, 1.5608785402681586e-07, 1.5843134780683608e-07, 1.625599530666868e-07, 1.471264675348336e-07, 1.7620692259742874e-07, 1.6780963002391608e-07], [7.618584398490686e-06, 1.79893856208461e-06, 5.54780369081224e-07, 2.6158665302015534e-07, 2.1727179652467996e-07, 1.6188494858700635e-07, 7.178872086418178e-08, 5.680568998892953e-08, 5.3938602680621813e-08, 3.2597813515167287e-08, 3.0061803120891826e-08, 2.681624664546696e-08, 1.8609885425272974e-08, 1.7784181712462133e-08, 1.4546334152025107e-08, 1.4128625025478031e-08, 1.1818588063761198e-08, 9.918488785842855e-09, 8.960546438174861e-09, 7.864577848219366e-09, 7.151094886618691e-09, 6.93379291760728e-09, 6.277058635835978e-09, 5.756882615060095e-09, 4.720026917463426e-09, 4.211605168317644e-09, 3.7907428899568434e-09, 3.715985741337209e-09, 3.3849296698918633e-09, 3.3101303624032405e-09], [7.618584398490686e-06, 1.79893856208461e-06, 5.54780369081224e-07, 2.6158665302015534e-07, 2.1727179652467996e-07, 1.6188494858700635e-07, 7.178872086418178e-08, 5.680568998892953e-08, 5.3938602680621813e-08, 3.2597813515167287e-08, 3.0061803120891826e-08, 2.681624664546696e-08, 1.8609885425272974e-08, 1.7784181712462133e-08, 1.4546334152025107e-08, 1.4128625025478031e-08, 1.1818588063761198e-08, 9.918488785842855e-09, 8.960546438174861e-09, 7.864577848219366e-09, 7.151094886618691e-09, 6.93379291760728e-09, 6.277058635835978e-09, 5.756882615060095e-09, 4.720026917463426e-09, 4.211605168317644e-09, 3.7907428899568434e-09, 3.715985741337209e-09, 3.3849296698918633e-09, 3.3101303624032405e-09], [7.618584398490686e-06, 1.79893856208461e-06, 5.54780369081224e-07, 2.6158665302015534e-07, 2.1727179652467996e-07, 1.6188494858700635e-07, 7.178872086418178e-08, 5.680568998892953e-08, 5.3938602680621813e-08, 3.2597813515167287e-08, 3.0061803120891826e-08, 2.681624664546696e-08, 1.8609885425272974e-08, 1.7784181712462133e-08, 1.4546334152025107e-08, 1.4128625025478031e-08, 1.1818588063761198e-08, 9.918488785842855e-09, 8.960546438174861e-09, 7.864577848219366e-09, 7.151094886618691e-09, 6.93379291760728e-09, 6.277058635835978e-09, 5.756882615060095e-09, 4.720026917463426e-09, 4.211605168317644e-09, 3.7907428899568434e-09, 3.715985741337209e-09, 3.3849296698918633e-09, 3.3101303624032405e-09], [7.618584398490686e-06, 1.79893856208461e-06, 5.54780369081224e-07, 2.6158665302015534e-07, 2.1727179652467996e-07, 1.6188494858700635e-07, 7.178872086418178e-08, 5.680568998892953e-08, 5.3938602680621813e-08, 3.2597813515167287e-08, 3.0061803120891826e-08, 2.681624664546696e-08, 1.8609885425272974e-08, 1.7784181712462133e-08, 1.4546334152025107e-08, 1.4128625025478031e-08, 1.1818588063761198e-08, 9.918488785842855e-09, 8.960546438174861e-09, 7.864577848219366e-09, 7.151094886618691e-09, 6.93379291760728e-09, 6.277058635835978e-09, 5.756882615060095e-09, 4.720026917463426e-09, 4.211605168317644e-09, 3.7907428899568434e-09, 3.715985741337209e-09, 3.3849296698918633e-09, 3.3101303624032405e-09], [3.1426012376738306e-05, 2.155819066175116e-05, 1.1136563112039777e-05, 6.388943231770614e-06, 8.29304081439654e-06, 4.310749049147015e-06, 3.2709707896754346e-06, 2.485750351867784e-06, 3.1906010013607765e-06, 2.4578100787921193e-06, 1.7470408815131227e-06, 1.434041511538063e-06, 1.4454331916233457e-06, 1.529452619728928e-06, 1.382951321645015e-06, 1.4066639030693399e-06, 1.7188747608952159e-06, 1.3285487892814704e-06, 1.1472377304559615e-06, 1.1320706925600236e-06, 1.1118521599230636e-06, 1.1181788807269107e-06, 1.068763984288335e-06, 1.059162548125878e-06, 1.084748654777909e-06, 1.067760466732388e-06, 1.0667170892666527e-06, 1.0892158324582113e-06, 1.006647655184123e-06, 1.0139526462403216e-06], [7.618584398490686e-06, 1.79893856208461e-06, 5.54780369081224e-07, 2.6158665302015534e-07, 2.1727179652467996e-07, 1.6188494858700635e-07, 7.178872086418178e-08, 5.680568998892953e-08, 5.3938602680621813e-08, 3.2597813515167287e-08, 3.0061803120891826e-08, 2.681624664546696e-08, 1.8609885425272974e-08, 1.7784181712462133e-08, 1.4546334152025107e-08, 1.4128625025478031e-08, 1.1818588063761198e-08, 9.918488785842855e-09, 8.960546438174861e-09, 7.864577848219366e-09, 7.151094886618691e-09, 6.93379291760728e-09, 6.277058635835978e-09, 5.756882615060095e-09, 4.720026917463426e-09, 4.211605168317644e-09, 3.7907428899568434e-09, 3.715985741337209e-09, 3.3849296698918633e-09, 3.3101303624032405e-09], [1.3549585163358607e-05, 1.9802062015715786e-05, 1.0404685592145103e-05, 2.8593076679670468e-06, 3.569192374661872e-06, 2.361362371572148e-06, 2.50009027836758e-06, 3.130040687860785e-06, 2.815714578507354e-06, 1.542378641181868e-06, 1.9959660250763536e-06, 1.3963014591410509e-06, 1.4641217880932218e-06, 1.3728809904248426e-06, 1.3980291647023634e-06, 1.4832298533195216e-06, 1.2616535115507833e-06, 1.2303368562057703e-06, 1.116920432069363e-06, 1.1253645228782695e-06, 1.1329051212862777e-06, 1.1478237178535003e-06, 1.2302095556919306e-06, 1.0406622138757362e-06, 1.062303273306608e-06, 1.125369231673345e-06, 1.0336781263657895e-06, 1.051490278513367e-06, 1.019616305320376e-06, 1.0261988821617327e-06], [7.618584398490686e-06, 1.79893856208461e-06, 5.54780369081224e-07, 2.6158665302015534e-07, 2.1727179652467996e-07, 1.6188494858700635e-07, 7.178872086418178e-08, 5.680568998892953e-08, 5.3938602680621813e-08, 3.2597813515167287e-08, 3.0061803120891826e-08, 2.681624664546696e-08, 1.8609885425272974e-08, 1.7784181712462133e-08, 1.4546334152025107e-08, 1.4128625025478031e-08, 1.1818588063761198e-08, 9.918488785842855e-09, 8.960546438174861e-09, 7.864577848219366e-09, 7.151094886618691e-09, 6.93379291760728e-09, 6.277058635835978e-09, 5.756882615060095e-09, 4.720026917463426e-09, 4.211605168317644e-09, 3.7907428899568434e-09, 3.715985741337209e-09, 3.3849296698918633e-09, 3.3101303624032405e-09], [7.618584398490686e-06, 1.79893856208461e-06, 5.54780369081224e-07, 2.6158665302015534e-07, 2.1727179652467996e-07, 1.6188494858700635e-07, 7.178872086418178e-08, 5.680568998892953e-08, 5.3938602680621813e-08, 3.2597813515167287e-08, 3.0061803120891826e-08, 2.681624664546696e-08, 1.8609885425272974e-08, 1.7784181712462133e-08, 1.4546334152025107e-08, 1.4128625025478031e-08, 1.1818588063761198e-08, 9.918488785842855e-09, 8.960546438174861e-09, 7.864577848219366e-09, 7.151094886618691e-09, 6.93379291760728e-09, 6.277058635835978e-09, 5.756882615060095e-09, 4.720026917463426e-09, 4.211605168317644e-09, 3.7907428899568434e-09, 3.715985741337209e-09, 3.3849296698918633e-09, 3.3101303624032405e-09], [7.345596100318184e-06, 2.708278140466038e-06, 8.043733114975164e-07, 4.350690249378585e-07, 3.5275665457727765e-07, 6.55250540052114e-07, 1.326936464828652e-07, 1.2325263610687634e-07, 1.1308793558097692e-07, 9.369785890152885e-08, 9.54314061380469e-08, 8.940961367534705e-08, 9.047393768546466e-08, 9.946976065169572e-08, 7.736185828774288e-08, 1.0547515507022971e-07, 7.55976310105345e-08, 7.550890486722608e-08, 7.189505075295667e-08, 7.038505161227236e-08, 8.761992028441515e-08, 7.333803085545163e-08, 6.848039669798263e-08, 7.696799641435817e-08, 6.921009513415534e-08, 6.992637087940618e-08, 7.09666763009352e-08, 6.698025969518037e-08, 6.637954327907303e-08, 6.605576993034609e-08], [3.785505466005027e-05, 3.0203555755654125e-05, 6.3283683979720345e-06, 3.1790493651267587e-06, 4.723139905040121e-06, 2.8619686176584604e-06, 2.8145732709148413e-06, 3.923079160099613e-06, 2.10264518500677e-06, 1.6023229131515154e-06, 1.7683128008208888e-06, 1.8362469149327065e-06, 1.668917371908156e-06, 1.64789652847265e-06, 1.2667788888308584e-06, 1.1909130428182611e-06, 1.2969612882145596e-06, 1.1786543268419524e-06, 1.118728362136094e-06, 1.2236710655110027e-06, 1.0846677220890774e-06, 1.130134766766539e-06, 1.159662671455126e-06, 1.09427112672696e-06, 1.0337899800487919e-06, 1.0608838853257612e-06, 9.926171059743673e-07, 1.0682069404939589e-06, 1.0030114089331072e-06, 1.0057320969215104e-06], [8.1588127551086e-06, 4.887668373958157e-06, 8.015632031094924e-07, 4.6201447286543523e-07, 2.7890867660900834e-07, 5.617189780335742e-07, 1.655694194356504e-07, 1.6878996472393282e-07, 1.5381326056861212e-07, 1.1002626324397927e-07, 1.0364497357297861e-07, 1.1158073853080954e-07, 1.8500273247002715e-07, 9.349179569146537e-08, 8.403623724701686e-08, 7.8290677268302e-08, 7.501983012731182e-08, 1.2261547397594555e-07, 7.0773504460605e-08, 9.695958285472498e-08, 7.582978179518754e-08, 1.0433303749908727e-07, 6.85599352093717e-08, 6.901170265981396e-08, 6.808840586968708e-08, 6.661849365641562e-08, 8.646929435884192e-08, 6.712997804152527e-08, 6.808447090666576e-08, 6.558012344366791e-08], [7.618584398490686e-06, 1.79893856208461e-06, 5.54780369081224e-07, 2.6158665302015534e-07, 2.1727179652467996e-07, 1.6188494858700635e-07, 7.178872086418178e-08, 5.680568998892953e-08, 5.3938602680621813e-08, 3.2597813515167287e-08, 3.0061803120891826e-08, 2.681624664546696e-08, 1.8609885425272974e-08, 1.7784181712462133e-08, 1.4546334152025107e-08, 1.4128625025478031e-08, 1.1818588063761198e-08, 9.918488785842855e-09, 8.960546438174861e-09, 7.864577848219366e-09, 7.151094886618691e-09, 6.93379291760728e-09, 6.277058635835978e-09, 5.756882615060095e-09, 4.720026917463426e-09, 4.211605168317644e-09, 3.7907428899568434e-09, 3.715985741337209e-09, 3.3849296698918633e-09, 3.3101303624032405e-09], [7.618584398490686e-06, 1.79893856208461e-06, 5.54780369081224e-07, 2.6158665302015534e-07, 2.1727179652467996e-07, 1.6188494858700635e-07, 7.178872086418178e-08, 5.680568998892953e-08, 5.3938602680621813e-08, 3.2597813515167287e-08, 3.0061803120891826e-08, 2.681624664546696e-08, 1.8609885425272974e-08, 1.7784181712462133e-08, 1.4546334152025107e-08, 1.4128625025478031e-08, 1.1818588063761198e-08, 9.918488785842855e-09, 8.960546438174861e-09, 7.864577848219366e-09, 7.151094886618691e-09, 6.93379291760728e-09, 6.277058635835978e-09, 5.756882615060095e-09, 