{"timestamp_utc": "2026-03-06T16:54:07+00:00", "case_id": "elephant_7_high_small_7", "bgmm_weights": [0.014141331576247295, 0.024562338666113483, 9.996936427213522e-05, 0.015170307762709277, 0.012252622949829465, 9.99377102375596e-05, 0.0003997080550095216, 0.005082616628989822, 0.008294506845768736, 0.026373917213233813, 0.030115326077077547, 0.018304719251775205, 0.04539851370919623, 0.003734745144939373, 9.983519919880771e-05, 0.008117646152940687, 0.00388398227620998, 0.006812662333350838, 0.00952679991492046, 9.977153590925427e-05, 0.0103557885367173, 0.005733906720579416, 0.05619878669839763, 0.17257731809788673, 0.0008972040917112024, 0.015166211513605421, 0.0028830456678034778, 0.014115701729434028, 0.010418633588934691, 9.959948114144234e-05, 0.015617687273576755, 0.00039786365253644603, 0.011285554756045958, 0.031682483442236176, 0.019722155765300897, 0.031159385529846057, 0.01694585406909073, 9.94108843222638e-05, 9.938282264792514e-05, 0.0008932878860498332, 0.010391120615898905, 9.929770970980997e-05, 0.009799566605008523, 9.923898693036556e-05, 0.02485098198539099, 0.002172283404815507, 0.0022356071642539196, 0.06782031595606236, 0.009570803463464098, 0.007973707372671826, 0.01991889792483793, 9.893095557045423e-05, 0.0004943995186042642, 0.0004940148976858426, 0.025723645025385284, 0.0005914587461704022, 0.00029599175417229943, 0.0005909880863274478, 0.007859848246590402, 9.848940714270513e-05, 0.010035909872541387, 0.02285120421240588, 9.828805765313813e-05, 9.821199804915343e-05, 9.813599730342166e-05, 0.009889972685839096, 0.007038460386559507, 0.023816640755762945, 9.777912562546804e-05, 9.766791921373016e-05, 9.75568392795603e-05, 0.016759964295516565, 9.730830183301313e-05, 0.027348469663446614, 0.0084803048572374, 9.665977312089907e-05, 0.011928025575255546, 0.002992830930957937, 0.01797555553401414, 9.448158974470784e-07], "bgmm_means": [[0.16315154546221505, -0.05406306338187041, 0.015409082026249913, 0.012392483332414947, 0.05913692094844036, 0.004473555238012627, -0.03598036383212355, 0.007887562582195624, 0.023601444333432295, -0.0029896759767952157, -0.0025785464951098543, 0.011482894907515206, 0.0006601980966532383, 0.003426005420417021, -0.007759467791553512, 0.0018171936379929865, -0.0004912183353540845, 0.007129751268174105, 0.011058662493578623, 0.0066114792226019395, 0.0016310593502772695, 0.010390839276449322, -0.0056302394677538075, 0.0006175420264526744, 0.0066863187264739115, -0.0038217676396293267, -0.0012588985266591044, 0.0016992771477069013, -0.0027367690945600165, -0.0006576504470318467], [0.04636758491110344, -0.07259943760788146, 0.023350514026721756, 0.04223888398253691, 0.004607036646004819, -0.010242124927082137, 0.003251893309794371, 0.004365521900913456, 0.0320464355881668, 0.005017785774677963, 0.0003716738593389694, -0.00017281568935663364, -0.01184194521304522, -0.009908436046179107, 0.0010781309943445326, 0.00829295617765826, -0.004019814018769472, 0.007464784876166075, -0.004142158649729481, -0.00279152300364831, 0.006854741218406839, 0.0020485735139555237, -0.004477163073543127, -0.002761502093286756, -0.0024809264725397457, -0.0007258586143332806, -0.009969094386727115, -0.002018034136898256, 0.005027811908067353, -9.136416905041692e-05], [-8.388608563336656e-08, -2.9645859100924033e-09, 2.0751357965309534e-08, 4.654657104197202e-08, 2.121534237176088e-08, -2.352222772117324e-08, 4.315674217991718e-08, -8.197501344397988e-09, -2.6956479715067812e-08, -5.039572759102373e-09, 1.642159119796812e-08, -5.6055373676144756e-08, 1.5391037333500855e-09, 1.561846652009532e-08, 9.657907895643781e-08, 4.3123680626422263e-08, 2.2817403522168382e-10, -5.222661414450146e-08, 5.228435639992301e-08, 2.3065135579258772e-08, -9.988919202896773e-08, 1.7416407871451116e-08, 2.5106944079311632e-08, -1.230277124619758e-08, 2.898746132018453e-08, -2.0830844604802177e-08, 6.670486385473836e-08, 2.0357500574164032e-08, -9.61394963638893e-09, 3.748037968875897e-08], [0.17002559959953628, 0.050066404937836616, -0.0386712507089827, -0.03335942580406338, -0.03158039524663493, 0.018772660249331607, -0.026801482327277363, -0.010700468757386403, -0.030968627230869607, 0.008755567556775581, 0.01506997540426735, -0.006560434261099877, -0.0009529865215579535, 0.004646155992974626, 0.012926041440973212, 0.004227031390863843, 0.007107604789411398, 0.000960311125495961, -0.0036249088635848287, 0.003055926898265502, -0.0038885935828362112, 0.0027744736026529856, -0.0009358995172216105, -0.0050705356831001564, -0.0016650320344489546, -0.0015780927552045613, -0.00963957474414716, 0.00023768324653256168, 0.006610045730168595, 0.006556841038598318], [-0.12939515943754343, -0.15889617273025264, 0.029959601280216384, -0.02324051481300594, -0.03518098553332814, -0.013378891723483879, -0.01603401478778887, 0.02733732277630134, -0.045236392925557777, -0.004742624544793028, 0.011217895027449494, -0.009550272129920299, -0.0026788479724290724, 0.014347826080734215, 0.0064718176735044704, -0.004573092678102063, -0.016051534574342295, -0.009640861804002518, -0.0032528289656301636, 0.013957033232013225, -0.008653125265689633, -0.009221259537112019, 0.0010380618196839822, -0.005005060857914411, 0.009163181781344816, -0.00023628943028973945, 0.0007871614414101265, 0.004083590511237954, -0.007233999007621831, -0.021657145101896553], [-8.388608563336656e-08, -2.9645859100924033e-09, 2.0751357965309534e-08, 4.654657104197202e-08, 2.121534237176088e-08, -2.352222772117324e-08, 4.315674217991718e-08, -8.197501344397988e-09, -2.6956479715067812e-08, -5.039572759102373e-09, 1.642159119796812e-08, -5.6055373676144756e-08, 1.5391037333500855e-09, 1.561846652009532e-08, 9.657907895643781e-08, 4.3123680626422263e-08, 2.2817403522168382e-10, -5.222661414450146e-08, 5.228435639992301e-08, 2.3065135579258772e-08, -9.988919202896773e-08, 1.7416407871451116e-08, 2.5106944079311632e-08, -1.230277124619758e-08, 2.898746132018453e-08, -2.0830844604802177e-08, 6.670486385473836e-08, 2.0357500574164032e-08, -9.61394963638893e-09, 3.748037968875897e-08], [0.0016452238236709883, 0.04659232040146547, -0.005670102353599517, -0.020836444554134113, -0.06167611684737048, 0.010151429263795374, 0.034021638815038106, -0.0015531448022803622, 0.026967352918348605, -0.014915292429234946, -0.021732854707599423, 0.002589743123297671, -0.008335410319944492, -0.006883479933470155, 0.006497043317553569, -0.01704062835958913, -0.0026371097751789144, -0.00011636213029370854, -0.009631548247393219, 0.0016764717297666504, 0.004244744131717263, -0.008847437382285786, -0.009796508110147378, 0.007471827260634127, -0.0037421206999379178, -0.00821605658489759, -0.014110957806755352, -0.001911369862941175, 0.0027253998931335214, -0.006262157283303485], [0.07671572895067312, 0.03771851480138266, 0.0722252202709629, 0.08596915312061859, -0.0021174519839893837, 0.044517976073285434, -0.03307295650980044, -0.03786447617513459, -0.012611086229431107, -0.016614522599313144, 0.005161942637578451, -0.0204913215433648, -0.002151055337245516, -0.020376385685735507, -0.007749474449831865, 0.012993238963283785, -0.01517258873130686, -0.016520189538959007, 0.005519439261074264, -0.0022703661793116395, 0.006988923306446103, -0.010605685614862886, -0.006679453402607895, -0.0018344931115332746, 0.002694519619684993, -0.003586330913008053, -0.008210972623892497, -0.009673541046730565, -0.004393385324784696, 0.003635386276515721], [0.03655336515181016, -0.1391601817116561, 0.0006092599774008891, -0.01912581868233973, 0.026562385149583347, -0.027963035414112405, 0.016695702242591193, 0.007128250575661923, 0.024817910922677305, 0.013514991594174696, 0.029443994869137357, 0.0030942711189175646, -0.0079955384870737, 0.017135355010865536, -0.007643967585075647, 0.008265822942019265, 0.0006151679470774563, 0.006430160982271199, 0.010730957368169472, -0.007828575347443873, -0.000656355358314424, -0.00020674389834340065, 0.004249176422425048, 0.012785271733541244, -0.009168660171553109, 0.003369515658976079, -0.0038296644353239787, 0.00411982873787322, 0.0008668482669225174, 0.0035120915044880327], [-0.02972055219559338, -0.002990454237752955, -0.0981223178025965, 0.007716969531002169, 0.00527209933707918, 0.037029665243267444, 0.03196710821051361, -0.014524262005288117, 0.009200239552558378, 0.005050536026255047, 0.014315228507141535, 0.00896713754946731, 0.009223307027875799, 0.0033923323212891243, -0.018230922209021297, -0.009400273933207965, 0.007685055579018291, -0.009611275216257983, -0.014784170988085737, -0.0004197741352480557, 0.0071511131660974316, 0.007020232672328558, 0.0011658790334257568, -0.0005200003427562293, 0.006944467551215722, -0.0042205066454802384, -0.0003643790266535305, -0.0006872240941943065, -0.00339928384692012, -0.008862130330044213], [0.07861773997823801, 0.08906301960449789, -0.015197805666347194, 0.020103048292409335, -0.026735688450113787, -0.05265299826085781, 0.013613276156360732, 0.00481188054014593, -0.02795899990425108, -0.006832570775970511, 0.010871573493564133, -0.001187262716305134, -0.007456643018697101, -0.005584369691989389, -0.004403789367445627, 0.008036478164315233, 0.0024294570429431155, 0.010898195630108114, 0.004927830042633878, 0.004348049743933399, 0.015468594057731554, -0.0093821931942701, -0.0025779726161880663, 0.009480626225111453, -0.0011213971553976645, -0.0009152146145582165, 0.0024616580519954967, 0.0058328947038801555, -0.004334961168826217, -0.00044595943782010846], [0.12362287194288239, -0.005922098065871027, 0.03862940739762437, -0.042316730518376325, 0.012565998774250044, 0.032761325631678724, 0.011003281921413114, 0.004501242967627178, -0.0034445309832719425, 0.0019553362812564376, -0.022324098048373753, -0.019705985041209486, 0.018979079426105376, -0.010804370460099142, 0.0016894532262765169, -0.007149193120542064, -0.006640225352015921, 0.011182010542705572, 0.006573162513351411, -0.01319137681732659, -0.011699339783955574, -0.003267567246193243, 0.00466316210141502, 0.009588025359528839, 0.013773124658474106, 0.008552294567396132, 0.002826932726359048, -0.004115776092802819, 0.00411268289917451, -0.002047442992138182], [0.15120052742202533, 0.04190575282085388, -0.01082441400879099, 0.02864834586640696, 0.019731415632220015, 0.020992375371312932, -0.01042000489310715, 0.025566183236028932, -0.0029993261777228925, 0.0071453536608741776, -0.01460734254521096, 0.00644721270807036, -0.002019598594914939, 0.0016444939287215698, 0.007996082101517572, 0.0029550183564038364, -0.001405456767937925, -0.0037732414588446555, 0.0033454208303851686, 0.0030038876973422046, 0.006304919547112732, -0.006790605581332678, 0.002629454827684142, -0.006719713590442528, -0.0010476507917611926, -0.002273708175506158, 0.0009919410950908953, 0.004410017838239249, -0.0006853666000544484, -0.005408725931678215], [-0.04996231945789873, 0.12568897859148095, 0.06462657048004339, 0.03991697909459296, 9.400159307180686e-05, -0.10408292653565654, -0.011359248306268756, -0.00858837775913725, -0.016736005936107252, -0.00024503628674633497, 0.018493383294870498, -0.0016500321601487385, -0.008228473791791988, 0.00893014442814799, -0.02845664952637705, -0.023011310628768284, 0.0045737650668573925, 0.013618867232120076, -0.005725169449029672, -0.0216387267837049, 0.019677036287873133, -0.0032852616915487057, 0.017907710298314426, 0.00183933350802712, 0.00831509368538752, -0.005668829746016469, -0.0019195403208966742, 0.006232484850855808, -0.004547524602111289, -0.006833021645445943], [-8.388608563336656e-08, -2.9645859100924033e-09, 2.0751357965309534e-08, 4.654657104197202e-08, 2.121534237176088e-08, -2.352222772117324e-08, 4.315674217991718e-08, -8.197501344397988e-09, -2.6956479715067812e-08, -5.039572759102373e-09, 1.642159119796812e-08, -5.6055373676144756e-08, 1.5391037333500855e-09, 1.561846652009532e-08, 9.657907895643781e-08, 4.3123680626422263e-08, 2.2817403522168382e-10, -5.222661414450146e-08, 5.228435639992301e-08, 2.3065135579258772e-08, -9.988919202896773e-08, 1.7416407871451116e-08, 2.5106944079311632e-08, -1.230277124619758e-08, 2.898746132018453e-08, -2.0830844604802177e-08, 6.670486385473836e-08, 2.0357500574164032e-08, -9.61394963638893e-09, 3.748037968875897e-08], [-0.13512569736010088, -0.03553932531947891, 0.13363128094598267, -0.06168127462288611, -0.02546002120850245, 0.06510840932611733, 0.008006743987495622, -0.013699304652067642, -0.018822073611663576, 0.0024815759839707735, -0.015858192586233864, 0.009355092307091308, 0.018335128746973604, 0.014862655195090045, -0.007892544038752222, -0.0007994352054080944, 0.018670058153887847, 0.006131302823319047, 0.0003069390328743198, 0.016704393324778372, 0.01442318561833459, 0.00607834456377928, -0.002907002047749127, -0.0012590090910702557, -0.015347647264877107, -0.0021350480743717224, 0.0052975753501279185, 0.009490611109680712, -0.018602616902873646, -0.005337384362380484], [0.10603837862734024, 0.001991602024082444, -0.030098725015603952, -0.05478069628420912, -0.062406708078276855, -0.03747999136305256, -0.007471488935844179, -0.04066283657754888, -0.006649448564612498, -0.011744144443041213, -0.011688453755319317, -0.012657317157283469, 0.002115209052551525, -0.008588540698548027, 0.005689890184782444, 0.0179799281272713, 0.00801856166566299, -0.0030518350939731727, -0.004275686077894485, -0.004607699402940483, -0.01365683071560226, 0.014578429260567573, 0.0005478290902253229, 0.0024903030202595997, 0.0004932822146866967, 0.0026344121569947523, 0.0005505803448093042, -0.002352107177299738, -0.0009593932552757083, -0.004113566861504728], [-0.09974783783681815, -0.039837149221060825, 0.027417820264241652, 0.0651704295909603, -0.04160832098375102, -0.002204648868252697, -0.034909225135665044, 0.009609051447035711, 0.0005184361559226729, 0.027879462836015164, -0.022697663071527287, -0.003124822398042094, -0.016783305372703373, 0.008467412980889115, -0.009833313935626477, 0.00349761279802864, -0.009897536863363367, 0.005369798719500996, -0.025481868241858455, -0.001122352871431907, -0.007266758272635564, 0.0019945566458889757, -0.0027006787264873574, 0.005002349415732983, -0.0015651835737361306, 0.010554817982389088, -0.0007481757611548926, -0.009073250112431758, 0.001764826399670745, 0.007676796886774298], [0.10789437699084907, -0.04895257368149824, 0.04749015099529609, 0.05481246648483661, 0.0464288391985617, 0.03648185933142123, -0.00598472441386866, -0.012919137187606306, 0.012496267046663775, -0.023530384831998506, 0.02019889557120808, -0.01304919872172642, 0.0024330188339360703, -0.008534324155517163, 0.010040502058597259, -0.0034105751084337957, 0.005658600725822779, 0.0005403840430056423, 0.00727412816411222, -0.0007440161251806589, 0.006348621535677605, -0.0019703722710841007, -0.010027007914400659, 0.0016043084049544537, 0.00220114987758798, -0.005403529861874033, -0.002582348515442503, -0.00655744761163957, 0.0035428139750932667, 0.004583518809291601], [-8.388608563336656e-08, -2.9645859100924033e-09, 2.0751357965309534e-08, 4.654657104197202e-08, 2.121534237176088e-08, -2.352222772117324e-08, 4.315674217991718e-08, -8.197501344397988e-09, -2.6956479715067812e-08, -5.039572759102373e-09, 1.642159119796812e-08, -5.6055373676144756e-08, 1.5391037333500855e-09, 1.561846652009532e-08, 9.657907895643781e-08, 4.3123680626422263e-08, 2.2817403522168382e-10, -5.222661414450146e-08, 5.228435639992301e-08, 2.3065135579258772e-08, -9.988919202896773e-08, 1.7416407871451116e-08, 2.5106944079311632e-08, -1.230277124619758e-08, 2.898746132018453e-08, -2.0830844604802177e-08, 6.670486385473836e-08, 2.0357500574164032e-08, -9.61394963638893e-09, 3.748037968875897e-08], [0.10913207745021711, -0.11111576269054635, 0.008447931441515705, -0.01891098530441189, 0.04652840527980621, -0.015326466179279777, -0.005670363171818233, 0.0019384216907747055, 0.04465343833962118, -0.004026976897679048, 0.016364557620088878, 0.0074908466612411, -0.00981738470867021, 0.008286898256934178, -0.0017962466040203932, -0.007700328813097165, 0.01776985625770736, 0.007871923645971555, 0.009957397092799294, 5.352333932897601e-05, -0.002910056418799619, 0.004603417685109749, -0.007472842676270455, 0.009451142304994303, -0.006493155239801843, 0.006032782394963564, 0.0010569247368234858, 0.0019625221171971513, 9.701044291886827e-05, -0.004520199928866456], [-0.029722025047805772, -0.11156961211228159, -0.023379606995134652, -0.020127178257195302, -0.026605254267509225, -0.026529434641633452, 0.02876132919288903, -0.019703140122886917, 0.013228584620509904, 0.018279837018101774, 0.015978105575689686, 0.010981932432631056, 0.006678286471189125, 0.008181115765641924, -0.005824184027053659, 0.007296687179829705, -0.012730049516616609, -0.007137627855562395, 0.006173132864057798, -0.01504616722519817, 0.001392909943381096, -0.010349135965738838, 0.00479934401417076, -0.009039709215587869, 0.002735796736253977, -0.0031470932539833176, -0.007909864734438, 0.004667869721095926, 0.0030389033973631675, 0.007660948908964052], [0.08451579202244627, 0.027880673880083313, -0.02441588105179538, 0.002320830081279558, -0.02918406395100975, 0.01832476050948848, 0.025887405827646, -0.009321583051855604, 0.00893015746652044, -0.00870054127112959, -0.0013730246195068087, -0.002338625993308026, 0.008394240802005768, 0.0032735443930433073, 0.017883494991577552, -0.003619622475601234, -0.003418723157540587, 0.0055110460314866305, -0.009283024542713052, -0.006644490613159193, 0.00031774679398036186, -0.0008061817237473006, 0.0012223191237059265, -0.002028685698702536, -0.007036058844910518, 0.002661359711589329, 0.0023026355164693702, 0.0008328490603682144, -0.0007692762750270327, -0.005533351128349708], [-0.05844751342345843, 0.05021870425846706, 0.024157038058473072, 0.015612683770835878, -0.0004133438111087736, -0.014412656965544316, 0.02133411359296044, 0.00861299962405786, 0.0007158207057055338, 0.00863084984382898, -0.0016616126094365757, 0.0036179674049867903, 0.002861237762644526, -0.0019554880949154154, -0.0009034637899973271, -0.004381778741792068, -0.0007352926820558967, -0.003817229346162841, -0.0028594757573041376, -1.6221067725312554e-05, -0.001437378684002212, 0.0019826004844314907, -0.0014205290381915335, 0.003951473322277555, -0.000203588342490809, 0.0007435023295525525, 0.0004887924261473698, 8.386914470715492e-05, -0.0009271954304698753, 0.002330076213623362], [0.016156814868855226, -0.016770309900424468, 0.09849165136847839, 0.06430111094330056, -0.02651461686057713, 0.05586280124183206, -0.04238214230529874, -0.036910893746392774, 0.03382199892911958, -0.005497026378073513, 0.014650229160148007, -0.025989642408554912, 0.0007590697999145171, -0.025437519507057263, 0.0033381376770015036, -0.004496189448493675, -0.009051379442914799, -0.012701868581146747, 0.006219489224414841, 0.007500489322610382, 0.009969515909141623, -0.00030584345351258467, -0.006101737974227553, -0.0010237638754789947, -0.003329221342122727, -0.00028358162626292583, -0.004487177769767954, -0.01708481741741048, 0.00016715260934569746, 0.0017085809457475405], [0.1461490153156371, 0.006556262410980606, -0.03929695579658084, -0.0712245074122699, -0.03241346606562496, -0.052788521179156785, -0.02584180079405812, -0.00948843705766755, -0.005959325232776112, -0.00575436054090589, -0.014273370809498373, 0.011336410188973063, -0.01694136018115408, -0.007422507367243147, -0.008209492728018726, 0.0021397459251573533, 0.01815795224456727, -0.0006302056209091594, -0.00814326561434704, 0.020333431451463286, -0.0026149612329875098, 0.00197708198576006, 0.003176722764730649, 0.00325873876749845, -0.008246684668714453, -0.0013281779161121196, 0.003506540165216456, -0.007473877168606656, 0.00303096212469543, 0.0029014102042505593], [-0.21388995767610117, -0.12841865454574047, -0.06645752521341541, -0.005519170025360697, 0.002284902629351797, -0.00620701446568311, -0.07162184519682478, 0.05752650961715795, -0.05064969434617065, -0.03448920807620149, 0.00642323536307593, 0.01392955625128475, -0.023700049209129607, -0.02136753540289367, 0.029164573394703432, -0.010452743351486427, -0.010034094848943877, -0.0005542688509239617, 0.005338199357409842, -0.03917103565309659, 0.001515023517470861, 0.009582277994282443, 0.0028137874440297465, 0.00849196770746957, -0.006426470242313775, -0.014663408803554257, 0.012158572661484745, 0.014324373784862569, 0.007786035550828786, -0.00644713606408312], [-0.06560757992632449, -0.15319852442150084, -0.002475414602366385, -0.016885933376945564, -0.01481781389955331, -0.02554916356650263, 0.010608571650212279, 0.009066425620484713, -0.006730781672897873, 0.018772097647818044, 0.020232016744055895, -0.006218424337850062, -0.004279332661649851, 0.011472411544921391, 0.00017878210557153602, 0.007984170388887433, -0.012268065298215391, -0.009788712736255107, -0.0019997097207207206, 0.003638719576456923, -0.00486339143951686, -0.0195511202073946, 0.00652006728808175, 0.006253217992994841, 0.0022503471322122613, 0.005268564469187961, -0.0033262310414006527, 0.017575483887726947, 0.0028913248312568527, -0.0005527225598010996], [0.19385064378604383, 0.012166747269632055, 0.002594996589579115, 0.03300069227185568, 0.057999451066955816, 0.035910917036951866, -0.048340331436641105, -0.00111751331527588, -0.01011120087076079, -0.0005659188755189461, -0.008274569995524976, 0.004006598590605381, 0.008368876275449999, 0.005821583283817962, -0.0007956778080120586, -0.0005793398572882624, -0.011533658497013833, -0.007632896100643886, 0.004597315340367565, 0.002280664544325942, 0.005914732538616994, -0.00730924945748475, -0.003966421712118779, -0.006370656766441084, 0.0088061825251135, -0.00029230881107676556, -0.004530690098213102, 0.00018222887867440108, 0.00033449886982959547, 0.0011204714298871672], [-8.388608563336656e-08, -2.9645859100924033e-09, 2.0751357965309534e-08, 4.654657104197202e-08, 2.121534237176088e-08, -2.352222772117324e-08, 4.315674217991718e-08, -8.197501344397988e-09, -2.6956479715067812e-08, -5.039572759102373e-09, 1.642159119796812e-08, -5.6055373676144756e-08, 1.5391037333500855e-09, 1.561846652009532e-08, 9.657907895643781e-08, 4.3123680626422263e-08, 2.2817403522168382e-10, -5.222661414450146e-08, 5.228435639992301e-08, 2.3065135579258772e-08, -9.988919202896773e-08, 1.7416407871451116e-08, 2.5106944079311632e-08, -1.230277124619758e-08, 2.898746132018453e-08, -2.0830844604802177e-08, 6.670486385473836e-08, 2.0357500574164032e-08, -9.61394963638893e-09, 3.748037968875897e-08], [0.13334267650447124, 0.04034689702886423, -0.04312930434832196, -0.07573599247387264, -0.06991584216483546, -0.009010672818703365, -0.02936121940169816, -0.023234661322855236, -0.019911992258255278, 0.009225131928422529, 0.01345021409332988, -0.007378116862021368, -0.009896558096250226, -0.0060159109125203685, 0.003626853810133122, 0.005723404854451274, 0.017118170839635148, 0.0007745319203387349, -0.008343416627186368, 0.005112737445043596, -0.005771023193555581, 0.00926477847847714, -0.0006913501968238884, 0.003408004850330998, -0.00801577118904157, -0.00510107884880537, -0.008834708172107356, -0.006784454950370987, 0.006990385919705682, 0.00380352353950173], [-0.023107823064017045, -0.07595553535229352, 0.05046451475821874, 0.015703200991148997, -0.03464372938418473, -0.008586893254309601, -0.015208917574448621, 0.004852226046515878, 0.01299152379930499, 0.013023229826607254, 0.0007756720816507628, -0.018227811583888334, -0.006956999010338059, -0.00598306177894562, -0.009656473168942283, 0.007190143852518392, -0.008317286175761551, 0.009639837722942064, -0.006888118481673084, 0.010722776353151144, 0.0025874347205841457, 0.0001232454971319712, -0.002159213149836733, -0.005776324464647147, 0.009678709566786488, 0.0019164589128422178, -0.009541230490304644, -0.006223774999472778, 0.001182371419095301, 0.0008387258521271063], [0.07589824069817402, 0.03536048749253043, -0.0061674777749955055, 0.035830922905761516, -0.036071302999073566, 0.020773019450761068, -0.0034225908272286576, 0.058588386673760755, 0.014815955293282921, 0.025368949683490207, 0.0038608115298768876, 0.0031131076045798458, -0.001011832278851034, -0.004090646729373939, -0.014301821874742274, 0.023650332311274485, 0.00027844346653464925, 0.00781539974688768, 0.01091797409023598, -0.00975435736569795, -0.00495123968323379, 0.0015203570903120256, -0.01498906106765942, -0.0093824531855896, -0.0012237260700072008, -0.004976937146929357, 0.015416582161368828, -0.008972382846327441, 0.000112728447886062, -0.00537907838326074], [-0.20150734045176436, -0.07666105681537543, -0.08836363126628631, 0.016279817368407324, 0.014497984677947988, 0.012163290694220197, -0.022747690783144096, 0.02354784797674668, -0.031921913723825794, -0.010864099586370813, -0.007959414912291416, 0.001926584736817798, -0.005737399227676859, -0.01862320738756666, 0.004555963397223091, -0.00852034384434988, 0.004690478431103532, 0.0011575443941721129, -0.00022576823727246364, -0.013913020693849101, 0.0038957893564696804, 0.010918771674162572, 0.0002481635829287035, 0.0011308453471658274, -0.001718264056394833, -0.00043201657139784556, -0.0015405607207716774, -0.00043168683726421377, -0.00021191572553821712, 0.003532050962448265], [-0.054108610848021495, -0.031069739343987005, -0.017259882323380382, -0.019167365886698314, -0.0733460604837156, -0.015038748560973468, 0.01646586672459229, -0.013408474471772782, 0.026968863370000686, -0.013116159181028039, -0.003996355200373249, -0.003996349514173613, 0.017636563290716445, 0.009376680794948711, -0.0023895939477539055, -0.008320409974503057, -0.008370116721782289, -0.01646599092016405, 0.009149609152839636, -0.01018388176965591, 0.007495863729733291, -0.0011680959578279295, -0.0044231347802265895, -0.010446379629795489, 0.0018958231531026833, -0.009543676948178852, 0.0021110282479007737, 0.0005993341159912971, -0.00041589829327448537, 0.00818515385796982], [-0.18074755093714337, -0.006442964548039466, -0.025973455221223025, 0.02847523917472169, -0.02966687204247075, 0.044781101907814314, -0.006808188849086398, -0.04290118889282033, -0.005313832344960747, 0.014258715566061269, -0.015558038334290019, 0.024811343669421965, -0.005621517708786657, 0.006034769339425042, -0.0010461641845315869, -0.00013325520897626342, -0.004229311527864398, 0.009516977804659873, 0.009629083885839045, 0.006458063777098047, -0.0020640468138269836, -0.0006718970070612694, 6.791897510203206e-05, 0.004223028553356757, 0.0020194721256443513, 0.0003036191756477112, 0.0006351664374043267, -0.001968148858683582, 0.0017290791073184782, 0.006926874643937243], [0.15665252719179376, 0.07464937509104504, -0.014508531642329467, -0.03111996757098348, -0.019319733120083817, 0.053958359175372304, -0.023930759835618053, 0.04426628839239844, -0.004311430754220999, 0.028005838119447044, 0.008093587010828468, -0.01212787362825662, -0.0034936137897444665, 0.005919495436690228, 0.0020148640396473036, -0.013437914963109384, -0.00587747088879641, 0.004899213762734174, 0.005800499561528363, -0.003934790753343375, 0.0007254988181347887, 4.862125734481043e-05, 0.007131296077117567, -0.00493490714379802, 0.0044181158225236605, -0.0099591421356026, 0.0005580622593240494, 7.590825979580354e-05, 0.00401325547166579, 0.008483301021560674], [-8.388608563336656e-08, -2.9645859100924033e-09, 2.0751357965309534e-08, 4.654657104197202e-08, 2.121534237176088e-08, -2.352222772117324e-08, 4.315674217991718e-08, -8.197501344397988e-09, -2.6956479715067812e-08, -5.039572759102373e-09, 1.642159119796812e-08, -5.6055373676144756e-08, 1.5391037333500855e-09, 1.561846652009532e-08, 9.657907895643781e-08, 4.3123680626422263e-08, 2.2817403522168382e-10, -5.222661414450146e-08, 5.228435639992301e-08, 2.3065135579258772e-08, -9.988919202896773e-08, 1.7416407871451116e-08, 2.5106944079311632e-08, -1.230277124619758e-08, 2.898746132018453e-08, -2.0830844604802177e-08, 6.670486385473836e-08, 2.0357500574164032e-08, -9.61394963638893e-09, 3.748037968875897e-08], [-8.388608563336656e-08, -2.9645859100924033e-09, 2.0751357965309534e-08, 4.654657104197202e-08, 2.121534237176088e-08, -2.352222772117324e-08, 4.315674217991718e-08, -8.197501344397988e-09, -2.6956479715067812e-08, -5.039572759102373e-09, 1.642159119796812e-08, -5.6055373676144756e-08, 1.5391037333500855e-09, 1.561846652009532e-08, 9.657907895643781e-08, 4.3123680626422263e-08, 2.2817403522168382e-10, -5.222661414450146e-08, 5.228435639992301e-08, 2.3065135579258772e-08, -9.988919202896773e-08, 1.7416407871451116e-08, 2.5106944079311632e-08, -1.230277124619758e-08, 2.898746132018453e-08, -2.0830844604802177e-08, 6.670486385473836e-08, 2.0357500574164032e-08, -9.61394963638893e-09, 3.748037968875897e-08], [0.15890255120091962, 0.049876054935180866, -0.025886845945474857, -0.014396155735257427, -0.013762999413873685, 0.03837319719878476, -0.03333432929814064, 0.018670592315736357, -0.014190005099162272, 0.02265256259192725, 0.015610466715873931, -0.00516493148655027, -0.001213226865485254, 0.005929754176934472, 0.011738816391216305, 0.00038621620757924783, 0.005910194556386931, -0.003962982868723453, 0.010977143087106225, -0.005312481921047981, 0.0004500241175128824, -0.000656160657251635, -0.0035373992684693545, -0.006693975633108594, 0.005607801096530874, -0.008438173726130179, -0.00476086690083926, 0.004532211481889585, 0.003669376610525088, 0.00691081264655625], [0.05557846026232053, -0.0882468317643475, -0.04381192572646527, 0.0018381805918402587, 0.0383043604777713, 0.0008870890596201008, 0.02466235554586919, -0.0032017428001100447, 0.013237933242978476, 0.008067577128210043, 0.013220852859657928, 0.007851818452393675, 0.011091587714182385, 0.02518560690099014, -0.027276973178732417, 0.009704293530849553, 0.016762899791047184, -0.009706453917328045, 0.00389710735717377, -0.01111990305374993, 0.004626760538870591, 0.0003489370413644984, 0.005366154824925414, 0.004177255644533697, -0.0062026610958106935, -0.004347115090798879, 0.0029939151916444084, -0.0020991474748107562, 0.011294972786745584, -0.00487461775013256], [-8.388608563336656e-08, -2.9645859100924033e-09, 2.0751357965309534e-08, 4.654657104197202e-08, 2.121534237176088e-08, -2.352222772117324e-08, 4.315674217991718e-08, -8.197501344397988e-09, -2.6956479715067812e-08, -5.039572759102373e-09, 1.642159119796812e-08, -5.6055373676144756e-08, 1.5391037333500855e-09, 1.561846652009532e-08, 9.657907895643781e-08, 4.3123680626422263e-08, 2.2817403522168382e-10, -5.222661414450146e-08, 5.228435639992301e-08, 2.3065135579258772e-08, -9.988919202896773e-08, 1.7416407871451116e-08, 2.5106944079311632e-08, -1.230277124619758e-08, 2.898746132018453e-08, -2.0830844604802177e-08, 6.670486385473836e-08, 2.0357500574164032e-08, -9.61394963638893e-09, 3.748037968875897e-08], [0.17702015259566212, -0.007655934194864006, -0.023144127550685525, -0.029023384117896612, 0.026358578511928164, -0.0002483276702623589, -0.026287066580426243, -0.03230333400025144, -0.014046177050562719, -0.011781805767408303, -0.005820988632967951, 0.008182384542586244, 0.004489048714769525, 0.005974763489689909, -0.004961821463041729, -0.007001979356279679, -0.0026444757649535374, -0.0033389678880778365, -0.006491333965517072, -0.0028750286389935247, -0.013422162727600532, -0.003027278940773607, 0.006855153243107826, 0.002523228141897088, -0.0012850792317765022, 0.01221441641922777, 0.0008836750242556578, -0.004079508875984896, -0.00846131320681117, -0.00026131494077818177], [-8.388608563336656e-08, -2.9645859100924033e-09, 2.0751357965309534e-08, 4.654657104197202e-08, 2.121534237176088e-08, -2.352222772117324e-08, 4.315674217991718e-08, -8.197501344397988e-09, -2.6956479715067812e-08, -5.039572759102373e-09, 1.642159119796812e-08, -5.6055373676144756e-08, 1.5391037333500855e-09, 1.561846652009532e-08, 9.657907895643781e-08, 4.3123680626422263e-08, 2.2817403522168382e-10, -5.222661414450146e-08, 5.228435639992301e-08, 2.3065135579258772e-08, -9.988919202896773e-08, 1.7416407871451116e-08, 2.5106944079311632e-08, -1.230277124619758e-08, 2.898746132018453e-08, -2.0830844604802177e-08, 6.670486385473836e-08, 2.0357500574164032e-08, -9.61394963638893e-09, 3.748037968875897e-08], [0.04230644776697827, 0.027642437687309136, 0.0897664580373246, -0.0009621652242630994, 0.01875715038189945, 0.007001030473377564, 0.02694111927239784, -0.026191200372475982, -0.02391762003868073, -0.007892055210458385, -0.00018693686840317612, 0.0017773414237452789, -0.013523629501998199, -0.027491308965531203, -0.010317033776135687, -0.001233579997287172, 0.005413205087015856, -0.008458807634434313, 0.006876820842802656, -0.011232006084357173, -0.0019220351067855469, 0.004723248619116706, 0.0023756612291758873, -0.008943027692320648, 0.005042471750997759, 0.004094101871889335, 0.002325062361314289, 0.006512561668685865, 0.005237376337343826, -0.002795894176814462], [0.13672149648165993, 0.006883106707105741, -0.022687945661131904, -0.020655470787744497, 0.010007439216335895, -0.08372877762203484, -0.002267625510697254, -0.014535056432499305, -0.017708195868614135, -0.03458371576475255, -0.01484132101130418, 0.01591547456643537, -0.005894049838600015, -0.005660113759157426, -0.010766987896944852, 0.00928082056711878, -0.006859069091937295, 0.011020554841037613, -0.010998577215879218, 0.027887490378185834, 0.0081421887002963, -0.0013537358103162113, -0.003398502400385581, 0.01122106153086603, -0.005367833399494139, -0.0024176484650757935, 0.00861360647954146, -0.0033241527490336592, 0.004945249623230913, 0.004111932648226819], [0.1447192173426999, 0.055132666380828456, -0.047797653549535454, -0.017036310183626547, -0.023594544489986196, -0.025854496337708963, -0.0037982936424254734, -0.011461827408742664, -0.042622770328258015, -0.010233609116548283, 0.009931371945889124, 0.0025285836587897077, -0.00573518351235336, -0.007793281657178464, 0.005099689334418921, 0.005798797499319365, 0.012207489338015312, 0.004247480897238759, -0.00597044760499444, 0.016865612182981833, 0.00011949293127848502, -0.010503448278738158, -0.012897495489326703, 0.004104990208918245, -0.005138204374684878, -0.005832106786643192, 0.0003603614337636822, 8.327652196652777e-05, 0.004832181590002655, -0.0006170475181804625], [-0.23241863111560004, 0.08412465222201518, -0.016133930120796044, -0.046838917693782005, 0.04573664562799384, 0.022547940304679007, -0.01019410163558182, 0.008617649700921999, 0.011854119872649732, -0.0205774115642068, 0.0030318606793009522, -0.004194193194143723, -0.0024915810089244273, 0.003351418910741809, -0.0029028954200859837, 0.011305882571589593, -0.0011152401064560204, 0.004667606311787463, 0.0007125131443986038, 0.003099528223810102, -0.002733521903964242, -0.0022225447312261446, -0.0011661936747239029, -0.0034508049696687286, -0.0017494002233218997, 0.0029405263441660877, -0.0038482471188465124, -0.0018071783640266068, -0.0008642234290939545, 0.0012122974627066672], [-0.1761413789939843, -0.14487834840716868, -0.03142248637269331, -0.006788429402746774, -0.015521605438297333, -0.004557395059384047, -0.02949490810118483, 0.03620941187817162, -0.049366764087553326, -0.018453183266326504, 0.003594565550571738, 0.0016687550255780257, -0.018046606970116046, 0.0013608938025758222, 0.022861298175246066, -0.018327333779132555, -0.01596737970982922, -0.009922436797895397, -0.005783446301554136, -9.893752957881048e-05, 0.0029787318620828345, 0.0052102366883548645, -0.017226258899995496, -0.001711992329771205, 0.009707351245105874, 0.0015866907290493424, 0.007602868925364186, 0.0006082200587461322, 0.011370345594989397, -0.015066416724069463], [0.07919247460198935, -0.12308996085122814, 0.029176467899268064, 0.009250054338422277, 0.04500521291358021, -0.010254037520838139, -0.00559475867780636, 0.007363900236663264, 0.039232851767462495, 0.0040055197003823146, 0.025416635228637643, -0.0036061653614752613, -0.010382982658109134, 0.0029093461709047636, 0.003010598477480559, 0.005478198926104942, 0.006520025079130261, 0.011481717059007768, 0.009629165349596154, 0.0007879860807344226, 0.006244261060979897, 0.010151243935144402, -0.0036050135536091245, 0.012734723951762183, -0.00833766645976951, 0.0014364867354319357, -0.005872851616102123, -0.003720864114610213, -2.4991106358125234e-05, -0.001257041647600437], [0.15325858918385707, 0.026049106446349043, -0.016522719114102746, 0.009686098333299845, 0.008837277661720565, -0.015890644596754374, -0.002599397860491188, -0.012765468147289552, -0.021340997838773412, -0.02288547975803575, -0.01979577222828355, -0.0024625777502210195, 0.012591621500617718, 0.002488854645540853, 0.009409950502530446, 0.01630002285594821, -0.006188667952569135, 0.0037265552385772143, -0.005581565424309709, 0.003711136553629511, -0.002093920295847377, -0.0003244709127768031, 0.001087150990142221, 0.005371354325573899, 0.0012985106430435714, 0.004568276468156817, 0.003375647675889611, 0.003164356987023486, 0.002496520850319781, -0.005887414775363377], [-8.388608563336656e-08, -2.9645859100924033e-09, 2.0751357965309534e-08, 4.654657104197202e-08, 2.121534237176088e-08, -2.352222772117324e-08, 4.315674217991718e-08, -8.197501344397988e-09, -2.6956479715067812e-08, -5.039572759102373e-09, 1.642159119796812e-08, -5.6055373676144756e-08, 1.5391037333500855e-09, 1.561846652009532e-08, 9.657907895643781e-08, 4.3123680626422263e-08, 2.2817403522168382e-10, -5.222661414450146e-08, 5.228435639992301e-08, 2.3065135579258772e-08, -9.988919202896773e-08, 1.7416407871451116e-08, 2.5106944079311632e-08, -1.230277124619758e-08, 2.898746132018453e-08, -2.0830844604802177e-08, 6.670486385473836e-08, 2.0357500574164032e-08, -9.61394963638893e-09, 3.748037968875897e-08], [0.025921141897338927, 0.013121632832744713, 0.03528435256063626, 0.057675944497065396, -0.004226793499715901, -0.024134433412553554, 0.01221537398038244, -0.010014448445174868, 0.0030019726737520232, -0.034246688801652915, 0.017774116392089066, -0.015776704378826178, -0.018098433257443564, -0.01568457981303527, -0.006368457523685382, -0.0223219209420084, 0.0017488119737070413, -0.002598215829112601, 0.005722795092578356, -0.010876390432652193, 0.015094590059827571, -0.010593718822636515, 0.001033301435301952, 0.004577099082801373, -0.00457838924417813, -0.0022209980877258982, -0.003437927893003016, -0.0063632938139164255, -0.007103417103326954, 0.007531514180947158], [-0.11394044906741801, -0.13215403972140147, -0.04033241131729491, -0.01967357778325812, 0.0034789373602528337, -0.022250466232941503, -0.012378886458391296, 0.03257597892206653, -0.0516940847413347, -0.005508852900369877, 0.011417110688859929, 0.004796840354793464, -0.00915706598801493, 0.0002907337568116301, -0.004339782948804519, 0.0008465669719251148, -0.02804811632535542, -0.0162970558248423, 0.00028452397247919755, -0.007845831868895222, -0.0035502383506868726, 0.005613331251352628, -0.0003050487660290888, 0.006637959044688128, 0.01048488715902578, -0.0013028728638113508, -0.0005251917174311503, -0.0005690693852616804, 0.0016901951383314908, -0.018711740378971654], [0.10563089392152479, -0.034459580759506864, -0.012983344278385395, -0.038033591934449246, -0.018043119440625404, -0.06622889504431169, 0.0022159881537920224, -0.003909193435468421, 0.015143637771431026, -0.024027141811765535, -0.032239384319473104, -0.0004043036267526232, -0.005749514809813267, -0.0028092002683288296, -0.008496130650121234, 0.008649312110909215, -0.006188219970338083, 0.0008703332966923619, 0.0040820049916095325, 0.003329886098218065, -0.00789967518434025, 0.008939594789746338, 0.003680047593426255, -0.001765935806010614, 0.0005011456663624334, -0.00419970111465103, 0.003853729981704697, -0.002437714631455925, -0.006050082765252059, 0.0002489504516335648], [0.04354611022604861, 0.07831642135902164, -0.04596547208403012, -0.025623718792724296, -0.017723979763116633, 0.05500244527548556, 0.024077223472594767, 0.0248624107743317, 0.006946180924868535, 0.015040553131525806, 0.006786967086453018, -0.02535416880044313, 0.00881245305435491, 0.018381039786801452, -0.029644845151161288, -0.013250944952566294, -0.02230953487739805, -0.004441596592095124, -0.017693009768256742, -0.0073150705363926915, 0.005776844515758436, 0.016322229894670907, 0.013637575173312582, 0.008069178210542245, -0.009911519208327552, 0.0007790719279968264, 0.009234304817970409, 0.0008690826810402255, 0.00983917864842354, -0.00641478960708364], [-0.18538987865902942, -0.01214471012044243, -0.10801454301249812, 0.00157911314454826, 0.0516322225650416, 0.0025000600547313004, -0.02749044951695214, -0.03452176114263346, 0.004141666338523411, 0.024511936074213057, -0.03138099932838531, -0.04802025055665749, -0.0016340007183586536, -0.026693022893824, -0.008844178755129373, -0.0017617909300506884, 0.007555692696460509, -0.0010123088405306247, 0.008877900347521204, 0.007686339457614151, 0.012832789026370951, -0.013604274866961115, 0.00188503040484909, -0.0036842747682196506, -0.02008638203248347, 0.01275732927055243, 0.008402830054915824, 0.015136589660013737, 0.003331309677574584, 0.009734346724956443], [0.013655963448348386, -0.029871423890597524, 0.15621530173242862, -0.05615612042462526, 0.01953461183420026, 0.05132101811593916, 0.01903165418527388, -0.03224833210878582, -0.019586095419500713, 0.003969621464532877, 0.0027811822909992612, -0.01615291069551695, 0.006584865822347301, -0.04098662035241613, -0.008879786259586315, -0.017467056028000142, 0.012135801141325122, 0.015071425276606846, 0.008062450952092284, -0.0059526912980124155, 0.005015406778726358, 0.007205807228209898, -0.005073406901590376, 0.002111111569192862, 0.0032816922562052633, 0.014430105678459726, 0.0075959062566817, 0.006304551857859214, 0.003696493865987934, -0.010027450744478507], [0.14204997085725596, 0.0709807037844062, -0.02550128666090369, -0.06384110099601216, -0.05933007473680248, 0.03678203941991285, -0.03291021203617077, 0.01658818612057525, -0.017055799688935294, 0.024488502540157175, 0.024029587078808645, -0.024349134781150136, -0.0033802366533811396, 0.001534997315859402, 0.0017857149350245702, -0.006339849067451491, 0.005238704837232418, 0.009337272909469625, 0.002264700522644784, -0.003427609978381033, -0.004370789883167816, 0.011219088854761292, -0.000854018284806994, 0.002442307840784784, 0.004727445842508074, -0.013587700090045549, -0.007664773181846942, 0.0018518871880570272, 0.010031550654558585, 0.012423335276772288], [-8.388608563336656e-08, -2.9645859100924033e-09, 2.0751357965309534e-08, 4.654657104197202e-08, 2.121534237176088e-08, -2.352222772117324e-08, 4.315674217991718e-08, -8.197501344397988e-09, -2.6956479715067812e-08, -5.039572759102373e-09, 1.642159119796812e-08, -5.6055373676144756e-08, 1.5391037333500855e-09, 1.561846652009532e-08, 9.657907895643781e-08, 4.3123680626422263e-08, 2.2817403522168382e-10, -5.222661414450146e-08, 5.228435639992301e-08, 2.3065135579258772e-08, -9.988919202896773e-08, 1.7416407871451116e-08, 2.5106944079311632e-08, -1.230277124619758e-08, 2.898746132018453e-08, -2.0830844604802177e-08, 6.670486385473836e-08, 2.0357500574164032e-08, -9.61394963638893e-09, 3.748037968875897e-08], [0.17397544421855038, -0.04755379885388371, -0.007044282799603627, -0.02486918937414851, 0.05852237025809285, -0.011472481699834738, -0.03517345175689231, -0.008631095991316487, 0.011576370976710243, -0.006947448354419508, -0.010430767462739283, 0.013014876878403735, 0.005191785406187817, 0.012726439293887708, -0.018512472879891988, -0.002292263204384896, -0.004075401125844362, -0.003397108287876816, 0.009883453194806454, -0.0026918900462604436, -0.012411665989228207, 0.010671427552013663, 0.0067719834111537765, 0.0064601904659100625, 0.0005689786393551695, 0.006830729633166915, 0.004451377478355119, -0.0032651305333786557, -0.015446475088033705, 0.00031931592811754763], [-0.03649926044232471, -0.0008393311577640266, 0.0962152362683815, 0.07512645151173734, -0.03599065588116812, 0.018330778245582373, -0.025967852674309115, -0.019903036853323487, 0.02042483325807186, -0.008938651181862217, 0.00917745826204192, -0.0072420388499420075, -0.0014001070453066374, -0.019010928181664964, -0.006589979526645289, -0.005252690878983785, 0.004617240988890603, -0.006443184153160759, -0.008027316976147817, 0.002433231941084189, 0.002262188255307361, -0.0005308423598986295, 0.003945255434430384, -0.0048431004957884705, -0.002763698787293983, -0.0011568895226055887, 0.0032129410481863507, -0.005451742903695523, -0.0012877705470377583, 0.003466950195479179], [-8.388608563336656e-08, -2.9645859100924033e-09, 2.0751357965309534e-08, 4.654657104197202e-08, 2.121534237176088e-08, -2.352222772117324e-08, 4.315674217991718e-08, -8.197501344397988e-09, -2.6956479715067812e-08, -5.039572759102373e-09, 1.642159119796812e-08, -5.6055373676144756e-08, 1.5391037333500855e-09, 1.561846652009532e-08, 9.657907895643781e-08, 4.3123680626422263e-08, 2.2817403522168382e-10, -5.222661414450146e-08, 5.228435639992301e-08, 2.3065135579258772e-08, -9.988919202896773e-08, 1.7416407871451116e-08, 2.5106944079311632e-08, -1.230277124619758e-08, 2.898746132018453e-08, -2.0830844604802177e-08, 6.670486385473836e-08, 2.0357500574164032e-08, -9.61394963638893e-09, 3.748037968875897e-08], [-8.388608563336656e-08, -2.9645859100924033e-09, 2.0751357965309534e-08, 4.654657104197202e-08, 2.121534237176088e-08, -2.352222772117324e-08, 4.315674217991718e-08, -8.197501344397988e-09, -2.6956479715067812e-08, -5.039572759102373e-09, 1.642159119796812e-08, -5.6055373676144756e-08, 1.5391037333500855e-09, 1.561846652009532e-08, 9.657907895643781e-08, 4.3123680626422263e-08, 2.2817403522168382e-10, -5.222661414450146e-08, 5.228435639992301e-08, 2.3065135579258772e-08, -9.988919202896773e-08, 1.7416407871451116e-08, 2.5106944079311632e-08, -1.230277124619758e-08, 2.898746132018453e-08, -2.0830844604802177e-08, 6.670486385473836e-08, 2.0357500574164032e-08, -9.61394963638893e-09, 3.748037968875897e-08], [-8.388608563336656e-08, -2.9645859100924033e-09, 2.0751357965309534e-08, 4.654657104197202e-08, 2.121534237176088e-08, -2.352222772117324e-08, 4.315674217991718e-08, -8.197501344397988e-09, -2.6956479715067812e-08, -5.039572759102373e-09, 1.642159119796812e-08, -5.6055373676144756e-08, 1.5391037333500855e-09, 1.561846652009532e-08, 9.657907895643781e-08, 4.3123680626422263e-08, 2.2817403522168382e-10, -5.222661414450146e-08, 5.228435639992301e-08, 2.3065135579258772e-08, -9.988919202896773e-08, 1.7416407871451116e-08, 2.5106944079311632e-08, -1.230277124619758e-08, 2.898746132018453e-08, -2.0830844604802177e-08, 6.670486385473836e-08, 2.0357500574164032e-08, -9.61394963638893e-09, 3.748037968875897e-08], [0.0026504594954836576, -0.1511705655774132, 0.03411659432915849, -0.01585196455451199, -0.0072526152493525104, -0.03103099008911564, 0.013386031450028844, 0.01683365926841824, 0.013422395358098877, 0.004208631379890991, 0.031105506659785988, -0.008020651445028063, -0.010703885503828062, -0.00039051746864659045, 6.653922832490066e-05, 0.008055396410234299, -0.015242647038944677, 0.014574400299475428, 0.006000695488621149, 0.005651302766968766, -0.005891932126808777, -0.009308340029115306, 0.001429301075703652, -0.00064967089724419, -0.0010613677248344747, 0.0072720066919715436, -0.01612487571501696, 0.00619563718624569, 0.0006801332382570728, -0.0006332783677497412], [0.21087875933165942, -0.0005788587862917171, -0.0035721238301881513, -0.0036690862681368146, 0.07194683292133061, 0.023460644885722068, -0.06166742304670591, -0.011098063505954676, -0.008135711827003303, -0.004858804552836902, -0.005589978894665598, 0.008119985665395459, 0.014940073763702884, 0.01294245913026392, -0.01593414894866285, -0.014379706359561746, -0.016570424537816097, -0.01239706319400874, 0.008270381586892226, 0.003862984023473437, -0.004707583245624848, -0.001060055216039477, 0.002725482849296471, 0.0014156538278851888, 0.00761720686846832, 0.005453438600208224, -0.00029103585962284815, -0.00014990484100671633, -0.009477814805822351, 0.006944375848883575], [-0.1204417264344678, -0.11146994087864023, 0.05745961565986193, 0.012019799222694196, -0.0532301986627092, 0.008732668697807606, -0.02937357473420152, -0.00021472616828583922, -0.007269207888803998, 0.015457856493972374, 0.002374233288809825, -0.0093123526023942, -0.00018642297145370277, 0.008550619249588658, 0.003760043877550817, 0.0038692443553641014, -1.7588546244883017e-05, -0.0057161810228675974, -0.0047637439634371425, 0.016480084452760627, 0.003129775782319892, -0.0001961846932928283, 0.009002876655002755, -0.005036162099489435, 0.003574469676526104, 0.004251221863602261, 0.006917639497617002, -0.00016988689409915724, -0.005444831354104706, -0.0032675155695017374], [-8.388608563336656e-08, -2.9645859100924033e-09, 2.0751357965309534e-08, 4.654657104197202e-08, 2.121534237176088e-08, -2.352222772117324e-08, 4.315674217991718e-08, -8.197501344397988e-09, -2.6956479715067812e-08, -5.039572759102373e-09, 1.642159119796812e-08, -5.6055373676144756e-08, 1.5391037333500855e-09, 1.561846652009532e-08, 9.657907895643781e-08, 4.3123680626422263e-08, 2.2817403522168382e-10, -5.222661414450146e-08, 5.228435639992301e-08, 2.3065135579258772e-08, -9.988919202896773e-08, 1.7416407871451116e-08, 2.5106944079311632e-08, -1.230277124619758e-08, 2.898746132018453e-08, -2.0830844604802177e-08, 6.670486385473836e-08, 2.0357500574164032e-08, -9.61394963638893e-09, 3.748037968875897e-08], [-8.388608563336656e-08, -2.9645859100924033e-09, 2.0751357965309534e-08, 4.654657104197202e-08, 2.121534237176088e-08, -2.352222772117324e-08, 4.315674217991718e-08, -8.197501344397988e-09, -2.6956479715067812e-08, -5.039572759102373e-09, 1.642159119796812e-08, -5.6055373676144756e-08, 1.5391037333500855e-09, 1.561846652009532e-08, 9.657907895643781e-08, 4.3123680626422263e-08, 2.2817403522168382e-10, -5.222661414450146e-08, 5.228435639992301e-08, 2.3065135579258772e-08, -9.988919202896773e-08, 1.7416407871451116e-08, 2.5106944079311632e-08, -1.230277124619758e-08, 2.898746132018453e-08, -2.0830844604802177e-08, 6.670486385473836e-08, 2.0357500574164032e-08, -9.61394963638893e-09, 3.748037968875897e-08], [-8.388608563336656e-08, -2.9645859100924033e-09, 2.0751357965309534e-08, 4.654657104197202e-08, 2.121534237176088e-08, -2.352222772117324e-08, 4.315674217991718e-08, -8.197501344397988e-09, -2.6956479715067812e-08, -5.039572759102373e-09, 1.642159119796812e-08, -5.6055373676144756e-08, 1.5391037333500855e-09, 1.561846652009532e-08, 9.657907895643781e-08, 4.3123680626422263e-08, 2.2817403522168382e-10, -5.222661414450146e-08, 5.228435639992301e-08, 2.3065135579258772e-08, -9.988919202896773e-08, 1.7416407871451116e-08, 2.5106944079311632e-08, -1.230277124619758e-08, 2.898746132018453e-08, -2.0830844604802177e-08, 6.670486385473836e-08, 2.0357500574164032e-08, -9.61394963638893e-09, 3.748037968875897e-08], [0.1353382907230091, -0.06830769585427197, -0.011677475633869507, -0.0029666815550810303, 0.0422867960229394, 0.007981197932647805, 0.0028323315738174007, -0.013573637262770727, 0.027035128368120012, -0.014563581429026884, 0.0071103950217637005, 0.012096299509043682, -0.00034390142158997465, 0.009910409884015358, 0.007045032271754214, -0.013402046800061107, 0.013126944707364835, 0.00308736845839226, 8.626784913768706e-05, -0.003706509495326367, -0.005673347029461188, -0.003165043050277748, -0.005445665695180589, -0.005717230266441087, -0.00369623402212965, 0.0068358158925850825, 0.002464952601893877, -0.0018927027380970399, -0.0012323386447643597, -0.003174230702310931], [-8.388608563336656e-08, -2.9645859100924033e-09, 2.0751357965309534e-08, 4.654657104197202e-08, 2.121534237176088e-08, -2.352222772117324e-08, 4.315674217991718e-08, -8.197501344397988e-09, -2.6956479715067812e-08, -5.039572759102373e-09, 1.642159119796812e-08, -5.6055373676144756e-08, 1.5391037333500855e-09, 1.561846652009532e-08, 9.657907895643781e-08, 4.3123680626422263e-08, 2.2817403522168382e-10, -5.222661414450146e-08, 5.228435639992301e-08, 2.3065135579258772e-08, -9.988919202896773e-08, 1.7416407871451116e-08, 2.5106944079311632e-08, -1.230277124619758e-08, 2.898746132018453e-08, -2.0830844604802177e-08, 6.670486385473836e-08, 2.0357500574164032e-08, -9.61394963638893e-09, 3.748037968875897e-08], [-0.030129212264316793, -0.10309165681518905, 0.02184807919749794, 0.020393338952957685, 0.010065641046887527, 0.007583294294222475, 0.040560827735544355, -0.0029257287322371857, -0.014306510280621043, 0.0013168869891473898, 0.010922000427281319, -0.008134108947039555, 0.006865662190561347, 0.004974930574833478, -0.003404042654769939, 0.00897824705150348, 0.010136157391356001, 0.00260455366509162, 0.004349489671099176, 0.003546032933527501, -0.002917137849213283, -0.0039942287057969815, 0.006050456783220371, 0.0008302899507832568, 0.0023696778361153455, -0.0036896629221653287, -0.005199291505987732, 0.0005461030512223299, 0.005174275910207353, 0.00629338051293981], [0.21298805363797374, 0.03948085892893919, -0.02414742856834619, -0.021456663058158198, 0.03270259966902248, 0.03305996689977226, -0.05935437504070102, -0.01569816185753005, -0.029016794215478446, 0.008113438625443347, 0.008921952591161061, 0.0027571340320720005, 0.00208010822861734, 0.010345753570672963, -0.003756551332701476, -0.013569013482594582, -0.0065834300343251065, -0.01224916850375318, -0.0038854448140093105, 0.003033141770698721, -0.004034033079159831, -0.011635766228826403, 0.002642153831076823, -0.00306509531348775, 0.0012877000862242345, 0.0074370253361806795, -0.007266673964623202, -0.0006722394889336572, -0.00016858873042056966, 0.012819362838259218], [-8.388608563336656e-08, -2.9645859100924033e-09, 2.0751357965309534e-08, 4.654657104197202e-08, 2.121534237176088e-08, -2.352222772117324e-08, 4.315674217991718e-08, -8.197501344397988e-09, -2.6956479715067812e-08, -5.039572759102373e-09, 1.642159119796812e-08, -5.6055373676144756e-08, 1.5391037333500855e-09, 1.561846652009532e-08, 9.657907895643781e-08, 4.3123680626422263e-08, 2.2817403522168382e-10, -5.222661414450146e-08, 5.228435639992301e-08, 2.3065135579258772e-08, -9.988919202896773e-08, 1.7416407871451116e-08, 2.5106944079311632e-08, -1.230277124619758e-08, 2.898746132018453e-08, -2.0830844604802177e-08, 6.670486385473836e-08, 2.0357500574164032e-08, -9.61394963638893e-09, 3.748037968875897e-08], [0.04599565366362017, -0.0819926836801119, -0.006910369092588974, -0.027570815962667528, -0.02319326231887846, -0.048378863183295595, 0.021818392721768727, -0.006515247031588464, 0.03740535869128734, -0.021321626837910546, -0.005563684458549353, -0.005076801958879084, -0.009976311073492417, 0.0011554734363657176, 0.007823891453056397, -0.005860006115684126, -0.0021694072993212895, -0.0037577534569580265, 0.0008070282214221488, -0.007865005294961787, -0.0017999328138505613, -0.004199361325630999, -0.008563667346730246, -0.009247616461184665, 0.00015906759928266997, -0.0011980062659168787, -0.0018888134236115124, 0.0008972041407450807, 0.003184301686005768, 0.0064505306178858236], [0.13221247899827512, 0.05088580036291976, -0.04136304872458471, 0.02111472561313995, -0.03867457012018378, 0.010880108792294734, -0.007217575533128446, 0.021172708019257008, -0.017928299735149207, 0.011517251419639867, 0.016379113862856672, -0.000679075381537127, -0.00033785714492248016, 0.0018478945510070816, 0.009430548215958592, 0.023628772129205576, 0.018350309003019, 0.0002485903155881276, 0.011080037170557047, -0.0019476099022016876, 0.0011749150884067421, -0.0020633657608957155, -0.022501689431455144, -0.009822568799438568, 0.0008758665272615464, -0.007546508545318711, 0.004017372375992649, 0.0003183014281619458, 0.0004917208609071399, -0.003232481940989952], [-0.21653487249767747, 0.0851438401450643, -0.015977686272959167, -0.025505304199187007, 0.07418968571259722, -0.06946954960570477, -0.03547606425777432, -0.04589795336103577, 0.01918666739727808, 0.03847344107208414, -0.003724827889616109, -0.02193142686828152, 0.010487809385355826, 0.0016863334770401415, 0.01823241150158806, -0.005748977049664695, 0.00506216028984583, 0.0046892210385152296, 0.009406702268449233, 0.002037119297529256, 0.0047999064384839935, -0.009441987700396707, 0.0023687446323316804, -0.0018767816589603404, 0.0048983570205206085, -0.011230299917193085, 0.007688529395075871, -0.006253159313318808, 0.003708724296378709, -0.013111474684453195], [-8.388608563336656e-08, -2.9645859100924033e-09, 2.0751357965309534e-08, 4.654657104197202e-08, 2.121534237176088e-08, -2.352222772117324e-08, 4.315674217991718e-08, -8.197501344397988e-09, -2.6956479715067812e-08, -5.039572759102373e-09, 1.642159119796812e-08, -5.6055373676144756e-08, 1.5391037333500855e-09, 1.561846652009532e-08, 9.657907895643781e-08, 4.3123680626422263e-08, 2.2817403522168382e-10, -5.222661414450146e-08, 5.228435639992301e-08, 2.3065135579258772e-08, -9.988919202896773e-08, 1.7416407871451116e-08, 2.5106944079311632e-08, -1.230277124619758e-08, 2.898746132018453e-08, -2.0830844604802177e-08, 6.670486385473836e-08, 2.0357500574164032e-08, -9.61394963638893e-09, 3.748037968875897e-08]], "bgmm_covariances": [[0.0005542295461417665, 0.00043136512404634103, 0.00013464031556952458, 0.0004076024952890163, 0.0001432241774101996, 0.00023839954937606773, 0.0001503891093027564, 5.245879075146878e-05, 8.0463028591324e-05, 9.180013085911336e-05, 0.0001287880231992175, 4.5850370490349835e-05, 4.567707591707988e-05, 1.5014346492559912e-05, 4.308887886705689e-05, 9.393583029525409e-05, 4.284604632050408e-05, 3.222246748564776e-05, 1.5319945990879855e-05, 1.3356556355448564e-05, 5.956451478613663e-05, 2.4523425464530244e-05, 1.4129569731315124e-05, 3.3983995353414446e-05, 2.1146526758499274e-05, 2.2230945716996833e-05, 1.3521010413881468e-05, 8.463612884346405e-06, 2.3676935188292672e-05, 1.5985497960391946e-05], [0.0013371104070022928, 0.0012638423158125686, 0.0005481957293044902, 0.00047774858968796, 0.0005415588166468192, 0.00033809260034296253, 0.00037535429924289175, 0.0002095462667754987, 8.284159849943504e-05, 0.00017278921453443448, 0.0002289110532804306, 8.73062614398194e-05, 7.2079740991572e-05, 0.00010408157912496434, 9.734434934225075e-05, 9.133153152078894e-05, 9.568390297573016e-05, 7.825432529985797e-05, 4.741538888865255e-05, 5.298772446625544e-05, 3.151390447609488e-05, 3.724876597640769e-05, 4.826253348310767e-05, 4.13368224448362e-05, 4.144419076695665e-05, 3.508092258601992e-05, 5.139589310348067e-05, 2.8162216375104305e-05, 4.0915406773468774e-05, 3.085192600117604e-05], [0.0006271953384081522, 0.0002200601001580556, 0.00011464510268221298, 8.767965094496805e-05, 7.372735999524593e-05, 6.748613280554611e-05, 4.141093619788686e-05, 3.1484748857716714e-05, 2.282805896053711e-05, 1.7905974527820944e-05, 1.4112456119619308e-05, 1.2477280688472091e-05, 1.1231287498958408e-05, 1.0142981773242353e-05, 9.73209001434346e-06, 8.841486608919997e-06, 7.513343977431455e-06, 7.120829347210625e-06, 6.328457675408571e-06, 5.965494589569667e-06, 5.4687741794623424e-06, 5.080177894948671e-06, 4.556946805678307e-06, 4.483643958034614e-06, 4.12153749493882e-06, 3.962842311011627e-06, 3.733555786311626e-06, 3.6568778644626336e-06, 3.505285955422247e-06, 3.4064825740642843e-06], [0.0006182803577468169, 0.0002105384599563193, 9.033741538138829e-05, 0.0003380670420385787, 0.000485921846297511, 0.0001866362143949885, 0.0002094297507498741, 0.00019967767355385773, 7.447776224171561e-05, 6.563846944618648e-05, 9.228129639599043e-05, 5.412426868007334e-05, 5.904412961292372e-05, 2.52238759433848e-05, 5.402483607175797e-05, 7.406642530842618e-05, 4.2384914834961243e-05, 3.077139461814889e-05, 3.279980858112246e-05, 2.9925721686030156e-05, 3.5248304818625004e-05, 0.00012426725224043083, 4.279557180718717e-05, 2.9317005115716923e-05, 1.395833207370414e-05, 4.463633396267472e-05, 3.3974497501538084e-05, 2.303007077832717e-05, 1.414716425343048e-05, 1.615101348397452e-05], [0.0005281842628919489, 0.0003030722037985363, 0.0007348209303848853, 0.00018392813950341748, 0.00024950248580739705, 0.00011365094714868317, 0.00029075279950988557, 0.000120264967174142, 0.00013025699862970127, 0.00013132917921680772, 5.974539364206138e-05, 0.00010379524854587006, 3.413567788585187e-05, 5.5197962032694555e-05, 5.9080129383363395e-05, 6.258617925566042e-05, 0.00010451798798474359, 9.802244823407193e-05, 3.076146966854599e-05, 4.744780549064478e-05, 3.353262439057954e-05, 2.5744586164045392e-05, 3.989164628521204e-05, 6.34466405137646e-05, 2.6283340932582396e-05, 3.296532811663463e-05, 4.289334344251659e-05, 2.96154585847049e-05, 6.318562430453914e-05, 0.00010525179324511124], [0.0006271953384081522, 0.0002200601001580556, 0.00011464510268221298, 8.767965094496805e-05, 7.372735999524593e-05, 6.748613280554611e-05, 4.141093619788686e-05, 3.1484748857716714e-05, 2.282805896053711e-05, 1.7905974527820944e-05, 1.4112456119619308e-05, 1.2477280688472091e-05, 1.1231287498958408e-05, 1.0142981773242353e-05, 9.73209001434346e-06, 8.841486608919997e-06, 7.513343977431455e-06, 7.120829347210625e-06, 6.328457675408571e-06, 5.965494589569667e-06, 5.4687741794623424e-06, 5.080177894948671e-06, 4.556946805678307e-06, 4.483643958034614e-06, 4.12153749493882e-06, 3.962842311011627e-06, 3.733555786311626e-06, 3.6568778644626336e-06, 3.505285955422247e-06, 3.4064825740642843e-06], [0.0005739182379845535, 0.00028815872070446166, 0.00010564297164627031, 9.811397729932286e-05, 0.0002216330480952243, 6.593716618989915e-05, 8.456547523510259e-05, 2.925417883653842e-05, 5.027085604804685e-05, 2.6063801185026086e-05, 3.221011705211769e-05, 1.173704866444139e-05, 1.3699217978500454e-05, 1.1283381356060709e-05, 1.1142955353274217e-05, 2.011961055575984e-05, 7.381442164229858e-06, 6.624301377899076e-06, 9.76638604151443e-06, 5.6276434906461135e-06, 5.813696794049385e-06, 7.909234101905563e-06, 8.121203713083756e-06, 6.480479322126078e-06, 4.810848681384545e-06, 6.584653899065749e-06, 1.1654247265282995e-05, 3.864350598225345e-06, 3.596186060223238e-06, 4.850608509110968e-06], [0.0008840686311868897, 0.0005562069788692529, 0.00038324973513246744, 0.0002805207137917044, 0.00034043139879993663, 0.0002291701761432642, 0.000281761577136494, 0.00016944384579886597, 0.00035841407731309916, 0.00014120945813937767, 7.171548302269641e-05, 3.341177155189507e-05, 3.9676278355450144e-05, 4.920064329064099e-05, 9.412908478993598e-05, 0.0001515573921503271, 4.548910009613133e-05, 2.3782977625939658e-05, 2.2238028876902835e-05, 2.113072409173274e-05, 3.8829866144110505e-05, 4.6979255620190364e-05, 3.5023378577864776e-05, 1.4363333563765022e-05, 3.612164892490499e-05, 1.7348249365315537e-05, 3.200631536302399e-05, 3.2382871722045686e-05, 2.137435337151923e-05, 1.2654968573331017e-05], [0.000449825664873619, 0.00031811273257879955, 0.00016596781732578444, 0.00015677959447672586, 0.00015514743016630848, 9.440032692771869e-05, 6.754892466083661e-05, 0.00010768668095859603, 0.00011481482158898509, 4.1337124788915266e-05, 4.866191307707382e-05, 4.335943159882365e-05, 2.4641665827286714e-05, 3.2364158761499814e-05, 5.7803112758449776e-05, 3.255979454551076e-05, 8.172013300778339e-05, 3.476545663682394e-05, 9.724569460433053e-06, 1.8223613342454873e-05, 1.829942926846907e-05, 2.0274667694414453e-05, 1.313337581090763e-05, 2.14918957658061e-05, 1.0123007636330265e-05, 1.1351278474717182e-05, 2.5658259215457995e-05, 9.264099835375359e-06, 1.833203458004428e-05, 1.1896573897446929e-05], [0.0045192544713534575, 0.0029506386620836724, 0.0007040505347938773, 0.0006971240550904365, 0.0014549051145332382, 0.0006885582964913161, 0.00040031392192077774, 0.0006836008758437276, 0.00016251300420182629, 0.00018080937278559478, 0.00023761769257059272, 0.0003520747456904829, 0.00014717667260254622, 0.0002774635670405752, 0.00016968851384661189, 0.00010853934431131057, 0.00016393040660752652, 0.00011915710760919916, 0.00014584484829399533, 7.670032227317942e-05, 9.073976827004052e-05, 0.0001617445215986303, 6.917438893265085e-05, 0.0001007178475958911, 0.00015804577945556354, 7.221472099816656e-05, 8.403426259211091e-05, 5.300612740031935e-05, 8.084257660353607e-05, 5.161618977801746e-05], [0.0022168437424308503, 0.0013767114483268074, 0.0006665622679888553, 0.0012750822302049407, 0.0009879896677986884, 0.0014184554831401703, 0.0002987480748909928, 0.0005200199833598133, 0.0002407515353112453, 0.0005678526350008346, 0.0002971347204348354, 0.00017961514396902753, 0.00016972997100783764, 8.762327555868471e-05, 0.00020716120828822557, 0.00017133802148814657, 0.00013480695481536396, 0.00016345875602835286, 0.00014808476560611807, 0.00013031744181611583, 0.00012623250590696933, 8.773280585164631e-05, 0.0001188566210652825, 6.987763145744537e-05, 5.227493497691702e-05, 6.612268000900905e-05, 4.468173299687637e-05, 6.946078653229912e-05, 7.68729639381999e-05, 2.9833219873849685e-05], [0.0017363421330556805, 0.0010752159995592871, 0.0008588629276896414, 0.0010359913009807405, 0.0009017492688882373, 0.0004501968283484001, 0.00048359694805912414, 0.00039726883672500226, 0.00032968054824442566, 0.00023263232100745828, 0.00013919621434891962, 0.00010523275640311978, 0.00011380979564385896, 0.00014306165066294566, 0.00010000651597086294, 0.0001367983610779623, 9.095154012834323e-05, 8.426775375765427e-05, 8.998164592794189e-05, 6.20681084576878e-05, 5.4031921026432304e-05, 4.34434811717885e-05, 8.883056196230203e-05, 6.430927842279392e-05, 4.6762101208547454e-05, 4.821939291199475e-05, 3.3781308312239326e-05, 5.598551280580976e-05, 6.388333883567181e-05, 3.980704527654519e-05], [0.000954041645161939, 0.001136773274574575, 0.00035109030877935183, 0.0011561927626164497, 0.0006945081510875172, 0.0005474839910992715, 0.0004054180796108337, 0.0004771549240257623, 0.00022350521042835506, 0.00022417055127632251, 0.00019248202051473797, 7.471726632407162e-05, 0.00015630306055256207, 8.274562178240354e-05, 0.0001825153515951349, 0.0002134628715218475, 9.483897887667266e-05, 4.889436420322001e-05, 4.539130155939708e-05, 7.745110802206352e-05, 8.020185628413458e-05, 7.991815169695922e-05, 0.00010285921550070636, 7.057494958873907e-05, 4.0208902797994116e-05, 4.414696175025412e-05, 5.4509878376127905e-05, 5.807843030711685e-05, 5.806916441675724e-05, 3.72512571329209e-05], [0.0007918091162492375, 0.0008342688618052435, 0.0003093978873238039, 0.00041166066263329947, 0.00021088720216762215, 0.000525588188758527, 0.00020476550732892448, 9.946180347920826e-05, 0.000196445689786962, 0.00016960033298225812, 7.750313833480994e-05, 4.0211747921309167e-05, 0.00011277911062996469, 5.4294533634463094e-05, 8.200314790177444e-05, 5.34498155114984e-05, 6.706438619905701e-05, 7.053216350006363e-05, 8.803807683852835e-05, 2.7134383002945614e-05, 6.845417401334715e-05, 7.006657160349998e-05, 4.305043309569936e-05, 4.230650302792029e-05, 2.220563840457847e-05, 3.2602502577396465e-05, 2.7199032724129743e-05, 4.698121725379817e-05, 2.865700483387669e-05, 2.4825189789967417e-05], [0.0006271953384081522, 0.0002200601001580556, 0.00011464510268221298, 8.767965094496805e-05, 7.372735999524593e-05, 6.748613280554611e-05, 4.141093619788686e-05, 3.1484748857716714e-05, 2.282805896053711e-05, 1.7905974527820944e-05, 1.4112456119619308e-05, 1.2477280688472091e-05, 1.1231287498958408e-05, 1.0142981773242353e-05, 9.73209001434346e-06, 8.841486608919997e-06, 7.513343977431455e-06, 7.120829347210625e-06, 6.328457675408571e-06, 5.965494589569667e-06, 5.4687741794623424e-06, 5.080177894948671e-06, 4.556946805678307e-06, 4.483643958034614e-06, 4.12153749493882e-06, 3.962842311011627e-06, 3.733555786311626e-06, 3.6568778644626336e-06, 3.505285955422247e-06, 3.4064825740642843e-06], [0.0018961132710627049, 0.0012613053368746147, 0.0011736939603760087, 0.0013169269600642089, 0.0004858276413093651, 0.0004811373877632568, 0.0005857555371806455, 0.0004543535288243217, 0.0002669865177228511, 0.00017736889673627406, 0.00015291172405002045, 0.0004575771275918178, 0.0001287921415920827, 0.0002733774531556645, 5.154547883782199e-05, 0.00010589381081367598, 0.00016803690742469971, 0.00010120231806897135, 9.373326200543867e-05, 5.61533095723298e-05, 8.997342007094283e-05, 0.0001075349106751362, 4.119905222713621e-05, 8.122066911707357e-05, 0.00010294189856801942, 4.796495020289485e-05, 8.281915765557839e-05, 4.693589934653883e-05, 0.00012486046183030408, 5.781834747551156e-05], [0.000791223227337227, 0.00015945379331468013, 9.423076226934505e-05, 0.00017576873223201916, 0.0002850253234633274, 0.0001421848714324787, 6.339922014986089e-05, 8.754596117804215e-05, 4.618962128902592e-05, 3.29402800506292e-05, 5.246486197721586e-05, 3.609899310831107e-05, 2.9709814168489347e-05, 1.2658939108883355e-05, 1.5514135254042278e-05, 1.9310220969184722e-05, 3.153787224805654e-05, 1.2090516518477186e-05, 1.1391005676101961e-05, 5.616685440534862e-05, 1.2975553547206431e-05, 2.0141612909956003e-05, 8.812816727453945e-06, 8.968600532120383e-06, 7.972113072074996e-06, 1.4944815794178477e-05, 1.3672006700065511e-05, 1.5640687881041488e-05, 1.4641306922333636e-05, 1.2665266244029158e-05], [0.0012452661229198244, 0.0008767305955928835, 0.0006225892366052475, 0.00031917626081837765, 0.00025701060355446537, 0.00016538511299305173, 0.00022592878758313038, 0.0003898335247141795, 8.92951382368433e-05, 0.00014361822825150288, 4.259627810904084e-05, 0.00011664798404816455, 6.329721364081126e-05, 9.012401715563296e-05, 8.955395036773137e-05, 0.00011682361649929121, 0.00010204021757070642, 6.673015539762197e-05, 4.7347535014232575e-05, 3.211896551203231e-05, 5.170775735164857e-05, 1.7070345678461164e-05, 4.318374695448186e-05, 3.451763515736029e-05, 2.8357613711422173e-05, 4.225617179986357e-05, 4.133966579610999e-05, 3.519251503182174e-05, 3.275685477771529e-05, 3.6125715162705264e-05], [0.0010701599027917268, 0.0006188594327671379, 0.0006963623379386794, 0.0003622891432637778, 0.0003739008477699898, 0.00029237357143213714, 0.0003991881255105331, 0.00011920337161014382, 0.00015607533520525032, 0.00012711177000426874, 8.731539075090911e-05, 4.80731279265981e-05, 6.035226918284766e-05, 0.00014917547015641408, 6.889113413369595e-05, 8.359759525622038e-05, 7.706507518764949e-05, 5.679224710834009e-05, 4.4743762755739444e-05, 2.1948574046391287e-05, 4.129994719123046e-05, 6.50845541492691e-05, 2.747559529497425e-05, 3.0325116934765773e-05, 1.9557836628424558e-05, 2.1402647205095126e-05, 2.8370573053701667e-05, 3.482666722832466e-05, 1.74966613314758e-05, 2.023221212813584e-05], [0.0006271953384081522, 0.0002200601001580556, 0.00011464510268221298, 8.767965094496805e-05, 7.372735999524593e-05, 6.748613280554611e-05, 4.141093619788686e-05, 3.1484748857716714e-05, 2.282805896053711e-05, 1.7905974527820944e-05, 1.4112456119619308e-05, 1.2477280688472091e-05, 1.1231287498958408e-05, 1.0142981773242353e-05, 9.73209001434346e-06, 8.841486608919997e-06, 7.513343977431455e-06, 7.120829347210625e-06, 6.328457675408571e-06, 5.965494589569667e-06, 5.4687741794623424e-06, 5.080177894948671e-06, 4.556946805678307e-06, 4.483643958034614e-06, 4.12153749493882e-06, 3.962842311011627e-06, 3.733555786311626e-06, 3.6568778644626336e-06, 3.505285955422247e-06, 3.4064825740642843e-06], [0.000632763226803836, 0.0002608395648783718, 0.00015181344076395118, 9.852201520115548e-05, 0.0001714902626887105, 0.00010889397109659202, 0.00010378644034848321, 6.969249212030643e-05, 3.319121963288658e-05, 5.3312885663214256e-05, 5.896813524315186e-05, 2.9405652312453857e-05, 2.6379702995244573e-05, 2.360877859999428e-05, 2.4571098559266304e-05, 1.4966602772482725e-05, 3.1179367706929095e-05, 2.2949259090356208e-05, 1.4125530916417059e-05, 2.2303558624183518e-05, 1.708431216625851e-05, 1.5613674243796995e-05, 1.1329066967321824e-05, 3.368848500547341e-05, 1.3387405997152285e-05, 1.6793441881939588e-05, 1.64733069088825e-05, 7.0986227534603835e-06, 1.5370481448735307e-05, 1.0993521502762636e-05], [0.00047539878729525897, 0.00046489808712200383, 0.00024751764405219146, 0.0002993920093958484, 0.00014295598687849334, 0.00022481876254231448, 0.00012613439500297537, 0.00020591486218041625, 5.491259821502272e-05, 0.0001143674164958031, 5.5747563126377783e-05, 7.449012595514783e-05, 6.627328560793918e-05, 4.624876409442588e-05, 8.959818774799233e-05, 1.8938821618793492e-05, 4.227058872213077e-05, 6.433394557387924e-05, 2.7918406908770966e-05, 2.6688835939439024e-05, 1.3170490238998465e-05, 2.7335360423147553e-05, 1.9328774670394918e-05, 3.7681147934009546e-05, 1.7165341849095285e-05, 2.780493382254782e-05, 3.095013345744642e-05, 1.6273303247318622e-05, 2.90232041902213e-05, 2.5269099284641284e-05], [0.0015411958729725913, 0.001215616471752951, 0.0006020086267699082, 0.002000165130151361, 0.0016544341483367337, 0.0009588181230234007, 0.00029725360596848945, 0.0008451297330131772, 0.00029355330055756175, 0.00031538139085061093, 0.00024217443323809186, 0.00015778917167351235, 0.00021176001119461695, 0.00012372459334880124, 0.00019616635792313154, 0.000290242182931197, 0.00013873726643246143, 0.00012383490193187128, 7.093481687952284e-05, 0.00010323864319959556, 5.570588968498119e-05, 0.00018282744301884382, 0.00010212036066805779, 0.0001142255974801471, 5.495946697406108e-05, 5.2528678210863286e-05, 7.568370567325753e-05, 7.940046261021362e-05, 7.359337287497249e-05, 4.520442576750902e-05], [0.005799744623744535, 0.004445705134936864, 0.00350894779742228, 0.004032283040953829, 0.0019698793075828692, 0.002625630600479468, 0.001163613927335324, 0.0009907252682475201, 0.0005410193178086111, 0.0005128499466961803, 0.00042689820933426, 0.0003313423367121355, 0.0005610197830204191, 0.0003564619920839814, 0.00033994521235343434, 0.00029352406907107186, 0.00023409796539589542, 0.00029548495691327864, 0.00027275017688696974, 0.0001928347090274642, 0.00023495918233427718, 0.000183986217725362, 0.00021900060671403278, 0.0001758462085414279, 0.00013410602345226513, 0.000169438281425291, 0.00012044955182339316, 0.00016904345084743858, 0.00014873816427189325, 0.00011034512936498018], [0.0005783143647277936, 0.0002404584517289906, 0.00040058679290600765, 0.0002043933341465419, 0.0001033166717800068, 0.00017349199647522044, 0.00010742987452889767, 9.747987337641967e-05, 7.43434565452944e-05, 2.8741037883888756e-05, 2.2309084985386447e-05, 3.156641351946431e-05, 1.0763490121422306e-05, 3.155258864293488e-05, 1.289172763443014e-05, 9.342891906166168e-06, 1.723160656049085e-05, 1.4280392730596738e-05, 9.82992358452973e-06, 8.872636076985809e-06, 9.103464796335667e-06, 8.792971730706653e-06, 6.237108399439928e-06, 5.9438344928758676e-06, 4.141750990855319e-06, 4.619698390380196e-06, 4.7260994425476354e-06, 1.3036693773109037e-05, 4.490258042364989e-06, 5.1029135236462725e-06], [0.0006725075934928798, 0.00039650954774540857, 0.00012145498469931618, 0.0003452725769473952, 0.0005244109625138274, 0.0006012399623171864, 0.00013610827467766762, 0.0002452105562063758, 0.00013077077281722926, 9.240806754394041e-05, 0.00012665008554956972, 7.080060651449707e-05, 2.6547969402985807e-05, 2.60847345565774e-05, 4.9426864406194685e-05, 4.5950011901758684e-05, 4.841080172223937e-05, 2.2385497086448687e-05, 2.6205646067875106e-05, 5.83785103820154e-05, 4.508253783439567e-05, 5.99852205159745e-05, 1.694550123450103e-05, 3.080306408220911e-05, 2.1065964143937816e-05, 5.073019820659608e-05, 2.784217087908062e-05, 1.5241729615588312e-05, 1.7316281406930834e-05, 1.6004826095139284e-05], [0.001378160433092089, 0.0005183133557202743, 0.00033650440669966, 8.908872929206063e-05, 0.00012042713190527548, 8.90850256550782e-05, 0.0002042559933208866, 0.00018252600802079827, 0.00016922363081243482, 0.00010256648438899973, 2.796105315850701e-05, 6.273221380234892e-05, 5.033920969676975e-05, 7.54119845245261e-05, 3.688279120638975e-05, 1.8568687192672235e-05, 5.2537228065429594e-05, 3.502080225181888e-05, 1.6969708030530526e-05, 6.361381921291956e-05, 1.829909943442104e-05, 1.4648335183853994e-05, 2.139614224330269e-05, 1.5729069528336994e-05, 4.653101184500306e-05, 4.2052565418382385e-05, 4.275297146320107e-05, 1.4151943979099021e-05, 3.53469937756588e-05, 3.273184990861343e-05], [0.000800406487469691, 0.0002831944386608125, 0.0008704585245820104, 0.00020890618238118697, 0.0003195542420399792, 9.88033927039608e-05, 0.00021083656287293457, 0.0001840945409850907, 0.00012966485527505448, 0.00011769107656610683, 7.711652711900692e-05, 0.00015123481167515657, 3.3438676459285804e-05, 4.8200259261212236e-05, 4.080553320751075e-05, 5.0819976156234786e-05, 5.4302092525119764e-05, 8.672080126193546e-05, 3.928909347591951e-05, 3.4752134319890126e-05, 2.373012145541304e-05, 6.2996596585193e-05, 1.8739946727829214e-05, 4.081929110028827e-05, 3.949510631985505e-05, 3.0917621436413785e-05, 3.8347791157336486e-05, 2.4361575754534844e-05, 6.0139163320972836e-05, 3.8210512934558436e-05], [0.0005897182212157754, 0.0003406013950286055, 0.00015142157496706644, 0.00027083755611743293, 0.00022609129218080387, 0.00012535034413954134, 0.00010917571740468784, 0.0001565495763577286, 0.00012739943070444655, 9.916046865008444e-05, 8.506908328839423e-05, 3.309187176547386e-05, 6.523369598920976e-05, 2.3183808338706092e-05, 4.545723669186801e-05, 7.818110054652209e-05, 4.4361978870826814e-05, 2.2023477009665636e-05, 2.743976231315265e-05, 3.106303646976791e-05, 2.765875002800453e-05, 3.784562694864071e-05, 3.678272094782649e-05, 3.4885402192765083e-05, 1.8100308900084337e-05, 2.3336224663738403e-05, 1.7261657587114223e-05, 1.587591436004241e-05, 2.7552209183357363e-05, 2.0885422187896216e-05], [0.0006271953384081522, 0.0002200601001580556, 0.00011464510268221298, 8.767965094496805e-05, 7.372735999524593e-05, 6.748613280554611e-05, 4.141093619788686e-05, 3.1484748857716714e-05, 2.282805896053711e-05, 1.7905974527820944e-05, 1.4112456119619308e-05, 1.2477280688472091e-05, 1.1231287498958408e-05, 1.0142981773242353e-05, 9.73209001434346e-06, 8.841486608919997e-06, 7.513343977431455e-06, 7.120829347210625e-06, 6.328457675408571e-06, 5.965494589569667e-06, 5.4687741794623424e-06, 5.080177894948671e-06, 4.556946805678307e-06, 4.483643958034614e-06, 4.12153749493882e-06, 3.962842311011627e-06, 3.733555786311626e-06, 3.6568778644626336e-06, 3.505285955422247e-06, 3.4064825740642843e-06], [0.00046270849939790117, 0.00022408681243689762, 6.435176418808248e-05, 0.00014835709774825196, 0.00026710670901260625, 0.00023281908687576247, 8.822801292722065e-05, 0.0002010265973664828, 5.375952339819763e-05, 4.124017642883714e-05, 0.00010055327785262413, 4.1114724418915635e-05, 3.9366157412107284e-05, 2.221948343414654e-05, 3.13909175709838e-05, 4.446578960161199e-05, 3.454277209822186e-05, 2.529369190446001e-05, 1.9006427523465008e-05, 2.3998003236324047e-05, 2.3325468054594233e-05, 5.8859690835658095e-05, 1.444205341164914e-05, 2.0713948027855383e-05, 1.3998089042923803e-05, 3.4180438444268e-05, 2.152101894008932e-05, 2.8059929673303547e-05, 1.3994683198536666e-05, 1.1943878796680007e-05], [0.000592710505984915, 0.00043586545254843277, 0.00020754411713470378, 9.114539774906124e-05, 0.00011606785640726471, 7.170343401724645e-05, 4.730062586481257e-05, 3.0498849436202738e-05, 2.9748096150182238e-05, 2.4231518288324197e-05, 1.7216147172254505e-05, 2.5022594267692024e-05, 1.2983961609205374e-05, 1.2857077161345543e-05, 1.654213246873427e-05, 1.1098626374414399e-05, 1.04027512222195e-05, 1.0368485116632628e-05, 7.97914473984136e-06, 1.0752853032309404e-05, 5.9663072342630915e-06, 4.836552009934952e-06, 7.273366239838118e-06, 5.895398868004219e-06, 7.672573000399487e-06, 4.169203126297865e-06, 7.512400289167036e-06, 6.330889629551608e-06, 3.5075409214100596e-06, 3.6360417925207944e-06], [0.0017390950329842392, 0.00039335270732174346, 0.0003455589264270336, 0.0008018434667769037, 0.0007303792950442134, 0.0004679538491996956, 0.00020733895948872014, 0.0002538415064711127, 7.473426653534621e-05, 8.127277897300514e-05, 9.202663492960308e-05, 6.929691442245496e-05, 6.7230745518953e-05, 7.287576872621586e-05, 9.485991181819909e-05, 0.00018155503352827477, 6.324618741895839e-05, 5.707665799086059e-05, 5.4856451044874096e-05, 2.17593228386938e-05, 4.123853562067272e-05, 8.545767144218369e-05, 9.1283284292448e-05, 5.071530333738824e-05, 2.4260543682279056e-05, 4.249224337942596e-05, 5.630869168193183e-05, 5.663121181616147e-05, 3.133259422475017e-05, 2.1978989705077863e-05], [0.0018878607195337382, 0.0014361486077318498, 0.0022273231844839765, 0.000510191294567136, 0.0009367939141439298, 0.0005971661119799848, 0.0013620965630786427, 0.0007830534845081625, 0.0004083891621020284, 0.000442642624510811, 0.00018138213177607844, 0.0005008257270276026, 0.00024296051853950224, 0.0005294739931530902, 0.0003644274507137275, 0.00012814065693984698, 0.000236616948273247, 0.0002460488760847911, 0.00016166025804668932, 0.00020701857990307746, 0.00014150244916675625, 7.931554167421967e-05, 0.00018525688015017444, 9.742508612428095e-05, 0.00031917651098063856, 0.0001307225678725955, 0.0001823073472233706, 0.00010496390757439464, 9.388150863833205e-05, 0.00011120666668241734], [0.00243009131063534, 0.0012937879918517308, 0.0014266955311606998, 0.0006629052526634908, 0.0005324583177732383, 0.0011251138251271524, 0.0004035128195128036, 0.000575915821119572, 0.00020337059518984562, 0.00027719150937372564, 0.00023514440819724313, 0.00027878668279085353, 0.0001299601194161638, 0.00011374976096538368, 0.00015035591192164092, 9.618237123742121e-05, 0.00014768749788249464, 0.00013114079672715758, 8.327350428343191e-05, 0.00010390121060443239, 4.0296385164702184e-05, 6.294353923985788e-05, 4.6751027721895194e-05, 8.347092232745062e-05, 4.9671595240858345e-05, 4.1161899538107516e-05, 5.959799503600542e-05, 4.012074447402996e-05, 7.232528898143639e-05, 8.257516187758125e-05], [0.0018791760020535316, 0.002738415578778693, 0.0026871375645005045, 0.000941732524371411, 0.0007780846475032978, 0.0007657566893183065, 0.0011363378561600069, 0.0005943495363847701, 0.00030047245740906953, 0.00053847568686156, 0.00021068052152782045, 0.00028740414973450946, 0.00025930288756455223, 0.0001888114414757754, 0.0001432936656114897, 0.00013214473101182483, 0.00018901786376240054, 0.00026617063979503594, 0.00018218165682292665, 0.00010250853356904443, 0.00023939421864127078, 7.308586746898152e-05, 9.733737837905524e-05, 9.133849597136223e-05, 0.0001495932084601106, 0.0001683462768723665, 0.00012135614704309792, 6.460476850514927e-05, 8.342964322449669e-05, 8.629779179038691e-05], [0.0006135716784255892, 0.0002217208410522038, 0.00013116273252364874, 0.0006970047325669051, 0.0005590973291563779, 0.00024237532980538905, 0.0002441538012970514, 0.00021230684847475662, 8.160563868521141e-05, 5.382418323656115e-05, 8.297429197536898e-05, 6.375691636779918e-05, 5.220024179966021e-05, 3.0509791282552474e-05, 8.874774876295699e-05, 0.00013521064624040453, 7.159966717532618e-05, 7.148777309994649e-05, 4.210827597112954e-05, 3.0775175746079564e-05, 3.010300414234924e-05, 6.596216648828555e-05, 4.459019131097275e-05, 5.336969380283843e-05, 2.3479247278892204e-05, 3.400647299779191e-05, 4.274151808696422e-05, 3.4460221757831315e-05, 1.6069176157183683e-05, 2.786915620428527e-05], [0.0006271953384081522, 0.0002200601001580556, 0.00011464510268221298, 8.767965094496805e-05, 7.372735999524593e-05, 6.748613280554611e-05, 4.141093619788686e-05, 3.1484748857716714e-05, 2.282805896053711e-05, 1.7905974527820944e-05, 1.4112456119619308e-05, 1.2477280688472091e-05, 1.1231287498958408e-05, 1.0142981773242353e-05, 9.73209001434346e-06, 8.841486608919997e-06, 7.513343977431455e-06, 7.120829347210625e-06, 6.328457675408571e-06, 5.965494589569667e-06, 5.4687741794623424e-06, 5.080177894948671e-06, 4.556946805678307e-06, 4.483643958034614e-06, 4.12153749493882e-06, 3.962842311011627e-06, 3.733555786311626e-06, 3.6568778644626336e-06, 3.505285955422247e-06, 3.4064825740642843e-06], [0.0006271953384081522, 0.0002200601001580556, 0.00011464510268221298, 8.767965094496805e-05, 7.372735999524593e-05, 6.748613280554611e-05, 4.141093619788686e-05, 3.1484748857716714e-05, 2.282805896053711e-05, 1.7905974527820944e-05, 1.4112456119619308e-05, 1.2477280688472091e-05, 1.1231287498958408e-05, 1.0142981773242353e-05, 9.73209001434346e-06, 8.841486608919997e-06, 7.513343977431455e-06, 7.120829347210625e-06, 6.328457675408571e-06, 5.965494589569667e-06, 5.4687741794623424e-06, 5.080177894948671e-06, 4.556946805678307e-06, 4.483643958034614e-06, 4.12153749493882e-06, 3.962842311011627e-06, 3.733555786311626e-06, 3.6568778644626336e-06, 3.505285955422247e-06, 3.4064825740642843e-06], [0.0012572763937507363, 0.00025410902410796153, 0.00011507921485988996, 8.77886024267093e-05, 8.305800395336532e-05, 0.00010119924088887083, 7.69336251490028e-05, 4.041467879876252e-05, 3.240704950235211e-05, 3.121955225501975e-05, 2.4967506947423e-05, 1.3444255441820049e-05, 1.1165918100230202e-05, 1.1125557588068664e-05, 1.4486472164795365e-05, 8.15237009644061e-06, 8.92451993696253e-06, 7.635000551233625e-06, 9.703340720922445e-06, 6.580721967913077e-06, 5.755303203754714e-06, 9.814949691975113e-06, 4.642865391813716e-06, 5.770147780950758e-06, 4.788899354799994e-06, 5.865764690223571e-06, 5.4422471573852365e-06, 5.60073848289475e-06, 4.38994947337434e-06, 5.300782761028736e-06], [0.0011452380662912447, 0.0006854181062159642, 0.0005424295870909341, 0.0005034250752974888, 0.00046987232301493704, 0.00042248693931599854, 0.00019033092562516511, 0.0002731710640994336, 0.00010149645707130124, 0.00011254713428414922, 0.00010382043155889541, 5.9438042386171134e-05, 5.645386727392476e-05, 4.8330949190594565e-05, 0.0001460693997479299, 7.771919784003813e-05, 9.284757378883105e-05, 5.2977251078945874e-05, 2.8474234134536224e-05, 4.175947078996796e-05, 3.1306536250260405e-05, 7.927367748115562e-05, 5.036721232167804e-05, 5.367587023421456e-05, 1.9467590457915263e-05, 2.2361647664348816e-05, 4.520498398580036e-05, 1.8809089070780623e-05, 2.5420103553235242e-05, 3.175892550938133e-05], [0.0006271953384081522, 0.0002200601001580556, 0.00011464510268221298, 8.767965094496805e-05, 7.372735999524593e-05, 6.748613280554611e-05, 4.141093619788686e-05, 3.1484748857716714e-05, 2.282805896053711e-05, 1.7905974527820944e-05, 1.4112456119619308e-05, 1.2477280688472091e-05, 1.1231287498958408e-05, 1.0142981773242353e-05, 9.73209001434346e-06, 8.841486608919997e-06, 7.513343977431455e-06, 7.120829347210625e-06, 6.328457675408571e-06, 5.965494589569667e-06, 5.4687741794623424e-06, 5.080177894948671e-06, 4.556946805678307e-06, 4.483643958034614e-06, 4.12153749493882e-06, 3.962842311011627e-06, 3.733555786311626e-06, 3.6568778644626336e-06, 3.505285955422247e-06, 3.4064825740642843e-06], [0.0007095301499973218, 0.00030721112613335685, 6.934716924907164e-05, 0.00029649194030955734, 0.0004323409954295368, 0.0002534101484955023, 0.00023920534020338904, 9.82073022283026e-05, 0.00010536591345403014, 7.47593534733481e-05, 9.76822913917634e-05, 3.365363554356854e-05, 3.641824392120526e-05, 2.384622666172962e-05, 7.229492681671923e-05, 5.9515834420764e-05, 3.9568991088043805e-05, 3.1731018988198626e-05, 2.520496925072864e-05, 4.571407885437903e-05, 2.0062681335979547e-05, 3.2276784983672865e-05, 1.2020287736456484e-05, 2.3811501974879943e-05, 2.249385718263312e-05, 1.171416882925259e-05, 1.4674573095263684e-05, 8.721542344284808e-06, 2.383534528411836e-05, 1.714197224675751e-05], [0.0006271953384081522, 0.0002200601001580556, 0.00011464510268221298, 8.767965094496805e-05, 7.372735999524593e-05, 6.748613280554611e-05, 4.141093619788686e-05, 3.1484748857716714e-05, 2.282805896053711e-05, 1.7905974527820944e-05, 1.4112456119619308e-05, 1.2477280688472091e-05, 1.1231287498958408e-05, 1.0142981773242353e-05, 9.73209001434346e-06, 8.841486608919997e-06, 7.513343977431455e-06, 7.120829347210625e-06, 6.328457675408571e-06, 5.965494589569667e-06, 5.4687741794623424e-06, 5.080177894948671e-06, 4.556946805678307e-06, 4.483643958034614e-06, 4.12153749493882e-06, 3.962842311011627e-06, 3.733555786311626e-06, 3.6568778644626336e-06, 3.505285955422247e-06, 3.4064825740642843e-06], [0.0027694894628624038, 0.0026943143827910477, 0.001958529837104018, 0.0012571394436310984, 0.0006540370688626941, 0.0014624698061196004, 0.0005188160153303655, 0.00034330421367545006, 0.00028567408009393314, 0.00043089424531158064, 0.0002125326664795175, 0.0001893741908351856, 0.00022557147980733792, 0.00012173807776005678, 0.0002421391666917959, 0.0001612976941339679, 0.00016218088131845538, 0.00014771599637448973, 0.00010613924687143538, 8.646413096336204e-05, 7.686997351814762e-05, 0.00014047357359359507, 7.801094449699675e-05, 8.299720265047814e-05, 7.23496975073947e-05, 7.035023900553633e-05, 8.191982493308189e-05, 0.00010546846682208225, 6.437419898137234e-05, 4.770670498248584e-05], [0.0009429787249617865, 0.00025007357278001137, 0.00013509721515078457, 0.00014214408245985467, 0.00012020638793111916, 0.0003029989630841166, 7.343354289217916e-05, 6.279663707252703e-05, 4.955800211764903e-05, 6.673263132174694e-05, 6.0131147208313116e-05, 2.690773094833786e-05, 2.064742608982954e-05, 1.5138053299121892e-05, 2.9126644094209464e-05, 2.8056675634887437e-05, 3.119636292126541e-05, 1.5371971688361157e-05, 1.9074886275700304e-05, 5.037153366790899e-05, 1.8597307808242285e-05, 1.897600077706685e-05, 6.096176387961284e-06, 8.482378331623272e-06, 1.4282537270174542e-05, 1.499482997405563e-05, 1.0792432234739036e-05, 1.1069944486190768e-05, 1.3116469258345471e-05, 8.699128229994596e-06], [0.0008799038358360055, 0.0002566317038029005, 0.00015002370032562895, 0.00020033591082928352, 0.00022197195651590804, 0.00010476633951507445, 6.836029547206586e-05, 8.171517674526706e-05, 6.739305465919031e-05, 4.626117220126146e-05, 4.187717353852874e-05, 2.0970795395535434e-05, 2.0747087702608904e-05, 1.1143353925291238e-05, 1.6428092479985166e-05, 1.5996640270400355e-05, 1.8077311107122147e-05, 1.3364584165756726e-05, 1.5571626679753525e-05, 1.8866019862372586e-05, 4.0873502768041236e-05, 2.8137765541007917e-05, 1.5936497070873806e-05, 2.3821204795761534e-05, 8.077899618100626e-06, 2.075515897331331e-05, 9.484974357394998e-06, 1.1472801219630652e-05, 7.809087605462565e-06, 1.00328390440407e-05], [0.003334196148644442, 0.003170713962344883, 0.006091827309734083, 0.003597892523580039, 0.002623397981419283, 0.0027097306802824845, 0.002070523792548221, 0.001305875427096675, 0.0008535282820430295, 0.0008409877936874827, 0.0008095418583547769, 0.001231293893237611, 0.0008960748903802609, 0.000669333911516066, 0.0005964418335008971, 0.0006381009064722843, 0.000437132331007379, 0.00041139372173148027, 0.0004915701309090332, 0.00029254888781421787, 0.0004094770730037165, 0.00027084502717919246, 0.00030004366810284784, 0.00030978464713484415, 0.00037127041712621897, 0.0003076379216099636, 0.0002968752519115558, 0.00026424629711374354, 0.0001802041493797272, 0.00017353287733454584], [0.0006859065750940827, 0.0003739885266412434, 0.000721302247352806, 0.00015331201159733243, 0.00018043697158184053, 0.00012323219894074574, 0.0003576177557132643, 0.00023715906560444397, 0.00016554254418236887, 0.00016074700406569557, 4.622586374468377e-05, 0.0001330219694299074, 7.023292436792402e-05, 0.0001118760220240842, 7.996583034585495e-05, 9.116825736554769e-05, 8.932515670663134e-05, 6.682922514029895e-05, 4.505255038946435e-05, 4.371867220763977e-05, 3.673964559692346e-05, 1.7684823250534416e-05, 5.4463514217245536e-05, 2.398992452371974e-05, 2.8452217978573127e-05, 3.3478034125405085e-05, 9.453117979499197e-05, 4.082310996282053e-05, 5.0060938056122015e-05, 7.777863888729105e-05], [0.0005363142671955905, 0.00030367388482264394, 0.00016741850900522343, 0.00013784172120893227, 0.0002001145611102466, 0.00016009003862987569, 9.138713348512127e-05, 3.584534651310785e-05, 4.827774567674361e-05, 5.0302110180590814e-05, 4.6926484648301354e-05, 3.4380670898607495e-05, 4.08131864021123e-05, 4.6261732517506216e-05, 2.382262035518531e-05, 2.4247795430609976e-05, 4.3268470120582105e-05, 2.5465012783855376e-05, 1.3959692219628766e-05, 1.586836595619991e-05, 6.731184722235215e-06, 1.4044772990563964e-05, 2.0208899276732894e-05, 1.9352340532285818e-05, 8.817372729646752e-06, 1.0545833852119938e-05, 2.257118717859497e-05, 1.0734588153997238e-05, 1.5506580894732622e-05, 1.0758100744225141e-05], [0.0006404947913367415, 0.0004430427602305038, 0.00024041194134371375, 0.000682675267532905, 0.0007699165210747068, 0.0005973965151083306, 0.0002345912855968122, 0.00011986278597488312, 8.903939067568372e-05, 0.0001509188623440177, 0.0001376230066476919, 8.254076431749806e-05, 0.00015754857254752228, 3.9755700481495604e-05, 0.00010202794113520714, 7.236469909197275e-05, 0.00010793943286181353, 4.665102086310582e-05, 2.0155588502205693e-05, 0.00010091781453024815, 6.575586156435778e-05, 5.535178294834966e-05, 6.623934126735941e-05, 4.217873689171524e-05, 1.8584372881249403e-05, 2.984228973980585e-05, 3.01289111589047e-05, 4.0084179539818035e-05, 2.3124135433295076e-05, 2.22143905179835e-05], [0.0006271953384081522, 0.0002200601001580556, 0.00011464510268221298, 8.767965094496805e-05, 7.372735999524593e-05, 6.748613280554611e-05, 4.141093619788686e-05, 3.1484748857716714e-05, 2.282805896053711e-05, 1.7905974527820944e-05, 1.4112456119619308e-05, 1.2477280688472091e-05, 1.1231287498958408e-05, 1.0142981773242353e-05, 9.73209001434346e-06, 8.841486608919997e-06, 7.513343977431455e-06, 7.120829347210625e-06, 6.328457675408571e-06, 5.965494589569667e-06, 5.4687741794623424e-06, 5.080177894948671e-06, 4.556946805678307e-06, 4.483643958034614e-06, 4.12153749493882e-06, 3.962842311011627e-06, 3.733555786311626e-06, 3.6568778644626336e-06, 3.505285955422247e-06, 3.4064825740642843e-06], [0.0006525335465634839, 0.0002083775414198284, 0.0001616439982233827, 0.0002142175436097066, 6.780442585907172e-05, 9.102050738371026e-05, 5.355926503778622e-05, 3.4794386484304954e-05, 2.662606509881431e-05, 6.037144300557184e-05, 2.6007226887214556e-05, 2.074716302464639e-05, 2.2210174491886515e-05, 1.9172847292739715e-05, 1.0461573587887e-05, 3.1633164104617035e-05, 7.399903577157702e-06, 7.962420089082472e-06, 7.587224793888405e-06, 1.0636970264967206e-05, 1.4194087695323557e-05, 9.015566745265819e-06, 4.915163492247094e-06, 6.176980280359462e-06, 5.259033304534831e-06, 4.070020835735429e-06, 5.542727143395091e-06, 5.098094710632401e-06, 5.933905848925894e-06, 5.7629595158876045e-06], [0.0010339554918346002, 0.0008380140847751846, 0.00016687065493559264, 9.396368443188807e-05, 6.727272763071633e-05, 8.094375364504728e-05, 4.8564725052643383e-05, 7.007482121866747e-05, 0.00012376183734964775, 2.0399945269604543e-05, 1.8386964102546244e-05, 1.5556764433895143e-05, 1.3599434315657294e-05, 2.0373011183351997e-05, 1.0856049873688085e-05, 1.0024593039657965e-05, 3.6830226176223846e-05, 1.8167736455299292e-05, 6.782243275357514e-06, 8.30512558822617e-06, 6.121392590444644e-06, 6.15037551295878e-06, 5.897426845931905e-06, 5.879189277528699e-06, 8.57587478020115e-06, 4.3469264606704805e-06, 4.322297042273542e-06, 4.0929457153006325e-06, 3.621006171723081e-06, 1.8554215750300487e-05], [0.0009757240593438037, 0.0006442901563087059, 0.0002028407412770596, 0.0006670585187041504, 0.000995367884554618, 0.0006703568454398967, 0.00017288270896779814, 0.00022786693638260648, 0.0001172759803315976, 0.00014045947967791754, 0.00013464410137399018, 0.00011232922584461916, 8.279833175972018e-05, 3.131759124515002e-05, 8.47669728857908e-05, 5.2081602664309656e-05, 0.0001391390293729047, 5.8835466359215577e-05, 3.041301849603388e-05, 0.0001319199205531794, 5.035420423910374e-05, 2.4766439628449208e-05, 2.559905028803768e-05, 7.947009169946409e-05, 2.9530821294302834e-05, 4.689261966747857e-05, 3.201466789574075e-05, 2.5720557466142507e-05, 3.6653732954278965e-05, 3.667938486331325e-05], [0.0006492607513849174, 0.0004098849837806096, 0.00017552426198407968, 0.00013976150086538396, 8.44347021763517e-05, 0.00016752893206197782, 7.671800627767764e-05, 5.22306133461943e-05, 2.4576830338575942e-05, 2.539167888165792e-05, 2.6002836272853293e-05, 3.855299508930707e-05, 1.963427244833837e-05, 2.2922692117955794e-05, 5.737437695204621e-05, 2.113919922246694e-05, 2.8301888454207853e-05, 9.981541057492092e-06, 2.409161570660774e-05, 8.248096091588238e-06, 6.094446392095423e-06, 2.2237185977580264e-05, 1.1950633317127244e-05, 1.0225366230335979e-05, 9.21101913250082e-06, 3.9967571637871335e-06, 8.271340565682795e-06, 5.59950681596117e-06, 9.380201215779986e-06, 6.91156031910504e-06], [0.002199141114028009, 0.00021328304862907146, 0.0006544458152238638, 8.237919384004049e-05, 0.00019414670295330455, 6.362384786095978e-05, 7.43104107950581e-05, 8.544345053639091e-05, 2.2267925153799573e-05, 4.501383579067964e-05, 5.945445561798249e-05, 0.00011985204880942948, 1.0717004363185304e-05, 4.2971220415184184e-05, 1.2853007424324334e-05, 8.496910649839234e-06, 9.782322732464192e-06, 6.786318963340189e-06, 9.689986097448275e-06, 8.424538845818444e-06, 1.2909083558700101e-05, 1.3500740702655198e-05, 4.50120352946513e-06, 4.902200226905005e-06, 2.2839023457570873e-05, 1.1406657807174519e-05, 6.8724258083355835e-06, 1.4230744039476878e-05, 3.868919386983549e-06, 7.697853135719106e-06], [0.0005612489002221107, 0.0002668299359157266, 0.0009809627839219353, 0.00020176040067492663, 8.950070147057177e-05, 0.00017957988389221544, 5.9109470183747384e-05, 8.234838240230828e-05, 3.75727115111272e-05, 1.7860251113525947e-05, 1.574239992479989e-05, 2.0862951211829736e-05, 1.2878126956496086e-05, 7.785712484923644e-05, 1.3469681802561799e-05, 3.144443240041154e-05, 1.745630095205759e-05, 2.1320405004239055e-05, 9.294774523074443e-06, 1.1067465551978767e-05, 9.433952620724387e-06, 8.969702130021262e-06, 6.237090639743048e-06, 6.866215497866998e-06, 6.896311376414431e-06, 1.3909114707825913e-05, 5.992938772734038e-06, 6.725769330530943e-06, 6.056672847483986e-06, 1.241506505886589e-05], [0.0005288216373859236, 0.00017602833438316984, 7.236393000905708e-05, 0.00025282466412195916, 0.00021782085492472145, 0.00015502298717911603, 7.418881163078081e-05, 0.00012936083608168267, 4.383591212584955e-05, 2.6372089375519356e-05, 3.2332609284122654e-05, 2.5939742648710655e-05, 4.10194859414857e-05, 1.5583486034374006e-05, 2.433204698613585e-05, 3.656871288229622e-05, 4.893413302014016e-05, 1.5229197327801544e-05, 2.310896150147832e-05, 1.4235611503114414e-05, 1.084371036662236e-05, 3.3094403112661495e-05, 1.4535268596346327e-05, 1.740586656096264e-05, 1.5384696899039318e-05, 1.0742860003792105e-05, 9.968083151520537e-06, 1.0792742246750487e-05, 6.544864892793315e-06, 9.4232572985584e-06], [0.0006271953384081522, 0.0002200601001580556, 0.00011464510268221298, 8.767965094496805e-05, 7.372735999524593e-05, 6.748613280554611e-05, 4.141093619788686e-05, 3.1484748857716714e-05, 2.282805896053711e-05, 1.7905974527820944e-05, 1.4112456119619308e-05, 1.2477280688472091e-05, 1.1231287498958408e-05, 1.0142981773242353e-05, 9.73209001434346e-06, 8.841486608919997e-06, 7.513343977431455e-06, 7.120829347210625e-06, 6.328457675408571e-06, 5.965494589569667e-06, 5.4687741794623424e-06, 5.080177894948671e-06, 4.556946805678307e-06, 4.483643958034614e-06, 4.12153749493882e-06, 3.962842311011627e-06, 3.733555786311626e-06, 3.6568778644626336e-06, 3.505285955422247e-06, 3.4064825740642843e-06], [0.0005353628624285092, 0.00028020352354189427, 4.927014407952792e-05, 0.00013338594845891497, 0.00017064784323157306, 0.00019473343863393743, 0.00012673789120867405, 5.159309479591749e-05, 7.245718706727632e-05, 2.9471184045241046e-05, 9.170537092980552e-05, 3.165630935987387e-05, 2.54869364912026e-05, 1.4140083240164178e-05, 2.5002766145153045e-05, 3.2791799732537793e-05, 2.300963311011102e-05, 2.278983208552095e-05, 8.520887383592116e-06, 2.39681522026482e-05, 2.234191526493044e-05, 1.639576275679172e-05, 9.982454950639736e-06, 1.627002352171159e-05, 1.822021828505551e-05, 1.2149726053957377e-05, 1.1084503321404567e-05, 6.732948237025801e-06, 1.7081021209261172e-05, 4.649211358093017e-06], [0.0010624564011455914, 0.0017240984470974518, 0.0006199274200379998, 0.0005617417620025386, 0.0003722466371972962, 0.0008501520274635891, 0.0004951329024949397, 0.0003041106446942957, 0.00022184247254904317, 0.0002613597058562927, 0.0001102463773955712, 0.0001283563323629031, 7.416346896196162e-05, 8.250164122269082e-05, 8.289578715211451e-05, 0.00014337968444066775, 0.00014167291782654046, 