{"timestamp_utc": "2026-02-19T08:48:40+00:00", "case_id": "elephant_7_val_9", "bgmm_weights": [9.998999604768585e-05, 0.05288014601037468, 0.01823176745059376, 9.995868499514698e-05, 0.0002996731440836696, 0.018549367442978398, 0.029236635443289888, 9.991485447710658e-05, 0.010669155588921017, 9.989204500624192e-05, 9.988057337287853e-05, 9.986910305692104e-05, 0.02593297484231877, 0.027577827195649773, 9.98335999618389e-05, 0.0007946585788502589, 9.98091634595549e-05, 9.979694224775786e-05, 9.978472253239677e-05, 9.977250431328835e-05, 0.009882999938012511, 9.974792390053441e-05, 9.97355617431007e-05, 0.04417332632150031, 9.971012584197697e-05, 0.022315430620392068, 9.968358702121335e-05, 0.0002989384697741783, 9.965665832220972e-05, 9.964319488305308e-05, 0.023651483571735136, 0.026194505705116514, 9.960140002458869e-05, 0.03402693481587815, 0.030053595357349673, 0.024699790735194745, 0.040321644032414346, 0.08393537483630004, 0.01338668663759536, 9.947926971806353e-05, 9.945780734091322e-05, 0.0015770681961132377, 0.0011905930167092635, 9.939325877737259e-05, 0.009954469675966714, 0.026597039090321795, 0.02809728374936948, 0.16145902807532356, 0.050703897392125545, 0.0303136673090767, 9.913916093220741e-05, 0.0011870441955880422, 9.900846499017936e-05, 9.894294529611477e-05, 9.887746896026516e-05, 9.881203595393788e-05, 9.874664624845923e-05, 9.86812998151745e-05, 9.861599662544798e-05, 9.855073665066284e-05, 9.848551986222127e-05, 9.842034623154429e-05, 0.01653862706556418, 0.021009720653113413, 9.819515059730386e-05, 0.015342188627899265, 9.800780566385736e-05, 9.79073696672056e-05, 0.0002934115027996496, 9.77066005026888e-05, 9.760626754629339e-05, 0.04721874130155816, 0.011088613644345865, 9.704957588792465e-05, 9.67925618465145e-05, 9.653622844916567e-05, 0.006540071341210405, 9.597066815323871e-05, 0.015161354621012903, 0.014557599976654356], "bgmm_means": [[-4.1959435037597266e-08, 5.030259320193397e-09, -6.701983412682451e-09, 3.357417810434519e-08, 2.951780375681772e-09, -9.193141181640365e-08, -1.0716170173452587e-08, 6.023400089816264e-08, 9.973440739940976e-09, 4.459880287299701e-08, 1.1870590732598858e-08, 6.347138281626016e-08, -2.3375521962520854e-08, 1.977421426602173e-08, 1.0938476791011428e-08, 8.110536953154205e-08, 3.473339660331468e-08, 5.453720319792398e-08, -2.671098364714902e-08, -3.940025194992805e-08, 5.858786167323147e-08, -3.399355463784552e-08, -2.0506583098267537e-08, -5.100800137824979e-08, -2.298988377447126e-08, -2.079926275655448e-08, -2.563889189843843e-08, 2.656460829086876e-08, -4.786965135394883e-08, -7.473759922049777e-08], [-0.05411946034782927, -0.001389137256750466, 0.017041792722752303, 0.014545174722342973, -0.005765660822024369, -9.380186165728626e-05, 0.004074466851718932, -0.003021420050528624, 0.004244787628118604, -0.001829526771141144, -0.0013998051134567722, -0.007133433003578785, 0.00347245258490445, 0.0021657737391586485, 0.0012394098979693951, -0.0001373341709539152, 0.0010664195103457206, 0.0013064859298359463, -0.0006333120051495102, 0.0006234787461010697, -0.0015742982113772833, -0.0012301833949324883, -0.00048777687049576525, -0.0003152684605099042, 0.0003801252278003419, -0.0006315652614432195, 5.544748167582179e-05, 0.0008685228791886952, -0.000187708404962107, -0.0004032547084312095], [0.041039641948599145, 0.025106972579413144, 0.034978185512597564, -0.0053475489778769736, 0.002783744465439745, -0.014148108263632088, -0.008849901391712893, 0.0029691476541296455, -0.005773800571753868, 0.004521618768831909, -0.0035037750456361153, 0.0011640270347735592, 0.0033426686534094355, -0.003423133674924232, 0.002951650228454246, 0.0006891612952499996, -6.589300192539618e-05, 0.00026456604315617757, 0.0022247686257034697, 0.0025943797399330458, 0.0008871033286794261, -0.00042652613773324147, 0.0010799508610596835, -0.0021452098023449447, -0.00018901916754843177, 0.00032430493853261385, 0.00021127916124306532, 0.0011141586049451936, -0.0003319185955280733, 3.331129309098845e-05], [-4.1959435037597266e-08, 5.030259320193397e-09, -6.701983412682451e-09, 3.357417810434519e-08, 2.951780375681772e-09, -9.193141181640365e-08, -1.0716170173452587e-08, 6.023400089816264e-08, 9.973440739940976e-09, 4.459880287299701e-08, 1.1870590732598858e-08, 6.347138281626016e-08, -2.3375521962520854e-08, 1.977421426602173e-08, 1.0938476791011428e-08, 8.110536953154205e-08, 3.473339660331468e-08, 5.453720319792398e-08, -2.671098364714902e-08, -3.940025194992805e-08, 5.858786167323147e-08, -3.399355463784552e-08, -2.0506583098267537e-08, -5.100800137824979e-08, -2.298988377447126e-08, -2.079926275655448e-08, -2.563889189843843e-08, 2.656460829086876e-08, -4.786965135394883e-08, -7.473759922049777e-08], [0.013033336997494835, 0.005349263749980701, 0.008504464073638144, -0.0009509352974303256, -0.00036316487674427833, -0.01887938018724645, -0.009535790912929819, 0.0022089765971738183, -0.0003932428572578357, 0.0051579013017304404, 0.00016044148198468889, 0.0005072220075783765, 0.002739290186747543, -0.005632861160281712, 0.0007919606833969558, -0.0021030900538093087, 0.002304129854735571, 0.0014958378343134923, 0.0010840732456989949, -0.0011516455045582857, -0.0018606580925088214, -0.0031950946623944326, 0.00023270218834612382, -0.0019611848728661005, -0.000313991477325219, -0.0020537729650852567, -0.00034217114082081985, 0.0001962565098421359, -0.001813554351243532, 0.0026675411079399433], [-0.019774057216896238, -0.023434874758508178, -0.019075894317780392, 0.0014030692301036439, 0.016109509814099587, -0.0018952461581433241, 0.012459196842417457, 0.00625318848960017, -0.009157091207430319, -0.0006197900781046006, -0.004023183353879185, 0.005036228823398288, -0.0006767107389385096, 0.0006657399292271628, -0.0014150350438037393, -0.0012011159525389182, 0.0042310405969762975, 0.0004541107646134247, -0.0032148900993769075, 0.0010378444161582101, 0.0007262750941197344, -0.00014616570443148167, 0.0015434059479612604, -0.0019155435798258512, 0.0014728383548303942, 3.907815903941235e-05, -0.00029672422850947816, 0.0011138431628416761, 0.0009950942844305828, -0.00045978830812260586], [0.00026153728977944463, 0.012844517467378472, 0.01686767846416304, -0.00015904639877638706, 0.01140807169539864, -0.0021460461277343916, -0.0010579698852046318, -0.00513437672282417, 0.0014329106133307739, 0.003183986076127214, 0.004361297747427991, 0.0032890044058621064, -0.0017934732946184107, 2.697155205525873e-06, -0.0002725352117084105, 0.0009896086159729648, -0.005246479774313966, 0.0006038251614415199, 0.0024661364211915897, 0.0012923209080171695, 0.0006634418556107894, -9.890483463222602e-05, 0.0006053686173780946, 0.00029280453426863614, 0.0010997175529232736, 0.0012962700416773013, 0.0002938104321649975, -0.0002591987815173122, 0.00030127781972977394, 0.0007667229941427296], [-4.1959435037597266e-08, 5.030259320193397e-09, -6.701983412682451e-09, 3.357417810434519e-08, 2.951780375681772e-09, -9.193141181640365e-08, -1.0716170173452587e-08, 6.023400089816264e-08, 9.973440739940976e-09, 4.459880287299701e-08, 1.1870590732598858e-08, 6.347138281626016e-08, -2.3375521962520854e-08, 1.977421426602173e-08, 1.0938476791011428e-08, 8.110536953154205e-08, 3.473339660331468e-08, 5.453720319792398e-08, -2.671098364714902e-08, -3.940025194992805e-08, 5.858786167323147e-08, -3.399355463784552e-08, -2.0506583098267537e-08, -5.100800137824979e-08, -2.298988377447126e-08, -2.079926275655448e-08, -2.563889189843843e-08, 2.656460829086876e-08, -4.786965135394883e-08, -7.473759922049777e-08], [0.05453896516926897, -0.0032656491502440054, 0.0030450121510193526, 0.01444867076272973, 0.010532107480169774, -0.008396439319276494, 0.0024325031018838255, -0.00689431275490422, 0.002760131621207579, 0.0009279220931686983, 0.0016446825461317728, 0.01125016818525833, 0.0007030441363985957, 0.0015226940299470494, 0.0006706178612321942, 0.004135836823499527, 0.002140648937615018, 0.0017171179370499554, 0.0019178808746916963, 0.0016379558533953008, -0.0024464572060531346, -0.004844671208278955, -0.0028959637199067268, 0.001989613412584744, -0.001759878243181923, -0.0028462486122351385, -0.0004513610731849126, 0.001077634854309069, -0.0010082604700156544, -0.0007488841872843878], [-4.1959435037597266e-08, 5.030259320193397e-09, -6.701983412682451e-09, 3.357417810434519e-08, 2.951780375681772e-09, -9.193141181640365e-08, -1.0716170173452587e-08, 6.023400089816264e-08, 9.973440739940976e-09, 4.459880287299701e-08, 1.1870590732598858e-08, 6.347138281626016e-08, -2.3375521962520854e-08, 1.977421426602173e-08, 1.0938476791011428e-08, 8.110536953154205e-08, 3.473339660331468e-08, 5.453720319792398e-08, -2.671098364714902e-08, -3.940025194992805e-08, 5.858786167323147e-08, -3.399355463784552e-08, -2.0506583098267537e-08, -5.100800137824979e-08, -2.298988377447126e-08, -2.079926275655448e-08, -2.563889189843843e-08, 2.656460829086876e-08, -4.786965135394883e-08, -7.473759922049777e-08], [-4.1959435037597266e-08, 5.030259320193397e-09, -6.701983412682451e-09, 3.357417810434519e-08, 2.951780375681772e-09, -9.193141181640365e-08, -1.0716170173452587e-08, 6.023400089816264e-08, 9.973440739940976e-09, 4.459880287299701e-08, 1.1870590732598858e-08, 6.347138281626016e-08, -2.3375521962520854e-08, 1.977421426602173e-08, 1.0938476791011428e-08, 8.110536953154205e-08, 3.473339660331468e-08, 5.453720319792398e-08, -2.671098364714902e-08, -3.940025194992805e-08, 5.858786167323147e-08, -3.399355463784552e-08, -2.0506583098267537e-08, -5.100800137824979e-08, -2.298988377447126e-08, -2.079926275655448e-08, -2.563889189843843e-08, 2.656460829086876e-08, -4.786965135394883e-08, -7.473759922049777e-08], [-4.1959435037597266e-08, 5.030259320193397e-09, -6.701983412682451e-09, 3.357417810434519e-08, 2.951780375681772e-09, -9.193141181640365e-08, -1.0716170173452587e-08, 6.023400089816264e-08, 9.973440739940976e-09, 4.459880287299701e-08, 1.1870590732598858e-08, 6.347138281626016e-08, -2.3375521962520854e-08, 1.977421426602173e-08, 1.0938476791011428e-08, 8.110536953154205e-08, 3.473339660331468e-08, 5.453720319792398e-08, -2.671098364714902e-08, -3.940025194992805e-08, 5.858786167323147e-08, -3.399355463784552e-08, -2.0506583098267537e-08, -5.100800137824979e-08, -2.298988377447126e-08, -2.079926275655448e-08, -2.563889189843843e-08, 2.656460829086876e-08, -4.786965135394883e-08, -7.473759922049777e-08], [-0.013066769070641115, 0.002965245928270214, 0.020014830837481092, -0.008374971515271865, -0.00550579311641136, -0.009240982692321193, 0.003961879900963274, 0.0027021271478023367, -0.001033550775499696, 0.00531580329631946, 0.00042412931533452247, -0.002232918588700441, -0.002774442126850418, -0.0023287230082888175, -0.0013782761907207902, 0.001250449225605181, 0.00103421147013889, 0.000993333841365644, -0.0009140977237472533, -0.0032797877975651608, -0.0007355249729258357, -0.000611455187695987, -0.00045675107570294346, 0.0005820096086871432, 0.0009317644344793525, -0.00023642412972689383, 0.0008907125974672407, -0.0006947786502555126, 0.0015393278466698565, -0.00012664070235733296], [-0.032190611211808724, -0.00827159901331169, 0.007912479984807002, 0.006291152589011463, 0.0027311211053990306, -0.007293193314735031, 0.002605925275710865, -0.005813745475203878, 0.006550999043930627, -0.00580001317864415, 0.0034807521754151726, -0.0015693523161423415, 0.0025163097861445314, -0.0016460444688898303, 0.0023209069269917765, -0.0015236639851221824, 0.0008105861220808369, 0.0004742497131076899, 0.0007648759948928869, 0.0007210889192746727, -5.1956818204438937e-05, 0.0010121561470759636, -0.0007411609176529074, 0.000350152074216415, 0.0019661235811595946, 0.000903606618074306, -3.286260830544594e-05, -0.00025454647864093925, -0.00038502801528305893, 0.00032140522431780893], [-4.1959435037597266e-08, 5.030259320193397e-09, -6.701983412682451e-09, 3.357417810434519e-08, 2.951780375681772e-09, -9.193141181640365e-08, -1.0716170173452587e-08, 6.023400089816264e-08, 9.973440739940976e-09, 4.459880287299701e-08, 1.1870590732598858e-08, 6.347138281626016e-08, -2.3375521962520854e-08, 1.977421426602173e-08, 1.0938476791011428e-08, 8.110536953154205e-08, 3.473339660331468e-08, 5.453720319792398e-08, -2.671098364714902e-08, -3.940025194992805e-08, 5.858786167323147e-08, -3.399355463784552e-08, -2.0506583098267537e-08, -5.100800137824979e-08, -2.298988377447126e-08, -2.079926275655448e-08, -2.563889189843843e-08, 2.656460829086876e-08, -4.786965135394883e-08, -7.473759922049777e-08], [-0.02513857433637955, -0.027041616402051268, -0.008639078609665406, 0.006617584589837221, 0.0171264392587948, 0.004939714537747452, -0.002841188167567847, 0.006633107183059768, -0.010411115955714121, 0.006435967671209606, 0.003309822126619993, 0.0041327791669371955, -0.003540531889500775, 0.002750746833960777, 0.0026404516327808132, -0.0019022314364845318, 0.0029606669547125736, 0.0017306265335661278, -0.003753948364600099, 0.004250039443304957, 0.002913259827295683, -0.0011728327656005465, -0.0005105339122268777, -0.0009783128593787121, -0.0005427948900607643, -0.00019227552946548878, 0.00014136088594795453, 0.00041029502677372584, 0.0017687679181954187, -0.0007450024119789193], [-4.1959435037597266e-08, 5.030259320193397e-09, -6.701983412682451e-09, 3.357417810434519e-08, 2.951780375681772e-09, -9.193141181640365e-08, -1.0716170173452587e-08, 6.023400089816264e-08, 9.973440739940976e-09, 4.459880287299701e-08, 1.1870590732598858e-08, 6.347138281626016e-08, -2.3375521962520854e-08, 1.977421426602173e-08, 1.0938476791011428e-08, 8.110536953154205e-08, 3.473339660331468e-08, 5.453720319792398e-08, -2.671098364714902e-08, -3.940025194992805e-08, 5.858786167323147e-08, -3.399355463784552e-08, -2.0506583098267537e-08, -5.100800137824979e-08, -2.298988377447126e-08, -2.079926275655448e-08, -2.563889189843843e-08, 2.656460829086876e-08, -4.786965135394883e-08, -7.473759922049777e-08], [-4.1959435037597266e-08, 5.030259320193397e-09, -6.701983412682451e-09, 3.357417810434519e-08, 2.951780375681772e-09, -9.193141181640365e-08, -1.0716170173452587e-08, 6.023400089816264e-08, 9.973440739940976e-09, 4.459880287299701e-08, 1.1870590732598858e-08, 6.347138281626016e-08, -2.3375521962520854e-08, 1.977421426602173e-08, 1.0938476791011428e-08, 8.110536953154205e-08, 3.473339660331468e-08, 5.453720319792398e-08, -2.671098364714902e-08, -3.940025194992805e-08, 5.858786167323147e-08, -3.399355463784552e-08, -2.0506583098267537e-08, -5.100800137824979e-08, -2.298988377447126e-08, -2.079926275655448e-08, -2.563889189843843e-08, 2.656460829086876e-08, -4.786965135394883e-08, -7.473759922049777e-08], [-4.1959435037597266e-08, 5.030259320193397e-09, -6.701983412682451e-09, 3.357417810434519e-08, 2.951780375681772e-09, -9.193141181640365e-08, -1.0716170173452587e-08, 6.023400089816264e-08, 9.973440739940976e-09, 4.459880287299701e-08, 1.1870590732598858e-08, 6.347138281626016e-08, -2.3375521962520854e-08, 1.977421426602173e-08, 1.0938476791011428e-08, 8.110536953154205e-08, 3.473339660331468e-08, 5.453720319792398e-08, -2.671098364714902e-08, -3.940025194992805e-08, 5.858786167323147e-08, -3.399355463784552e-08, -2.0506583098267537e-08, -5.100800137824979e-08, -2.298988377447126e-08, -2.079926275655448e-08, -2.563889189843843e-08, 2.656460829086876e-08, -4.786965135394883e-08, -7.473759922049777e-08], [-4.1959435037597266e-08, 5.030259320193397e-09, -6.701983412682451e-09, 3.357417810434519e-08, 2.951780375681772e-09, -9.193141181640365e-08, -1.0716170173452587e-08, 6.023400089816264e-08, 9.973440739940976e-09, 4.459880287299701e-08, 1.1870590732598858e-08, 6.347138281626016e-08, -2.3375521962520854e-08, 1.977421426602173e-08, 1.0938476791011428e-08, 8.110536953154205e-08, 3.473339660331468e-08, 5.453720319792398e-08, -2.671098364714902e-08, -3.940025194992805e-08, 5.858786167323147e-08, -3.399355463784552e-08, -2.0506583098267537e-08, -5.100800137824979e-08, -2.298988377447126e-08, -2.079926275655448e-08, -2.563889189843843e-08, 2.656460829086876e-08, -4.786965135394883e-08, -7.473759922049777e-08], [0.006959800337209644, 0.021073526771388917, 0.024010930050647885, 0.004211300084690549, 0.005536070173799046, 0.017954866443880762, 0.0021418143349524812, -0.006911197119156065, -0.0169223970707538, -0.005158096093835648, 0.004777250001768205, 0.006570500660540929, 0.0021741962094686796, -0.001983790146251651, -1.880222135259354e-05, 0.00010029826323474633, -0.003043122525495913, -0.001425355698066056, -0.002427318799442952, -0.003231876514201311, 0.0005567194373441974, -5.896242022800821e-06, 0.0009163510384564135, 0.0003994220519854115, -0.00018882037294444757, -0.00031945890230186664, -0.0013617049837094236, -0.0009095654996858723, -0.0010563377115139659, -0.0003710524721857706], [-4.1959435037597266e-08, 5.030259320193397e-09, -6.701983412682451e-09, 3.357417810434519e-08, 2.951780375681772e-09, -9.193141181640365e-08, -1.0716170173452587e-08, 6.023400089816264e-08, 9.973440739940976e-09, 4.459880287299701e-08, 1.1870590732598858e-08, 6.347138281626016e-08, -2.3375521962520854e-08, 1.977421426602173e-08, 1.0938476791011428e-08, 8.110536953154205e-08, 3.473339660331468e-08, 5.453720319792398e-08, -2.671098364714902e-08, -3.940025194992805e-08, 5.858786167323147e-08, -3.399355463784552e-08, -2.0506583098267537e-08, -5.100800137824979e-08, -2.298988377447126e-08, -2.079926275655448e-08, -2.563889189843843e-08, 2.656460829086876e-08, -4.786965135394883e-08, -7.473759922049777e-08], [-4.1959435037597266e-08, 5.030259320193397e-09, -6.701983412682451e-09, 3.357417810434519e-08, 2.951780375681772e-09, -9.193141181640365e-08, -1.0716170173452587e-08, 6.023400089816264e-08, 9.973440739940976e-09, 4.459880287299701e-08, 1.1870590732598858e-08, 6.347138281626016e-08, -2.3375521962520854e-08, 1.977421426602173e-08, 1.0938476791011428e-08, 8.110536953154205e-08, 3.473339660331468e-08, 5.453720319792398e-08, -2.671098364714902e-08, -3.940025194992805e-08, 5.858786167323147e-08, -3.399355463784552e-08, -2.0506583098267537e-08, -5.100800137824979e-08, -2.298988377447126e-08, -2.079926275655448e-08, -2.563889189843843e-08, 2.656460829086876e-08, -4.786965135394883e-08, -7.473759922049777e-08], [0.015585756601443592, 0.0476930430516188, -0.03417727225157697, 0.004377704669332298, -0.0005019346218468557, -0.0027269682063869676, -0.0018736711605924898, -0.005348427261834616, 0.0024996759755691335, 0.002325380936571158, -0.0013386096629337007, -0.0023582172423743867, -0.0026414578786888797, -0.0009955690244019151, 0.0034031824915338868, -0.0006389747436076459, -0.0006129314927662029, 0.001823701672618885, -0.0015309792183133225, -0.0007676709752760994, 0.0016583910987290659, -0.0006141814896109138, 0.0011216912537851253, -0.0003069255663590131, -0.0007149437303925936, 0.0010312019712312144, -0.0001796964340537994, 0.0015592898750386188, 0.0009843334099231345, -0.0012335825531571362], [-4.1959435037597266e-08, 5.030259320193397e-09, -6.701983412682451e-09, 3.357417810434519e-08, 2.951780375681772e-09, -9.193141181640365e-08, -1.0716170173452587e-08, 6.023400089816264e-08, 9.973440739940976e-09, 4.459880287299701e-08, 1.1870590732598858e-08, 6.347138281626016e-08, -2.3375521962520854e-08, 1.977421426602173e-08, 1.0938476791011428e-08, 8.110536953154205e-08, 3.473339660331468e-08, 5.453720319792398e-08, -2.671098364714902e-08, -3.940025194992805e-08, 5.858786167323147e-08, -3.399355463784552e-08, -2.0506583098267537e-08, -5.100800137824979e-08, -2.298988377447126e-08, -2.079926275655448e-08, -2.563889189843843e-08, 2.656460829086876e-08, -4.786965135394883e-08, -7.473759922049777e-08], [-0.05045452113163942, 0.021017392802629632, -0.023650964168387658, -0.0030158380035362827, -0.017725856545190453, -0.001057953298283853, 0.001074398989375083, -0.0032724245009718034, -0.0043836132963257545, -0.004070172319761192, -0.011033789394900358, 0.0023524705032823634, -0.0020262851514342537, -0.0022720799157796723, 0.0022967524748019864, 0.003507024692009667, 0.0008809465217526063, 5.027276544489235e-05, 0.003949246909326502, 0.002422116097018547, 0.0016459583227985781, 0.00021660531617471798, -0.002300399616440614, 0.00015797951338627532, -0.001984424989311419, -0.0006058809518700449, -0.0012413143555201386, -0.0002533889829859313, -0.0002597141124959019, 0.0004434091875653445], [-4.1959435037597266e-08, 5.030259320193397e-09, -6.701983412682451e-09, 3.357417810434519e-08, 2.951780375681772e-09, -9.193141181640365e-08, -1.0716170173452587e-08, 6.023400089816264e-08, 9.973440739940976e-09, 4.459880287299701e-08, 1.1870590732598858e-08, 6.347138281626016e-08, -2.3375521962520854e-08, 1.977421426602173e-08, 1.0938476791011428e-08, 8.110536953154205e-08, 3.473339660331468e-08, 5.453720319792398e-08, -2.671098364714902e-08, -3.940025194992805e-08, 5.858786167323147e-08, -3.399355463784552e-08, -2.0506583098267537e-08, -5.100800137824979e-08, -2.298988377447126e-08, -2.079926275655448e-08, -2.563889189843843e-08, 2.656460829086876e-08, -4.786965135394883e-08, -7.473759922049777e-08], [0.01429350581087216, -0.018555568760669782, -0.003311001643962265, 0.005301427687706223, 0.024312845802146352, -0.00642565766110585, 0.006365420914818344, -0.0028366917146816933, 0.0008287209699469758, 0.000769151797328395, -0.008414402817421278, 0.008702839152747662, -0.002191594952247609, 0.003929074842485968, -5.702837602117914e-05, 0.0022720473065938377, 0.0011416733928833734, 0.0038038336879860695, -0.0017728326960610135, -7.846825012247378e-05, -0.001967099699630312, -0.00226428910154684, -0.00016571570614803293, 0.0013909792353369336, -0.0003376839604390914, -0.00294543597450428, 0.00010541297768012388, -3.2834170821330487e-06, 0.00022489422327322603, 0.00033916951174378695], [-4.1959435037597266e-08, 5.030259320193397e-09, -6.701983412682451e-09, 3.357417810434519e-08, 2.951780375681772e-09, -9.193141181640365e-08, -1.0716170173452587e-08, 6.023400089816264e-08, 9.973440739940976e-09, 4.459880287299701e-08, 1.1870590732598858e-08, 6.347138281626016e-08, -2.3375521962520854e-08, 1.977421426602173e-08, 1.0938476791011428e-08, 8.110536953154205e-08, 3.473339660331468e-08, 5.453720319792398e-08, -2.671098364714902e-08, -3.940025194992805e-08, 5.858786167323147e-08, -3.399355463784552e-08, -2.0506583098267537e-08, -5.100800137824979e-08, -2.298988377447126e-08, -2.079926275655448e-08, -2.563889189843843e-08, 2.656460829086876e-08, -4.786965135394883e-08, -7.473759922049777e-08], [-4.1959435037597266e-08, 5.030259320193397e-09, -6.701983412682451e-09, 3.357417810434519e-08, 2.951780375681772e-09, -9.193141181640365e-08, -1.0716170173452587e-08, 6.023400089816264e-08, 9.973440739940976e-09, 4.459880287299701e-08, 1.1870590732598858e-08, 6.347138281626016e-08, -2.3375521962520854e-08, 1.977421426602173e-08, 1.0938476791011428e-08, 8.110536953154205e-08, 3.473339660331468e-08, 5.453720319792398e-08, -2.671098364714902e-08, -3.940025194992805e-08, 5.858786167323147e-08, -3.399355463784552e-08, -2.0506583098267537e-08, -5.100800137824979e-08, -2.298988377447126e-08, -2.079926275655448e-08, -2.563889189843843e-08, 2.656460829086876e-08, -4.786965135394883e-08, -7.473759922049777e-08], [-0.03747193773546909, -0.006969632949189793, 0.0018555414242727403, -0.007650661840255278, -0.00855906885266415, 0.0020466972947499247, -0.012690845833536833, -0.0002951635843782631, 0.0016738545644464883, -0.005410936914792007, 0.003230470871015028, -0.00048108989263899226, -0.0003818825737344931, 0.004852435445664121, -5.820667240596401e-05, -0.002087240744615755, 0.0017992604391761221, -1.730011154861937e-05, 0.0017400319979793354, -0.0004980772786279506, -0.0027900760083242296, -0.00019853977066509637, 2.07052843921284e-05, -0.0009218662401100776, -0.0002866652237654784, 0.00010207409997387069, -1.947834567446718e-05, 0.00019378997097682638, -0.00018083139151586568, 0.00042929399556369444], [-0.028483126697720046, 0.006636725883173402, 0.006704958892917729, 0.0013141924136416722, -1.5373730462375296e-06, 0.012382233526687525, -0.0037089959557075063, 0.0027610029857700743, -0.003053658883645111, 0.002666595206624066, 0.0014996955584011408, 0.002851204783508004, -0.00347540658646117, -0.0010648784243908562, -0.004458177149393535, 0.001234955322366076, -0.001481907191502715, -0.0028885671727060377, -0.000485347523014623, 0.00040751469078157337, -0.0005603495661569397, 0.0004857945067046606, -0.001359399453126775, 0.0010909038873505178, -0.00023235888736978597, 0.0007873371100762971, -0.001001315870305711, -0.0008392462714959245, 0.00013534505340940864, 6.545058520072705e-05], [-4.1959435037597266e-08, 5.030259320193397e-09, -6.701983412682451e-09, 3.357417810434519e-08, 2.951780375681772e-09, -9.193141181640365e-08, -1.0716170173452587e-08, 6.023400089816264e-08, 9.973440739940976e-09, 4.459880287299701e-08, 1.1870590732598858e-08, 6.347138281626016e-08, -2.3375521962520854e-08, 1.977421426602173e-08, 1.0938476791011428e-08, 8.110536953154205e-08, 3.473339660331468e-08, 5.453720319792398e-08, -2.671098364714902e-08, -3.940025194992805e-08, 5.858786167323147e-08, -3.399355463784552e-08, -2.0506583098267537e-08, -5.100800137824979e-08, -2.298988377447126e-08, -2.079926275655448e-08, -2.563889189843843e-08, 2.656460829086876e-08, -4.786965135394883e-08, -7.473759922049777e-08], [0.008383889050554497, 0.01585059162490105, -0.010480817959664247, 0.002038290189112311, -0.00041929744550513247, -0.01492488192530148, 0.004761004697051295, -0.0014818810177481896, -0.0003155950206538853, 0.0044564750787688, 0.0037184699872798268, -9.084756741101962e-05, -0.0024598902861324655, -0.0026596649079562457, -0.004625383918840914, -0.0011335463493109795, -0.0005441877814769125, 0.00045745934434705923, -0.0013949582234415404, -0.0002806738988916826, 2.6258089111304912e-05, 0.000509455561511729, -0.0016050324249924377, -0.001373973342207217, 0.0009121037747570709, -0.0028142333087365864, 0.000109158674316792, 0.0008135834097953564, -0.0023123333777110657, 0.0007743873354371807], [-0.020843802107692443, 0.01357544023649012, 0.021492246720781514, 0.005633981048205274, -0.0013089765651461038, 0.005059808373122049, -3.6980642151502405e-05, -0.005850233707320032, -0.006073678068913423, 0.003337733442771881, 0.0015343204527565812, 0.0039363301557014735, -0.002238759849645757, 0.0012048404765023252, -0.004334263564164272, 0.00108985182779698, -0.004826144651237617, -0.00024469551589291624, -0.0021679040085418075, 0.00015991309674617213, -2.081072560833938e-05, 0.001803498198978403, 0.002277375540510768, 0.0010366501397255136, -0.0001514846554339706, 0.00039159626800574343, -0.0002788965144069788, 0.00026192691416140554, -0.0008558175128539234, 0.0010187166177610667], [0.056963457132581614, -0.06234229882695677, -0.004773183245735615, 0.007895993335401565, -0.005722156418154457, 0.009979738592990211, -0.0048275357251379766, -0.015052596905371283, -0.0033439959432414144, 0.006494918276709852, -0.00685125693253844, -0.010612198087893085, -0.0005671769679447119, -0.002626327565961722, -0.003779705854758467, 0.0013194968302806752, -0.0021253020650201064, 0.0022952537324108903, 0.0032811803214909045, 9.424066200951828e-05, 0.004285894606383958, 0.0002974133296325997, -3.567745158173841e-05, -0.0005273553470166631, -0.0006543829939692797, 3.3376384698975475e-05, -0.00021102854531667074, 0.0022336766377020287, -0.00036469221414602455, -0.0017045557061817914], [0.08700816178425945, 0.017734568673360405, -0.004824859142497438, 0.008407677443430137, -0.01041673961972738, 0.0071848068344153694, 0.007419122248201124, 0.005981949903493029, 0.0011375979603255677, -0.0048633640315331635, 0.0014460614133931782, -0.005608857903214389, 0.00016620250201964195, 0.006440615873046934, 0.0005338017231614916, 0.0016313975732966837, 0.003488875043981438, 0.0002592150859857328, 0.00046486046767958955, 0.0014945899194141726, 0.0002723967397881677, -0.00011601959363745728, 0.0004621779470750814, 0.0004156536397063471, -0.00018225141658324444, 0.0011042886157419964, -0.0008952033317909004, -0.0016519754370551611, 0.00015648429782994205, 0.001431625778799311], [-0.013176010534234884, 0.005094018482138513, -0.00816777098050469, -0.016404149284158846, 0.007800054135537077, -0.0004768104002890594, -0.001010844972310995, 0.001656186320112343, 0.003287380730500543, 0.0018326284162418166, 0.0018749970284242705, -0.0003120821049719107, 0.0016136169815716282, 0.00088670823651583, -0.0010219245455892947, 0.0009665409841622316, 3.642321726508867e-05, -0.0011532995889301867, 0.0022644614332891304, -0.0003450250159133002, 0.0008435047050662893, 0.0008953105952967282, -0.00034096642500238154, 0.00029918125676162285, -0.0007989909216053921, 2.3264370311350932e-05, 0.0004962056093288799, -0.00023779966856753832, -9.099897275530161e-05, -0.0007666464735961349], [0.04982505226120621, 0.03276139704734006, 0.029599769740460122, 0.009068600037636841, 0.010883522396585445, 0.013094317035792702, -0.00163230618105741, -0.003304349580582573, -0.01664979578938145, -0.010367630201730996, 0.0019492533327470501, 0.004088404443520334, 0.0066842679263971715, -0.002145823173892361, 0.002046639929890719, -0.001436884242681836, 0.0020597753330685873, 0.001550717872128619, 0.0013527063439239047, -0.0021390011671912046, 0.002648510016484808, -0.0020085803659067145, -0.0010533029230323401, -0.0022566101237598366, 0.00033917858585871737, -0.0011962335578284604, -9.177257972403346e-05, -0.0017266715521895859, -0.0008265724931300966, -0.0008042604180705838], [-4.1959435037597266e-08, 5.030259320193397e-09, -6.701983412682451e-09, 3.357417810434519e-08, 2.951780375681772e-09, -9.193141181640365e-08, -1.0716170173452587e-08, 6.023400089816264e-08, 9.973440739940976e-09, 4.459880287299701e-08, 1.1870590732598858e-08, 6.347138281626016e-08, -2.3375521962520854e-08, 1.977421426602173e-08, 1.0938476791011428e-08, 8.110536953154205e-08, 3.473339660331468e-08, 5.453720319792398e-08, -2.671098364714902e-08, -3.940025194992805e-08, 5.858786167323147e-08, -3.399355463784552e-08, -2.0506583098267537e-08, -5.100800137824979e-08, -2.298988377447126e-08, -2.079926275655448e-08, -2.563889189843843e-08, 2.656460829086876e-08, -4.786965135394883e-08, -7.473759922049777e-08], [-4.1959435037597266e-08, 5.030259320193397e-09, -6.701983412682451e-09, 3.357417810434519e-08, 2.951780375681772e-09, -9.193141181640365e-08, -1.0716170173452587e-08, 6.023400089816264e-08, 9.973440739940976e-09, 4.459880287299701e-08, 1.1870590732598858e-08, 6.347138281626016e-08, -2.3375521962520854e-08, 1.977421426602173e-08, 1.0938476791011428e-08, 8.110536953154205e-08, 3.473339660331468e-08, 5.453720319792398e-08, -2.671098364714902e-08, -3.940025194992805e-08, 5.858786167323147e-08, -3.399355463784552e-08, -2.0506583098267537e-08, -5.100800137824979e-08, -2.298988377447126e-08, -2.079926275655448e-08, -2.563889189843843e-08, 2.656460829086876e-08, -4.786965135394883e-08, -7.473759922049777e-08], [0.040679464491207726, 0.013777312469382231, 0.03432784344216764, 0.012353912465837134, 0.012081497975493957, -0.012177761129446029, -0.0011605349184324043, -0.0038093088753975344, -0.0013237272803664994, 0.0032471921231446658, 0.0034756847538660665, 0.008474887129415526, 0.0017234516169378018, -0.0012273714846033918, 0.006775203083896852, -0.0004726644551753461, -0.0008918151935078823, 0.0024876265764467833, 0.005089117714085456, 0.0032442765825170853, 0.001502788073697098, -0.004537384818441248, -0.0015547626361407344, -0.0019254662749400488, -0.001070055366261528, -0.0004722803825611575, -0.00040636164288235536, 0.0024510408809848955, -0.0009889224780993378, -0.0007006796282144222], [0.036629572909033334, -0.04766534587994191, 0.0066266294326431715, 0.031061578958163742, 0.0006271663367741252, -0.011197876511487789, -0.014300988474572581, 0.00852154666000109, -0.00426078933060698, -0.0010194909196719938, -0.004608094690755192, -0.004135118606940428, -0.0039000347763020224, -0.005521546498976291, 0.00041182408266626135, -0.001097566456207873, -0.0044581380882179385, -0.0009055756077743827, -0.0002673589367707017, -0.0022028396790415646, 0.0037716427735626054, 0.001710994839175848, 0.0001582701888993369, 0.003186671717886185, -0.0037623379083720687, 0.00038360726589386276, 0.00034402205415475125, -0.0010151346974580351, 0.0011686998575802876, -0.001705440534504728], [-4.1959435037597266e-08, 5.030259320193397e-09, -6.701983412682451e-09, 3.357417810434519e-08, 2.951780375681772e-09, -9.193141181640365e-08, -1.0716170173452587e-08, 6.023400089816264e-08, 9.973440739940976e-09, 4.459880287299701e-08, 1.1870590732598858e-08, 6.347138281626016e-08, -2.3375521962520854e-08, 1.977421426602173e-08, 1.0938476791011428e-08, 8.110536953154205e-08, 3.473339660331468e-08, 5.453720319792398e-08, -2.671098364714902e-08, -3.940025194992805e-08, 5.858786167323147e-08, -3.399355463784552e-08, -2.0506583098267537e-08, -5.100800137824979e-08, -2.298988377447126e-08, -2.079926275655448e-08, -2.563889189843843e-08, 2.656460829086876e-08, -4.786965135394883e-08, -7.473759922049777e-08], [0.07521592849877917, 0.03314565270329994, 0.02528459938535027, -0.0010150456114369486, 0.005800515644177427, -0.0010665970557190518, -0.006486987809526958, 0.01068958807980245, -0.0022084334422385345, -0.006657955761267617, -0.0052262648316899855, -0.007071380906213695, -0.001449285346984512, 0.0013727540847324456, -0.003922499844794468, -0.002034036746724402, 0.004201934645613778, -0.0020433212165700803, 0.0006530916660914329, 0.004992663263312733, -0.0002224786408799212, 0.004224490066669489, 0.0011833611535970402, -6.585223434692852e-05, 0.0013909862422832014, -0.0005524158236148186, 0.0023710324428112797, 0.00013603145401363135, -0.0005765555980285942, -0.00039495419611178077], [-0.004744515161871426, 0.02551018651063962, -0.011682890785699675, 0.004518706230356085, 0.009997013026189789, 0.019722877095874135, -0.013259373620102637, 0.0018243683735226655, 0.0030997572923524247, -0.0027005857352552635, -0.0021109796950285844, -0.0003457382159051558, -0.0022751161603733285, -0.005686769716688891, -0.0004013740205679642, -0.003056129994555236, 0.0003415436550080328, -0.00040867807994111844, 0.0004839541775912824, -0.0036958693909524398, -0.0007631924007299133, -0.0003206116221258406, -0.000355258231952869, 0.0007420093857614381, 0.0010521065515777606, -0.0012815407082407877, -0.0014130387271867008, -5.922004204374677e-05, 0.000707906594345344, 0.00032399598340811855], [0.02320788832601303, -0.04623653007431208, -0.019698599030040686, 0.010910505146263098, 0.00633552661000867, -0.0050430320938125136, -0.007836192247470786, 0.0004973288678861075, -0.010408360977802428, 0.0023399009100643015, -0.0025836207814658087, -0.0022042288429126753, -0.0012340912849701747, 0.0006175816982649213, 0.004151533726363563, 0.0005530815931989161, -0.0035197828129863175, -0.002892551499325597, 0.00019713039815069978, -0.0006335409960992993, -0.0013074093701571888, 0.001716987176808293, 0.0018411312076481402, 5.802514024268129e-06, 0.00013874290700736632, -0.0010844871687262579, -0.0006777486132004388, -2.9851988930157896e-05, -7.686010172113773e-05, -0.0009730264842155132], [0.02826033435975027, -0.00744737801446031, -0.007993622580025027, -0.009661088237949988, -0.007080006581945078, 0.0020850030154019607, 0.003019021040059017, 0.0011627593151798783, 0.002109376731312307, -0.0001953841817275155, -0.0013670521563337572, 0.002481952828860718, 0.0009601263990454104, 0.0008773434554027687, 0.0006770569073005644, -0.0012836217365409964, -0.0009506272127562642, 6.837224570897454e-05, -0.0008516330520047344, -0.00044136439583810174, -0.00109010780021237, 9.606989706355459e-05, -0.0005641476813817622, -4.763665900562452e-05, 0.0004279971742704809, -7.59097590778561e-05, 0.00025837418359767386, 0.00020144630640503533, 0.00011393033102669591, -8.086383069047247e-06], [-0.04440118491689289, -0.008214534914805243, -0.0018022227381417663, -0.0005378145506340875, 0.0023880557709651034, -0.0010742938927048224, 0.0062347024846031605, 0.0032150657559435643, -0.0026602652410797393, -0.001789027769996762, 0.002187652832474691, -0.0021157236726664246, 0.0009155519988861379, -0.0007918705121894374, -0.0017176627647019968, 0.000310168375944102, 0.0037756647924377077, 0.0014227910609629657, 0.0003111324291906635, 0.0010133713295650167, 0.0017512225836169271, -0.0009144018086796005, 1.583868134776866e-05, 0.0007569748488152271, 0.0006283365617498949, 0.0015903087067536533, 0.0007769524131133674, -0.0004657580281181545, -0.00011789021269586508, 1.3438399819035304e-05], [0.010050368945445778, -0.02041584708768105, 0.0032059452272432724, 0.003461123800752474, 0.0054486239973823075, -0.0048631253792404145, -0.0009767537498419048, -0.008621567205130999, 0.010014605096883301, -0.005109330898318228, 0.004684083608783934, 0.006439740689550499, 0.0009014227464390702, -0.0030703264425948726, 0.0023443248336468448, 0.0020641082376066894, 0.0002126277198037724, -0.0023118653535019102, -0.0015973785342804452, 0.0007123895159092773, -0.00032423381678061363, 0.0015409993042804428, 0.0002683886539920344, -7.885172838539702e-05, -6.405194064103376e-05, -0.000374948540105461, -0.00018922747363457916, -0.001375313618022683, 0.0009307354448428308, 0.0003008325531331282], [-4.1959435037597266e-08, 5.030259320193397e-09, -6.701983412682451e-09, 3.357417810434519e-08, 2.951780375681772e-09, -9.193141181640365e-08, -1.0716170173452587e-08, 6.023400089816264e-08, 9.973440739940976e-09, 4.459880287299701e-08, 1.1870590732598858e-08, 6.347138281626016e-08, -2.3375521962520854e-08, 1.977421426602173e-08, 1.0938476791011428e-08, 8.110536953154205e-08, 3.473339660331468e-08, 5.453720319792398e-08, -2.671098364714902e-08, -3.940025194992805e-08, 5.858786167323147e-08, -3.399355463784552e-08, -2.0506583098267537e-08, -5.100800137824979e-08, -2.298988377447126e-08, -2.079926275655448e-08, -2.563889189843843e-08, 2.656460829086876e-08, -4.786965135394883e-08, -7.473759922049777e-08], [0.018086925302843056, 0.019322411613033788, 0.04495122473269922, 0.0017850963199728632, -0.0007292032456678023, -0.003619319729834149, 0.0029522578930462964, -0.0067715935938356215, -0.01507016014052692, 0.0023914012009218525, -0.00018398052544440474, 0.005488594687743646, 0.0034272630838408837, -0.0009025485517868914, 0.0011635392704184549, -0.0021083092306697962, 0.00018109986282369592, 0.0014676098110580238, -0.001285277125960772, -0.001233663911402176, 0.00139084551820063, -0.00017489642260624233, 0.004211535219100728, -0.001980801099090551, -0.0026855253325707112, -0.0001233426526247439, 0.0010478652779282208, 0.0009451198374856413, -0.001959393367315346, -0.00016089578708307657], [-4.1959435037597266e-08, 5.030259320193397e-09, -6.701983412682451e-09, 3.357417810434519e-08, 2.951780375681772e-09, -9.193141181640365e-08, -1.0716170173452587e-08, 6.023400089816264e-08, 9.973440739940976e-09, 4.459880287299701e-08, 1.1870590732598858e-08, 6.347138281626016e-08, -2.3375521962520854e-08, 1.977421426602173e-08, 1.0938476791011428e-08, 8.110536953154205e-08, 3.473339660331468e-08, 5.453720319792398e-08, -2.671098364714902e-08, -3.940025194992805e-08, 5.858786167323147e-08, -3.399355463784552e-08, -2.0506583098267537e-08, -5.100800137824979e-08, -2.298988377447126e-08, -2.079926275655448e-08, -2.563889189843843e-08, 2.656460829086876e-08, -4.786965135394883e-08, -7.473759922049777e-08], [-4.1959435037597266e-08, 5.030259320193397e-09, -6.701983412682451e-09, 3.357417810434519e-08, 2.951780375681772e-09, -9.193141181640365e-08, -1.0716170173452587e-08, 6.023400089816264e-08, 9.973440739940976e-09, 4.459880287299701e-08, 1.1870590732598858e-08, 6.347138281626016e-08, -2.3375521962520854e-08, 1.977421426602173e-08, 1.0938476791011428e-08, 8.110536953154205e-08, 3.473339660331468e-08, 5.453720319792398e-08, -2.671098364714902e-08, -3.940025194992805e-08, 5.858786167323147e-08, -3.399355463784552e-08, -2.0506583098267537e-08, -5.100800137824979e-08, -2.298988377447126e-08, -2.079926275655448e-08, -2.563889189843843e-08, 2.656460829086876e-08, -4.786965135394883e-08, -7.473759922049777e-08], [-4.1959435037597266e-08, 5.030259320193397e-09, -6.701983412682451e-09, 3.357417810434519e-08, 2.951780375681772e-09, -9.193141181640365e-08, -1.0716170173452587e-08, 6.023400089816264e-08, 9.973440739940976e-09, 4.459880287299701e-08, 1.1870590732598858e-08, 6.347138281626016e-08, -2.3375521962520854e-08, 1.977421426602173e-08, 1.0938476791011428e-08, 8.110536953154205e-08, 3.473339660331468e-08, 5.453720319792398e-08, -2.671098364714902e-08, -3.940025194992805e-08, 5.858786167323147e-08, -3.399355463784552e-08, -2.0506583098267537e-08, -5.100800137824979e-08, -2.298988377447126e-08, -2.079926275655448e-08, -2.563889189843843e-08, 2.656460829086876e-08, -4.786965135394883e-08, -7.473759922049777e-08], [-4.1959435037597266e-08, 5.030259320193397e-09, -6.701983412682451e-09, 3.357417810434519e-08, 2.951780375681772e-09, -9.193141181640365e-08, -1.0716170173452587e-08, 6.023400089816264e-08, 9.973440739940976e-09, 4.459880287299701e-08, 1.1870590732598858e-08, 6.347138281626016e-08, -2.3375521962520854e-08, 1.977421426602173e-08, 1.0938476791011428e-08, 8.110536953154205e-08, 3.473339660331468e-08, 5.453720319792398e-08, -2.671098364714902e-08, -3.940025194992805e-08, 5.858786167323147e-08, -3.399355463784552e-08, -2.0506583098267537e-08, -5.100800137824979e-08, -2.298988377447126e-08, -2.079926275655448e-08, -2.563889189843843e-08, 2.656460829086876e-08, -4.786965135394883e-08, -7.473759922049777e-08], [-4.1959435037597266e-08, 5.030259320193397e-09, -6.701983412682451e-09, 3.357417810434519e-08, 2.951780375681772e-09, -9.193141181640365e-08, -1.0716170173452587e-08, 6.023400089816264e-08, 9.973440739940976e-09, 4.459880287299701e-08, 1.1870590732598858e-08, 6.347138281626016e-08, -2.3375521962520854e-08, 1.977421426602173e-08, 1.0938476791011428e-08, 8.110536953154205e-08, 3.473339660331468e-08, 5.453720319792398e-08, -2.671098364714902e-08, -3.940025194992805e-08, 5.858786167323147e-08, -3.399355463784552e-08, -2.0506583098267537e-08, -5.100800137824979e-08, -2.298988377447126e-08, -2.079926275655448e-08, -2.563889189843843e-08, 2.656460829086876e-08, -4.786965135394883e-08, -7.473759922049777e-08], [-4.1959435037597266e-08, 5.030259320193397e-09, -6.701983412682451e-09, 3.357417810434519e-08, 2.951780375681772e-09, -9.193141181640365e-08, -1.0716170173452587e-08, 6.023400089816264e-08, 9.973440739940976e-09, 4.459880287299701e-08, 1.1870590732598858e-08, 6.347138281626016e-08, -2.3375521962520854e-08, 1.977421426602173e-08, 1.0938476791011428e-08, 8.110536953154205e-08, 3.473339660331468e-08, 5.453720319792398e-08, -2.671098364714902e-08, -3.940025194992805e-08, 5.858786167323147e-08, -3.399355463784552e-08, -2.0506583098267537e-08, -5.100800137824979e-08, -2.298988377447126e-08, -2.079926275655448e-08, -2.563889189843843e-08, 2.656460829086876e-08, -4.786965135394883e-08, -7.473759922049777e-08], [-4.1959435037597266e-08, 5.030259320193397e-09, -6.701983412682451e-09, 3.357417810434519e-08, 2.951780375681772e-09, -9.193141181640365e-08, -1.0716170173452587e-08, 6.023400089816264e-08, 9.973440739940976e-09, 4.459880287299701e-08, 1.1870590732598858e-08, 6.347138281626016e-08, -2.3375521962520854e-08, 1.977421426602173e-08, 1.0938476791011428e-08, 8.110536953154205e-08, 3.473339660331468e-08, 5.453720319792398e-08, -2.671098364714902e-08, -3.940025194992805e-08, 5.858786167323147e-08, -3.399355463784552e-08, -2.0506583098267537e-08, -5.100800137824979e-08, -2.298988377447126e-08, -2.079926275655448e-08, -2.563889189843843e-08, 2.656460829086876e-08, -4.786965135394883e-08, -7.473759922049777e-08], [-4.1959435037597266e-08, 5.030259320193397e-09, -6.701983412682451e-09, 3.357417810434519e-08, 2.951780375681772e-09, -9.193141181640365e-08, -1.0716170173452587e-08, 6.023400089816264e-08, 9.973440739940976e-09, 4.459880287299701e-08, 1.1870590732598858e-08, 6.347138281626016e-08, -2.3375521962520854e-08, 1.977421426602173e-08, 1.0938476791011428e-08, 8.110536953154205e-08, 3.473339660331468e-08, 5.453720319792398e-08, -2.671098364714902e-08, -3.940025194992805e-08, 5.858786167323147e-08, -3.399355463784552e-08, -2.0506583098267537e-08, -5.100800137824979e-08, -2.298988377447126e-08, -2.079926275655448e-08, -2.563889189843843e-08, 2.656460829086876e-08, -4.786965135394883e-08, -7.473759922049777e-08], [-4.1959435037597266e-08, 5.030259320193397e-09, -6.701983412682451e-09, 3.357417810434519e-08, 2.951780375681772e-09, -9.193141181640365e-08, -1.0716170173452587e-08, 6.023400089816264e-08, 9.973440739940976e-09, 4.459880287299701e-08, 1.1870590732598858e-08, 6.347138281626016e-08, -2.3375521962520854e-08, 1.977421426602173e-08, 1.0938476791011428e-08, 8.110536953154205e-08, 3.473339660331468e-08, 5.453720319792398e-08, -2.671098364714902e-08, -3.940025194992805e-08, 5.858786167323147e-08, -3.399355463784552e-08, -2.0506583098267537e-08, -5.100800137824979e-08, -2.298988377447126e-08, -2.079926275655448e-08, -2.563889189843843e-08, 2.656460829086876e-08, -4.786965135394883e-08, -7.473759922049777e-08], [-4.1959435037597266e-08, 5.030259320193397e-09, -6.701983412682451e-09, 3.357417810434519e-08, 2.951780375681772e-09, -9.193141181640365e-08, -1.0716170173452587e-08, 6.023400089816264e-08, 9.973440739940976e-09, 4.459880287299701e-08, 1.1870590732598858e-08, 6.347138281626016e-08, -2.3375521962520854e-08, 1.977421426602173e-08, 1.0938476791011428e-08, 8.110536953154205e-08, 3.473339660331468e-08, 5.453720319792398e-08, -2.671098364714902e-08, -3.940025194992805e-08, 5.858786167323147e-08, -3.399355463784552e-08, -2.0506583098267537e-08, -5.100800137824979e-08, -2.298988377447126e-08, -2.079926275655448e-08, -2.563889189843843e-08, 2.656460829086876e-08, -4.786965135394883e-08, -7.473759922049777e-08], [0.013332935718540922, -0.009747240467391576, 0.01280952024401967, -0.0024603887388021917, 0.007512775376825251, -0.02019642801890967, -0.0011497067619094165, 0.0035888838105128805, 0.0015495766969925583, 0.0015360791194270465, -0.001878689829853245, 0.002701348945419837, -0.002050234158524375, -0.0038841684506333344, -0.0009518069190011051, -0.0007303765927942307, 0.003737788306010858, 0.0019867657766907405, -0.00023301333273246751, -0.002749137716429836, -0.0022973692187168385, -0.0027306224554387334, -0.0010749219795917508, 0.0023508769268596663, 0.0002500732009022987, 0.0010224755737121948, -0.0017368587518783517, -0.0006877030562633978, -0.0002912819533607966, 0.0010670136339446933], [-0.01966938088660896, -0.013345602200219372, 0.0011574364183135984, -0.00022051008187024535, 0.008626354977442068, 0.00844424502864465, -0.007576542471987867, 0.009796141059856246, -0.0033799942801881378, 0.007841671293606833, 0.004970354269313736, 0.0034622608025165237, -0.0027572613048996364, 0.0015666009613329642, 0.0006461372211262077, -0.002152831853947533, 0.000910909583784321, -0.0010446357395505865, -0.0017793312668610642, 0.0021556488982574108, 0.0017224282403082013, -0.0010156726249855295, -0.0026951456258597437, -0.00030766735874240337, -0.0007246958416503395, 0.0008144684076559646, 0.00036339774573670557, -0.000541792879637595, 0.0013386179518022716, 0.0001396236369185916], [-4.1959435037597266e-08, 5.030259320193397e-09, -6.701983412682451e-09, 3.357417810434519e-08, 2.951780375681772e-09, -9.193141181640365e-08, -1.0716170173452587e-08, 6.023400089816264e-08, 9.973440739940976e-09, 4.459880287299701e-08, 1.1870590732598858e-08, 6.347138281626016e-08, -2.3375521962520854e-08, 1.977421426602173e-08, 1.0938476791011428e-08, 8.110536953154205e-08, 3.473339660331468e-08, 5.453720319792398e-08, -2.671098364714902e-08, -3.940025194992805e-08, 5.858786167323147e-08, -3.399355463784552e-08, -2.0506583098267537e-08, -5.100800137824979e-08, -2.298988377447126e-08, -2.079926275655448e-08, -2.563889189843843e-08, 2.656460829086876e-08, -4.786965135394883e-08, -7.473759922049777e-08], [-0.009837073974705606, -0.03129982969637815, -0.0055588651651261945, 0.01615415394314784, 0.0065329779666277385, -0.010968172979039334, 0.0025022079433689335, 0.010919415422945368, -0.003430854623428414, -0.011368858705823782, 0.0002514838975119614, 0.004770583372453307, -0.0011058416126270628, -0.0025168131002476935, 0.0017575934458257895, -0.0013587827623671703, -0.00011609852591276636, 0.0009521226363475344, 0.001022946818943538, -0.0017683051888140082, 0.0004286194151308299, 0.0018539507223778427, 0.002387776521493086, 3.718524248239221e-05, -0.0005814491985147429, 0.00086595459042795, 0.0016861582975825097, -0.00034452043003801, 0.00019693925063406657, -0.0010111391146367834], [-4.1959435037597266e-08, 5.030259320193397e-09, -6.701983412682451e-09, 3.357417810434519e-08, 2.951780375681772e-09, -9.193141181640365e-08, -1.0716170173452587e-08, 6.023400089816264e-08, 9.973440739940976e-09, 4.459880287299701e-08, 1.1870590732598858e-08, 6.347138281626016e-08, -2.3375521962520854e-08, 1.977421426602173e-08, 1.0938476791011428e-08, 8.110536953154205e-08, 3.473339660331468e-08, 5.453720319792398e-08, -2.671098364714902e-08, -3.940025194992805e-08, 5.858786167323147e-08, -3.399355463784552e-08, -2.0506583098267537e-08, -5.100800137824979e-08, -2.298988377447126e-08, -2.079926275655448e-08, -2.563889189843843e-08, 2.656460829086876e-08, -4.786965135394883e-08, -7.473759922049777e-08], [-4.1959435037597266e-08, 5.030259320193397e-09, -6.701983412682451e-09, 3.357417810434519e-08, 2.951780375681772e-09, -9.193141181640365e-08, -1.0716170173452587e-08, 6.023400089816264e-08, 9.973440739940976e-09, 4.459880287299701e-08, 1.1870590732598858e-08, 6.347138281626016e-08, -2.3375521962520854e-08, 1.977421426602173e-08, 1.0938476791011428e-08, 8.110536953154205e-08, 3.473339660331468e-08, 5.453720319792398e-08, -2.671098364714902e-08, -3.940025194992805e-08, 5.858786167323147e-08, -3.399355463784552e-08, -2.0506583098267537e-08, -5.100800137824979e-08, -2.298988377447126e-08, -2.079926275655448e-08, -2.563889189843843e-08, 2.656460829086876e-08, -4.786965135394883e-08, -7.473759922049777e-08], [-0.004963141376779008, 0.01641592770578845, -0.000533119620410445, 0.0013915094613281822, 0.0037126483870896557, 0.01452840087936796, -0.011776446334501046, -0.006135113257765834, -0.0027230639863080226, 3.768088901615144e-05, -0.0021837193260879494, 0.004538936038205353, -0.0031198479852657997, -0.0017567765584439333, -0.003807057034854274, -0.002827748079098278, 0.0011499955214570793, -0.0023856035082076422, -0.00023933378157976225, 7.65398624505189e-05, -0.002039599860059412, 0.0003907113409015315, 0.0009841426923174448, 0.0007720706605154366, 0.0001221370232029354, 0.0016966408443588217, 0.0002314449474119041, -0.0007306359488444844, -8.269943406184088e-05, -0.0008218332123580278], [-4.1959435037597266e-08, 5.030259320193397e-09, -6.701983412682451e-09, 3.357417810434519e-08, 2.951780375681772e-09, -9.193141181640365e-08, -1.0716170173452587e-08, 6.023400089816264e-08, 9.973440739940976e-09, 4.459880287299701e-08, 1.1870590732598858e-08, 6.347138281626016e-08, -2.3375521962520854e-08, 1.977421426602173e-08, 1.0938476791011428e-08, 8.110536953154205e-08, 3.473339660331468e-08, 5.453720319792398e-08, -2.671098364714902e-08, -3.940025194992805e-08, 5.858786167323147e-08, -3.399355463784552e-08, -2.0506583098267537e-08, -5.100800137824979e-08, -2.298988377447126e-08, -2.079926275655448e-08, -2.563889189843843e-08, 2.656460829086876e-08, -4.786965135394883e-08, -7.473759922049777e-08], [-4.1959435037597266e-08, 5.030259320193397e-09, -6.701983412682451e-09, 3.357417810434519e-08, 2.951780375681772e-09, -9.193141181640365e-08, -1.0716170173452587e-08, 6.023400089816264e-08, 9.973440739940976e-09, 4.459880287299701e-08, 1.1870590732598858e-08, 6.347138281626016e-08, -2.3375521962520854e-08, 1.977421426602173e-08, 1.0938476791011428e-08, 8.110536953154205e-08, 3.473339660331468e-08, 5.453720319792398e-08, -2.671098364714902e-08, -3.940025194992805e-08, 5.858786167323147e-08, -3.399355463784552e-08, -2.0506583098267537e-08, -5.100800137824979e-08, -2.298988377447126e-08, -2.079926275655448e-08, -2.563889189843843e-08, 2.656460829086876e-08, -4.786965135394883e-08, -7.473759922049777e-08], [-0.047697699251905375, 0.0030024170597968054, 0.015603163182724625, 0.00619266698995943, -0.0017718350830805828, 0.005753893490420668, 0.0016835417241692877, -0.0015066719878090436, 0.002292918763355778, 0.002969193424538624, -0.0015827156221309073, -0.0028166208795304356, -0.0006836057286953065, 0.0032296005143675746, -0.0016392033445517928, 0.0016117716809759988, -0.0007330103951456401, -0.000949089151814126, -0.0010999961307585856, 0.0011465798317108, -0.0013439340123455534, -0.00042547155751655925, 0.0008306266449664874, -0.00021597995683141544, -0.00033939916270761506, -0.00012917786000024922, -0.0008690527248488774, 5.992680578802524e-05, -9.008792198396637e-05, 6.765837638697704e-05], [0.0261369759079344, -0.039057356017640245, 0.006649826022640417, 0.012219761051774164, -0.0037490060540248268, -0.00792385680661747, -0.01082468097336771, -0.0012817426093685775, 0.007177890500687068, -0.006287807230458245, 0.0003110455104636497, -0.0021145276466854527, 0.001402376231611693, -0.007856868941846477, 0.0017873318739016382, 0.0005492456527109904, -0.000912671805197433, -0.004017906547837472, -0.0037142122232937396, -0.002340399642294886, 0.002229250513805765, 0.0010782058437979914, 0.0008633855958117474, 4.04280049463064e-05, -0.0021366021260305393, -0.00012145481428052642, 0.0011328706815422079, -0.0018338203224847688, 0.0015625218645556893, 0.0006743001238667044], [-4.1959435037597266e-08, 5.030259320193397e-09, -6.701983412682451e-09, 3.357417810434519e-08, 2.951780375681772e-09, -9.193141181640365e-08, -1.0716170173452587e-08, 6.023400089816264e-08, 9.973440739940976e-09, 4.459880287299701e-08, 1.1870590732598858e-08, 6.347138281626016e-08, -2.3375521962520854e-08, 1.977421426602173e-08, 1.0938476791011428e-08, 8.110536953154205e-08, 3.473339660331468e-08, 5.453720319792398e-08, -2.671098364714902e-08, -3.940025194992805e-08, 5.858786167323147e-08, -3.399355463784552e-08, -2.0506583098267537e-08, -5.100800137824979e-08, -2.298988377447126e-08, -2.079926275655448e-08, -2.563889189843843e-08, 2.656460829086876e-08, -4.786965135394883e-08, -7.473759922049777e-08], [-4.1959435037597266e-08, 5.030259320193397e-09, -6.701983412682451e-09, 3.357417810434519e-08, 2.951780375681772e-09, -9.193141181640365e-08, -1.0716170173452587e-08, 6.023400089816264e-08, 9.973440739940976e-09, 4.459880287299701e-08, 1.1870590732598858e-08, 6.347138281626016e-08, -2.3375521962520854e-08, 1.977421426602173e-08, 1.0938476791011428e-08, 8.110536953154205e-08, 3.473339660331468e-08, 5.453720319792398e-08, -2.671098364714902e-08, -3.940025194992805e-08, 5.858786167323147e-08, -3.399355463784552e-08, -2.0506583098267537e-08, -5.100800137824979e-08, -2.298988377447126e-08, -2.079926275655448e-08, -2.563889189843843e-08, 2.656460829086876e-08, -4.786965135394883e-08, -7.473759922049777e-08], [-4.1959435037597266e-08, 5.030259320193397e-09, -6.701983412682451e-09, 3.357417810434519e-08, 2.951780375681772e-09, -9.193141181640365e-08, -1.0716170173452587e-08, 6.023400089816264e-08, 9.973440739940976e-09, 4.459880287299701e-08, 1.1870590732598858e-08, 6.347138281626016e-08, -2.3375521962520854e-08, 1.977421426602173e-08, 1.0938476791011428e-08, 8.110536953154205e-08, 3.473339660331468e-08, 5.453720319792398e-08, -2.671098364714902e-08, -3.940025194992805e-08, 5.858786167323147e-08, -3.399355463784552e-08, -2.0506583098267537e-08, -5.100800137824979e-08, -2.298988377447126e-08, -2.079926275655448e-08, -2.563889189843843e-08, 2.656460829086876e-08, -4.786965135394883e-08, -7.473759922049777e-08], [-0.050533297241322175, 0.013146465632607154, -0.008825289513293573, 0.015029183365865156, -0.012015014029719122, 0.010899959057227517, -0.00945486846958226, 0.002584707607428698, 0.0007176842664723248, -0.0006247138812124388, -0.006412758368975518, 0.0009300098596929991, -0.0015242807730621118, -0.004146423881002075, -0.0005129799745782309, -5.72502770738065e-05, 0.0031183770439689182, -0.00043054311762009213, 0.0019058022539319309, 0.00039171043714802267, -0.002327194758774408, -0.00047696995620924893, -0.00030646969943444295, 0.0004556058059598463, -0.0025683421117840798, -0.0015831341943685654, -0.0014113815148794216, -0.0009369252367601265, -0.000853837073246566, 0.0017268433288629996], [-4.1959435037597266e-08, 5.030259320193397e-09, -6.701983412682451e-09, 3.357417810434519e-08, 2.951780375681772e-09, -9.193141181640365e-08, -1.0716170173452587e-08, 6.023400089816264e-08, 9.973440739940976e-09, 4.459880287299701e-08, 1.1870590732598858e-08, 6.347138281626016e-08, -2.3375521962520854e-08, 1.977421426602173e-08, 1.0938476791011428e-08, 8.110536953154205e-08, 3.473339660331468e-08, 5.453720319792398e-08, -2.671098364714902e-08, -3.940025194992805e-08, 5.858786167323147e-08, -3.399355463784552e-08, -2.0506583098267537e-08, -5.100800137824979e-08, -2.298988377447126e-08, -2.079926275655448e-08, -2.563889189843843e-08, 2.656460829086876e-08, -4.786965135394883e-08, -7.473759922049777e-08], [-0.024595255856230073, -0.027112454025482503, -0.01508970730781919, -0.002183781887455984, 0.006999334638659278, -0.0024188513502902335, -0.006374854505398141, 0.01430950447468035, -0.006037366603388873, -0.0043235222700207755, 0.004129897600111378, -3.7155932953542565e-05, -0.00036968715058697534, 0.0028651144348573404, 0.0034307647833153043, -0.0018366706081160435, 0.00030712307429142037, 0.0006859870904812953, -0.0006039344724228353, 0.0009550001743711794, 0.00036781419790419536, -0.0013632448123252568, 0.002109738678508695, 0.0005938077141466076, -0.0018456190891530198, -0.0009561685584495404, 0.0022902016957150858, -0.00011892608581871192, -0.0009389864945929107, 0.0003012817812340837], [0.002291336220406063, 0.014723527655485118, 0.03680036661527353, -0.0029636632449790454, -0.002583873057763788, -0.013073652688275615, -0.001325746444506795, 0.001542334199124093, -0.0031901990106000208, 0.00872037343248506, -0.001339832510888799, 0.0003466417954556797, 0.0009809383153066566, -0.0017224304557878828, 0.0015237179635136124, 0.0008000682045667963, -0.001822918316405478, 0.00020476207860384133, 0.0001757029801398287, -0.0022720410406085003, 0.0009557974895357441, -0.0006050607054635218, 0.0029183720777279927, -0.0018647749812736784, -0.0008529532373962001, 8.424003013936203e-05, 0.0005240838950826062, 8.797721543817097e-05, -4.282739865159102e-06, 0.002164446655421529]], "bgmm_covariances": [[5.588845039407412e-05, 2.2089434787631033e-05, 1.739183401999374e-05, 7.871028113489348e-06, 5.794867562750974e-06, 4.586180148180574e-06, 4.090729635208845e-06, 3.4444276631499325e-06, 2.4799548555165527e-06, 2.0214985852362586e-06, 1.5561251833181206e-06, 1.3290372104772054e-06, 1.0457665969928105e-06, 9.54764982452616e-07, 7.854675156219553e-07, 6.098345086987442e-07, 5.702790076611564e-07, 5.172939078571896e-07, 4.5266318314437135e-07, 3.590743593425335e-07, 3.2303923944709825e-07, 2.8675288679854326e-07, 2.664339566157044e-07, 2.369340563745937e-07, 2.3082592027397676e-07, 2.1262007976474711e-07, 2.0345532902865676e-07, 1.9725968437948426e-07, 1.7767203341160596e-07, 1.6609163443111666e-07], [2.107302253978795e-05, 4.708573380318647e-06, 1.701502885086498e-05, 1.6295234815460918e-05, 5.817729386073936e-06, 1.1119409275126872e-05, 6.9830677986076915e-06, 9.467906987156147e-06, 4.34181168146148e-06, 4.8785534723092e-06, 4.4692228683592265e-06, 3.049362187311505e-06, 2.576642287368512e-06, 4.054941436671236e-06, 2.719450016159987e-06, 1.6890651843822037e-06, 1.876658836117161e-06, 2.084989582134022e-06, 2.701962894970815e-06, 1.3024709895383893e-06, 1.8784039476355514e-06, 1.3690007328199788e-06, 1.405706088171006e-06, 1.2815461741737543e-06, 1.7240782505349994e-06, 1.478768223259597e-06, 1.3613808636551886e-06, 1.156120972025218e-06, 1.651841294823938e-06, 1.3910839098699531e-06], [0.00019939478400305031, 6.4671984347643e-05, 0.00019560958260588082, 0.00010126942770599642, 5.769656170057455e-05, 4.4273177553270515e-05, 5.530543615853579e-05, 6.633996362435151e-05, 3.3650236799143246e-05, 1.829812202421453e-05, 1.36979377590942e-05, 1.5422904380224188e-05, 1.0358658221622532e-05, 6.973339045557737e-06, 1.443127188974059e-05, 9.869706588239882e-06, 8.86171947458927e-06, 8.275197438111053e-06, 6.825963643234309e-06, 9.469221740996763e-06, 4.51682717477871e-06, 6.051172432500939e-06, 4.0544982094980576e-06, 4.574264136687332e-06, 3.3681537771569257e-06, 4.345218455173858e-06, 4.254104649475552e-06, 2.6602092650023116e-06, 5.5863506035060955e-06, 3.724464371068789e-06], [5.588845039407412e-05, 2.2089434787631033e-05, 1.739183401999374e-05, 7.871028113489348e-06, 5.794867562750974e-06, 4.586180148180574e-06, 4.090729635208845e-06, 3.4444276631499325e-06, 2.4799548555165527e-06, 2.0214985852362586e-06, 1.5561251833181206e-06, 1.3290372104772054e-06, 1.0457665969928105e-06, 9.54764982452616e-07, 7.854675156219553e-07, 6.098345086987442e-07, 5.702790076611564e-07, 5.172939078571896e-07, 4.5266318314437135e-07, 3.590743593425335e-07, 3.2303923944709825e-07, 2.8675288679854326e-07, 2.664339566157044e-07, 2.369340563745937e-07, 2.3082592027397676e-07, 2.1262007976474711e-07, 2.0345532902865676e-07, 1.9725968437948426e-07, 1.7767203341160596e-07, 1.6609163443111666e-07], [6.101682855821477e-05, 2.2295263878365013e-05, 1.9781787358857907e-05, 7.502047271306446e-06, 5.502874427650975e-06, 2.109620675775644e-05, 8.30363662725042e-06, 3.563103363619389e-06, 2.43232283836709e-06, 3.2831200007053685e-06, 1.523667437812511e-06, 1.3321976677651607e-06, 1.4008651318183052e-06, 2.4480051091827888e-06, 8.295952706773267e-07, 8.767448503403339e-07, 8.53972447688511e-07, 6.640149583111105e-07, 5.41980907293946e-07, 4.669216083583604e-07, 5.453474423050524e-07, 8.100050483719911e-07, 3.1479741765847186e-07, 4.6495549133301207e-07, 2.839742772596473e-07, 4.6984895609399584e-07, 2.675145563341398e-07, 2.5227702728882256e-07, 3.898175562860018e-07, 5.529334682211465e-07], [0.00017853554980431081, 8.654614526067348e-05, 0.00014308058596135113, 8.089644386442462e-05, 6.542134916304026e-05, 3.5718374534039497e-05, 6.276867714064856e-05, 2.637533353056273e-05, 2.9873330973782584e-05, 6.243004129649525e-05, 2.5586884915860192e-05, 1.0785792497082387e-05, 1.4913734711099738e-05, 1.225378475008899e-05, 1.7450611418073683e-05, 8.402946623517107e-06, 6.673036577851973e-06, 6.091831437544463e-06, 7.834018638466043e-06, 5.941044220326025e-06, 5.193109879745552e-06, 6.101555735937127e-06, 5.646404933622182e-06, 4.928750217380927e-06, 3.9772674638528015e-06, 5.775856266879764e-06, 3.8750573223814625e-06, 3.5774251979951634e-06, 3.5019055417788764e-06, 3.1837675093836984e-06], [0.0003404953949557468, 7.308981175699655e-05, 0.00014555068915406684, 6.829856549881782e-05, 5.280845783270947e-05, 5.197781588736651e-05, 3.9524638128831775e-05, 2.125223408648259e-05, 4.597921638128802e-05, 1.4298115574144552e-05, 1.3723550642028609e-05, 1.3051749571739468e-05, 6.252411388765561e-06, 6.192761027492406e-06, 9.081433743749203e-06, 5.550760823908262e-06, 6.367329707729977e-06, 7.063488759977528e-06, 6.042478643564455e-06, 3.9056306768694e-06, 2.7414103011775124e-06, 3.5042379972494333e-06, 5.546610053170303e-06, 2.772067095797494e-06, 1.791842015134916e-06, 3.971272509748727e-06, 2.9130546962158724e-06, 2.3528132138381193e-06, 2.5375372304660197e-06, 3.0682302313157732e-06], [5.588845039407412e-05, 2.2089434787631033e-05, 1.739183401999374e-05, 7.871028113489348e-06, 5.794867562750974e-06, 4.586180148180574e-06, 4.090729635208845e-06, 3.4444276631499325e-06, 2.4799548555165527e-06, 2.0214985852362586e-06, 1.5561251833181206e-06, 1.3290372104772054e-06, 1.0457665969928105e-06, 9.54764982452616e-07, 7.854675156219553e-07, 6.098345086987442e-07, 5.702790076611564e-07, 5.172939078571896e-07, 4.5266318314437135e-07, 3.590743593425335e-07, 3.2303923944709825e-07, 2.8675288679854326e-07, 2.664339566157044e-07, 2.369340563745937e-07, 2.3082592027397676e-07, 2.1262007976474711e-07, 2.0345532902865676e-07, 1.9725968437948426e-07, 1.7767203341160596e-07, 1.6609163443111666e-07], [0.000242527775735137, 0.00026062872233872106, 0.00019617235175104771, 0.00010500737816907932, 0.00010679493734998067, 8.778751263825128e-05, 3.6546953377187375e-05, 3.5937263190776856e-05, 1.8022945107536036e-05, 1.9698675510608262e-05, 4.683153019532506e-05, 2.31502005601802e-05, 1.0786349869117647e-05, 1.231541860462057e-05, 1.2436043249021463e-05, 1.8023156186466968e-05, 1.1518319245468821e-05, 1.0933391784074313e-05, 6.014575286266903e-06, 3.971178785709852e-06, 7.01626120177869e-06, 6.811434079479305e-06, 5.085461493327677e-06, 4.805725872343332e-06, 2.791015652774272e-06, 5.020405756689399e-06, 6.947665964516001e-06, 8.391615712804623e-06, 3.2795785212920314e-06, 2.910628000266657e-06], [5.588845039407412e-05, 2.2089434787631033e-05, 1.739183401999374e-05, 7.871028113489348e-06, 5.794867562750974e-06, 4.586180148180574e-06, 4.090729635208845e-06, 3.4444276631499325e-06, 2.4799548555165527e-06, 2.0214985852362586e-06, 1.5561251833181206e-06, 1.3290372104772054e-06, 1.0457665969928105e-06, 9.54764982452616e-07, 7.854675156219553e-07, 6.098345086987442e-07, 5.702790076611564e-07, 5.172939078571896e-07, 4.5266318314437135e-07, 3.590743593425335e-07, 3.2303923944709825e-07, 2.8675288679854326e-07, 2.664339566157044e-07, 2.369340563745937e-07, 2.3082592027397676e-07, 2.1262007976474711e-07, 2.0345532902865676e-07, 1.9725968437948426e-07, 1.7767203341160596e-07, 1.6609163443111666e-07], [5.588845039407412e-05, 2.2089434787631033e-05, 1.739183401999374e-05, 7.871028113489348e-06, 5.794867562750974e-06, 4.586180148180574e-06, 4.090729635208845e-06, 3.4444276631499325e-06, 2.4799548555165527e-06, 2.0214985852362586e-06, 1.5561251833181206e-06, 1.3290372104772054e-06, 1.0457665969928105e-06, 9.54764982452616e-07, 7.854675156219553e-07, 6.098345086987442e-07, 5.702790076611564e-07, 5.172939078571896e-07, 4.5266318314437135e-07, 3.590743593425335e-07, 3.2303923944709825e-07, 2.8675288679854326e-07, 2.664339566157044e-07, 2.369340563745937e-07, 2.3082592027397676e-07, 2.1262007976474711e-07, 2.0345532902865676e-07, 1.9725968437948426e-07, 1.7767203341160596e-07, 1.6609163443111666e-07], [5.588845039407412e-05, 2.2089434787631033e-05, 1.739183401999374e-05, 7.871028113489348e-06, 5.794867562750974e-06, 4.586180148180574e-06, 4.090729635208845e-06, 3.4444276631499325e-06, 2.4799548555165527e-06, 2.0214985852362586e-06, 1.5561251833181206e-06, 1.3290372104772054e-06, 1.0457665969928105e-06, 9.54764982452616e-07, 7.854675156219553e-07, 6.098345086987442e-07, 5.702790076611564e-07, 5.172939078571896e-07, 4.5266318314437135e-07, 3.590743593425335e-07, 3.2303923944709825e-07, 2.8675288679854326e-07, 2.664339566157044e-07, 2.369340563745937e-07, 2.3082592027397676e-07, 2.1262007976474711e-07, 2.0345532902865676e-07, 1.9725968437948426e-07, 1.7767203341160596e-07, 1.6609163443111666e-07], [0.0002453800227839568, 4.8303433663410535e-05, 0.00010012755509675655, 6.033059392989968e-05, 6.527414642579214e-05, 3.890667320451975e-05, 4.698147766347385e-05, 4.194864508576054e-05, 1.9943282901923e-05, 2.2226004551003444e-05, 1.4614984903829154e-05, 1.0660168371635898e-05, 1.0155133079384945e-05, 7.403270593154908e-06, 1.7712562531134147e-05, 6.720071791805869e-06, 1.0328874845287926e-05, 7.201221412996119e-06, 6.848889722309722e-06, 3.4271032214638834e-06, 3.011316482273676e-06, 3.0622855239817675e-06, 4.5329943386826925e-06, 3.1211105070537203e-06, 3.2346092116487218e-06, 5.262631351546703e-06, 2.9054960196484525e-06, 2.5988000223959365e-06, 3.2506289938835755e-06, 5.345522332675184e-06], [0.00010157186928291855, 3.490486907304172e-05, 6.172645643750079e-05, 4.428654064207992e-05, 2.7943505944387134e-05, 2.1054329758580653e-05, 1.7479086681004432e-05, 2.4415026153321814e-05, 1.2998984042803595e-05, 1.4374980751320432e-05, 9.454212691091176e-06, 1.2388904834874862e-05, 4.880852261281359e-06, 4.130120394792997e-06, 7.911572907947036e-06, 3.2607762711607226e-06, 3.2767088603480084e-06, 5.208798622884426e-06, 3.6882982252621378e-06, 3.2793215695971196e-06, 3.499137717117184e-06, 2.6024274118177475e-06, 2.023218824845182e-06, 1.9840011671049517e-06, 1.562704619690633e-06, 2.3794233506495585e-06, 2.3916422498523277e-06, 2.197529840125512e-06, 1.8555373922831248e-06, 2.008281147566455e-06], [5.588845039407412e-05, 2.2089434787631033e-05, 1.739183401999374e-05, 7.871028113489348e-06, 5.794867562750974e-06, 4.586180148180574e-06, 4.090729635208845e-06, 3.4444276631499325e-06, 2.4799548555165527e-06, 2.0214985852362586e-06, 1.5561251833181206e-06, 1.3290372104772054e-06, 1.0457665969928105e-06, 9.54764982452616e-07, 7.854675156219553e-07, 6.098345086987442e-07, 5.702790076611564e-07, 5.172939078571896e-07, 4.5266318314437135e-07, 3.590743593425335e-07, 3.2303923944709825e-07, 2.8675288679854326e-07, 2.664339566157044e-07, 2.369340563745937e-07, 2.3082592027397676e-07, 2.1262007976474711e-07, 2.0345532902865676e-07, 1.9725968437948426e-07, 1.7767203341160596e-07, 1.6609163443111666e-07], [7.252718139741043e-05, 4.216750270720411e-05, 1.9555851585975695e-05, 9.103858175061301e-06, 1.5803949734568256e-05, 6.9518128995647215e-06, 4.830494365531859e-06, 6.685508212560365e-06, 6.447743599815549e-06, 3.7599264495050564e-06, 2.4088364008387194e-06, 2.153605966131012e-06, 1.666477624971372e-06, 1.448620792374247e-06, 1.9236621627118317e-06, 1.0209795662568655e-06, 9.837382798718195e-07, 8.63428732842442e-07, 1.186830911807282e-06, 1.3019927463537084e-06, 8.590062676240042e-07, 5.34998738600299e-07, 5.20228500767899e-07, 6.486298650076697e-07, 4.134481609152772e-07, 7.007337724212391e-07, 4.6654378329733986e-07, 4.3207644465777567e-07, 4.7503516746043995e-07, 4.1500075022027724e-07], [5.588845039407412e-05, 2.2089434787631033e-05, 1.739183401999374e-05, 7.871028113489348e-06, 5.794867562750974e-06, 4.586180148180574e-06, 4.090729635208845e-06, 3.4444276631499325e-06, 2.4799548555165527e-06, 2.0214985852362586e-06, 1.5561251833181206e-06, 1.3290372104772054e-06, 1.0457665969928105e-06, 9.54764982452616e-07, 7.854675156219553e-07, 6.098345086987442e-07, 5.702790076611564e-07, 5.172939078571896e-07, 4.5266318314437135e-07, 3.590743593425335e-07, 3.2303923944709825e-07, 2.8675288679854326e-07, 2.664339566157044e-07, 2.369340563745937e-07, 2.3082592027397676e-07, 2.1262007976474711e-07, 2.0345532902865676e-07, 1.9725968437948426e-07, 1.7767203341160596e-07, 1.6609163443111666e-07], [5.588845039407412e-05, 2.2089434787631033e-05, 1.739183401999374e-05, 7.871028113489348e-06, 5.794867562750974e-06, 4.586180148180574e-06, 4.090729635208845e-06, 3.4444276631499325e-06, 2.4799548555165527e-06, 2.0214985852362586e-06, 1.5561251833181206e-06, 1.3290372104772054e-06, 1.0457665969928105e-06, 9.54764982452616e-07, 7.854675156219553e-07, 6.098345086987442e-07, 5.702790076611564e-07, 5.172939078571896e-07, 4.5266318314437135e-07, 3.590743593425335e-07, 3.2303923944709825e-07, 2.8675288679854326e-07, 2.664339566157044e-07, 2.369340563745937e-07, 2.3082592027397676e-07, 2.1262007976474711e-07, 2.0345532902865676e-07, 1.9725968437948426e-07, 1.7767203341160596e-07, 1.6609163443111666e-07], [5.588845039407412e-05, 2.2089434787631033e-05, 1.739183401999374e-05, 7.871028113489348e-06, 5.794867562750974e-06, 4.586180148180574e-06, 4.090729635208845e-06, 3.4444276631499325e-06, 2.4799548555165527e-06, 2.0214985852362586e-06, 1.5561251833181206e-06, 1.3290372104772054e-06, 1.0457665969928105e-06, 9.54764982452616e-07, 7.854675156219553e-07, 6.098345086987442e-07, 5.702790076611564e-07, 5.172939078571896e-07, 4.5266318314437135e-07, 3.590743593425335e-07, 3.2303923944709825e-07, 2.8675288679854326e-07, 2.664339566157044e-07, 2.369340563745937e-07, 2.3082592027397676e-07, 2.1262007976474711e-07, 2.0345532902865676e-07, 1.9725968437948426e-07, 1.7767203341160596e-07, 1.6609163443111666e-07], [5.588845039407412e-05, 2.2089434787631033e-05, 1.739183401999374e-05, 7.871028113489348e-06, 5.794867562750974e-06, 4.586180148180574e-06, 4.090729635208845e-06, 3.4444276631499325e-06, 2.4799548555165527e-06, 2.0214985852362586e-06, 1.5561251833181206e-06, 1.3290372104772054e-06, 1.0457665969928105e-06, 9.54764982452616e-07, 7.854675156219553e-07, 6.098345086987442e-07, 5.702790076611564e-07, 5.172939078571896e-07, 4.5266318314437135e-07, 3.590743593425335e-07, 3.2303923944709825e-07, 2.8675288679854326e-07, 2.664339566157044e-07, 2.369340563745937e-07, 2.3082592027397676e-07, 2.1262007976474711e-07, 2.0345532902865676e-07, 1.9725968437948426e-07, 1.7767203341160596e-07, 1.6609163443111666e-07], [0.00011912647192573918, 3.0651090761631455e-05, 6.856432977882628e-05, 4.6866407119096974e-05, 3.123012340047187e-05, 4.407676442773885e-05, 2.067211747822191e-05, 1.3180178850386516e-05, 1.2801836532121537e-05, 1.2191272460877796e-05, 8.244601233451423e-06, 3.631014753113048e-06, 6.4620857319889156e-06, 6.8446341849302065e-06, 3.2364972501098854e-06, 4.835552357271854e-06, 6.726513089062359e-06, 5.070094691562327e-06, 3.4864119227949146e-06, 4.42069251657947e-06, 1.95801825222352e-06, 1.5962755570020183e-06, 5.351664946826081e-06, 2.500569271642528e-06, 1.887994397913123e-06, 3.949295956451052e-06, 2.0475871929766534e-06, 1.8395389581129974e-06, 1.8913088913312671e-06, 1.475122941519321e-06], [5.588845039407412e-05, 2.2089434787631033e-05, 1.739183401999374e-05, 7.871028113489348e-06, 5.794867562750974e-06, 4.586180148180574e-06, 4.090729635208845e-06, 3.4444276631499325e-06, 2.4799548555165527e-06, 2.0214985852362586e-06, 1.5561251833181206e-06, 1.3290372104772054e-06, 1.0457665969928105e-06, 9.54764982452616e-07, 7.854675156219553e-07, 6.098345086987442e-07, 5.702790076611564e-07, 5.172939078571896e-07, 4.5266318314437135e-07, 3.590743593425335e-07, 3.2303923944709825e-07, 2.8675288679854326e-07, 2.664339566157044e-07, 2.369340563745937e-07, 2.3082592027397676e-07, 2.1262007976474711e-07, 2.0345532902865676e-07, 1.9725968437948426e-07, 1.7767203341160596e-07, 1.6609163443111666e-07], [5.588845039407412e-05, 2.2089434787631033e-05, 1.739183401999374e-05, 7.871028113489348e-06, 5.794867562750974e-06, 4.586180148180574e-06, 4.090729635208845e-06, 3.4444276631499325e-06, 2.4799548555165527e-06, 2.0214985852362586e-06, 1.5561251833181206e-06, 1.3290372104772054e-06, 1.0457665969928105e-06, 9.54764982452616e-07, 7.854675156219553e-07, 6.098345086987442e-07, 5.702790076611564e-07, 5.172939078571896e-07, 4.5266318314437135e-07, 3.590743593425335e-07, 3.2303923944709825e-07, 2.8675288679854326e-07, 2.664339566157044e-07, 2.369340563745937e-07, 2.3082592027397676e-07, 2.1262007976474711e-07, 2.0345532902865676e-07, 1.9725968437948426e-07, 1.7767203341160596e-07, 1.6609163443111666e-07], [0.0009091440447633683, 0.00013458740942459845, 0.00026841192977515436, 0.0003133208753940185, 0.00019281766291546907, 9.491003826036426e-05, 0.00022006699460697736, 0.00011203370145357009, 7.77429301168808e-05, 4.169278091427797e-05, 9.856335530130242e-05, 5.894079914407439e-05, 5.2380596641345525e-05, 2.6045294721541828e-05, 2.5282936766675443e-05, 2.6342283947473318e-05, 2.2948091116149068e-05, 1.934645344590827e-05, 1.8877324356866767e-05, 1.0679523481342632e-05, 1.4121110649099427e-05, 1.046175885526286e-05, 8.52436837428961e-06, 1.0108680293890103e-05, 1.2129855552060326e-05, 1.2399761753610483e-05, 1.178204093492344e-05, 6.606169402279262e-06, 8.324272181203352e-06, 7.1720930131799906e-06], [5.588845039407412e-05, 2.2089434787631033e-05, 1.739183401999374e-05, 7.871028113489348e-06, 5.794867562750974e-06, 4.586180148180574e-06, 4.090729635208845e-06, 3.4444276631499325e-06, 2.4799548555165527e-06, 2.0214985852362586e-06, 1.5561251833181206e-06, 1.3290372104772054e-06, 1.0457665969928105e-06, 9.54764982452616e-07, 7.854675156219553e-07, 6.098345086987442e-07, 5.702790076611564e-07, 5.172939078571896e-07, 4.5266318314437135e-07, 3.590743593425335e-07, 3.2303923944709825e-07, 2.8675288679854326e-07, 2.664339566157044e-07, 2.369340563745937e-07, 2.3082592027397676e-07, 2.1262007976474711e-07, 2.0345532902865676e-07, 1.9725968437948426e-07, 1.7767203341160596e-07, 1.6609163443111666e-07], [0.0001056692205026268, 0.00013388698379998484, 0.00018854588499851434, 0.00010365365016556756, 0.0001395042177751471, 4.391567221450233e-05, 0.0001021336056962739, 5.3200840489239905e-05, 2.3413462960779794e-05, 3.415136685860421e-05, 3.750341785793895e-05, 1.7367251850255804e-05, 1.4981306911686604e-05, 1.0738247522684814e-05, 9.314033874652184e-06, 1.2000462341515144e-05, 8.87786840838366e-06, 9.3026578370854e-06, 8.620797571024186e-06, 4.7803314057087016e-06, 1.1124394629402212e-05, 5.750342613060161e-06, 6.8612613790369514e-06, 4.922172810423154e-06, 6.787294070822025e-06, 3.864269894055849e-06, 6.688808817275384e-06, 3.4046343254624456e-06, 2.891270474653524e-06, 5.76456762365579e-06], [5.588845039407412e-05, 2.2089434787631033e-05, 1.739183401999374e-05, 7.871028113489348e-06, 5.794867562750974e-06, 4.586180148180574e-06, 4.090729635208845e-06, 3.4444276631499325e-06, 2.4799548555165527e-06, 2.0214985852362586e-06, 1.5561251833181206e-06, 1.3290372104772054e-06, 1.0457665969928105e-06, 9.54764982452616e-07, 7.854675156219553e-07, 6.098345086987442e-07, 5.702790076611564e-07, 5.172939078571896e-07, 4.5266318314437135e-07, 3.590743593425335e-07, 3.2303923944709825e-07, 2.8675288679854326e-07, 2.664339566157044e-07, 2.369340563745937e-07, 2.3082592027397676e-07, 2.1262007976474711e-07, 2.0345532902865676e-07, 1.9725968437948426e-07, 1.7767203341160596e-07, 1.6609163443111666e-07], [6.241614747062327e-05, 3.6933310251968044e-05, 1.6890688652120256e-05, 8.764007662362372e-06, 3.346627529034867e-05, 6.332856809440794e-06, 5.81978939957254e-06, 3.838856591629217e-06, 2.476011286736548e-06, 2.0414912665617863e-06, 4.8845614401157645e-06, 4.998869174178428e-06, 1.3000285822063084e-06, 1.686466351491987e-06, 7.990239031826018e-07, 8.951033102041102e-07, 6.628146360863744e-07, 1.2272761890246684e-06, 6.395043220189214e-07, 3.997075794510934e-07, 5.509472686336002e-07, 5.724241996622595e-07, 3.137936871392501e-07, 3.7655565372264445e-07, 2.8427233794325737e-07, 6.702384050925347e-07, 2.5447904011981636e-07, 2.503513810487291e-07, 2.3142330158287662e-07, 2.2653079968414533e-07], [5.588845039407412e-05, 2.2089434787631033e-05, 1.739183401999374e-05, 7.871028113489348e-06, 5.794867562750974e-06, 4.586180148180574e-06, 4.090729635208845e-06, 3.4444276631499325e-06, 2.4799548555165527e-06, 2.0214985852362586e-06, 1.5561251833181206e-06, 1.3290372104772054e-06, 1.0457665969928105e-06, 9.54764982452616e-07, 7.854675156219553e-07, 6.098345086987442e-07, 5.702790076611564e-07, 5.172939078571896e-07, 4.5266318314437135e-07, 3.590743593425335e-07, 3.2303923944709825e-07, 2.8675288679854326e-07, 2.664339566157044e-07, 2.369340563745937e-07, 2.3082592027397676e-07, 2.1262007976474711e-07, 2.0345532902865676e-07, 1.9725968437948426e-07, 1.7767203341160596e-07, 1.6609163443111666e-07], [5.588845039407412e-05, 2.2089434787631033e-05, 1.739183401999374e-05, 7.871028113489348e-06, 5.794867562750974e-06, 4.586180148180574e-06, 4.090729635208845e-06, 3.4444276631499325e-06, 2.4799548555165527e-06, 2.0214985852362586e-06, 1.5561251833181206e-06, 1.3290372104772054e-06, 1.0457665969928105e-06, 9.54764982452616e-07, 7.854675156219553e-07, 6.098345086987442e-07, 5.702790076611564e-07, 5.172939078571896e-07, 4.5266318314437135e-07, 3.590743593425335e-07, 3.2303923944709825e-07, 2.8675288679854326e-07, 2.664339566157044e-07, 2.369340563745937e-07, 2.3082592027397676e-07, 2.1262007976474711e-07, 2.0345532902865676e-07, 1.9725968437948426e-07, 1.7767203341160596e-07, 1.6609163443111666e-07], [0.00013797013839760605, 5.1465958140836964e-05, 0.00012703928987407422, 9.034309971050893e-05, 5.870674022398287e-05, 3.987020918997041e-05, 3.484045299617835e-05, 4.047329999678477e-05, 2.500700783440515e-05, 2.123179160313541e-05, 2.238730082311737e-05, 1.3860553609945536e-05, 5.8309242265827976e-06, 1.653931008537209e-05, 9.829982539689536e-06, 7.43559041411325e-06, 4.423072367826458e-06, 6.663900400826514e-06, 4.670279793749573e-06, 3.5654399367864076e-06, 3.5653213458141704e-06, 3.26212718762706e-06, 3.2795576124194663e-06, 3.4872450776840826e-06, 3.480705281390239e-06, 3.0243376801627e-06, 2.8723972502498893e-06, 3.055431749298332e-06, 2.8893184693883557e-06, 3.9922394539073175e-06], [0.00012139003572334482, 4.1688171556366536e-05, 7.450204485887575e-05, 6.396611476695664e-05, 4.266461759666366e-05, 4.667018199112269e-05, 3.8371825268605036e-05, 2.8408981455909612e-05, 1.5446714534486166e-05, 1.2809590126338518e-05, 1.1287647123766137e-05, 7.623734948917126e-06, 4.81700727823799e-06, 8.62332943949308e-06, 6.246827506425036e-06, 4.568022945599074e-06, 6.028157402113046e-06, 4.2354415152628115e-06, 6.375105336570146e-06, 5.097275119564917e-06, 3.460927136985103e-06, 2.520202282211631e-06, 4.822866276402714e-06, 1.9663282787578234e-06, 2.1012178982942794e-06, 2.6256507975432736e-06, 3.674257104825781e-06, 2.187478709436695e-06, 1.951940374825948e-06, 2.7149422796095124e-06], [5.588845039407412e-05, 2.2089434787631033e-05, 1.739183401999374e-05, 7.871028113489348e-06, 5.794867562750974e-06, 4.586180148180574e-06, 4.090729635208845e-06, 3.4444276631499325e-06, 2.4799548555165527e-06, 2.0214985852362586e-06, 1.5561251833181206e-06, 1.3290372104772054e-06, 1.0457665969928105e-06, 9.54764982452616e-07, 7.854675156219553e-07, 6.098345086987442e-07, 5.702790076611564e-07, 5.172939078571896e-07, 4.5266318314437135e-07, 3.590743593425335e-07, 3.2303923944709825e-07, 2.8675288679854326e-07, 2.664339566157044e-07, 2.369340563745937e-07, 2.3082592027397676e-07, 2.1262007976474711e-07, 2.0345532902865676e-07, 1.9725968437948426e-07, 1.7767203341160596e-07, 1.6609163443111666e-07], [0.00038765753876085246, 0.00019688901390185764, 0.00025875960667186314, 0.00010615270293385526, 6.732398162385716e-05, 3.9746038861808305e-05, 9.039978445995736e-05, 8.195675826111609e-05, 4.214111646597423e-05, 3.215467246594327e-05, 3.465752916587311e-05, 1.4780216950699614e-05, 1.764883023475813e-05, 9.820921260076107e-06, 1.544275935079645e-05, 1.0201580560278907e-05, 1.0484309488107786e-05, 9.649964716896507e-06, 7.405237741131264e-06, 4.552058160509394e-06, 7.316775294084513e-06, 6.263140313285599e-06, 5.847070008887145e-06, 6.819264018034987e-06, 4.276411288799532e-06, 4.539385551920295e-06, 4.412898987525372e-06, 5.5461481535011324e-06, 4.341408659562929e-06, 4.440683870395604e-06], [0.00013342757406822282, 1.7774874484747957e-05, 5.287595766013942e-05, 4.014606026734385e-05, 2.419477712194083e-05, 2.977974951591374e-05, 1.8370945496673666e-05, 9.964517930893599e-06, 2.6509159714616607e-05, 7.703096274405529e-06, 8.231518916520298e-06, 5.892078870285987e-06, 4.1778752170989746e-06, 6.866383118040365e-06, 3.9824356150935305e-06, 4.3859714112893335e-06, 3.7572395743849824e-06, 3.904722503674106e-06, 4.8510442736217575e-06, 4.133892773054357e-06, 2.345868172190101e-06, 1.624466314127214e-06, 4.080136232260521e-06, 1.8401858820633985e-06, 1.7348620722433673e-06, 2.653451539910646e-06, 2.1773572821635917e-06, 1.7057734303908197e-06, 1.844340846648759e-06, 2.2683276768751057e-06], [0.0001293905397890496, 8.541066981644973e-05, 0.0001658376742782956, 0.000181301714619946, 9.05962443540727e-05, 6.734510349938208e-05, 5.810046897673721e-05, 6.586362085166697e-05, 6.738160585091307e-05, 4.489466369905744e-05, 3.978664539962838e-05, 2.0235659568508224e-05, 3.583073927750041e-05, 3.109518831141521e-05, 4.01394382730005e-05, 1.738392889156284e-05, 1.4430339835627625e-05, 2.9034685757861856e-05, 2.5449254658128613e-05, 8.319961759171046e-06, 1.902628020587143e-05, 1.0491021202449701e-05, 8.80485993385632e-06, 1.0773668779733153e-05, 1.4495323934023915e-05, 9.830328043271482e-06, 5.7920014583801295e-06, 1.5158216208491795e-05, 9.63250638607786e-06, 9.508426379451366e-06], [0.0005236126984929908, 0.0007639284953974863, 0.000965413877087634, 0.0005143482270780549, 0.00032509863501191454, 0.0002059003225074875, 0.00029896528409929487, 0.0002653297730552778, 0.0001669495099499333, 0.00015298052148535386, 0.0001283615308327607, 9.35764839661608e-05, 0.00011029493656762072, 6.731530573211562e-05, 4.2240203353886636e-05, 5.9035365186808405e-05, 4.7454266071160835e-05, 5.306471066977881e-05, 3.69045165779219e-05, 5.174131318296491e-05, 2.757361473723849e-05, 3.090606554944756e-05, 1.6605881362819896e-05, 1.832166099246364e-05, 2.7750313603946878e-05, 1.8069696838099e-05, 2.1717770068579936e-05, 2.013315958864649e-05, 2.2621298144067668e-05, 1.4643309428819065e-05], [0.00043259238768046383, 0.00021438539495348654, 0.00031624914095023526, 9.796942722156196e-05, 0.00012964604994938848, 6.644832678010814e-05, 0.00010514849800769029, 6.814854121417576e-05, 5.413308782050585e-05, 3.192246018523086e-05, 3.2479809239162936e-05, 2.4109287042073262e-05, 2.0346772646264607e-05, 1.6941524879333084e-05, 1.3365464528734294e-05, 1.3383965800366963e-05, 1.3056450635965043e-05, 1.1031244633236723e-05, 1.1275654823169592e-05, 8.936204746138759e-06, 5.95971095287728e-06, 5.3298577522057685e-06, 7.484319078189269e-06, 5.08589472175368e-06, 4.840633812958555e-06, 5.77894741744982e-06, 5.648973496353023e-06, 4.536233791845674e-06, 4.458385673104614e-06, 4.883163382558171e-06], [0.000220924308401004, 7.173401054241941e-05, 0.00019711032910737808, 0.00010229768442370367, 6.575070296034676e-05, 8.338652816489049e-05, 7.363958004794e-05, 3.5041092187098476e-05, 2.1306985756504377e-05, 4.183973081401316e-05, 2.5894439111385528e-05, 1.9047481823500937e-05, 9.21754325451491e-06, 1.237192198752399e-05, 9.431333834145965e-06, 7.453876114807081e-06, 1.691689700245288e-05, 7.078910602762095e-06, 8.520888974559621e-06, 8.598969081011383e-06, 4.06884235301559e-06, 4.302756689589929e-06, 1.053381758129718e-05, 3.792947887289115e-06, 5.105009643836994e-06, 6.316087966634079e-06, 4.524908353668024e-06, 3.4944545024106323e-06, 3.318946969488064e-06, 2.5512977490416637e-06], [5.588845039407412e-05, 2.2089434787631033e-05, 1.739183401999374e-05, 7.871028113489348e-06, 5.794867562750974e-06, 4.586180148180574e-06, 4.090729635208845e-06, 3.4444276631499325e-06, 2.4799548555165527e-06, 2.0214985852362586e-06, 1.5561251833181206e-06, 1.3290372104772054e-06, 1.0457665969928105e-06, 9.54764982452616e-07, 7.854675156219553e-07, 6.098345086987442e-07, 5.702790076611564e-07, 5.172939078571896e-07, 4.5266318314437135e-07, 3.590743593425335e-07, 3.2303923944709825e-07, 2.8675288679854326e-07, 2.664339566157044e-07, 2.369340563745937e-07, 2.3082592027397676e-07, 2.1262007976474711e-07, 2.0345532902865676e-07, 1.9725968437948426e-07, 1.7767203341160596e-07, 1.6609163443111666e-07], [5.588845039407412e-05, 2.2089434787631033e-05, 1.739183401999374e-05, 7.871028113489348e-06, 5.794867562750974e-06, 4.586180148180574e-06, 4.090729635208845e-06, 3.4444276631499325e-06, 2.4799548555165527e-06, 2.0214985852362586e-06, 1.5561251833181206e-06, 1.3290372104772054e-06, 1.0457665969928105e-06, 9.54764982452616e-07, 7.854675156219553e-07, 6.098345086987442e-07, 5.702790076611564e-07, 5.172939078571896e-07, 4.5266318314437135e-07, 3.590743593425335e-07, 3.2303923944709825e-07, 2.8675288679854326e-07, 2.664339566157044e-07, 2.369340563745937e-07, 2.3082592027397676e-07, 2.1262007976474711e-07, 2.0345532902865676e-07, 1.9725968437948426e-07, 1.7767203341160596e-07, 1.6609163443111666e-07], [9.804497773670102e-05, 2.2211534883812374e-05, 7.551989067090889e-05, 2.4539469215811126e-05, 1.6089440904786068e-05, 1.3936495393486697e-05, 7.107023010525355e-06, 6.3631155334331934e-06, 2.836331016344308e-06, 4.678280740233641e-06, 4.848048334785093e-06, 4.178706141012119e-06, 1.480943309637649e-06, 2.0402543128460263e-06, 2.975048545031537e-06, 1.0105816320888067e-06, 1.2787155216997909e-06, 1.4908784611672076e-06, 2.2087457024340105e-06, 1.0144434296019307e-06, 8.48099891939837e-07, 1.5477345917840927e-06, 1.0059301801402369e-06, 1.3412428320925863e-06, 6.088435344474491e-07, 1.4311909367011717e-06, 6.207416501651418e-07, 8.718350810968065e-07, 7.890895060391504e-07, 7.244175318990597e-07], [9.565864441846863e-05, 8.291079642933153e-05, 2.299478166902399e-05, 3.5722551061762825e-05, 1.0581932272191072e-05, 1.1284912125704606e-05, 1.0030918637357033e-05, 8.579987300952111e-06, 5.098706791552448e-06, 5.610629875527741e-06, 4.717899527190793e-06, 5.66740304742122e-06, 1.7873401556564477e-06, 2.4589582499447655e-06, 1.8449719054181172e-06, 1.4672784964274645e-06, 1.5243610134492878e-06, 1.141071233904313e-06, 9.667767931475885e-07, 7.582670414476517e-07, 1.8398617945779073e-06, 1.951821891136245e-06, 6.383162471248165e-07, 1.4815933373670808e-06, 9.628534181133878e-07, 6.786692376904012e-07, 7.306727050002619e-07, 6.454610581182612e-07, 6.859150536892375e-07, 6.938477786250766e-07], [5.588845039407412e-05, 2.2089434787631033e-05, 1.739183401999374e-05, 7.871028113489348e-06, 5.794867562750974e-06, 4.586180148180574e-06, 4.090729635208845e-06, 3.4444276631499325e-06, 2.4799548555165527e-06, 2.0214985852362586e-06, 1.5561251833181206e-06, 1.3290372104772054e-06, 1.0457665969928105e-06, 9.54764982452616e-07, 7.854675156219553e-07, 6.098345086987442e-07, 5.702790076611564e-07, 5.172939078571896e-07, 4.5266318314437135e-07, 3.590743593425335e-07, 3.2303923944709825e-07, 2.8675288679854326e-07, 2.664339566157044e-07, 2.369340563745937e-07, 2.3082592027397676e-07, 2.1262007976474711e-07, 2.0345532902865676e-07, 1.9725968437948426e-07, 1.7767203341160596e-07, 1.6609163443111666e-07], [0.00021880177314757002, 0.00011089340512587945, 0.00026510845284496363, 8.81717862492011e-05, 7.316878322323723e-05, 6.420332998921615e-05, 0.00011940182176504671, 4.5816188610919244e-05, 5.6135674784287004e-05, 6.429553370329925e-05, 3.422922740054853e-05, 2.61864539474907e-05, 3.606562059532169e-05, 1.4949742486482164e-05, 1.7128002723912556e-05, 1.135695604669378e-05, 1.6820802971879927e-05, 1.2213113999731633e-05, 6.6866537537978035e-06, 1.5368241981173688e-05, 5.830332182890546e-06, 6.731643996926204e-06, 6.200241747159114e-06, 7.83464975675121e-06, 1.0920349195322935e-05, 4.253029717783072e-06, 6.622951526759042e-06, 4.483692146346418e-06, 5.412660445219965e-06, 4.1351331824856725e-06], [0.0004347807808594095, 0.00014454680656836064, 0.0001959293447053588, 9.621105428127795e-05, 0.00010017374261546653, 6.20677129623464e-05, 5.810868937818239e-05, 7.003235911128792e-05, 5.759732594505466e-05, 3.645016543963108e-05, 3.5208852340414054e-05, 2.4532589452485393e-05, 1.190568562059837e-05, 1.4463388437848164e-05, 1.4649260157562947e-05, 1.2351256196385883e-05, 9.190733676888916e-06, 1.8783526650740392e-05, 1.0583048455794194e-05, 8.476825941976521e-06, 4.717868364267676e-06, 3.852570697130123e-06, 9.874214248694514e-06, 4.912108752561178e-06, 4.223666225662285e-06, 3.7981904895774978e-06, 6.306087654314728e-06, 3.7587217616385156e-06, 2.907179959860209e-06, 3.896409875632548e-06], [0.00021367444184936435, 5.732860738140337e-05, 0.00017939526831494573, 0.00021998709320196477, 8.908568830214316e-05, 5.661843706397029e-05, 5.3357685123924266e-05, 7.426366299959493e-05, 4.91796378362681e-05, 5.4955798902937455e-05, 3.0438977021214697e-05, 3.014403499109915e-05, 3.591203041868569e-05, 2.408939808845192e-05, 3.549541700535522e-05, 1.3480012714203738e-05, 1.0370246051708319e-05, 1.2772700208999881e-05, 1.2182573166329214e-05, 7.73919794089129e-06, 7.748936279481782e-06, 1.286708786219305e-05, 7.780344314126212e-06, 9.515350316784117e-06, 7.936622640380315e-06, 5.499703250534977e-06, 6.496899500453018e-06, 7.6239356000274815e-06, 5.721226158345528e-06, 4.226651653399768e-06], [0.0008918074909657289, 0.0005872060936686866, 0.0006096384512925595, 0.00031486456541218255, 0.00027464872609371966, 0.00018025847917799428, 0.00018145458856557814, 0.00015936172475882536, 9.263318008993663e-05, 9.913752203680625e-05, 6.509801496137656e-05, 4.223144206785599e-05, 6.659641372215625e-05, 5.6325948917513495e-05, 3.719251525352415e-05, 4.078693992166694e-05, 2.4116938566617493e-05, 2.9663403721754e-05, 1.903124969236906e-05, 1.5034698581170501e-05, 1.6223750017881386e-05, 1.5873151014168352e-05, 1.3447918881531388e-05, 1.6509559562801233e-05, 1.340736946124437e-05, 1.121566603707076e-05, 1.1318805533358667e-05, 1.1917299693507183e-05, 1.0523327235095697e-05, 9.943264742559712e-06], [7.02471058531449e-05, 3.532315042038415e-05, 7.914617126737712e-05, 8.324776999824451e-05, 4.8274841968282196e-05, 2.425217106662393e-05, 3.900686063476453e-05, 2.9530892153764903e-05, 1.6574458092301072e-05, 2.232070395758195e-05, 1.0158781946838372e-05, 9.667490619322328e-06, 6.056947196278571e-06, 6.306768466762075e-06, 7.348050571167349e-06, 5.284018116368044e-06, 4.211003564767275e-06, 3.778347856287177e-06, 6.390644921299756e-06, 3.2106036002992167e-06, 3.5798122144500253e-06, 2.841557248953347e-06, 3.016373400188289e-06, 2.3266875623797817e-06, 2.9869286600734186e-06, 2.517831932008018e-06, 2.8549335840421744e-06, 2.0236258737917794e-06, 2.09042066900947e-06, 2.5090958884193945e-06], [0.0002887147088234842, 9.817133328635761e-05, 0.00020820426814829992, 0.00011040190717916366, 6.540286071292981e-05, 6.09868883172552e-05, 2.9010800768075314e-05, 5.672890215309934e-05, 2.4726734895357052e-05, 1.6689993128056625e-05, 1.9519736375474134e-05, 2.1875270126478392e-05, 1.6439157136529547e-05, 1.701326042370611e-05, 1.7445159177922494e-05, 9.592564072128147e-06, 5.4005347829212385e-06, 1.0502495723546351e-05, 8.526503482041423e-06, 5.617667900308311e-06, 5.267335696643727e-06, 9.27269721454758e-06, 6.940350837034075e-06, 4.938677724788662e-06, 3.1809433488333716e-06, 4.602953332299087e-06, 3.5710298092514725e-06, 5.762017781353836e-06, 3.2166889771775108e-06, 2.580445032350671e-06], [5.588845039407412e-05, 2.2089434787631033e-05, 1.739183401999374e-05, 7.871028113489348e-06, 5.794867562750974e-06, 4.586180148180574e-06, 4.090729635208845e-06, 3.4444276631499325e-06, 2.4799548555165527e-06, 2.0214985852362586e-06, 1.5561251833181206e-06, 1.3290372104772054e-06, 1.0457665969928105e-06, 9.54764982452616e-07, 7.854675156219553e-07, 6.098345086987442e-07, 5.702790076611564e-07, 5.172939078571896e-07, 4.5266318314437135e-07, 3.590743593425335e-07, 3.2303923944709825e-07, 2.8675288679854326e-07, 2.664339566157044e-07, 2.369340563745937e-07, 2.3082592027397676e-07, 2.1262007976474711e-07, 2.0345532902865676e-07, 1.9725968437948426e-07, 1.7767203341160596e-07, 1.6609163443111666e-07], [6.932675730108701e-05, 2.7408162218920872e-05, 7.717291509790555e-05, 1.0956188058233418e-05, 7.342097393302942e-06, 9.155295422204352e-06, 4.94429987627523e-06, 7.94244819683308e-06, 8.98740712280408e-06, 2.543457275537693e-06, 2.777228688978272e-06, 3.0659246735907777e-06, 1.6721907342245767e-06, 1.4153945330465443e-06, 1.9312204688184693e-06, 1.1623564574389981e-06, 1.2381197547502517e-06, 9.758374756603504e-07, 1.6568006882308475e-06, 8.918894086324689e-07, 6.642740654076644e-07, 5.848108616830176e-07, 1.0090501248472647e-06, 6.405273609331941e-07, 7.492104639677715e-07, 7.044560568094051e-07, 6.358818935724839e-07, 5.248748567732765e-07, 6.327056579113474e-07, 4.3956629162503324e-07], [5.588845039407412e-05, 2.2089434787631033e-05, 1.739183401999374e-05, 7.871028113489348e-06, 5.794867562750974e-06, 4.586180148180574e-06, 4.090729635208845e-06, 3.4444276631499325e-06, 2.4799548555165527e-06, 2.0214985852362586e-06, 1.5561251833181206e-06, 1.3290372104772054e-06, 1.0457665969928105e-06, 9.54764982452616e-07, 7.854675156219553e-07, 6.098345086987442e-07, 5.702790076611564e-07, 5.172939078571896e-07, 4.5266318314437135e-07, 3.590743593425335e-07, 3.2303923944709825e-07, 2.8675288679854326e-07, 2.664339566157044e-07, 2.369340563745937e-07, 2.3082592027397676e-07, 2.1262007976474711e-07, 2.0345532902865676e-07, 1.9725968437948426e-07, 1.7767203341160596e-07, 1.6609163443111666e-07], [5.588845039407412e-05, 2.2089434787631033e-05, 1.739183401999374e-05, 7.871028113489348e-06, 5.794867562750974e-06, 4.586180148180574e-06, 4.090729635208845e-06, 3.4444276631499325e-06, 2.4799548555165527e-06, 2.0214985852362586e-06, 1.5561251833181206e-06, 1.3290372104772054e-06, 1.0457665969928105e-06, 9.54764982452616e-07, 7.854675156219553e-07, 6.098345086987442e-07, 5.702790076611564e-07, 5.172939078571896e-07, 4.5266318314437135e-07, 3.590743593425335e-07, 3.2303923944709825e-07, 2.8675288679854326e-07, 2.664339566157044e-07, 2.369340563745937e-07, 2.3082592027397676e-07, 2.1262007976474711e-07, 2.0345532902865676e-07, 1.9725968437948426e-07, 1.7767203341160596e-07, 1.6609163443111666e-07], [5.588845039407412e-05, 2.2089434787631033e-05, 1.739183401999374e-05, 7.871028113489348e-06, 5.794867562750974e-06, 4.586180148180574e-06, 4.090729635208845e-06, 3.4444276631499325e-06, 2.4799548555165527e-06, 2.0214985852362586e-06, 1.5561251833181206e-06, 1.3290372104772054e-06, 1.0457665969928105e-06, 9.54764982452616e-07, 7.854675156219553e-07, 6.098345086987442e-07, 5.702790076611564e-07, 5.172939078571896e-07, 4.5266318314437135e-07, 3.590743593425335e-07, 3.2303923944709825e-07, 2.8675288679854326e-07, 2.664339566157044e-07, 2.369340563745937e-07, 2.3082592027397676e-07, 2.1262007976474711e-07, 2.0345532902865676e-07, 1.9725968437948426e-07, 1.7767203341160596e-07, 1.6609163443111666e-07], [5.588845039407412e-05, 2.2089434787631033e-05, 1.739183401999374e-05, 7.871028113489348e-06, 5.794867562750974e-06, 4.586180148180574e-06, 4.090729635208845e-06, 3.4444276631499325e-06, 2.4799548555165527e-06, 2.0214985852362586e-06, 1.5561251833181206e-06, 1.3290372104772054e-06, 1.0457665969928105e-06, 9.54764982452616e-07, 7.854675156219553e-07, 6.098345086987442e-07, 5.702790076611564e-07, 5.172939078571896e-07, 4.5266318314437135e-07, 3.590743593425335e-07, 3.2303923944709825e-07, 2.8675288679854326e-07, 2.664339566157044e-07, 2.369340563745937e-07, 2.3082592027397676e-07, 2.1262007976474711e-07, 2.0345532902865676e-07, 1.9725968437948426e-07, 1.7767203341160596e-07, 1.6609163443111666e-07], [5.588845039407412e-05, 2.2089434787631033e-05, 1.739183401999374e-05, 7.871028113489348e-06, 5.794867562750974e-06, 4.586180148180574e-06, 4.090729635208845e-06, 3.4444276631499325e-06, 2.4799548555165527e-06, 2.0214985852362586e-06, 1.5561251833181206e-06, 1.3290372104772054e-06, 1.0457665969928105e-06, 9.54764982452616e-07, 7.854675156219553e-07, 6.098345086987442e-07, 5.702790076611564e-07, 5.172939078571896e-07, 4.5266318314437135e-07, 3.590743593425335e-07, 3.2303923944709825e-07, 2.8675288679854326e-07, 2.664339566157044e-07, 2.369340563745937e-07, 2.3082592027397676e-07, 2.1262007976474711e-07, 2.0345532902865676e-07, 1.9725968437948426e-07, 1.7767203341160596e-07, 1.6609163443111666e-07], [5.588845039407412e-05, 2.2089434787631033e-05, 1.739183401999374e-05, 7.871028113489348e-06, 5.794867562750974e-06, 4.586180148180574e-06, 4.090729635208845e-06, 3.4444276631499325e-06, 2.4799548555165527e-06, 2.0214985852362586e-06, 1.5561251833181206e-06, 1.3290372104772054e-06, 1.0457665969928105e-06, 9.54764982452616e-07, 7.854675156219553e-07, 6.098345086987442e-07, 5.702790076611564e-07, 5.172939078571896e-07, 4.5266318314437135e-07, 3.590743593425335e-07, 3.2303923944709825e-07, 2.8675288679854326e-07, 2.664339566157044e-07, 2.369340563745937e-07, 2.3082592027397676e-07, 2.1262007976474711e-07, 2.0345532902865676e-07, 1.9725968437948426e-07, 1.7767203341160596e-07, 1.6609163443111666e-07], [5.588845039407412e-05, 2.2089434787631033e-05, 1.739183401999374e-05, 7.871028113489348e-06, 5.794867562750974e-06, 4.586180148180574e-06, 4.090729635208845e-06, 3.4444276631499325e-06, 2.4799548555165527e-06, 2.0214985852362586e-06, 1.5561251833181206e-06, 1.3290372104772054e-06, 1.0457665969928105e-06, 9.54764982452616e-07, 7.854675156219553e-07, 6.098345086987442e-07, 5.702790076611564e-07, 5.172939078571896e-07, 4.5266318314437135e-07, 3.590743593425335e-07, 3.2303923944709825e-07, 2.8675288679854326e-07, 2.664339566157044e-07, 2.369340563745937e-07, 2.3082592027397676e-07, 2.1262007976474711e-07, 2.0345532902865676e-07, 1.9725968437948426e-07, 1.7767203341160596e-07, 1.6609163443111666e-07], [5.588845039407412e-05, 2.2089434787631033e-05, 1.739183401999374e-05, 7.871028113489348e-06, 5.794867562750974e-06, 