{"timestamp_utc": "2026-03-09T10:11:53+00:00", "case_id": "bird_17_high_large_14", "bgmm_weights": [0.008665654461007824, 0.010357554693093646, 0.010492487465991027, 9.995933203282296e-05, 0.013986169700063165, 0.016173243662673004, 0.03136986065012508, 0.0077708701596058945, 0.019872307504831942, 0.004325785249289514, 0.021096158770790137, 0.00029915923312408797, 9.985988833105129e-05, 0.02800086505667718, 0.1259095574061328, 9.982197690803491e-05, 0.014407461189022577, 0.01151611114168546, 0.0006970417759844726, 0.012290441426573139, 9.97487581324828e-05, 0.01238317585310894, 0.026079863282143692, 0.0006937582138864773, 9.968655474223858e-05, 0.03381121992854436, 0.006500066136738032, 0.00910938660698566, 0.03799608845619461, 0.01539270136130654, 9.958183126906893e-05, 0.017290320077318233, 0.008692053005995043, 9.952302012627112e-05, 0.02410595430380929, 0.02202182002587976, 9.945983234289098e-05, 9.943775114764548e-05, 9.941567485467232e-05, 0.023293065737778312, 9.937033131816034e-05, 0.003541930540134012, 0.00976000133345474, 9.929961614600466e-05, 0.014564892670870978, 0.013110169966976813, 0.019658802450489614, 0.014216621134526534, 0.014823130741413068, 0.011575583195086172, 9.911001964571259e-05, 9.907960413488135e-05, 0.015707566584671095, 0.012899472448630085, 0.01802924416032123, 0.02773461247102027, 0.013130164581591029, 0.018144997014326078, 9.882249328480018e-05, 9.877751185462086e-05, 0.017618204803995806, 9.868366173949704e-05, 0.026248590323152916, 0.008040880615595835, 9.851968140107885e-05, 0.03059431238264786, 0.010295263343744218, 0.0207389463009505, 9.821700212200138e-05, 0.01033632750973814, 0.01993555794847202, 9.788801799207045e-05, 9.775641098439363e-05, 9.762498091772371e-05, 0.02084587439897767, 9.731011411499439e-05, 0.001638912739784464, 0.02733712716100214, 0.022594700891516044, 9.55685007664496e-07], "bgmm_means": [[-0.0835645205958221, 0.004340592965142557, -0.0213474765393726, -0.002013451638630447, 0.008526939281758144, -0.004999474908182454, 0.0026094386611323454, 0.005194664471536734, -0.006706889072273183, 0.002884143528144145, 0.0022094583418709977, 0.0024374462315116703, 0.0036761328795773215, -0.0004464174877991135, 0.00019169359228057983, 0.0009537008842822253, -0.00041177466990374733, 0.0016391659388034774, 0.002158380202552724, -0.0007913624183862292, -0.0001589021814710323, -0.0002786024586812191, 0.0005429936165874522, -0.0004060632499306986, -7.494337406154554e-05, 0.00017493667554695986, 0.0008299796368041912, 0.0005349451910007605, 0.00011098771542884795, -0.00037781097168357113], [0.0654221689730305, 0.0041617748934832, -0.015483091538648897, -0.005191739910432438, 0.005680493165413939, 0.007675699784187084, -0.0028454649991003114, 0.0029760399914994617, 0.0008722855530759621, 0.0034812872741526546, -0.004732407420923563, -0.00431323392581518, -0.0009696971790960712, -0.000525914388560494, -0.0033420379131529343, 0.000755150809507352, 0.0013614467202743192, -0.0034075562020821184, 0.0003006621909928625, 0.0011182039990967174, 4.2488074924344836e-05, 0.0011597054129224708, 0.0014364687956869085, -0.0024669996133581335, -0.000576972491359956, -0.0007376595625186695, -0.0007980369942506381, -0.0006566955278236973, 0.0008101352560628927, -0.00022780419583241635], [-0.01358138934505392, -0.03471555571704193, 0.02972350339449955, -0.0037768615310736263, 0.009552650620337872, 0.004057638801901432, 0.00019829242307820195, -0.0006709791210425348, 0.0012915243585641856, -0.0020750964673777127, 0.003844575142058483, -0.0024671385523577045, -0.0005447320039062329, -0.001741782004989268, 0.001700875741047467, 0.002401142176020119, 0.0005060035307444273, -0.0022657961125400207, 0.0005754471764526865, 0.0001588944835421843, -0.0026414572723886098, 0.0017803523269587936, -0.0009493354569611211, 0.001868471768355732, -0.001517236844075189, -0.00039952349620518343, -0.00036796653021090974, 0.00038558949338376514, -0.0011244875267404368, -0.001498319218221935], [1.0809488770746588e-07, 1.0346187906407045e-07, -1.1378173070397654e-07, 2.1446961984139485e-09, 4.477438153571701e-08, -1.6563778615363807e-07, 1.3855455449629485e-07, -1.3449759705963486e-07, 1.374476088500384e-08, -1.2955162498329258e-09, 3.02642106930761e-08, 1.3726767633670502e-07, -1.1764466734120989e-08, 1.0498087732457838e-07, 7.633433796172522e-08, -3.746462340359349e-08, -1.2232941060119602e-07, 1.8015704483786936e-07, -1.7931711226992735e-07, 2.0263276212517622e-07, 8.623872105317768e-08, -8.839577247954347e-08, -1.2762285450662574e-07, 2.5617060472882202e-08, 1.035355410294867e-07, 2.6750385018203757e-07, 1.9715994170610386e-08, 7.18357640039356e-08, -3.020808847509209e-08, 7.346558561494005e-08], [0.08777251028504966, -0.008099759182861306, -0.028331036905757914, -0.008703526197765111, -0.0010926445440005708, 0.007812383270623623, -0.004421763646892755, 0.0036803759026116335, 0.0008472522675836187, -0.00258984334287196, -0.0006141913397671046, 0.0019614952090699876, -5.6139217160705026e-05, -0.0039165031230229495, -0.0037272564606863653, 0.00015333312386708967, 0.001834765078848628, 3.0079542822136772e-05, -0.0005081992775083508, -3.6290137297895216e-06, 0.0008009178834902366, -0.00015810168406270458, -0.0008375539237557724, -0.00047438097785971046, -0.0013299897238380227, 0.0014554141449621976, 0.0009941021792614212, -0.0007277086153338539, -0.0008636467047217613, 0.0002604802094220614], [-0.04908354141350456, 0.014241331825203079, 0.0009503111708378749, 0.00606922923031924, -0.006102251825454474, 0.0015617507472291525, -0.004739684282852687, 0.004693465396247789, -0.007140529376367868, -0.0019073888034026934, -0.0009172991227714475, -0.001309349179290324, -0.002256443647238968, -0.0009166863419493603, -0.00022549849691823193, -0.00046189638968970124, 0.0011730615525189475, -0.0010096151028622113, -0.000187939655597948, 0.000589314321337034, 0.0001508777088561043, -0.0006690056565897335, -0.0011822641252383045, -0.000273503978544505, 0.0006975193705995083, 0.00013134073412835788, -3.697792538905068e-05, 0.00031162058831964693, -0.00020029986734826328, -0.0007304679111022812], [0.05124453995619015, 0.007898972286438367, 0.00281033839389067, 0.0022332208025541704, 0.0023227301968640527, 0.0016956006474044744, -0.002845772255539271, 0.00044043845685585797, 0.0007422418720603517, 0.002333426848328868, 0.0006962425218944968, 0.003973933538712069, -0.0011259000873968799, 0.00011505962625334174, 0.0011495149538700547, 0.0006036799383021147, -0.0028997650002856104, 0.000793346499168311, -0.000284599613649316, 0.00029935053524809746, 0.000623424000640498, 0.000719521144584544, 0.0003363941890257508, -0.0007092525793065389, 0.0010028898535941778, -0.0009470292065447663, -0.0005581965330380547, 0.00017858691204390324, 7.132952037736168e-05, -0.0006180401746302826], [-0.057690677958943705, -0.04379520133523533, 0.009939314535308642, -0.009005258248052895, 0.010975527350875624, 0.008456487725498278, -0.0033670148097770763, -0.005986045955174743, 0.0011829253497579492, -0.00619831320787923, 0.0006062449714372794, -0.003025700648573018, -0.00150243231286187, -0.005033096407230859, 0.0024616006871755573, 0.0006976028696188645, -0.0015066377171640835, -0.0008527271894126709, 0.0017959697505887159, -0.0013556165811289612, -0.0008404025289998928, 0.0006325547512969008, 0.0011035153786137014, 0.0011731881235291484, 0.0001909231488282477, 0.00023871309241792785, -0.002386479763938532, -0.0006672750195189343, -0.0016337051154572976, -0.001037582646324199], [-0.049560102304921284, -0.029867638057689758, 0.004866446320755359, -0.005409852238833297, 0.009776370324099264, 0.004807782132639146, -0.003045348668544864, -0.005298468991019461, 0.0004135669935652535, -0.001996337819854842, -0.001026441142040314, -0.0010275405588582242, -0.0021681895929862396, 0.00142570430780278, -0.001722768209096917, 0.00035635508045682906, 0.0006354062684656165, 0.0012396044818523504, -0.0019057018718457409, -0.0017019251404701825, 0.000361959562900796, -0.00043950340333334236, -0.0002796421800488163, 0.00045768243544704973, -4.982984663529691e-07, 0.0007458043676752118, 0.00016676176598857262, 3.0158063054326156e-05, -0.00011843928849436264, -0.0004460768142692898], [0.07085046987280315, -0.07109833056554159, -0.010736375754310743, 0.007265059380275912, -0.007978536147720641, -0.006532641237278725, 0.02047132856564687, -0.009646921555052559, -0.01015910350549172, -0.004473102090149844, -2.3798890082416573e-05, 0.005485197880861975, -0.004412282119020445, -0.0012901371045540818, -0.008203789850192867, -0.003304243734410363, 0.00524478420277208, 0.0006242805658360296, 0.004859455642042924, 0.0011407708737580114, -0.00012344032933987124, 0.00036009640918342896, -0.0015626645989241879, -0.001079727835400799, 0.006683035395580714, 0.0004943731605334046, -0.0022701921976825403, 0.00040074084643732227, 0.0019954722806233526, -0.0013959188276131053], [0.0688299047053542, 0.014848781968408371, 0.0018362254625938763, 0.0013280496906825563, 0.0076308120784107656, -0.006160452536103925, -0.002656894330796794, -0.0022802055250681886, -0.00282818631251914, -0.0022430135514157675, -0.004908676712323985, -0.0022393571962252092, 0.00215136590280142, 0.0005273722768740161, 0.0020254446493132958, -0.0002957481243267691, -0.0001348268127388347, -0.0018120531529540991, -0.00031392952594322426, -0.000834866041118315, -0.0008131558494176513, 0.0007802524378246599, 7.745687920907704e-05, -0.0005985209436997962, -0.000872205947581804, -0.0005030543049163096, -0.00038603077238810453, 0.0002553269921561042, 0.0010219159048847095, -0.0005317472342990209], [0.002276204914589005, -0.000101770040457524, 0.011054366638413584, 0.0017414708706560993, 0.009611708656768497, -0.0030475527041576985, 0.0035818814082546955, -5.101146656553611e-05, -0.0022488606089832207, 0.004242394492372662, 0.0021331801920214284, -0.0013806943306399178, -0.0014242415392403877, 0.0023738191542458176, 0.002252786293030741, -0.0002017079434825234, 0.0030786014774467543, -0.001493823470919065, -0.000899047890199356, 0.0008475808977330925, 0.0019268659486411034, -0.0005429704204807113, -0.0016599573554147305, 0.0013588916605679028, 0.000363160172141055, -0.0008170521026429183, 0.0013261030626210966, -0.0022372770738254538, 0.00031642755018806805, 0.001222220359912681], [1.0809488770746588e-07, 1.0346187906407045e-07, -1.1378173070397654e-07, 2.1446961984139485e-09, 4.477438153571701e-08, -1.6563778615363807e-07, 1.3855455449629485e-07, -1.3449759705963486e-07, 1.374476088500384e-08, -1.2955162498329258e-09, 3.02642106930761e-08, 1.3726767633670502e-07, -1.1764466734120989e-08, 1.0498087732457838e-07, 7.633433796172522e-08, -3.746462340359349e-08, -1.2232941060119602e-07, 1.8015704483786936e-07, -1.7931711226992735e-07, 2.0263276212517622e-07, 8.623872105317768e-08, -8.839577247954347e-08, -1.2762285450662574e-07, 2.5617060472882202e-08, 1.035355410294867e-07, 2.6750385018203757e-07, 1.9715994170610386e-08, 7.18357640039356e-08, -3.020808847509209e-08, 7.346558561494005e-08], [0.02253934846897436, -0.00025141165051408937, 0.003688326997338064, 0.01092352336119356, -0.00040857639662024084, 0.0036783128806509085, -0.0030951705092945037, 0.001407026186361654, 0.002809635632462475, 0.0035254675011557, 0.0003546439508689807, 0.0004525094188415994, -0.0016372001665159544, 0.0014297461726724293, 0.0006477393889591008, -0.00042458720043947457, -0.001845650254982373, 0.0005628391842544758, 0.0012838663356705068, 0.00025191772469151133, -0.0009223786252390409, -0.00038404500787452104, 8.986429668170093e-05, 0.00024021291291227728, 0.001104319905186895, -0.0013951615914630255, -0.0007874230644493326, 0.000131316391120231, 4.659130766359767e-05, 0.0008559252841188867], [0.0015082694387987432, -0.014312081907277889, 3.899512393636645e-05, -0.0009316290564222362, -0.006587325484143531, -0.001374169378551477, 0.0023756304587095197, 0.0005172641690837939, 0.0015097705181725451, 0.001643269466459748, 0.00010391204454199188, -0.0028581172598787243, 0.0012430371133840782, 0.0002375858335647358, -0.0004587996371059243, 0.0005284759781499471, -0.0005912015411016608, -1.703096635804512e-05, -0.00026712871595939945, -0.0003754239414554515, 0.00017527720160465663, -0.00012396512110873255, 0.00034442755665892, -0.00014056175271374844, -0.0002216848897764086, -0.0004325542127900698, -8.569090980318891e-05, 5.555371970824733e-05, -0.00010539346634831322, 0.0004142184837656022], [1.0809488770746588e-07, 1.0346187906407045e-07, -1.1378173070397654e-07, 2.1446961984139485e-09, 4.477438153571701e-08, -1.6563778615363807e-07, 1.3855455449629485e-07, -1.3449759705963486e-07, 1.374476088500384e-08, -1.2955162498329258e-09, 3.02642106930761e-08, 1.3726767633670502e-07, -1.1764466734120989e-08, 1.0498087732457838e-07, 7.633433796172522e-08, -3.746462340359349e-08, -1.2232941060119602e-07, 1.8015704483786936e-07, -1.7931711226992735e-07, 2.0263276212517622e-07, 8.623872105317768e-08, -8.839577247954347e-08, -1.2762285450662574e-07, 2.5617060472882202e-08, 1.035355410294867e-07, 2.6750385018203757e-07, 1.9715994170610386e-08, 7.18357640039356e-08, -3.020808847509209e-08, 7.346558561494005e-08], [0.10062679725346713, -0.011047078435145526, -0.03438840760827131, -0.004940025412117451, -0.0015219544383449116, -0.0010691216463585027, -0.004026297586509567, 0.0010054466273311062, -0.0016317164721855073, -0.0064119574937800084, 0.003941353706265199, 0.001953629688788119, 0.0027433267477964727, 0.0009179785759271452, -0.0006250572082404416, -0.0016743992774768852, 0.0035154652429155407, 0.0027331054101045857, 0.0013962174915142542, -0.0024022213416679226, -0.0013592450756344395, -0.0008519114946125134, -0.00040426677290036374, 0.0008008112452868, -0.001211706483304102, 0.00011009938429649657, 0.0005402577314435555, -0.0005351618892361383, -0.0010113002230569836, -5.2699222900107414e-05], [-0.03768745069281871, 0.03418391686397872, -0.006969755132129444, 0.006940144854294735, -0.006113647724891878, 0.001633187904549128, 0.004204235747581932, -0.00035019417342161985, 0.006347201102650362, -0.002327118497669139, 0.0028592456770014816, -0.0006730777060083223, -0.003346270976057614, -0.0008613217971183753, -0.00023102678404012184, -0.0021316516934146174, -0.0010208007749824798, -0.0003962887209458712, 0.0005982619760777975, -0.0017677340807983608, -0.0008292838106990282, 0.00042082405957932003, -0.0005524328866726038, -0.0004773504477999366, -0.0011662272044963612, 0.0006389201082688936, 0.0007284561122578568, -0.0017151725616463033, 0.001388740851081944, -0.0001614739404086448], [-0.028270565252817917, 0.03820339827078194, -0.005565855199792743, -0.0001396240491401735, -0.006623020457984706, -0.0019034020868000893, 0.005786074704297503, 0.00037692371098975046, 0.003700709740288657, -0.006142391079194763, 0.00043523041102207504, 0.00010530496088494146, -0.0032989352219313537, -0.0011281750684086448, -0.0026739426458097025, 0.0017655486122013023, -0.0026363043160353523, -0.004334267692135391, 0.0005191639081864548, -0.0024710369597628797, -0.00065195268419601, -0.00013589601127057422, -0.001251318925368249, 0.00022443954606142264, 0.0003925069299092807, 0.0008208771311309937, 0.0005607884600226335, -0.0022291243783278316, 0.0016591035004501575, -0.0005004859522365467], [-0.07279474954471966, 0.017836846092097507, -0.014334386127128007, 0.003586440779231637, 0.0002632015521818715, -0.0020981577492695533, -0.0017477390105658179, 0.0027691887403240036, -0.01146121565745008, 0.001887147368914809, 0.0019403327182050069, -0.00039590290292978075, 0.000633327352048372, -0.0033667090742245352, -0.0001416640634369981, 0.002757863103592198, 0.0009297466395553173, 0.0008810701679453524, 0.001676030382501364, 0.00011659932727982133, -0.0005356849301810251, -0.00017497971153969416, -1.8386515112557606e-05, -0.0006106014537759725, 0.0005362662809863283, -0.0006794528526653931, 0.0016944741242017316, 0.0012442180472563545, -0.00032823016722084155, -0.0009876475887980387], [1.0809488770746588e-07, 1.0346187906407045e-07, -1.1378173070397654e-07, 2.1446961984139485e-09, 4.477438153571701e-08, -1.6563778615363807e-07, 1.3855455449629485e-07, -1.3449759705963486e-07, 1.374476088500384e-08, -1.2955162498329258e-09, 3.02642106930761e-08, 1.3726767633670502e-07, -1.1764466734120989e-08, 1.0498087732457838e-07, 7.633433796172522e-08, -3.746462340359349e-08, -1.2232941060119602e-07, 1.8015704483786936e-07, -1.7931711226992735e-07, 2.0263276212517622e-07, 8.623872105317768e-08, -8.839577247954347e-08, -1.2762285450662574e-07, 2.5617060472882202e-08, 1.035355410294867e-07, 2.6750385018203757e-07, 1.9715994170610386e-08, 7.18357640039356e-08, -3.020808847509209e-08, 7.346558561494005e-08], [-0.09300718674945999, -0.013939245426401783, -0.0351790835676278, -0.004840223126339489, 0.010812603099890126, -0.007592693642080603, 0.0014573275281446667, 0.0031103254347674145, 0.0027297472951893233, 0.0014398851564456226, -0.001592580930964151, 0.004170202723251907, 0.0014656542388868734, -0.001014291143725373, 0.0018522422825962954, -0.002761266063841051, -0.0027980335684166333, -0.001559983930632304, 0.002126603979680696, -7.016589490838941e-05, 0.0002395199546236189, -0.00010851714186110609, 0.0008692242334831222, 0.0008225955488858856, -0.0006590354344277297, 0.0004112636073961887, -0.0005459438286272668, 0.0005893405854374121, 0.0007090252827794047, 0.0012269498957085774], [-0.018533624782532076, -0.011226576295471418, 0.01600944723004553, 0.0032080112617990427, -0.006801284429056425, -0.002439266367329772, -0.006434569360816256, 0.0010819916951038944, 0.0009237760623414763, -0.0026213691718307425, -0.0005104278854239088, -0.0013020088214141209, 0.00015241623426746033, 0.003640315658989298, -0.000583111608735668, -2.2603819050267388e-05, 0.002294122932334832, 0.0012319421105995688, 2.164061845565134e-05, 0.0015928126563457554, 0.001150578458510179, -0.00031844918333296713, 0.00142415589488958, -0.00021498483403777207, -0.00014655017379358064, 0.0006422498147049877, 0.00013275015138476884, -0.000705452510226007, -0.0001698699493229094, 0.00011778014808876044], [-0.0195462762713548, -0.02029596455453832, 0.021555123376089433, -0.0008564000627317731, 0.0030985859194795824, 0.0045595155776144616, -0.0019389897531915334, -0.0008464222578819846, -0.0011784493611332338, -0.0019759074164296918, -0.0015767154428295944, 0.0009991234869588, 0.00020894170009990958, 0.0028994125919976107, -0.001953538310253772, 0.0014730882439806467, 0.0013123299781581802, 0.003373774435006393, -0.002857677500217364, 0.001398616961501694, -0.0014600511966150688, 9.854111967031714e-05, -0.0002438827102774993, 0.00039510698584100106, -0.0012783267816302661, 0.0007765448407718162, 7.255384180482e-05, -0.000501919736106103, 0.0017343891350393458, -0.0005516982984780268], [1.0809488770746588e-07, 1.0346187906407045e-07, -1.1378173070397654e-07, 2.1446961984139485e-09, 4.477438153571701e-08, -1.6563778615363807e-07, 1.3855455449629485e-07, -1.3449759705963486e-07, 1.374476088500384e-08, -1.2955162498329258e-09, 3.02642106930761e-08, 1.3726767633670502e-07, -1.1764466734120989e-08, 1.0498087732457838e-07, 7.633433796172522e-08, -3.746462340359349e-08, -1.2232941060119602e-07, 1.8015704483786936e-07, -1.7931711226992735e-07, 2.0263276212517622e-07, 8.623872105317768e-08, -8.839577247954347e-08, -1.2762285450662574e-07, 2.5617060472882202e-08, 1.035355410294867e-07, 2.6750385018203757e-07, 1.9715994170610386e-08, 7.18357640039356e-08, -3.020808847509209e-08, 7.346558561494005e-08], [0.02391412576727311, 0.01846006258399051, 0.015302057938222039, 0.008635909671215282, 0.004671384988905457, 0.0010400260106819225, -0.0009198686657796167, -0.0007855727207317141, 0.0011541346339861002, 0.0020428641501152502, -0.0011948027829624052, 0.004883315841881794, 0.00027456840470063573, 0.0017617802448472936, -0.0004512100176307124, 0.0006914865593934084, -0.0006088214452039447, -0.0005919493202655962, 0.0011729552527652725, -0.0002031851929243726, 5.076777708673674e-05, -0.00046248907824913803, 0.0018359529163563435, 8.104744956372952e-05, 0.00023761900069670515, 0.00013917497096882403, -4.986811732729355e-05, 0.0007228571565997827, -0.00046305038388696525, -0.0003060220836221603], [0.005030924418595423, -0.05995409298773362, 0.00601961476989136, 0.0032102810191058017, 0.0023714481372500724, 0.0005214228436909069, 0.0013646582086703789, -0.0013781088706863764, 0.005167672403733933, -0.001997323928347339, 0.0016003434415745327, -0.0013657642078522682, -0.006301903329404713, 0.0008114477500778494, 0.003114171400642942, 0.004927043159845392, 0.001182340153204307, 0.0015779206715104787, 0.0004893182612037089, 0.0004225636761925773, -0.0020168775946716243, -0.001384533246833528, -0.0017912999117440766, -0.0011914668805524133, -1.9572665370822955e-05, 0.00021841508347282546, 0.0007704560984296756, 0.000590265713724503, 0.0003281428068776068, 0.00021899528232687551], [-0.044718549070519045, -0.01288299367836317, -0.004118490488850158, 0.0062589561946479935, -0.007153022583142725, -0.005927243966731884, -0.006569617453174012, 0.004686781326133178, -0.001176415328255669, 0.0014932420362405235, -0.0059095361005070375, -0.0010570740510816576, -0.0007204608600452412, -0.0010026544752042858, 0.0007327706564044665, 0.001653984614844172, 0.0015151820518476498, -0.00043994913103643894, -0.000570850319226699, 0.0006823400463159004, 0.0010959825883572897, -0.001702645949560486, -0.000561453542830442, 0.001064197783075881, -0.0006312443880718244, 9.440673478902909e-05, 9.69855047938867e-05, -3.471805070525407e-05, -0.00035981869099389364, -0.0004081365436916809], [0.07878716766670937, 0.0025048817734511187, -0.010814866569737448, -0.0028452455309379656, 0.0012137247321003975, -5.886199793046384e-05, -0.004620603136804161, -0.00023506727824652802, -0.0022795627355431006, -0.0023631872845096815, 0.000702779503138623, 0.002106952416279508, 0.0002866153144841353, -0.001156659608083756, 0.0014780772402462111, -0.00048139527711537494, -0.001971313088667501, 0.0006871524394707378, -0.002097319425298358, -0.00023682045180918934, 0.0005935357569854705, -9.546621928377928e-06, -0.0010090309800416407, -3.969436536001016e-05, 0.0003968411569380533, 0.0005070001191224254, 0.00014019707850231454, -0.0005710887215194452, -0.00011908804324011927, -0.0005013270614141651], [-0.039634153774658204, 0.04020422666272752, -0.011642747990368275, 0.014085033295362504, 0.0005576066770889156, 0.0018895098716145012, 0.005711482022805764, -0.005323080753597268, 0.0072426277878503, -0.005239552082167195, 0.003351205243199032, -0.0016628802645945527, -8.706025345269393e-05, -0.0030484347940022763, 0.0004950536401111731, -0.002230614904228364, 0.0005664204585903852, 0.0017675457593453916, -0.0006881598341736719, 0.0013039143065506828, 4.5402331799913604e-05, -0.00020172204004648134, -0.0017709075309563828, -6.431283122016348e-05, -0.002258288625609044, -0.00021777538711063675, 8.856888323455618e-05, -0.0011074740829913035, 0.0018329023140604514, -0.00029668013586416346], [1.0809488770746588e-07, 1.0346187906407045e-07, -1.1378173070397654e-07, 2.1446961984139485e-09, 4.477438153571701e-08, -1.6563778615363807e-07, 1.3855455449629485e-07, -1.3449759705963486e-07, 1.374476088500384e-08, -1.2955162498329258e-09, 3.02642106930761e-08, 1.3726767633670502e-07, -1.1764466734120989e-08, 1.0498087732457838e-07, 7.633433796172522e-08, -3.746462340359349e-08, -1.2232941060119602e-07, 1.8015704483786936e-07, -1.7931711226992735e-07, 2.0263276212517622e-07, 8.623872105317768e-08, -8.839577247954347e-08, -1.2762285450662574e-07, 2.5617060472882202e-08, 1.035355410294867e-07, 2.6750385018203757e-07, 1.9715994170610386e-08, 7.18357640039356e-08, -3.020808847509209e-08, 7.346558561494005e-08], [0.08947139209963892, -0.0004368765041965518, -0.014957388761088609, 0.0010325880347995537, 0.0031228018935660243, -0.007147963193732297, -0.004530907679745331, -0.001771796374498055, -0.004125795301140179, -0.004808339718006445, 0.0006613578695330825, -0.0004862445988037305, 0.0027639111227227443, 0.002542272865783681, 0.002194874300182062, -0.0020713030385660055, 0.000462291248623496, 0.0010464240257420173, 0.0007128368382030428, -0.0023727455225832344, -0.0022084573943482576, 0.00018417512357524305, -0.00011297576296606433, 0.00041535054696619064, -0.0009079077336656824, -0.0013757642395228076, -0.000512529577046291, -0.00015447451286812477, 0.0003927319569917201, -0.0005438276115409219], [-0.0667233479637565, 0.005474556461551042, -0.015051957384598648, -0.0057912709420399845, -0.005881171346619123, -0.006154850758448573, -0.0067478807099107755, -0.0014080245064667465, -0.0017517286992664656, -0.0004818626882509051, -0.0016670439771585687, 0.0044696880085690035, -0.0033709365716305248, 0.0028017405040668946, -0.00047596753256055896, 0.000851807804637073, 0.0010548812776621174, -0.0018365269925996342, -0.0016677503778755234, 0.0023964983778076696, -0.00040397903962103085, 0.0004280074952869832, 0.0005312808857921034, 6.740368933476487e-05, -0.00042209880192748105, -0.0009201250472462122, -0.0008744346616111227, -0.00038459724167042513, -0.0011296162389533, 0.0006994357941066143], [1.0809488770746588e-07, 1.0346187906407045e-07, -1.1378173070397654e-07, 2.1446961984139485e-09, 4.477438153571701e-08, -1.6563778615363807e-07, 1.3855455449629485e-07, -1.3449759705963486e-07, 1.374476088500384e-08, -1.2955162498329258e-09, 3.02642106930761e-08, 1.3726767633670502e-07, -1.1764466734120989e-08, 1.0498087732457838e-07, 7.633433796172522e-08, -3.746462340359349e-08, -1.2232941060119602e-07, 1.8015704483786936e-07, -1.7931711226992735e-07, 2.0263276212517622e-07, 8.623872105317768e-08, -8.839577247954347e-08, -1.2762285450662574e-07, 2.5617060472882202e-08, 1.035355410294867e-07, 2.6750385018203757e-07, 1.9715994170610386e-08, 7.18357640039356e-08, -3.020808847509209e-08, 7.346558561494005e-08], [0.04765749040775141, 0.02412185693105795, 0.008076083196079628, 0.0017904991258408493, 0.00579650949887962, -0.003979661072162236, -0.0011755741601644806, -0.0020441580962138302, 0.0001348829190707571, -0.0022426573392722456, -0.0025806842209734507, 0.0007299981334964525, 0.002135331345519534, 0.0002222955287410176, 8.308009380881767e-05, 0.0038292500963796623, -0.0011653019118567742, -0.00032405333753338127, 0.00027876201523947564, 0.0006724914959150808, 0.001040557829549553, 0.0004826083133457808, 0.0010128520196805157, -0.0016869603769989405, -0.00048459748660986744, 0.001213955458343983, -0.00023781227213372862, 0.0008063257217071472, 0.00032237422351651167, -0.0009891572896708431], [-0.004929113047265661, 0.03206037443280929, 0.003024767453629483, 0.005937131487888546, 0.0029397374296992983, 0.0004862373944544807, 0.002997846939598217, -0.0005776757913758553, 0.0069852212742159804, -0.000665762094711379, -0.00109892263563158, 0.0015498557419259048, 0.0007910688543300423, 0.0002751515397274382, -0.0022852320654806893, -0.000918967764704788, 0.0003839494311376344, -0.0006384952962217903, 0.0007589723329784905, -0.00045018402220720386, -0.00029439390418321967, -0.0004827883798194686, -0.0010464499810392814, 0.0023514050424145823, 0.001272571837167024, 0.00016596402862619383, 0.0006048080251158059, -0.00023316328836852526, -0.0004861806462646807, 0.00012013567985952175], [1.0809488770746588e-07, 1.0346187906407045e-07, -1.1378173070397654e-07, 2.1446961984139485e-09, 4.477438153571701e-08, -1.6563778615363807e-07, 1.3855455449629485e-07, -1.3449759705963486e-07, 1.374476088500384e-08, -1.2955162498329258e-09, 3.02642106930761e-08, 1.3726767633670502e-07, -1.1764466734120989e-08, 1.0498087732457838e-07, 7.633433796172522e-08, -3.746462340359349e-08, -1.2232941060119602e-07, 1.8015704483786936e-07, -1.7931711226992735e-07, 2.0263276212517622e-07, 8.623872105317768e-08, -8.839577247954347e-08, -1.2762285450662574e-07, 2.5617060472882202e-08, 1.035355410294867e-07, 2.6750385018203757e-07, 1.9715994170610386e-08, 7.18357640039356e-08, -3.020808847509209e-08, 7.346558561494005e-08], [1.0809488770746588e-07, 1.0346187906407045e-07, -1.1378173070397654e-07, 2.1446961984139485e-09, 4.477438153571701e-08, -1.6563778615363807e-07, 1.3855455449629485e-07, -1.3449759705963486e-07, 1.374476088500384e-08, -1.2955162498329258e-09, 3.02642106930761e-08, 1.3726767633670502e-07, -1.1764466734120989e-08, 1.0498087732457838e-07, 7.633433796172522e-08, -3.746462340359349e-08, -1.2232941060119602e-07, 1.8015704483786936e-07, -1.7931711226992735e-07, 2.0263276212517622e-07, 8.623872105317768e-08, -8.839577247954347e-08, -1.2762285450662574e-07, 2.5617060472882202e-08, 1.035355410294867e-07, 2.6750385018203757e-07, 1.9715994170610386e-08, 7.18357640039356e-08, -3.020808847509209e-08, 7.346558561494005e-08], [1.0809488770746588e-07, 1.0346187906407045e-07, -1.1378173070397654e-07, 2.1446961984139485e-09, 4.477438153571701e-08, -1.6563778615363807e-07, 1.3855455449629485e-07, -1.3449759705963486e-07, 1.374476088500384e-08, -1.2955162498329258e-09, 3.02642106930761e-08, 1.3726767633670502e-07, -1.1764466734120989e-08, 1.0498087732457838e-07, 7.633433796172522e-08, -3.746462340359349e-08, -1.2232941060119602e-07, 1.8015704483786936e-07, -1.7931711226992735e-07, 2.0263276212517622e-07, 8.623872105317768e-08, -8.839577247954347e-08, -1.2762285450662574e-07, 2.5617060472882202e-08, 1.035355410294867e-07, 2.6750385018203757e-07, 1.9715994170610386e-08, 7.18357640039356e-08, -3.020808847509209e-08, 7.346558561494005e-08], [-0.011931559401838253, 0.01900871756124401, 0.006243019155183444, 0.015238426500918053, 0.0007496673160907388, 0.004730238738983055, -0.0019044313480316637, -0.0018991976081741584, 0.0020328214238762832, -0.002015425172938815, -0.0011060071842971299, -0.00010937317828764892, -0.00034770504196085885, 0.0008579485304070848, -0.002094203340119379, -0.0030936294051803685, -0.0014640472590617402, 0.00018124883245437562, 0.0014674659922872466, 0.0007622026816742667, -0.0012051560773821475, -0.00015888568959019036, -0.0011801444630464317, 0.0013908948867862897, 0.00017875645871509777, 0.00047304201683627956, -0.0001648619095433514, 0.0007891662810254157, -0.0003269276829257335, 0.001081367142602876], [1.0809488770746588e-07, 1.0346187906407045e-07, -1.1378173070397654e-07, 2.1446961984139485e-09, 4.477438153571701e-08, -1.6563778615363807e-07, 1.3855455449629485e-07, -1.3449759705963486e-07, 1.374476088500384e-08, -1.2955162498329258e-09, 3.02642106930761e-08, 1.3726767633670502e-07, -1.1764466734120989e-08, 1.0498087732457838e-07, 7.633433796172522e-08, -3.746462340359349e-08, -1.2232941060119602e-07, 1.8015704483786936e-07, -1.7931711226992735e-07, 2.0263276212517622e-07, 8.623872105317768e-08, -8.839577247954347e-08, -1.2762285450662574e-07, 2.5617060472882202e-08, 1.035355410294867e-07, 2.6750385018203757e-07, 1.9715994170610386e-08, 7.18357640039356e-08, -3.020808847509209e-08, 7.346558561494005e-08], [0.0002758506490396876, 0.045568784672729436, -0.0034967955955411247, -0.017198361412498687, -0.002195381150242715, -0.006133536541768974, 0.006480819263644697, -0.0028863372933134756, -0.00020016759474450477, -0.0027092654029610332, -0.0006959590910857039, -0.006632872878872783, -0.004442599161717618, -0.0001839660171515045, -0.0009391153710206973, 0.0016473583798833555, 0.00010408544349512527, 0.00045722545580925434, 0.0005350970090488871, -0.0006341189315340435, -0.004449137395325507, 0.001124260833474284, 0.0010932976521616507, -0.0002905004221882662, 0.0013824794882697652, 0.00047375103132379605, -0.001635303992767131, 0.0006177404325820174, 0.00010834404563462204, 0.001820860913282307], [-0.04744489438996496, -0.044632446973180646, -0.009960047452626145, -0.0007226047875357001, 0.005972608209199648, 0.000547601866174515, -0.0028229792838934996, -0.0020246558857779096, 0.005751889521920769, -0.0008692667354968123, -0.0049441840354171596, -0.0024282275482291056, -0.0024787645680094113, -0.00012879171605946797, 0.0008054325929394674, 0.001108645298924862, -0.000999321757646976, 0.00026386426340427045, -0.0010460878563583519, -0.0020353746063349514, 0.0006375439887084808, 1.9341545400731552e-05, -0.0006112640367023141, -0.0005237313405118973, 0.0005652390494637733, 0.00023721396602319786, 0.0006506024778646244, 0.000929290174684039, 0.0007047814114697704, 6.175703203054405e-06], [1.0809488770746588e-07, 1.0346187906407045e-07, -1.1378173070397654e-07, 2.1446961984139485e-09, 4.477438153571701e-08, -1.6563778615363807e-07, 1.3855455449629485e-07, -1.3449759705963486e-07, 1.374476088500384e-08, -1.2955162498329258e-09, 3.02642106930761e-08, 1.3726767633670502e-07, -1.1764466734120989e-08, 1.0498087732457838e-07, 7.633433796172522e-08, -3.746462340359349e-08, -1.2232941060119602e-07, 1.8015704483786936e-07, -1.7931711226992735e-07, 2.0263276212517622e-07, 8.623872105317768e-08, -8.839577247954347e-08, -1.2762285450662574e-07, 2.5617060472882202e-08, 1.035355410294867e-07, 2.6750385018203757e-07, 1.9715994170610386e-08, 7.18357640039356e-08, -3.020808847509209e-08, 7.346558561494005e-08], [-0.015573916849530424, -0.0335926104765698, 0.012849190115800215, 0.001325911884639082, 0.006242493596475566, -0.001966304945293497, -0.0009707628423390704, 0.00045273921083306137, 0.002756161385173386, 0.000218040548228654, -0.00036349928482117905, -0.0019956604449819244, -0.0022476411891275724, 0.0034752894113754262, -0.0006028554733539035, 0.0015748953767563446, 0.0007148980067337517, 0.0018519850049566766, -0.000623781090845085, 0.00037522494889341736, -0.0008001847533683943, -0.0006009675878131974, -0.001209793843048759, -0.0006195145318994362, -0.0010358198729328966, 0.0006020432034017016, 0.0007689707879060551, -0.0001989519413967487, 0.00010033430531451021, -0.0007607970837683044], [-0.015951440998274818, 0.045740748453577486, -0.0008349989851840761, -0.001664475388692126, 0.0014290582212652277, 1.3394780774249374e-05, 0.009861757541315522, -0.0006548754184299736, 0.00646198385081463, -0.0014370275720396969, 0.0010110263796188187, 0.0010612385081006693, 0.0005833029714933364, -0.0022968906351697634, -7.820608466362437e-05, 0.0020248590383175036, 0.0008180991310980068, 0.001281786208443561, 0.0005512736650355229, -0.0009970424996286046, 0.0006128949687077095, -0.0007597874737268474, -0.00069231972461769, 0.0008991073458260511, 0.0006150629504904015, 0.00012966754858699243, -0.00020524988904788984, -0.0015280121990413295, 0.0006039381012094512, 0.00010484923934835799], [-0.035089806716463987, 0.0011221877020646173, 0.005232608999590914, 0.0053928483666708, 0.005269661367810588, 0.0022821540978954424, -0.0014710019898211996, -0.0003107399143537085, -0.005841227622697405, 0.0033117800611560918, 0.00251627272431408, -0.0025931732154765535, 0.002173724035036746, 0.0020155464275442322, -0.002724254924194053, 0.0005086814330737797, 0.0005464037638955377, 0.001310062511634674, -0.0004167057538130539, 0.00024335193509958852, -0.0010700807691947699, 0.0004397113145481314, -0.0019370374533495425, 0.0012486261156884175, 0.0005127413692079018, 0.0008841272466051901, -0.00035301227918856516, -9.115209903510145e-05, -2.7953838953781813e-05, -0.00034000571589028737], [0.0021641918662477465, -0.012091055497084955, 0.02709455886952871, -0.020834576469498968, -0.014174186194735407, 0.004082245615511286, -0.0009545285994663875, -0.0060579328382538945, 2.5629241560382514e-05, 0.0017577595097234056, -0.0002104541724519346, 0.002083789578644038, 0.003204413781058444, -0.001119320231256691, 0.0012932456408537433, -0.0020337774534017776, -0.0020199944700909963, -3.636336235696242e-05, 0.003900465578910988, 0.00159313372764425, 0.0018007138722914851, -0.002015090951807789, -0.0026924104894816784, -0.0007410142156250367, -0.001875232271009736, -0.00021626830858134584, 0.0005372582600599424, 0.00039532798523449404, 0.0005619723439886741, -0.0009210281810325337], [-0.04854255957359417, 0.02563799651690887, -0.006057901941566409, 0.014756086844584525, -0.005010943901151204, 0.004565981481480932, -0.0003214598695340883, -0.0007180503062753673, -0.005766118913098555, -0.003830000285528604, 0.002877596053467292, -0.004630766806975978, -0.0013450877574220986, -0.00251553252461703, 1.8206490980980734e-05, -0.0011512538253127724, -0.0016636928605767909, 0.00022751485573781042, 0.0022395002001464655, 0.0007313485468390859, -0.0005857464512925098, -0.00013769243547318252, -0.0011849352762708374, -0.0014345052887763117, -0.0009191935362399956, 0.0008083556859392531, -0.00011068152211333979, -0.0001035978683363672, -0.0005137157836621926, 0.0002502872136815195], [0.020463347259194364, -0.022878077771481226, 0.007340453021870382, 0.007288181685796328, 0.00491045536684312, 0.0006548014321973296, -0.0010670818855089488, 0.0027046381700491905, -0.00014425505599320913, 0.007321827671466396, 0.0038299010909200164, 7.0852827755003e-05, -0.0020096063474898977, 0.0022802203856565457, 0.0013131148679702287, 0.001882320455120556, -0.0007001635873498736, 0.0008975468843286065, -0.00020432098704260265, 0.0009335451016078513, -0.0015063739372836121, 0.00042976524399552504, -0.0018443474772417185, -0.00030287032716385336, 5.1355957733841925e-05, -0.0003540558275185995, 0.0005913322775326126, -0.00035658802489250583, 0.0010408670204716994, 0.0006877661159888027], [1.0809488770746588e-07, 1.0346187906407045e-07, -1.1378173070397654e-07, 2.1446961984139485e-09, 4.477438153571701e-08, -1.6563778615363807e-07, 1.3855455449629485e-07, -1.3449759705963486e-07, 1.374476088500384e-08, -1.2955162498329258e-09, 3.02642106930761e-08, 1.3726767633670502e-07, -1.1764466734120989e-08, 1.0498087732457838e-07, 7.633433796172522e-08, -3.746462340359349e-08, -1.2232941060119602e-07, 1.8015704483786936e-07, -1.7931711226992735e-07, 2.0263276212517622e-07, 8.623872105317768e-08, -8.839577247954347e-08, -1.2762285450662574e-07, 2.5617060472882202e-08, 1.035355410294867e-07, 2.6750385018203757e-07, 1.9715994170610386e-08, 7.18357640039356e-08, -3.020808847509209e-08, 7.346558561494005e-08], [1.0809488770746588e-07, 1.0346187906407045e-07, -1.1378173070397654e-07, 2.1446961984139485e-09, 4.477438153571701e-08, -1.6563778615363807e-07, 1.3855455449629485e-07, -1.3449759705963486e-07, 1.374476088500384e-08, -1.2955162498329258e-09, 3.02642106930761e-08, 1.3726767633670502e-07, -1.1764466734120989e-08, 1.0498087732457838e-07, 7.633433796172522e-08, -3.746462340359349e-08, -1.2232941060119602e-07, 1.8015704483786936e-07, -1.7931711226992735e-07, 2.0263276212517622e-07, 8.623872105317768e-08, -8.839577247954347e-08, -1.2762285450662574e-07, 2.5617060472882202e-08, 1.035355410294867e-07, 2.6750385018203757e-07, 1.9715994170610386e-08, 7.18357640039356e-08, -3.020808847509209e-08, 7.346558561494005e-08], [0.009417616573827607, -0.04653877326782847, -0.012518417555181703, 0.00911832786194341, -0.0137057293552104, 0.004595822301101925, 0.018116842240420594, -0.006729235054433226, -0.0044430857401682395, 0.00038512125847091274, -0.006026297951450019, 0.0008184329858615308, 0.004331872822772366, 0.0020184949579347836, 0.0012040141636033889, 0.00013694523966911295, -0.0012781920365970282, -0.0030099730372911662, -0.00033372599628783765, 0.0005939860845110679, 6.960619321908214e-05, -0.0002727487594584751, 0.0006601412220078773, 0.00028853981228788266, 7.652237007137452e-05, 0.0001322528666321085, 9.863936266301636e-05, 0.00013834706479202343, -0.0009220887432423235, -0.0013254989833300095], [-0.03390842761839055, 0.030482859587794214, -0.0033611675003883353, -0.010836954346350323, -0.010696560650385054, -0.004953230083125297, 0.0009942590579188953, 0.0009047019820477211, 6.693699499770758e-05, -0.0012740499047744244, 0.0010156822977549248, 0.0010552598609056515, -0.005425631543734346, 0.0014670161697740497, -0.001446538198205869, 0.0028704121776809213, 0.00015386854049286342, -0.0032169164558631313, -0.0010997736737104558, -0.0014434491285297306, -0.001983762372926606, 0.001352492753751098, -0.0004993353156143733, 1.0600104212064166e-05, 0.0009137823985860584, 0.0009844774736623985, -0.0013027455572854033, -0.0001183903645344169, 9.415836171330939e-05, 0.0002687731563982899], [-0.04376696441518499, -0.02060184126070793, 0.019928676573626822, -0.005956734846881943, -0.0015034119357713956, 0.005193502809188539, -0.003083692036460287, 0.0026473562242740134, 0.0002608393792306597, -0.003546724638061601, 0.0007511642935292589, 0.0005420033383628284, 0.006710569728227355, -0.0009583558510927829, 0.0006472170553925481, -0.0005117867423501932, 0.0006407980084610394, -0.0007109554873729187, -0.0007474266460776076, 0.0002162165867612173, -0.0010676004194251608, -9.495785872290955e-06, 0.0006187201467958127, -0.0002678610397688083, 0.0012029071994125648, -0.00013534437654708206, -0.00042669092053667675, -0.0015207564871211163, 0.0011595219401914223, 0.00021009492199037033], [0.04494916094854178, 0.024036969888775378, 0.000743861849834897, -0.009605330742144645, 0.0053538958751945765, 0.000391752417598028, 0.0027589532505420994, -0.0013478043520246056, -0.0024650805015677276, 0.0017652286685238554, -0.003798840380830235, -0.006142044697489197, -0.0014815042275907844, -0.001001654653560754, 0.00234297413228047, -0.0017905675551938133, 0.0009004283894378257, -0.0014546009001648427, -0.0016533601946017071, 0.0006823091492787883, -0.000198743361084147, -0.0017915326592316916, 0.0006506443113634921, 0.0006794909328729978, 0.000748097928438864, -0.0008641712484434577, 1.8932026610112386e-05, -0.00037019956150617097, 0.00014708671088703757, 0.0007854973227750679], [-0.06438847006939648, 0.030910075076107837, -0.011195856480077575, 0.0052946884379460124, -0.007512483134382115, -0.00017725007991866012, -4.99730008281952e-05, 0.0008454637518378435, -0.004875827652231466, -0.0018894947719340454, 0.0027167959155743253, 0.0020991201188444303, -0.004709993156111906, -0.0024754447614588376, 0.0011071669756085795, 0.0002354705526727555, 0.001712635336166793, -0.0019844448301766095, -0.0009867775329617616, -0.00015445971931183684, -0.001978989056582851, 0.0004888257147824279, 0.000167245236354195, -0.00262263094259137, -0.0003853724519712224, -0.0008753006065131782, 0.0009410318146311521, 5.156721146717403e-05, 0.000207187046349506, -0.0010935863242053686], [-0.08485811626060384, -0.026275440127527184, -0.015162235940034996, -0.00900018684936509, 0.011057443772856687, 0.0033044384894195993, 0.00015036228310766168, -0.005186859639986384, 0.00204360265308829, -0.0029550617608669737, -0.002112585797509527, 0.0029563318590426985, -0.0016008692745372061, -0.0010942252477668718, -0.0004652170447556318, -0.0021331493177485163, -0.0020466739409028822, 0.001577809879587378, -0.0008689894164943295, -0.0019278370752185848, 0.0005294816326459799, 0.0011307698727606437, 0.0020354278953533594, -0.0007904762310299904, 0.0003966401477229561, -0.0007347716586056045, 0.0005220127174897644, 0.0004173389384498657, -2.7445771045238093e-05, 0.0005398337969996317], [1.0809488770746588e-07, 1.0346187906407045e-07, -1.1378173070397654e-07, 2.1446961984139485e-09, 4.477438153571701e-08, -1.6563778615363807e-07, 1.3855455449629485e-07, -1.3449759705963486e-07, 1.374476088500384e-08, -1.2955162498329258e-09, 3.02642106930761e-08, 1.3726767633670502e-07, -1.1764466734120989e-08, 1.0498087732457838e-07, 7.633433796172522e-08, -3.746462340359349e-08, -1.2232941060119602e-07, 1.8015704483786936e-07, -1.7931711226992735e-07, 2.0263276212517622e-07, 8.623872105317768e-08, -8.839577247954347e-08, -1.2762285450662574e-07, 2.5617060472882202e-08, 1.035355410294867e-07, 2.6750385018203757e-07, 1.9715994170610386e-08, 7.18357640039356e-08, -3.020808847509209e-08, 7.346558561494005e-08], [1.0809488770746588e-07, 1.0346187906407045e-07, -1.1378173070397654e-07, 2.1446961984139485e-09, 4.477438153571701e-08, -1.6563778615363807e-07, 1.3855455449629485e-07, -1.3449759705963486e-07, 1.374476088500384e-08, -1.2955162498329258e-09, 3.02642106930761e-08, 1.3726767633670502e-07, -1.1764466734120989e-08, 1.0498087732457838e-07, 7.633433796172522e-08, -3.746462340359349e-08, -1.2232941060119602e-07, 1.8015704483786936e-07, -1.7931711226992735e-07, 2.0263276212517622e-07, 8.623872105317768e-08, -8.839577247954347e-08, -1.2762285450662574e-07, 2.5617060472882202e-08, 1.035355410294867e-07, 2.6750385018203757e-07, 1.9715994170610386e-08, 7.18357640039356e-08, -3.020808847509209e-08, 7.346558561494005e-08], [0.06192440343700033, -0.004324352125210655, -0.016336290341034634, -0.0017009146972242401, -1.8854580030989083e-05, 0.008308344733425017, -0.002959883708055241, 0.0036897255359728963, 0.003851345474628216, 0.0036601221859069353, 0.0005121997446094959, 0.0024994557030433903, -0.0012193525626324603, -0.002973920812467664, -0.0020540125837979865, 0.0013533126237831373, -0.0005597696679401008, 0.0004457269981495027, -5.298426264607562e-05, 0.0014735317310342554, 0.000700096428373772, 0.0011476630860224532, -7.922991658140006e-05, -0.0009168199709662854, 0.0001840179192410065, -0.0007232099681602015, -6.083338360389383e-05, -0.0007319447103614324, -0.0005952963502578533, -0.00024965336287684036], [1.0809488770746588e-07, 1.0346187906407045e-07, -1.1378173070397654e-07, 2.1446961984139485e-09, 4.477438153571701e-08, -1.6563778615363807e-07, 1.3855455449629485e-07, -1.3449759705963486e-07, 1.374476088500384e-08, -1.2955162498329258e-09, 3.02642106930761e-08, 1.3726767633670502e-07, -1.1764466734120989e-08, 1.0498087732457838e-07, 7.633433796172522e-08, -3.746462340359349e-08, -1.2232941060119602e-07, 1.8015704483786936e-07, -1.7931711226992735e-07, 2.0263276212517622e-07, 8.623872105317768e-08, -8.839577247954347e-08, -1.2762285450662574e-07, 2.5617060472882202e-08, 1.035355410294867e-07, 2.6750385018203757e-07, 1.9715994170610386e-08, 7.18357640039356e-08, -3.020808847509209e-08, 7.346558561494005e-08], [0.024570918918044905, -0.017325044030215658, 0.02706497316505548, 0.0021106684079854566, 0.005461932117353776, -0.005676220586797501, 0.004199363425599882, 0.0035576833533532406, -0.0007461664218184894, -0.0003685234055635437, 0.0032505835729020804, -0.00014477769172416014, -0.0009550115741555817, -0.001206058062118499, -0.0006813175073781479, -0.0003530083562360907, -0.0006739658696379177, -0.0014001631044548593, -0.0005985356775356184, 0.0016524570724866846, 0.0004718880286121919, 0.0020048296882403485, 0.0011457404765608326, 0.00022847410855493777, -0.0015988024967590454, -0.00030126711330729733, 0.0012795278393700987, 0.0004994198917429902, 0.00039107572432590053, 0.0001654970964721439], [-0.08080654679590218, 0.005803502382521185, -0.02220710571437484, -0.0013286880798140674, 0.00032644397940261174, -0.006286915499854919, -0.0034022785986077327, 0.003720740008156465, -0.005843809892303089, 0.00019998695048909366, -0.0021927930951162852, 0.0041971835799833376, -0.0006196274438684759, -0.001231842276429252, 0.001071774057030156, 0.0008467353074838307, -0.0007510984022045595, -0.0011619401583638123, 0.0013844098924105238, 0.0022270925406143193, 0.0008767525798569, -0.0010058380529749883, 0.0002448667945364898, 0.0007062425826772256, -0.0005941715686994257, -0.000690241804013404, -7.708780266748465e-05, -0.00016211978041900905, -0.00034043955173881083, 0.0012838767768943759], [1.0809488770746588e-07, 1.0346187906407045e-07, -1.1378173070397654e-07, 2.1446961984139485e-09, 4.477438153571701e-08, -1.6563778615363807e-07, 1.3855455449629485e-07, -1.3449759705963486e-07, 1.374476088500384e-08, -1.2955162498329258e-09, 3.02642106930761e-08, 1.3726767633670502e-07, -1.1764466734120989e-08, 1.0498087732457838e-07, 7.633433796172522e-08, -3.746462340359349e-08, -1.2232941060119602e-07, 1.8015704483786936e-07, -1.7931711226992735e-07, 2.0263276212517622e-07, 8.623872105317768e-08, -8.839577247954347e-08, -1.2762285450662574e-07, 2.5617060472882202e-08, 1.035355410294867e-07, 2.6750385018203757e-07, 1.9715994170610386e-08, 7.18357640039356e-08, -3.020808847509209e-08, 7.346558561494005e-08], [0.016864956835262013, 0.035733903202420134, 0.0105173804359552, -0.004927153892746, 0.005676938443846036, 8.234778096942977e-05, 0.004418438918291237, -0.002194388488133072, 0.0005137915862933851, 0.0014916122270008164, -0.0012439583044425414, 0.00022930911921973106, -7.680260654221335e-05, -0.0009830648747894378, 0.00016180261318828295, 0.0023413753868840766, 0.0010345044195073526, 4.4638588381686636e-05, 0.00033225669221366205, 0.00014954473348704694, 0.0005862660026981043, -0.0016419899635179958, 0.0008175536948898822, -6.256709344937203e-05, 0.001605447398332644, 0.0006258662352620634, 0.00039904163366775796, -0.00036739008833982297, -0.0013669605231728752, 0.0006173305229850685], [-0.06514460919940906, -0.011893510059193913, -0.007023560199733262, -0.006323644840629822, 0.004104097439402679, -6.856925760882102e-06, -0.003790245267825253, -0.00046504369910771974, -0.0032554042298603746, -0.0010757189524840392, -0.0022187851658698955, 0.0023170813783761914, -0.0004529671369378383, 0.001657985438190746, -0.002071852498604399, 0.0007722103828703244, -4.965171539758838e-05, 0.001541843494325774, -0.0015711388039613332, 0.0014066627448840645, 0.000995414252497021, -0.0014459217198583942, 0.0006094698510918108, 0.0014295548115711772, 7.067564116071154e-05, -0.00014539892564233763, -0.00030558131568736224, 0.00015044006090690832, 0.0013904836668209796, 0.00044797804578476956], [-0.04691573356066383, 0.005964254325981508, 0.006927878363573147, -0.005660938610580582, -0.01102861903249967, 0.0012697819950077648, -0.0070812736513721775, -0.003476965611414028, 0.0012393156607879534, 0.0005080177013745053, 0.0015874565190459563, 0.0023607527776201413, 0.0036049706149195873, 0.0005056905683123102, 0.0017651451434691659, -0.0018258425368834058, 0.003817222565696277, -0.00075897253861173, -6.746891907545073e-05, 0.0013112269933712505, -2.4001093673445733e-06, 0.0014436125347277702, 0.0010659444014452064, -0.0005162608497781081, 0.0009498533859609921, -0.0008688012578703545, 0.0005592941354924052, 0.0003172562299726175, 5.5969884338684596e-05, 2.5732330428619223e-05], [1.0809488770746588e-07, 1.0346187906407045e-07, -1.1378173070397654e-07, 2.1446961984139485e-09, 4.477438153571701e-08, -1.6563778615363807e-07, 1.3855455449629485e-07, -1.3449759705963486e-07, 1.374476088500384e-08, -1.2955162498329258e-09, 3.02642106930761e-08, 1.3726767633670502e-07, -1.1764466734120989e-08, 1.0498087732457838e-07, 7.633433796172522e-08, -3.746462340359349e-08, -1.2232941060119602e-07, 1.8015704483786936e-07, -1.7931711226992735e-07, 2.0263276212517622e-07, 8.623872105317768e-08, -8.839577247954347e-08, -1.2762285450662574e-07, 2.5617060472882202e-08, 1.035355410294867e-07, 2.6750385018203757e-07, 1.9715994170610386e-08, 7.18357640039356e-08, -3.020808847509209e-08, 7.346558561494005e-08], [-0.03146234198675338, 0.01119699245171689, 0.0005712021227324002, 0.006940549081480407, -0.012910530902034064, -0.001356663436307147, -0.0067820095936759394, 0.00018307901508680697, 0.0031247784603813476, 0.0015119782871797225, 0.0001732911936716368, -0.0010120097946283468, -0.0048312920243043156, 0.0004772133116895879, 0.0003550220692616283, -0.002863950179361684, 0.002434103165024516, -0.002316922966596753, -0.001359844302725926, -0.0018074156633782164, 0.0003188847054368392, 0.0006137762995371564, 0.00043763739855491693, 0.00018514886778922454, -0.0006413350902824585, 0.0010394165845088812, 0.0010609717465937172, 6.912816388851648e-05, 0.0002447667145460692, -0.0012879390753551202], [0.07168439820853693, -0.03418514256335999, -0.007097525151518848, 0.0033986166229871225, -0.00017240827246003254, -0.003441274276305419, 0.005390977632511051, 0.00396780923249406, -0.002407827225097213, 5.476679159178156e-05, 0.006411061071503412, 0.0029445088288323723, -0.0021743736331782636, -0.0021623148127512073, 0.0005003921767515035, -0.002432318942928161, 0.002231814524380997, -0.00017707924359582365, -6.085689609443777e-05, 0.00041262584699503917, 0.001640577100258555, 0.0004621429616924015, 0.00033978458836287647, 0.0004037763627355308, 0.000341992281638371, 0.0004722323839425648, 0.00038996128887669137, 0.0010171175504906723, -0.0002009329388667057, 0.0015316783992415498], [1.0809488770746588e-07, 1.0346187906407045e-07, -1.1378173070397654e-07, 2.1446961984139485e-09, 4.477438153571701e-08, -1.6563778615363807e-07, 1.3855455449629485e-07, -1.3449759705963486e-07, 1.374476088500384e-08, -1.2955162498329258e-09, 3.02642106930761e-08, 1.3726767633670502e-07, -1.1764466734120989e-08, 1.0498087732457838e-07, 7.633433796172522e-08, -3.746462340359349e-08, -1.2232941060119602e-07, 1.8015704483786936e-07, -1.7931711226992735e-07, 2.0263276212517622e-07, 8.623872105317768e-08, -8.839577247954347e-08, -1.2762285450662574e-07, 2.5617060472882202e-08, 1.035355410294867e-07, 2.6750385018203757e-07, 1.9715994170610386e-08, 7.18357640039356e-08, -3.020808847509209e-08, 7.346558561494005e-08], [1.0809488770746588e-07, 1.0346187906407045e-07, -1.1378173070397654e-07, 2.1446961984139485e-09, 4.477438153571701e-08, -1.6563778615363807e-07, 1.3855455449629485e-07, -1.3449759705963486e-07, 1.374476088500384e-08, -1.2955162498329258e-09, 3.02642106930761e-08, 1.3726767633670502e-07, -1.1764466734120989e-08, 1.0498087732457838e-07, 7.633433796172522e-08, -3.746462340359349e-08, -1.2232941060119602e-07, 1.8015704483786936e-07, -1.7931711226992735e-07, 2.0263276212517622e-07, 8.623872105317768e-08, -8.839577247954347e-08, -1.2762285450662574e-07, 2.5617060472882202e-08, 1.035355410294867e-07, 2.6750385018203757e-07, 1.9715994170610386e-08, 7.18357640039356e-08, -3.020808847509209e-08, 7.346558561494005e-08], [1.0809488770746588e-07, 1.0346187906407045e-07, -1.1378173070397654e-07, 2.1446961984139485e-09, 4.477438153571701e-08, -1.6563778615363807e-07, 1.3855455449629485e-07, -1.3449759705963486e-07, 1.374476088500384e-08, -1.2955162498329258e-09, 3.02642106930761e-08, 1.3726767633670502e-07, -1.1764466734120989e-08, 1.0498087732457838e-07, 7.633433796172522e-08, -3.746462340359349e-08, -1.2232941060119602e-07, 1.8015704483786936e-07, -1.7931711226992735e-07, 2.0263276212517622e-07, 8.623872105317768e-08, -8.839577247954347e-08, -1.2762285450662574e-07, 2.5617060472882202e-08, 1.035355410294867e-07, 2.6750385018203757e-07, 1.9715994170610386e-08, 7.18357640039356e-08, -3.020808847509209e-08, 7.346558561494005e-08], [-0.0687487566285869, -0.01505721962080652, -0.018144258113481398, -0.0030798292999409094, 0.008487493200940378, -0.004235745595303987, -0.001392272989004991, 0.003635934820542671, -0.0001324992721138735, 0.0022573976447106646, -0.002501130771710496, 0.0011833988546863998, 0.0014568539981404671, 0.0013169097051950237, -0.0003625415113065066, -0.001218704252997244, -0.0013606823375567766, -0.00010546547715718888, 0.0005571415764128094, 0.0008878562512064594, 0.0006811397469336447, -0.0010815047181674132, -0.0004007435677293337, 0.0014153861817008764, -0.0003821143367887384, 0.0013567904285930682, -0.0005693923208150505, 4.934938119979861e-06, 0.0007477173571794835, 6.743624799564684e-05], [1.0809488770746588e-07, 1.0346187906407045e-07, -1.1378173070397654e-07, 2.1446961984139485e-09, 4.477438153571701e-08, -1.6563778615363807e-07, 1.3855455449629485e-07, -1.3449759705963486e-07, 1.374476088500384e-08, -1.2955162498329258e-09, 3.02642106930761e-08, 1.3726767633670502e-07, -1.1764466734120989e-08, 1.0498087732457838e-07, 7.633433796172522e-08, -3.746462340359349e-08, -1.2232941060119602e-07, 1.8015704483786936e-07, -1.7931711226992735e-07, 2.0263276212517622e-07, 8.623872105317768e-08, -8.839577247954347e-08, -1.2762285450662574e-07, 2.5617060472882202e-08, 1.035355410294867e-07, 2.6750385018203757e-07, 1.9715994170610386e-08, 7.18357640039356e-08, -3.020808847509209e-08, 7.346558561494005e-08], [0.026194152151514504, -0.05038917537757347, 0.023453123369928768, 0.0037132202170679827, 0.005326855352216837, -0.0009367045530260118, 0.0026730280080782508, 0.002745919046633681, 0.0013467552938007212, -0.002262535268484549, 0.005971496708959228, -0.0006910833343141087, -0.006205913802518968, -0.004021510530174562, 0.006554998641392112, 0.0032301533652302756, 0.000644818178634287, -0.002486484404704512, 0.00032404272995761245, -2.636496070605288e-05, -0.002333272849755513, -0.00017252566349561685, -0.000356089509464714, 0.0010519908279313895, 1.2888341232007666e-05, -6.003211941797425e-05, 0.0011646809099393695, 0.0015471413250539162, 0.0011066198165791087, 0.0010472616296663922], [-0.005850857417230519, 0.02408524288741715, 0.012375117103566296, -0.012083430339324195, -0.007872975578688803, -9.422433892382859e-05, 0.0030534357671394966, 0.0018821215286194863, 0.0007144947534389992, 0.004292527502106917, -0.001071561162283249, 0.0003312764972481664, -0.001620970614277295, -0.0005963247030193891, 0.0021839435804231083, -8.525108434120572e-05, 0.0013572983441138139, 0.0017247439642522422, 0.0009972864612343175, -0.0017508454454602772, 0.00040898278579526394, 0.0011520857384069837, -0.0002204896929463309, 0.0005741147226055835, 0.0001411376045585787, 0.001120855186869306, -0.0009003486746031901, 0.0010663061941093071, 6.48577398806441e-05, 3.970230687718222e-05], [-0.05153366013367951, 0.001849763862385863, 0.003600248199097462, -0.002326271956581861, 0.004678885098113863, 0.000785847632122416, 0.004836237721415781, 0.0025603800845893695, -0.0030016838021252427, -0.00025890949453895453, 0.004560816417551235, -0.0006105223647593684, 0.0013500601198302743, 0.0027985141526485516, -0.001427216874042398, -4.850795804806749e-05, 0.0016528109778323897, 0.0014786068779188961, -0.00210122963438053, -0.000925458971283555, 0.0013275326969271275, 0.0008596929895544217, -0.0013960160714440938, -0.0006893921035536589, -0.000747898022091359, -0.0004046143542112544, -0.0003781063841091232, -0.0005486429462596579, -0.0007012770078885744, -0.00040804791379142445], [1.0809488770746588e-07, 1.0346187906407045e-07, -1.1378173070397654e-07, 2.1446961984139485e-09, 4.477438153571701e-08, -1.6563778615363807e-07, 1.3855455449629485e-07, -1.3449759705963486e-07, 1.374476088500384e-08, -1.2955162498329258e-09, 3.02642106930761e-08, 1.3726767633670502e-07, -1.1764466734120989e-08, 1.0498087732457838e-07, 7.633433796172522e-08, -3.746462340359349e-08, -1.2232941060119602e-07, 1.8015704483786936e-07, -1.7931711226992735e-07, 2.0263276212517622e-07, 8.623872105317768e-08, -8.839577247954347e-08, -1.2762285450662574e-07, 2.5617060472882202e-08, 1.035355410294867e-07, 2.6750385018203757e-07, 1.9715994170610386e-08, 7.18357640039356e-08, -3.020808847509209e-08, 7.346558561494005e-08]], "bgmm_covariances": [[0.0001258973995142421, 3.584658567729271e-05, 4.356963557279221e-05, 4.587520864839332e-06, 8.119569970429013e-06, 5.077947137800343e-06, 6.193787037854951e-06, 1.3872314889019731e-05, 6.949638575145546e-06, 5.266041987094643e-06, 4.407131960606974e-06, 6.27863608934989e-06, 2.4305060907212025e-06, 3.6900913046538305e-06, 2.8042630781327335e-06, 2.5580200597577497e-06, 2.55080682251169e-06, 1.8775410935018117e-06, 1.8222775512700577e-06, 2.6934420409694215e-06, 1.8487043487393982e-06, 1.7870364377724137e-06, 1.2391034083767825e-06, 1.6971311729649393e-06, 1.266866100449423e-06, 1.5197947382966587e-06, 1.7287216925060077e-06, 1.551903339104309e-06, 1.4556962970817238e-06, 1.6543688002696657e-06], [0.0001793590106700861, 4.316226664035236e-05, 5.0224689569761933e-05, 3.523016856950234e-05, 5.894569866402802e-06, 1.9289045911267394e-05, 4.786342855701474e-06, 9.163785671876569e-06, 8.065911627772889e-06, 7.993480147064377e-06, 4.374608999474608e-06, 1.3713797188207522e-05, 4.752299523675024e-06, 6.865428822004257e-06, 6.204830738648854e-06, 5.37285124770341e-06, 5.741603093665196e-06, 3.1813008362736327e-06, 3.245300747133258e-06, 2.1152542049497054e-06, 2.4826460903249577e-06, 4.173642751387642e-06, 2.6705378170741492e-06, 1.7853892754258401e-06, 2.1682532518522418e-06, 2.6676638165587194e-06, 1.6847916851713323e-06, 2.334228473751304e-06, 1.6624663725338634e-06, 1.3856185232293059e-06], [0.0001349192327199368, 0.00013807246678312923, 2.8089661361686707e-05, 1.3989502065598866e-05, 1.2098652630272539e-05, 1.3658952898725916e-05, 6.385231388344215e-06, 1.7402593629710852e-05, 5.33149450235292e-06, 7.081374206325301e-06, 6.463488473508244e-06, 3.9761232205252755e-06, 8.04042919782181e-06, 4.501661185052453e-06, 5.308121509849026e-06, 3.7853964747094565e-06, 4.952137661367949e-06, 4.631214953811596e-06, 4.247211904304062e-06, 2.693713127098621e-06, 3.2859630298193905e-06, 2.6702638578385352e-06, 2.2298243281459408e-06, 2.2596280479048575e-06, 1.6487037393706912e-06, 2.1707099677814854e-06, 2.1972536450055383e-06, 1.7402168904863696e-06, 2.3107902617985226e-06, 2.0447251154504685e-06], [8.986557368189095e-05, 2.3630465148016806e-05, 9.66208269043515e-06, 2.9253312580597894e-06, 2.186103908267493e-06, 1.3685961069616799e-06, 1.1034930745760599e-06, 8.742787637553798e-07, 7.975324479048141e-07, 7.071880948691008e-07, 5.804697138955817e-07, 5.062074402909881e-07, 4.05624905397417e-07, 3.663010829768609e-07, 3.128419848508202e-07, 2.685592032018273e-07, 2.4906107682909355e-07, 2.181644655744701e-07, 1.8052034344388333e-07, 1.533444598559679e-07, 1.4509346328850376e-07, 1.282650373468642e-07, 1.2170755780971382e-07, 1.1134839041915262e-07, 9.753195323961948e-08, 9.089938733571525e-08, 8.723917138316519e-08, 8.67100273656737e-08, 7.659765894156111e-08, 6.903546818648472e-08], [9.726786264634115e-05, 1.672441936480494e-05, 2.3629083530304286e-05, 6.354327490132765e-06, 3.4620027095833254e-06, 1.2117440148264421e-05, 2.3676681601444525e-06, 5.509896696694019e-06, 4.809849928815776e-06, 6.530137009966979e-06, 5.136641008617019e-06, 4.223898429107878e-06, 2.7287153401509705e-06, 3.24398117472437e-06, 4.589279175284763e-06, 2.4288245709543778e-06, 4.012777646334966e-06, 1.975020611845482e-06, 2.224618511721182e-06, 1.6660602794846755e-06, 1.889151820247571e-06, 1.2812192710780255e-06, 1.2102446395846026e-06, 1.4025612302113566e-06, 1.7614309066393806e-06, 1.3317156414865412e-06, 1.2358949546464236e-06, 1.3314353340810351e-06, 1.2428176921549662e-06, 1.0430714205298012e-06], [0.00012296933134007182, 5.559256576644406e-05, 4.2918301942135416e-05, 1.543609181870424e-05, 9.19852552573509e-06, 7.1089106746741825e-06, 6.778608593985305e-06, 1.5998752404438353e-05, 6.743208093272485e-06, 7.071047842422839e-06, 5.138594789433874e-06, 4.952907461930159e-06, 7.42719390283229e-06, 5.045793444311113e-06, 4.451254542838506e-06, 2.9815409831750536e-06, 3.3216827646271466e-06, 3.1893173153411856e-06, 2.9511870953100675e-06, 3.433871446852032e-06, 2.429330446537151e-06, 2.0073893708756604e-06, 1.9841109948146683e-06, 2.6410781144407752e-06, 1.8603706750049914e-06, 2.0556908654681126e-06, 2.9460924472310844e-06, 1.5988819087829277e-06, 1.8272340938300073e-06, 1.922894914464476e-06], [0.00010350293710138565, 4.0075531819933955e-05, 3.926587150305828e-05, 1.197270013789529e-05, 6.30237420200348e-06, 1.095680901503012e-05, 2.7478222279928565e-06, 7.3701597057524295e-06, 3.914029305241145e-06, 4.758145487098728e-06, 3.7339461106283033e-06, 5.442379733825821e-06, 2.893934012510313e-06, 3.2881114089612903e-06, 3.3841114452674543e-06, 3.6737577151866923e-06, 2.4940984499479643e-06, 2.993017099788188e-06, 2.3717846122788466e-06, 2.150576002001166e-06, 1.9512873344285325e-06, 2.1812697161812536e-06, 1.6898662159176516e-06, 1.8117229705726337e-06, 1.7968125743939031e-06, 2.1662774320320956e-06, 1.4586601266032769e-06, 2.1749927151658112e-06, 1.7042255962784818e-06, 2.095570376782341e-06], [0.00023480419025515112, 8.828972750658836e-05, 6.840941211399846e-05, 1.5632634357648267e-05, 7.155537287002321e-06, 5.260532700221605e-06, 5.2605270733930785e-06, 1.0366423081824415e-05, 3.873495738970249e-06, 1.0151198534789039e-05, 9.370053830689707e-06, 3.713633678018026e-06, 5.252988419298334e-06, 4.434693450428683e-06, 3.668936805532221e-06, 6.636369620195686e-06, 3.0808635465307696e-06, 3.1678059617237574e-06, 4.000172421118321e-06, 1.7863597550824783e-06, 1.7982371733197004e-06, 2.1343654695446886e-06, 2.395834427319286e-06, 2.188237121529389e-06, 1.2675238558695627e-06, 1.7273416624396227e-06, 1.7609999545762073e-06, 1.3067320046825239e-06, 1.818045400139431e-06, 2.034514524074495e-06], [0.00013872258485585112, 4.998722511171278e-05, 7.327090411063767e-05, 9.693401252261642e-06, 9.354273707679223e-06, 7.856498769960753e-06, 5.218739628963351e-06, 1.1920996168382292e-05, 4.286592264949296e-06, 1.030099145592207e-05, 7.364342188472604e-06, 3.992203937905874e-06, 4.223286283607904e-06, 4.141162768422208e-06, 3.044377080899976e-06, 3.743296092244428e-06, 2.7060155848352878e-06, 1.912028329484648e-06, 2.021114419497885e-06, 2.1884175864919908e-06, 1.8903496136764668e-06, 2.4875833397583557e-06, 2.253906913935196e-06, 2.1211147348714455e-06, 1.7425500373898314e-06, 1.867666447850009e-06, 2.74118421412801e-06, 1.6139166053696023e-06, 2.4171878647753307e-06, 1.4644540441719029e-06], [0.0003272455361854126, 0.0001514114711939209, 0.00018929115179273112, 2.5488077903253866e-05, 2.0554096285612946e-05, 1.793119245661881e-05, 2.375283844782153e-05, 1.677575625702438e-05, 1.1038060191310449e-05, 1.149408911671748e-05, 1.773714530676112e-05, 8.376917157596076e-06, 5.655618149029903e-06, 1.8235380099971945e-05, 1.5957280214899105e-05, 3.929003986556644e-06, 1.0644538271397263e-05, 4.992647359759397e-06, 6.493663670308282e-06, 6.3848807907626655e-06, 3.053405374577589e-06, 3.0649297936738647e-06, 2.9651422415329273e-06, 2.608932780145098e-06, 3.004657972411669e-06, 2.306714844740269e-06, 2.5740443306447957e-06, 2.1379496125105646e-06, 1.8267102760877291e-06, 4.052886650536696e-06], [8.283260120719817e-05, 3.522558666429954e-05, 4.7665268063434336e-05, 1.222527085165217e-05, 5.438921999050792e-06, 1.668866707594067e-05, 3.3316391589577935e-06, 3.1710144461467886e-06, 5.340155581532538e-06, 7.434365224927981e-06, 3.879399480477758e-06, 1.0708516595998236e-05, 3.6053585832172555e-06, 3.2741381667644035e-06, 2.8281663710506165e-06, 3.947417305001948e-06, 3.5492729693230323e-06, 3.92623533811486e-06, 2.981549449898263e-06, 2.228508414126182e-06, 3.4865710613488736e-06, 2.207216232833499e-06, 2.429882848905359e-06, 2.0079575289251694e-06, 2.141288864583644e-06, 2.491303697361028e-06, 1.7382048379700255e-06, 1.7139760805775042e-06, 1.692142960020407e-06, 1.275333284430919e-06], [8.462887892496631e-05, 2.39233631110286e-05, 1.4860909909609661e-05, 2.9558123274828135e-06, 6.506504677718151e-06, 1.8445048718398502e-06, 1.7014548742267608e-06, 8.850777699630358e-07, 1.0969832216914765e-06, 1.5881309915601926e-06, 8.202185455528768e-07, 6.295287408471932e-07, 5.468029254586766e-07, 7.22720830511558e-07, 5.938119722218975e-07, 3.1663441481608233e-07, 7.769087748924775e-07, 3.72747316604138e-07, 2.71590329929408e-07, 2.4001186804350863e-07, 3.7860729188589947e-07, 1.9772673624343836e-07, 3.1224240391509996e-07, 2.5380367649438386e-07, 2.0248309294052497e-07, 1.8331740147812352e-07, 2.2849341629729004e-07, 3.866497211419398e-07, 1.3893308878387626e-07, 1.9717971055829938e-07], [8.986557368189095e-05, 2.3630465148016806e-05, 9.66208269043515e-06, 2.9253312580597894e-06, 2.186103908267493e-06, 1.3685961069616799e-06, 1.1034930745760599e-06, 8.742787637553798e-07, 7.975324479048141e-07, 7.071880948691008e-07, 5.804697138955817e-07, 5.062074402909881e-07, 4.05624905397417e-07, 3.663010829768609e-07, 3.128419848508202e-07, 2.685592032018273e-07, 2.4906107682909355e-07, 2.181644655744701e-07, 1.8052034344388333e-07, 1.533444598559679e-07, 1.4509346328850376e-07, 1.282650373468642e-07, 1.2170755780971382e-07, 1.1134839041915262e-07, 9.753195323961948e-08, 9.089938733571525e-08, 8.723917138316519e-08, 8.67100273656737e-08, 7.659765894156111e-08, 6.903546818648472e-08], [0.000248080258248524, 7.598452308673049e-05, 8.479473782951263e-05, 2.7430287032779804e-05, 1.7473835666048157e-05, 1.6809284704749584e-05, 5.692542250152544e-06, 1.3351045448427475e-05, 1.598327938521157e-05, 1.0844568084975833e-05, 4.6260919918854365e-06, 1.1356563338645462e-05, 3.724959009771843e-06, 5.140320496107838e-06, 5.84820429018506e-06, 3.4926203807280185e-06, 3.3236718501591175e-06, 3.35534445483344e-06, 3.38877737605978e-06, 3.392212482899342e-06, 3.3858580645867177e-06, 3.3878361801003314e-06, 2.608295598943837e-06, 2.3203656250122036e-06, 1.9915201227449153e-06, 2.1074551803666918e-06, 2.3113253419527623e-06, 2.4398517654065275e-06, 1.7899658394241713e-06, 2.8887341071048526e-06], [0.0014176174000395103, 0.0007125809692898332, 0.00033444557775705325, 0.0001337691559018159, 7.270391252576761e-05, 8.114923920403205e-05, 3.674011800088074e-05, 4.428286754868807e-05, 2.8155237557766434e-05, 3.4123623182725474e-05, 3.143322413981087e-05, 1.9663319440089592e-05, 1.853847847636564e-05, 2.1249434428326333e-05, 2.090920357686936e-05, 1.4554877450723889e-05, 1.1268897537934989e-05, 1.1859753050535232e-05, 1.0072823122024867e-05, 9.025569998015861e-06, 8.958513539418917e-06, 8.911606875751693e-06, 7.002575550093546e-06, 6.809109748422127e-06, 5.565325417848383e-06, 6.027262765439757e-06, 5.27226782790791e-06, 6.586526085139578e-06, 5.146397510632169e-06, 4.295406788592898e-06], [8.986557368189095e-05, 2.3630465148016806e-05, 9.66208269043515e-06, 2.9253312580597894e-06, 2.186103908267493e-06, 1.3685961069616799e-06, 1.1034930745760599e-06, 8.742787637553798e-07, 7.975324479048141e-07, 7.071880948691008e-07, 5.804697138955817e-07, 5.062074402909881e-07, 4.05624905397417e-07, 3.663010829768609e-07, 3.128419848508202e-07, 2.685592032018273e-07, 2.4906107682909355e-07, 2.181644655744701e-07, 1.8052034344388333e-07, 1.533444598559679e-07, 1.4509346328850376e-07, 1.282650373468642e-07, 1.2170755780971382e-07, 1.1134839041915262e-07, 9.753195323961948e-08, 9.089938733571525e-08, 8.723917138316519e-08, 8.67100273656737e-08, 7.659765894156111e-08, 6.903546818648472e-08], [9.02936627873752e-05, 1.907430462443593e-05, 4.975117388937622e-05, 8.100229593108062e-06, 2.667836700483457e-06, 1.4698089791835716e-05, 1.9921919421177176e-06, 5.3508647008772815e-06, 4.823474462867287e-06, 2.4013778182451447e-06, 5.207791786157657e-06, 2.5480327904150785e-06, 2.0131132932115305e-06, 3.976681941385716e-06, 6.095482337589765e-06, 1.638132320667587e-06, 5.240274422611575e-06, 2.522502086882029e-06, 3.5769764490633977e-06, 1.8569023316584636e-06, 1.4441593894799111e-06, 1.3542838168264406e-06, 1.2850657001120441e-06, 1.141579117104443e-06, 1.5992298061143797e-06, 1.4045607605072184e-06, 1.5236088709458702e-06, 1.2756635647846857e-06, 1.1715064708490841e-06, 1.016735232696311e-06], [8.32687386291705e-05, 5.204170715182963e-05, 3.249622696785159e-05, 1.306498404858065e-05, 1.132208079032916e-05, 7.615274887504148e-06, 9.13844092466316e-06, 5.724821945484449e-06, 9.665604834658266e-06, 1.0031822793572017e-05, 3.4206023240322278e-06, 2.8706158686934786e-06, 3.6973536889520296e-06, 2.3945150866686012e-06, 3.395692810432577e-06, 3.7668236041940626e-06, 3.332619040237366e-06, 4.765369992425853e-06, 1.8221162747002314e-06, 2.673488675511256e-06, 1.849503234999227e-06, 1.7806460037187437e-06, 1.3443670576797897e-06, 2.7427216128284254e-06, 1.7281416939376536e-06, 1.5976628013404662e-06, 2.1802777663118103e-06, 2.397669179479539e-06, 1.8276124031775814e-06, 1.8364167702339295e-06], [0.00010571002348059035, 6.833075862369924e-05, 1.0920958656170874e-05, 3.2238484501142158e-06, 3.686132937379319e-06, 1.6834691349426339e-06, 2.355936035242967e-06, 1.8513773689879572e-06, 1.634823706268695e-06, 2.353350195695898e-06, 9.380948017454825e-07, 6.989925738917012e-07, 9.643966459690716e-07, 5.619665547856189e-07, 7.393257261099075e-07, 6.863225649403361e-07, 6.355082253214066e-07, 1.1885190882263544e-06, 3.5809740524587166e-07, 5.289792019077558e-07, 5.505569141199146e-07, 2.82677141933205e-07, 3.4958246400413434e-07, 3.615508658664101e-07, 3.4473099024027644e-07, 2.9260762674807715e-07, 3.2057684469568824e-07, 4.6903696271824335e-07, 3.597110212237411e-07, 2.6933358939728904e-07], [0.00012495994059168408, 6.634900977170926e-05, 4.194248141711208e-05, 8.811708146982411e-06, 9.57530243223979e-06, 6.839331629672651e-06, 8.404704334863793e-06, 1.1992466454609741e-05, 6.593093545671195e-06, 6.104618816091516e-06, 8.399428470226867e-06, 6.837122167637779e-06, 4.5731361326805195e-06, 4.336060329096033e-06, 2.5599436154465195e-06, 2.266338235586465e-06, 3.0119550810323255e-06, 2.4196728934721672e-06, 2.692688660410979e-06, 2.462726380479447e-06, 2.263139169932101e-06, 1.7816031420352622e-06, 1.5375117142759894e-06, 3.1437271197055677e-06, 1.4028212227159504e-06, 1.6706305109553315e-06, 1.936675189586647e-06, 1.6531128243036893e-06, 1.6219361425198012e-06, 1.4464827066107427e-06], [8.986557368189095e-05, 2.3630465148016806e-05, 9.66208269043515e-06, 2.9253312580597894e-06, 2.186103908267493e-06, 1.3685961069616799e-06, 1.1034930745760599e-06, 8.742787637553798e-07, 7.975324479048141e-07, 7.071880948691008e-07, 5.804697138955817e-07, 5.062074402909881e-07, 4.05624905397417e-07, 3.663010829768609e-07, 3.128419848508202e-07, 2.685592032018273e-07, 2.4906107682909355e-07, 2.181644655744701e-07, 1.8052034344388333e-07, 1.533444598559679e-07, 1.4509346328850376e-07, 1.282650373468642e-07, 1.2170755780971382e-07, 1.1134839041915262e-07, 9.753195323961948e-08, 9.089938733571525e-08, 8.723917138316519e-08, 8.67100273656737e-08, 7.659765894156111e-08, 6.903546818648472e-08], [0.00011993338583352594, 6.416481140936604e-05, 5.661177688434919e-05, 7.54526595490106e-06, 1.1672632823258342e-05, 8.22756896503667e-06, 5.860183544342747e-06, 1.5946179899709373e-05, 1.3786414393592665e-05, 6.035763841156113e-06, 5.710953147439624e-06, 6.868286880178023e-06, 3.68396939181187e-06, 2.8121893575622285e-06, 3.4116803671334436e-06, 4.212811036371219e-06, 2.239434110723686e-06, 2.4652776163597104e-06, 2.7164431403737e-06, 2.6297261507547383e-06, 2.6611949434195037e-06, 1.7683485527494806e-06, 1.533836786153766e-06, 1.6834530645927226e-06, 1.1891764088090735e-06, 2.7144287459026176e-06, 1.7524855999558025e-06, 1.5061581369000543e-06, 1.6236841696118833e-06, 1.5288871519002863e-06], [0.00022228424918445936, 0.00014116608704930296, 8.801946151220324e-05, 1.751979775756779e-05, 1.9113741286640698e-05, 3.004221311926534e-05, 9.315775681298586e-06, 1.4186728988704408e-05, 1.178557867217698e-05, 8.050694907021768e-06, 5.680290500723776e-06, 6.218285028996239e-06, 8.898007224715784e-06, 8.148629494503277e-06, 7.350326598469759e-06, 4.0132764717103515e-06, 4.242900828542725e-06, 4.857290038544049e-06, 3.7041896941973135e-06, 4.5783454150036075e-06, 3.5303230482773394e-06, 3.5155306261399497e-06, 3.816308151386693e-06, 2.4439933926509092e-06, 2.578366495158562e-06, 2.5316902954040325e-06, 3.2831920946004774e-06, 2.7113425762507023e-06, 3.463936959648786e-06, 2.275266918090864e-06], [9.065206483449004e-05, 3.412125173903155e-05, 2.698004340938829e-05, 3.3725984323241865e-06, 3.147173368670108e-06, 2.2063090278134936e-06, 1.4405305407809763e-06, 1.224811917653956e-06, 9.330038580653359e-07, 1.6473092082825918e-06, 8.962620620806165e-07, 6.682031061784085e-07, 6.171354753218707e-07, 8.112530306711234e-07, 7.488668388584236e-07, 5.696051622138665e-07, 4.705318243508734e-07, 8.035579908503886e-07, 7.987350341107613e-07, 6.35449562561061e-07, 4.1344830930218143e-07, 3.148859015559368e-07, 5.037815742458039e-07, 3.317397378924115e-07, 3.2905286558665694e-07, 3.498890803902352e-07, 4.073173439021105e-07, 2.695775256972568e-07, 3.8191115185898437e-07, 2.811042829998934e-07], [8.986557368189095e-05, 2.3630465148016806e-05, 9.66208269043515e-06, 2.9253312580597894e-06, 2.186103908267493e-06, 1.3685961069616799e-06, 1.1034930745760599e-06, 8.742787637553798e-07, 7.975324479048141e-07, 7.071880948691008e-07, 5.804697138955817e-07, 5.062074402909881e-07, 4.05624905397417e-07, 3.663010829768609e-07, 3.128419848508202e-07, 2.685592032018273e-07, 2.4906107682909355e-07, 2.181644655744701e-07, 1.8052034344388333e-07, 1.533444598559679e-07, 1.4509346328850376e-07, 1.282650373468642e-07, 1.2170755780971382e-07, 1.1134839041915262e-07, 9.753195323961948e-08, 9.089938733571525e-08, 8.723917138316519e-08, 8.67100273656737e-08, 7.659765894156111e-08, 6.903546818648472e-08], [0.00010021567873724873, 4.831475557397524e-05, 2.9750413191184933e-05, 1.38570571325398e-05, 6.555497284025071e-06, 5.23068048889103e-06, 3.7581784529990623e-06, 8.164622585230769e-06, 7.527644931708426e-06, 5.811066709654083e-06, 2.458608966293383e-06, 4.970810599194062e-06, 2.868373801268023e-06, 2.5960425966563944e-06, 3.468186255941227e-06, 4.137629138789463e-06, 2.4627713903529753e-06, 2.040747125117281e-06, 1.8831125518652657e-06, 1.7827745514080168e-06, 2.6445664836445257e-06, 2.02613431986584e-06, 1.8232535158652912e-06, 1.9168645047254e-06, 1.8211858820151628e-06, 1.6227283880550525e-06, 1.8079541140589288e-06, 1.8846579655977935e-06, 1.531158983554497e-06, 2.6696939078725495e-06], [0.0001062834424009552, 9.842851963667206e-05, 0.00013460867521442963, 1.1414861579952037e-05, 9.531731053669531e-06, 2.677746540156704e-05, 5.5704738473257705e-06, 1.0037896794325395e-05, 3.9814752973103524e-06, 1.526776203418613e-05, 4.581736719376203e-06, 3.642402233525607e-06, 2.9640537461721987e-06, 6.5684532240323774e-06, 5.504952785334682e-06, 3.8453421024547295e-06, 3.096547998533715e-06, 2.2919518120094e-06, 2.9335619746550704e-06, 2.3419984835589802e-06, 3.0930850657575774e-06, 2.8904935614338244e-06, 2.572977811318629e-06, 1.6564192578981525e-06, 2.635709976937113e-06, 1.773233672540862e-06, 1.7586459478378135e-06, 1.325989934539989e-06, 1.7539014365450796e-06, 1.2461306164950168e-06], [0.0001191863584696354, 9.248803412648988e-05, 5.879913212866683e-05, 1.598049855912497e-05, 1.8928436116407462e-05, 9.77081220881651e-06, 6.748839866677261e-06, 1.536824548994089e-05, 9.314078198238374e-06, 5.009353673435745e-06, 7.4983619455329595e-06, 3.230952823671077e-06, 6.745368613530545e-06, 7.0297360386896545e-06, 2.9659537741490413e-06, 3.6064993993726582e-06, 3.386216964488743e-06, 1.7977875688500642e-06, 2.8210880873827023e-06, 4.1086625154585775e-06, 2.069379409971353e-06, 2.189694366172236e-06, 2.0298788372148194e-06, 1.7164560172240318e-06, 1.804216741091949e-06, 1.844887755768653e-06, 2.3931594576871136e-06, 1.474942980969133e-06, 2.4887886820466914e-06, 1.737400026781984e-06], [7.75018949654313e-05, 3.448111040754431e-05, 6.72940921666455e-05, 5.720926213860375e-06, 5.193492885574912e-06, 1.2553743778388232e-05, 2.44354945627341e-06, 4.325699887327947e-06, 4.826133097680094e-06, 6.403180522914982e-06, 4.383173131814648e-06, 6.009332679745072e-06, 2.6643930197963965e-06, 3.3314177936218417e-06, 3.063536322259243e-06, 2.9811251119106136e-06, 3.2428304229325775e-06, 2.8672515523029672e-06, 1.7711091258420304e-06, 2.017333610762831e-06, 1.781615913505852e-06, 1.530582657120536e-06, 1.4648014145859543e-06, 1.6643802167273026e-06, 1.4382178661979877e-06, 1.775934050881362e-06, 1.4960498564722606e-06, 1.7778437849426805e-06, 1.632202476423313e-06, 1.2481670274646616e-06], [0.00011359932593255164, 4.3141077960832186e-05, 4.075195043178246e-05, 1.4643412994587094e-05, 1.559406763147212e-05, 7.673742622280472e-06, 8.265415373921307e-06, 6.070787363131943e-06, 2.0935612760980576e-05, 6.875539161141616e-06, 5.876041098216982e-06, 2.8274224996212705e-06, 3.918721921642132e-06, 2.6956665106972916e-06, 3.7538030802230895e-06, 2.840325466049828e-06, 3.5616442532179452e-06, 3.4673436076225956e-06, 3.290018985663561e-06, 2.120255639397886e-06, 2.1253942494514434e-06, 1.8006602096861314e-06, 1.8406858491699544e-06, 4.5795991075926186e-06, 2.1494548854350925e-06, 1.5685780464837537e-06, 2.435635910398339e-06, 2.0158842191759318e-06, 1.8143866278582915e-06, 2.0971687088556803e-06], [8.986557368189095e-05, 2.3630465148016806e-05, 9.66208269043515e-06, 2.9253312580597894e-06, 2.186103908267493e-06, 1.3685961069616799e-06, 1.1034930745760599e-06, 8.742787637553798e-07, 7.975324479048141e-07, 7.071880948691008e-07, 5.804697138955817e-07, 5.062074402909881e-07, 4.05624905397417e-07, 3.663010829768609e-07, 3.128419848508202e-07, 2.685592032018273e-07, 2.4906107682909355e-07, 2.181644655744701e-07, 1.8052034344388333e-07, 1.533444598559679e-07, 1.4509346328850376e-07, 1.282650373468642e-07, 1.2170755780971382e-07, 1.1134839041915262e-07, 9.753195323961948e-08, 9.089938733571525e-08, 8.723917138316519e-08, 8.67100273656737e-08, 7.659765894156111e-08, 6.903546818648472e-08], [7.962825466344085e-05, 3.094630125895867e-05, 6.780740436358917e-05, 1.0290702481405636e-05, 7.109508407287623e-06, 1.572526440029506e-05, 2.7641823493377256e-06, 3.3539245490795645e-06, 3.707695885790566e-06, 3.7243140947469282e-06, 7.319094884545814e-06, 6.501205823981459e-06, 3.3662003448091787e-06, 3.5598151995019297e-06, 3.7276625779356504e-06, 2.3279607565405725e-06, 3.5783587137761803e-06, 5.370414512884307e-06, 2.9740725366569693e-06, 2.175867309248871e-06, 2.231535801154066e-06, 1.6719865068879857e-06, 1.8300954974540312e-06, 1.821861047232493e-06, 1.4736434028409337e-06, 1.8826617623685023e-06, 1.6944888087534747e-06, 1.490831403997485e-06, 1.5476457149878082e-06, 1.2484806857981984e-06], [0.00016798042949865095, 5.583694099131719e-05, 3.368024745923588e-05, 1.5285647267045422e-05, 6.481158887535028e-06, 6.351038742350797e-06, 4.944147054181714e-06, 1.065959103506838e-05, 5.714121507932745e-06, 3.7428653008944076e-06, 3.6781845673927648e-06, 6.460392548894091e-06, 4.237529963370415e-06, 4.559586962346855e-06, 2.819883392377535e-06, 2.6102374456616727e-06, 2.163820045071119e-06, 2.9759951900556955e-06, 1.949125625004256e-06, 1.745351721960368e-06, 3.1562206255225208e-06, 2.3615484789491975e-06, 2.3798037219861614e-06, 1.3946342824259811e-06, 1.2344773193146094e-06, 1.8793269200991795e-06, 2.189713335734849e-06, 1.2030666443483352e-06, 1.3097094213008478e-06, 1.4985791052815534e-06], [8.986557368189095e-05, 2.3630465148016806e-05, 9.66208269043515e-06, 2.9253312580597894e-06, 2.186103908267493e-06, 1.3685961069616799e-06, 1.1034930745760599e-06, 8.742787637553798e-07, 7.975324479048141e-07, 7.071880948691008e-07, 5.804697138955817e-07, 5.062074402909881e-07, 4.05624905397417e-07, 3.663010829768609e-07, 3.128419848508202e-07, 2.685592032018273e-07, 2.4906107682909355e-07, 2.181644655744701e-07, 1.8052034344388333e-07, 1.533444598559679e-07, 1.4509346328850376e-07, 1.282650373468642e-07, 1.2170755780971382e-07, 1.1134839041915262e-07, 9.753195323961948e-08, 9.089938733571525e-08, 8.723917138316519e-08, 8.67100273656737e-08, 7.659765894156111e-08, 6.903546818648472e-08], [7.253387299114304e-05, 2.745296035722093e-05, 4.175422160180205e-05, 6.8252232408323944e-06, 8.141997579514695e-06, 9.751631045054365e-06, 2.707403927425452e-06, 3.969311763146696e-06, 3.1045875101296173e-06, 8.316679720293905e-06, 3.804350034887552e-06, 9.477575318854605e-06, 2.3139505025016595e-06, 3.3588159165059426e-06, 2.4604663388034854e-06, 2.773065241273815e-06, 3.1533397784220338e-06, 2.5366858126150327e-06, 2.8794101109359324e-06, 2.087217017644706e-06, 1.8991176187740851e-06, 2.0707656316554393e-06, 1.779751342329166e-06, 1.6963872920531486e-06, 2.448022383578355e-06, 1.8038230802310897e-06, 1.892286519533111e-06, 1.6009853239571362e-06, 1.852614646165213e-06, 1.2634868208883024e-06], [0.0001269093993764115, 4.279273621259008e-05, 4.1444715313578754e-05, 2.305848287683308e-05, 2.0707351901640118e-05, 1.1429660239198971e-05, 6.251251049196044e-06, 9.423531677343007e-06, 8.686176110852978e-06, 1.224913790818344e-05, 3.5450412575521964e-06, 4.358224822753478e-06, 3.5333568649082854e-06, 4.30878483489386e-06, 3.2069135671478106e-06, 4.778616299037893e-06, 3.8647738287688765e-06, 4.213641726416261e-06, 2.634467634460338e-06, 3.2405075586526328e-06, 2.330450616448343e-06, 2.385986976982333e-06, 2.239956508038441e-06, 2.1523778719775825e-06, 1.851959737170392e-06, 1.5689895741214133e-06, 1.829485624549676e-06, 1.9895463049866346e-06, 2.0444087597994534e-06, 2.1971883576523648e-06], [8.986557368189095e-05, 2.3630465148016806e-05, 9.66208269043515e-06, 2.9253312580597894e-06, 2.186103908267493e-06, 1.3685961069616799e-06, 1.1034930745760599e-06, 8.742787637553798e-07, 7.975324479048141e-07, 7.071880948691008e-07, 5.804697138955817e-07, 5.062074402909881e-07, 4.05624905397417e-07, 3.663010829768609e-07, 3.128419848508202e-07, 2.685592032018273e-07, 2.4906107682909355e-07, 2.181644655744701e-07, 1.8052034344388333e-07, 1.533444598559679e-07, 1.4509346328850376e-07, 1.282650373468642e-07, 1.2170755780971382e-07, 1.1134839041915262e-07, 9.753195323961948e-08, 9.089938733571525e-08, 8.723917138316519e-08, 8.67100273656737e-08, 7.659765894156111e-08, 6.903546818648472e-08], [8.986557368189095e-05, 2.3630465148016806e-05, 9.66208269043515e-06, 2.9253312580597894e-06, 2.186103908267493e-06, 1.3685961069616799e-06, 1.1034930745760599e-06, 8.742787637553798e-07, 7.975324479048141e-07, 7.071880948691008e-07, 5.804697138955817e-07, 5.062074402909881e-07, 4.05624905397417e-07, 3.663010829768609e-07, 3.128419848508202e-07, 2.685592032018273e-07, 2.4906107682909355e-07, 2.181644655744701e-07, 1.8052034344388333e-07, 1.533444598559679e-07, 1.4509346328850376e-07, 1.282650373468642e-07, 1.2170755780971382e-07, 1.1134839041915262e-07, 9.753195323961948e-08, 9.089938733571525e-08, 8.723917138316519e-08, 8.67100273656737e-08, 7.659765894156111e-08, 6.903546818648472e-08], [8.986557368189095e-05, 2.3630465148016806e-05, 9.66208269043515e-06, 2.9253312580597894e-06, 2.186103908267493e-06, 1.3685961069616799e-06, 1.1034930745760599e-06, 8.742787637553798e-07, 7.975324479048141e-07, 7.071880948691008e-07, 5.804697138955817e-07, 5.062074402909881e-07, 4.05624905397417e-07, 3.663010829768609e-07, 3.128419848508202e-07, 2.685592032018273e-07, 2.4906107682909355e-07, 2.181644655744701e-07, 1.8052034344388333e-07, 1.533444598559679e-07, 1.4509346328850376e-07, 1.282650373468642e-07, 1.2170755780971382e-07, 1.1134839041915262e-07, 9.753195323961948e-08, 9.089938733571525e-08, 8.723917138316519e-08, 8.67100273656737e-08, 7.659765894156111e-08, 6.903546818648472e-08], [0.00012563022933941527, 4.609459759647657e-05, 3.3894915210682316e-05, 9.970203574985765e-06, 1.3083832259740166e-05, 4.067805389249891e-06, 5.46315915473935e-06, 6.571301320996486e-06, 1.4372885249562247e-05, 8.563789226670837e-06, 2.8944003783213576e-06, 5.448737839902167e-06, 3.294197782767693e-06, 3.081988036164496e-06, 2.9453405870071625e-06, 3.1538801612554507e-06, 2.5994789300243656e-06, 2.628318487461665e-06, 2.8609235252784215e-06, 2.429377468595594e-06, 1.8597663365334773e-06, 1.7244659791637674e-06, 2.3329750263924865e-06, 1.99180661487994e-06, 1.368358815373146e-06, 1.5796961007148341e-06, 2.67178331759359e-06, 1.4316022918525646e-06, 1.6459246003852844e-06, 1.8522532188622033e-06], [8.986557368189095e-05, 2.3630465148016806e-05, 9.66208269043515e-06, 2.9253312580597894e-06, 2.186103908267493e-06, 1.3685961069616799e-06, 1.1034930745760599e-06, 8.742787637553798e-07, 7.975324479048141e-07, 7.071880948691008e-07, 5.804697138955817e-07, 5.062074402909881e-07, 4.05624905397417e-07, 3.663010829768609e-07, 3.128419848508202e-07, 2.685592032018273e-07, 2.4906107682909355e-07, 2.181644655744701e-07, 1.8052034344388333e-07, 1.533444598559679e-07, 1.4509346328850376e-07, 1.282650373468642e-07, 1.2170755780971382e-07, 1.1134839041915262e-07, 9.753195323961948e-08, 9.089938733571525e-08, 8.723917138316519e-08, 8.67100273656737e-08, 7.659765894156111e-08, 6.903546818648472e-08], [9.284678945464899e-05, 5.8043520258440014e-05, 1.5652043678711864e-05, 1.622298457288886e-05, 5.877666102755952e-06, 5.534657164842655e-06, 4.2216537171175795e-06, 3.7102851424955494e-06, 5.553300363801546e-06, 5.961678197658035e-06, 2.7837932730740552e-06, 4.088287283717379e-06, 2.722320290715536e-06, 2.0059840305841586e-06, 3.949476175942092e-06, 2.259435522643784e-06, 1.7635843231666532e-06, 1.858981720934894e-06, 1.3843413995990312e-06, 1.1256912091265461e-06, 4.3726807344909414e-06, 1.4091715046770154e-06, 1.4605570902634673e-06, 1.955517909327075e-06, 1.0232119315285595e-06, 1.242823594633467e-06, 9.059012906445659e-07, 1.124332953993092e-06, 1.2086524951417481e-06, 8.605879637734015e-07], [0.00018032769713320667, 7.260730032302387e-05, 9.139603787053328e-05, 1.0895893933415669e-05, 1.0445817085412098e-05, 1.4216819311113151e-05, 3.878045458936111e-06, 9.055438637095157e-06, 3.7577083312741467e-06, 9.776683987923393e-06, 7.140430758011038e-06, 4.156566858828635e-06, 4.746344998240782e-06, 3.4498639780771513e-06, 3.6569814166518023e-06, 9.690609921406744e-06, 2.7124278673432915e-06, 2.0478709227355622e-06, 2.10402379265246e-06, 2.299244407850364e-06, 1.4768214953386344e-06, 2.1217191823110113e-06, 1.8249985597977893e-06, 1.974046771745439e-06, 1.488021594485837e-06, 1.9034112158507313e-06, 2.587793008958679e-06, 1.3774979645203687e-06, 2.849615786066365e-06, 1.2502983814744256e-06], [8.986557368189095e-05, 2.3630465148016806e-05, 9.66208269043515e-06, 2.9253312580597894e-06, 2.186103908267493e-06, 1.3685961069616799e-06, 1.1034930745760599e-06, 8.742787637553798e-07, 7.975324479048141e-07, 7.071880948691008e-07, 5.804697138955817e-07, 5.062074402909881e-07, 4.05624905397417e-07, 3.663010829768609e-07, 3.128419848508202e-07, 2.685592032018273e-07, 2.4906107682909355e-07, 2.181644655744701e-07, 1.8052034344388333e-07, 1.533444598559679e-07, 1.4509346328850376e-07, 1.282650373468642e-07, 1.2170755780971382e-07, 1.1134839041915262e-07, 9.753195323961948e-08, 9.089938733571525e-08, 8.723917138316519e-08, 8.67100273656737e-08, 7.659765894156111e-08, 6.903546818648472e-08], [0.0001278273675130112, 8.24107147053458e-05, 9.509411970475224e-05, 1.0358209522488795e-05, 1.5884321284050416e-05, 1.8103100936934713e-05, 7.414170155192851e-06, 1.639297613569774e-05, 7.723551467444274e-06, 1.4876371814469482e-05, 4.852451241327701e-06, 3.6965564254552617e-06, 5.324995327268973e-06, 4.208972643361637e-06, 3.2609009222590673e-06, 3.970253093392913e-06, 3.485334683671743e-06, 2.6634517042052036e-06, 2.7918945899854136e-06, 2.748599771657668e-06, 2.8593235901199806e-06, 2.1798652472977193e-06, 3.150417544072679e-06, 2.270605000786202e-06, 1.8959718634563301e-06, 2.5509913576751396e-06, 2.6204530001136506e-06, 1.925975003276391e-06, 2.6987981351468404e-06, 1.665226410672803e-06], [8.611132623858267e-05, 6.183805655600767e-05, 4.04188315880104e-05, 2.7281724208222463e-05, 2.1638603938481516e-05, 1.0372978256725185e-05, 6.1492135582686295e-06, 8.99146164020495e-06, 9.687798448082803e-06, 1.0681662256140253e-05, 3.8412600679699375e-06, 3.812391329161202e-06, 4.001299882102971e-06, 2.921065214887082e-06, 4.390424083637161e-06, 5.587448001497555e-06, 5.059213718195536e-06, 3.220999532695955e-06, 3.272479888841879e-06, 3.0197003056466883e-06, 2.484801946289878e-06, 2.086211132067587e-06, 2.396904885344101e-06, 3.1156774272810096e-06, 2.1431821964033354e-06, 1.7776575216526254e-06, 1.7444257946430542e-06, 1.931644893029344e-06, 2.1826335007531775e-06, 1.6819699989898168e-06], [0.00021023745110277823, 7.039618731441595e-05, 4.5137659041354975e-05, 1.4512155792924386e-05, 1.7992196547326815e-05, 7.029536920993835e-06, 9.462667160408963e-06, 1.4021049015125377e-05, 8.520929601519791e-06, 8.341097117141759e-06, 5.020157815678864e-06, 4.020210129347658e-06, 3.175371542769298e-06, 4.254724243358579e-06, 2.403912886507114e-06, 3.5168899960171718e-06, 3.0312143993523607e-06, 2.6400427241073107e-06, 3.4634525624527506e-06, 2.7136671245832124e-06, 2.1943538769496646e-06, 3.3482517460514313e-06, 2.2972872358425466e-06, 2.013844211500918e-06, 1.8046823345278213e-06, 1.711122846064485e-06, 2.2482651595847243e-06, 1.768859643721001e-06, 1.8557002610494719e-06, 1.8168206735457931e-06], [0.00044222412611922293, 0.00020500250879054154, 9.60870086676076e-05, 3.8542281045104986e-05, 2.1996410430891826e-05, 2.582772065516826e-05, 2.2873662973956115e-05, 2.444998217862753e-05, 1.2016699047444577e-05, 2.511734502997296e-05, 3.670465198585088e-05, 9.196743098878517e-06, 9.018583195866425e-06, 1.0186016816758683e-05, 7.48163593467123e-06, 7.691113965033834e-06, 5.929120049182953e-06, 2.351574649004124e-05, 9.319118396503717e-06, 4.120180927653413e-06, 8.923958144300777e-06, 9.458584192773022e-06, 4.65824291790242e-06, 3.20548910165923e-06, 2.4559524763451687e-06, 4.932339386752704e-06, 3.5406926755925906e-06, 6.176949067923673e-06, 2.503909532605378e-06, 2.9847910143386243e-06], [9.263371047443294e-05, 4.1543468546270486e-05, 2.8264793138461482e-05, 1.1287029936443846e-05, 1.2423866174663467e-05, 4.437771401971176e-06, 6.912996304990589e-06, 1.0142106071930447e-05, 1.7660147985796672e-05, 7.250904053488235e-06, 3.96202612211889e-06, 3.5005625868082507e-06, 5.138297800253061e-06, 3.1118177171548264e-06, 3.5490544323878482e-06, 4.42716063642149e-06, 2.993822393977352e-06, 3.7320293889421047e-06, 3.3637575826563014e-06, 3.180474660273824e-06, 1.8434732498122843e-06, 1.5578393930935112e-06, 1.4542184114790102e-06, 2.8787463890242523e-06, 1.7616496709723769e-06, 1.7027718874986464e-06, 2.523398362504726e-06, 1.7353291518287914e-06, 2.3619207241063767e-06, 1.6988265820581274e-06], [0.00020494782880318475, 0.000128001939567066, 7.558688964452388e-05, 9.411713670196844e-06, 1.0618526732276594e-05, 1.1637738494207854e-05, 4.865548060214379e-06, 8.22627306104941e-06, 4.4932473596884895e-06, 4.518199772787949e-06, 4.515141398409271e-06, 5.6514390924435545e-06, 4.2097345540683965e-06, 6.438137023326532e-06, 4.665506947003169e-06, 3.377798070261624e-06, 2.8024987160460895e-06, 2.677123995306334e-06, 2.311358794284812e-06, 1.938684387681928e-06, 2.7315420066031672e-06, 2.8201019440745043e-06, 1.9129437283489777e-06, 1.8016895497197243e-06, 2.1979560663283032e-06, 1.8051367418738975e-06, 1.5198869493774453e-06, 1.644062813228564e-06, 1.8367077338366868e-06, 1.54198951806451e-06], [8.986557368189095e-05, 2.3630465148016806e-05, 9.66208269043515e-06, 2.9253312580597894e-06, 2.186103908267493e-06, 1.3685961069616799e-06, 1.1034930745760599e-06, 8.742787637553798e-07, 7.975324479048141e-07, 7.071880948691008e-07, 5.804697138955817e-07, 5.062074402909881e-07, 4.05624905397417e-07, 3.663010829768609e-07, 3.128419848508202e-07, 2.685592032018273e-07, 2.4906107682909355e-07, 2.181644655744701e-07, 1.8052034344388333e-07, 1.533444598559679e-07, 1.4509346328850376e-07, 1.282650373468642e-07, 1.2170755780971382e-07, 1.1134839041915262e-07, 9.753195323961948e-08, 9.089938733571525e-08, 8.723917138316519e-08, 8.67100273656737e-08, 7.659765894156111e-08, 6.903546818648472e-08], [8.986557368189095e-05, 2.3630465148016806e-05, 9.66208269043515e-06, 2.9253312580597894e-06, 2.186103908267493e-06, 1.3685961069616799e-06, 1.1034930745760599e-06, 8.742787637553798e-07, 7.975324479048141e-07, 7.071880948691008e-07, 5.804697138955817e-07, 5.062074402909881e-07, 4.05624905397417e-07, 3.663010829768609e-07, 3.128419848508202e-07, 2.685592032018273e-07, 2.4906107682909355e-07, 2.181644655744701e-07, 1.8052034344388333e-07, 1.533444598559679e-07, 1.4509346328850376e-07, 1.282650373468642e-07, 1.2170755780971382e-07, 1.1134839041915262e-07, 9.753195323961948e-08, 9.089938733571525e-08, 8.723917138316519e-08, 8.67100273656737e-08, 7.659765894156111e-08, 6.903546818648472e-08], [0.0012279381214749573, 0.0007949133015923716, 0.0005768298136971784, 0.00025433155409412025, 7.772003478446958e-05, 0.00017809210382941718, 8.108063119650419e-05, 9.416200495592822e-05, 6.0977883584796654e-05, 4.4675222328035846e-05, 6.693680306166212e-05, 3.340243923087338e-05, 2.6502777266964866e-05, 6.363535560259335e-05, 2.9742747210663637e-05, 2.6131821508433885e-05, 2.438192656895941e-05, 1.4713327160599621e-05, 1.881661759313532e-05, 1.3856012047633798e-05, 1.303953969144996e-05, 9.374217078509177e-06, 1.8235477759570977e-05, 1.261695318174056e-05, 1.4566161361561724e-05, 9.962436127493016e-06, 1.4280818426931724e-05, 1.1631709992931869e-05, 8.197742305315949e-06, 6.485522990857371e-06], [0.0002278642036998152, 0.0001214939296021171, 3.1283155537820015e-05, 4.131019433669155e-05, 9.872606809421641e-06, 1.2284602257235873e-05, 1.7104067873804254e-05, 8.408705332159533e-06, 1.1007012547998119e-05, 7.4559880253252e-06, 5.317928621486412e-06, 6.704980278424613e-06, 7.224233927531767e-06, 5.315417153197832e-06, 4.643557243428294e-06, 5.3464105295002345e-06, 3.838131928502825e-06, 3.4929429527429606e-06, 2.6878946770624193e-06, 3.0079178058268428e-06, 4.291447697952806e-06, 3.0147591322784273e-06, 1.9953348667121767e-06, 2.8493994101414494e-06, 1.9285651026213396e-06, 2.5680432473235053e-06, 2.816649492616289e-06, 1.8922642092498253e-06, 1.985550029331495e-06, 1.972558353473733e-06], [0.00044332884236550373, 0.00012556879805718333, 0.00015203493347438948, 3.751476911595861e-05, 3.0555546946612216e-05, 1.3900072311520665e-05, 1.733280872231586e-05, 3.7652190593431735e-05, 1.0049789733474904e-05, 1.4599196767866092e-05, 2.0864738522240702e-05, 9.132205630557144e-06, 7.912902652970017e-06, 7.717288280896343e-06, 5.140466712509842e-06, 6.764322662309465e-06, 5.6156918311392175e-06, 1.4278325119412112e-05, 8.12554931291958e-06, 4.757687149306352e-06, 3.6466360333441407e-06, 3.7828700797854814e-06, 6.084764490502717e-06, 6.189890716871076e-06, 2.7936424176154294e-06, 3.2693036874062104e-06, 3.4510269121086225e-06, 3.4461283519855033e-06, 3.256136281471644e-06, 2.9476300976431675e-06], [0.00018934387405424748, 0.00012060305338012321, 9.074111156413121e-05, 3.0353955835212817e-05, 3.07081521797265e-05, 3.207920626644218e-05, 1.1228053062375264e-05, 6.806450035453942e-06, 6.897857293734391e-06, 1.504365382075763e-05, 6.426752502937792e-06, 1.0923692163601329e-05, 5.819666379663295e-06, 6.016222921113147e-06, 4.907249115047199e-06, 5.850289317355764e-06, 8.683452677738877e-06, 5.619981650059881e-06, 4.232782323448587e-06, 3.5996620469869173e-06, 7.2681074159196375e-06, 4.47663054229906e-06, 2.803946407651969e-06, 3.5558506700977727e-06, 2.9471278623870904e-06, 3.3617195649469974e-06, 2.388508617240712e-06, 2.7867573878284485e-06, 2.282483969164176e-06, 1.9634730402255686e-06], [0.00010867514434925205, 5.34539523378633e-05, 2.7298766279428845e-05, 2.156744681626573e-05, 8.311944834542413e-06, 7.179038889378036e-06, 9.374331511825387e-06, 1.6118927935817873e-05, 1.96907839933699e-05, 7.764635696797047e-06, 6.770623591975004e-06, 7.319797664776051e-06, 7.841146928645106e-06, 4.0118730112416264e-06, 3.131170297104009e-06, 3.530304502859964e-06, 4.296956323445382e-06, 2.9880774172086924e-06, 2.52122202907979e-06, 2.924775569577321e-06, 3.710148950541657e-06, 2.065259268971439e-06, 1.685509188369032e-06, 2.722684396357704e-06, 1.5935183811947593e-06, 2.019247186667538e-06, 3.0112134083251704e-06, 2.3233096133106005e-06, 1.8522725033842623e-06, 1.712528903225526e-06], [0.00016373715789935107, 6.889029869495851e-05, 8.275701560309634e-05, 5.992699346964355e-06, 9.250861542301159e-06, 9.850428937818257e-06, 6.029517390032532e-06, 1.549108388822467e-05, 6.242940370293766e-06, 1.0852083151668263e-05, 6.5771336865684045e-06, 6.5798373304513624e-06, 5.717978491807258e-06, 3.991808452206118e-06, 3.046059912618823e-06, 4.369913555581849e-06, 3.3095437495670323e-06, 2.6035565940159126e-06, 2.2730480632870443e-06, 2.7572073880922344e-06, 1.723958215088162e-06, 2.1545119838224472e-06, 2.1826616004832885e-06, 2.0002519904148965e-06, 1.5308171278817655e-06, 2.326805830226615e-06, 2.949498985682569e-06, 1.8794571712482905e-06, 2.4453917788847987e-06, 1.7837722873037688e-06], [8.986557368189095e-05, 2.3630465148016806e-05, 9.66208269043515e-06, 2.9253312580597894e-06, 2.186103908267493e-06, 1.3685961069616799e-06, 1.1034930745760599e-06, 8.742787637553798e-07, 7.975324479048141e-07, 7.071880948691008e-07, 5.804697138955817e-07, 5.062074402909881e-07, 4.05624905397417e-07, 3.663010829768609e-07, 3.128419848508202e-07, 2.685592032018273e-07, 2.4906107682909355e-07, 2.181644655744701e-07, 1.8052034344388333e-07, 1.533444598559679e-07, 1.4509346328850376e-07, 1.282650373468642e-07, 1.2170755780971382e-07, 1.1134839041915262e-07, 9.753195323961948e-08, 9.089938733571525e-08, 8.723917138316519e-08, 8.67100273656737e-08, 7.659765894156111e-08, 6.903546818648472e-08], [8.986557368189095e-05, 2.3630465148016806e-05, 9.66208269043515e-06, 2.9253312580597894e-06, 2.186103908267493e-06, 1.3685961069616799e-06, 1.1034930745760599e-06, 8.742787637553798e-07, 7.975324479048141e-07, 