{"timestamp_utc": "2026-03-03T08:12:47+00:00", "case_id": "elephant_7_avg_5", "bgmm_weights": [0.03377421012875132, 9.997955463318312e-05, 0.0006997225960414464, 0.0006991786847856879, 0.000299808349787287, 9.99381455182743e-05, 9.992778949144498e-05, 9.991743453775235e-05, 9.990708065708522e-05, 9.989672784933242e-05, 9.988637611438272e-05, 9.987602545212499e-05, 9.986567586244806e-05, 9.985532734524077e-05, 9.9844979900392e-05, 9.983463352779065e-05, 9.982428822732558e-05, 9.981394399888568e-05, 9.98036008423599e-05, 9.979325875763713e-05, 9.978291774460632e-05, 0.02225880592363438, 0.0006979673674735778, 0.002277461146594742, 9.97407958594941e-05, 9.973018549433812e-05, 9.971957625790633e-05, 0.0006979602949960702, 0.0002990940587252779, 9.968773951239656e-05, 9.967712575870472e-05, 9.966651313505924e-05, 9.96559016413398e-05, 9.964529127742611e-05, 9.963468204319788e-05, 9.962407393853481e-05, 9.961346696331666e-05, 9.960286111742316e-05, 0.7939243800094476, 0.1161331735236207, 0.0003957965286212261, 9.87405825328768e-05, 9.834979245439291e-05, 0.00039184341251245996, 0.0027258062061987303, 9.713013486224323e-05, 9.669404895400115e-05, 9.625992094399155e-05, 9.582774204182377e-05, 9.539750349657348e-05, 0.00028490482958746876, 0.0008508323122203382, 9.409454510516184e-05, 9.365222988804811e-05, 9.321199388552725e-05, 0.019456848537534502, 6.962902694613449e-05, 5.2258288068123e-05, 3.9221123597254816e-05, 2.943641273181092e-05, 2.2092747862485215e-05, 1.6581147728910708e-05, 1.2444556997584515e-05, 9.33994445970138e-06, 2.802827488305279e-05, 6.94045227866688e-08, 6.871734929394298e-10, 6.80369794991479e-12, 6.736334603893802e-14, 6.66963822169316e-16, 6.603602199710716e-18, 6.538219999726516e-20, 6.473485148255462e-22, 6.409391235906361e-24, 6.345931916747341e-26, 6.28310090767754e-28, 6.2208919878050164e-30, 6.159298997830811e-32, 6.098315839439128e-34, 6.037936474693533e-36], "bgmm_means": [[-0.026899383388539803, 0.0052502601595119, 0.0015127270004171485, 0.004384912822445295, -0.003526758552985217, 0.0037740776180024815, -0.0006633472724443273, 0.0022450879647227576, 0.001004854965431943, 0.0012732123718274815, -0.0015984114046039479, -0.0011849878085213015, 2.7531853236209484e-05, -0.0003563705956936498, 0.0005260187006905924, -0.0003619983154441454, -0.0008305904162893261, 0.00014313497250305847, 0.00020009567633765715, -7.370135699892954e-05, -0.0005800853863348887, 0.00022983460195115068, 0.00010263706114967656, -0.0002778831307553794, -1.1348636175155495e-05, 8.65629228034056e-05, 4.531421951503809e-05, -0.00011342993074665428, 0.00018633120218571677, 4.635082684830136e-06], [1.693820728122075e-08, -1.0875751854655307e-08, -1.7873755808748408e-08, -5.293344074175182e-08, -1.0210206013994928e-08, 1.4593801722640616e-08, -2.87892767403267e-08, -2.2698262824860328e-08, 2.7558998638711403e-08, 3.171684070935051e-08, -1.3988872282767733e-09, -2.558131839691756e-08, -3.0409264439867984e-08, -3.5306904067056613e-09, 1.0553828921899562e-08, -1.301383623086801e-08, 2.995261372263702e-09, 1.807673299936141e-08, -6.0521765377074826e-09, -2.743538907168391e-08, -2.2700103130546052e-08, 5.189189522525295e-08, -4.873646020087131e-08, 3.945902449231643e-08, 3.988770203022802e-08, -1.1366979357773747e-08, -1.5099189454304152e-08, 1.0926940241518063e-08, 7.69794041843848e-08, -2.670341636701345e-08], [-0.008207475271099579, -0.0016869743553784588, -0.0016636355778735486, 0.003756111644597902, 0.004180571048279083, 0.005729369284234838, 0.0031629775316547623, -0.003725735586194743, -0.001487130134873335, -0.00196997984637796, 0.0022747046812937174, 0.0012737187800700063, 0.001940202864308187, -0.0011265911057385166, -0.0007963216211555097, 2.5687800477261956e-05, 0.002210335958625527, 0.0007561059229645418, -0.0010571217915847928, -1.0859643116298158e-05, -0.00036706038046669596, 0.0007546404604228018, -0.0009191569467627977, 0.00021281165087068147, 0.00016064487023577598, -0.00024376435050091322, 0.00016858979306277124, 0.00017185700184513288, 0.0003617368002393279, -0.0012829549186817598], [-0.016782318772069222, 0.006980952507428227, 0.00233697024633219, 0.006862622345457964, -0.006631197786322355, -0.0046410737180894905, 0.0064309181443257465, 0.005025977949247069, -0.003578035889167655, -0.001545163349246593, -0.0015257310902358969, 0.0005652342370374011, -0.001977980800570791, -0.0007551729250240457, -0.0023334389860479488, -0.0010612358896022408, 0.002444514843721263, -0.002725144071514923, 0.0035126668942314625, -0.0013984991405123115, -6.189478522031032e-05, 0.00014596412133866188, 0.0009798076546399354, 0.0002679722453831736, 0.0005972103447566496, -0.0016963643075874146, 0.0010592580476569136, 0.0018063574955300256, -4.4335138611241566e-05, -0.001393252356982432], [-0.005723490671555273, -0.00555404522739516, -0.0023203275881163747, 0.002134898949520148, 0.000622081500252076, -0.0014982298047839908, -0.0011252478916641954, -0.002086767481814607, -0.002929935700567721, -0.00045875981153352635, -0.0010669597458549313, 0.0007033947763789215, -0.0023262443420839158, -3.9028188079677896e-05, 0.00032652442975662516, 0.0013924831415946795, 0.00021714343152914363, -0.0007314705608162894, -0.0010431728982896833, 0.0007136294911261644, 0.0006406527127064841, -5.101799678449095e-05, -0.0006334146808310812, 0.00014420838505740057, -0.0005622729971575172, 0.000981163344079466, 0.0005130540433686812, -0.001153383678127606, -2.3247994643643137e-05, 0.000568275646723883], [1.6938207281220748e-08, -1.0875751854655307e-08, -1.7873755808748408e-08, -5.2933440741751824e-08, -1.0210206013994928e-08, 1.4593801722640616e-08, -2.87892767403267e-08, -2.2698262824860328e-08, 2.7558998638711403e-08, 3.171684070935051e-08, -1.3988872282767733e-09, -2.558131839691756e-08, -3.0409264439867984e-08, -3.5306904067056613e-09, 1.0553828921899562e-08, -1.301383623086801e-08, 2.9952613722637017e-09, 1.807673299936141e-08, -6.0521765377074826e-09, -2.743538907168391e-08, -2.2700103130546052e-08, 5.189189522525295e-08, -4.873646020087131e-08, 3.945902449231643e-08, 3.988770203022802e-08, -1.1366979357773747e-08, -1.5099189454304152e-08, 1.0926940241518063e-08, 7.69794041843848e-08, -2.670341636701345e-08], [1.6938207281220744e-08, -1.0875751854655307e-08, -1.7873755808748408e-08, -5.2933440741751824e-08, -1.0210206013994928e-08, 1.4593801722640616e-08, -2.87892767403267e-08, -2.2698262824860328e-08, 2.7558998638711403e-08, 3.171684070935051e-08, -1.3988872282767733e-09, -2.558131839691756e-08, -3.0409264439867984e-08, -3.5306904067056613e-09, 1.0553828921899562e-08, -1.301383623086801e-08, 2.9952613722637017e-09, 1.807673299936141e-08, -6.0521765377074826e-09, -2.743538907168391e-08, -2.2700103130546052e-08, 5.189189522525295e-08, -4.873646020087131e-08, 3.945902449231643e-08, 3.988770203022802e-08, -1.1366979357773747e-08, -1.5099189454304152e-08, 1.0926940241518063e-08, 7.69794041843848e-08, -2.670341636701345e-08], [1.6938207281220744e-08, -1.0875751854655307e-08, -1.7873755808748408e-08, -5.2933440741751824e-08, -1.0210206013994928e-08, 1.4593801722640616e-08, -2.87892767403267e-08, -2.2698262824860328e-08, 2.7558998638711403e-08, 3.171684070935051e-08, -1.3988872282767733e-09, -2.5581318396917556e-08, -3.0409264439867984e-08, -3.5306904067056613e-09, 1.0553828921899562e-08, -1.301383623086801e-08, 2.9952613722637017e-09, 1.807673299936141e-08, -6.0521765377074826e-09, -2.743538907168391e-08, -2.2700103130546052e-08, 5.189189522525295e-08, -4.873646020087131e-08, 3.945902449231643e-08, 3.988770203022802e-08, -1.1366979357773747e-08, -1.5099189454304152e-08, 1.0926940241518063e-08, 7.69794041843848e-08, -2.670341636701345e-08], [1.6938207281220744e-08, -1.0875751854655307e-08, -1.7873755808748408e-08, -5.2933440741751824e-08, -1.0210206013994928e-08, 1.4593801722640616e-08, -2.87892767403267e-08, -2.2698262824860328e-08, 2.7558998638711403e-08, 3.171684070935051e-08, -1.398887228276773e-09, -2.5581318396917556e-08, -3.0409264439867984e-08, -3.5306904067056613e-09, 1.0553828921899562e-08, -1.301383623086801e-08, 2.9952613722637013e-09, 1.807673299936141e-08, -6.0521765377074826e-09, -2.743538907168391e-08, -2.2700103130546052e-08, 5.189189522525295e-08, -4.873646020087131e-08, 3.945902449231643e-08, 3.988770203022802e-08, -1.1366979357773748e-08, -1.5099189454304152e-08, 1.0926940241518063e-08, 7.69794041843848e-08, -2.670341636701345e-08], [1.6938207281220744e-08, -1.0875751854655307e-08, -1.7873755808748408e-08, -5.2933440741751824e-08, -1.0210206013994928e-08, 1.4593801722640616e-08, -2.87892767403267e-08, -2.2698262824860328e-08, 2.7558998638711403e-08, 3.171684070935051e-08, -1.398887228276773e-09, -2.5581318396917556e-08, -3.0409264439867984e-08, -3.5306904067056613e-09, 1.0553828921899562e-08, -1.301383623086801e-08, 2.9952613722637013e-09, 1.807673299936141e-08, -6.0521765377074826e-09, -2.743538907168391e-08, -2.2700103130546052e-08, 5.189189522525295e-08, -4.873646020087131e-08, 3.945902449231643e-08, 3.988770203022802e-08, -1.1366979357773748e-08, -1.5099189454304152e-08, 1.0926940241518063e-08, 7.69794041843848e-08, -2.670341636701345e-08], [1.6938207281220744e-08, -1.0875751854655307e-08, -1.7873755808748408e-08, -5.2933440741751824e-08, -1.0210206013994928e-08, 1.4593801722640616e-08, -2.87892767403267e-08, -2.2698262824860328e-08, 2.7558998638711403e-08, 3.171684070935051e-08, -1.398887228276773e-09, -2.5581318396917556e-08, -3.0409264439867984e-08, -3.5306904067056613e-09, 1.0553828921899562e-08, -1.301383623086801e-08, 2.9952613722637013e-09, 1.807673299936141e-08, -6.0521765377074826e-09, -2.743538907168391e-08, -2.2700103130546052e-08, 5.189189522525295e-08, -4.8736460200871304e-08, 3.945902449231643e-08, 3.988770203022802e-08, -1.1366979357773748e-08, -1.5099189454304152e-08, 1.0926940241518063e-08, 7.69794041843848e-08, -2.670341636701345e-08], [1.693820728122074e-08, -1.0875751854655307e-08, -1.7873755808748408e-08, -5.2933440741751824e-08, -1.0210206013994928e-08, 1.4593801722640616e-08, -2.87892767403267e-08, -2.2698262824860328e-08, 2.7558998638711403e-08, 3.171684070935051e-08, -1.398887228276773e-09, -2.5581318396917556e-08, -3.0409264439867984e-08, -3.5306904067056613e-09, 1.0553828921899562e-08, -1.301383623086801e-08, 2.9952613722637013e-09, 1.807673299936141e-08, -6.0521765377074826e-09, -2.743538907168391e-08, -2.2700103130546052e-08, 5.189189522525295e-08, -4.8736460200871304e-08, 3.945902449231643e-08, 3.988770203022802e-08, -1.1366979357773748e-08, -1.5099189454304152e-08, 1.0926940241518063e-08, 7.69794041843848e-08, -2.670341636701345e-08], [1.693820728122074e-08, -1.0875751854655307e-08, -1.787375580874841e-08, -5.2933440741751824e-08, -1.0210206013994928e-08, 1.4593801722640614e-08, -2.87892767403267e-08, -2.2698262824860328e-08, 2.7558998638711403e-08, 3.171684070935051e-08, -1.398887228276773e-09, -2.5581318396917556e-08, -3.0409264439867984e-08, -3.5306904067056613e-09, 1.0553828921899562e-08, -1.301383623086801e-08, 2.9952613722637013e-09, 1.807673299936141e-08, -6.0521765377074826e-09, -2.743538907168391e-08, -2.2700103130546052e-08, 5.189189522525295e-08, -4.8736460200871304e-08, 3.945902449231643e-08, 3.988770203022802e-08, -1.1366979357773748e-08, -1.5099189454304152e-08, 1.0926940241518063e-08, 7.69794041843848e-08, -2.670341636701345e-08], [1.693820728122074e-08, -1.0875751854655307e-08, -1.787375580874841e-08, -5.2933440741751824e-08, -1.0210206013994928e-08, 1.4593801722640614e-08, -2.87892767403267e-08, -2.2698262824860328e-08, 2.7558998638711403e-08, 3.171684070935051e-08, -1.398887228276773e-09, -2.5581318396917556e-08, -3.0409264439867984e-08, -3.5306904067056613e-09, 1.0553828921899562e-08, -1.301383623086801e-08, 2.995261372263701e-09, 1.807673299936141e-08, -6.0521765377074826e-09, -2.743538907168391e-08, -2.2700103130546052e-08, 5.189189522525295e-08, -4.8736460200871304e-08, 3.945902449231643e-08, 3.988770203022802e-08, -1.1366979357773748e-08, -1.509918945430415e-08, 1.0926940241518063e-08, 7.69794041843848e-08, -2.670341636701345e-08], [1.693820728122074e-08, -1.0875751854655307e-08, -1.787375580874841e-08, -5.2933440741751824e-08, -1.0210206013994928e-08, 1.4593801722640614e-08, -2.87892767403267e-08, -2.2698262824860328e-08, 2.7558998638711403e-08, 3.171684070935051e-08, -1.398887228276773e-09, -2.5581318396917556e-08, -3.0409264439867984e-08, -3.5306904067056613e-09, 1.0553828921899562e-08, -1.301383623086801e-08, 2.995261372263701e-09, 1.807673299936141e-08, -6.0521765377074826e-09, -2.743538907168391e-08, -2.2700103130546052e-08, 5.189189522525295e-08, -4.8736460200871304e-08, 3.945902449231643e-08, 3.988770203022802e-08, -1.1366979357773748e-08, -1.509918945430415e-08, 1.0926940241518063e-08, 7.69794041843848e-08, -2.670341636701345e-08], [1.693820728122074e-08, -1.0875751854655307e-08, -1.787375580874841e-08, -5.2933440741751824e-08, -1.0210206013994928e-08, 1.4593801722640614e-08, -2.87892767403267e-08, -2.2698262824860328e-08, 2.7558998638711403e-08, 3.171684070935051e-08, -1.398887228276773e-09, -2.5581318396917556e-08, -3.0409264439867984e-08, -3.5306904067056613e-09, 1.0553828921899562e-08, -1.301383623086801e-08, 2.995261372263701e-09, 1.807673299936141e-08, -6.0521765377074826e-09, -2.743538907168391e-08, -2.2700103130546052e-08, 5.189189522525295e-08, -4.8736460200871304e-08, 3.945902449231643e-08, 3.988770203022802e-08, -1.1366979357773748e-08, -1.509918945430415e-08, 1.0926940241518063e-08, 7.69794041843848e-08, -2.670341636701345e-08], [1.6938207281220738e-08, -1.0875751854655307e-08, -1.787375580874841e-08, -5.2933440741751824e-08, -1.0210206013994928e-08, 1.4593801722640614e-08, -2.87892767403267e-08, -2.2698262824860328e-08, 2.7558998638711403e-08, 3.171684070935051e-08, -1.398887228276773e-09, -2.5581318396917556e-08, -3.0409264439867984e-08, -3.5306904067056613e-09, 1.0553828921899562e-08, -1.301383623086801e-08, 2.995261372263701e-09, 1.807673299936141e-08, -6.0521765377074826e-09, -2.743538907168391e-08, -2.2700103130546052e-08, 5.189189522525295e-08, -4.8736460200871304e-08, 3.945902449231643e-08, 3.988770203022802e-08, -1.1366979357773748e-08, -1.509918945430415e-08, 1.0926940241518063e-08, 7.69794041843848e-08, -2.670341636701345e-08], [1.6938207281220738e-08, -1.0875751854655307e-08, -1.787375580874841e-08, -5.2933440741751824e-08, -1.0210206013994928e-08, 1.4593801722640614e-08, -2.87892767403267e-08, -2.2698262824860328e-08, 2.7558998638711403e-08, 3.171684070935051e-08, -1.398887228276773e-09, -2.5581318396917556e-08, -3.0409264439867984e-08, -3.5306904067056613e-09, 1.0553828921899562e-08, -1.301383623086801e-08, 2.9952613722637005e-09, 1.807673299936141e-08, -6.0521765377074826e-09, -2.743538907168391e-08, -2.2700103130546052e-08, 5.189189522525295e-08, -4.8736460200871304e-08, 3.945902449231643e-08, 3.988770203022802e-08, -1.1366979357773748e-08, -1.509918945430415e-08, 1.0926940241518063e-08, 7.69794041843848e-08, -2.670341636701345e-08], [1.6938207281220738e-08, -1.0875751854655307e-08, -1.787375580874841e-08, -5.2933440741751824e-08, -1.0210206013994928e-08, 1.4593801722640614e-08, -2.87892767403267e-08, -2.2698262824860328e-08, 2.7558998638711403e-08, 3.171684070935051e-08, -1.398887228276773e-09, -2.5581318396917556e-08, -3.0409264439867984e-08, -3.5306904067056613e-09, 1.0553828921899562e-08, -1.301383623086801e-08, 2.9952613722637005e-09, 1.807673299936141e-08, -6.0521765377074826e-09, -2.743538907168391e-08, -2.2700103130546052e-08, 5.189189522525295e-08, -4.8736460200871304e-08, 3.945902449231643e-08, 3.988770203022802e-08, -1.1366979357773748e-08, -1.509918945430415e-08, 1.0926940241518063e-08, 7.69794041843848e-08, -2.670341636701345e-08], [1.6938207281220738e-08, -1.0875751854655307e-08, -1.787375580874841e-08, -5.2933440741751824e-08, -1.0210206013994928e-08, 1.4593801722640614e-08, -2.87892767403267e-08, -2.2698262824860328e-08, 2.7558998638711403e-08, 3.171684070935051e-08, -1.398887228276773e-09, -2.5581318396917556e-08, -3.0409264439867984e-08, -3.5306904067056613e-09, 1.0553828921899562e-08, -1.301383623086801e-08, 2.9952613722637005e-09, 1.807673299936141e-08, -6.0521765377074826e-09, -2.743538907168391e-08, -2.2700103130546052e-08, 5.189189522525295e-08, -4.8736460200871304e-08, 3.945902449231643e-08, 3.988770203022802e-08, -1.1366979357773748e-08, -1.509918945430415e-08, 1.0926940241518063e-08, 7.69794041843848e-08, -2.670341636701345e-08], [1.6938207281220738e-08, -1.0875751854655307e-08, -1.787375580874841e-08, -5.2933440741751824e-08, -1.0210206013994926e-08, 1.4593801722640614e-08, -2.87892767403267e-08, -2.2698262824860328e-08, 2.75589986387114e-08, 3.171684070935051e-08, -1.398887228276773e-09, -2.5581318396917556e-08, -3.0409264439867984e-08, -3.5306904067056613e-09, 1.0553828921899562e-08, -1.301383623086801e-08, 2.9952613722637005e-09, 1.807673299936141e-08, -6.0521765377074826e-09, -2.743538907168391e-08, -2.2700103130546052e-08, 5.189189522525295e-08, -4.8736460200871304e-08, 3.945902449231643e-08, 3.988770203022802e-08, -1.1366979357773748e-08, -1.509918945430415e-08, 1.0926940241518063e-08, 7.69794041843848e-08, -2.670341636701345e-08], [-0.0007433532117761996, 0.005959423883400504, 0.00012638521744500955, -0.0027384699336841533, 0.004344763559472174, 0.005651899469907846, 0.001612924741401586, -0.002004673650395105, -0.0030978779340857234, -0.0013121062303890303, -0.000557428572938018, 5.6980565580141186e-05, -0.0004331009939951288, -0.0002940124280874606, 0.00044115540924069405, 0.0007527648778349498, -0.001160558256125166, -0.0002208512579177111, 0.0010027109762052052, 0.00023888312637548672, 0.0004386539015950996, -0.0006693264371568765, 0.0007565583639695121, 0.00048407481440719357, -0.00017417799010940402, -0.0008091558602812443, -0.0007717361915501024, 0.0006334304565309059, -0.0004166312753060759, 0.0001015134633779391], [-0.014575524830438879, 0.00622060131647035, 0.0036137707177812646, 0.008352924841271835, 0.0010049727995541055, -0.006515132861750099, 0.005670182612387234, 0.002176938510560319, -0.0009269978614448506, -0.0026971972245659094, -0.0012087337218457035, 0.0002693082106659931, 0.003483041813784789, -0.0028660318803396226, -0.0027227473009887484, 0.0008204818599084547, 0.001999342653718967, -0.003054867228120705, 0.0016645967806855598, -0.0008060961305942075, -0.0001534513089021182, -6.866018595153365e-05, 0.0009081556854958543, -0.0005537165430013381, -0.0007286113706871982, -0.001209198570568056, 0.0014831398640472644, -0.0005433418744538719, 0.00019282715470014388, -0.0005272687811475788], [-0.01799345108067414, 0.0008384624736616335, -0.0044626213790133215, 0.009231653960246413, -0.004871925172095536, 0.009745967975154073, 0.005081296889720532, -0.003541892150921248, -0.0010927320816256838, -0.001293838505621119, 0.0017250630416371087, 0.0013459921269297816, 0.003801210254499687, 0.001449501523827379, -0.002142724998685565, -0.004066664102132778, 0.00037277793065339926, 0.0028904287398425522, 4.04439498813211e-05, -0.002932159564429005, -0.0011965715231739623, 0.0001685475256241647, -0.0021913914985990414, 0.001944207076428924, 0.0011554876840397794, 0.0005450437920600366, -0.0024473681652596156, -0.0004110069160290126, -0.0011019086624121978, -0.0001368922716853125], [1.6938207281220734e-08, -1.0875751854655307e-08, -1.787375580874841e-08, -5.2933440741751824e-08, -1.0210206013994926e-08, 1.4593801722640614e-08, -2.87892767403267e-08, -2.2698262824860328e-08, 2.75589986387114e-08, 3.171684070935051e-08, -1.3988872282767729e-09, -2.5581318396917556e-08, -3.0409264439867984e-08, -3.5306904067056613e-09, 1.0553828921899562e-08, -1.3013836230868012e-08, 2.9952613722637e-09, 1.807673299936141e-08, -6.0521765377074826e-09, -2.743538907168391e-08, -2.2700103130546052e-08, 5.189189522525295e-08, -4.8736460200871304e-08, 3.945902449231643e-08, 3.988770203022802e-08, -1.1366979357773748e-08, -1.509918945430415e-08, 1.0926940241518063e-08, 7.69794041843848e-08, -2.670341636701345e-08], [1.693820728122073e-08, -1.0875751854655307e-08, -1.787375580874841e-08, -5.2933440741751824e-08, -1.0210206013994926e-08, 1.4593801722640614e-08, -2.87892767403267e-08, -2.2698262824860328e-08, 2.75589986387114e-08, 3.171684070935051e-08, -1.3988872282767729e-09, -2.5581318396917556e-08, -3.0409264439867984e-08, -3.5306904067056613e-09, 1.0553828921899562e-08, -1.3013836230868012e-08, 2.9952613722637e-09, 1.807673299936141e-08, -6.0521765377074826e-09, -2.743538907168391e-08, -2.2700103130546052e-08, 5.189189522525295e-08, -4.8736460200871304e-08, 3.945902449231643e-08, 3.988770203022802e-08, -1.1366979357773748e-08, -1.509918945430415e-08, 1.0926940241518063e-08, 7.69794041843848e-08, -2.670341636701345e-08], [1.693820728122073e-08, -1.0875751854655307e-08, -1.787375580874841e-08, -5.2933440741751824e-08, -1.0210206013994926e-08, 1.4593801722640614e-08, -2.87892767403267e-08, -2.2698262824860328e-08, 2.75589986387114e-08, 3.171684070935051e-08, -1.3988872282767729e-09, -2.5581318396917556e-08, -3.0409264439867984e-08, -3.5306904067056613e-09, 1.0553828921899562e-08, -1.3013836230868012e-08, 2.9952613722636996e-09, 1.807673299936141e-08, -6.0521765377074826e-09, -2.743538907168391e-08, -2.2700103130546052e-08, 5.189189522525295e-08, -4.8736460200871304e-08, 3.945902449231643e-08, 3.988770203022802e-08, -1.1366979357773748e-08, -1.509918945430415e-08, 1.0926940241518063e-08, 7.69794041843848e-08, -2.670341636701345e-08], [-0.005073849823593832, 0.004163753244782854, -0.0011918401653728758, -0.004494033223700373, 0.0030802987057461646, -0.0003893324765001755, -0.0003263859906798157, 0.0007762657821132018, 0.000716140520898232, -0.002406858728761481, -0.0019541309953661806, 0.0007980346001366106, 0.0013930262275137924, 0.003869183234493961, -0.0007515998682591337, 0.0011727151409684743, 0.00037157131685633334, 0.0003740669808147312, -0.0007619845674037166, -0.00031947697879291116, 0.0005944068358948348, 0.00035050203267458167, 0.0009768006997550786, -6.110173459289371e-05, 0.00043282948460917047, 0.0002890231394952812, -0.0004790183736662639, -7.114743989450524e-05, 0.0003982782188746724, 0.0002799946525704488], [-0.0028432767430562867, 0.0035152720468323182, 0.004043976116078495, -0.00040500352933500413, 0.005966159765098304, -0.0022943565964415502, 0.0003228748029745573, -0.0018281217239523642, 0.0013840618724897244, 0.0013187174809876267, -0.000225105486865736, -0.00010802224909451757, -0.0010493067399717697, -0.0001946895285320424, -0.0021266049727033955, 5.223101156335779e-05, -0.000527674360549314, 0.0008280621109884256, -0.0010103140351096055, -0.001111128821359393, 0.0004958526102067527, 0.0013518704124682265, 0.0005557994610728963, -0.0005516697968600868, 0.00022944083871192288, -0.0006142225751854417, 0.00018036404472835817, 0.000119378771858767, 0.0008083743412591796, 0.000966406139526984], [1.693820728122073e-08, -1.0875751854655307e-08, -1.7873755808748414e-08, -5.2933440741751824e-08, -1.0210206013994926e-08, 1.4593801722640614e-08, -2.87892767403267e-08, -2.2698262824860328e-08, 2.75589986387114e-08, 3.171684070935051e-08, -1.3988872282767729e-09, -2.5581318396917556e-08, -3.0409264439867984e-08, -3.5306904067056613e-09, 1.0553828921899562e-08, -1.3013836230868012e-08, 2.9952613722636996e-09, 1.807673299936141e-08, -6.0521765377074826e-09, -2.743538907168391e-08, -2.2700103130546052e-08, 5.189189522525295e-08, -4.8736460200871304e-08, 3.945902449231643e-08, 3.988770203022802e-08, -1.1366979357773748e-08, -1.509918945430415e-08, 1.0926940241518063e-08, 7.69794041843848e-08, -2.670341636701345e-08], [1.6938207281220728e-08, -1.0875751854655307e-08, -1.7873755808748414e-08, -5.2933440741751824e-08, -1.0210206013994926e-08, 1.4593801722640614e-08, -2.87892767403267e-08, -2.2698262824860328e-08, 2.75589986387114e-08, 3.171684070935051e-08, -1.3988872282767729e-09, -2.5581318396917556e-08, -3.0409264439867984e-08, -3.5306904067056613e-09, 1.0553828921899562e-08, -1.3013836230868012e-08, 2.9952613722636992e-09, 1.807673299936141e-08, -6.0521765377074826e-09, -2.743538907168391e-08, -2.2700103130546052e-08, 5.189189522525295e-08, -4.8736460200871304e-08, 3.945902449231643e-08, 3.988770203022802e-08, -1.1366979357773748e-08, -1.509918945430415e-08, 1.0926940241518063e-08, 7.69794041843848e-08, -2.670341636701345e-08], [1.6938207281220728e-08, -1.0875751854655307e-08, -1.7873755808748414e-08, -5.2933440741751824e-08, -1.0210206013994926e-08, 1.4593801722640614e-08, -2.87892767403267e-08, -2.2698262824860328e-08, 2.75589986387114e-08, 3.171684070935051e-08, -1.3988872282767729e-09, -2.5581318396917556e-08, -3.0409264439867984e-08, -3.5306904067056613e-09, 1.0553828921899562e-08, -1.3013836230868012e-08, 2.9952613722636992e-09, 1.807673299936141e-08, -6.0521765377074826e-09, -2.743538907168391e-08, -2.2700103130546052e-08, 5.189189522525295e-08, -4.8736460200871304e-08, 3.945902449231643e-08, 3.988770203022802e-08, -1.1366979357773748e-08, -1.509918945430415e-08, 1.0926940241518063e-08, 7.69794041843848e-08, -2.670341636701345e-08], [1.6938207281220728e-08, -1.0875751854655307e-08, -1.7873755808748414e-08, -5.2933440741751824e-08, -1.0210206013994926e-08, 1.4593801722640614e-08, -2.87892767403267e-08, -2.2698262824860328e-08, 2.75589986387114e-08, 3.171684070935051e-08, -1.3988872282767729e-09, -2.5581318396917556e-08, -3.0409264439867984e-08, -3.5306904067056613e-09, 1.0553828921899562e-08, -1.3013836230868012e-08, 2.9952613722636992e-09, 1.807673299936141e-08, -6.0521765377074826e-09, -2.743538907168391e-08, -2.2700103130546052e-08, 5.189189522525295e-08, -4.8736460200871304e-08, 3.945902449231643e-08, 3.988770203022802e-08, -1.1366979357773748e-08, -1.509918945430415e-08, 1.0926940241518063e-08, 7.69794041843848e-08, -2.670341636701345e-08], [1.6938207281220728e-08, -1.0875751854655307e-08, -1.7873755808748414e-08, -5.2933440741751824e-08, -1.0210206013994926e-08, 1.4593801722640613e-08, -2.87892767403267e-08, -2.2698262824860328e-08, 2.75589986387114e-08, 3.171684070935051e-08, -1.3988872282767729e-09, -2.5581318396917556e-08, -3.0409264439867984e-08, -3.5306904067056613e-09, 1.0553828921899562e-08, -1.3013836230868012e-08, 2.9952613722636992e-09, 1.807673299936141e-08, -6.0521765377074826e-09, -2.743538907168391e-08, -2.2700103130546052e-08, 5.189189522525295e-08, -4.8736460200871304e-08, 3.945902449231643e-08, 3.988770203022802e-08, -1.1366979357773748e-08, -1.509918945430415e-08, 1.0926940241518063e-08, 7.69794041843848e-08, -2.670341636701345e-08], [1.6938207281220728e-08, -1.0875751854655307e-08, -1.7873755808748414e-08, -5.2933440741751824e-08, -1.0210206013994926e-08, 1.4593801722640613e-08, -2.87892767403267e-08, -2.2698262824860328e-08, 2.75589986387114e-08, 3.171684070935051e-08, -1.3988872282767729e-09, -2.5581318396917556e-08, -3.0409264439867984e-08, -3.5306904067056613e-09, 1.0553828921899562e-08, -1.3013836230868012e-08, 2.9952613722636992e-09, 1.807673299936141e-08, -6.0521765377074826e-09, -2.743538907168391e-08, -2.2700103130546052e-08, 5.189189522525295e-08, -4.8736460200871304e-08, 3.945902449231643e-08, 3.988770203022802e-08, -1.1366979357773748e-08, -1.509918945430415e-08, 1.0926940241518063e-08, 7.69794041843848e-08, -2.670341636701345e-08], [1.6938207281220724e-08, -1.0875751854655307e-08, -1.7873755808748414e-08, -5.2933440741751824e-08, -1.0210206013994926e-08, 1.4593801722640613e-08, -2.87892767403267e-08, -2.2698262824860328e-08, 2.75589986387114e-08, 3.171684070935051e-08, -1.3988872282767729e-09, -2.5581318396917556e-08, -3.0409264439867984e-08, -3.5306904067056613e-09, 1.0553828921899562e-08, -1.3013836230868012e-08, 2.995261372263699e-09, 1.807673299936141e-08, -6.0521765377074826e-09, -2.743538907168391e-08, -2.2700103130546052e-08, 5.189189522525295e-08, -4.8736460200871304e-08, 3.945902449231643e-08, 3.988770203022802e-08, -1.1366979357773748e-08, -1.509918945430415e-08, 1.0926940241518063e-08, 7.69794041843848e-08, -2.670341636701345e-08], [1.6938207281220724e-08, -1.0875751854655307e-08, -1.7873755808748414e-08, -5.2933440741751824e-08, -1.0210206013994926e-08, 1.4593801722640613e-08, -2.87892767403267e-08, -2.2698262824860328e-08, 2.75589986387114e-08, 3.171684070935051e-08, -1.3988872282767727e-09, -2.5581318396917556e-08, -3.0409264439867984e-08, -3.5306904067056613e-09, 1.0553828921899562e-08, -1.3013836230868012e-08, 2.995261372263699e-09, 1.807673299936141e-08, -6.0521765377074826e-09, -2.743538907168391e-08, -2.2700103130546052e-08, 5.189189522525295e-08, -4.8736460200871304e-08, 3.945902449231643e-08, 3.988770203022802e-08, -1.1366979357773748e-08, -1.509918945430415e-08, 1.0926940241518063e-08, 7.69794041843848e-08, -2.670341636701345e-08], [1.6938207281220724e-08, -1.0875751854655307e-08, -1.7873755808748414e-08, -5.2933440741751824e-08, -1.0210206013994926e-08, 1.4593801722640613e-08, -2.87892767403267e-08, -2.2698262824860328e-08, 2.75589986387114e-08, 3.171684070935051e-08, -1.3988872282767727e-09, -2.5581318396917556e-08, -3.0409264439867984e-08, -3.5306904067056613e-09, 1.0553828921899562e-08, -1.3013836230868012e-08, 2.995261372263699e-09, 1.807673299936141e-08, -6.0521765377074826e-09, -2.743538907168391e-08, -2.2700103130546052e-08, 5.189189522525295e-08, -4.8736460200871304e-08, 3.945902449231643e-08, 3.988770203022802e-08, -1.1366979357773748e-08, -1.509918945430415e-08, 1.0926940241518063e-08, 7.69794041843848e-08, -2.670341636701345e-08], [0.0032325837696789675, -0.0006436673880686199, 1.9420338922091852e-05, 5.577384302569765e-05, 1.7298663469369152e-05, -0.00011983343789251121, 2.7930564670234123e-05, 4.483666142059049e-05, 0.00012652109022338908, -2.4692010435815793e-05, -0.00010953499883195851, -8.975124764205465e-05, 3.897564815477061e-06, 3.2691375461010484e-05, 1.0427698054683928e-05, -6.774085764383904e-05, -3.787799823459928e-05, 3.704166472446559e-05, 7.609819228769905e-06, -7.766670901188369e-06, -5.3757237903198606e-05, 6.06204432635451e-05, -7.319897402018097e-06, -3.291133058398328e-05, -4.730849168376406e-06, 7.956518261307569e-06, 1.3844157700171942e-05, -1.9337755138878824e-05, 1.971100446673451e-05, -2.1860950458492677e-06], [-0.012322513391112918, -0.0002465179370073032, -0.0017271879495436378, -0.0010183346588014184, 0.0005255831560770771, -0.0010474970973337867, -0.0014492358260292056, -0.0005686990837331004, -0.00024784582063370634, -0.00024189570129618483, 0.0008611010316927995, 0.0005422440053698523, -9.47894890394394e-06, -1.427113034923425e-05, -0.00021371260185858238, 0.0004915561109666321, 0.0006115896421003531, -0.00013955663310031142, -0.00029117305556101167, 0.00019943397393186793, 0.000395104977813795, -0.0004990157575111997, -0.00014605998499872956, 9.424217889528905e-05, 0.00018449676849541287, -2.885090166063573e-05, 8.9810664254929e-05, -4.503578226302712e-05, 4.167881821791813e-06, -4.5080410806818825e-06], [-0.02003114495505237, 0.005122933367307581, 0.005442835357343355, 0.0017765410961650668, -0.0040923638942660465, 0.003796489282212187, -0.0042356243227416055, 0.00529730479258499, -0.0070945888152690335, -0.004533069922366543, -0.007325295129949486, -2.7542124716936314e-05, -0.0016791249993541963, 0.0006868008568442283, 0.002213760117144813, 0.0012871956496970465, 0.0014607210583677975, -0.0002699112040586078, -0.0013844311709102274, 0.0020397172009226907, -0.0012909453238572376, 0.0023117547464790206, -0.0033044180284031847, -0.002504369419486494, -0.0005273355171965864, 0.0003414200709442811, -7.862353239586143e-05, 0.0023954161317217676, 0.00010296433404786997, 0.0018728292345822845], [1.6938207281220665e-08, -1.0875751854655307e-08, -1.7873755808748434e-08, -5.2933440741751844e-08, -1.0210206013994918e-08, 1.4593801722640606e-08, -2.8789276740326697e-08, -2.269826282486033e-08, 2.755899863871139e-08, 3.171684070935051e-08, -1.3988872282767716e-09, -2.5581318396917546e-08, -3.040926443986798e-08, -3.530690406705661e-09, 1.0553828921899565e-08, -1.3013836230868015e-08, 2.995261372263691e-09, 1.8076732999361408e-08, -6.0521765377074826e-09, -2.7435389071683907e-08, -2.2700103130546052e-08, 5.189189522525295e-08, -4.8736460200871304e-08, 3.945902449231643e-08, 3.988770203022802e-08, -1.1366979357773753e-08, -1.509918945430415e-08, 1.0926940241518061e-08, 7.69794041843848e-08, -2.6703416367013448e-08], [1.6938207281220642e-08, -1.0875751854655308e-08, -1.787375580874844e-08, -5.293344074175185e-08, -1.0210206013994915e-08, 1.4593801722640605e-08, -2.8789276740326697e-08, -2.269826282486033e-08, 2.7558998638711386e-08, 3.171684070935051e-08, -1.398887228276771e-09, -2.5581318396917543e-08, -3.040926443986798e-08, -3.5306904067056605e-09, 1.0553828921899565e-08, -1.3013836230868017e-08, 2.9952613722636872e-09, 1.8076732999361408e-08, -6.0521765377074826e-09, -2.7435389071683907e-08, -2.2700103130546056e-08, 5.189189522525295e-08, -4.8736460200871304e-08, 3.945902449231643e-08, 3.988770203022802e-08, -1.1366979357773755e-08, -1.509918945430415e-08, 1.0926940241518061e-08, 7.69794041843848e-08, -2.6703416367013448e-08], [-0.00373425445150217, 0.004651540190302118, -0.004077420153161513, 0.0026902737037406183, 0.012337208751811806, -0.0021384404911281045, -0.002278199508473875, 7.857138007387242e-05, -0.00021978274074125378, 0.0028692060003091915, -0.00023199253245101322, -0.0007246512514350084, -0.0003960832991112655, 6.028301987963304e-05, -0.0013809367442821703, -0.0003210163297639873, 0.002155473049248054, 0.0005029822460953861, 0.00015483227057066801, -0.0015102886672685783, -0.000775957643459178, 0.00048157618652114727, -0.00017549804451586623, -0.0002679631566615859, 0.0005009868185253087, 0.00010991011045859585, -0.000157287460564592, 0.0003996481490898193, 0.000278612651819118, 0.00015277243746878886], [-0.009540316815083617, 0.005214018354978598, 0.0006258084610821685, 0.0010394374502361756, 0.0025886864979063656, 0.009595996537660207, 0.0052860284193374015, -0.0062427796460215014, -0.0026388963068287165, -0.0019000026013064016, 0.001973139677526377, 0.001212275694416403, 0.0015379342909824102, -0.0017920680821382434, 0.00020730959847874543, 0.0002365771854267166, 0.0012273632389517939, 0.0010052366725961926, 0.0006796192187044622, -0.000780769679144069, -0.0019927598605911424, -0.001000978376223212, -0.00034640669699065297, 0.0016627498834676697, -0.001139016396423358, -0.0001914749323348976, -0.0011408569742985901, 0.0013832318560640013, -0.0003007768248011794, 0.00030744292093440935], [1.693820728122056e-08, -1.0875751854655308e-08, -1.7873755808748467e-08, -5.293344074175187e-08, -1.0210206013994905e-08, 1.4593801722640595e-08, -2.878927674032669e-08, -2.2698262824860335e-08, 2.7558998638711373e-08, 3.17168407093505e-08, -1.3988872282767691e-09, -2.5581318396917533e-08, -3.040926443986798e-08, -3.5306904067056596e-09, 1.0553828921899568e-08, -1.3013836230868024e-08, 2.9952613722636765e-09, 1.8076732999361408e-08, -6.0521765377074826e-09, -2.7435389071683907e-08, -2.2700103130546056e-08, 5.1891895225252956e-08, -4.87364602008713e-08, 3.945902449231643e-08, 3.988770203022802e-08, -1.136697935777376e-08, -1.5099189454304145e-08, 1.092694024151806e-08, 7.69794041843848e-08, -2.6703416367013445e-08], [1.693820728122053e-08, -1.0875751854655308e-08, -1.7873755808748474e-08, -5.2933440741751877e-08, -1.0210206013994901e-08, 1.4593801722640591e-08, -2.878927674032669e-08, -2.2698262824860338e-08, 2.7558998638711366e-08, 3.17168407093505e-08, -1.3988872282767685e-09, -2.5581318396917526e-08, -3.040926443986798e-08, -3.5306904067056596e-09, 1.0553828921899568e-08, -1.3013836230868025e-08, 2.9952613722636723e-09, 1.8076732999361408e-08, -6.052176537707483e-09, -2.7435389071683907e-08, -2.270010313054606e-08, 5.1891895225252956e-08, -4.87364602008713e-08, 3.945902449231643e-08, 3.988770203022802e-08, -1.1366979357773762e-08, -1.5099189454304145e-08, 1.092694024151806e-08, 7.69794041843848e-08, -2.6703416367013445e-08], [1.69382072812205e-08, -1.0875751854655308e-08, -1.7873755808748484e-08, -5.293344074175188e-08, -1.0210206013994898e-08, 1.4593801722640588e-08, -2.8789276740326687e-08, -2.2698262824860338e-08, 2.7558998638711363e-08, 3.17168407093505e-08, -1.3988872282767681e-09, -2.5581318396917523e-08, -3.040926443986798e-08, -3.5306904067056592e-09, 1.055382892189957e-08, -1.3013836230868027e-08, 2.9952613722636682e-09, 1.8076732999361408e-08, -6.052176537707483e-09, -2.7435389071683907e-08, -2.270010313054606e-08, 5.189189522525296e-08, -4.87364602008713e-08, 3.945902449231643e-08, 3.988770203022802e-08, -1.1366979357773763e-08, -1.5099189454304142e-08, 1.092694024151806e-08, 7.69794041843848e-08, -2.670341636701344e-08], [1.693820728122047e-08, -1.0875751854655308e-08, -1.7873755808748494e-08, -5.293344074175189e-08, -1.0210206013994895e-08, 1.4593801722640585e-08, -2.8789276740326687e-08, -2.2698262824860338e-08, 2.7558998638711356e-08, 3.17168407093505e-08, -1.3988872282767675e-09, -2.558131839691752e-08, -3.040926443986798e-08, -3.5306904067056592e-09, 1.0553828921899572e-08, -1.3013836230868029e-08, 2.9952613722636645e-09, 1.8076732999361408e-08, -6.052176537707483e-09, -2.7435389071683904e-08, -2.270010313054606e-08, 5.189189522525296e-08, -4.873646020087129e-08, 3.945902449231643e-08, 3.9887702030228016e-08, -1.1366979357773765e-08, -1.5099189454304142e-08, 1.0926940241518058e-08, 7.69794041843848e-08, -2.670341636701344e-08], [1.6938207281220443e-08, -1.087575185465531e-08, -1.78737558087485e-08, -5.2933440741751897e-08, -1.0210206013994891e-08, 1.4593801722640581e-08, -2.8789276740326684e-08, -2.269826282486034e-08, 2.7558998638711353e-08, 3.17168407093505e-08, -1.3988872282767669e-09, -2.5581318396917516e-08, -3.040926443986798e-08, -3.530690406705659e-09, 1.0553828921899572e-08, -1.301383623086803e-08, 2.9952613722636604e-09, 1.8076732999361408e-08, -6.052176537707483e-09, -2.7435389071683904e-08, -2.270010313054606e-08, 5.189189522525296e-08, -4.873646020087129e-08, 3.945902449231643e-08, 3.9887702030228016e-08, -1.1366979357773767e-08, -1.5099189454304142e-08, 1.0926940241518058e-08, 7.69794041843848e-08, -2.6703416367013438e-08], [-0.0038983110849721385, 0.005466856866233929, 0.0003772303592630006, -0.003536310599008897, 0.0020855252168328134, -0.0030735750592863578, 0.0017029501381115785, 0.0007315267443128602, -0.0033705582245381798, 0.001254955174119593, -0.0018119590883294103, 2.434792997214423e-06, 0.001699755462009874, -0.0001866845947345462, -0.0016840980362193424, -0.0006675224770106964, 0.0006747175211200755, 0.0002571400440182216, 0.00011867831576861387, -0.00031876639998505945, 0.0010437179261156583, -0.00015750144600146685, -0.0017220960185037207, -0.0007163442103559934, 0.0013229265229624605, 0.00041720695744352837, 0.0002615595406881305, -0.0013658850220481101, -0.0006087071560998784, 0.0010971927224830503], [-0.019937705225385145, 0.0038294873276795874, 0.0012261935426391129, 0.010951151277912007, -0.008531632172401481, -0.003328706705770167, 0.005372925227472236, 0.007502816634457043, -0.00532762507820429, -0.000889607683026876, -0.004466426177701067, 0.0015341897770645935, -0.0038455412018584306, -0.0009292794447789705, -0.001742857976312266, -0.0004925379463716849, 0.0011010239819629673, -0.0027602594634757623, 0.004162940388748827, -0.00042466014027339955, 0.0015202369896500747, 0.0010523367775954475, 0.00021130454496727603, -0.001355612586450305, 0.0019520458536062906, -0.0011066811546757876, -0.0005180236419664493, 0.0012841610413836025, -0.0014550079640772648, -0.0026936522685855743], [1.6938207281220354e-08, -1.087575185465531e-08, -1.7873755808748527e-08, -5.293344074175192e-08, -1.021020601399488e-08, 1.4593801722640573e-08, -2.878927674032668e-08, -2.2698262824860344e-08, 2.755899863871134e-08, 3.17168407093505e-08, -1.398887228276765e-09, -2.5581318396917503e-08, -3.040926443986798e-08, -3.5306904067056584e-09, 1.0553828921899575e-08, -1.3013836230868037e-08, 2.9952613722636488e-09, 1.8076732999361408e-08, -6.052176537707483e-09, -2.7435389071683904e-08, -2.2700103130546062e-08, 5.189189522525297e-08, -4.873646020087129e-08, 3.945902449231643e-08, 3.9887702030228016e-08, -1.1366979357773773e-08, -1.509918945430414e-08, 1.0926940241518056e-08, 7.697940418438482e-08, -2.6703416367013435e-08], [1.6938207281220324e-08, -1.087575185465531e-08, -1.7873755808748537e-08, -5.293344074175193e-08, -1.0210206013994876e-08, 1.459380172264057e-08, -2.8789276740326677e-08, -2.2698262824860344e-08, 2.7558998638711333e-08, 3.17168407093505e-08, -1.3988872282767644e-09, -2.55813183969175e-08, -3.040926443986797e-08, -3.530690406705658e-09, 1.0553828921899577e-08, -1.3013836230868039e-08, 2.9952613722636446e-09, 1.8076732999361408e-08, -6.052176537707483e-09, -2.7435389071683904e-08, -2.2700103130546062e-08, 5.189189522525297e-08, -4.8736460200871284e-08, 3.945902449231643e-08, 3.9887702030228016e-08, -1.1366979357773775e-08, -1.509918945430414e-08, 1.0926940241518056e-08, 7.697940418438482e-08, -2.6703416367013435e-08], [1.6938207281220294e-08, -1.087575185465531e-08, -1.7873755808748547e-08, -5.2933440741751936e-08, -1.0210206013994873e-08, 1.4593801722640566e-08, -2.8789276740326677e-08, -2.2698262824860344e-08, 2.755899863871133e-08, 3.17168407093505e-08, -1.3988872282767638e-09, -2.5581318396917496e-08, -3.040926443986797e-08, -3.530690406705658e-09, 1.0553828921899577e-08, -1.301383623086804e-08, 2.995261372263641e-09, 1.8076732999361408e-08, -6.052176537707483e-09, -2.74353890716839e-08, -2.2700103130546062e-08, 5.189189522525297e-08, -4.8736460200871284e-08, 3.945902449231643e-08, 3.9887702030228016e-08, -1.1366979357773777e-08, -1.509918945430414e-08, 1.0926940241518054e-08, 7.697940418438482e-08, -2.6703416367013435e-08], [-0.0036955917377608062, 0.00918435829519595, 0.00638624975279519, -0.002521860872313321, -0.0022589947046656464, -0.003642941710635761, 0.004595312228517784, 0.0006815273007642528, -0.0007066338229100411, 0.0023458410998814854, 0.0025006762818919896, 0.0017604156819654515, -0.00018493407595213907, -0.0001662820346682241, 4.396909243543544e-06, -3.44787405980119e-05, 5.231859795139392e-05, -0.0007576447521925128, -0.0003904534520166734, -0.0004198147689609913, 0.0006893636462308389, 0.0007940440242006377, 0.00040847212580354206, 0.0003852206569052672, -0.0007505124765141244, 0.0006652136355278713, 0.00010651553422168874, 0.00022151566847323308, -0.0004613572058843414, 0.00013606694527022864], [1.6938207281218508e-08, -1.0875751854655327e-08, -1.7873755808749096e-08, -5.293344074175239e-08, -1.0210206013994656e-08, 1.4593801722640368e-08, -2.8789276740326575e-08, -2.2698262824860417e-08, 2.7558998638711035e-08, 3.171684070935046e-08, -1.398887228276726e-09, -2.5581318396917248e-08, -3.040926443986794e-08, -3.530690406705644e-09, 1.0553828921899641e-08, -1.3013836230868163e-08, 2.995261372263399e-09, 1.8076732999361398e-08, -6.0521765377074875e-09, -2.743538907168387e-08, -2.270010313054611e-08, 5.189189522525306e-08, -4.87364602008712e-08, 3.945902449231643e-08, 3.9887702030227976e-08, -1.136697935777389e-08, -1.509918945430409e-08, 1.0926940241518023e-08, 7.697940418438487e-08, -2.670341636701336e-08], [1.693820728121725e-08, -1.0875751854655338e-08, -1.7873755808749483e-08, -5.293344074175272e-08, -1.0210206013994504e-08, 1.4593801722640229e-08, -2.8789276740326505e-08, -2.269826282486047e-08, 2.755899863871083e-08, 3.1716840709350436e-08, -1.3988872282766995e-09, -2.5581318396917073e-08, -3.040926443986791e-08, -3.530690406705634e-09, 1.0553828921899686e-08, -1.3013836230868247e-08, 2.9952613722632286e-09, 1.807673299936139e-08, -6.05217653770749e-09, -2.743538907168385e-08, -2.270010313054614e-08, 5.189189522525312e-08, -4.873646020087113e-08, 3.945902449231644e-08, 3.988770203022794e-08, -1.136697935777397e-08, -1.5099189454304052e-08, 1.0926940241518001e-08, 7.697940418438492e-08, -2.6703416367013306e-08], [1.6938207281216347e-08, -1.0875751854655346e-08, -1.7873755808749758e-08, -5.293344074175295e-08, -1.0210206013994393e-08, 1.459380172264013e-08, -2.8789276740326452e-08, -2.2698262824860507e-08, 2.755899863871068e-08, 3.1716840709350416e-08, -1.3988872282766804e-09, -2.5581318396916947e-08, -3.040926443986789e-08, -3.530690406705627e-09, 1.0553828921899717e-08, -1.3013836230868308e-08, 2.9952613722631066e-09, 1.8076732999361385e-08, -6.052176537707492e-09, -2.7435389071683838e-08, -2.270010313054616e-08, 5.189189522525317e-08, -4.8736460200871086e-08, 3.945902449231644e-08, 3.988770203022792e-08, -1.1366979357774028e-08, -1.5099189454304026e-08, 1.0926940241517985e-08, 7.697940418438495e-08, -2.670341636701327e-08], [1.69382072812157e-08, -1.0875751854655351e-08, -1.787375580874996e-08, -5.2933440741753114e-08, -1.0210206013994316e-08, 1.4593801722640059e-08, -2.8789276740326416e-08, -2.2698262824860533e-08, 2.7558998638710575e-08, 3.1716840709350396e-08, -1.3988872282766668e-09, -2.5581318396916858e-08, -3.040926443986788e-08, -3.5306904067056216e-09, 1.055382892189974e-08, -1.3013836230868353e-08, 2.995261372263019e-09, 1.807673299936138e-08, -6.052176537707493e-09, -2.7435389071683825e-08, -2.2700103130546178e-08, 5.18918952252532e-08, -4.873646020087105e-08, 3.945902449231644e-08, 3.988770203022791e-08, -1.136697935777407e-08, -1.509918945430401e-08, 1.0926940241517973e-08, 7.697940418438498e-08, -2.6703416367013243e-08], [1.6938207281215232e-08, -1.0875751854655356e-08, -1.7873755808750102e-08, -5.293344074175323e-08, -1.021020601399426e-08, 1.4593801722640007e-08, -2.878927674032639e-08, -2.2698262824860553e-08, 2.7558998638710496e-08, 3.171684070935039e-08, -1.3988872282766569e-09, -2.558131839691679e-08, -3.040926443986787e-08, -3.530690406705618e-09, 1.0553828921899757e-08, -1.3013836230868384e-08, 2.995261372262956e-09, 1.8076732999361378e-08, -6.052176537707494e-09, -2.7435389071683818e-08, -2.2700103130546188e-08, 5.189189522525322e-08, -4.873646020087103e-08, 3.9459024492316444e-08, 3.9887702030227897e-08, -1.1366979357774099e-08, -1.5099189454303996e-08, 1.0926940241517965e-08, 7.697940418438499e-08, -2.6703416367013223e-08], [1.69382072812149e-08, -1.0875751854655358e-08, -1.7873755808750204e-08, -5.293344074175332e-08, -1.0210206013994218e-08, 1.459380172263997e-08, -2.878927674032637e-08, -2.2698262824860566e-08, 2.7558998638710443e-08, 3.171684070935038e-08, -1.3988872282766498e-09, -2.5581318396916745e-08, -3.0409264439867865e-08, -3.5306904067056154e-09, 1.0553828921899769e-08, -1.3013836230868406e-08, 2.995261372262911e-09, 1.8076732999361375e-08, -6.052176537707495e-09, -2.743538907168381e-08, -2.2700103130546198e-08, 5.189189522525324e-08, -4.873646020087101e-08, 3.9459024492316444e-08, 3.988770203022789e-08, -1.1366979357774119e-08, -1.5099189454303986e-08, 1.0926940241517958e-08, 7.6979404184385e-08, -2.670341636701321e-08], [1.693820728121466e-08, -1.0875751854655361e-08, -1.7873755808750277e-08, -5.293344074175338e-08, -1.021020601399419e-08, 1.4593801722639943e-08, -2.8789276740326356e-08, -2.2698262824860576e-08, 2.7558998638710403e-08, 3.1716840709350376e-08, -1.3988872282766449e-09, -2.5581318396916712e-08, -3.040926443986786e-08, -3.5306904067056137e-09, 1.0553828921899777e-08, -1.3013836230868422e-08, 2.9952613722628783e-09, 1.8076732999361375e-08, -6.052176537707495e-09, -2.7435389071683808e-08, -2.27001031305462e-08, 5.189189522525325e-08, -4.8736460200871006e-08, 3.9459024492316444e-08, 3.9887702030227883e-08, -1.1366979357774136e-08, -1.509918945430398e-08, 1.0926940241517955e-08, 7.6979404184385e-08, -2.67034163670132e-08], [1.6938207281214488e-08, -1.0875751854655363e-08, -1.787375580875033e-08, -5.2933440741753425e-08, -1.0210206013994168e-08, 1.4593801722639925e-08, -2.8789276740326346e-08, -2.2698262824860583e-08, 2.7558998638710377e-08, 3.171684070935037e-08, -1.3988872282766411e-09, -2.558131839691669e-08, -3.040926443986785e-08, -3.530690406705612e-09, 1.0553828921899784e-08, -1.3013836230868434e-08, 2.995261372262855e-09, 1.8076732999361375e-08, -6.052176537707496e-09, -2.7435389071683805e-08, -2.2700103130546208e-08, 5.189189522525326e-08, -4.873646020087099e-08, 3.9459024492316444e-08, 3.9887702030227883e-08, -1.1366979357774145e-08, -1.5099189454303976e-08, 1.0926940241517952e-08, 7.697940418438502e-08, -2.670341636701319e-08], [-0.01542226752170111, 0.00782580912926473, 0.005495039797874526, -0.012556352192534714, -0.0025998603043806898, 2.0331590722087032e-05, -0.006144898794148719, -0.0004946729218978286, 0.0020710747227915835, 0.00033305786034733785, 0.00255611433403821, 0.0008222780195472744, -0.002475778843647104, 0.001650157344676604, 0.0003755094865708976, 0.0014075160755372645, -0.00015072810720182647, -0.002786938456035139, -0.0001249113001467497, -0.00026907904014699817, -0.002074528743183887, -0.0008706539062687381, 0.0006689112017964513, -0.0013504763217047553, 0.0011711820517699412, 0.00015333950486750493, -0.0014783279386769166, 0.0007603685965773104, 0.0009469657706243021, -0.001770766914778533], [1.6938207281214054e-08, -1.0875751854655366e-08, -1.7873755808750462e-08, -5.293344074175354e-08, -1.0210206013994115e-08, 1.4593801722639877e-08, -2.8789276740326323e-08, -2.26982628248606e-08, 2.7558998638710304e-08, 3.171684070935036e-08, -1.398887228276632e-09, -2.558131839691663e-08, -3.0409264439867845e-08, -3.5306904067056088e-09, 1.0553828921899798e-08, -1.3013836230868464e-08, 2.9952613722627964e-09, 1.807673299936137e-08, -6.052176537707497e-09, -2.7435389071683798e-08, -2.2700103130546218e-08, 5.189189522525328e-08, -4.873646020087097e-08, 3.9459024492316444e-08, 3.988770203022787e-08, -1.1366979357774174e-08, -1.5099189454303963e-08, 1.0926940241517944e-08, 7.697940418438503e-08, -2.6703416367013173e-08], [1.6938207281214054e-08, -1.0875751854655366e-08, -1.7873755808750462e-08, -5.293344074175354e-08, -1.0210206013994115e-08, 1.4593801722639877e-08, -2.8789276740326323e-08, -2.26982628248606e-08, 2.7558998638710304e-08, 3.171684070935036e-08, -1.398887228276632e-09, -2.558131839691663e-08, -3.0409264439867845e-08, -3.5306904067056088e-09, 1.0553828921899798e-08, -1.3013836230868464e-08, 2.9952613722627964e-09, 1.807673299936137e-08, -6.052176537707497e-09, -2.7435389071683798e-08, -2.2700103130546218e-08, 5.189189522525328e-08, -4.873646020087097e-08, 3.9459024492316444e-08, 3.988770203022787e-08, -1.1366979357774174e-08, -1.5099189454303963e-08, 1.0926940241517944e-08, 7.697940418438503e-08, -2.6703416367013173e-08], [1.6938207281214054e-08, -1.0875751854655366e-08, -1.7873755808750462e-08, -5.293344074175354e-08, -1.0210206013994115e-08, 1.4593801722639877e-08, -2.8789276740326323e-08, -2.26982628248606e-08, 2.7558998638710304e-08, 3.171684070935036e-08, -1.398887228276632e-09, -2.558131839691663e-08, -3.0409264439867845e-08, -3.5306904067056088e-09, 1.0553828921899798e-08, -1.3013836230868464e-08, 2.9952613722627964e-09, 1.807673299936137e-08, -6.052176537707497e-09, -2.7435389071683798e-08, -2.2700103130546218e-08, 5.189189522525328e-08, -4.873646020087097e-08, 3.9459024492316444e-08, 3.988770203022787e-08, -1.1366979357774174e-08, -1.5099189454303963e-08, 1.0926940241517944e-08, 7.697940418438503e-08, -2.6703416367013173e-08], [1.6938207281214054e-08, -1.0875751854655366e-08, -1.7873755808750462e-08, -5.293344074175354e-08, -1.0210206013994115e-08, 1.4593801722639877e-08, -2.8789276740326323e-08, -2.26982628248606e-08, 2.7558998638710304e-08, 3.171684070935036e-08, -1.398887228276632e-09, -2.558131839691663e-08, -3.0409264439867845e-08, -3.5306904067056088e-09, 1.0553828921899798e-08, -1.3013836230868464e-08, 2.9952613722627964e-09, 1.807673299936137e-08, -6.052176537707497e-09, -2.7435389071683798e-08, -2.2700103130546218e-08, 5.189189522525328e-08, -4.873646020087097e-08, 3.9459024492316444e-08, 3.988770203022787e-08, -1.1366979357774174e-08, -1.5099189454303963e-08, 1.0926940241517944e-08, 7.697940418438503e-08, -2.6703416367013173e-08], [1.6938207281214054e-08, -1.0875751854655366e-08, -1.7873755808750462e-08, -5.293344074175354e-08, -1.0210206013994115e-08, 1.4593801722639877e-08, -2.8789276740326323e-08, -2.26982628248606e-08, 2.7558998638710304e-08, 3.171684070935036e-08, -1.398887228276632e-09, -2.558131839691663e-08, -3.0409264439867845e-08, -3.5306904067056088e-09, 1.0553828921899798e-08, -1.3013836230868464e-08, 2.9952613722627964e-09, 1.807673299936137e-08, -6.052176537707497e-09, -2.7435389071683798e-08, -2.2700103130546218e-08, 5.189189522525328e-08, -4.873646020087097e-08, 3.9459024492316444e-08, 3.988770203022787e-08, -1.1366979357774174e-08, -1.5099189454303963e-08, 1.0926940241517944e-08, 7.697940418438503e-08, -2.6703416367013173e-08], [1.6938207281214054e-08, -1.0875751854655366e-08, -1.7873755808750462e-08, -5.293344074175354e-08, -1.0210206013994115e-08, 1.4593801722639877e-08, -2.8789276740326323e-08, -2.26982628248606e-08, 2.7558998638710304e-08, 3.171684070935036e-08, -1.398887228276632e-09, -2.558131839691663e-08, -3.0409264439867845e-08, -3.5306904067056088e-09, 1.0553828921899798e-08, -1.3013836230868464e-08, 2.9952613722627964e-09, 1.807673299936137e-08, -6.052176537707497e-09, -2.7435389071683798e-08, -2.2700103130546218e-08, 5.189189522525328e-08, -4.873646020087097e-08, 3.9459024492316444e-08, 3.988770203022787e-08, -1.1366979357774174e-08, -1.5099189454303963e-08, 1.0926940241517944e-08, 7.697940418438503e-08, -2.6703416367013173e-08], [1.6938207281214054e-08, -1.0875751854655366e-08, -1.7873755808750462e-08, -5.293344074175354e-08, -1.0210206013994115e-08, 1.4593801722639877e-08, -2.8789276740326323e-08, -2.26982628248606e-08, 2.7558998638710304e-08, 3.171684070935036e-08, -1.398887228276632e-09, -2.558131839691663e-08, -3.0409264439867845e-08, -3.5306904067056088e-09, 1.0553828921899798e-08, -1.3013836230868464e-08, 2.9952613722627964e-09, 1.807673299936137e-08, -6.052176537707497e-09, -2.7435389071683798e-08, -2.2700103130546218e-08, 5.189189522525328e-08, -4.873646020087097e-08, 3.9459024492316444e-08, 3.988770203022787e-08, -1.1366979357774174e-08, -1.5099189454303963e-08, 1.0926940241517944e-08, 7.697940418438503e-08, -2.6703416367013173e-08], [1.6938207281214054e-08, -1.0875751854655366e-08, -1.7873755808750462e-08, -5.293344074175354e-08, -1.0210206013994115e-08, 1.4593801722639877e-08, -2.8789276740326323e-08, -2.26982628248606e-08, 2.7558998638710304e-08, 3.171684070935036e-08, -1.398887228276632e-09, -2.558131839691663e-08, -3.0409264439867845e-08, -3.5306904067056088e-09, 1.0553828921899798e-08, -1.3013836230868464e-08, 2.9952613722627964e-09, 1.807673299936137e-08, -6.052176537707497e-09, -2.7435389071683798e-08, -2.2700103130546218e-08, 5.189189522525328e-08, -4.873646020087097e-08, 3.9459024492316444e-08, 3.988770203022787e-08, -1.1366979357774174e-08, -1.5099189454303963e-08, 1.0926940241517944e-08, 7.697940418438503e-08, -2.6703416367013173e-08], [1.6938207281214054e-08, -1.0875751854655366e-08, -1.7873755808750462e-08, -5.293344074175354e-08, -1.0210206013994115e-08, 1.4593801722639877e-08, -2.8789276740326323e-08, -2.26982628248606e-08, 2.7558998638710304e-08, 3.171684070935036e-08, -1.398887228276632e-09, -2.558131839691663e-08, -3.0409264439867845e-08, -3.5306904067056088e-09, 1.0553828921899798e-08, -1.3013836230868464e-08, 2.9952613722627964e-09, 1.807673299936137e-08, -6.052176537707497e-09, -2.7435389071683798e-08, -2.2700103130546218e-08, 5.189189522525328e-08, -4.873646020087097e-08, 3.9459024492316444e-08, 3.988770203022787e-08, -1.1366979357774174e-08, -1.5099189454303963e-08, 1.0926940241517944e-08, 7.697940418438503e-08, -2.6703416367013173e-08], [1.6938207281214054e-08, -1.0875751854655366e-08, -1.7873755808750462e-08, -5.293344074175354e-08, -1.0210206013994115e-08, 1.4593801722639877e-08, -2.8789276740326323e-08, -2.26982628248606e-08, 2.7558998638710304e-08, 3.171684070935036e-08, -1.398887228276632e-09, -2.558131839691663e-08, -3.0409264439867845e-08, -3.5306904067056088e-09, 1.0553828921899798e-08, -1.3013836230868464e-08, 2.9952613722627964e-09, 1.807673299936137e-08, -6.052176537707497e-09, -2.7435389071683798e-08, -2.2700103130546218e-08, 5.189189522525328e-08, -4.873646020087097e-08, 3.9459024492316444e-08, 3.988770203022787e-08, -1.1366979357774174e-08, -1.5099189454303963e-08, 1.0926940241517944e-08, 7.697940418438503e-08, -2.6703416367013173e-08], [1.6938207281214054e-08, -1.0875751854655366e-08, -1.7873755808750462e-08, -5.293344074175354e-08, -1.0210206013994115e-08, 1.4593801722639877e-08, -2.8789276740326323e-08, -2.26982628248606e-08, 2.7558998638710304e-08, 3.171684070935036e-08, -1.398887228276632e-09, -2.558131839691663e-08, -3.0409264439867845e-08, -3.5306904067056088e-09, 1.0553828921899798e-08, -1.3013836230868464e-08, 2.9952613722627964e-09, 1.807673299936137e-08, -6.052176537707497e-09, -2.7435389071683798e-08, -2.2700103130546218e-08, 5.189189522525328e-08, -4.873646020087097e-08, 3.9459024492316444e-08, 3.988770203022787e-08, -1.1366979357774174e-08, -1.5099189454303963e-08, 1.0926940241517944e-08, 7.697940418438503e-08, -2.6703416367013173e-08], [1.6938207281214054e-08, -1.0875751854655366e-08, -1.7873755808750462e-08, -5.293344074175354e-08, -1.0210206013994115e-08, 1.4593801722639877e-08, -2.8789276740326323e-08, -2.26982628248606e-08, 2.7558998638710304e-08, 3.171684070935036e-08, -1.398887228276632e-09, -2.558131839691663e-08, -3.0409264439867845e-08, -3.5306904067056088e-09, 1.0553828921899798e-08, -1.3013836230868464e-08, 2.9952613722627964e-09, 1.807673299936137e-08, -6.052176537707497e-09, -2.7435389071683798e-08, -2.2700103130546218e-08, 5.189189522525328e-08, -4.873646020087097e-08, 3.9459024492316444e-08, 3.988770203022787e-08, -1.1366979357774174e-08, -1.5099189454303963e-08, 1.0926940241517944e-08, 7.697940418438503e-08, -2.6703416367013173e-08], [1.6938207281214054e-08, -1.0875751854655366e-08, -1.7873755808750462e-08, -5.293344074175354e-08, -1.0210206013994115e-08, 1.4593801722639877e-08, -2.8789276740326323e-08, -2.26982628248606e-08, 2.7558998638710304e-08, 3.171684070935036e-08, -1.398887228276632e-09, -2.558131839691663e-08, -3.0409264439867845e-08, -3.5306904067056088e-09, 1.0553828921899798e-08, -1.3013836230868464e-08, 2.9952613722627964e-09, 1.807673299936137e-08, -6.052176537707497e-09, -2.7435389071683798e-08, -2.2700103130546218e-08, 5.189189522525328e-08, -4.873646020087097e-08, 3.9459024492316444e-08, 3.988770203022787e-08, -1.1366979357774174e-08, -1.5099189454303963e-08, 1.0926940241517944e-08, 7.697940418438503e-08, -2.6703416367013173e-08], [1.6938207281214054e-08, -1.0875751854655366e-08, -1.7873755808750462e-08, -5.293344074175354e-08, -1.0210206013994115e-08, 1.4593801722639877e-08, -2.8789276740326323e-08, -2.26982628248606e-08, 2.7558998638710304e-08, 3.171684070935036e-08, -1.398887228276632e-09, -2.558131839691663e-08, -3.0409264439867845e-08, -3.5306904067056088e-09, 1.0553828921899798e-08, -1.3013836230868464e-08, 2.9952613722627964e-09, 1.807673299936137e-08, -6.052176537707497e-09, -2.7435389071683798e-08, -2.2700103130546218e-08, 5.189189522525328e-08, -4.873646020087097e-08, 3.9459024492316444e-08, 3.988770203022787e-08, -1.1366979357774174e-08, -1.5099189454303963e-08, 1.0926940241517944e-08, 7.697940418438503e-08, -2.6703416367013173e-08], [1.6938207281214054e-08, -1.0875751854655366e-08, -1.7873755808750462e-08, -5.293344074175354e-08, -1.0210206013994115e-08, 1.4593801722639877e-08, -2.8789276740326323e-08, -2.26982628248606e-08, 2.7558998638710304e-08, 3.171684070935036e-08, -1.398887228276632e-09, -2.558131839691663e-08, -3.0409264439867845e-08, -3.5306904067056088e-09, 1.0553828921899798e-08, -1.3013836230868464e-08, 2.9952613722627964e-09, 1.807673299936137e-08, -6.052176537707497e-09, -2.7435389071683798e-08, -2.2700103130546218e-08, 5.189189522525328e-08, -4.873646020087097e-08, 3.9459024492316444e-08, 3.988770203022787e-08, -1.1366979357774174e-08, -1.5099189454303963e-08, 1.0926940241517944e-08, 7.697940418438503e-08, -2.6703416367013173e-08]], "bgmm_covariances": [[3.2458938358960135e-05, 3.418629288008353e-05, 3.880228442699854e-05, 5.780152449070369e-05, 2.964112444645231e-05, 2.4908705285318452e-05, 1.7622225722309315e-05, 2.574625003061277e-05, 2.5758107153858414e-05, 1.5817356238947335e-05, 1.2390603561503207e-05, 1.3893801304495334e-05, 1.4329103627084528e-05, 1.0906557007633504e-05, 8.59318202278502e-06, 6.672856356235631e-06, 5.315585381033468e-06, 6.828756777651759e-06, 5.862190977536721e-06, 6.115182811312223e-06, 6.099667756897151e-06, 5.773580642229455e-06, 4.994186520545878e-06, 4.48930138136883e-06, 4.248193240164014e-06, 5.066158949523032e-06, 3.884781821981243e-06, 4.996087418554681e-06, 3.295976075991945e-06, 4.6092869836158116e-06], [2.3785505618434395e-06, 9.286218604150539e-07, 6.915306585142389e-07, 4.3822780450379164e-07, 3.815533091255929e-07, 3.298762142852259e-07, 2.0385694673071466e-07, 1.6252650614963696e-07, 1.2962921876654346e-07, 1.0027249572885927e-07, 8.4078540870299e-08, 7.64575588618755e-08, 6.465691058110685e-08, 5.581619764901316e-08, 5.324119835374107e-08, 4.5678223159484395e-08, 3.933203818936218e-08, 3.7614677239616935e-08, 3.523192996605461e-08, 3.1561201770576566e-08, 3.119781505726382e-08, 2.893926307478985e-08, 2.6799140565951114e-08, 2.521171988216042e-08, 2.2903814548650866e-08, 2.1945913886156703e-08, 2.0425693492143254e-08, 1.8916813360192535e-08, 1.734925945129369e-08, 1.7132045589581513e-08], [4.780520308660904e-06, 1.1939528609448763e-06, 1.3527661157623532e-06, 1.423068254939611e-06, 1.1820297271222512e-06, 1.538527454124748e-06, 7.658489904035019e-07, 8.293551355841532e-07, 4.4021145466003113e-07, 5.609958528129582e-07, 4.1503429484371315e-07, 3.913488246643248e-07, 3.630084379496992e-07, 3.361704245958131e-07, 2.591698205384365e-07, 2.2870570467026092e-07, 4.990490668449826e-07, 2.8320047630438423e-07, 2.671536097611432e-07, 2.6127863050272324e-07, 2.5739753400844435e-07, 2.9888653162269507e-07, 2.6635634493185576e-07, 2.1242807677264933e-07, 1.9721000710603977e-07, 1.9336525070893496e-07, 2.1394164002105016e-07, 2.0144473055397716e-07, 2.042079936640364e-07, 2.7869425532749284e-07], [1.2695930612919724e-05, 2.8118119273110213e-06, 1.0963617001652544e-06, 2.183249923130995e-06, 2.462969754164025e-06, 1.429052068967783e-06, 1.8131640342779878e-06, 1.6066365994475081e-06, 8.351590027044928e-07, 4.425637476348212e-07, 5.873382899192161e-07, 2.683468120338381e-07, 7.77739809206352e-07, 3.5563754936330935e-07, 4.894825534364428e-07, 3.2420083758902377e-07, 5.149666144455918e-07, 5.921453578180408e-07, 1.134364320187497e-06, 2.9714565388925737e-07, 7.111533380006099e-07, 2.460990661066822e-07, 2.555984463404106e-07, 2.620468206349787e-07, 2.71527994798283e-07, 3.5322013808650356e-07, 2.760031273686796e-07, 3.970328580959885e-07, 2.1339562209895446e-07, 3.147071869204623e-07], [3.836387892492561e-06, 2.4443699385649073e-06, 9.670817483661176e-07, 6.911622187598277e-07, 4.586057809985329e-07, 4.811288440307541e-07, 3.2509378140177003e-07, 4.27116408920045e-07, 5.864794741557952e-07, 1.702266077123946e-07, 1.997442099894123e-07, 1.5779162535182027e-07, 3.7727971224738673e-07, 1.154203831547589e-07, 1.1905416904030104e-07, 1.9623030802758962e-07, 1.0715999982748366e-07, 1.236970334073696e-07, 1.5057463860460446e-07, 1.1596231604593782e-07, 1.1105955271699979e-07, 9.050504225562808e-08, 1.0708939355443375e-07, 9.075549798370184e-08, 1.0004370340507883e-07, 1.3085569830319812e-07, 9.43050497827425e-08, 1.4867671828949242e-07, 7.903576967316186e-08, 9.431144651370982e-08], [2.3785505618434395e-06, 9.286218604150539e-07, 6.915306585142389e-07, 4.3822780450379164e-07, 3.815533091255929e-07, 3.298762142852259e-07, 2.0385694673071466e-07, 1.6252650614963696e-07, 1.2962921876654346e-07, 1.0027249572885927e-07, 8.4078540870299e-08, 7.64575588618755e-08, 6.465691058110685e-08, 5.581619764901316e-08, 5.324119835374107e-08, 4.5678223159484395e-08, 3.933203818936218e-08, 3.7614677239616935e-08, 3.523192996605461e-08, 3.1561201770576566e-08, 3.119781505726382e-08, 2.893926307478985e-08, 2.6799140565951114e-08, 2.521171988216042e-08, 2.2903814548650866e-08, 2.1945913886156703e-08, 2.0425693492143254e-08, 1.8916813360192535e-08, 1.734925945129369e-08, 1.7132045589581513e-08], [2.3785505618434395e-06, 9.286218604150539e-07, 6.915306585142389e-07, 4.3822780450379164e-07, 3.815533091255929e-07, 3.298762142852259e-07, 2.0385694673071466e-07, 1.6252650614963696e-07, 1.2962921876654346e-07, 1.0027249572885927e-07, 8.4078540870299e-08, 7.64575588618755e-08, 6.465691058110685e-08, 5.581619764901316e-08, 5.324119835374107e-08, 4.5678223159484395e-08, 3.933203818936218e-08, 3.7614677239616935e-08, 3.523192996605461e-08, 3.1561201770576566e-08, 3.119781505726382e-08, 2.893926307478985e-08, 2.6799140565951114e-08, 2.521171988216042e-08, 2.2903814548650866e-08, 2.1945913886156703e-08, 2.0425693492143254e-08, 1.8916813360192535e-08, 1.734925945129369e-08, 1.7132045589581513e-08], [2.3785505618434395e-06, 9.286218604150539e-07, 6.915306585142389e-07, 4.3822780450379164e-07, 3.815533091255929e-07, 3.298762142852259e-07, 2.0385694673071466e-07, 1.6252650614963696e-07, 1.2962921876654346e-07, 1.0027249572885927e-07, 8.4078540870299e-08, 7.64575588618755e-08, 6.465691058110685e-08, 5.581619764901316e-08, 5.324119835374107e-08, 4.5678223159484395e-08, 3.933203818936218e-08, 3.7614677239616935e-08, 3.523192996605461e-08, 3.1561201770576566e-08, 3.119781505726382e-08, 2.893926307478985e-08, 2.6799140565951114e-08, 2.521171988216042e-08, 2.2903814548650866e-08, 2.1945913886156703e-08, 2.0425693492143254e-08, 1.8916813360192535e-08, 1.734925945129369e-08, 1.7132045589581513e-08], [2.3785505618434395e-06, 9.286218604150539e-07, 6.915306585142389e-07, 4.3822780450379164e-07, 3.815533091255929e-07, 3.298762142852259e-07, 2.0385694673071466e-07, 1.6252650614963696e-07, 1.2962921876654346e-07, 1.0027249572885927e-07, 8.4078540870299e-08, 7.64575588618755e-08, 6.465691058110685e-08, 5.581619764901316e-08, 5.324119835374107e-08, 4.5678223159484395e-08, 3.933203818936218e-08, 3.7614677239616935e-08, 3.523192996605461e-08, 3.1561201770576566e-08, 3.119781505726382e-08, 2.893926307478985e-08, 2.6799140565951114e-08, 2.521171988216042e-08, 2.2903814548650866e-08, 2.1945913886156703e-08, 2.0425693492143254e-08, 1.8916813360192535e-08, 1.734925945129369e-08, 1.7132045589581513e-08], [2.3785505618434395e-06, 9.286218604150539e-07, 6.915306585142389e-07, 4.3822780450379164e-07, 3.815533091255929e-07, 3.298762142852259e-07, 2.0385694673071466e-07, 1.6252650614963696e-07, 1.2962921876654346e-07, 1.0027249572885927e-07, 8.4078540870299e-08, 7.64575588618755e-08, 6.465691058110685e-08, 5.581619764901316e-08, 5.324119835374107e-08, 4.5678223159484395e-08, 3.933203818936218e-08, 3.7614677239616935e-08, 3.523192996605461e-08, 3.1561201770576566e-08, 3.119781505726382e-08, 2.893926307478985e-08, 2.6799140565951114e-08, 2.521171988216042e-08, 2.2903814548650866e-08, 2.1945913886156703e-08, 2.0425693492143254e-08, 1.8916813360192535e-08, 1.734925945129369e-08, 1.7132045589581513e-08], [2.3785505618434395e-06, 9.286218604150539e-07, 6.915306585142389e-07, 4.3822780450379164e-07, 3.815533091255929e-07, 3.298762142852259e-07, 2.0385694673071466e-07, 1.6252650614963696e-07, 1.2962921876654346e-07, 1.0027249572885927e-07, 8.4078540870299e-08, 7.64575588618755e-08, 6.465691058110685e-08, 5.581619764901316e-08, 5.324119835374107e-08, 4.5678223159484395e-08, 3.933203818936218e-08, 3.7614677239616935e-08, 3.523192996605461e-08, 3.1561201770576566e-08, 3.119781505726382e-08, 2.893926307478985e-08, 2.6799140565951114e-08, 2.521171988216042e-08, 2.2903814548650866e-08, 2.1945913886156703e-08, 2.0425693492143254e-08, 1.8916813360192535e-08, 1.734925945129369e-08, 1.7132045589581513e-08], [2.3785505618434395e-06, 9.286218604150539e-07, 6.915306585142389e-07, 4.3822780450379164e-07, 3.815533091255929e-07, 3.298762142852259e-07, 2.0385694673071466e-07, 1.6252650614963696e-07, 1.2962921876654346e-07, 1.0027249572885927e-07, 8.4078540870299e-08, 7.64575588618755e-08, 6.465691058110685e-08, 5.581619764901316e-08, 5.324119835374107e-08, 4.5678223159484395e-08, 3.933203818936218e-08, 3.7614677239616935e-08, 3.523192996605461e-08, 3.1561201770576566e-08, 3.119781505726382e-08, 2.893926307478985e-08, 2.6799140565951114e-08, 2.521171988216042e-08, 2.2903814548650866e-08, 2.1945913886156703e-08, 2.0425693492143254e-08, 1.8916813360192535e-08, 1.734925945129369e-08, 1.7132045589581513e-08], [2.3785505618434395e-06, 9.286218604150539e-07, 6.915306585142389e-07, 4.3822780450379164e-07, 3.815533091255929e-07, 3.298762142852259e-07, 2.0385694673071466e-07, 1.6252650614963696e-07, 1.2962921876654346e-07, 1.0027249572885927e-07, 8.4078540870299e-08, 7.64575588618755e-08, 6.465691058110685e-08, 5.581619764901316e-08, 5.324119835374107e-08, 4.5678223159484395e-08, 3.933203818936218e-08, 3.7614677239616935e-08, 3.523192996605461e-08, 3.1561201770576566e-08, 3.119781505726382e-08, 2.893926307478985e-08, 2.6799140565951114e-08, 2.521171988216042e-08, 2.2903814548650866e-08, 2.1945913886156703e-08, 2.0425693492143254e-08, 1.8916813360192535e-08, 1.734925945129369e-08, 1.7132045589581513e-08], [2.3785505618434395e-06, 9.286218604150539e-07, 6.915306585142389e-07, 4.3822780450379164e-07, 3.815533091255929e-07, 3.298762142852259e-07, 2.0385694673071466e-07, 1.6252650614963696e-07, 1.2962921876654346e-07, 1.0027249572885927e-07, 8.4078540870299e-08, 7.64575588618755e-08, 6.465691058110685e-08, 5.581619764901316e-08, 5.324119835374107e-08, 4.5678223159484395e-08, 3.933203818936218e-08, 3.7614677239616935e-08, 3.523192996605461e-08, 3.1561201770576566e-08, 3.119781505726382e-08, 2.893926307478985e-08, 2.6799140565951114e-08, 2.521171988216042e-08, 2.2903814548650866e-08, 2.1945913886156703e-08, 2.0425693492143254e-08, 1.8916813360192535e-08, 1.734925945129369e-08, 1.7132045589581513e-08], [2.3785505618434395e-06, 9.286218604150539e-07, 6.915306585142389e-07, 4.3822780450379164e-07, 3.815533091255929e-07, 3.298762142852259e-07, 2.0385694673071466e-07, 1.6252650614963696e-07, 1.2962921876654346e-07, 1.0027249572885927e-07, 8.4078540870299e-08, 7.64575588618755e-08, 6.465691058110685e-08, 5.581619764901316e-08, 5.324119835374107e-08, 4.5678223159484395e-08, 3.933203818936218e-08, 3.7614677239616935e-08, 3.523192996605461e-08, 3.1561201770576566e-08, 3.119781505726382e-08, 2.893926307478985e-08, 2.6799140565951114e-08, 2.521171988216042e-08, 2.2903814548650866e-08, 2.1945913886156703e-08, 2.0425693492143254e-08, 1.8916813360192535e-08, 1.734925945129369e-08, 1.7132045589581513e-08], [2.3785505618434395e-06, 9.286218604150539e-07, 6.915306585142389e-07, 4.3822780450379164e-07, 3.815533091255929e-07, 3.298762142852259e-07, 2.0385694673071466e-07, 1.6252650614963696e-07, 1.2962921876654346e-07, 1.0027249572885927e-07, 8.4078540870299e-08, 7.64575588618755e-08, 6.465691058110685e-08, 5.581619764901316e-08, 5.324119835374107e-08, 4.5678223159484395e-08, 3.933203818936218e-08, 3.7614677239616935e-08, 3.523192996605461e-08, 3.1561201770576566e-08, 3.119781505726382e-08, 2.893926307478985e-08, 2.6799140565951114e-08, 2.521171988216042e-08, 2.2903814548650866e-08, 2.1945913886156703e-08, 2.0425693492143254e-08, 1.8916813360192535e-08, 1.734925945129369e-08, 1.7132045589581513e-08], [2.3785505618434395e-06, 9.286218604150539e-07, 6.915306585142389e-07, 4.3822780450379164e-07, 3.815533091255929e-07, 3.298762142852259e-07, 2.0385694673071466e-07, 1.6252650614963696e-07, 1.2962921876654346e-07, 1.0027249572885927e-07, 8.4078540870299e-08, 7.64575588618755e-08, 6.465691058110685e-08, 5.581619764901316e-08, 5.324119835374107e-08, 4.5678223159484395e-08, 3.933203818936218e-08, 3.7614677239616935e-08, 3.523192996605461e-08, 3.1561201770576566e-08, 3.119781505726382e-08, 2.893926307478985e-08, 2.6799140565951114e-08, 2.521171988216042e-08, 2.2903814548650866e-08, 2.1945913886156703e-08, 2.0425693492143254e-08, 1.8916813360192535e-08, 1.734925945129369e-08, 1.7132045589581513e-08], [2.3785505618434395e-06, 9.286218604150539e-07, 6.915306585142389e-07, 4.3822780450379164e-07, 3.815533091255929e-07, 3.298762142852259e-07, 2.0385694673071466e-07, 1.6252650614963696e-07, 1.2962921876654346e-07, 1.0027249572885927e-07, 8.4078540870299e-08, 7.64575588618755e-08, 6.465691058110685e-08, 5.581619764901316e-08, 5.324119835374107e-08, 4.5678223159484395e-08, 3.933203818936218e-08, 3.7614677239616935e-08, 3.523192996605461e-08, 3.1561201770576566e-08, 3.119781505726382e-08, 2.893926307478985e-08, 2.6799140565951114e-08, 2.521171988216042e-08, 2.2903814548650866e-08, 2.1945913886156703e-08, 2.0425693492143254e-08, 1.8916813360192535e-08, 1.734925945129369e-08, 1.7132045589581513e-08], [2.3785505618434395e-06, 9.286218604150539e-07, 6.915306585142389e-07, 4.3822780450379164e-07, 3.815533091255929e-07, 3.298762142852259e-07, 2.0385694673071466e-07, 1.6252650614963696e-07, 1.2962921876654346e-07, 1.0027249572885927e-07, 8.4078540870299e-08, 7.64575588618755e-08, 6.465691058110685e-08, 5.581619764901316e-08, 5.324119835374107e-08, 4.5678223159484395e-08, 3.933203818936218e-08, 3.7614677239616935e-08, 3.523192996605461e-08, 3.1561201770576566e-08, 3.119781505726382e-08, 2.893926307478985e-08, 2.6799140565951114e-08, 2.521171988216042e-08, 2.2903814548650866e-08, 2.1945913886156703e-08, 2.0425693492143254e-08, 1.8916813360192535e-08, 1.734925945129369e-08, 1.7132045589581513e-08], [2.3785505618434395e-06, 9.286218604150539e-07, 6.915306585142389e-07, 4.3822780450379164e-07, 3.815533091255929e-07, 3.298762142852259e-07, 2.0385694673071466e-07, 1.6252650614963696e-07, 1.2962921876654346e-07, 1.0027249572885927e-07, 8.4078540870299e-08, 7.64575588618755e-08, 6.465691058110685e-08, 5.581619764901316e-08, 5.324119835374107e-08, 4.5678223159484395e-08, 3.933203818936218e-08, 3.7614677239616935e-08, 3.523192996605461e-08, 3.1561201770576566e-08, 3.119781505726382e-08, 2.893926307478985e-08, 2.6799140565951114e-08, 2.521171988216042e-08, 2.2903814548650866e-08, 2.1945913886156703e-08, 2.0425693492143254e-08, 1.8916813360192535e-08, 1.734925945129369e-08, 1.7132045589581513e-08], [2.3785505618434395e-06, 9.286218604150539e-07, 6.915306585142389e-07, 4.3822780450379164e-07, 3.815533091255929e-07, 3.298762142852259e-07, 2.0385694673071466e-07, 1.6252650614963696e-07, 1.2962921876654346e-07, 1.0027249572885927e-07, 8.4078540870299e-08, 7.64575588618755e-08, 6.465691058110685e-08, 5.581619764901316e-08, 5.324119835374107e-08, 4.5678223159484395e-08, 3.933203818936218e-08, 3.7614677239616935e-08, 3.523192996605461e-08, 3.1561201770576566e-08, 3.119781505726382e-08, 2.893926307478985e-08, 2.6799140565951114e-08, 2.521171988216042e-08, 2.2903814548650866e-08, 2.1945913886156703e-08, 2.0425693492143254e-08, 1.8916813360192535e-08, 1.734925945129369e-08, 1.7132045589581513e-08], [1.3845169934135562e-05, 8.158500568534403e-06, 1.4252438084111234e-05, 6.452846328075513e-06, 6.529921365462323e-06, 3.4262497339344965e-06, 4.10551487185805e-06, 3.329786765130696e-06, 3.3736190662823704e-06, 3.036541220702051e-06, 3.1468693858336482e-06, 2.71848116810942e-06, 1.4786284994192727e-06, 2.8325391870618384e-06, 2.6402286318908846e-06, 1.8035556529177577e-06, 2.7370206198619337e-06, 2.009210964107741e-06, 1.700158493225717e-06, 1.314674318669606e-06, 1.9905695049791357e-06, 2.036452843033591e-06, 1.3374026879991524e-06, 1.8751320837038758e-06, 1.4319987753201983e-06, 1.3198497756039405e-06, 1.423206540043747e-06, 1.6286910867085098e-06, 1.852864223299884e-06, 1.4080169732515099e-06], [9.23277933814227e-06, 2.8727721615289445e-06, 1.9059638535199254e-06, 3.899022439981575e-06, 8.906484913031408e-07, 1.948904149635036e-06, 1.4891402343839822e-06, 5.99075310036677e-07, 4.826255835201473e-07, 5.859338670946937e-07, 3.985667136681739e-07, 2.5244908929255204e-07, 8.85195855539505e-07, 7.394049056091641e-07, 5.852546450985591e-07, 2.63968141829764e-07, 4.0391908590664474e-07, 6.341023522528348e-07, 3.5989881983704504e-07, 3.111839236400508e-07, 3.1351211791724765e-07, 2.68218191320741e-07, 2.586172303582809e-07, 2.833594531679626e-07, 3.620793269376607e-07, 2.8477109940764376e-07, 3.143916378667615e-07, 3.3503136812364393e-07, 1.9715972908730527e-07, 2.083992941180917e-07], [1.2663139812443617e-05, 9.372887241228611e-06, 5.676198743023939e-06, 7.415266091293627e-06, 3.2446554096713265e-06, 5.519359287698767e-06, 2.541358438821671e-06, 2.408483629351587e-06, 2.4385055921158114e-06, 1.7113485743699495e-06, 2.1083954290170985e-06, 2.0176768316426978e-06, 1.8036425479272718e-06, 2.174963745779201e-06, 9.089229026777333e-07, 1.5782613664860585e-06, 1.1542208561176215e-06, 1.8241033022454891e-06, 7.868961164820772e-07, 2.6934989750118105e-06, 1.9912807396424487e-06, 9.87151057078701e-07, 1.462817889768738e-06, 1.7318849578637649e-06, 8.910138550159492e-07, 1.1474941484448727e-06, 1.5574448498027277e-06, 8.741555789392428e-07, 7.30233992512656e-07, 1.6142261561463448e-06], [2.3785505618434395e-06, 9.286218604150539e-07, 6.915306585142389e-07, 4.3822780450379164e-07, 3.815533091255929e-07, 3.298762142852259e-07, 2.0385694673071466e-07, 1.6252650614963696e-07, 1.2962921876654346e-07, 1.0027249572885927e-07, 8.4078540870299e-08, 7.64575588618755e-08, 6.465691058110685e-08, 5.581619764901316e-08, 5.324119835374107e-08, 4.5678223159484395e-08, 3.933203818936218e-08, 3.7614677239616935e-08, 3.523192996605461e-08, 3.1561201770576566e-08, 3.119781505726382e-08, 2.893926307478985e-08, 2.6799140565951114e-08, 2.521171988216042e-08, 2.2903814548650866e-08, 2.1945913886156703e-08, 2.0425693492143254e-08, 1.8916813360192535e-08, 1.734925945129369e-08, 1.7132045589581513e-08], [2.3785505618434395e-06, 9.286218604150539e-07, 6.915306585142389e-07, 4.3822780450379164e-07, 3.815533091255929e-07, 3.298762142852259e-07, 2.0385694673071466e-07, 1.6252650614963696e-07, 1.2962921876654346e-07, 1.0027249572885927e-07, 8.4078540870299e-08, 7.64575588618755e-08, 6.465691058110685e-08, 5.581619764901316e-08, 5.324119835374107e-08, 4.5678223159484395e-08, 3.933203818936218e-08, 3.7614677239616935e-08, 3.523192996605461e-08, 3.1561201770576566e-08, 3.119781505726382e-08, 2.893926307478985e-08, 2.6799140565951114e-08, 2.521171988216042e-08, 2.2903814548650866e-08, 2.1945913886156703e-08, 2.0425693492143254e-08, 1.8916813360192535e-08, 1.734925945129369e-08, 1.7132045589581513e-08], [2.3785505618434395e-06, 9.286218604150539e-07, 6.915306585142389e-07, 4.3822780450379164e-07, 3.815533091255929e-07, 3.298762142852259e-07, 2.0385694673071466e-07, 1.6252650614963696e-07, 1.2962921876654346e-07, 1.0027249572885927e-07, 8.4078540870299e-08, 7.64575588618755e-08, 6.465691058110685e-08, 5.581619764901316e-08, 5.324119835374107e-08, 4.5678223159484395e-08, 3.933203818936218e-08, 3.7614677239616935e-08, 3.523192996605461e-08, 3.1561201770576566e-08, 3.119781505726382e-08, 2.893926307478985e-08, 2.6799140565951114e-08, 2.521171988216042e-08, 2.2903814548650866e-08, 2.1945913886156703e-08, 2.0425693492143254e-08, 1.8916813360192535e-08, 1.734925945129369e-08, 1.7132045589581513e-08], [3.361817256461542e-06, 2.233581770018874e-06, 8.912894717491186e-07, 1.1972379384105576e-06, 1.0916023093245524e-06, 1.0629215567468115e-06, 4.6746119445624426e-07, 3.8707708545890954e-07, 3.8858666489980134e-07, 5.005708928033374e-07, 3.7547991212704205e-07, 3.029432645156608e-07, 3.232747362746254e-07, 7.700108804279078e-07, 3.1280382084649115e-07, 2.717203449050681e-07, 2.465378745133636e-07, 2.1673414135200055e-07, 2.4112939005969576e-07, 2.633887323621096e-07, 2.440516843187188e-07, 2.0666181611031632e-07, 2.266592669714663e-07, 2.165993466397343e-07, 2.0887176909279146e-07, 2.0622804018377102e-07, 2.0302204468737137e-07, 1.9594696912642263e-07, 2.003563588138568e-07, 1.951549263322292e-07], [2.672122537645475e-06, 1.5138985188279806e-06, 1.4797060931196468e-06, 4.894913946320898e-07, 2.089708720491215e-06, 6.185712581183733e-07, 2.596116181881288e-07, 3.720543370420519e-07, 2.738264395580231e-07, 2.3912801229149997e-07, 1.445752468786787e-07, 1.3715889606237684e-07, 1.7472777287874496e-07, 1.1662263674698073e-07, 3.26503456247815e-07, 1.0553829174817398e-07, 1.1325353864008109e-07, 1.309770301306991e-07, 1.4364861196327619e-07, 1.5007087953776044e-07, 1.0334110967172149e-07, 1.752910682286408e-07, 1.027321160535436e-07, 1.0106976561776105e-07, 8.67742737365306e-08, 1.0105228487213613e-07, 8.34625154827554e-08, 8.19580675092678e-08, 1.0952911814550151e-07, 1.227964872952172e-07], [2.3785505618434395e-06, 9.286218604150539e-07, 6.915306585142389e-07, 4.3822780450379164e-07, 3.815533091255929e-07, 3.298762142852259e-07, 2.0385694673071466e-07, 1.6252650614963696e-07, 1.2962921876654346e-07, 1.0027249572885927e-07, 8.4078540870299e-08, 7.64575588618755e-08, 6.465691058110685e-08, 5.581619764901316e-08, 5.324119835374107e-08, 4.5678223159484395e-08, 3.933203818936218e-08, 3.7614677239616935e-08, 3.523192996605461e-08, 3.1561201770576566e-08, 3.119781505726382e-08, 2.893926307478985e-08, 2.6799140565951114e-08, 2.521171988216042e-08, 2.2903814548650866e-08, 2.1945913886156703e-08, 2.0425693492143254e-08, 1.8916813360192535e-08, 1.734925945129369e-08, 1.7132045589581513e-08], [2.3785505618434395e-06, 9.286218604150539e-07, 6.915306585142389e-07, 4.3822780450379164e-07, 3.815533091255929e-07, 3.298762142852259e-07, 2.0385694673071466e-07, 1.6252650614963696e-07, 1.2962921876654346e-07, 1.0027249572885927e-07, 8.4078540870299e-08, 7.64575588618755e-08, 6.465691058110685e-08, 5.581619764901316e-08, 5.324119835374107e-08, 4.5678223159484395e-08, 3.933203818936218e-08, 3.7614677239616935e-08, 3.523192996605461e-08, 3.1561201770576566e-08, 3.119781505726382e-08, 2.893926307478985e-08, 2.6799140565951114e-08, 2.521171988216042e-08, 2.2903814548650866e-08, 2.1945913886156703e-08, 2.0425693492143254e-08, 1.8916813360192535e-08, 1.734925945129369e-08, 1.7132045589581513e-08], [2.3785505618434395e-06, 9.286218604150539e-07, 6.915306585142389e-07, 4.3822780450379164e-07, 3.815533091255929e-07, 3.298762142852259e-07, 2.0385694673071466e-07, 1.6252650614963696e-07, 1.2962921876654346e-07, 1.0027249572885927e-07, 8.4078540870299e-08, 7.64575588618755e-08, 6.465691058110685e-08, 5.581619764901316e-08, 5.324119835374107e-08, 4.5678223159484395e-08, 3.933203818936218e-08, 3.7614677239616935e-08, 3.523192996605461e-08, 3.1561201770576566e-08, 3.119781505726382e-08, 2.893926307478985e-08, 2.6799140565951114e-08, 2.521171988216042e-08, 2.2903814548650866e-08, 2.1945913886156703e-08, 2.0425693492143254e-08, 1.8916813360192535e-08, 1.734925945129369e-08, 1.7132045589581513e-08], [2.3785505618434395e-06, 9.286218604150539e-07, 6.915306585142389e-07, 4.3822780450379164e-07, 3.815533091255929e-07, 3.298762142852259e-07, 2.0385694673071466e-07, 1.6252650614963696e-07, 1.2962921876654346e-07, 1.0027249572885927e-07, 8.4078540870299e-08, 7.64575588618755e-08, 6.465691058110685e-08, 5.581619764901316e-08, 5.324119835374107e-08, 4.5678223159484395e-08, 3.933203818936218e-08, 3.7614677239616935e-08, 3.523192996605461e-08, 3.1561201770576566e-08, 3.119781505726382e-08, 2.893926307478985e-08, 2.6799140565951114e-08, 2.521171988216042e-08, 2.2903814548650866e-08, 2.1945913886156703e-08, 2.0425693492143254e-08, 1.8916813360192535e-08, 1.734925945129369e-08, 1.7132045589581513e-08], [2.3785505618434395e-06, 9.286218604150539e-07, 6.915306585142389e-07, 4.3822780450379164e-07, 3.815533091255929e-07, 3.298762142852259e-07, 2.0385694673071466e-07, 1.6252650614963696e-07, 1.2962921876654346e-07, 1.0027249572885927e-07, 8.4078540870299e-08, 7.64575588618755e-08, 6.465691058110685e-08, 5.581619764901316e-08, 5.324119835374107e-08, 4.5678223159484395e-08, 3.933203818936218e-08, 3.7614677239616935e-08, 3.523192996605461e-08, 3.1561201770576566e-08, 3.119781505726382e-08, 2.893926307478985e-08, 2.6799140565951114e-08, 2.521171988216042e-08, 2.2903814548650866e-08, 2.1945913886156703e-08, 2.0425693492143254e-08, 1.8916813360192535e-08, 1.734925945129369e-08, 1.7132045589581513e-08], [2.3785505618434395e-06, 9.286218604150539e-07, 6.915306585142389e-07, 4.3822780450379164e-07, 3.815533091255929e-07, 3.298762142852259e-07, 2.0385694673071466e-07, 1.6252650614963696e-07, 1.2962921876654346e-07, 1.0027249572885927e-07, 8.4078540870299e-08, 7.64575588618755e-08, 6.465691058110685e-08, 5.581619764901316e-08, 5.324119835374107e-08, 4.5678223159484395e-08, 3.933203818936218e-08, 3.7614677239616935e-08, 3.523192996605461e-08, 3.1561201770576566e-08, 3.119781505726382e-08, 2.893926307478985e-08, 2.6799140565951114e-08, 2.521171988216042e-08, 2.2903814548650866e-08, 2.1945913886156703e-08, 2.0425693492143254e-08, 1.8916813360192535e-08, 1.734925945129369e-08, 1.7132045589581513e-08], [2.3785505618434395e-06, 9.286218604150539e-07, 6.915306585142389e-07, 4.3822780450379164e-07, 3.815533091255929e-07, 3.298762142852259e-07, 2.0385694673071466e-07, 1.6252650614963696e-07, 1.2962921876654346e-07, 1.0027249572885927e-07, 8.4078540870299e-08, 7.64575588618755e-08, 6.465691058110685e-08, 5.581619764901316e-08, 5.324119835374107e-08, 4.5678223159484395e-08, 3.933203818936218e-08, 3.7614677239616935e-08, 3.523192996605461e-08, 3.1561201770576566e-08, 3.119781505726382e-08, 2.893926307478985e-08, 2.6799140565951114e-08, 2.521171988216042e-08, 2.2903814548650866e-08, 2.1945913886156703e-08, 2.0425693492143254e-08, 1.8916813360192535e-08, 1.734925945129369e-08, 1.7132045589581513e-08], [2.3785505618434395e-06, 9.286218604150539e-07, 6.915306585142389e-07, 4.3822780450379164e-07, 3.815533091255929e-07, 3.298762142852259e-07, 2.0385694673071466e-07, 1.6252650614963696e-07, 1.2962921876654346e-07, 1.0027249572885927e-07, 8.4078540870299e-08, 7.64575588618755e-08, 6.465691058110685e-08, 5.581619764901316e-08, 5.324119835374107e-08, 4.5678223159484395e-08, 3.933203818936218e-08, 3.7614677239616935e-08, 3.523192996605461e-08, 3.1561201770576566e-08, 3.119781505726382e-08, 2.893926307478985e-08, 2.6799140565951114e-08, 2.521171988216042e-08, 2.2903814548650866e-08, 2.1945913886156703e-08, 2.0425693492143254e-08, 1.8916813360192535e-08, 1.734925945129369e-08, 1.7132045589581513e-08], [2.3785505618434395e-06, 9.286218604150539e-07, 6.915306585142389e-07, 4.3822780450379164e-07, 3.815533091255929e-07, 3.298762142852259e-07, 2.0385694673071466e-07, 1.6252650614963696e-07, 1.2962921876654346e-07, 1.0027249572885927e-07, 8.4078540870299e-08, 7.64575588618755e-08, 6.465691058110685e-08, 5.581619764901316e-08, 5.324119835374107e-08, 4.5678223159484395e-08, 3.933203818936218e-08, 3.7614677239616935e-08, 3.523192996605461e-08, 3.1561201770576566e-08, 3.119781505726382e-08, 2.893926307478985e-08, 2.6799140565951114e-08, 2.521171988216042e-08, 2.2903814548650866e-08, 2.1945913886156703e-08, 2.0425693492143254e-08, 1.8916813360192535e-08, 1.734925945129369e-08, 1.7132045589581513e-08], [1.7945931589377592e-05, 2.3682661277286565e-05, 1.776651020547961e-05, 7.174556328941996e-06, 8.238368771008145e-06, 7.123718547621323e-06, 4.248844103021867e-06, 3.5098280274208517e-06, 2.7119862802508452e-06, 2.2766448526139507e-06, 2.3118286760865302e-06, 2.1903621577215108e-06, 1.6514140441948782e-06, 1.7397000251118296e-06, 1.9056809030330886e-06, 1.813086011207243e-06, 1.6050644916870468e-06, 1.4890361847060634e-06, 1.670223425777886e-06, 1.4834133502907671e-06, 1.4515849908882807e-06, 1.4634135605104855e-06, 1.4201484311002874e-06, 1.4130120800002698e-06, 1.3585679189476957e-06, 1.338670210998084e-06, 1.2979254852600166e-06, 1.2548854081452395e-06, 1.3102052008449454e-06, 1.247576953005886e-06], [2.477568863475617e-05, 3.346926982292595e-05, 3.2566799452605616e-05, 3.481256157311934e-05, 2.5460536203642177e-05, 1.5205768871397721e-05, 1.4823268993625378e-05, 1.1458300038203182e-05, 9.846664055052805e-06, 9.53276324515652e-06, 5.402267610352065e-06, 5.857331127323994e-06, 6.801284528090785e-06, 5.778213380224191e-06, 4.682851581319524e-06, 3.67633081140248e-06, 3.549104275348728e-06, 4.013331935846565e-06, 2.752788762100318e-06, 3.259246662043362e-06, 2.9802882837963414e-06, 2.5708051167356015e-06, 2.9068674746630676e-06, 2.5694523357833705e-06, 2.568009668170596e-06, 2.170674716194391e-06, 2.3729294181356853e-06, 2.172020618719778e-06, 2.0391281299537023e-06, 1.979888967252191e-06], [1.8877724869288355e-05, 2.0869356297270624e-06, 1.9252965202112387e-06, 1.2102388130524633e-06, 1.1472781049897305e-06, 1.0823154954984628e-06, 1.2318717345516156e-06, 1.443102199033932e-06, 2.3060074440883383e-06, 1.0647412248989694e-06, 2.5948665709371204e-06, 1.8879148760537234e-07, 2.7025976401126594e-07, 2.0541162479557376e-07, 4.1347256321280717e-07, 2.023520245503614e-07, 2.1580785463647244e-07, 1.5607876921671625e-07, 2.0734871029640975e-07, 3.0349641812484436e-07, 1.9639173047929563e-07, 3.9336893672913526e-07, 6.112592416442604e-07, 3.8034511857881897e-07, 1.2575860398696578e-07, 1.33666516381818e-07, 1.1490033468269957e-07, 3.8258293769498576e-07, 1.349084898368944e-07, 2.539138397334367e-07], [2.3785505618434395e-06, 9.286218604150539e-07, 6.915306585142389e-07, 4.3822780450379164e-07, 3.815533091255929e-07, 3.298762142852259e-07, 2.0385694673071466e-07, 1.6252650614963696e-07, 1.2962921876654346e-07, 1.0027249572885927e-07, 8.4078540870299e-08, 7.64575588618755e-08, 6.465691058110685e-08, 5.581619764901316e-08, 5.324119835374107e-08, 4.5678223159484395e-08, 3.933203818936218e-08, 3.7614677239616935e-08, 3.523192996605461e-08, 3.1561201770576566e-08, 3.119781505726382e-08, 2.893926307478985e-08, 2.6799140565951114e-08, 2.521171988216042e-08, 2.2903814548650866e-08, 2.1945913886156703e-08, 2.0425693492143254e-08, 1.8916813360192535e-08, 1.734925945129369e-08, 1.7132045589581513e-08], [2.3785505618434395e-06, 9.286218604150539e-07, 6.915306585142389e-07, 4.3822780450379164e-07, 3.815533091255929e-07, 3.298762142852259e-07, 2.0385694673071466e-07, 1.6252650614963696e-07, 1.2962921876654346e-07, 1.0027249572885927e-07, 8.4078540870299e-08, 7.64575588618755e-08, 6.465691058110685e-08, 5.581619764901316e-08, 5.324119835374107e-08, 4.5678223159484395e-08, 3.933203818936218e-08, 3.7614677239616935e-08, 3.523192996605461e-08, 3.1561201770576566e-08, 3.119781505726382e-08, 2.893926307478985e-08, 2.6799140565951114e-08, 2.521171988216042e-08, 2.2903814548650866e-08, 2.1945913886156703e-08, 2.0425693492143254e-08, 1.8916813360192535e-08, 1.734925945129369e-08, 1.7132045589581513e-08], [2.8205873700470547e-06, 1.816179840762842e-06, 1.3979499918364158e-06, 7.851519608011737e-07, 6.59963765939837e-06, 5.759812926171348e-07, 4.943035123918902e-07, 2.6072783147658007e-07, 2.1212968517873743e-07, 5.150811135060245e-07, 1.7374292100765932e-07, 1.854110654440967e-07, 1.5777264563500628e-07, 1.4209720141277807e-07, 2.1656579401555677e-07, 1.380659391074805e-07, 3.3653802933449354e-07, 1.3943492501341933e-07, 1.3148318897094525e-07, 2.119504716447437e-07, 1.4525512371431938e-07, 1.2864227548814457e-07, 1.243684478482501e-07, 1.1808479415683152e-07, 1.263501899504305e-07, 1.1249219015691217e-07, 1.1548882997389259e-07, 1.1751455118907013e-07, 1.0997540548307086e-07, 1.0820925527321067e-07], [9.369568675350687e-06, 4.380355161523641e-06, 6.1196046920542325e-06, 3.403337151504052e-06, 4.13885878552953e-06, 3.780084529427101e-06, 1.784973222830473e-06, 2.2693397687210536e-06, 2.359079610364536e-06, 1.6931430700824691e-06, 1.886679929032e-06, 1.5605784411708688e-06, 9.91688513875729e-07, 2.0086768249603314e-06, 1.0412606698104564e-06, 1.3266993163212328e-06, 1.105177116178448e-06, 1.0224650327448822e-06, 7.803883198104935e-07, 1.1329484521599946e-06, 1.1345443189104195e-06, 8.871693866426585e-07, 8.67179941463761e-07, 9.039926726722184e-07, 9.307012145200807e-07, 7.868598884778471e-07, 9.610915691187115e-07, 1.0488166791462077e-06, 7.034315134176088e-07, 7.792266134817703e-07], [2.3785505618434395e-06, 9.286218604150539e-07, 6.915306585142389e-07, 4.3822780450379164e-07, 3.815533091255929e-07, 3.298762142852259e-07, 2.0385694673071466e-07, 1.6252650614963696e-07, 1.2962921876654346e-07, 1.0027249572885927e-07, 8.4078540870299e-08, 7.64575588618755e-08, 6.465691058110685e-08, 5.581619764901316e-08, 5.324119835374107e-08, 4.5678223159484395e-08, 3.933203818936218e-08, 3.7614677239616935e-08, 3.523192996605461e-08, 3.1561201770576566e-08, 3.119781505726382e-08, 2.893926307478985e-08, 2.6799140565951114e-08, 2.521171988216042e-08, 2.2903814548650866e-08, 2.1945913886156703e-08, 2.0425693492143254e-08, 1.8916813360192535e-08, 1.734925945129369e-08, 1.7132045589581513e-08], [2.3785505618434395e-06, 9.286218604150539e-07, 6.915306585142389e-07, 4.3822780450379164e-07, 3.815533091255929e-07, 3.298762142852259e-07, 2.0385694673071466e-07, 1.6252650614963696e-07, 1.2962921876654346e-07, 1.0027249572885927e-07, 8.4078540870299e-08, 7.64575588618755e-08, 6.465691058110685e-08, 5.581619764901316e-08, 5.324119835374107e-08, 4.5678223159484395e-08, 3.933203818936218e-08, 3.7614677239616935e-08, 3.523192996605461e-08, 3.1561201770576566e-08, 3.119781505726382e-08, 2.893926307478985e-08, 2.6799140565951114e-08, 2.521171988216042e-08, 2.2903814548650866e-08, 2.1945913886156703e-08, 2.0425693492143254e-08, 1.8916813360192535e-08, 1.734925945129369e-08, 1.7132045589581513e-08], [2.3785505618434395e-06, 9.286218604150539e-07, 6.915306585142389e-07, 4.3822780450379164e-07, 3.815533091255929e-07, 3.298762142852259e-07, 2.0385694673071466e-07, 1.6252650614963696e-07, 1.2962921876654346e-07, 1.0027249572885927e-07, 8.4078540870299e-08, 7.64575588618755e-08, 6.465691058110685e-08, 5.581619764901316e-08, 5.324119835374107e-08, 4.5678223159484395e-08, 3.933203818936218e-08, 3.7614677239616935e-08, 3.523192996605461e-08, 3.1561201770576566e-08, 3.119781505726382e-08, 2.893926307478985e-08, 2.6799140565951114e-08, 2.521171988216042e-08, 2.2903814548650866e-08, 2.1945913886156703e-08, 2.0425693492143254e-08, 1.8916813360192535e-08, 1.734925945129369e-08, 1.7132045589581513e-08], [2.3785505618434395e-06, 9.286218604150539e-07, 6.915306585142389e-07, 4.3822780450379164e-07, 3.815533091255929e-07, 3.298762142852259e-07, 2.0385694673071466e-07, 1.6252650614963696e-07, 1.2962921876654346e-07, 1.0027249572885927e-07, 8.4078540870299e-08, 7.64575588618755e-08, 6.465691058110685e-08, 5.581619764901316e-08, 5.324119835374107e-08, 4.5678223159484395e-08, 3.933203818936218e-08, 3.7614677239616935e-08, 3.523192996605461e-08, 3.1561201770576566e-08, 3.119781505726382e-08, 2.893926307478985e-08, 2.6799140565951114e-08, 2.521171988216042e-08, 2.2903814548650866e-08, 2.1945913886156703e-08, 2.0425693492143254e-08, 1.8916813360192535e-08, 1.734925945129369e-08, 1.7132045589581513e-08], [2.3785505618434395e-06, 9.286218604150539e-07, 6.915306585142389e-07, 4.3822780450379164e-07, 3.815533091255929e-07, 3.298762142852259e-07, 2.0385694673071466e-07, 1.6252650614963696e-07, 1.2962921876654346e-07, 1.0027249572885927e-07, 8.4078540870299e-08, 7.64575588618755e-08, 6.465691058110685e-08, 5.581619764901316e-08, 5.324119835374107e-08, 4.5678223159484395e-08, 3.933203818936218e-08, 3.7614677239616935e-08, 3.523192996605461e-08, 3.1561201770576566e-08, 3.119781505726382e-08, 2.893926307478985e-08, 2.6799140565951114e-08, 2.521171988216042e-08, 2.2903814548650866e-08, 2.1945913886156703e-08, 2.0425693492143254e-08, 1.8916813360192535e-08, 1.734925945129369e-08, 1.7132045589581513e-08], [3.006422552243834e-06, 2.3374038992100673e-06, 7.199849663933182e-07, 1.0600802818429515e-06, 6.250640654773289e-07, 8.156451429795229e-07, 3.9080414682483363e-07, 2.4000052728970055e-07, 7.174628635469847e-07, 2.314903995362112e-07, 2.9956728768399237e-07, 1.350208822804916e-07, 2.586296746975214e-07, 1.1736383820768545e-07, 2.4542085339738943e-07, 1.263072611897988e-07, 1.2166959589979862e-07, 1.0119069030115839e-07, 9.625488455608945e-08, 9.694344146187833e-08, 1.440053594213149e-07, 9.106089052480994e-08, 2.2677848582612117e-07, 1.1025233508160273e-07, 1.6658993833579321e-07, 9.1333071219419e-08, 8.491618498286738e-08, 1.685931551100547e-07, 9.63456712321107e-08, 1.3501887117669465e-07], [1.4222360871418892e-05, 3.009336755570778e-06, 2.591834186309932e-06, 5.357781582162911e-06, 3.421121727066629e-06, 9.239706617390516e-07, 1.973476928734993e-06, 2.309015428659481e-06, 1.6114443455439414e-06, 6.482462002647613e-07, 1.0893401145068996e-06, 6.675212629897467e-07, 1.151442955898638e-06, 5.725344409718358e-07, 4.473355614002058e-07, 4.992763328937712e-07, 3.6795516710866343e-07, 9.65444136859865e-07, 1.530155540359267e-06, 3.405631996130047e-07, 3.389023220110453e-07, 3.6587490347656893e-07, 3.4112534933645033e-07, 4.2973672780065146e-07, 4.6889743918324583e-07, 4.2760492943866325e-07, 3.011395900318642e-07, 4.7594221578243557e-07, 4.383247729867632e-07, 5.175423037681708e-07], [2.3785505618434395e-06, 9.286218604150539e-07, 6.915306585142389e-07, 4.3822780450379164e-07, 3.815533091255929e-07, 3.298762142852259e-07, 2.0385694673071466e-07, 1.6252650614963696e-07, 1.2962921876654346e-07, 1.0027249572885927e-07, 8.4078540870299e-08, 7.64575588618755e-08, 6.465691058110685e-08, 5.581619764901316e-08, 5.324119835374107e-08, 4.5678223159484395e-08, 3.933203818936218e-08, 3.7614677239616935e-08, 3.523192996605461e-08, 3.1561201770576566e-08, 3.119781505726382e-08, 2.893926307478985e-08, 2.6799140565951114e-08, 2.521171988216042e-08, 2.2903814548650866e-08, 2.1945913886156703e-08, 2.0425693492143254e-08, 1.8916813360192535e-08, 1.734925945129369e-08, 1.7132045589581513e-08], [2.3785505618434395e-06, 9.286218604150539e-07, 6.915306585142389e-07, 4.3822780450379164e-07, 3.815533091255929e-07, 3.298762142852259e-07, 2.0385694673071466e-07, 1.6252650614963696e-07, 1.2962921876654346e-07, 1.0027249572885927e-07, 8.4078540870299e-08, 7.64575588618755e-08, 6.465691058110685e-08, 5.581619764901316e-08, 5.324119835374107e-08, 4.5678223159484395e-08, 3.933203818936218e-08, 3.7614677239616935e-08, 3.523192996605461e-08, 3.1561201770576566e-08, 3.119781505726382e-08, 2.893926307478985e-08, 2.6799140565951114e-08, 2.521171988216042e-08, 2.2903814548650866e-08, 2.1945913886156703e-08, 2.0425693492143254e-08, 1.8916813360192535e-08, 1.734925945129369e-08, 1.7132045589581513e-08], [2.3785505618434395e-06, 9.286218604150539e-07, 6.915306585142389e-07, 4.3822780450379164e-07, 3.815533091255929e-07, 3.298762142852259e-07, 2.0385694673071466e-07, 1.6252650614963696e-07, 1.2962921876654346e-07, 1.0027249572885927e-07, 8.4078540870299e-08, 7.64575588618755e-08, 6.465691058110685e-08, 5.581619764901316e-08, 5.324119835374107e-08, 4.5678223159484395e-08, 3.933203818936218e-08, 3.7614677239616935e-08, 3.523192996605461e-08, 3.1561201770576566e-08, 3.119781505726382e-08, 2.893926307478985e-08, 2.6799140565951114e-08, 2.521171988216042e-08, 2.2903814548650866e-08, 2.1945913886156703e-08, 2.0425693492143254e-08, 1.8916813360192535e-08, 1.734925945129369e-08, 1.7132045589581513e-08], [1.5334912311541385e-05, 1.1408725065099594e-05, 1.619526895791851e-05, 1.1720295147983129e-05, 8.944334393323156e-06, 5.480780320917965e-06, 5.595570334881629e-06, 3.3040318823208958e-06, 4.0868604676026365e-06, 4.274189283595374e-06, 2.5892013854556203e-06, 2.9735049767348513e-06, 5.564156502978165e-06, 1.9272443537988887e-06, 2.6450272579176198e-06, 3.1726664111830772e-06, 2.89002533137247e-06, 2.812323887022897e-06, 1.8453858966354264e-06, 2.0492521526217316e-06, 2.216656125179557e-06, 1.894769693134309e-06, 1.85231891416007e-06, 2.117729348129419e-06, 2.3273999761478376e-06, 2.59345167131229e-06, 2.3832330511445106e-06, 1.526346735285893e-06, 1.3094168002432533e-06, 1.6841468517695012e-06], [2.3785505618434395e-06, 9.286218604150539e-07, 6.915306585142389e-07, 4.3822780450379164e-07, 3.815533091255929e-07, 3.298762142852259e-07, 2.0385694673071466e-07, 1.6252650614963696e-07, 1.2962921876654346e-07, 1.0027249572885927e-07, 8.4078540870299e-08, 7.64575588618755e-08, 6.465691058110685e-08, 5.581619764901316e-08, 5.324119835374107e-08, 4.5678223159484395e-08, 3.933203818936218e-08, 3.7614677239616935e-08, 3.523192996605461e-08, 3.1561201770576566e-08, 3.119781505726382e-08, 2.893926307478985e-08, 2.6799140565951114e-08, 2.521171988216042e-08, 2.2903814548650866e-08, 2.1945913886156703e-08, 2.0425693492143254e-08, 1.8916813360192535e-08, 1.734925945129369e-08, 1.7132045589581513e-08], [2.3785505618434395e-06, 9.286218604150539e-07, 6.915306585142389e-07, 4.3822780450379164e-07, 3.815533091255929e-07, 3.298762142852259e-07, 2.0385694673071466e-07, 1.6252650614963696e-07, 1.2962921876654346e-07, 1.0027249572885927e-07, 