{"timestamp_utc": "2026-03-11T08:20:22+00:00", "case_id": "butterfly_48_symmetrical_1_2", "bgmm_weights": [0.004437451746680161, 0.020173538607369864, 0.00696408337653157, 0.020169012551160895, 0.020166691842344934, 0.020164316530299528, 0.02016189432001445, 0.02015941276408211, 0.020156872587808888, 0.005970955543889977, 0.009541501849153457, 0.007325631114522708, 0.008650919400508526, 0.0201436140332088, 0.005061553877261526, 0.00864096080784569, 0.007761902273157382, 0.00858571179340078, 0.020129468845147797, 0.004210466544341143, 0.010801066624068436, 0.020120478902177566, 0.02011735857739714, 0.0061242995534698495, 0.006553413546648853, 0.006312758365489128, 0.020104318717231222, 0.020100906716078334, 0.020097384406885254, 0.020093744510073498, 0.020089979005150378, 0.008949462229099535, 0.02008210059779439, 0.00693197366158126, 0.010575301800451893, 0.00901540278116386, 0.020065244003045875, 0.009517012211969003, 0.019830875466066912, 0.020051325087502854, 0.020046299284777438, 0.020041033377081737, 0.0065190666975707846, 0.008318689685320435, 0.020024131141718287, 0.00952468777334017, 0.002732776711546751, 0.020005560444678258, 0.010435021512134667, 0.01999203055007037, 0.01998470496165299, 0.007414660604851683, 0.00864234712983674, 0.004868501363319497, 0.006216129195166118, 0.0032456109865469504, 0.006812623822535162, 0.004914810001929471, 0.008494641837491695, 0.009361314574041142, 0.008384151668138632, 0.019886253931887483, 0.006577180151830099, 0.00861437984181828, 0.006150416510682268, 0.019837760142421057, 0.008433302535308093, 0.0025858459427429412, 0.019792421454435903, 0.019774402594369606, 0.006667457864593693, 0.006478453246805656, 0.019705878919072845, 0.0044923135294532065, 0.010476573597629187, 0.008427446211818953, 0.01955849588802825, 0.008494593379422757, 0.019387445735863793, 0.0045702180259915865], "bgmm_means": [[0.005992748647582781, 0.0006399842560495504, -0.0012016279337506211, 0.001337767125435538, -0.000280190805074625, -0.0011459217909997085, 9.084589245076898e-05, -0.0005937057248853685, 0.0005718533459587627, 0.00019913313604313375, -0.00018203671707599844, -0.00033814530633548067, 7.919788718830921e-05, 0.000572507772837792, -0.00010921462426127062, -0.00014393424290887687, 0.00029836738332958396, 3.141421734602748e-05, 5.6471546523786745e-05, -0.00022637338134114948, 0.0001284327592611137, 0.00014720990555645733, -9.65774566727704e-05, 1.1094611413540252e-05, 7.49254676869131e-05, 2.3270275437739995e-05, -0.00011950106665760609, -4.100080929710318e-05, -8.462954210326873e-05, -0.000137653726210594], [-0.0014045625288968478, 3.948272666886221e-05, 8.302234669499218e-05, 1.1458554800598701e-05, 2.2687317569757924e-05, -4.716193117910426e-05, 1.713235143612231e-05, -4.9576653607693685e-05, 5.1829505327414925e-06, 2.0183737760087848e-06, 1.4443587105484373e-06, -8.912963576550546e-06, -2.5815556883792554e-06, 1.160877828486211e-05, -1.1572405208323813e-06, -5.372625043401492e-06, 3.792760872390059e-06, 2.3102147594441923e-07, 8.709434690893726e-06, 7.121789305569625e-07, -4.911817080570772e-06, -1.3590650368833286e-06, -1.025314618084445e-05, 2.507650597215371e-06, 4.711205001003648e-06, -8.685795226446719e-08, 4.7576574926447705e-07, 4.17190894728822e-07, 2.9294207787717457e-06, 1.0042187388126149e-06], [0.003337732045407312, -0.0008582517418950348, 0.0010211105059517987, -0.00026476832548812823, -0.00025325735487153445, -6.924859728734465e-05, 0.0002283654265443524, 0.00031665721525044087, 8.771622718059133e-05, 9.823094862744064e-05, 0.00013796384998502, -3.694855726265827e-05, -4.545252996688542e-05, -0.00015682663461943677, 8.567623302250109e-05, 6.043981959857301e-05, -3.36801237774486e-05, -1.5311721033680936e-05, -9.656869785904735e-06, -3.9119075768466346e-05, 3.6139216444145404e-05, -6.662527185542159e-05, 2.2319705201742553e-05, -2.1808109488135496e-05, 3.76034684597554e-05, 6.173801233406428e-06, -1.1394166447033719e-05, 3.5166445675433355e-05, -3.205168614488146e-05, 4.0553586374285705e-05], [-0.0014047495558864856, 3.979550558083539e-05, 8.311694476313918e-05, 1.1577036811777208e-05, 2.2668933597847173e-05, -4.718731035887719e-05, 1.7170224177788186e-05, -4.956267596784653e-05, 5.204108233285249e-06, 1.9763570475633578e-06, 1.4535190140404152e-06, -8.923933263369543e-06, -2.575568882150958e-06, 1.1603720237550248e-05, -1.1497462652139974e-06, -5.367854013235026e-06, 3.7858583440652763e-06, 2.229639776342637e-07, 8.707260704623012e-06, 7.145635174818627e-07, -4.906915407079354e-06, -1.3569208167878766e-06, -1.025355025958609e-05, 2.5024440290805765e-06, 4.709024114280617e-06, -8.778321410530317e-08, 4.791908192060039e-07, 4.1554482000293046e-07, 2.9244696074906494e-06, 1.0066657494298366e-06], [-0.0014048452883563206, 3.995563886959967e-05, 8.316536961993651e-05, 1.1637696216582943e-05, 2.2659521820795552e-05, -4.720030490318074e-05, 1.71896108763809e-05, -4.955551358222719e-05, 5.214939777007306e-06, 1.9548433908476927e-06, 1.458209194027139e-06, -8.929549182163646e-06, -2.572505319775812e-06, 1.1601130989166424e-05, -1.1459103893007268e-06, -5.365411968019919e-06, 3.7823212101126154e-06, 2.1883687062257024e-07, 8.706145479631692e-06, 7.157843472180613e-07, -4.9044053087965805e-06, -1.3558220577541565e-06, -1.025375619567215e-05, 2.4997789226212146e-06, 4.707906660304358e-06, -8.825650485258555e-08, 4.809433773408521e-07, 4.1470163718560216e-07, 2.9219340516968585e-06, 1.0079181650051767e-06], [-0.0014049429113559388, 4.011884524065304e-05, 8.321474135523646e-05, 1.1699553872208342e-05, 2.2649921933176305e-05, -4.721355625084163e-05, 1.7209375794382318e-05, -4.95482253486749e-05, 5.225981783120661e-06, 1.9329072179698997e-06, 1.4629920229893697e-06, -8.93527489331194e-06, -2.5693796438476863e-06, 1.159848616968273e-05, -1.1420005486758217e-06, -5.362921336899477e-06, 3.778715935457948e-06, 2.1462604044544594e-07, 8.70500797118101e-06, 7.170289197788506e-07, -4.901844598348048e-06, -1.3547009943359143e-06, -1.0253965387548109e-05, 2.4970607115961105e-06, 4.706767335413581e-06, -8.873857721459586e-08, 4.827303602078485e-07, 4.13841587913884e-07, 2.919347907127122e-06, 1.009195078972724e-06], [-0.0014050428500873209, 4.028617738315868e-05, 8.326531105725496e-05, 1.1762905560162835e-05, 2.26400953157938e-05, -4.722712985896496e-05, 1.7229621198256683e-05, -4.9540715493688504e-05, 5.237296390428268e-06, 1.910431224457124e-06, 1.4678911660147952e-06, -8.941140702644276e-06, -2.566185020349009e-06, 1.1595787266106818e-05, -1.1379946539412683e-06, -5.360372530244804e-06, 3.77501302931821e-06, 2.1031391898768836e-07, 8.703838733223137e-06, 7.183042953256034e-07, -4.899222897980095e-06, -1.3535519705786068e-06, -1.0254179266784072e-05, 2.4942788898382026e-06, 4.705598122518798e-06, -8.923255648314413e-08, 4.845587835561908e-07, 4.129602476510138e-07, 2.9166988233618525e-06, 1.0105024977317754e-06], [-0.0014051448590702417, 4.045688607577717e-05, 8.331691884376103e-05, 1.1827570551340472e-05, 2.263006275897525e-05, -4.72409850207746e-05, 1.725028129661317e-05, -4.953306566346337e-05, 5.248841940815782e-06, 1.887491704109276e-06, 1.4728918884196406e-06, -8.947126929460824e-06, -2.562922608903875e-06, 1.1593027901462147e-05, -1.1339076125930227e-06, -5.357770560044993e-06, 3.771234977519206e-06, 2.0591006618512368e-07, 8.702644890582554e-06, 7.196057271176964e-07, -4.8965457692176374e-06, -1.3523784668563014e-06, -1.0254396703713882e-05, 2.4914389549813966e-06, 4.704404835470502e-06, -8.973617495480746e-08, 4.864248640043727e-07, 4.1206040057763504e-07, 2.913994275927166e-06, 1.011836753746278e-06], [-0.0014052491506353964, 4.0631441890859764e-05, 8.336968428700193e-05, 1.1893692678742751e-05, 2.2619804388924452e-05, -4.7255153290869135e-05, 1.72714045277844e-05, -4.952523829460241e-05, 5.26064721184171e-06, 1.8640334119016713e-06, 1.4780055914125111e-06, -8.953247857076223e-06, -2.559587912062648e-06, 1.1590206667210744e-05, -1.129729233978683e-06, -5.3551104333347235e-06, 3.7673691768278834e-06, 2.0140547885229428e-07, 8.701422374754184e-06, 7.209364795977989e-07, -4.8938078609954905e-06, -1.351177741206601e-06, -1.0254618294002335e-05, 2.488535439256889e-06, 4.703183931462718e-06, -9.025081229358993e-08, 4.883322082828038e-07, 4.11139926078161e-07, 2.9112282306089154e-06, 1.013200768322561e-06], [0.0010198493221583941, -0.00073718500556674, -0.004400519439538107, 0.002057873098442908, -0.000991367737351011, 0.000920092401582087, -0.0001400212598137141, 0.0007054505523803641, 0.00013662741564792196, 0.00025183712920459595, 9.519214418791417e-06, 0.00040054570545108484, -0.00019613991625946718, -1.478035630580561e-05, -0.0002543240739011747, 0.00017822162897362877, -0.00010716539695427115, 0.00021042927539321248, 0.00039794761201138976, 0.00015308247909542655, -0.00013362966921986482, 0.00020118762970150857, -6.248837147273224e-05, -0.00020650562276528127, -8.150264761112642e-05, -3.445330051285373e-05, -8.397025874326586e-06, -5.8114027630566305e-05, -0.0001938898158135475, -1.7433387279013e-05], [0.001628998049131688, 0.0013652104451464728, -0.00039138878832876544, -0.0008795259853493802, 6.136573144849965e-05, 0.00011399127302453099, -0.00029762979705722864, 0.00028929944718215705, -0.00016542050369646534, 1.4898707035474188e-05, -0.0001049140640116706, -3.105486856812267e-06, 0.00022751817075365236, -0.00014706371547910585, 3.4762462852426194e-06, -2.4083464010698235e-05, 5.899338789019585e-05, 8.608042869583435e-05, -5.8686296791282265e-05, -3.0129230847145387e-05, 1.6858374095191924e-05, 4.4251920289520154e-05, 1.9436196693670203e-05, -2.795238015203063e-05, 9.051274067878786e-06, 4.313605972847289e-05, -4.953154058712939e-06, 2.1939906582524507e-05, -1.2108395056369765e-05, 1.5140216675862575e-06], [0.0025063114241681006, -0.0021547033799464415, 0.0014630751247401647, 0.00018880145841329156, 0.0009537800867549715, 0.000781964141558931, 0.0006783499139212906, 0.000396504361791738, 0.00014027783820820978, 3.332950836882811e-05, -0.00014330028604949807, 0.0001996425176771231, 0.00020139260994770164, 0.0001186676344900043, 4.5900977828130035e-05, -0.0001874148396365193, -6.438139229430424e-05, -0.00012129206809185231, -2.6129575739767788e-05, 5.321545019471136e-06, 7.497727624586348e-05, -9.154827767491416e-05, 0.00010272687076510093, -0.000130313947585673, -6.720494737172862e-05, 1.8132236735604334e-05, -4.834303012250025e-05, -3.0029858898795002e-05, -5.503814562077457e-05, 1.7661761149386563e-05], [0.001974799590087766, -0.0002894186435032184, 0.0014466202751356322, -0.00023832361632634342, -0.0002853051564099885, 0.0002717786181730164, -0.00013102476426563142, 0.0003562180622025849, -2.866446068973814e-05, 0.00019714643162675724, -4.41584836374561e-05, -3.4579044739844434e-05, -7.385804842471798e-05, -2.3813818628611314e-05, 3.0533669762933266e-05, 0.00012890449565102546, 3.932300507304083e-05, 1.2418431151305652e-05, -3.263033972256302e-05, -3.8270977006058404e-05, 1.422450260838036e-05, 3.15576320694946e-06, 7.642777560177808e-05, -1.861535027468336e-05, -1.0331068458237949e-05, -1.1338033740094449e-05, -3.5872327358984685e-05, 2.79317220330262e-06, -5.5540487939184175e-06, -1.969546601849978e-05], [-0.001405791383471996, 4.1539418418502005e-05, 8.364406719588062e-05, 1.2237639363159731e-05, 2.2566447321176963e-05, -4.732886679953879e-05, 1.738124116542291e-05, -4.948444208811628e-05, 5.322046774107251e-06, 1.7419810437485958e-06, 1.504610254847979e-06, -8.985083747412398e-06, -2.542261430912059e-06, 1.1575535718861008e-05, -1.1080071836101182e-06, -5.341280911707976e-06, 3.747218531811466e-06, 1.7794940756873632e-07, 8.695034576126315e-06, 7.27858480649681e-07, -4.8795586064303e-06, -1.3449192565044954e-06, -1.0255758746536482e-05, 2.473438850941758e-06, 4.696821440912918e-06, -9.292237482487084e-08, 4.98240886860273e-07, 4.0634620970565806e-07, 2.896831076771829e-06, 1.0202909431681863e-06], [0.0034760429312790044, -0.003059956296886876, 4.245055695370438e-05, 0.0015344736983180839, 0.0008157292465880798, -0.00019505443026862876, 1.1012624583433227e-05, 0.0005430435639867067, -0.00044225878295404606, -0.0002651669501174919, 0.00011554157562597631, 0.00023934645321771743, 0.0004089400713390461, 0.00016812976470723516, 0.00019461552779129483, -0.00018516542469294793, -0.0002904241940820702, 0.00024666443186897413, -0.0001479050556274239, -6.071203727348358e-05, 0.00013251758278550648, -8.842471258388024e-05, -0.000183933546268205, -6.281639983088344e-06, -0.00014264301932412484, -5.068948479606736e-06, 3.90114502015471e-05, -0.00014147558280347576, 2.591601893933841e-05, 9.062014299638197e-06], [0.0012216331688414135, 0.00023478638193334095, -0.0005742727219485651, -0.000779335746970118, -1.002331617386416e-05, 6.259174999976902e-05, -0.00010270926909542296, 0.0002877203139465135, -8.530301367002666e-05, 4.4691092796161085e-05, -5.823285524047488e-05, -8.952035863750698e-05, 6.714304558522292e-05, -2.7573917552958538e-05, -2.1775425083870167e-05, -4.766205166216273e-06, -1.10808432141413e-06, 1.2991107680671097e-05, -3.1146007158018965e-05, -2.3227962060381538e-06, 2.9581620574196347e-05, 2.8350876567240232e-05, 5.265858459512557e-05, 1.1492304552991895e-05, 4.381636655511155e-06, 1.3232106219203639e-05, -4.9611375384641015e-06, 1.5815122571185434e-05, -7.666867745103461e-06, 3.6243210236127143e-06], [0.004666363801547072, -0.0006571980241987735, 0.0020723711103093575, 3.425494549545313e-05, -0.0008560337601378092, -8.19845331853495e-05, 0.0003938716781793618, 7.919096132315371e-05, 0.0005039690562329351, 0.00014700252179939598, 0.0004441245818125328, 0.00035387448647594385, -0.00017329744317916323, -0.00014860776897300548, 0.00016201726256994054, -9.54937302460994e-05, -9.813571014039196e-05, 7.334939105621611e-05, 0.0002259102461860079, 4.687574731545501e-06, -6.0319879504058025e-05, -2.3693231723276724e-05, 1.5068136858999394e-05, -1.463366789645396e-05, 4.1075865335669204e-05, 2.853560716477246e-05, 4.952629007859514e-05, 8.623183463815038e-05, -1.602687068892765e-05, 4.535085677384479e-05], [0.003392926724119669, 0.0015174290552084587, 0.0011783117314290684, -0.00023912369973577293, -0.0004528683619930671, 0.0008401710593846162, -0.0003768376285682835, -0.00023361923851002706, -0.00024322152488526815, -0.0001677873051154217, 0.00013107214952658947, 0.0002576830209029803, 7.776599811234882e-06, -0.00012453519808062813, -0.0001434254734861148, 4.093292924206904e-05, 8.456737933324478e-05, 6.4045895676176035e-06, -8.113880812649883e-05, -6.802686499032029e-05, 7.136305197005212e-05, 2.4132937956653273e-06, -6.418706214660003e-05, -2.1561066075461833e-05, 9.45846637757444e-05, -6.77197297704325e-05, 2.820351568902505e-05, -9.310433425675591e-05, -3.555214887371976e-05, -1.2304811835898802e-05], [-0.0014063660012255319, 4.250240231653179e-05, 8.393491932421568e-05, 1.2602429597030676e-05, 2.250986364637435e-05, -4.740707408296344e-05, 1.7497660936234913e-05, -4.9441026110074555e-05, 5.387152873863405e-06, 1.6124779622122276e-06, 1.5328359633224812e-06, -9.018842876764374e-06, -2.5239207517256913e-06, 1.1559983397948386e-05, -1.0849918045476897e-06, -5.3266273069259905e-06, 3.725769918826762e-06, 1.53026773175953e-07, 8.688207139864498e-06, 7.351996472528344e-07, -4.8644321002509855e-06, -1.3382582818976937e-06, -1.0256945983302183e-05, 2.4574394808927185e-06, 4.6900518646622935e-06, -9.574588896344937e-08, 5.08726693101671e-07, 4.01251562098289e-07, 2.881544857588653e-06, 1.0278015973306957e-06], [0.0039654925623006446, 0.0002491424242182487, -0.0005958268229539483, 0.0012792176113056919, 0.0013289798887427084, 0.0007266018332656153, 0.0010143093885019857, 6.1451049970003685e-06, -0.0007958542956464597, -7.691061905693234e-05, 1.6776103032454405e-05, -4.25633340139531e-05, -0.00012923825929622555, -0.00019201891285608292, -0.00013310304354416039, 0.00011704245502968834, 9.989236456657404e-05, -2.73121437154382e-05, -6.943827999415195e-05, -8.918330091077188e-05, -8.651460190078873e-06, 1.5632586124432818e-05, -0.00010992892320434227, 0.00018470706874854106, -4.686761258005101e-05, 0.00016439670975331323, 0.00012463762711838221, 0.00010184876447419253, 7.224813282940011e-05, 5.166976737883645e-05], [0.0006939243665037955, -3.339770285408208e-05, -0.002735568636327415, -0.0005743416896585828, -0.0004252899988395779, 0.0003988810595593429, 0.00011700548253382931, 0.00022709898559732466, 1.109241439897179e-05, -4.861137226367494e-05, 6.608796507171025e-07, -6.226170562062632e-05, -0.00015704291728756988, -3.546274561181053e-05, 1.8195833485807368e-05, -0.00013720109664496811, -6.211008991279329e-05, 2.854040833047259e-06, 6.411276226837162e-05, -9.085221263936049e-06, -1.3062189225305392e-05, 3.222573940114523e-05, 0.00013300932859041582, 3.2538064547171704e-05, -8.658049898765289e-05, -5.0004603174298795e-05, 3.650306106544247e-05, 7.763760199511954e-06, -9.869049758161067e-06, -2.150140676002223e-05], [-0.0014067291494451522, 4.311140417926489e-05, 8.411877598638466e-05, 1.2833130656789647e-05, 2.247408259180144e-05, -4.7456548144980924e-05, 1.757124838735964e-05, -4.9413490701553666e-05, 5.428319683660297e-06, 1.530548732905503e-06, 1.550691168780398e-06, -9.040189620827813e-06, -2.51234071631402e-06, 1.1550151865665432e-05, -1.0704486401394085e-06, -5.317367512992755e-06, 3.7121645800082358e-06, 1.372412213918643e-07, 8.683861407189912e-06, 7.398421739073788e-07, -4.854858504609797e-06, -1.3340334205955511e-06, -1.0257684965248646e-05, 2.4473275667408977e-06, 4.685759200001659e-06, -9.75262479517121e-08, 5.15345722755468e-07, 3.980240672366124e-07, 2.8718687209559334e-06, 1.0325465971650838e-06], [-0.0014068548298990535, 4.3322246888878566e-05, 8.418241409552109e-05, 1.2913002033695572e-05, 2.2461695463593887e-05, -4.747367918786498e-05, 1.759671821845486e-05, -4.940394329417698e-05, 5.4425707557333375e-06, 1.5021786597778896e-06, 1.5568736964730482e-06, -9.047579530034521e-06, -2.5083350302560746e-06, 1.1546748864470891e-05, -1.0654158263501035e-06, -5.314163022252922e-06, 3.7074468499601757e-06, 1.3177176855786554e-07, 8.682351805999223e-06, 7.414494397924152e-07, -4.851542712716868e-06, -1.332568502448798e-06, -1.0257938672841843e-05, 2.4438278752992413e-06, 4.684270952573275e-06, -9.81416755773442e-08, 5.176350585441671e-07, 3.969056720434626e-07, 2.8685171407208285e-06, 1.0341884844362035e-06], [0.005337969874170122, -0.0007300889725839682, -3.934313857476698e-05, 0.00021031883462317887, -1.691023988067929e-06, -0.0005818584198758181, 0.0006375030155316082, -0.00016911587094638138, 0.00014225189793507363, -0.00032922603796921274, 0.00014140262865658984, -0.00031269434003308467, 1.728895181598362e-05, 9.828746647209639e-05, -4.239735528106564e-05, -3.150587554241601e-05, 3.629688124054764e-05, 9.354251268862844e-05, 3.376704906925057e-05, -6.019446335323195e-05, -8.133214562915191e-05, 2.533634792773138e-05, -8.132438868982865e-05, 2.3398191727158545e-05, 2.6251390070297023e-05, -3.996487812340673e-05, 5.199572598667752e-08, -3.5154495216655136e-06, 8.042220996311319e-06, -3.9715550373296235e-05], [0.0037728793656894542, -0.0006286583288335587, -0.00015348574880916027, -0.00030469308981401823, -0.00017046540303789203, -0.00019832074166316685, 0.00019235503854562555, 0.00016687072518899, 2.869959115888754e-06, -0.00012015795598382081, 8.683332496532155e-05, -0.00023780134010417174, 4.560289906921003e-05, -0.0001374730912666073, 7.537422722098965e-05, 9.782784491803008e-05, -1.7601273650838124e-05, -6.228961365764918e-05, -5.2404253738285274e-05, -3.433646071524546e-05, 2.2179591503217543e-05, -5.8050094835424176e-05, -3.349472546438614e-05, 1.8574247981272163e-05, 2.5317732859146586e-05, -1.4043905508937705e-05, 2.142106331530999e-05, 2.798015121308795e-05, -1.4492753197772535e-05, 2.8556360967523534e-05], [0.005895683926656308, 0.0023248274251334794, -0.00023495702091314315, 3.436213358654486e-06, 0.0003718664516649923, -0.0004315978793018821, 0.0003472622349177547, -0.0013025933503099873, -8.008217177164534e-05, 0.00021630826430201562, -1.3019534663359037e-05, -0.0001563318232339999, -0.00012150442841422671, 5.700060462181247e-05, -0.00013232378521533332, -1.6405173965168442e-05, -0.00017406074528665956, -8.6279837990065e-05, -3.982087712827506e-05, 0.00020540699295534028, -9.564126997445446e-05, 0.00013924344282645245, -3.311263326590349e-05, 4.175912252373577e-05, -0.00010046030599219413, 3.8161301720392075e-05, -7.158877255073033e-05, 6.7081833846088645e-06, 7.952429371977629e-05, -7.719406185645703e-05], [-0.001407378031275808, 4.420039161559942e-05, 8.444737988979631e-05, 1.3245662865044614e-05, 2.2410107372192823e-05, -4.7545043309316047e-05, 1.7702760193073625e-05, -4.9364099877065315e-05, 5.5019182879778535e-06, 1.3839897260834457e-06, 1.58262835562508e-06, -9.078354935739257e-06, -2.4916705820144652e-06, 1.1532579799892289e-05, -1.0444665514985782e-06, -5.300823963962579e-06, 3.6877568310601168e-06, 1.0896787412989813e-07, 8.676036414675169e-06, 7.481434479153829e-07, -4.837725384668605e-06, -1.3264549010048075e-06, -1.0258983540747183e-05, 2.4292582754585723e-06, 4.678060979661242e-06, -1.0069962355097908e-07, 5.271576029701082e-07, 3.922420841774928e-07, 2.854549160733187e-06, 1.0410219612822574e-06], [-0.0014075143986233235, 4.4429382054919125e-05, 8.451645217844424e-05, 1.3332410183134839e-05, 2.239665584335592e-05, -4.756365651598149e-05, 1.7730402268845263e-05, -4.935368909037706e-05, 5.517392217418761e-06, 1.3531621990661654e-06, 1.5893455954353687e-06, -9.086379313309956e-06, -2.4873300761434494e-06, 1.1528886097270578e-05, -1.0390068775620985e-06, -5.29734755639622e-06, 3.682611470038889e-06, 1.0301502370519411e-07, 8.674382146099362e-06, 7.4988898045528e-07, -4.834120362242991e-06, -1.3248574160092773e-06, -1.025925287892977e-05, 2.4254607035590652e-06, 4.676438569923738e-06, -1.0136525371890983e-07, 5.296374788331572e-07, 3.910245070239613e-07, 2.8509044269937774e-06, 1.0428026094916593e-06], [-0.0014076549506959462, 4.466544973791638e-05, 8.458764931517233e-05, 1.3421838115584544e-05, 2.23827891251913e-05, -4.758284651761245e-05, 1.7758894120384894e-05, -4.93429471387037e-05, 5.533343505807658e-06, 1.3213786759826957e-06, 1.5962709563768928e-06, -9.094651295244175e-06, -2.4828576827687743e-06, 1.1525078844067157e-05, -1.0333798647049808e-06, -5.293764603311964e-06, 3.6773023370919355e-06, 9.687550430190814e-08, 8.672673515441163e-06, 7.516884373669502e-07, -4.830403131049171e-06, -1.323209158879412e-06, -1.0259529188845193e-05, 2.421546541828097e-06, 4.674764686726365e-06, -1.0205085095376299e-07, 5.321925461374475e-07, 3.897686697186128e-07, 2.847146057334583e-06, 1.0446377150813838e-06], [-0.0014077999571725005, 4.490905241595248e-05, 8.466110840236771e-05, 1.3514120005150006e-05, 2.2368480386682924e-05, -4.760265066293527e-05, 1.7788290560493285e-05, -4.9331852295174715e-05, 5.549802997724031e-06, 1.2885772289003943e-06, 1.6034179148407437e-06, -9.103186881031906e-06, -2.4782449455579975e-06, 1.1521150720226109e-05, -1.0275747340403986e-06, -5.290068244049271e-06, 3.671818688645737e-06, 9.05371605142177e-08, 8.670906903166153e-06, 7.535453050536363e-07, -4.826566411122067e-06, -1.3215068027199467e-06, -1.0259812879285057e-05, 2.4175082759047076e-06, 4.673035957982067e-06, -1.0275768742178556e-07, 5.348276208655623e-07, 3.884720782275882e-07, 2.8432666717481735e-06, 1.0465307810887144e-06], [-0.0014079497148719027, 4.516069407415215e-05, 8.47369803570975e-05, 1.360944668337253e-05, 2.2353700092145146e-05, -4.762311007246471e-05, 1.7818651924136583e-05, -4.932038061031596e-05, 5.566804649599568e-06, 1.2546896727508302e-06, 1.6108013082415164e-06, -9.112003683987846e-06, -2.4734825611150032e-06, 1.1517093670995085e-05, -1.0215796214138154e-06, -5.286250928112971e-06, 3.666148685037677e-06, 8.398660539632172e-08, 8.669078316938939e-06, 7.554634217892576e-07, -4.8226021867698025e-06, -1.3197466820701692e-06, -1.0260104397583167e-05, 2.413337635372436e-06, 4.67124866805159e-06, -1.0348716249686588e-07, 5.375480015514436e-07, 3.8713198551628146e-07, 2.8392581435490556e-06, 1.0484856627099109e-06], [0.001972194323599918, -0.0002655723523496269, -0.0028467594005280356, -0.0002900364965276511, -0.0007076995847374583, 0.00027723995664715324, 0.00015526691959701102, 0.0003157206365550703, -9.557274593353406e-06, -7.202651291837446e-05, -0.0001016189744828164, -0.00022222094110070385, 1.4826091063546566e-07, -1.791933888383151e-05, 4.2792760876900805e-05, 1.3307148212325832e-08, 3.3076601377427836e-05, -0.000153421622174366, 2.978988668613497e-05, 6.989398994588173e-05, -5.47386196580619e-05, 3.117351219639795e-05, 7.67178489211964e-05, -1.5148908361255327e-05, -0.00012571315489203993, 4.816365772165541e-06, 0.00011145611136816561, -2.0429239499606942e-05, 1.4964214027281078e-08, -2.539156376358674e-05], [-0.0014082611720770417, 4.568373624205931e-05, 8.489474202853828e-05, 1.3807732925881507e-05, 2.2322947246007023e-05, -4.766567000149298e-05, 1.788177804171801e-05, -4.9296571561866904e-05, 5.602152706817586e-06, 1.1842065221660961e-06, 1.626160133656836e-06, -9.130337799492738e-06, -2.463573004142363e-06, 1.150863637828435e-05, -1.0091194590071839e-06, -5.2783105208124765e-06, 3.654354596019406e-06, 7.034711414571359e-08, 8.665268491508846e-06, 7.594515818128301e-07, -4.814350539905546e-06, -1.3160805906975866e-06, -1.0260705057355486e-05, 2.404661620104079e-06, 4.667529723254672e-06, -1.0500111607348283e-07, 5.432034044021686e-07, 3.8434261356759563e-07, 2.8309163231277117e-06, 1.0525500042697158e-06], [0.0026532136002992857, -0.0022459238890993366, 0.0012564914585680561, 0.00016158899203671994, 0.000858450901087591, 0.0005036287289557, 0.000554486697219209, 0.0003999127343705996, 3.239661830554547e-05, 4.2978400226004145e-06, -0.00010699207586605027, 0.00017221293939028681, 0.0001690275625733749, 8.138244137623424e-05, 0.00013548166169206246, -0.00014473853401191894, -9.378567537889327e-05, -9.518840828071643e-05, -4.565501272820771e-05, -6.021774181168166e-06, 4.71295543949969e-05, -6.477686419197451e-05, 8.12740325167019e-05, -0.00011256720065934433, -4.12834580513732e-05, -4.4277843701447335e-07, -5.8643105596999936e-05, -5.405876365833704e-05, -6.0370272833964805e-05, 1.4528978150847724e-05], [0.00045798746089595587, -0.0028323758657359493, -0.0013483497481789383, 8.855533972692593e-05, -0.00011141060641548063, -0.00016055936236610393, -0.0007352478336264424, 0.00018436294702869332, 8.669052378928649e-05, -0.00020704111862173484, 3.0413605375214613e-05, 0.00027513951311382474, -0.0002970184604665821, -1.817868964369869e-05, -0.00022320087773755658, -2.0707609440893733e-05, -0.0002915828886036399, -7.413912410826514e-05, -0.00023900057255655388, 9.347513367638751e-05, -4.319128853355167e-05, 5.113928155448685e-05, -3.0035540362736933e-05, 4.0193348130759646e-05, -1.9461009188182366e-05, 7.468424306072814e-05, -6.416730652545326e-05, 3.124884149090529e-05, 7.1222064307923265e-06, -1.0930135181940744e-05], [0.002917226994681692, -0.00019120241419930527, 0.0024310149809144517, 0.0006776050347173202, -0.0005361013085550269, 0.0012278336444146228, 4.166136253360609e-05, 0.00015218488749317919, 0.00012836184770103495, 1.0013280291495545e-05, 0.00015711907287754238, 0.00022101348055777, -0.00028203126132605625, 9.099251154186007e-05, -2.1588894133140877e-05, -0.00017371731243671695, 0.00021284015746674597, -5.900169667625019e-05, -2.346132165582496e-05, 4.682097828363517e-05, 0.00023489541638006218, -0.00010929599026858243, 0.0001664338033917412, 0.00010733670209190885, -8.181419328687862e-05, -6.586717708258713e-05, 5.352279240867003e-05, 6.192432560217196e-06, 3.459142939034677e-05, -5.225632322421211e-05], [-0.0014089270053002203, 4.680423509794546e-05, 8.523224913882096e-05, 1.423205416360392e-05, 2.2257178181316866e-05, -4.775678224223656e-05, 1.8016825066385697e-05, -4.92451960389055e-05, 5.677823216427915e-06, 1.0332657153586034e-06, 1.6590399706824105e-06, -9.16957819899432e-06, -2.4424403328992545e-06, 1.1490610641984206e-05, -9.82463138040516e-07, -5.2613436158308295e-06, 3.6289825558661605e-06, 4.1125529728744226e-08, 8.657043809069865e-06, 7.679905755855757e-07, -4.796687530271667e-06, -1.3082109640552594e-06, -1.0261970054071257e-05, 2.386119161923315e-06, 4.659537653902748e-06, -1.0823438025076432e-07, 5.552749381976795e-07, 3.783614921878021e-07, 2.8130486194076688e-06, 1.0612374639992305e-06], [0.0016406868663657141, 0.001390209241423818, -0.00038117192089345446, -0.0008804168595891735, 6.262185229962695e-05, 0.00011475429719530232, -0.0003057255662623917, 0.0002881369823149072, -0.00016839508605313516, 1.3327916430810812e-05, -0.00010658166559967073, 8.828827097036362e-07, 0.00023158754853248967, -0.0001509433704874005, 3.5266965082846574e-06, -2.3971341905708204e-05, 6.0233394341034196e-05, 8.803556325472507e-05, -5.9871969259316515e-05, -3.139668201356419e-05, 1.615453322971551e-05, 4.4849537705017756e-05, 1.823489127604729e-05, -2.9070498414883206e-05, 9.34565775997317e-06, 4.396343421585391e-05, -4.722850490357817e-06, 2.149164419840756e-05, -1.2484197827857287e-05, 1.534091744436984e-06], [-0.0014015333853292086, 2.658026206579548e-05, 8.06542621771915e-05, 8.947920597287896e-06, 2.290967732067745e-05, -4.657954899741074e-05, 1.614456086929829e-05, -5.126769171152906e-05, 4.518313719552022e-06, 3.190688824157867e-06, 1.2340864987955407e-06, -8.609410304269344e-06, -2.5251220482446237e-06, 1.1392048464281898e-05, -1.3946183944519613e-06, -5.42283028094494e-06, 4.2161994955290745e-06, 3.400226531041062e-07, 8.841912715747257e-06, 6.359354437128872e-07, -4.973288170006047e-06, -1.4119664670818067e-06, -1.0233841232220033e-05, 2.561803644528224e-06, 4.81439276620006e-06, -4.6699807975068194e-08, 4.3693171044830944e-07, 4.5790922593804235e-07, 3.0328831023551915e-06, 9.530813525264754e-07], [-0.0014094716719276251, 4.772108194758496e-05, 8.550836429128476e-05, 1.4579429406469218e-05, 2.2203330958543503e-05, -4.7831396180365305e-05, 1.812729398847831e-05, -4.920308336220575e-05, 5.739741101740862e-06, 9.096606509278017e-07, 1.6859651476691845e-06, -9.201691778788696e-06, -2.42516358407568e-06, 1.1475838661335206e-05, -9.60670195966047e-07, -5.247464392351064e-06, 3.6081518158442947e-06, 1.7152010667667084e-08, 8.650262662912632e-06, 7.74978814632509e-07, -4.782210352040051e-06, -1.3017447816261078e-06, -1.0262981849680026e-05, 2.3709476860519553e-06, 4.6529765893235715e-06, -1.1086966649123687e-07, 5.651355338234665e-07, 3.7345480884763976e-07, 2.798403773592604e-06, 1.0683400908276394e-06], [-0.0014096671996881407, 4.805028062686823e-05, 8.560749299395041e-05, 1.4704192413726208e-05, 2.2183990369347313e-05, -4.785819985900954e-05, 1.8166950629867222e-05, -4.918794514542966e-05, 5.761972879823478e-06, 8.652585818038081e-07, 1.6956371970050414e-06, -9.21322343380419e-06, -2.4189638745162383e-06, 1.1470530142455341e-05, -9.528495207112746e-07, -5.2424819780664995e-06, 3.6006569335762374e-06, 8.530515381533269e-09, 8.64781667275653e-06, 7.774882065685204e-07, -4.777006960732649e-06, -1.299417148480819e-06, -1.0263340027555969e-05, 2.365500604508964e-06, 4.65061608423778e-06, -1.1181362818774547e-07, 5.686722310607882e-07, 3.7169030684753943e-07, 2.793140143593547e-06, 1.0708890148881752e-06], [-0.0014098715926989139, 4.839450528307054e-05, 8.571112656232684e-05, 1.483465105736318e-05, 2.2163767747785788e-05, -4.7886230517140304e-05, 1.8208408195349686e-05, -4.917209697059629e-05, 5.785217671142902e-06, 8.188225974085631e-07, 1.705751942134336e-06, -9.225280700953557e-06, -2.412485710804578e-06, 1.1464980288580003e-05, -9.446747774378617e-07, -5.237273945651652e-06, 3.5928100433062365e-06, -4.903379171607571e-10, 8.645252232095298e-06, 7.801120912854822e-07, -4.771564306895353e-06, -1.296980297409693e-06, -1.0263711705413727e-05, 2.359806423080434e-06, 4.648145020727173e-06, -1.1279939495037538e-07, 5.723673554120346e-07, 3.698439257208602e-07, 2.7876340905896772e-06, 1.0735530943263568e-06], [0.003258432599088207, -0.002470376369270595, 0.0004176659996048972, 0.00019795142408931244, 0.0005447551121297711, -0.0002504887390015415, -4.8532412955247514e-05, 0.00039864193777516154, -0.00010625265364678402, -0.00036955310353382225, 6.595415136854887e-05, -1.534893941695375e-05, 0.00010902148501471398, 2.5168857618435832e-05, 0.00027241363418657565, 4.672820903881595e-05, -0.00015069973085732682, -2.419440487143816e-06, -8.890515519078378e-05, 4.270978354570249e-05, 1.2507906855887092e-05, -7.528402743340137e-05, 3.203210499628848e-05, 3.22434652832313e-05, 4.2516690303054414e-05, -1.881240996214589e-05, -2.2469252528516667e-05, -8.469136497008327e-05, -4.0140158358694896e-05, 3.115036145464786e-05], [0.003333560329683464, 0.0015648379063320508, 0.0008035648579175313, -0.0004718504538224877, -0.0003814765181592339, 0.0005552452179533766, -0.00035558235406777126, -0.00019013662392292158, -0.0002559539263534397, -0.00013188889203040756, 5.377850904574661e-05, 0.00021581997900227328, 9.44134056643883e-05, -0.0001996096204332147, -9.80866012435365e-05, 8.125566290030101e-05, 4.741645583988942e-05, 4.6111734750449415e-06, -7.818911446169675e-05, -7.691087880960993e-05, 4.282302067365628e-05, 2.1961484284869706e-06, -8.433651120557276e-05, -4.5105844547771014e-05, 7.468338505772379e-05, -4.188037434641516e-05, 2.409194903315812e-05, -6.20929622604318e-05, -3.546448880796953e-05, 9.30083979655133e-06], [-0.0014105243550006199, 4.949451528223244e-05, 8.604216679101047e-05, 1.5251557315671746e-05, 2.209914825950714e-05, -4.7975830823235825e-05, 1.834082879071202e-05, -4.912132405356205e-05, 5.859487523132523e-06, 6.703805883898816e-07, 1.7380834585612134e-06, -9.263806277757418e-06, -2.3918144725332997e-06, 1.1447251008092508e-05, -9.185711861976908e-07, -5.220643175789424e-06, 3.5676667149733924e-06, -2.9357898720853147e-08, 8.637010694552664e-06, 7.8849672605493e-07, -4.754159403675864e-06, -1.2891726122640333e-06, -1.0264879928385181e-05, 2.34162020371666e-06, 4.640229162607021e-06, -1.1594074270384408e-07, 5.841551386047842e-07, 3.6393438223610855e-07, 2.770023819807369e-06, 1.0820584035235695e-06], [0.0016651712389917517, 0.00141921319593845, -0.00036176634510777153, -0.0008796994654365279, 6.205058959420547e-05, 0.00011599178690057897, -0.0003166968072511203, 0.0002852909675633779, -0.00017245337214411577, 1.1097758891752574e-05, -0.00010855613753130371, 6.272766641931993e-06, 0.00023639724094208292, -0.00015685039216194324, 3.1795303026606453e-06, -2.2515352494996608e-05, 6.171553043204565e-05, 8.97834178201226e-05, -6.176245087499307e-05, -3.356449328515169e-05, 1.529400461659881e-05, 4.5511269455074645e-05, 1.6286021397941144e-05, -3.0704422443286924e-05, 9.93537317486646e-06, 4.471977698174218e-05, -4.159769372686268e-06, 2.0622254224849438e-05, -1.3174377860965276e-05, 1.6056459166940146e-06], [0.0026460311883106623, 0.0006312458017356951, -0.00307571654586842, 0.0027145619597403053, 0.0014915679093983362, 0.00016670524575812407, -0.00019099672411899643, 0.000740972386362901, -0.0006053890976097548, 0.00018289536772448091, -1.1563585110114877e-05, 0.0006377641934457192, 0.00032404877959244725, -0.00023959558140334672, -0.00020736765298423216, 0.0006179668796883018, 0.00026951035612570844, 5.06162154869602e-05, 0.00038963581694658047, 0.00011536940972052201, -4.236669881386128e-05, -3.0429210354824183e-05, 0.00012376428314981862, 0.00012898492346354032, -6.381396430319623e-05, -9.327527401688682e-05, 0.00018403974058063278, 9.262718291072776e-05, -1.0727120222147132e-05, 3.9893506092994605e-05], [-0.0014112358531472103, 5.069466621973871e-05, 8.640311409019169e-05, 1.5706437648074903e-05, 2.202865296238371e-05, -4.807363189594799e-05, 1.8485197402266245e-05, -4.906570725523058e-05, 5.9404986201323495e-06, 5.08336946147407e-07, 1.7733735794053834e-06, -9.305830769783184e-06, -2.3693140482436326e-06, 1.1427917659612577e-05, -8.901254571728662e-07, -5.2025193554734454e-06, 3.5401169898798774e-06, -6.092377118217506e-08, 8.627937947027538e-06, 7.976441392306831e-07, -4.7351486482151464e-06, -1.2806186331894982e-06, -1.026612062161528e-05, 2.3217959750762426e-06, 4.631559120117341e-06, -1.1935278888171627e-07, 5.969806161118538e-07, 3.574708361427306e-07, 2.750784155667058e-06, 1.0913239958185597e-06], [7.80004306267698e-05, -0.0022972080888825877, -0.0009139289710484338, -0.0003504768836221316, 4.77426334341214e-05, -0.00011344689688156809, -0.0004707805898159041, 2.8001435093129004e-05, -1.3011030893919346e-05, -5.8784028424841885e-05, 7.858549484008202e-06, 0.00015854583404984057, -0.00018687696745064053, 1.2962842269405385e-05, -0.00012274233072023447, -3.170108396417711e-05, -0.00015150060120600587, -8.026006914301755e-05, -0.00012555468734998034, 3.4815771042387765e-05, -1.7208392082830986e-06, 2.1478527290841412e-05, 6.497903565051644e-06, 5.32340626989434e-05, -7.474288454520647e-06, 5.521029716752171e-05, -2.912283191285282e-05, 6.691224493577743e-06, -3.303816459131859e-07, -2.288728925896177e-05], [-0.0014117505476772842, 5.156360997837362e-05, 8.66642999911711e-05, 1.6035796428393953e-05, 2.197761708718067e-05, -4.8144470972409494e-05, 1.8589654385991986e-05, -4.902529430798053e-05, 5.999139806530753e-06, 3.9095569593223726e-07, 1.7989345469184512e-06, -9.33625216678336e-06, -2.35305747629945e-06, 1.1413926451194648e-05, -8.695522413363555e-07, -5.189410946760164e-06, 3.520093676340844e-06, -8.382402846930442e-08, 8.621316242285552e-06, 8.042667466809232e-07, -4.721370520286915e-06, -1.2744022380040877e-06, -1.0266996884735215e-05, 2.307454212246423e-06, 4.625259858818303e-06, -1.2181324671277417e-07, 6.062434857617175e-07, 3.527806370867454e-07, 2.7368370573457083e-06, 1.0980233730442243e-06], [-0.0014120279584076837, 5.203222251033434e-05, 8.680510184437928e-05, 1.6213419662302456e-05, 2.1950095826365013e-05, -4.8182683419220176e-05, 1.8645962316982687e-05, -4.9003449128581505e-05, 6.03075971600602e-06, 3.2763355582723716e-07, 1.8127227194518078e-06, -9.352656102543637e-06, -2.344302566857649e-06, 1.1406383645999638e-05, -8.584651121921126e-07, -5.1823465834551595e-06, 3.5092685830523768e-06, -9.61897205375767e-08, 8.61772679098156e-06, 8.078381017788999e-07, -4.713935383177611e-06, -1.2710417867726386e-06, -1.0267461773529996e-05, 2.2997239403513995e-06, 4.6218550774976235e-06, -1.2313667031103544e-07, 6.112307398424663e-07, 3.50247646814883e-07, 2.7293096336156807e-06, 1.1016330495669677e-06], [0.002114203772304478, -0.0018077563431903706, 0.0008166274062169007, -0.0001887766330644895, 0.00028867871199883034, 2.998063945207938e-05, 5.735697940916955e-05, 0.0004045882506689214, -6.843966433480109e-05, 9.562927495223355e-05, -6.725890957597603e-05, -5.2764476065257106e-05, 4.034122274974901e-05, -1.904842002975183e-05, 0.0001425309133822191, 3.43782189873151e-05, -8.613570377521348e-05, -4.94836177048856e-05, -5.303550667751069e-05, 2.8106383593545892e-05, 2.79493098395053e-05, -2.6474520544280633e-06, 7.482109892490318e-05, -2.9522746612755644e-06, 1.6971437771708614e-05, -8.433078895472643e-06, -6.877084604096936e-05, -6.887853426541671e-05, -3.281202226979845e-05, 1.1212492043854466e-05], [0.002002045960539393, -0.00026915569935626515, 0.0015324386748855068, -0.00019912337882906428, -0.00032171527100480516, 0.0003036767703745546, -0.00013747826607837658, 0.00035335986224072324, -1.9574700925238528e-05, 0.00019862095302512197, -4.2694580201156665e-05, -2.4856140952123292e-05, -8.906496322816218e-05, -2.1736564732720433e-05, 3.414127105692656e-05, 0.00013107871162813982, 4.6463185641634076e-05, 1.3459160029147285e-05, -3.1611006867074197e-05, -4.1419773307972444e-05, 1.5701133564239642e-05, -3.027644682569922e-07, 8.109075790460036e-05, -1.7045504612418e-05, -1.5812623760435905e-05, -1.556927223711106e-05, -3.375199310380128e-05, 3.159099526435743e-06, -2.7833124333164026e-06, -2.428758662458711e-05], [0.005089555811606507, 0.00042520133695706744, -0.0006200113038595806, 0.0008485438274722876, 0.001563886428995263, -3.979877016997552e-05, -2.6711219333296114e-06, -0.00030530935794662294, 0.00039980744267009537, -0.0004123945224841116, 2.7939860008262875e-05, -0.0004781845916582432, -0.0002897358821045375, -0.00013307577483414083, -0.00023416224955869811, 0.00010703115933525643, 0.00040166258580301683, 0.0002748619556926249, -1.5180739009227576e-06, -6.499481665627956e-05, -2.190242733722968e-05, 4.112382345480889e-05, -7.884945634271079e-05, -4.9911611789487794e-05, -8.225913332925654e-05, -9.645274801774601e-05, -3.985954437900563e-05, 2.713278685231129e-05, 2.6243261212831583e-05, -4.668962756999032e-05], [0.0046922932030026695, -0.0012017077137915686, 0.0011935054940467949, 0.00040111136026274103, 0.00027243193164907983, -0.0003863186324231489, 0.0008984449250306591, 0.00020010148081273313, 5.7886582291757375e-05, 6.331322940015606e-06, 0.0001817902778538584, 0.00019608615132607373, -4.609192264769128e-05, -0.00010389209482601774, 0.00011920818806717335, -0.000151623582033164, -0.00010936429898625044, 7.604071006706631e-06, 4.099523836320001e-05, -0.00010189740162678794, -0.00010116919507704315, 4.422353881843655e-05, -1.6968544674663803e-06, 7.143613158820822e-06, 7.03047442334557e-05, 5.787089389358873e-05, 8.746766019712171e-05, 9.076113453396845e-05, 2.8092006652914776e-05, 4.508232199482476e-06], [0.004586227102457743, 0.0004614660554051956, -0.0008290697472755192, 0.0027183830932771603, 0.0005054706181902572, -0.0009577551469802707, -6.86332562767284e-05, -9.119596162773528e-06, -0.000660382280815589, 0.0006195850587943239, 3.075123544170015e-05, 1.5273656226292064e-05, 0.0002884259072344132, 0.00023028812568850741, -0.00019704415198229988, 1.1486367679556214e-05, -3.3593826645258066e-05, 0.00021629385877174732, 4.364333331051395e-05, -0.0003670944617884213, 4.1600576185100054e-05, -0.0001244637492914261, -8.236581109283176e-06, 0.0003027779609017244, -1.3617646794694616e-05, -8.556753943468936e-05, 0.0002388221065768244, 7.607135526432674e-05, 4.7252708085253884e-05, 8.885437279883922e-05], [0.003653799563772922, -0.00047667221479155583, -0.0007568298397447927, -0.0003407666250679607, -0.0002368666385697485, -0.0001851455871765698, 0.00012368112594621404, 0.00016519460941061856, 8.528691583473005e-06, -0.00015558521177415637, 1.8479737143093572e-05, -0.00030355060354453003, 9.198435448354943e-05, -0.00012853532809901867, 7.906367115036723e-05, 0.00011724374802298386, 2.0728884126783963e-05, -0.00010727413121825161, -6.844191184858441e-05, -1.3839586080807637e-05, 9.389887573640095e-06, -4.629957813256889e-05, -3.0568502091373086e-05, 2.3395151075652228e-05, -9.023585181768883e-06, -2.2344453158945926e-05, 4.488085380104323e-05, 2.007638017781312e-05, 2.351914541409644e-06, 1.2652509597014873e-05], [0.0035618197009762488, -0.0028051706304652903, -0.0010360207642419884, 0.0014844023100317515, -0.00019405123541847097, -0.0007351339125693566, -0.0007632281069278576, 0.0006076521138596627, 0.0004058626011648791, -0.0007997825670715618, -0.00016407768207651725, 0.00013876139983177866, 0.00010425582652428292, 0.0003052608462580709, -6.248221489492706e-05, 9.00057910699741e-05, 5.267932777331374e-05, 0.00017521581303278958, -0.00012302044104376452, 5.521197180702859e-05, -6.819779590832388e-05, -7.976435923050121e-05, -0.00013219793846678082, -8.52147288752616e-05, 6.567635223739835e-05, 3.3497098753382704e-05, 6.426241686994057e-05, 1.2190970877955307e-05, 0.00013032798320262743, 6.8432277684432e-05], [0.0011948107732503296, 0.00019392594189385047, -0.0005496728036336175, -0.0007713760911588903, -8.14588245035654e-06, 5.964754692303834e-05, -0.00010327583922150332, 0.000287090816078188, -8.461140759780553e-05, 4.7408215564835544e-05, -5.731551888092856e-05, -8.939473058733307e-05, 6.186097949613768e-05, -2.32430138245113e-05, -2.3642339443293005e-05, -2.8413287297377498e-06, -3.3947775931750762e-06, 1.2053366138714372e-05, -3.087104531999136e-05, -2.009269489828071e-06, 2.9003624937977134e-05, 2.8346677237061077e-05, 5.25204541314784e-05, 1.2134992476933839e-05, 5.24708142233648e-06, 1.2875662089479143e-05, -5.812705953382411e-06, 1.5142475280068504e-05, -7.699171982114282e-06, 3.7148192279303204e-06], [0.0015740764071845465, 0.001332799181025901, -0.00042935388725785594, -0.0008845087297930981, 6.53144739082528e-05, 0.00011184553019211441, -0.0002823323115285274, 0.00029527194299437833, -0.00016012033157679137, 1.7754649377861305e-05, -0.0001027909606891145, -9.599843295150823e-06, 0.00022165093982907713, -0.00013711500199372405, 4.263708455456298e-06, -2.8660927673903024e-05, 5.715954908071756e-05, 8.557617990497205e-05, -5.5371094747548e-05, -2.6569267073301028e-05, 1.7733494669548895e-05, 4.35344528053854e-05, 2.2710506600675585e-05, -2.5262254338991162e-05, 7.892685874414248e-06, 4.255644785948502e-05, -6.177311802977698e-06, 2.3351858965933474e-05, -1.085663759033708e-05, 1.363559667859295e-06], [0.0011736623681379448, 3.3398659891960544e-06, -0.0004007909956427582, -0.0007231609918406628, -1.743456024658768e-06, 4.653530340735888e-05, -0.00011044348327125561, 0.0002853955046125035, -8.350832821278195e-05, 5.883715045060957e-05, -5.411452603393954e-05, -9.29537180363036e-05, 4.557613579676121e-05, -1.3573930621978164e-05, -2.7712273585745877e-05, 1.1810494436325076e-05, -1.22544897802452e-05, 4.223714418805507e-06, -3.2675504733384965e-05, -1.2547671066475091e-07, 2.661143982264936e-05, 2.8026812451812785e-05, 5.081500103894379e-05, 1.2852000878165828e-05, 9.658367187015602e-06, 1.2261071052767346e-05, -9.373318421460032e-06, 1.113997050204738e-05, -9.039056176495018e-06, 4.3376667987035575e-06], [-0.0014156725460087102, 5.820577390441421e-05, 8.865667509556433e-05, 1.8553836304845145e-05, 2.1587613456213638e-05, -4.868675761373246e-05, 1.938619277449819e-05, -4.8712409809064895e-05, 6.447028113365028e-06, -5.078980437113008e-07, 1.994604881319316e-06, -9.568639975962575e-06, -2.229732575509874e-06, 1.13071500163725e-05, -7.129068420458843e-07, -5.089590428194323e-06, 3.3649201455181083e-06, -2.601453958226221e-07, 8.569234647694237e-06, 8.548776322865266e-07, -4.615667387278014e-06, -1.2262455729975826e-06, -1.0273085528011863e-05, 2.198141995855246e-06, 4.576498324126264e-06, -1.4034366406464455e-07, 6.764077610755921e-07, 3.1664053780943125e-07, 2.629749906990639e-06, 1.1489781094901026e-06], [0.004200444136217168, 0.0011867760990025447, -0.0016804195602554775, -0.00016153493186988078, -0.0006036115884512683, 0.0005467350031715886, 0.00046065750553402236, -0.00048698059585987064, -0.00030397063727976735, -0.00014236517548220687, -0.0002717158635062813, -0.00018018179589301468, 0.0001314254389124405, -6.726734519020647e-05, 0.00014762816125515307, 0.00025207744433941343, -2.982700090462957e-06, -0.0003388292563754774, -3.21447121275389e-05, -5.11712237179704e-05, -5.592818214234947e-06, -0.00015111379450650605, -0.0002045521178352879, -5.936708144275847e-05, -6.17253407142533e-05, 4.54589404894271e-05, 2.275452104185974e-05, 8.19472099870288e-06, 6.171059014440613e-05, -4.032632363930741e-06], [0.0019934836840091222, -0.0002503745760722333, 0.0015386660414018957, -0.00019726376645259685, -0.000327267924841331, 0.0003074437037812628, -0.00014335248748772328, 0.0003529731205690645, -2.1573180989459427e-05, 0.00019843028519965053, -4.3488347272404756e-05, -2.4275057173302087e-05, -9.002793406032282e-05, -2.0612932506952954e-05, 3.283065867628032e-05, 0.00013243014627067125, 4.801167095885611e-05, 1.432435549284455e-05, -3.2202556133867345e-05, -4.242991009179049e-05, 1.4926060248683281e-05, 3.3740385790765955e-07, 8.107704832662614e-05, -1.6827423343975703e-05, -1.6131952345960032e-05, -1.6015541889720546e-05, -3.340247630760499e-05, 3.063428202885846e-06, -2.330001676326933e-06, -2.5535833141818002e-05], [0.005344965642521488, -0.0021181128554679995, 0.0005017105571498465, 0.0003826959939940354, 3.626286661276735e-06, -0.000888287884474359, 0.0002309545249142118, -4.829543299326926e-05, 0.0001768534531721255, -0.0009478006710098039, 6.381113672317551e-05, -0.00021365498877233232, 7.281596646382305e-05, 0.00031540148505182036, 0.00021529997205610053, 1.0605566164910028e-05, 4.2078770954708364e-05, 0.00032116584171992796, 4.974972369344798e-05, 3.014789178095604e-05, -9.839151619825902e-05, -7.9854341749859e-05, 2.648955441451247e-05, 7.684027849097228e-06, 7.837743772510018e-05, -9.257809766677669e-05, -1.8703745180677964e-05, -3.499433749853999e-05, 2.281936954647734e-05, 3.324404483901659e-05], [-0.0014174135626509633, 6.11659672060943e-05, 8.954229656268861e-05, 1.9676349297832e-05, 2.1413854045070128e-05, -4.8928896568814284e-05, 1.9740096554959216e-05, -4.857073425625728e-05, 6.646432496651032e-06, -9.094062929956261e-07, 2.081975551044586e-06, -9.672121919151295e-06, -2.1752971840888246e-06, 1.125965295047486e-05, -6.434434294145534e-07, -5.045318910473498e-06, 3.294562907510477e-06, -3.3945463832621523e-07, 8.545187603173434e-06, 8.774253640343301e-07, -4.568340055940297e-06, -1.204420671601908e-06, -1.0275453071925184e-05, 2.1496021061090283e-06, 4.55441739909181e-06, -1.484435935038613e-07, 7.073133423827045e-07, 3.003700505882397e-07, 2.5817511702259724e-06, 1.171541300817928e-06], [0.004678312169384803, 0.0026929644415387543, 0.0005967419844012639, -0.0006353017377678872, -0.00026395613416599405, 0.0004379320749022187, -0.0004058268771810936, -0.0010792975435807068, -0.0003236024296466583, -0.0001726914538981913, 0.0002163159243198198, 0.0003660743711719959, 0.00017539296118877974, -5.436505187532317e-05, -0.00016341586787787106, -3.5319696978147685e-06, -0.00017966260469252715, -0.00012640563563895318, -2.6887435956152545e-05, 0.0001421379749925852, -7.643347464413262e-05, 3.0130696695287816e-05, -5.842254855800007e-05, -0.00010754228063048061, -7.258221081674509e-05, -1.2478016806184973e-05, 2.1112482134147016e-05, -6.138653738974965e-05, 2.0603931396380312e-05, 8.92147635052862e-05], [0.005280109910151725, 0.004088960670513377, -0.0015896304891686683, 0.002098608329909317, 0.0002592613001065162, -0.0013623128987807927, -0.0014077749072780158, -0.0011675576539623145, 0.00037403349673672073, 0.0014570533726091244, -0.00027336694990165526, 0.0002539443212984296, 6.266625575902465e-05, 0.0007457182173860298, 6.263188925878236e-05, -0.0002080336875143826, 0.0001386452303702491, -0.00028639810819113, -7.001811891396219e-05, -5.2622235567251285e-05, 0.0001810628435426144, -0.000281676775688154, 0.0005172106491638219, 0.0001350300332618624, 0.00022823512183215737, 0.00010438663338601838, -0.00029427237534482476, -8.208386868834404e-05, -8.40849644788929e-05, 0.00026013648464283], [-0.0014190113352899908, 6.388899225190745e-05, 9.03556942611413e-05, 2.0709088178350538e-05, 2.1254046700213148e-05, -4.91518812644433e-05, 2.006505019811049e-05, -4.84391924365861e-05, 6.829746957928791e-06, -1.2792417841907018e-06, 2.162437756953627e-06, -9.767263827688955e-06, -2.1255094259447255e-06, 1.1216012619889089e-05, -5.797345825970388e-07, -5.004713569741643e-06, 3.229188718175385e-06, -4.1280439120284055e-07, 8.522610235751849e-06, 8.981612829795253e-07, -4.524687917540574e-06, -1.1841481766725688e-06, -1.0277443508560128e-05, 2.1050486786654807e-06, 4.533913775587386e-06, -1.5580790192157963e-07, 7.355430447413129e-07, 2.8531443575021533e-07, 2.537449547892632e-06, 1.1922162025980168e-06], [-0.0014196386447910144, 6.495978100477431e-05, 9.067521509080759e-05, 2.1115236420791002e-05, 2.1191213692427503e-05, -4.9239630078729745e-05, 2.0192675915281792e-05, -4.838714488677841e-05, 6.90180221504369e-06, -1.4248030141286357e-06, 2.1941023176671288e-06, -9.804663541711834e-06, -2.106006533379755e-06, 1.1198865939634126e-05, -5.547317023516579e-07, -4.988777842963625e-06, 3.2033095630324744e-06, -4.4175119229458337e-07, 8.51361177387389e-06, 9.063138101178781e-07, -4.507492259161176e-06, -1.176125083026463e-06, -1.0278177164036776e-05, 2.0875546152697456e-06, 4.525800454097776e-06, -1.5868100005070616e-07, 7.465912267050512e-07, 2.7937086412014205e-07, 2.51998977196757e-06, 1.2003249268273673e-06], [0.005826261442482285, 0.0008927446175478816, 0.0008574186336548202, -0.00032676506515639267, -0.00029318189685203247, -0.000495873508124265, 0.0004482689200158242, -0.0007457473532967749, 0.00019091874674169055, -1.601675553768629e-05, 0.00032726920862983773, 0.0001020238416976819, -3.944754927252113e-05, -5.91603930721492e-05, -6.616782962721189e-05, -0.00014667285279046998, -0.0001706682481461664, 3.1503987145179116e-05, 0.00016191725334031517, 0.00012675058389969307, -8.746146700335745e-05, 0.00024653051379364973, -0.00010152486067543356, 5.007220908148233e-05, 1.675592618798826e-05, -1.2781559934011538e-05, -4.6038602359344094e-05, 2.8113206718897198e-05, 3.434356886934394e-05, -3.625314311486082e-05], [0.0037256217872299754, -0.0005784909720606301, -0.0003370270083659251, -0.0003296686772412601, -0.00018910190356895884, -0.0001982847380932597, 0.00016469449789181134, 0.00016618252273379797, 2.725180886800488e-06, -0.0001326446686652513, 6.48862420390853e-05, -0.0002604914381304262, 6.0922843693222555e-05, -0.0001362473559153631, 7.574315531566525e-05, 0.00010636568519817255, -6.854062557188967e-06, -7.589491749635564e-05, -5.899572624444848e-05, -2.8410532041339046e-05, 1.9631007701348188e-05, -5.465323280741817e-05, -3.214532114252059e-05, 2.134226229226788e-05, 1.5961205329023246e-05, -1.7051397185808772e-05, 2.756441254395597e-05, 2.5567176261674247e-05, -1.0581604998692155e-05, 2.4295774551608016e-05], [-0.0014219859695475644, 6.897498045307087e-05, 9.187166419457692e-05, 2.2638411858787173e-05, 2.095564547745502e-05, -4.956898715173156e-05, 2.0670453202829404e-05, -4.819037771542518e-05, 7.171839287983761e-06, -1.9712732733690315e-06, 2.3129596909059367e-06, -9.944835795774e-06, -2.0332509015707606e-06, 1.113463893508729e-05, -4.6122564553572186e-07, -4.929182193004511e-06, 3.105407335815623e-06, -5.508139321620073e-07, 8.479264399791648e-06, 9.368753306524272e-07, -4.442861803570833e-06, -1.1457835342819945e-06, -1.0280682293963285e-05, 2.022085498484268e-06, 4.495122131355765e-06, -1.6933947321708443e-07, 7.877541349872681e-07, 2.5696763661954e-07, 2.4543238676151715e-06, 1.2306228126606123e-06], [0.0035016449900645494, 0.0016376741989562532, -0.003970005986929022, 0.002146897907526753, -0.00020605904763917456, -0.00014869106784074434, -0.0005169294112741701, 0.0004131969819307497, 0.0007862728675100975, 0.0006739541792804626, -0.00033580802537418436, 0.00024468720740176183, 0.00013688802107660473, 5.744155176305863e-05, 0.0004170547908479286, 0.00018473235276299872, 0.00045677474527437554, -0.00042590574330264184, 0.00020043386038747873, 0.00011825907009894956, 0.00024649982622497056, -2.7845922592400255e-05, -6.814919491086746e-05, -0.00017268029987915567, 0.00011407004029705094, 5.7019727974648035e-05, -8.990586461896854e-05, -1.8303198700779772e-05, 4.421782425274273e-05, 2.3265343410417224e-05], [0.0006763256504064667, -2.099160890113944e-05, -0.002737440475193079, -0.0005803009739081918, -0.0004212831387128349, 0.00040115362594073047, 0.00011818652803049953, 0.0002252437152856515, 1.2289380284545775e-05, -4.9027912962753075e-05, 2.2113708910704897e-06, -5.987124776678309e-05, -0.00015829764758349232, -3.580719783002475e-05, 1.9577904787263086e-05, -0.00013963465307294669, -6.21058442931879e-05, 5.197885722775595e-06, 6.539603245808058e-05, -1.0880147935021423e-05, -1.2611499861352232e-05, 3.1681439618479265e-05, 0.00013382073284825774, 3.3359441603043253e-05, -8.648835256921632e-05, -5.0947422040856546e-05, 3.548687233987582e-05, 8.23251439216913e-06, -9.274441497727633e-06, -2.164849670662061e-05], [0.0019073537041265696, -0.0002312852478243054, 0.0014237483101047948, -0.00025416925681280144, -0.00028369202309163277, 0.00026658692729457763, -0.0001508191807723432, 0.00035801794171405794, -4.123659455727911e-05, 0.00019772832665982914, -5.0805286005105204e-05, -3.907523814425646e-05, -6.872871291293535e-05, -1.9138670324606534e-05, 2.3795096820904486e-05, 0.00013279339551878225, 4.1197899354560956e-05, 1.5455369738004696e-05, -3.5013503836857365e-05, -4.000206193070448e-05, 9.493826720600071e-06, 8.386156924096888e-06, 7.429169310663732e-05, -1.8639499218790793e-05, -9.379157132405765e-06, -1.0221611553132324e-05, -3.6229468448395724e-05, 2.4439040088671417e-06, -4.919012462492699e-06, -2.1997752331700826e-05], [-0.0014268430667934346, 7.732498404747043e-05, 9.435146520610868e-05, 2.5807370903352223e-05, 2.046590797823026e-05, -5.0255565342424404e-05, 2.1660098876931327e-05, -4.777321548961879e-05, 7.73264339678895e-06, -3.111045075879323e-06, 2.560781663357325e-06, -1.023600073275956e-05, -1.8838054861415467e-06, 1.1001382279813755e-05, -2.6801793227962866e-07, -4.806048333228486e-06, 2.897472042578481e-06, -7.802626456030667e-07, 8.404769912382892e-06, 1.000383359337215e-06, -4.3076916371426305e-06, -1.0813900586845232e-06, -1.0284653874026088e-05, 1.8865772624585427e-06, 4.430023812514205e-06, -1.909209958302792e-07, 8.720189099890659e-07, 2.0979129816109338e-07, 2.3167636330342783e-06, 1.293082974311515e-06], [0.001995508707321711, -0.00022615430311744074, 0.0015937325226305418, -0.00017150967664018702, -0.0003527545788399242, 0.0003293165030926991, -0.0001530435441764291, 0.0003513676474517121, -1.778433687480173e-05, 0.00019929299941942526, -4.433064923850748e-05, -1.8721098136028477e-05, -0.00010012674384041268, -1.772925600588994e-05, 3.428235480129523e-05, 0.0001346540245059272, 5.352426084523558e-05, 1.5389107301476774e-05, -3.214835580442762e-05, -4.4992183500468366e-05, 1.5079727631370166e-05, -1.0117101178215963e-06, 8.438726702403951e-05, -1.5150662780492878e-05, -2.0142829126864667e-05, -1.9056320881616273e-05, -3.193393342256141e-05, 2.958422572604832e-06, -4.473921770468051e-08, -2.9693098110519134e-05], [-0.0014321903127420294, 8.658254150117314e-05, 9.708778236176322e-05, 2.9323259752866267e-05, 1.9923114708937555e-05, -5.101937533306914e-05, 2.2751125964425783e-05, -4.729831407621894e-05, 8.353185588625708e-06, -4.379988871882048e-06, 2.836601497096354e-06, -1.0558268851982482e-05, -1.720986050530095e-06, 1.0854093395433881e-05, -5.576304026919468e-08, -4.670803973239109e-06, 2.660114779475128e-06, -1.0388315151609093e-06, 8.317316100776417e-06, 1.0707037413198535e-06, -4.156638912430506e-06, -1.0079685171351193e-06, -1.0287116150692993e-05, 1.7373434246898084e-06, 4.355772847153867e-06, -2.139193660021115e-07, 9.633231838519937e-07, 1.5656758212237794e-07, 2.1626578836066186e-06, 1.3614551923599578e-06], [0.005555177986104434, 0.0037553773630448753, -0.00025509665875448684, 0.0006632528485836659, 0.0016249059208508238, -0.00042233690548882535, -0.0006476014941846407, -0.0014845753950724519, 0.0004991963793735254, 0.0006578096193476297, -0.0002929887493209131, -7.825205610782408e-05, -0.0004656123429412535, -0.00019049890216387195, -0.00013599429670668202, 2.947735795083397e-05, -0.00016755596964990473, 7.171195698426504e-05, -0.00011449561704614375, 0.0002016379956334797, -3.624137655555845e-05, -0.00016929440121658245, 0.00017212057759941258, 4.193865657419808e-05, -1.9135857148622972e-05, 2.5019797295969218e-05, -5.732330697643637e-06, -6.13749990301928e-05, -6.179280638921169e-05, -0.00010500228288547073]], "bgmm_covariances": [[1.4806132962607485e-06, 1.3423804888567357e-06, 1.231699993407491e-06, 9.60693382968799e-07, 1.3018058611460852e-06, 8.151056387758354e-07, 8.375056680834409e-07, 7.666400076300335e-07, 8.244349965412275e-07, 7.638602346628027e-07, 6.879418638519278e-07, 6.649042504099306e-07, 7.011516153255347e-07, 7.163540929356037e-07, 6.56880265522338e-07, 6.649604142479597e-07, 6.680332482978554e-07, 6.507690766432819e-07, 6.169917068098868e-07, 6.213320529743804e-07, 6.288503447549921e-07, 6.286257085963645e-07, 6.115768461520797e-07, 6.187537539218595e-07, 6.210078787340996e-07, 6.17256762418521e-07, 6.433736819694275e-07, 6.135010849125706e-07, 6.278618569854824e-07, 6.133067818697987e-07], [1.3351332963519799e-06, 2.3823895471626504e-06, 1.2883236372113132e-06, 1.1180093733982532e-06, 9.431073771973842e-07, 9.336757223567445e-07, 9.354175605615152e-07, 9.434058062417965e-07, 9.377419975876106e-07, 9.050590281836993e-07, 9.053735753464236e-07, 8.88743581718517e-07, 8.913583766218723e-07, 8.891966619669438e-07, 8.815806160538003e-07, 8.865490602441731e-07, 8.811075367955145e-07, 8.825024755519e-07, 8.847877203820807e-07, 8.79561393252824e-07, 8.782326966052143e-07, 8.776952268150998e-07, 8.775415077215939e-07, 8.765211274964307e-07, 8.75090992688617e-07, 8.756278291115434e-07, 8.73736270942496e-07, 8.759026941742325e-07, 8.731981221776372e-07, 8.736543192428083e-07], [1.8881342996139909e-06, 1.5645709245114019e-06, 1.4838308496795297e-06, 1.024154003162347e-06, 1.1672078674757486e-06, 1.0644189101640145e-06, 9.235387895442074e-07, 7.981033767715536e-07, 9.088099984901124e-07, 8.145418626152869e-07, 8.136401367000962e-07, 7.856581035125719e-07, 7.561658833854181e-07, 7.750479933239491e-07, 7.59838858426608e-07, 7.465340554520632e-07, 7.426180122642384e-07, 7.227386182008037e-07, 7.165450075437742e-07, 7.2725166562616e-07, 7.238427182036297e-07, 7.198734880652923e-07, 7.159826579767453e-07, 7.198557784027493e-07, 7.130716978100354e-07, 7.131292295364105e-07, 7.159501339454809e-07, 7.105554841829505e-07, 7.102565105263601e-07, 7.084949776732471e-07], [1.3349402109047774e-06, 2.3820873043817985e-06, 1.2881674318368634e-06, 1.1179606732171683e-06, 9.43086114922327e-07, 9.336551631013217e-07, 9.353977028486396e-07, 9.433868744628054e-07, 9.377236780793636e-07, 9.05049194215621e-07, 9.053631022013239e-07, 8.887359878206272e-07, 8.91349548720396e-07, 8.891909464602716e-07, 8.815747629865197e-07, 8.865438036579157e-07, 8.81101733558828e-07, 8.82498835454695e-07, 8.847825024716714e-07, 8.795570778817592e-07, 8.782285105241455e-07, 8.776923894122038e-07, 8.775384919326157e-07, 8.765179686530134e-07, 8.750879848527113e-07, 8.756240717765744e-07, 8.737327749547517e-07, 8.758989855811055e-07, 8.731953384736587e-07, 8.736511884102326e-07], [1.334841362081258e-06, 2.381932495946636e-06, 1.2880874530300198e-06, 1.1179357223622075e-06, 9.430752173336214e-07, 9.336446255100429e-07, 9.35387524610316e-07, 9.433771683311337e-07, 9.377142862495939e-07, 9.050441465612514e-07, 9.053577280011006e-07, 8.88732088097636e-07, 8.913450174411977e-07, 8.891880077290802e-07, 8.815717544487624e-07, 8.865410999307677e-07, 8.810987504842458e-07, 8.824969594726822e-07, 8.847798187779639e-07, 8.795548563264029e-07, 8.782263551598093e-07, 8.776909244421085e-07, 8.775369355886313e-07, 8.765163391139763e-07, 8.750864326535129e-07, 8.756221358877139e-07, 8.737309729786915e-07, 8.758970747285269e-07, 8.731939010537473e-07, 8.736495732622295e-07], [1.3347405081383231e-06, 2.3817745517763895e-06, 1.2880058401958471e-06, 1.1179102311861506e-06, 9.430640732842788e-07, 9.336338479184606e-07, 9.353771149065605e-07, 9.433672394492467e-07, 9.377046783777833e-07, 9.050389693870686e-07, 9.053522176584507e-07, 8.887280822678966e-07, 8.913403677039419e-07, 8.891849814546143e-07, 8.815686573346849e-07, 8.865383134664416e-07, 8.810956799591674e-07, 8.824950172020738e-07, 8.847770535058006e-07, 8.795525619563521e-07, 8.782241284035993e-07, 8.776894016016863e-07, 8.775353195285856e-07, 8.765146484795402e-07, 8.750848209595203e-07, 8.756201330534177e-07, 8.737291067721039e-07, 8.758950974722558e-07, 8.731924065969738e-07, 8.736478975418339e-07], [1.3346373379478658e-06, 2.3816128041034613e-06, 1.2879223543594678e-06, 1.1178841835281244e-06, 9.4305269849885e-07, 9.336228499330831e-07, 9.353664911414294e-07, 9.433571051669312e-07, 9.37694873640402e-07, 9.050337005146487e-07, 9.053466094261102e-07, 8.887240138487475e-07, 8.913356400425127e-07, 8.891819156174561e-07, 8.815655195778677e-07, 8.865354930027788e-07, 8.810925680488069e-07, 8.824930614425513e-07, 8.847742536821443e-07, 8.795502452953243e-07, 8.782218807488829e-07, 8.776878749073487e-07, 8.775336973487994e-07, 8.765129498839762e-07, 8.750832031224722e-07, 8.756181144352504e-07, 8.737272281770558e-07, 8.758931051298818e-07, 8.731909085021258e-07, 8.736462138387156e-07], [1.3345319755484042e-06, 2.3814476205554513e-06, 1.2878370821251832e-06, 1.117857546476788e-06, 9.430410554116795e-07, 9.336115907945019e-07, 9.353556154601895e-07, 9.433467283969297e-07, 9.376848337981897e-07, 9.050282912836793e-07, 9.053408536575451e-07, 8.887198307631204e-07, 8.913307841860477e-07, 8.891787554349778e-07, 8.815622863685933e-07, 8.865325834506156e-07, 8.810893618568724e-07, 8.824910346269791e-07, 8.847713659900646e-07, 8.79547850411104e-07, 8.782195564194883e-07, 8.776862863606137e-07, 8.775320112932948e-07, 8.765111858988036e-07, 8.750815216458911e-07, 8.756160240025591e-07, 8.737252807467202e-07, 8.758910415698656e-07, 8.731893494465584e-07, 8.736444653015137e-07], [1.3344242438920464e-06, 2.3812786605818016e-06, 1.287749884112341e-06, 1.1178302954710528e-06, 9.430291407551207e-07, 9.336000688024832e-07, 9.353444856996401e-07, 9.43336107233651e-07, 9.376745578208288e-07, 9.050227501091589e-07, 9.053349586964455e-07, 8.8871554422177e-07, 8.913258098882327e-07, 8.891755142959319e-07, 8.815589710517245e-07, 8.86529598627892e-07, 8.81086074120531e-07, 8.824889525501821e-07, 8.847684036991972e-07, 8.795453920871648e-07, 8.782171702377409e-07, 8.776846524697303e-07, 8.775302776604574e-07, 8.765093726153859e-07, 8.750797927522214e-07, 8.756138769625308e-07, 8.737232800191803e-07, 8.758889220731954e-07, 8.731877457546107e-07, 8.736426678520943e-07], [1.4624387396426797e-06, 1.544292600702703e-06, 1.5181549818420077e-06, 1.4437530570996908e-06, 9.95392090642486e-07, 8.349112751869535e-07, 8.066356072386464e-07, 7.496249767760707e-07, 8.730278472328851e-07, 7.746712089571455e-07, 7.387698525445665e-07, 8.056350020818133e-07, 7.64903061112659e-07, 7.202303242361989e-07, 7.512620376179524e-07, 7.00116528284336e-07, 7.428363498446876e-07, 7.775332645076746e-07, 7.411254505894371e-07, 6.89042166415055e-07, 6.801668240978094e-07, 6.894218400648632e-07, 6.867274054371165e-07, 6.744088771996308e-07, 6.741013575786818e-07, 6.883984195601391e-07, 6.800351323512173e-07, 6.706975705967677e-07, 6.801950768692021e-07, 6.733829007888324e-07], [2.071562190455912e-06, 1.6149782712968461e-06, 1.8541398582717103e-06, 1.046404793833088e-06, 1.044514128985102e-06, 9.802900951367862e-07, 9.38673980785388e-07, 8.315232518190263e-07, 8.868970570820869e-07, 8.117959190462164e-07, 8.106374585677751e-07, 8.278801107805362e-07, 8.190683054611842e-07, 8.451994749883134e-07, 8.038986214201285e-07, 7.989131032638855e-07, 7.779361294123341e-07, 7.880212188369128e-07, 7.701114534831552e-07, 7.846391876636776e-07, 7.754367030604826e-07, 7.705395574289552e-07, 7.720121178104487e-07, 7.716860374767008e-07, 7.744539498954215e-07, 7.732820486746369e-07, 7.712920293234601e-07, 7.68787080545026e-07, 7.700980399828901e-07, 7.679050956880214e-07], [1.5387065409991173e-06, 1.3752733309917496e-06, 1.3039103927454402e-06, 9.904095289102656e-07, 1.1435438128354418e-06, 1.1234927754219605e-06, 9.608711348230635e-07, 7.567904656809211e-07, 9.46040213188858e-07, 7.888651653806997e-07, 8.71830540745123e-07, 8.137912092075549e-07, 8.091012418231444e-07, 7.491174485258595e-07, 8.029153168485292e-07, 7.640225486684539e-07, 7.54870295321521e-07, 7.296273322126174e-07, 7.262788653844439e-07, 7.328649624186008e-07, 7.595789862636368e-07, 7.339527929688022e-07, 7.238024170903366e-07, 7.394864789245137e-07, 7.261634380416855e-07, 7.351944058299713e-07, 7.258344777453084e-07, 7.332065056817359e-07, 7.252488186747756e-07, 7.209683244767426e-07], [1.976381859779878e-06, 1.8563855840084385e-06, 1.3975102279805784e-06, 1.04136272885879e-06, 1.0707306811817004e-06, 1.0649113617342048e-06, 9.267067110876619e-07, 8.032959501334026e-07, 9.224230623985224e-07, 8.02897290873708e-07, 8.490844520122249e-07, 7.990377886950377e-07, 7.963008511022058e-07, 7.903768021438373e-07, 7.923521396397214e-07, 7.82518387510017e-07, 7.728449822219295e-07, 7.571832148444097e-07, 7.549350552172286e-07, 7.64635613077245e-07, 7.635283137616199e-07, 7.579161647027186e-07, 7.546178176864814e-07, 7.62259201707177e-07, 7.589997004606589e-07, 7.547042284555325e-07, 7.551208241675593e-07, 7.521212140578148e-07, 7.51778499518298e-07, 7.534061248109212e-07], [1.3338639275017467e-06, 2.3803988920005056e-06, 1.2872962277788738e-06, 1.1176883134994114e-06, 9.429670095637415e-07, 9.335399810635296e-07, 9.35286440640176e-07, 9.432806824758647e-07, 9.376209394654611e-07, 9.049937583869787e-07, 9.053041357097376e-07, 8.886930927224772e-07, 8.912997837327359e-07, 8.89158491688074e-07, 8.815415706467646e-07, 8.865139099462894e-07, 8.810688165493581e-07, 8.824779615976103e-07, 8.847528352487573e-07, 8.795324459347459e-07, 8.782045993277473e-07, 8.77675993563258e-07, 8.775210993403017e-07, 8.764997805580405e-07, 8.750706400317674e-07, 8.756025496018931e-07, 8.737127151614016e-07, 8.758777390443635e-07, 8.731792446854296e-07, 8.736331588146838e-07], [1.4131239721317736e-06, 1.3206876230941155e-06, 1.0703836275732102e-06, 1.2508958176704411e-06, 9.559900968791428e-07, 1.1052180837845025e-06, 8.542675310767674e-07, 7.087454159682845e-07, 8.545735955211419e-07, 7.582464785602373e-07, 7.49529598348233e-07, 7.621573501551946e-07, 7.100164175489758e-07, 7.12850110630227e-07, 7.528677155926711e-07, 7.396221883875411e-07, 6.830088271799359e-07, 7.212321409070297e-07, 6.597449585485262e-07, 6.990504656955873e-07, 6.832967992172566e-07, 6.626575282095276e-07, 6.610758605136461e-07, 6.60614846547605e-07, 6.598478882372135e-07, 6.399547733194303e-07, 6.551661290357365e-07, 6.528931802699699e-07, 6.554831062533572e-07, 6.39794893942927e-07], [2.325819569334337e-06, 2.168676500308804e-06, 2.1578460898842966e-06, 1.093593475872031e-06, 1.0211021253383916e-06, 9.63397717741139e-07, 9.014543766401248e-07, 8.086336343104013e-07, 8.822394527254671e-07, 8.094886019444918e-07, 8.03696880265254e-07, 8.029416530178975e-07, 8.093050296278475e-07, 7.999497883940364e-07, 7.868075116700588e-07, 7.790319352982377e-07, 7.681530574819485e-07, 7.672242115046067e-07, 7.553781848877914e-07, 7.659334929155736e-07, 7.580516723579468e-07, 7.524657932860532e-07, 7.532120590377588e-07, 7.557747241937276e-07, 7.561282687738906e-07, 7.544139619970609e-07, 7.545923272490238e-07, 7.51675455280082e-07, 7.511857216744064e-07, 7.489000322603257e-07], [1.7518967557951906e-06, 1.4494505821007505e-06, 1.3070668987191739e-06, 9.636221275457305e-07, 1.16757122299931e-06, 1.0596695558559568e-06, 9.434260879635907e-07, 8.438081823732409e-07, 9.484063761300985e-07, 7.909651400730617e-07, 8.309629551801293e-07, 8.179877798990605e-07, 7.859515069909874e-07, 7.816839162759258e-07, 7.765084101680707e-07, 7.683908839888026e-07, 7.712322313600928e-07, 7.426899352298944e-07, 7.63014685336466e-07, 7.545806190756208e-07, 7.523415442029719e-07, 7.591601840043018e-07, 7.476023722218891e-07, 7.365709158892425e-07, 7.392281574576448e-07, 7.358434486040377e-07, 7.369691478966444e-07, 7.327107974222483e-07, 7.316183472062255e-07, 7.357072523380617e-07], [1.6436935042803063e-06, 1.356900208380792e-06, 1.3512564386647852e-06, 1.0220729750615698e-06, 1.0682085636514687e-06, 1.1624493758590305e-06, 9.73081359606392e-07, 8.99909815312293e-07, 9.141548854431109e-07, 7.998357444225668e-07, 8.416181469540173e-07, 8.165644224395812e-07, 8.053257927113527e-07, 7.980844107662582e-07, 7.828346321286116e-07, 7.965282898905229e-07, 7.810403548533009e-07, 7.587155403385976e-07, 7.574450377820934e-07, 7.656431162705324e-07, 7.631595787763305e-07, 7.559443335543585e-07, 7.561724528787325e-07, 7.638884861278618e-07, 7.54790224804876e-07, 7.610964606473178e-07, 7.531858221339268e-07, 7.577464867530156e-07, 7.513436124352878e-07, 7.54185935478006e-07], [1.3332697831524619e-06, 2.3794641750459655e-06, 1.2868149331571083e-06, 1.1175373036098785e-06, 9.429008287404837e-07, 9.334759692424466e-07, 9.352245997606599e-07, 9.43221574369544e-07, 9.375637671169968e-07, 9.049627007859886e-07, 9.052711524114918e-07, 8.886689973782093e-07, 8.912719023113242e-07, 8.89140137800157e-07, 8.815228308264583e-07, 8.864969720132566e-07, 8.810502270662904e-07, 8.824660096051257e-07, 8.847360303976447e-07, 8.795184237826708e-07, 8.781909751292817e-07, 8.77666516273173e-07, 8.775110700842791e-07, 8.76489313555669e-07, 8.750606396655613e-07, 8.755902435990949e-07, 8.737012204896498e-07, 8.758655880599186e-07, 8.731699361790718e-07, 8.73622781072498e-07], [1.302876266528087e-06, 1.1215512274407318e-06, 1.1595074115674773e-06, 1.0619771157349625e-06, 1.3063759978134644e-06, 1.1096638671553385e-06, 1.042878682373369e-06, 6.86492469315767e-07, 7.673482260407657e-07, 6.74694845043003e-07, 7.22487225210316e-07, 7.948259220414571e-07, 6.432004149148632e-07, 6.542599020060146e-07, 6.571992940141118e-07, 6.593434436010202e-07, 6.42092428663309e-07, 6.429955465102558e-07, 5.988030826110894e-07, 6.083659972932339e-07, 6.252167693488723e-07, 6.217624762627177e-07, 6.12748260171197e-07, 6.150982618479365e-07, 6.143576590287298e-07, 6.193480494812968e-07, 5.965311601536074e-07, 6.02293255459217e-07, 6.049714291697507e-07, 5.953229614047553e-07], [1.6083530071425597e-06, 1.7054548003928075e-06, 1.5047833780981654e-06, 1.3532604235750584e-06, 1.077902965022414e-06, 9.595076377574964e-07, 8.835200969388066e-07, 8.214133013130578e-07, 8.972000572613727e-07, 8.283100297955525e-07, 8.405476715130165e-07, 8.232867342493176e-07, 8.477638057701585e-07, 8.21806429068942e-07, 8.299820580944538e-07, 8.056411551641435e-07, 8.16985339777501e-07, 8.116634339963662e-07, 8.040096601689099e-07, 8.077869909725178e-07, 7.998201428151994e-07, 7.89710311004834e-07, 7.915476071016968e-07, 7.927581216316464e-07, 8.00562594436101e-07, 7.962361351122575e-07, 7.980249627317815e-07, 7.915831396303082e-07, 7.919065858115064e-07, 7.897072568362516e-07], [1.3328941012685932e-06, 2.37887217227362e-06, 1.286510474170262e-06, 1.1174415761381497e-06, 9.42858823018992e-07, 9.334353361619863e-07, 9.351853420303692e-07, 9.431840202748556e-07, 9.375274478006989e-07, 9.049428947079981e-07, 9.052501372800289e-07, 8.886536080363336e-07, 8.912541213433623e-07, 8.891283707470933e-07, 8.815108275448747e-07, 8.864861010736851e-07, 8.810383182482324e-07, 8.824582937491252e-07, 8.847252465846025e-07, 8.795094005926518e-07, 8.781822036011611e-07, 8.776603661829258e-07, 8.775045703486654e-07, 8.764825375455421e-07, 8.750541591251919e-07, 8.755823053481346e-07, 8.736937967321209e-07, 8.75857748874817e-07, 8.731638935670836e-07, 8.736160621580774e-07], [1.3327640487020715e-06, 2.378667057828595e-06, 1.2864050534341468e-06, 1.1174083938305844e-06, 9.428442530374939e-07, 9.334212415789785e-07, 9.351717240313726e-07, 9.431709876372828e-07, 9.375148445651145e-07, 9.04936008123573e-07, 9.052428337040457e-07, 8.886482530430598e-07, 8.912479388421898e-07, 8.891242682551991e-07, 8.815066446849565e-07, 8.864823089397104e-07, 8.810341679745467e-07, 8.824555942784766e-07, 8.847214851439008e-07, 8.795062488452034e-07, 8.781791389787898e-07, 8.776582089243336e-07, 8.775022919359768e-07, 8.764801635850537e-07, 8.750518875240176e-07, 8.755795291463783e-07, 8.736911989047622e-07, 8.758550071564775e-07, 8.731617736486948e-07, 8.73613708079363e-07], [1.6353679651627796e-06, 1.3507610891059003e-06, 1.292124091601794e-06, 1.1689021328954928e-06, 1.1151978503999602e-06, 9.641276888867747e-07, 9.758164327183533e-07, 8.122740507315291e-07, 8.742531440371506e-07, 9.086040557782473e-07, 7.639158706733682e-07, 7.753759503082567e-07, 7.366950011435057e-07, 7.711986692474305e-07, 7.459123519194044e-07, 7.319279543226878e-07, 7.303691550241079e-07, 7.231346533450579e-07, 6.941949152786454e-07, 7.072076306171727e-07, 7.043683983440086e-07, 7.124614585408598e-07, 6.883207521200999e-07, 6.971014044846912e-07, 6.889064863626416e-07, 6.95093262640117e-07, 7.033855662456404e-07, 6.894822793021077e-07, 6.899705046764319e-07, 6.92601112171877e-07], [1.7721267324370382e-06, 1.5753884708724195e-06, 1.6849493402623272e-06, 1.0952661280392092e-06, 1.126863956200764e-06, 1.0037540433452702e-06, 9.173017014046952e-07, 8.076525730169777e-07, 8.764743142689735e-07, 8.468606580681871e-07, 7.828446926271757e-07, 7.791594302193124e-07, 7.445628763589413e-07, 7.75245767104667e-07, 7.44103729534574e-07, 7.340546709501046e-07, 7.382525861517895e-07, 7.178616421266077e-07, 7.023865999161729e-07, 7.202829741237619e-07, 7.111055135127139e-07, 7.060549401827688e-07, 7.040848297634385e-07, 7.07123067073572e-07, 7.02496508871583e-07, 7.03920541072926e-07, 7.06493682501999e-07, 6.978803774042131e-07, 7.015938728598724e-07, 6.960403558575364e-07], [1.5133460672498878e-06, 1.3969055225384887e-06, 1.2779859297475658e-06, 9.971334105176144e-07, 1.1439076367437135e-06, 9.811123500329927e-07, 1.0780064966520893e-06, 8.519634204468439e-07, 9.59020128373613e-07, 8.058372539158191e-07, 7.513103427113319e-07, 7.888641383581064e-07, 7.901028290622227e-07, 7.748113069684458e-07, 7.104437289355565e-07, 7.314652797952368e-07, 7.350097765247722e-07, 7.415229395129552e-07, 7.00875893805261e-07, 7.101037260898028e-07, 7.008583977567458e-07, 7.329819543324482e-07, 6.928322319846108e-07, 7.08174080556927e-07, 7.002330223466054e-07, 7.041847003142494e-07, 7.16812036408068e-07, 6.914557431956809e-07, 7.028183443198055e-07, 7.003737836008811e-07], [1.3322224553999194e-06, 2.3778119002884718e-06, 1.2859659048818374e-06, 1.117269966881097e-06, 9.427834190648384e-07, 9.333623885786334e-07, 9.351148583530366e-07, 9.431165353089058e-07, 9.374621912268213e-07, 9.049071620599107e-07, 9.052122597171102e-07, 8.886257996370787e-07, 8.912220416729426e-07, 8.891070227414264e-07, 8.81489072280002e-07, 8.864663566811268e-07, 8.810167306459631e-07, 8.824441947766727e-07, 8.847056636615521e-07, 8.794929675023619e-07, 8.781662204943176e-07, 8.776490684150229e-07, 8.774926462567061e-07, 8.76470120516302e-07, 8.750422711340342e-07, 8.75567811539543e-07, 8.736802256059707e-07, 8.758434341973721e-07, 8.731527893837859e-07, 8.736037484564343e-07], [1.3320812437119483e-06, 2.377588673316785e-06, 1.285851368867694e-06, 1.1172338101062695e-06, 9.427675155343655e-07, 9.33347001877542e-07, 9.350999905134677e-07, 9.431022902554355e-07, 9.374484180887596e-07, 9.04899596479718e-07, 9.052042458913876e-07, 8.886199046763791e-07, 8.912152494238731e-07, 8.891024835205301e-07, 8.814844498943388e-07, 8.864621548663949e-07, 8.810121433129764e-07, 8.824411806683728e-07, 8.847014967292559e-07, 8.794894631668999e-07, 8.781628107774515e-07, 8.77646643566528e-07, 8.774900895254507e-07, 8.764674603078122e-07, 8.750397222843299e-07, 8.755647148721747e-07, 8.73677323397659e-07, 8.758403755212093e-07, 8.731504054709049e-07, 8.73601110177741e-07], [1.3319356776785168e-06, 2.3773584499710443e-06, 1.2857332859823924e-06, 1.1171965111037397e-06, 9.427511037969574e-07, 9.333311230652876e-07, 9.350846468438485e-07, 9.430875857692334e-07, 9.374342013120866e-07, 9.04891778794825e-07, 9.051959671374263e-07, 8.886138108011621e-07, 8.9120823085204e-07, 8.890977862765856e-07, 8.814796678170238e-07, 8.864578055243938e-07, 8.810073972836974e-07, 8.824380559474581e-07, 8.84697183673423e-07, 8.794858332810712e-07, 8.781592784303548e-07, 8.776441263896079e-07, 8.774874363253682e-07, 8.76464700496598e-07, 8.750370773128209e-07, 8.755615052015974e-07, 8.736743143540508e-07, 8.758372051335718e-07, 8.731479305720618e-07, 8.7359837304322e-07], [1.3317854760678718e-06, 2.3771207747768527e-06, 1.2856114266738354e-06, 1.1171579952493344e-06, 9.42734150475053e-07, 9.333147198099326e-07, 9.350687960725341e-07, 9.43072391547909e-07, 9.374195116538778e-07, 9.048836921376771e-07, 9.051874057917147e-07, 8.886075046329382e-07, 8.912009708167914e-07, 8.890929202436638e-07, 8.814747152027384e-07, 8.864532985700068e-07, 8.810024817737755e-07, 8.824348129224716e-07, 8.84692714509673e-07, 8.794820691940596e-07, 8.781556149909212e-07, 8.776415103773954e-07, 8.774846798798282e-07, 8.764618341053409e-07, 8.75034329468497e-07, 8.755581746866827e-07, 8.736711910378108e-07, 8.758339152805272e-07, 8.731453582694221e-07, 8.735955301259377e-07], [1.3316303293254477e-06, 2.3768751461194853e-06, 1.2854855382424764e-06, 1.1171181803568e-06, 9.427166188008416e-07, 9.332977564954558e-07, 9.35052403750651e-07, 9.430566742031751e-07, 9.374043168947769e-07, 9.048753179117442e-07, 9.051785423840084e-07, 8.886009714195601e-07, 8.911934526267252e-07, 8.890878735436201e-07, 8.814695800878757e-07, 8.864486228746639e-07, 8.809973848861712e-07, 8.824314431004378e-07, 8.846880782207102e-07, 8.794781613570835e-07, 8.78151811118056e-07, 8.77638788341041e-07, 8.774818127028693e-07, 8.76458853427257e-07, 8.750314712937688e-07, 8.75554714669795e-07, 8.736679452361658e-07, 8.758304974006801e-07, 8.731426814721745e-07, 8.735925737746195e-07], [2.073879235191252e-06, 1.4870943314185522e-06, 1.4726981605420863e-06, 1.4047665453037627e-06, 1.0886083267436398e-06, 9.433212411567769e-07, 8.700965061672591e-07, 8.12871853700596e-07, 8.881931435909821e-07, 8.190921201979591e-07, 8.111975162296588e-07, 8.003520686065039e-07, 8.360833216055915e-07, 7.934714228219941e-07, 8.016906062912317e-07, 7.89686869150794e-07, 7.940815054329863e-07, 7.861996498321153e-07, 7.675184727964414e-07, 7.792450975213106e-07, 7.678756219106364e-07, 7.563742209900324e-07, 7.649491457920104e-07, 7.624783243116514e-07, 7.70608772863068e-07, 7.667558673767683e-07, 7.632187118735735e-07, 7.575089306205411e-07, 7.631960181801575e-07, 7.56639731563346e-07], [1.3313074004133017e-06, 2.376363727103823e-06, 1.2852234338674553e-06, 1.1170351155123506e-06, 9.426799884011402e-07, 9.332623057135367e-07, 9.35018147302686e-07, 9.430238145351299e-07, 9.373725483405439e-07, 9.048577391357994e-07, 9.051599469880366e-07, 8.885872277948494e-07, 8.911776612432391e-07, 8.890772185445763e-07, 8.814587441377751e-07, 8.864387404143972e-07, 8.809866310102396e-07, 8.824242777072709e-07, 8.846782815594475e-07, 8.794698785056382e-07, 8.781437450137317e-07, 8.776329718077899e-07, 8.774756939899187e-07, 8.764524990180416e-07, 8.750253720821242e-07, 8.755473642209247e-07, 8.736610409278035e-07, 8.758232349893644e-07, 8.731369604283404e-07, 8.735862711189232e-07], [1.6541508210613711e-06, 1.3649802766200504e-06, 1.2821042066258286e-06, 9.709590739881757e-07, 1.1309690838890327e-06, 1.1027849406412612e-06, 9.690196785421692e-07, 7.504185333165786e-07, 9.517287239856199e-07, 8.056410763025124e-07, 8.587194804535591e-07, 8.090015785154741e-07, 7.911653152586017e-07, 7.42198411430846e-07, 7.891690047968389e-07, 7.581622453010658e-07, 7.450487924409353e-07, 7.204630893999937e-07, 7.172157578908066e-07, 7.249061270930264e-07, 7.473197759182633e-07, 7.245493371360326e-07, 7.132083211596182e-07, 7.292583062801469e-07, 7.147791713151571e-07, 7.2248727979023e-07, 7.163519340483859e-07, 7.207580177957429e-07, 7.1342832881758e-07, 7.098839761511654e-07], [1.484093796035831e-06, 1.4292316298854767e-06, 1.3142189009611535e-06, 1.3168514656217782e-06, 9.965758502786238e-07, 9.491459639843927e-07, 9.271492249783274e-07, 8.681353926372523e-07, 9.05202378828921e-07, 8.980842096900844e-07, 8.382255281037238e-07, 8.540049913010001e-07, 8.432728244223768e-07, 8.115993082826487e-07, 8.251574866548068e-07, 8.003721673824243e-07, 8.173526850729006e-07, 8.071286815453305e-07, 8.219832998534962e-07, 8.125123620041507e-07, 8.081376482307152e-07, 7.891458714418808e-07, 7.903541699306911e-07, 7.899742594886522e-07, 7.8854171921801e-07, 7.931449032600684e-07, 7.99739428186019e-07, 7.949759579821802e-07, 7.895269862275491e-07, 7.88711311599312e-07], [1.5361292319211026e-06, 1.573884660694912e-06, 1.1457750975722977e-06, 1.052841936365427e-06, 1.1536296329359307e-06, 1.1144490931318853e-06, 9.957051571632955e-07, 8.110900119844927e-07, 9.160457307352318e-07, 7.99106284705407e-07, 8.79030240123171e-07, 8.079682591235828e-07, 8.035130219333322e-07, 7.766442226144545e-07, 8.268404381470389e-07, 8.177887862174232e-07, 7.970189116105205e-07, 7.670410923108809e-07, 7.70803912663852e-07, 7.75636145853522e-07, 7.88690304326211e-07, 7.64213328778391e-07, 7.692904179160185e-07, 7.879975922935391e-07, 7.715400903492001e-07, 7.735847113427173e-07, 7.624185038742096e-07, 7.707471363777229e-07, 7.599672216761114e-07, 7.641030057595137e-07], [1.3306172567110665e-06, 2.3752680650639226e-06, 1.2846630848479472e-06, 1.1168574120053729e-06, 9.426016260677883e-07, 9.331864791928856e-07, 9.349448634440335e-07, 9.429534618221866e-07, 9.373045520140933e-07, 9.048200921819155e-07, 9.051201505909715e-07, 8.885578143720682e-07, 8.911438714509896e-07, 8.890543969535094e-07, 8.81435551574876e-07, 8.864175714551158e-07, 8.809636038212839e-07, 8.824089267628025e-07, 8.846572936905306e-07, 8.79452137169964e-07, 8.781264659089763e-07, 8.776205051525929e-07, 8.774625797131678e-07, 8.764388809524892e-07, 8.750123000791913e-07, 8.755316140300567e-07, 8.736462482007732e-07, 8.758076752989935e-07, 8.731246960692517e-07, 8.735727622499754e-07], [2.0600190907462434e-06, 1.5982743521381402e-06, 1.8406708846312245e-06, 1.0447534095107713e-06, 1.0445878378879584e-06, 9.801441497618522e-07, 9.387072488156747e-07, 8.321271937628562e-07, 8.865545405930506e-07, 8.117783845037558e-07, 8.105861402488333e-07, 8.283799244059306e-07, 8.18914662409225e-07, 8.460003834967966e-07, 8.039690627078489e-07, 7.990906816756837e-07, 7.780131270584923e-07, 7.881881673695356e-07, 7.702550375793722e-07, 7.848912968225072e-07, 7.756676380969726e-07, 7.707789170595204e-07, 7.722425984998431e-07, 7.718398737226184e-07, 7.746929190789978e-07, 7.735190943776098e-07, 7.715267400545727e-07, 7.690625972445154e-07, 7.703958775649559e-07, 7.681982480594643e-07], [1.3352863016119041e-06, 2.3866239662911757e-06, 1.2881437445765513e-06, 1.11658707972537e-06, 9.419583984616145e-07, 9.32462964357725e-07, 9.342821484791923e-07, 9.422999206121854e-07, 9.366188822106667e-07, 9.038146229356561e-07, 9.040972982616964e-07, 8.874516303961141e-07, 8.900905830291488e-07, 8.87868785121096e-07, 8.802498162746866e-07, 8.852205612676142e-07, 8.798214971200598e-07, 8.811394121943988e-07, 8.835007629954903e-07, 8.782264344615831e-07, 8.769032444777926e-07, 8.763335133963629e-07, 8.761828347599383e-07, 8.751679031148947e-07, 8.737382890807443e-07, 8.742984939547898e-07, 8.72400855027557e-07, 8.745716945715687e-07, 8.718525280833218e-07, 8.723147789787661e-07], [1.3300521106602892e-06, 2.3743692351965e-06, 1.284203941202644e-06, 1.1167113099502404e-06, 9.425370563603061e-07, 9.331239839239286e-07, 9.348844610382069e-07, 9.428954145017525e-07, 9.372484540102422e-07, 9.047888397609154e-07, 9.050871525455378e-07, 8.885333291674059e-07, 8.911158087678982e-07, 8.890352915369509e-07, 8.814161573698402e-07, 8.863998208571378e-07, 8.809443470126525e-07, 8.823959427569821e-07, 8.846397001000523e-07, 8.794372009393548e-07, 8.781119086625388e-07, 8.776098851228256e-07, 8.774514283597856e-07, 8.764273184605182e-07, 8.750011855999122e-07, 8.755183083882138e-07, 8.736337290757103e-07, 8.757945275516076e-07, 8.73114244362149e-07, 8.735612914534498e-07], [1.3298490995672324e-06, 2.374045996826197e-06, 1.2840389443324502e-06, 1.1166586975199995e-06, 9.425137719580325e-07, 9.331014443063731e-07, 9.34862675496758e-07, 9.428744649614049e-07, 9.372282090785231e-07, 9.047775183314071e-07, 9.050752073016674e-07, 8.885244441980093e-07, 8.911056400715213e-07, 8.890283351102871e-07, 8.814091005178096e-07, 8.863933514294858e-07, 8.809373399073806e-07, 8.823911861050018e-07, 8.846332889447128e-07, 8.794317441600753e-07, 8.781065881202856e-07, 8.776059781116887e-07, 8.77447330271824e-07, 8.764230729975699e-07, 8.749971012588329e-07, 8.755134373591016e-07, 8.736291411284834e-07, 8.757897136576729e-07, 8.731103984054375e-07, 8.735570794250046e-07], [1.3296368371270933e-06, 2.373707792486677e-06, 1.2838663961476912e-06, 1.1166036281822216e-06, 9.424893874573151e-07, 9.330778388296167e-07, 9.348398591306022e-07, 9.428525167656239e-07, 9.372070002122284e-07, 9.047656397706131e-07, 9.050626785964137e-07, 8.885151166431163e-07, 8.910949708610561e-07, 8.890210220255242e-07, 8.814016843248459e-07, 8.863865477296982e-07, 8.809299755777541e-07, 8.82386173818522e-07, 8.846265469003941e-07, 8.794260002447575e-07, 8.781009866622334e-07, 8.776018544295802e-07, 8.774430066532368e-07, 8.764185954130903e-07, 8.749927922390271e-07, 8.755083058452689e-07, 8.736243059538703e-07, 8.757846421336937e-07, 8.731063387437853e-07, 8.735526369611488e-07], [1.7064522367375658e-06, 1.3582376921757861e-06, 1.222090636712776e-06, 1.0472287421428313e-06, 1.0669719166030302e-06, 9.756471128498333e-07, 9.896935216256936e-07, 7.504281698792832e-07, 8.927292495204701e-07, 9.34575486475361e-07, 8.224004799595093e-07, 8.049288892127311e-07, 7.476469391772114e-07, 7.439046818283829e-07, 7.75150796139744e-07, 7.694165946688085e-07, 7.42029975621807e-07, 7.199206235533838e-07, 7.067860097863555e-07, 7.313387215684871e-07, 7.267181370883456e-07, 7.075214386602343e-07, 7.023893597039773e-07, 7.188879964429653e-07, 6.996953327933914e-07, 7.023536561092457e-07, 7.098242388232863e-07, 7.056703800787893e-07, 7.064220244577411e-07, 6.978269519334423e-07], [1.7663252271058737e-06, 1.3706580077637646e-06, 1.3998184517521384e-06, 9.928610217110651e-07, 1.070954036544485e-06, 1.1468714320060428e-06, 9.66747151313962e-07, 9.135161302506056e-07, 9.119469723439766e-07, 7.945511899623062e-07, 8.313129764907659e-07, 8.160947382169747e-07, 8.027179563262898e-07, 8.062569300249338e-07, 7.737288093830189e-07, 7.827619813380607e-07, 7.701267295607696e-07, 7.575501884080487e-07, 7.509067837047631e-07, 7.599629946340892e-07, 7.535063969849971e-07, 7.515343385351977e-07, 7.493937062549006e-07, 7.524193206451425e-07, 7.515656818366097e-07, 7.53008214012054e-07, 7.488377365732321e-07, 7.492302178389053e-07, 7.471340609317733e-07, 7.47591757858741e-07], [1.3289586164565958e-06, 2.372625553318242e-06, 1.2833148482883073e-06, 1.1164272610747844e-06, 9.424112041937202e-07, 9.330021466571628e-07, 9.347666930676963e-07, 9.427820840881003e-07, 9.371389477049852e-07, 9.047274002855768e-07, 9.050223761043362e-07, 8.884850521469791e-07, 8.910606234704723e-07, 8.889973806882983e-07, 8.813777265109507e-07, 8.863645353006192e-07, 8.809061825176798e-07, 8.823698892607297e-07, 8.84604736531206e-07, 8.794073808068564e-07, 8.780828224965172e-07, 8.775884108230655e-07, 8.774289231739852e-07, 8.76404020849536e-07, 8.749787569623747e-07, 8.754916428799753e-07, 8.736085922873868e-07, 8.757681725629215e-07, 8.73093100984523e-07, 8.735381757546451e-07], [2.0485169977488136e-06, 1.579735502980361e-06, 1.823731318682064e-06, 1.0431884831768074e-06, 1.0459305985179986e-06, 9.810904281383554e-07, 9.391724730669767e-07, 8.336170067544579e-07, 8.867709239117636e-07, 8.121150600437321e-07, 8.108843280618344e-07, 8.294180506547265e-07, 8.189121073431039e-07, 8.473525382526145e-07, 8.041935373190138e-07, 7.995116525968316e-07, 7.783402180698729e-07, 7.885895976536329e-07, 7.705829416911769e-07, 7.853885721961314e-07, 7.761272194516369e-07, 7.712586030220222e-07, 7.727091238208214e-07, 7.722114986399056e-07, 7.751764776007799e-07, 7.73969848489218e-07, 7.720064000265834e-07, 7.695801432978717e-07, 7.709641076873893e-07, 7.687511440283286e-07], [9.387905219476094e-07, 1.3454565288148035e-06, 1.0519563394291278e-06, 1.0408086994967539e-06, 1.0268813684785914e-06, 6.392613218607184e-07, 8.298064055286288e-07, 5.790465154982303e-07, 7.599078464819389e-07, 5.797422990605443e-07, 5.928478114196978e-07, 6.436933906145888e-07, 5.578267908187507e-07, 5.803314548522762e-07, 5.838191481216592e-07, 5.39596781718629e-07, 5.197362620950153e-07, 5.470973138598513e-07, 5.111651070915504e-07, 5.220160910496126e-07, 5.123114639571235e-07, 5.070165060665298e-07, 5.158459449462645e-07, 5.050042779982978e-07, 5.061252962954552e-07, 4.991115958247895e-07, 4.868834760359791e-07, 4.898533405224601e-07, 5.018750521551791e-07, 5.014703731426376e-07], [1.3282188000535292e-06, 2.371442233918767e-06, 1.2827128226309362e-06, 1.1162341624122624e-06, 9.423254494282329e-07, 9.329191125934465e-07, 9.346864229008417e-07, 9.427047249860897e-07, 9.370642159628255e-07, 9.046851905080794e-07, 9.049779408684071e-07, 8.884518015228926e-07, 8.910227078945797e-07, 8.889711131298413e-07, 8.813511362809107e-07, 8.863400468846317e-07, 8.808797703655629e-07, 8.823516557426676e-07, 8.845804773634143e-07, 8.793866052896903e-07, 8.780625437728142e-07, 8.775732792055454e-07, 8.77413091775729e-07, 8.763876552789559e-07, 8.749629808555315e-07, 8.754730010648256e-07, 8.735909902095094e-07, 8.757497446798996e-07, 8.730781961652244e-07, 8.735219358352366e-07], [1.7173046826740092e-06, 1.535932607573305e-06, 1.4725363679154853e-06, 1.1533186935984182e-06, 9.704677247265532e-07, 9.271721103536798e-07, 9.346278159483272e-07, 8.769774403359392e-07, 9.009579344687147e-07, 8.874208247310411e-07, 8.383653441748484e-07, 8.451792351978913e-07, 8.431678724174112e-07, 8.048722403247152e-07, 8.159002925970194e-07, 7.993251001781899e-07, 8.192558979706555e-07, 7.984962768990644e-07, 8.127226593086784e-07, 8.020220767960817e-07, 8.006465581490558e-07, 7.872636605738508e-07, 7.859910619315317e-07, 7.867575434921915e-07, 7.854460693929374e-07, 7.902962003307886e-07, 7.93243508186951e-07, 7.943595233382785e-07, 7.867132725717847e-07, 7.862176161978794e-07], [1.327683250962626e-06, 2.3705838158275707e-06, 1.2822767678474e-06, 1.1160939143393586e-06, 9.422630652249754e-07, 9.328587001392246e-07, 9.346280166754966e-07, 9.426483800366157e-07, 9.370097931567527e-07, 9.046543110793096e-07, 9.049454667075333e-07, 8.88427434786269e-07, 8.909949687236688e-07, 8.889517861426141e-07, 8.813315904053512e-07, 8.863220093066285e-07, 8.808603523035034e-07, 8.823381505035541e-07, 8.845626114839367e-07, 8.793712631199303e-07, 8.780475613456269e-07, 8.77562021332712e-07, 8.774013261664846e-07, 8.763755039675104e-07, 8.749512570349371e-07, 8.754592031783825e-07, 8.73577947733316e-07, 8.757361035915931e-07, 8.730671039328628e-07, 8.735098767829437e-07], [1.3273944726003495e-06, 2.3701203045293045e-06, 1.2820415511305689e-06, 1.116018128258408e-06, 9.42229319892561e-07, 9.328260188272388e-07, 9.345964190461449e-07, 9.426178778112517e-07, 9.369803344408478e-07, 9.046375477626606e-07, 9.049278491713764e-07, 8.884141927482338e-07, 8.909799097649084e-07, 8.889412563298044e-07, 8.813209476883122e-07, 8.86312175290928e-07, 8.808497781034533e-07, 8.823307619761052e-07, 8.845528720416562e-07, 8.793628851932414e-07, 8.780393774391537e-07, 8.775558452979203e-07, 8.773948759419146e-07, 8.763688461048376e-07, 8.749448299558078e-07, 8.754516578570187e-07, 8.735708107037493e-07, 8.757286434927393e-07, 8.730610177174372e-07, 8.735032691174803e-07], [1.9003174671114168e-06, 1.5612597471827514e-06, 1.480840501907553e-06, 1.0171335006821473e-06, 1.0842536342984697e-06, 1.0141719482424065e-06, 9.371939848530477e-07, 7.711440441943218e-07, 9.165464147496136e-07, 8.470030214830571e-07, 8.433733775494995e-07, 8.013265986931493e-07, 7.754550951206803e-07, 7.55598525158814e-07, 7.81199593391924e-07, 7.631519530411439e-07, 7.56059851530595e-07, 7.326995676715154e-07, 7.299374614173262e-07, 7.426206744265389e-07, 7.390815214480059e-07, 7.365653135443431e-07, 7.248378476459429e-07, 7.36822437778024e-07, 7.263889038719581e-07, 7.27089676022526e-07, 7.308042681997877e-07, 7.308477194195074e-07, 7.260261440601108e-07, 7.219524873726094e-07], [1.949663615523863e-06, 1.8224229769520852e-06, 1.3605416948921698e-06, 1.0404409535607627e-06, 1.0688691284036202e-06, 1.0691054577197974e-06, 9.279163595815679e-07, 8.034957929821423e-07, 9.232401659792402e-07, 8.015632940528877e-07, 8.51401483481443e-07, 7.994749372004988e-07, 7.971953314068208e-07, 7.902989463732056e-07, 7.937233612168636e-07, 7.843727144993039e-07, 7.738957292365171e-07, 7.579328052748377e-07, 7.562818107928288e-07, 7.656890117547524e-07, 7.652336956627024e-07, 7.590738638672738e-07, 7.561204039592656e-07, 7.638503133046922e-07, 7.607287002415333e-07, 7.56308187641489e-07, 7.563690012340529e-07, 7.532286759685848e-07, 7.529597205571316e-07, 7.550960959238218e-07], [1.3591414764802064e-06, 1.0565818200168721e-06, 1.0793217487943027e-06, 1.1566576143107631e-06, 1.1462530619757631e-06, 9.380546512808276e-07, 8.278695217999442e-07, 7.311837683616608e-07, 8.212752638765887e-07, 8.111396490826381e-07, 7.779241694455554e-07, 6.97638844584715e-07, 6.900277128736491e-07, 7.696989416778752e-07, 7.072562397251822e-07, 6.781669969675224e-07, 7.183255773192274e-07, 7.048120110350538e-07, 6.368533617615457e-07, 6.4449986874988e-07, 6.443208516876933e-07, 6.504858479062209e-07, 6.360246773148408e-07, 6.537145381534987e-07, 6.358171618775812e-07, 6.535544689243103e-07, 6.657200692151221e-07, 6.340139876404975e-07, 6.572444221413335e-07, 6.448339244923687e-07], [1.5318544909541006e-06, 1.359738890359149e-06, 1.2390732837677787e-06, 1.0394784059545154e-06, 1.3098405517449936e-06, 1.0039236481179242e-06, 9.589951988608495e-07, 7.854524624773779e-07, 9.201306099730235e-07, 7.975376375572631e-07, 7.772282218406539e-07, 8.358320483325791e-07, 7.489716991918354e-07, 7.479242348629981e-07, 7.818866302270328e-07, 7.306824970848683e-07, 7.231029707968887e-07, 7.142841000725811e-07, 6.986156360434913e-07, 7.211078719759382e-07, 7.163714299785015e-07, 7.222174333916918e-07, 6.94783840748983e-07, 7.027388659182681e-07, 6.969801064530215e-07, 6.945443290643028e-07, 6.992473438957606e-07, 6.93065363484707e-07, 6.928912736133257e-07, 6.952305217710387e-07], [1.238619023986564e-06, 1.364445896082085e-06, 1.0105884049302353e-06, 1.0967161650496957e-06, 7.758044331441209e-07, 7.020122630082243e-07, 7.315546681708542e-07, 6.427014456385714e-07, 7.10487269549538e-07, 6.016723930150304e-07, 5.904353666292434e-07, 6.254893199086195e-07, 5.897918314824408e-07, 6.690815183463055e-07, 6.027699971777438e-07, 6.141471904149075e-07, 5.933923581100584e-07, 6.182182400807445e-07, 5.416172407210601e-07, 5.730187014352997e-07, 5.56886570643228e-07, 5.570061819406409e-07, 5.593390258195148e-07, 5.450098168561812e-07, 5.563538175833986e-07, 5.427490145502386e-07, 5.329304922481571e-07, 5.348160608935678e-07, 5.614452384230327e-07, 5.438807065567773e-07], [1.7646098144550535e-06, 1.5871670059446104e-06, 1.7862525544487885e-06, 1.1305346648650207e-06, 1.1267511701302996e-06, 9.728452665670827e-07, 9.026236071108665e-07, 8.107269614434496e-07, 8.739637652720703e-07, 8.406435613182665e-07, 7.811175734718498e-07, 7.792055820738716e-07, 7.556805468908609e-07, 7.822016759600669e-07, 7.496790202341061e-07, 7.398999664464923e-07, 7.480615540974109e-07, 7.277413743824375e-07, 7.102246598966336e-07, 7.320114147559005e-07, 7.188056036223584e-07, 7.128145959762295e-07, 7.145576612452702e-07, 7.148883622377319e-07, 7.153036127793531e-07, 7.146301671218104e-07, 7.157889539709987e-07, 7.072962710206056e-07, 7.12309661489483e-07, 7.054237329134385e-07], [1.6073801159190227e-06, 1.3936947588695038e-06, 1.237009737995125e-06, 1.296869815276781e-06, 9.561864804431286e-07, 8.220622364718023e-07, 8.135293044294052e-07, 6.796422001052501e-07, 8.464325831714999e-07, 8.231822942606178e-07, 7.183412852238279e-07, 7.399415140046842e-07, 6.948042774925571e-07, 6.806406104502634e-07, 7.189887620493518e-07, 6.754210726279502e-07, 7.251528942097886e-07, 6.601983812572354e-07, 6.461692360945111e-07, 6.855752270447516e-07, 6.541553827239634e-07, 6.34295307365144e-07, 6.374236932674519e-07, 6.545224897989387e-07, 6.360726924714417e-07, 6.378871638853383e-07, 6.462188856244744e-07, 6.454803193931604e-07, 6.448087665292504e-07, 6.322136621997943e-07], [2.3246509507451985e-06, 2.180109060923209e-06, 2.1507768489649477e-06, 1.0925319233977171e-06, 1.016585842105445e-06, 9.607784122481508e-07, 8.988432655328594e-07, 8.073911984740524e-07, 8.807525492618933e-07, 8.08511444254984e-07, 8.02629331582602e-07, 8.012035724219622e-07, 8.075373657143401e-07, 7.973309160214446e-07, 7.850466915865249e-07, 7.773030151962688e-07, 7.668715854537218e-07, 7.653886654186012e-07, 7.540182579245289e-07, 7.643855384078171e-07, 7.566521124495331e-07, 7.510483320559821e-07, 7.516751124570397e-07, 7.5437633014236e-07, 7.545066822388581e-07, 7.528582226263713e-07, 7.531531604325183e-07, 7.503473944037164e-07, 7.497087750229373e-07, 7.474634317369719e-07], [2.074463628661976e-06, 1.6312034227777675e-06, 