{"timestamp_utc": "2026-03-09T09:33:53+00:00", "case_id": "bird_17_high_large_9", "bgmm_weights": [0.01603848145163352, 0.010259817498677532, 0.019057201538146214, 0.027256470895940327, 0.02381300316582832, 0.018481309007046212, 0.0207792892588859, 0.004144260401346851, 0.0007939930928596501, 9.98911312319875e-05, 0.016225162144912885, 0.015969890657736067, 0.0828185942114152, 0.009813710815548585, 0.009989641764951103, 9.981491054162709e-05, 0.014369730746574792, 0.017760614792399456, 0.0005967086028936791, 0.015333367503742782, 0.03365996238843654, 0.019137037548873505, 0.0008846548762856165, 0.010413840380265918, 0.0020969275677939336, 0.029984246165658653, 0.009853760155481379, 9.96292074615716e-05, 0.01973741705284219, 9.959377814432486e-05, 9.957575788350378e-05, 0.00787245426277865, 0.011571756666853802, 0.02986542064130686, 0.015279359690852616, 0.014653053150948059, 9.945964783193947e-05, 0.006824925065120086, 0.014642701002017396, 0.003314036748722268, 9.937321377939856e-05, 0.028843688976094933, 0.027320544849789245, 9.930212149324101e-05, 0.009711098952434312, 0.015786778368072633, 0.013691933122249433, 0.027504360585129277, 0.011742242025876903, 9.913375823286053e-05, 0.017534723536458196, 0.009043191134767259, 9.903428916837582e-05, 9.899983148148993e-05, 0.009892680835959424, 9.892972416302558e-05, 9.889407539280988e-05, 0.020856330025166063, 9.881990044107477e-05, 0.0180113014830776, 0.0507071849229838, 0.009040924563073314, 0.015317218832755783, 0.014023589476214751, 0.016473864957841124, 0.020606337402602443, 0.005602951758569968, 9.824815045388165e-05, 0.001751385366558196, 9.806039291575385e-05, 0.021637055840249927, 0.012795083921808188, 0.0031089290529510193, 0.010028425735349877, 0.02468110209659036, 9.705820878098845e-05, 0.014597182837252974, 0.0005751030672250968, 0.014137222138852976, 9.451198706099321e-07], "bgmm_means": [[-0.05261104673768969, 0.034381367786355733, -0.01118023408977442, 0.014487077224735636, -0.004457933513060469, 0.004133422301624129, 0.002498060560398872, -0.0034542749465932892, 0.0015960602096101388, -0.0066387126996138935, 0.00362726042352128, -0.0028191888432455483, -0.001711316842067342, -0.002710893681753169, 0.0008504340590506741, -0.0014621678242741928, -0.00027167839619401886, 0.0010631796840432559, 0.0009112798258791499, 0.0012892964750619356, -0.00022124067540481277, -0.00017669825472014627, 0.0011064621859020033, 0.002478162956720502, 0.0010016053015114014, -0.0015346131285110566, 0.00027910692397386535, -0.0006856260935541367, 0.00010457012471777382, -0.00026377634465739937], [0.06935681123377754, 0.008346789684680908, -0.015159008550542596, -0.011036049591771185, 0.0018818255441778319, 0.0006990454904681388, 0.00012170095495618973, 3.5217101776165795e-05, 0.003776517354924561, -0.0007475181838282589, -0.002879529815746804, -0.008692816932818183, 0.00011066622288384756, 0.002622358370109122, 0.0015514542205890985, -0.002493161465709103, 0.0024447128183180417, -0.0006377588845981963, 0.0007410491214313321, -0.0001994042043423367, -0.0026166351883034006, -0.0021420700536663186, -0.0017456602249176743, -0.00028494319614964726, -0.0017380691207852742, -0.0014432832242020353, -0.0008327211877872002, -0.001052204450480646, 0.00040804081556689264, 0.00031686875919752184], [-0.03109902647243575, -0.00151292078916353, 0.0046105533454809935, 0.005635384536605412, 0.0058155836779322945, 0.0024653489538354464, -0.0013740544990396462, -0.001070808818973188, 0.005197249005217232, 0.0029558575657136965, 0.0035962713962083494, -0.002950927432215421, 0.0017856731321351078, 0.0024616827641256544, -0.0018737455524683157, 0.0008233761018832967, 0.0006503599717336458, 0.0014189026668140884, 0.0004314003472522342, 0.00010705734183812054, -0.0009429540908984271, 0.0001468336858150923, 0.0018872755823467963, -0.0010664639115913358, 0.0003717923394267948, 0.000600232699256747, 0.00011111962915596922, 0.0008222391214314559, 6.843213482942354e-05, -0.00017272084111688124], [-0.07506152280282335, -0.009620088573186714, -0.018974200774284886, -0.004289531686393872, 0.00817234890956428, -0.0038563590514399957, -0.0003737603746200828, 0.0035623264815073472, 0.0021598359437871467, 0.0016041984866196975, -0.00043538405256026986, 0.002268700966971347, 0.001687265909088993, 0.001210204858772248, -0.00021870930699251928, -0.001133719708488993, -0.0010628334622096026, 0.0005949185289106447, 0.00018193423719312882, 0.0005600712044817978, 0.0006418803689788319, -0.0006398540564707065, -0.00046699154146283994, -0.0010465001116647017, 0.0007904524060472433, -0.000153067664473957, -0.0004920325856398357, -9.846935263810816e-05, 0.0009091588163422619, 0.00036326703387102417], [0.08484248317959364, -0.003741895870519935, -0.019165526283386393, -0.004542659775130651, 2.275709824620828e-05, 0.0013128271302885461, -0.004759102630745336, 0.00028697425358410153, 0.0009502359153670229, -0.003026926004070664, 0.001231092706174525, 0.0015309828031268037, 0.0002955150827396004, -0.0018887825057018433, 0.00011028624088505627, -0.001050369437610418, -0.0004940760298570782, 0.000653289767986947, -0.0019282374109737418, -0.0004867208733891297, 0.00037143949254401327, -8.289684023599805e-05, 0.0011752410228007626, -0.0003278730689743572, 0.0006964139284313506, 0.00029199990223490596, 0.0011343699628058848, 0.0006018295012785622, -3.986715067126867e-05, -0.0003820954283868205], [-0.04320654342188292, -0.018056948418526723, -0.0033286381943738543, 0.0029408277298864556, 8.374201551671206e-05, -0.004249704228443537, -0.004759304107385993, 0.004055538518799641, 0.002213004625081596, 0.001717598045203358, -0.002655593227972779, -0.0021184066938526053, 0.00038431308031098974, 0.00087920382720643, -0.000261893899493953, 0.0019118335776551697, -0.00022308412998330612, 9.74786383074668e-05, -0.00016733330252637215, 0.00038644029148574325, 0.0017030260544367928, -0.0017376405887139792, 0.0009035308201552037, -0.001033792125014865, 0.00048132853289037397, 4.630763763042651e-05, 0.00014080773328571693, 0.00010052520833409869, 0.0007093499014839975, -0.00048700292746047615], [0.004716011073511966, -0.03894371165120785, 0.012895263166974572, 0.005597254540620441, -0.005684253938839007, -0.008877794388588616, 0.00020083911540674508, 0.0008696382026654357, -0.002871858327983317, 0.00026631197380288455, -0.0006713998079464316, -0.0016787029004369403, -0.0013979586354577241, -0.00026210825892278143, -0.0008887503767779447, 0.0013408094827144909, 0.000923723313000309, 0.002747985387119339, 0.0003458536464876546, 0.0013242111652310407, -0.0009541846529118024, -0.0013716753639931494, -0.001543896705402947, 0.0009264898749526862, 0.0002883249265691435, -4.411384035920507e-05, 0.0016625609320457865, 0.00050865689841448, 0.0012346257427915766, 2.4589286343594023e-05], [0.040559816614918275, -0.06412772866082865, -0.017031672335171087, 0.01428496075648843, -0.015690773268900265, 0.011290637475886564, 0.02861550442153238, -0.007443257397806878, 0.014436798528933353, -0.0027354592087616464, -0.008889658024829177, 0.0065906305730886565, 0.0037485931168341553, 0.00700979511086471, 0.00017260141099347136, 0.0006707588691462725, 0.002028869181117765, -0.004881376002520409, 0.0017106585814049774, 0.0003902256548208768, -0.00023263494688994968, 0.0010182310917824418, -0.00019467975962520024, -0.0019406435925441435, 0.0003493879164335507, 0.0032028591086733474, 0.0007793676629315739, 0.0018806889233893324, -0.0004355666704104959, -0.002822290797083382], [0.01597377657219406, -0.0014808561798464563, 0.010194004835345999, -0.019224307375365044, -0.01371968305401522, 0.006196068208417365, 0.004292389721890348, -0.0035281293231699496, 0.005538704068739426, 0.009571530690630095, 0.000320490779605585, 0.0003903140484529414, -0.0059284337387284815, 0.00015922044076467992, 0.005712440687084176, -0.005960794937039737, -0.001219616265802442, 0.002782848091416362, -0.0019946621990080604, 0.0030517738329776983, 0.002554863048289414, -0.0018017826664808079, 0.00036969320851409004, -0.0003856309033117217, 0.0025187303608980266, -0.0008431756012446299, -0.0006729818607566416, 0.0006348834149908866, -0.000601709523122492, -0.001432274213612425], [-6.304495059339373e-08, 6.366222748965796e-08, -2.1793618998344707e-07, -2.2056955373272963e-08, -8.798144079946704e-08, -2.2395211374259765e-07, -7.959754100284027e-08, 5.6351673549670397e-08, -6.928369344905134e-08, -2.289027856150478e-09, 8.76386181403175e-08, 5.794014867888096e-08, 2.8113579020327898e-08, 4.144584409004883e-08, 1.0250933968336517e-07, 4.837452394212949e-08, 4.30830970898909e-09, 7.04834235421002e-08, 4.9959112402575444e-08, 3.711648588478048e-08, 3.134924853043223e-08, 1.171218499962376e-08, 3.5827270039589996e-08, -4.66984566571681e-08, 4.6969486078296435e-08, 4.431521460901412e-08, -3.4417858785218334e-08, 9.197113826076e-08, 7.248031863582567e-08, -4.0666478184903006e-08], [-0.06251481020872199, 0.005415123024766913, 0.0022159590545448938, -0.007919324289764731, -0.00860570926318274, 0.0006119792554582014, -0.005679183189727834, -0.0013903026214482342, -9.781055942734162e-05, -0.0013105985263508007, 0.0007748156772035238, 0.004361555536966001, 0.003853983283867713, 0.00023602711799838652, 0.0025416291964561735, 0.0006444931148961246, 0.0026741586609425375, 0.00010191243950417486, -0.0007986644897230611, 0.0015581226739609455, -0.0008041056535345037, 0.002115908351883191, -0.0012241797768226875, 0.0005196317054283708, -0.0018860020725013384, 0.0005214651000876053, 0.00025249045879274, 0.00035074205452225403, -0.0004248214528119, 0.0005197982178101201], [-0.012458635371654588, 0.03170646466070826, 0.0028203002421791855, 0.00894637377325606, 0.004535773275959622, 0.002115308614236279, 0.0033590703753598678, -0.0018183544445485606, -0.006662570837704066, 0.0014019711268220324, -0.0012918670498430738, 0.0010350272184783563, 0.0014735518109485748, -0.00018227104245009679, -0.0007138559185787646, -0.0018901244886781869, 0.0014241645389713642, 0.0012272696680405508, 0.0009147280756982397, 0.00033012915448830135, 1.508058141225688e-05, -0.0009064480507114589, 0.0007029526298874586, -0.0022400224783911474, -0.00040943030463742473, 0.00018018105099709507, 0.00034524360013374415, 0.0005520075610368141, -0.00015703278949466773, 0.0006876700624957332], [-0.006774473923682816, -0.023416362962264743, -0.00043812353055590645, -0.0015074159541035416, -0.008045557526402455, 0.00028891513455089267, 0.0060063488483725405, -0.0008514231476104414, 0.0004733636233101659, 0.00022150602613734815, -0.0007772619463351293, -0.0017776792469937908, 0.0018875951960692044, -9.098163432861286e-05, 0.000928044125161232, -4.729686128965333e-05, -0.0014966099562980979, -0.0006658343848653883, -3.226650820795404e-05, 4.6349257697356136e-05, 0.00013294160506751573, -0.00027547717719175383, -0.0003219349534207669, 8.540614996835265e-05, -0.0004345435315366146, -0.0006662854714892517, 0.0001322072814846886, 0.00013229460503488315, -0.00046993028304867534, -4.01273646382815e-05], [0.0686415166160727, 0.004343459897977369, -0.012306199522861019, -0.003897095184088661, 0.006407107659894308, 0.00426626505345198, -0.0035827169425697975, 0.0010532531295181179, 0.001260573213972057, 0.002912352761816326, -0.0036558680272878994, -0.0027776883680518207, -0.0002788296736185684, -0.001050797881340414, -0.0015687712698107244, -0.0004547279861262384, -0.00029528249247505863, -0.003259512421037404, -0.0006936759358141637, 0.0010471591018731449, -1.4945915786409439e-05, 0.0014970522013166333, -0.00047225756288221384, 0.002311846078895732, -0.0003005635154182502, -0.0006141940099868416, 0.00040257283710491107, 0.00021868285801253696, 0.0016967636256761363, -0.0002041873765919285], [-0.056159891696692055, -0.036721059435188566, 0.011177546703095754, -0.008327196052762064, 0.011688497625387775, 0.008268155842877024, -0.003158126768242256, -0.007020832322573912, -0.0012194419821879323, -0.005227030767858676, -0.000914055171306082, -0.0010549527003724782, -0.0022308301613961027, -0.003223402272381322, -0.00033402546226380335, 0.00015277891745290893, -0.0005800708194233559, -0.00033724576782238495, 0.0003142773210661199, -0.0016664887149626087, -0.0007570347905464762, 0.00032593806652891997, -0.000983575308409677, -0.0007864417534121349, 0.000297439673099104, -0.0005839266177345386, -0.001012699478530292, 0.0020110258181970588, -0.0006279115796942394, -0.000508525648060505], [-6.304495059339373e-08, 6.366222748965796e-08, -2.1793618998344707e-07, -2.2056955373272963e-08, -8.798144079946704e-08, -2.2395211374259765e-07, -7.959754100284027e-08, 5.6351673549670397e-08, -6.928369344905134e-08, -2.289027856150478e-09, 8.76386181403175e-08, 5.794014867888096e-08, 2.8113579020327898e-08, 4.144584409004883e-08, 1.0250933968336517e-07, 4.837452394212949e-08, 4.30830970898909e-09, 7.04834235421002e-08, 4.9959112402575444e-08, 3.711648588478048e-08, 3.134924853043223e-08, 1.171218499962376e-08, 3.5827270039589996e-08, -4.66984566571681e-08, 4.6969486078296435e-08, 4.431521460901412e-08, -3.4417858785218334e-08, 9.197113826076e-08, 7.248031863582567e-08, -4.0666478184903006e-08], [-0.07752129131762836, 0.010876999350144191, -0.01767112681404612, -0.0001733712578324854, 0.0038794180476296436, -0.0033409802432128087, 0.0003361544139174506, 0.005295446094636012, 0.00919316254744679, 0.00045041013176205097, 0.0038177851492087445, 0.0007799682867525205, 0.001930213768997609, -0.0017531960773162518, -0.0006415289555931192, 0.002272755914725738, -0.0005453718775157417, 0.0013636195084429233, 0.0017720806073127798, -0.00017493529438962594, -0.0002662634511650954, -0.00048544058286547134, -0.00018081696923339882, 0.0003489760467398371, -0.00023620312648592217, 0.0010328986284982215, 0.0005117765262417994, -0.0014094482713353893, -0.0005130240625142722, -0.0006450497275968165], [0.06641513322770498, 0.018184271785472335, 0.003772600015100045, 0.002369269325932174, 0.00897429758812191, -0.008478847743130943, -0.0020139683140516524, -0.00286065983363966, 0.003275290521394694, -0.003178614775357778, -0.005162098310841937, -0.002369283612111541, 0.003177496131243643, 0.0005400633208164266, 0.00226060941159813, 0.0007034711174207998, 5.501394533282965e-05, -0.0016985196123255333, 0.00017940973644126396, -0.0005214569683897359, -0.0014212468319207883, 0.0005580046356030969, -0.00029022317162806987, 0.0006756258619696364, 0.000186183695367841, -0.0014654436792454328, -0.0007905587623298725, -0.0007975765842407385, 0.0006552635592673763, -0.0004875099177143971], [-0.03286833784870971, -0.014916570331331206, 0.017435786321957827, -0.000927060281404378, -0.009014363514845152, 0.0031997590777444753, -0.011435662786598286, -0.003968620351241454, -0.001154253354079561, -0.004115338998284414, 0.001504464055329486, 0.00036764933710574035, 0.004743000754742464, 0.00098978897263442, 0.0045692093814140005, -0.00015571257094406938, 0.0016470076666663242, -0.0007980611428785256, 0.0021083420515191653, 0.002453378561427439, 0.0010684462978425818, 0.001092007222216753, -0.00289032092499167, 0.000950021888165641, -0.0014947839266284133, -0.00030253495485805664, -9.275014977282838e-05, 0.0016065825065895907, 0.0003770402873335602, 0.0010344425091496834], [0.04730517939853227, 0.01917142943685143, 0.00391800056719722, -0.005445505331231585, 0.006535665175911543, 0.0018538431142160257, 0.0008853698861544098, -0.0006494504673460373, 0.0035759282490525207, 0.0029767454562533925, -0.003201357033162359, -0.004274035238856587, -0.001495131589343322, -0.0012287381724112223, 0.0020050212278256464, -0.0011528181312323417, 0.000566292522008675, -0.0019266262312050612, -0.0017125967968354874, 0.0006070854399200188, 0.0009921528801410315, -0.0013896083829208006, -0.0011853211591733072, 1.561962531698496e-05, -0.0012278624929733914, 0.0002326022900355846, 0.00015410196586552544, 0.00033103566551311736, 0.0005151219366560201, 0.000646400370626562], [0.0020212687215927626, 0.022841631198182673, 0.010269863942003287, -0.013584623138557605, -0.006820243549159353, 0.00014203245865661247, 0.004082386861413826, 0.002104120361681046, 0.0009319012131220765, 0.005164637434179651, -0.0010255141929564593, -0.0012846247739101075, -0.002882791281611427, -0.001085756626365985, 0.002167401870827297, 3.207683625810254e-05, 0.0007448827947343086, 0.0016292271125564158, 0.00030855805374551017, -0.0014307446506908567, -0.00018563299816526133, 0.000549135349291945, -0.00012583341256693022, -0.0006384681602982966, 0.0010902103856533553, 0.0002656797134946958, -0.0013813515167662605, 0.0003709756999942601, 0.00018030151252662713, 0.0001329043333585901], [-0.02772561721154734, -0.04631700949749235, 0.005938218092001758, -0.00017683007975535732, 0.006730554510072583, 0.0012874819406183148, -0.0021000408691865665, -0.003567980646656791, -0.004169240922438625, -0.001888959344356776, -0.0035036113446249026, -0.0027039862038353603, -0.00430834279052188, 0.00044478876225949695, 0.0004932126743447909, 0.0022635227185514493, -0.0008681268107894436, 0.0002715166915427218, 8.266564871223253e-05, -0.0014508855338983494, -6.119064738792975e-05, -0.00032767829114777394, 0.00160547855348611, 0.0011189546382827048, 0.00022292444129681503, 9.363001383220223e-05, 0.0003111213781445703, -0.0002550173286947163, 2.3063306236686267e-05, -0.00022667929890979167], [0.04834508321987487, -0.017238595119583346, -0.0004384760726029059, 0.003106574084343908, 0.002903862806249178, 0.00272978576574549, 0.0008085345941031106, 0.005897135677096351, 0.0007978400004416765, 0.0036857772309788865, 0.005697818668774388, 0.001651457356154539, -0.0028379823937010923, -0.0028034981606304683, 0.0009625746826521063, -2.702464267981059e-05, -0.0018378106894698346, 0.0006455478266107993, -0.0015599059980821017, 0.001129333970095281, 0.00100194151723352, 0.0012165850587207761, 0.0012810310797447542, 0.00038793459373648624, -0.0005019197249701552, 2.6263326389913312e-05, -0.0001958423460970849, -0.0008850092068976062, 0.00022353927006327998, 0.0014792759096551222], [-0.014833180579062797, -0.0307261293448973, 0.02982831704915875, -0.003809208937174348, 0.008297069496459416, 0.004230026313835358, -0.0005473898387230565, -0.00030169718504722474, -0.0022331109299014366, -0.0021646216882707796, 0.004498783760002693, -0.002278198325006089, 0.0005792342952866573, -0.0019325137281225298, 0.0009381245414089085, 0.0016873912031494943, 0.00021387939334283293, -0.0035272791464575058, 0.0012691579356687783, 0.0007476138176876858, -0.0020225541466005422, 0.0015604587777818953, 0.0006169065332437007, -0.0023988843765527625, 0.000179306506081815, -0.0014931669334822828, -0.000999476068570401, -0.00044588911343970217, -0.001105667067499107, -0.0013045465710766876], [0.02505732571562624, -0.055211973222702805, -0.0025909300782583572, 0.013209335070499094, -0.01246747353909069, -0.015670088818485858, 0.02409552015165565, -0.014310754506661624, 0.00611456626966462, 0.0019728163729021714, -0.008968221683292529, 0.006399707786295307, 0.002815610764883943, -0.004858485207767594, -0.008215517224004843, -0.003243584347671343, 0.0015602247347734416, 0.001771418534386119, 0.0007713817094605359, 0.004045558328847059, 0.0009464573238837846, 0.003902135036172427, 0.0035567581519860827, 0.0031866809946762297, -0.0029432009200452045, 0.0019638498375777577, -0.005131191051296006, 0.001663380230533498, 0.003026813135509835, -0.0029081203229625414], [0.030509686700274985, -0.018558832628182826, 0.022299849242443392, 0.002443208584663781, 0.006176379217655459, -0.005265407059185233, 0.0047159542263607405, 0.004293141392027576, 9.76715998039574e-06, 0.00033445805851840474, 0.0043436833678454625, -0.000555792892427537, -0.0015184519942908353, -0.0010809918513850767, 5.202967108973405e-05, -0.0014145593959269814, 0.00046047646143455173, -0.00160402817054501, -0.0011822103729137242, 0.001325886164943386, 3.0674847825415516e-05, 0.0016497519080361448, -0.00028672182978613616, -0.0001838987182111062, 0.00042399605607057743, -0.0005091149286969078, 0.00045921780562486325, -0.002037844481153625, -0.0004143736121690798, 0.0004481593712009361], [-0.01163605291156495, 0.05100227539994835, -0.0012522526041320165, -0.007650392160957866, 0.0018986017204402732, -0.002420408722853745, 0.009854692206172204, -0.0014741130519556915, -0.00417806324911476, -0.001900732776580284, 0.0009673883497877274, -0.0004580599963003509, -0.00029941806131884705, -0.002535613924166992, -0.0006104445052964923, 0.0038078683044857893, -0.00016460087496033906, 0.0010693656096669784, 0.0005844886617279104, -0.00026305243760161873, 0.00014805672864410575, -0.00027856068800363157, 0.00011285543336986701, 0.00023490068423029752, -2.455971506206198e-07, 0.0002512596520577657, 0.0007767471018952687, 0.0018056476726929847, 0.0006210385761498427, 0.0005712970158172675], [-6.304495059339373e-08, 6.366222748965796e-08, -2.1793618998344707e-07, -2.2056955373272963e-08, -8.798144079946704e-08, -2.2395211374259765e-07, -7.959754100284027e-08, 5.6351673549670397e-08, -6.928369344905134e-08, -2.289027856150478e-09, 8.76386181403175e-08, 5.794014867888096e-08, 2.8113579020327898e-08, 4.144584409004883e-08, 1.0250933968336517e-07, 4.837452394212949e-08, 4.30830970898909e-09, 7.04834235421002e-08, 4.9959112402575444e-08, 3.711648588478048e-08, 3.134924853043223e-08, 1.171218499962376e-08, 3.5827270039589996e-08, -4.66984566571681e-08, 4.6969486078296435e-08, 4.431521460901412e-08, -3.4417858785218334e-08, 9.197113826076e-08, 7.248031863582567e-08, -4.0666478184903006e-08], [-0.05949136756486039, -0.027986268535870547, -0.004369247180103784, -0.006970712254266675, 0.009338136048366138, 0.0029840879427647984, -0.002349552823334503, -0.00506515359121095, -0.0006496564342033598, -0.00046280462230897273, -0.0025504097486352393, 0.0008524286323696052, -0.0021614529765639416, 0.00160512099032523, -0.0020827254827260953, 7.403888076861802e-05, 0.00013699564130064459, 0.0007031878740781813, -0.0012759702091050588, -0.001537742961927477, 0.0003733422080244244, -0.0009200426002278635, 6.137729162649358e-07, -0.0003288824314976922, -7.279633371663705e-05, 0.00037808105499958394, 0.0002036964477657583, -0.0005538433401221745, 0.0003206916275490186, -6.740785470704685e-05], [-6.304495059339373e-08, 6.366222748965796e-08, -2.1793618998344707e-07, -2.2056955373272963e-08, -8.798144079946704e-08, -2.2395211374259765e-07, -7.959754100284027e-08, 5.6351673549670397e-08, -6.928369344905134e-08, -2.289027856150478e-09, 8.76386181403175e-08, 5.794014867888096e-08, 2.8113579020327898e-08, 4.144584409004883e-08, 1.0250933968336517e-07, 4.837452394212949e-08, 4.30830970898909e-09, 7.04834235421002e-08, 4.9959112402575444e-08, 3.711648588478048e-08, 3.134924853043223e-08, 1.171218499962376e-08, 3.5827270039589996e-08, -4.66984566571681e-08, 4.6969486078296435e-08, 4.431521460901412e-08, -3.4417858785218334e-08, 9.197113826076e-08, 7.248031863582567e-08, -4.0666478184903006e-08], [-6.304495059339373e-08, 6.366222748965796e-08, -2.1793618998344707e-07, -2.2056955373272963e-08, -8.798144079946704e-08, -2.2395211374259765e-07, -7.959754100284027e-08, 5.6351673549670397e-08, -6.928369344905134e-08, -2.289027856150478e-09, 8.76386181403175e-08, 5.794014867888096e-08, 2.8113579020327898e-08, 4.144584409004883e-08, 1.0250933968336517e-07, 4.837452394212949e-08, 4.30830970898909e-09, 7.04834235421002e-08, 4.9959112402575444e-08, 3.711648588478048e-08, 3.134924853043223e-08, 1.171218499962376e-08, 3.5827270039589996e-08, -4.66984566571681e-08, 4.6969486078296435e-08, 4.431521460901412e-08, -3.4417858785218334e-08, 9.197113826076e-08, 7.248031863582567e-08, -4.0666478184903006e-08], [-0.026420984241913664, -0.021052969574462583, 0.018888279836918608, -0.0007243823256696786, 0.005030846632022112, 0.0036261988544369775, -0.0016249290768726992, -0.000346480124736825, 0.0005058843594487698, -0.0018942086928593603, 0.00015765721613261808, -0.0002961314373100044, -0.00048823426163653534, 0.0033304626852304125, -0.0025745486648826605, 0.0015142891870225151, 0.001594102457658359, 0.0024210067615579233, -0.00219153302256523, 0.0010980162506864745, -0.0010625552112455334, -0.0008893058486735693, 0.0003089622019892504, -0.0009343058153019299, 0.0005412579834753862, -0.000736640230565071, -0.00016594094239373323, -0.00027805945479669416, 0.0012110640696456204, -0.0012699373259683362], [0.10151447711093321, -0.013638653811720103, -0.03331463368028704, -0.004512254433367036, -0.0018161120673732198, -0.0005835355747616351, -0.0035493867950567716, 0.0007000145760374625, 0.0007761383574374299, -0.007348301248031883, 0.0038633924365993463, 0.0024184928168136713, 0.0021081398961766517, 0.0013964750505776043, 0.0009022600497634935, -0.00048288624161839583, 0.0039383100181207675, 0.0026532571715959245, 0.0021121831753024923, -0.00235362664985717, -0.0008072804151281937, -0.0011902103707066773, 0.0007447800791455615, -0.0007929711873465983, -7.947302377090237e-06, -0.0007394004956690478, 0.00017557681607866776, 0.0006629492909631044, -0.0007895551242794257, -0.00011603027844915516], [-0.03366003975755956, 0.005445189136843171, 0.0021656534467041095, 0.002764278560730261, -0.012419945424897919, -0.0029037705688695617, -0.006757608743666761, 0.0003999168731938796, -0.001616865797799216, 0.0020864131949909, -0.001558436042729166, -0.00023258747979129635, -0.001969550755831346, 0.0002123937737278601, 0.0005134798919973843, -0.00018730837971454764, 0.0035508884074404038, -0.0017359507492256106, -0.0012033120812134966, -0.000637421788878943, -0.00010083720284634897, 0.00029275455117507075, 0.00015805265949212698, -0.0004079791068931867, 0.00038225794855758686, 0.00015070720600273888, 5.1876633846958755e-05, -0.00033770577324182007, -0.00011057680930461058, -0.001037846631960171], [-0.00677850995803436, 0.014657268482674, 0.009004045140179287, 0.015801661017912836, 0.0010878328539499456, 0.0047596263453947235, -0.002564856764006132, -0.0013007516245467118, -0.0006472826190645788, -0.000679409830868444, -0.001638390082020756, 0.0006217555350380923, 6.684051057444746e-05, 0.0018616535915065653, -0.001003912405639104, -0.0032294543695999805, -0.0010539428224117004, 0.000841122291546723, 0.0017302078572083075, 0.0010265922544824971, -0.0011007774524071589, -0.000582445318936278, 0.0004994894032505761, -0.0011434053896412567, 0.0004269153989166243, 0.0007901665859944748, -0.0010051464729215317, 0.00010378330583391018, -0.0006068036194626245, 0.0014621840311674597], [-0.05394958731154487, 0.014633106464948403, -0.0029258257087251215, 0.006326200266652751, -0.004017906982858275, 0.0015784754370264799, -0.004432864072912226, 0.004757109381539345, 0.008711555093725416, -0.001735258119594793, 0.0005925302997010375, -0.002021271765387162, -0.00130762562031444, -0.0023016051893399287, -0.0007036941739169553, 0.00038768258099595396, 0.00037601265406326455, -0.00025783587943840674, 0.0011093017836114386, 0.0007847495093961917, -6.483340361343705e-05, -0.0004459225538906566, 0.0011787136227350958, 0.00011567491935220465, -0.00022111313006707297, 0.0008988106232196391, 5.8415237553930874e-05, 7.548786080935165e-05, -0.0005105928062657144, -0.0008616072482476119], [-6.304495059339373e-08, 6.366222748965796e-08, -2.1793618998344707e-07, -2.2056955373272963e-08, -8.798144079946704e-08, -2.2395211374259765e-07, -7.959754100284027e-08, 5.6351673549670397e-08, -6.928369344905134e-08, -2.289027856150478e-09, 8.76386181403175e-08, 5.794014867888096e-08, 2.8113579020327898e-08, 4.144584409004883e-08, 1.0250933968336517e-07, 4.837452394212949e-08, 4.30830970898909e-09, 7.04834235421002e-08, 4.9959112402575444e-08, 3.711648588478048e-08, 3.134924853043223e-08, 1.171218499962376e-08, 3.5827270039589996e-08, -4.66984566571681e-08, 4.6969486078296435e-08, 4.431521460901412e-08, -3.4417858785218334e-08, 9.197113826076e-08, 7.248031863582567e-08, -4.0666478184903006e-08], [-0.03685508438883877, 0.03676461206711247, -0.007789005905129328, -0.016083135531866233, -0.009767562779775286, -0.008276942744853459, 0.0017566888377441845, -0.0004604293142001529, -0.00019992501925005952, -0.0008266512139176947, 0.0012713387118239584, 0.0007386825170638487, -0.0071507934696907575, 0.0006031251654140061, -0.002006228727194807, 0.002536570924225758, 0.00014726967264754422, -0.003748328848010854, -0.0002650086802897227, -0.0007073629701032766, -0.003993757402040681, 0.0011976924035634277, -0.00010255273470775244, 0.0002413093975770449, 8.064204161328306e-05, 0.0004093259217416454, -0.0006494702358802236, 0.001838297541028818, -0.00019320727054687332, 0.000542242978973155], [0.09071176832504059, -0.012252701650319638, -0.03091093330830449, -0.009501014451104234, -0.0014820341949841743, 0.00818439292134163, -0.0038393026594402777, 0.004815111080393156, -0.0027584205329152563, -0.0030950128229493548, -0.0015781623880923661, 0.001617898345490073, 0.0009760644411471875, -0.0030449568135261333, -0.004525684148563198, -0.00011589024728201545, 0.0031746712134519237, -7.086046428069121e-06, 0.0013621167979281483, 4.834117691434891e-06, 0.0007399843258149354, -0.0005064238284570695, 0.0006601132417087816, 0.00033195325973632415, 0.0016744458705156265, -0.0008918149488294076, 0.0009830267672553438, -0.00040225210996131807, -0.0011575304601048847, 0.0002012697857586414], [-0.06302185741110539, -0.031726881520189536, -0.02086069494324408, 0.0006433148799322867, 0.009950516123322524, -0.0052014124641603324, -0.0006881409416386012, 0.0018599514450434265, -0.005081189032037016, 0.004021374564337365, -0.004709531586175521, -0.0016318338713826714, 0.0019661917005509466, 0.0005106669892276277, 0.0031332085056009666, -0.0033878725489122404, -0.0008103986575574698, -0.0014155413565351553, -9.550952485815872e-05, -0.0008502325984231802, 0.000979273655744453, 0.00030482809399009104, 0.0005376883285476821, -0.0005479744807409421, 0.0011413818664931354, 0.0006648186599185351, -0.00037271964042576486, 0.00015726292429713018, -0.0001388836006634668, -0.0002562307979173374], [-6.304495059339373e-08, 6.366222748965796e-08, -2.1793618998344707e-07, -2.2056955373272963e-08, -8.798144079946704e-08, -2.2395211374259765e-07, -7.959754100284027e-08, 5.6351673549670397e-08, -6.928369344905134e-08, -2.289027856150478e-09, 8.76386181403175e-08, 5.794014867888096e-08, 2.8113579020327898e-08, 4.144584409004883e-08, 1.0250933968336517e-07, 4.837452394212949e-08, 4.30830970898909e-09, 7.04834235421002e-08, 4.9959112402575444e-08, 3.711648588478048e-08, 3.134924853043223e-08, 1.171218499962376e-08, 3.5827270039589996e-08, -4.66984566571681e-08, 4.6969486078296435e-08, 4.431521460901412e-08, -3.4417858785218334e-08, 9.197113826076e-08, 7.248031863582567e-08, -4.0666478184903006e-08], [0.047440807847259917, 0.005665127231970423, 0.006553599977130413, 0.005123483492701791, 0.00304094758327018, 0.0018835462989851147, -0.002473682934365395, 0.001006284918604149, -1.896505922557062e-05, 0.0032352013495974986, 0.0008781958274595566, 0.0040464129872997525, -0.0020016171323746063, 1.558458669973653e-05, 0.001281344032107559, -0.00044425692215213614, -0.002461278256494427, 0.0005908139900731222, -0.0006180835497807684, -0.0002482011921335358, 0.0004744087779472767, 0.0011254151348383968, -0.0006631217642091729, 0.000719150995117783, -0.0012257446089176602, -3.862949815051896e-06, -0.0006402560307497073, 0.00020415408662519458, -9.393016768592563e-06, -0.00011765024695939074], [0.06570347634849379, 0.009720222966785307, -0.0003946706323445838, -0.0018372874486356822, 0.003059960948517618, -0.0014690228560429938, -0.003323694029293034, -0.0005530132276526295, 0.0011828434624267165, -0.0007859638541627475, -0.00037925122277551667, 0.0021554356704095714, -0.0002654545450044112, -0.0006933044269945377, 0.0007189056515983247, 0.0002665667302953914, -0.0030917234009104587, 0.0006124330057352321, -0.002027448276741094, -0.0002595920763333531, 0.0001292421943949027, 0.00038959670996800363, 0.000732432648594555, 0.0001552901044993414, -3.823729392589468e-05, 0.000559273659649462, -5.742481664949595e-05, -1.2765335217226763e-05, 0.00026158093402007496, -0.0009452339882429078], [-6.304495059339373e-08, 6.366222748965796e-08, -2.1793618998344707e-07, -2.2056955373272963e-08, -8.798144079946704e-08, -2.2395211374259765e-07, -7.959754100284027e-08, 5.6351673549670397e-08, -6.928369344905134e-08, -2.289027856150478e-09, 8.76386181403175e-08, 5.794014867888096e-08, 2.8113579020327898e-08, 4.144584409004883e-08, 1.0250933968336517e-07, 4.837452394212949e-08, 4.30830970898909e-09, 7.04834235421002e-08, 4.9959112402575444e-08, 3.711648588478048e-08, 3.134924853043223e-08, 1.171218499962376e-08, 3.5827270039589996e-08, -4.66984566571681e-08, 4.6969486078296435e-08, 4.431521460901412e-08, -3.4417858785218334e-08, 9.197113826076e-08, 7.248031863582567e-08, -4.0666478184903006e-08], [0.07418689964532917, -0.04890836837445218, -0.010336805263469822, 0.0039796365003676, -0.0012096856766563567, -0.004809122462737741, 0.009690220408416318, 0.002975488107980397, 0.0023837893382110237, -0.0029720814533250304, 0.007893347698362885, 0.002818288851608631, -0.003551770660763479, -0.0024440024189649654, -0.000145811256375272, -0.0017963924159493498, 0.004957848063025912, 7.599340703854972e-05, 0.0014819011320841467, -4.594555013602807e-05, 0.002274155876659921, 0.0005018501988098399, -0.0007097497172301861, -9.680872285713282e-05, 0.0008650391595037797, 0.002943591262248874, 0.00018207639270989543, -9.050861733571146e-05, 0.00038673386829997744, 0.0019197377853870934], [-0.06969188540653093, 0.003946102686939686, -0.015623752035113625, -0.002683541999446905, -0.0023790069710070733, -0.005237358072049269, -0.005612902864621647, 0.0023037803561, 0.004578629749244161, -0.0003851471782375706, -0.001610613498931181, 0.003364916702926163, -0.001648674119474696, 0.0005482034012034277, -0.00032304415554620534, 0.0005293294690945189, -0.0002134015911022019, -0.0011310805765869488, -0.0004782129335477677, 0.002737246479695767, 0.0009971313774523192, -0.00033384164850060795, -0.0003826987994802894, -0.0006559791986406312, -5.794954155370033e-05, -0.0005773278181580792, -0.0003648600544934464, 0.00029741010517938854, -0.0005464054314244095, 0.0009306900671975989], [0.02058876664248697, -0.00652800036896128, 0.001237497485897752, 0.013144938201352754, -0.0005949589992154645, 0.0051600312896286325, -0.003096959469398145, 0.0015941165650362335, -0.0015361094184888381, 0.004388161804832234, 0.0008856632699679537, -0.00020068571472701608, -0.0019605576638859097, 0.0005112889086177123, 0.000790064169189296, -0.00017089685277202357, -0.002326515023571102, 0.0009732381668721042, 0.0011612027798770554, 0.0014182414692170372, -0.0010874007180062051, -5.5653784008710896e-05, 0.00037294504571837333, -0.00036280055104190594, -0.0018642116921730066, 0.00019089573840106824, -0.0010075626858595027, 0.0005778387001461039, -0.0001350375690450954, 0.0014026758525965456], [0.03937189242694228, 0.023263351037029884, 0.01092851368194982, 0.0034235097286842747, 0.004885512746623774, -0.0023439947089873023, -0.0005463287542286329, -0.0012186059244430052, 0.0004282630333030841, -0.0005235524742437103, -0.0010273889483692611, 0.0029153873579543196, 0.0012073753979214088, 0.0011078395566145693, -0.0006712132006605451, 0.0029791231083984683, -0.0021999622208330716, -0.0003919271135223165, 0.0007513880494324167, 0.0001279129937008614, 0.0006622794329389097, 0.0006375660670563848, -0.0016441729685664234, 0.0015668097677776771, 0.0013412512331489681, 0.0006863317775277858, -3.1294790698247405e-05, -0.0004718405446266092, -0.0003601873952042241, -0.001028851342516756], [0.030808285532914394, 0.04064580277330421, 0.0023376711314524253, -0.009029577313624065, 0.0076998842011231855, -0.0050493109451584415, 0.002524196674631027, -0.003465264672145611, -0.0003830322776613247, -0.002418135056775545, -0.003827635229796313, -0.005258730028974963, 0.0006688419258099173, -0.0017288660828716036, 0.00044906373042596416, 0.0026623860478815755, 0.0011498261543422684, -0.0009944016316480767, -0.0008398462120551715, 0.0017513570376677908, -0.00016939137845546138, -0.001068111221709107, -0.0001199387029837322, -0.0005075439931543506, -0.0006187664481247054, 0.0016508330598377135, 0.00041859376659786975, 0.0006908585458544894, -0.0010570636505276806, 0.000680464854896364], [-6.304495059339373e-08, 6.366222748965796e-08, -2.1793618998344707e-07, -2.2056955373272963e-08, -8.798144079946704e-08, -2.2395211374259765e-07, -7.959754100284027e-08, 5.6351673549670397e-08, -6.928369344905134e-08, -2.289027856150478e-09, 8.76386181403175e-08, 5.794014867888096e-08, 2.8113579020327898e-08, 4.144584409004883e-08, 1.0250933968336517e-07, 4.837452394212949e-08, 4.30830970898909e-09, 7.04834235421002e-08, 4.9959112402575444e-08, 3.711648588478048e-08, 3.134924853043223e-08, 1.171218499962376e-08, 3.5827270039589996e-08, -4.66984566571681e-08, 4.6969486078296435e-08, 4.431521460901412e-08, -3.4417858785218334e-08, 9.197113826076e-08, 7.248031863582567e-08, -4.0666478184903006e-08], [0.03854306167525428, -0.008700730917654262, -0.016957959279056183, 0.004769714849730018, -0.00049334844663003, 0.008522756361647704, 0.00010615515672613928, 0.002865914854721053, -0.004542384361230703, 0.005276799043242498, -0.0010354749978834516, -0.0030431692763525087, 0.0011918785545286946, 0.0009048559541559678, -0.0021098415652324298, 0.00247590847613236, 0.0002606428359270173, -0.0011646523180159146, 0.0015040528631526438, 0.001347238220638501, -0.0001698292578184368, 0.001371395021584465, -0.0006877000366659853, 0.0006327800268037161, -0.0006931493399413105, -0.00068459663723421, -0.00040235466331977395, 2.6099814847576948e-05, -0.00017539928070983582, 0.0002359954444036412], [0.00796657537483962, 0.037295070778805645, 0.0033903604182046066, 0.00026262875842700327, 0.003176075478144079, -0.003119602151722348, 0.004890167866848059, 0.002051990717340997, -0.0053093284102698, -0.0017629981132822544, -0.002064885862560515, 0.0018634460033830741, 0.002210421794513731, 0.0011789635548899132, -0.0028344940607069723, 0.0018075288650759359, -0.0012784561350506353, -0.0012926370392286623, 0.001764966685712763, -7.761840706611869e-05, 0.00043137212719575487, -0.0005763974439823777, 0.0007615108198391022, -0.0024901725250853074, -0.0005002351814009803, 0.00219048401014951, 0.0009807502922486078, 0.0007290654869774309, -0.0002727819023157549, -0.0004145843633918151], [-6.304495059339373e-08, 6.366222748965796e-08, -2.1793618998344707e-07, -2.2056955373272963e-08, -8.798144079946704e-08, -2.2395211374259765e-07, -7.959754100284027e-08, 5.6351673549670397e-08, -6.928369344905134e-08, -2.289027856150478e-09, 8.76386181403175e-08, 5.794014867888096e-08, 2.8113579020327898e-08, 4.144584409004883e-08, 1.0250933968336517e-07, 4.837452394212949e-08, 4.30830970898909e-09, 7.04834235421002e-08, 4.9959112402575444e-08, 3.711648588478048e-08, 3.134924853043223e-08, 1.171218499962376e-08, 3.5827270039589996e-08, -4.66984566571681e-08, 4.6969486078296435e-08, 4.431521460901412e-08, -3.4417858785218334e-08, 9.197113826076e-08, 7.248031863582567e-08, -4.0666478184903006e-08], [-6.304495059339373e-08, 6.366222748965796e-08, -2.1793618998344707e-07, -2.2056955373272963e-08, -8.798144079946704e-08, -2.2395211374259765e-07, -7.959754100284027e-08, 5.6351673549670397e-08, -6.928369344905134e-08, -2.289027856150478e-09, 8.76386181403175e-08, 5.794014867888096e-08, 2.8113579020327898e-08, 4.144584409004883e-08, 1.0250933968336517e-07, 4.837452394212949e-08, 4.30830970898909e-09, 7.04834235421002e-08, 4.9959112402575444e-08, 3.711648588478048e-08, 3.134924853043223e-08, 1.171218499962376e-08, 3.5827270039589996e-08, -4.66984566571681e-08, 4.6969486078296435e-08, 4.431521460901412e-08, -3.4417858785218334e-08, 9.197113826076e-08, 7.248031863582567e-08, -4.0666478184903006e-08], [0.007067789200646754, -0.020240367123592902, 0.01306392822703549, 0.006226697800117962, 0.007481079297149335, -0.0008461957163919388, -0.00015785166754108575, 0.0012076496528115209, 0.0008451014427472689, 0.005945285060099315, 0.0034712177933615682, -5.93991896436131e-05, -0.002220515482969421, 0.003763382918541466, -0.00015224915823006013, 0.00166332938785016, -0.00010638314961130991, 0.000608945671330523, -0.0001486433063377741, 0.0006779355468528569, -0.0013145783362876794, 0.00030544758085483713, 0.0022047222581770927, -0.00023689806854663994, 0.00032424513347541407, -0.0010782110786402353, 0.00040294391770753925, -0.00010994873531523791, 0.00012662639673720474, 0.00022257991551395134], [-6.304495059339373e-08, 6.366222748965796e-08, -2.1793618998344707e-07, -2.2056955373272963e-08, -8.798144079946704e-08, -2.2395211374259765e-07, -7.959754100284027e-08, 5.6351673549670397e-08, -6.928369344905134e-08, -2.289027856150478e-09, 8.76386181403175e-08, 5.794014867888096e-08, 2.8113579020327898e-08, 4.144584409004883e-08, 1.0250933968336517e-07, 4.837452394212949e-08, 4.30830970898909e-09, 7.04834235421002e-08, 4.9959112402575444e-08, 3.711648588478048e-08, 3.134924853043223e-08, 1.171218499962376e-08, 3.5827270039589996e-08, -4.66984566571681e-08, 4.6969486078296435e-08, 4.431521460901412e-08, -3.4417858785218334e-08, 9.197113826076e-08, 7.248031863582567e-08, -4.0666478184903006e-08], [-6.304495059339373e-08, 6.366222748965796e-08, -2.1793618998344707e-07, -2.2056955373272963e-08, -8.798144079946704e-08, -2.2395211374259765e-07, -7.959754100284027e-08, 5.6351673549670397e-08, -6.928369344905134e-08, -2.289027856150478e-09, 8.76386181403175e-08, 5.794014867888096e-08, 2.8113579020327898e-08, 4.144584409004883e-08, 1.0250933968336517e-07, 4.837452394212949e-08, 4.30830970898909e-09, 7.04834235421002e-08, 4.9959112402575444e-08, 3.711648588478048e-08, 3.134924853043223e-08, 1.171218499962376e-08, 3.5827270039589996e-08, -4.66984566571681e-08, 4.6969486078296435e-08, 4.431521460901412e-08, -3.4417858785218334e-08, 9.197113826076e-08, 7.248031863582567e-08, -4.0666478184903006e-08], [-0.01766597005667258, 0.02549271169729344, -0.00028012982566502295, 0.00440485262292756, -0.007151918304074745, 0.0014182048362665935, 0.0009236078456266311, -0.0006777272904519876, -0.005116861751797274, -0.0017458126548180822, -0.0007666469898931984, -0.0013872640491158013, -0.0015845742546978928, 0.0011878973671525634, -0.0017108480520211357, -0.0019756003442474666, -0.0013478236452650872, -0.0010719627764219871, 0.0007552460335792656, -0.00231398938791442, -2.906236750274401e-06, -4.60268968465079e-07, 0.0011024397990466914, -0.0006622707825180795, -0.00019407440810782032, 0.0005150834740358451, 0.0004415072508761768, -0.0002815587897526749, 0.0006917001642912207, 0.0005337283369645918], [-6.304495059339373e-08, 6.366222748965796e-08, -2.1793618998344707e-07, -2.2056955373272963e-08, -8.798144079946704e-08, -2.2395211374259765e-07, -7.959754100284027e-08, 5.6351673549670397e-08, -6.928369344905134e-08, -2.289027856150478e-09, 8.76386181403175e-08, 5.794014867888096e-08, 2.8113579020327898e-08, 4.144584409004883e-08, 1.0250933968336517e-07, 4.837452394212949e-08, 4.30830970898909e-09, 7.04834235421002e-08, 4.9959112402575444e-08, 3.711648588478048e-08, 3.134924853043223e-08, 1.171218499962376e-08, 3.5827270039589996e-08, -4.66984566571681e-08, 4.6969486078296435e-08, 4.431521460901412e-08, -3.4417858785218334e-08, 9.197113826076e-08, 7.248031863582567e-08, -4.0666478184903006e-08], [-0.05920471497631423, 0.030695949377188135, -0.010764580786527467, 0.004012889551018379, -0.008140419348962789, 0.00016399960911745194, -0.000663958536586394, 0.0011194364733661802, 0.002770018979380439, -0.002183058842858553, 0.0021470217837320474, 0.001474680022901332, -0.005206998966863784, -0.0025076117460556685, 0.0002276119324500302, -0.00036116452625608, 0.0015041006440127968, -0.002905863062269626, -0.00019000478165017793, -0.0002492148202584151, -0.0019017613394833172, 0.00048141510967059895, 0.0004963723475780682, 0.0017905361862850693, -0.0004901225059664282, -0.00029851320372792015, 0.0009914406243612239, -0.000645015826518993, 0.00035484124399624194, -0.000864453471752204], [0.006866761122972748, -0.0010917880424187434, 0.015579591866676496, -0.0056889988370589575, -0.00877939292464596, -0.0005533366556287906, -0.002729261097496762, -0.0020427537655015432, -0.0011911760632439055, 0.0015388022809294832, 0.0021879611744540922, -0.0003500445976859141, 0.003850337940811598, 0.00043265360514534943, -0.0012770534024732969, -0.0006332455432790785, -0.0008517784966080333, -0.0004759536454886876, 0.00030784346569818837, -0.0009577771049891055, 0.0009405491800928721, -0.0005045424312000713, 0.0003856815909154881, 0.0006676268718266062, 0.0002746081328174224, 0.00031995378922915685, -0.0007414453952010471, -0.0010365707495659355, 0.0002387410478334806, 0.0009013210349575718], [-0.09309861557527213, -0.010623479664097263, -0.03519918151027804, -0.004900966576494948, 0.010290321763973567, -0.007994565584943625, 0.0025388232227918444, 0.004069658563706666, -0.001185519184989562, 0.001771512943452106, -0.00037825881463515867, 0.004595743119980875, 0.001749394358233123, -0.0005610496478473968, 0.0026959565480654075, -0.003090722391310016, -0.0024357888139783543, -0.0011823140936096526, 0.0013939465275233606, 0.0004104150734665651, 0.00029619855888505646, -0.00011025627481871533, -0.0011950361890682186, -0.00043433841078640705, 0.0008260708509349405, -0.00029241914646335873, -0.00122733341365874, -0.0005561150519532807, 0.0002507563009926616, 0.001261859187320587], [-0.08547712951570126, -0.025539215394197592, -0.016958802461285585, -0.007971966174211717, 0.012314424210534679, 0.002541754033571744, 0.0007425302919980471, -0.003942680430308754, -0.002832166005739124, -0.000761974003195428, -0.0021864364292398975, 0.002436621380421013, -0.000389990399863928, -0.0009443063405091053, 0.0006337795371328159, -0.003604934893440994, -0.0007018365004959853, 0.001164431517695839, -0.0008697643888463207, -0.0028527480938873107, 0.00010124344998088382, 0.0012466201457209563, -0.0017650446679182985, 0.0008353439536192238, -0.00028107160584713345, 0.0006440528000585397, 0.0003318296195442984, -0.0007083856244232981, -0.0003613532192288048, 0.00034499528210365246], [-0.03264203028891092, 0.042241928096914995, -0.01159591368617683, 0.008812864947808328, -0.0002569782647248942, 9.311311150788767e-05, 0.007081176742708428, -0.0039023428384093116, -0.010155477317551015, -0.0024994698432192486, 0.0007899411550216401, -0.0004061730855286902, 0.00015338161146974456, -0.0021476567756927027, 0.0008360856694547732, -0.0015239537849342643, 0.0006341743861374082, 0.00108920847156815, -0.0001870939327935202, 0.00022828666533139506, 0.0002444343277250319, -0.0004279934942745907, 0.001274626132095522, -0.000916833175800116, 0.00034157811670696895, -0.002192729581227564, 0.0009566196018017146, -0.00023344300476109894, 0.0018147609549046635, -0.0005014202533591908], [0.08967931588613712, -0.00045160782732037413, -0.013288945424485258, 0.001257974482501098, 0.0034519398676325403, -0.007586048673513194, -0.0046404382071585, -0.0024453683691681737, 0.004114577583352886, -0.0055330228419049, 0.001143009414035463, 0.0009919070606563703, 0.002041070615321429, 0.002349908169483712, 0.003930332801687083, -0.0010051620699273482, 0.00032399200765266463, 0.0013850597090339686, 0.0002503204787888255, -0.002143834880115836, -0.0020445315430631366, 1.8890451430331637e-05, 0.0009883099814692049, -0.000456164979936972, -0.0010955100096579544, -0.0011985048233408672, -0.0005025376695021664, 0.00017058872489402038, 0.000332961368136925, -0.0004544835841709396], [-0.04507319845977057, -0.0013621665076216194, 0.007511596756619511, -0.002884590390738648, 0.004680380215363148, 0.0013957207540769591, 0.005124066549748649, 0.002115735823038043, 0.0005683370636484523, -0.0034609788908133805, 0.004680710836787589, -0.001993765112275502, 0.0002704163676841967, 0.0033367783332287513, -0.001679595404194112, 0.00013915368665347086, 0.0017590990860236252, 0.0009399437971052778, -0.002217929094035466, -0.0010469130026729005, 0.0012470380674144857, 0.0013434856883782372, 0.0012632682157957293, 0.0003503014751659319, -0.00031046766917249176, -0.0009233324182340417, -9.357982139096427e-06, 0.0007027401781701655, -0.000519523936514817, -0.0007364181652694803], [0.0721359633690682, -0.010956658903304035, -0.009717970081865061, 0.0038584392641462994, -0.0003689089020771612, 0.0031331384555234134, -0.0009635880741712859, 0.0030242917000008044, 0.0007437487587166046, 0.0012486453125812268, 0.003797352700236624, 0.0039345725877917214, -0.0013543980417025344, -0.0014830742801816145, 0.0028698973832923316, -0.0009510733605207975, 0.0008251764597517859, 0.0014292009411869802, -0.0018867974929036304, -0.00021614276304252514, 0.0020211149190819244, 0.0008898456708277607, -0.0003047279103148056, -0.0005236939712389959, -0.0009075083069658243, -0.0003604029139790235, -0.0002235564959373798, 0.0007214998488730291, -0.0004238540538407321, 0.0005798725238876196], [-6.304495059339373e-08, 6.366222748965796e-08, -2.1793618998344707e-07, -2.2056955373272963e-08, -8.798144079946704e-08, -2.2395211374259765e-07, -7.959754100284027e-08, 5.6351673549670397e-08, -6.928369344905134e-08, -2.289027856150478e-09, 8.76386181403175e-08, 5.794014867888096e-08, 2.8113579020327898e-08, 4.144584409004883e-08, 1.0250933968336517e-07, 4.837452394212949e-08, 4.30830970898909e-09, 7.04834235421002e-08, 4.9959112402575444e-08, 3.711648588478048e-08, 3.134924853043223e-08, 1.171218499962376e-08, 3.5827270039589996e-08, -4.66984566571681e-08, 4.6969486078296435e-08, 4.431521460901412e-08, -3.4417858785218334e-08, 9.197113826076e-08, 7.248031863582567e-08, -4.0666478184903006e-08], [0.07765348268217552, -0.02284364809661129, -0.02640098600202695, -0.0013029073372754518, -0.002694738726994476, 0.011004167216211568, 0.001453823251738303, 0.008757314982210716, -0.00426730764285095, 0.0012543264538565618, -0.00026327812560804933, 0.0034490017244959846, 1.466187752513253e-05, -0.0029138703826812433, -0.004082339334479336, 0.0006956245080899868, 0.005919113389826608, 0.00024620096655325987, 0.002008991253327717, 0.0005879061982361928, 0.0021284276934830345, 0.00010335683654299107, -0.0012956940132538876, 0.0003823954842467908, 0.00038831619662761235, -0.0017910110314130734, -0.0008450446362696732, -0.0006748986679318748, -0.0020385159750612065, 0.0016913168512386512], [-6.304495059339373e-08, 6.366222748965796e-08, -2.1793618998344707e-07, -2.2056955373272963e-08, -8.798144079946704e-08, -2.2395211374259765e-07, -7.959754100284027e-08, 5.6351673549670397e-08, -6.928369344905134e-08, -2.289027856150478e-09, 8.76386181403175e-08, 5.794014867888096e-08, 2.8113579020327898e-08, 4.144584409004883e-08, 1.0250933968336517e-07, 4.837452394212949e-08, 4.30830970898909e-09, 7.04834235421002e-08, 4.9959112402575444e-08, 3.711648588478048e-08, 3.134924853043223e-08, 1.171218499962376e-08, 3.5827270039589996e-08, -4.66984566571681e-08, 4.6969486078296435e-08, 4.431521460901412e-08, -3.4417858785218334e-08, 9.197113826076e-08, 7.248031863582567e-08, -4.0666478184903006e-08], [0.014082510313436979, 0.03505650279386432, 0.01165211885121184, -0.003912245016802016, 0.006482460168122304, 0.0017634426274998492, 0.004562171894106473, -0.00243829987414443, 0.00021747525390523659, 0.002889885372418216, -0.0006213422798699434, 0.000570162622238605, -0.0008018731671541023, -0.0018576873830178447, 0.0004464123790259092, 0.0024624522518785588, 0.0011164514146142239, 0.00016445558653447714, 0.0001399939090696021, 0.00011267697736606833, 0.0010901903154790222, -0.0018066590734814325, -0.00160899475237201, 0.00038645892837229766, -0.00016861758115429502, 0.0011299334648599303, 0.00043798855224345463, 0.0012387276442506405, -0.000849320299120319, 0.0007699020666630022], [-0.033590466715908075, 0.024201557960292473, 0.00012494071232298636, 0.015031680571463476, -0.00024032945648123704, 0.005561064272743324, -0.0008275132535609134, -0.0023223007876322058, 0.0014800892464785264, -0.004110797692076115, 0.00022380284830347537, -0.0027284515273572982, 0.0006405431853104619, -0.0008577579400975292, -0.001273695023525097, -0.003378402589653613, -5.154511072447728e-05, 0.000635125748892396, 0.0007929173566706179, 0.001638969799876554, 2.5826407017860303e-05, 3.083975197337893e-05, 0.0019436730794591846, -0.0007474518984922992, 0.0008400529164177337, 0.00010361044960133657, -0.0007640731738269633, 0.0008296751738059422, 9.684992800660957e-05, 0.0008212019418792557], [0.01605696252280115, -0.061309156784899364, 0.005978500673833014, 0.005114192992856686, 0.0026012887609501967, 0.000630350923049707, 0.0032097883531381753, -0.0006472321778850031, -0.005137373590911176, -0.0005583160089692474, 0.0035870203685997356, -0.0006210752813647209, -0.007274737229180598, -0.001752164141058791, 0.003221969289041412, 0.005235756320499967, 0.0004855100233119743, -0.00024200651546857702, 0.00028476410220975776, 0.0010700302343167709, -0.0020690321953136946, -0.001213632033289218, 0.0021443245534779856, 0.0003418388958354943, -1.262828793753284e-05, 0.001235517395798277, 0.00013020275999745584, -0.00043579600554660757, 0.0007530266369772015, 0.0007831416662912842], [-0.055529094647809724, -0.018805442387131055, 0.012281299617673174, -0.005885707863886242, 0.000981771446141003, 0.005658011097635214, -0.004242450474318812, 0.0012929486596505908, 0.00021162450408895856, -0.004349845663878471, -0.0008279243410041818, 0.0005996833739265628, 0.0037241877949864234, -0.000759897744828566, -0.0002481985252556574, 0.001080215645148911, 0.0002696467702717569, 0.0022763217961513367, -0.001572042875042201, 0.0003877984575135534, -0.0005352035579601248, 0.0002358150158271072, -0.002034256746798381, -0.0005727108418332618, -0.0007037869955095268, 0.0002571070614600722, 0.00017484751411811904, 0.000592504031852207, 0.0017826791271169978, -0.00029603675741038084], [0.01840784223471485, 0.017033401412703233, 0.011761048614917348, 0.009442877837750057, 0.00307908948128576, 0.0010692897041867991, -0.000539908723186633, 0.0004823005639685786, -0.002910482956711417, 0.0030594426654188193, -0.0009813813621544574, 0.004571559506356703, -7.11965605995785e-05, 0.002401185308337957, -0.0006017874085611657, -0.0004780231808601221, -0.0006444240438829772, -8.928712415143245e-05, 0.0010797976192519704, -0.0002237377881750784, -0.0005175343975910698, -0.0009314506952396746, -0.0011325487042704036, -0.0005045474899888128, -0.0004294522855084765, 0.0007586829648338666, -4.8835829528765634e-05, -0.00011419927906978583, -0.0006091545747290475, -0.0002090368954006544], [-6.304495059339373e-08, 6.366222748965796e-08, -2.1793618998344707e-07, -2.2056955373272963e-08, -8.798144079946704e-08, -2.2395211374259765e-07, -7.959754100284027e-08, 5.6351673549670397e-08, -6.928369344905134e-08, -2.289027856150478e-09, 8.76386181403175e-08, 5.794014867888096e-08, 2.8113579020327898e-08, 4.144584409004883e-08, 1.0250933968336517e-07, 4.837452394212949e-08, 4.30830970898909e-09, 7.04834235421002e-08, 4.9959112402575444e-08, 3.711648588478048e-08, 3.134924853043223e-08, 1.171218499962376e-08, 3.5827270039589996e-08, -4.66984566571681e-08, 4.6969486078296435e-08, 4.431521460901412e-08, -3.4417858785218334e-08, 9.197113826076e-08, 7.248031863582567e-08, -4.0666478184903006e-08], [-0.01983296452193377, -0.010261787379106237, 0.017468144202960417, 0.003560443742346645, -0.007170686643446563, -0.002123549686488343, -0.007740177648218572, 5.8109584553497996e-05, -0.0015953353122981607, -0.0025591027898682977, -0.0012123732411193405, -0.0005940741069586973, 0.00037361863603984583, 0.003977156162382737, 0.0009873244645061494, 0.0007280306702132258, 0.002793602355097262, 0.0015871457711126582, 0.00043268666119894027, 0.0020300491839817052, 0.0013219000523842883, 0.00025846121346320136, -0.0015019089421992023, 0.0007620406747670198, 0.0009893573726057288, -1.8607709344338086e-05, 0.0008035267423991008, 0.0002357683782842684, -0.00039834916303253, -7.714846377206325e-05], [-0.05249233237824933, 0.01886415546089944, -0.005961042827403533, 0.005485973050470883, 0.0036186526702365798, 0.002865929384554483, 0.00296564854364192, -0.00253316000814279, 0.008955479851431539, -0.0015339142205663574, 0.0077752206657644915, -0.0019059973037446754, 0.0014126460848094403, -0.0006405356861807046, -0.0019819638388162445, 0.002198981105609806, 0.0016221472064703408, 0.0026930289939502104, 0.0008646819230918332, 0.000270970332295014, -0.001552397273613603, 0.0008359753787775378, 0.001373000660138127, 0.0015598517804226238, 0.0006829776159607691, -0.0004788549305899633, 0.0007172468633555026, -0.0005991369571768294, -0.0010993733320122517, -0.0009726372236900547], [0.06128818492357761, -0.0028682783640847694, -0.013872503444796134, -0.0017871799271899638, 0.0005332184184561876, 0.008015621108477188, -0.002876300627294263, 0.003113859298643966, -0.0033281570412075695, 0.004179459476235784, 0.0007124986533940858, 0.0026514408252002754, -0.001066846645639075, -0.002867397235078343, -0.002443167505284285, 0.0004593633725537112, -0.0015142092873587645, 0.00042453199141597033, -0.0006592341090225542, 0.0012729618704992907, 0.0005774260542462591, 0.0015823733428144927, -0.000154361906245275, 0.0007547573079656048, -0.0006770450556867905, -0.00021289176290622167, 0.0005348545141068081, 0.0004111289718379026, -0.00025341794884894546, -0.0006809877719075423], [-6.304495059339373e-08, 6.366222748965796e-08, -2.1793618998344707e-07, -2.2056955373272963e-08, -8.798144079946704e-08, -2.2395211374259765e-07, -7.959754100284027e-08, 5.6351673549670397e-08, -6.928369344905134e-08, -2.289027856150478e-09, 8.76386181403175e-08, 5.794014867888096e-08, 2.8113579020327898e-08, 4.144584409004883e-08, 1.0250933968336517e-07, 4.837452394212949e-08, 4.30830970898909e-09, 7.04834235421002e-08, 4.9959112402575444e-08, 3.711648588478048e-08, 3.134924853043223e-08, 1.171218499962376e-08, 3.5827270039589996e-08, -4.66984566571681e-08, 4.6969486078296435e-08, 4.431521460901412e-08, -3.4417858785218334e-08, 9.197113826076e-08, 7.248031863582567e-08, -4.0666478184903006e-08]], "bgmm_covariances": [[7.742377519537749e-05, 3.742940991522112e-05, 2.238478135700616e-05, 1.3509793188987575e-05, 1.1962000488947858e-05, 3.6857280728491204e-06, 7.109245000431967e-06, 1.4450152870427944e-05, 2.9604895482003907e-05, 4.965246024153328e-06, 4.935561880351399e-06, 3.1440816137347653e-06, 5.775111907851158e-06, 3.100916405656154e-06, 3.085946564975432e-06, 6.836672430759637e-06, 3.191612531214033e-06, 4.6105630350628255e-06, 3.139592129362565e-06, 2.389356473895634e-06, 2.3472461138288133e-06, 1.6614944349194327e-06, 1.520156747396648e-06, 2.504173390390204e-06, 1.831515005063927e-06, 2.1404820697325253e-06, 2.7505960019703683e-06, 2.310012952578474e-06, 1.95673619550983e-06, 1.8423627876189335e-06], [0.00020486719489278294, 8.601364603051462e-05, 7.372360089881458e-05, 2.8179878474314382e-05, 2.397846337916245e-05, 3.4493463001015724e-05, 8.222880735565923e-06, 7.332933569258582e-06, 6.3611491677651165e-06, 8.620021045221063e-06, 9.599229469223576e-06, 8.959154792782655e-06, 4.059198614498441e-06, 5.340809923297077e-06, 6.984306754579684e-06, 5.270093217138362e-06, 7.236203339574806e-06, 6.791334442212549e-06, 5.7817529174325014e-06, 3.156163654558648e-06, 4.85229271856666e-06, 5.32779345796631e-06, 3.1134179487676948e-06, 2.889080528366556e-06, 2.8141448178528687e-06, 3.0265201276544867e-06, 2.65504925640033e-06, 2.0520543663494075e-06, 2.0691526189354313e-06, 1.5336985967916533e-06], [0.00023353861236433853, 0.00012188344067869696, 5.173751263032818e-05, 1.9538386519006446e-05, 1.942919486033684e-05, 9.203665519955326e-06, 9.585991505732032e-06, 1.3815782867902972e-05, 8.399014740950126e-06, 9.199596415780174e-06, 4.498856781872764e-06, 4.965470585038151e-06, 4.593460176261467e-06, 4.331196973007687e-06, 3.3147675417066507e-06, 4.555104943221946e-06, 4.245157665177124e-06, 3.1660406061750516e-06, 3.7045750306592435e-06, 3.0602493188105588e-06, 2.5635079907968777e-06, 3.136582447908445e-06, 1.9638380118112535e-06, 2.2772248458268378e-06, 2.215289102684495e-06, 1.9821741203633487e-06, 2.1060123594893274e-06, 1.840093931816142e-06, 1.999642887736064e-06, 2.031102641680997e-06], [9.840277871520173e-05, 5.5377676464997775e-05, 4.607399569696585e-05, 5.766128088729934e-06, 1.2147702114138096e-05, 6.7404887729331944e-06, 8.136971866315255e-06, 2.0051968757892724e-05, 7.9542620414193e-06, 4.431638277581205e-06, 7.853891652354225e-06, 4.492831955027629e-06, 3.3139088808216806e-06, 3.3696923387810013e-06, 2.818314048480174e-06, 3.4833762890973065e-06, 3.103512407738558e-06, 2.2930189606089537e-06, 2.8719485800855834e-06, 3.8431644034975984e-06, 2.4268256431894344e-06, 1.9359609396068056e-06, 2.1234938912027285e-06, 1.7318181686288126e-06, 1.8342818666510787e-06, 1.4240298552452377e-06, 1.493361656387583e-06, 1.9739275447009857e-06, 1.630785113591875e-06, 1.6594744066335907e-06], [7.845389916617598e-05, 1.720283526306178e-05, 3.79378180584936e-05, 4.9619488327270965e-06, 4.063996013114239e-06, 1.2387052072833464e-05, 2.0740160053430834e-06, 4.478946668676457e-06, 4.7439120282894596e-06, 6.983541713190668e-06, 4.335808670590146e-06, 4.789316600845793e-06, 2.8561967256046593e-06, 3.292636698018412e-06, 3.818139729754562e-06, 2.1034177756433256e-06, 3.580614408959527e-06, 2.5770264797424948e-06, 2.2602812740742647e-06, 1.7214283315499102e-06, 1.8947380181785208e-06, 1.476453006720255e-06, 1.4170614192487347e-06, 1.4985778593213607e-06, 1.8034052003867883e-06, 1.1500918077142568e-06, 1.3748652049273655e-06, 1.4694963040205471e-06, 1.665568422800683e-06, 1.1401848739810365e-06], [0.00013428164977759266, 0.00010429302347876938, 8.290937207255181e-05, 1.553374103874252e-05, 2.862874194218394e-05, 1.434246938993394e-05, 9.35540292028481e-06, 1.9051188105319388e-05, 1.0116741233021427e-05, 1.084353976587728e-05, 7.2721651548633155e-06, 4.8732472266380015e-06, 5.672155516693624e-06, 8.283955231310596e-06, 3.971200231174332e-06, 4.7093106557613515e-06, 3.555500572069515e-06, 2.903901039298419e-06, 3.0880769364047017e-06, 4.99220743633832e-06, 3.2887471983172226e-06, 2.160246296799599e-06, 2.1807606849095173e-06, 2.1265333094833813e-06, 2.602751125973376e-06, 1.8059672769625323e-06, 2.1241882663051143e-06, 2.8765674931451106e-06, 2.706923720260451e-06, 2.2302739629640237e-06], [0.0002629723131820211, 0.00018502201080809028, 0.00015714338730429123, 2.7749134322016798e-05, 5.350439315330442e-05, 2.6994208610808514e-05, 1.675118898758228e-05, 2.8371958812520617e-05, 1.5644324843724587e-05, 1.6393808350813194e-05, 1.3922007180573425e-05, 7.478071972246739e-06, 1.1362353429251337e-05, 1.3561240301331218e-05, 1.1769974769784755e-05, 4.796746105718577e-06, 4.6410263961326874e-06, 4.9427876819042916e-06, 5.030058712572595e-06, 4.509228933821308e-06, 6.082511155922182e-06, 4.671100836843409e-06, 3.961743279432175e-06, 3.88099858160484e-06, 3.3034844089282685e-06, 4.541058015737808e-06, 2.49034572951679e-06, 3.468056151980894e-06, 2.8685093835707867e-06, 3.1508390148276323e-06], [0.00029738557980618136, 0.00040135822362798916, 0.00020737888252678796, 0.0001496502954088297, 4.098052225953183e-05, 0.00010930702172407774, 7.282186323974401e-05, 4.2400619878616584e-05, 4.339352131245706e-05, 1.587224273908812e-05, 2.4912350029263395e-05, 1.67966282114614e-05, 1.2852419068355023e-05, 4.453085439542236e-05, 2.4700657335193002e-05, 2.1866013292730357e-05, 1.668297157781575e-05, 1.2051073199622752e-05, 1.1406313830321775e-05, 9.91225878484213e-06, 6.232294341869056e-06, 4.69734508652812e-06, 1.0248989242885972e-05, 6.542515192877581e-06, 8.844242012603419e-06, 6.3489616526600326e-06, 1.727374853157675e-05, 4.811850333522435e-06, 6.347015432975945e-06, 8.482233280825763e-06], [0.0001075993831173851, 3.0166191953015893e-05, 1.6433418939622868e-05, 1.59679637381736e-05, 8.516581114189518e-06, 5.185335852228618e-06, 2.1664155115870613e-06, 3.528696897845696e-06, 2.424098606158487e-06, 3.811081003950083e-06, 1.353385302413067e-06, 1.4012658474780933e-06, 1.9802213151124814e-06, 6.400680533106139e-07, 1.591603899031644e-06, 1.7303847198455324e-06, 7.006858339539195e-07, 1.21612817482464e-06, 8.494227667135034e-07, 9.025668794585529e-07, 5.893547979864576e-07, 6.24093758530434e-07, 4.3567440892430166e-07, 5.459014493935724e-07, 6.392665242171867e-07, 4.0735579539386996e-07, 3.8834132386194097e-07, 3.328376762394985e-07, 3.526497721003636e-07, 3.7078487442759064e-07], [8.872873925914366e-05, 2.3030559532344338e-05, 9.327723334232965e-06, 2.9542859313854323e-06, 2.2103454587825883e-06, 1.3575180976962048e-06, 1.0514156504844624e-06, 8.720108477670389e-07, 7.961009032442235e-07, 7.052514168511456e-07, 5.684152711182833e-07, 4.977493517799303e-07, 4.066285631173135e-07, 3.640712445000342e-07, 3.023460218779898e-07, 2.7791190101803904e-07, 2.4498068948256947e-07, 2.2145662417945768e-07, 1.812940657449266e-07, 1.5814255978815109e-07, 1.3939684322394903e-07, 1.3051596094252703e-07, 1.2278202727126583e-07, 1.0695797906616165e-07, 9.540340973520269e-08, 9.200713672422965e-08, 8.893002814147627e-08, 8.631406368901184e-08, 7.693083716731059e-08, 7.031794666545472e-08], [0.0002486500989496263, 0.00012087457538251702, 0.00016882880886623378, 3.783136519098643e-05, 1.7094360121986013e-05, 2.343664924889033e-05, 1.3750897548871491e-05, 3.4281366961796507e-05, 7.69115123353212e-06, 1.2135822100427379e-05, 1.768185150446141e-05, 9.00578191465534e-06, 1.496081408383624e-05, 8.148993225429652e-06, 5.732685099763856e-06, 4.130019080978865e-06, 6.757228170898086e-06, 6.283361876037911e-06, 4.043370893503794e-06, 3.166971003695866e-06, 4.674322889415696e-06, 3.881445306895762e-06, 4.624071631062451e-06, 2.664372257074005e-06, 2.8146915639625427e-06, 2.1626109779028462e-06, 2.687605089085133e-06, 3.823392696199e-06, 2.550653436740821e-06, 2.6848142558870106e-06], [8.328790710663002e-05, 3.955650826993121e-05, 3.0437230676138977e-05, 1.4688940753877846e-05, 1.261731542753729e-05, 4.710057705460225e-06, 6.985699015829043e-06, 8.238640164333538e-06, 8.15008445315829e-06, 9.034863725744391e-06, 4.434993829340188e-06, 3.6918657485834715e-06, 2.8951334584180333e-06, 3.248016207087178e-06, 2.7163575568311538e-06, 4.049651195331227e-06, 3.18569148311238e-06, 3.3053632301579013e-06, 2.3481305101553958e-06, 2.278984180198975e-06, 2.2999266454609907e-06, 2.0350107823085503e-06, 2.01955253754215e-06, 2.3800053344355644e-06, 1.7339679941946668e-06, 1.752253625722804e-06, 1.9761062237019335e-06, 1.918864419561454e-06, 1.5461542869431323e-06, 1.9462699459403675e-06], [0.0016377233229886046, 0.0007364599508769458, 0.00047143922625118574, 0.00021686202550664054, 9.269043373031609e-05, 9.430628174354591e-05, 4.215740741551711e-05, 6.616772840290295e-05, 4.8011471136675285e-05, 3.8573767292674315e-05, 4.383408497092687e-05, 2.7874920579477006e-05, 2.3194409942494188e-05, 3.115036535744475e-05, 2.6547575240835063e-05, 2.429226746033384e-05, 1.2465207414281542e-05, 1.5082446478106088e-05, 1.5149561774935608e-05, 1.2438251230021387e-05, 1.0360593195952742e-05, 1.0126984035633354e-05, 1.061934837602086e-05, 8.270794978992663e-06, 7.60814544487409e-06, 7.1900492355686155e-06, 7.7665383508207e-06, 7.354572381709442e-06, 6.786450423895746e-06, 5.087566644354206e-06], [0.00013130414941621128, 2.3858879001991532e-05, 3.0231329895781834e-05, 1.2367251654087479e-05, 4.263621644301379e-06, 1.225122239727837e-05, 3.331889166496074e-06, 4.3617897977067554e-06, 6.317923223620699e-06, 1.1179012649212718e-05, 4.627667966622726e-06, 6.7386684163866055e-06, 4.087915762364085e-06, 3.258746339569346e-06, 4.837993276178757e-06, 2.7813426472102986e-06, 3.529887767403011e-06, 2.8728220993815444e-06, 2.035131760331189e-06, 1.8137661121491782e-06, 1.9440906515798697e-06, 2.9687765351860812e-06, 2.189590396127888e-06, 1.453256085046141e-06, 2.1598356527966707e-06, 1.469618082318987e-06, 1.646144449464009e-06, 1.4506865657309539e-06, 1.452360707876675e-06, 1.2243028743140774e-06], [0.00019632630979391484, 6.863087200236569e-05, 5.035441397561577e-05, 1.3951616135942614e-05, 6.2058544439262485e-06, 3.689544419946619e-06, 4.45338215537112e-06, 6.327111430720728e-06, 2.829589286323312e-06, 6.86821475994908e-06, 8.25548501941503e-06, 4.832429437376609e-06, 3.827525770347662e-06, 5.256200774602876e-06, 2.9662522927523004e-06, 3.012669160077931e-06, 4.503183759325781e-06, 2.293871366646799e-06, 3.1441302763510996e-06, 1.7804971031006257e-06, 1.773209092303965e-06, 1.889154248686439e-06, 3.0801022663118707e-06, 1.981835319033086e-06, 1.4458678088606563e-06, 1.4563094620031647e-06, 1.5138543447522212e-06, 1.3958613998842866e-06, 1.4135883831636868e-06, 1.8314944579029306e-06], [8.872873925914366e-05, 2.3030559532344338e-05, 9.327723334232965e-06, 2.9542859313854323e-06, 2.2103454587825883e-06, 1.3575180976962048e-06, 1.0514156504844624e-06, 8.720108477670389e-07, 7.961009032442235e-07, 7.052514168511456e-07, 5.684152711182833e-07, 4.977493517799303e-07, 4.066285631173135e-07, 3.640712445000342e-07, 3.023460218779898e-07, 2.7791190101803904e-07, 2.4498068948256947e-07, 2.2145662417945768e-07, 1.812940657449266e-07, 1.5814255978815109e-07, 1.3939684322394903e-07, 1.3051596094252703e-07, 1.2278202727126583e-07, 1.0695797906616165e-07, 9.540340973520269e-08, 9.200713672422965e-08, 8.893002814147627e-08, 8.631406368901184e-08, 7.693083716731059e-08, 7.031794666545472e-08], [0.0001397970122072294, 5.943234549577592e-05, 5.3242670320959604e-05, 7.514314433563908e-06, 1.2999951948506282e-05, 7.08238445363931e-06, 9.582110280263997e-06, 1.50455226154388e-05, 5.874424475355025e-06, 5.951414312550343e-06, 8.00768897859528e-06, 9.034182704953172e-06, 3.6089475998081976e-06, 5.569936230700525e-06, 2.9064158296017512e-06, 3.338959272733499e-06, 3.6022153120186555e-06, 2.284487102258202e-06, 2.3062208139904124e-06, 3.26141856060209e-06, 2.696684194825552e-06, 1.817126978060945e-06, 1.7086304574997044e-06, 2.4771073569260924e-06, 1.7089041377930396e-06, 2.20126939485194e-06, 1.7722997605439442e-06, 2.832728167112827e-06, 1.7784262017920006e-06, 1.7206108504056213e-06], [0.00010216649502140948, 4.9485438781934856e-05, 3.9083752318826246e-05, 1.1007868700923388e-05, 5.470651147566031e-06, 1.3341663327825132e-05, 3.161960564484002e-06, 2.6016611405891665e-06, 7.392053491160085e-06, 4.633056137269968e-06, 3.1078549475327105e-06, 6.923674711282802e-06, 2.927469429670658e-06, 3.150472999840638e-06, 3.2832545603386754e-06, 4.678316834105554e-06, 3.484464308851035e-06, 3.602736270945251e-06, 3.2901959871014447e-06, 2.153606307932589e-06, 3.613519077197301e-06, 2.136351130487541e-06, 2.6583742158999217e-06, 1.5825355785942328e-06, 2.8196675191028255e-06, 2.253996948185215e-06, 2.4095661424286478e-06, 1.3409019320232277e-06, 1.4686482192757746e-06, 1.2204601230764122e-06], [0.0001172482380674355, 3.0247612575764274e-05, 2.363666445963648e-05, 3.1025076079944435e-06, 5.321703468371218e-06, 1.995520031021942e-06, 5.894337708746463e-06, 1.5383679788853494e-06, 1.2576098991761488e-06, 1.4503369535050722e-06, 1.0653699249091354e-06, 7.18343392098375e-07, 1.4966405557638925e-06, 6.140339423914297e-07, 1.2716585818553422e-06, 7.70851109324622e-07, 6.517509301645479e-07, 3.8844033152545815e-07, 6.043108667395324e-07, 6.549903172856573e-07, 3.4627032808446265e-07, 3.687835686267623e-07, 6.646124277814312e-07, 4.201584174682131e-07, 3.0663359710842605e-07, 2.9260152742330556e-07, 2.610550836042803e-07, 3.9952490193130067e-07, 3.552455037234954e-07, 2.589106097220213e-07], [0.00016166793362876446, 6.348525433542065e-05, 5.7383142747330025e-05, 3.5352605994596154e-05, 1.0485553619825466e-05, 1.6357291051464376e-05, 6.0029949384433955e-06, 6.350983751015983e-06, 5.218714239625728e-06, 8.590172251150935e-06, 5.300497114054631e-06, 8.657285918388209e-06, 3.894407606990535e-06, 4.563837810470672e-06, 3.766734712313474e-06, 3.1675290424795586e-06, 4.429965026672484e-06, 3.840825214883178e-06, 4.3032346953043465e-06, 2.5129283056117808e-06, 3.2237134487099472e-06, 4.736609079423775e-06, 2.104999263708367e-06, 2.313363943794024e-06, 2.8531591416961797e-06, 2.131663828794797e-06, 1.6988216072052946e-06, 2.0300006321136983e-06, 1.9680551437542264e-06, 1.716182119686471e-06], [0.0005113989648637883, 0.00013077093569449408, 7.022845867679382e-05, 4.930848291553946e-05, 3.140194032697304e-05, 2.5713316390867016e-05, 1.4482785006294402e-05, 1.8856952538578366e-05, 1.3523841005872408e-05, 2.090362873684755e-05, 1.2003968680152315e-05, 1.138103920502077e-05, 1.0039415615700133e-05, 7.478362139877773e-06, 6.194398809112684e-06, 8.285367975575747e-06, 7.5220471102244656e-06, 5.122587889117207e-06, 6.1025289243802965e-06, 5.2501199303792395e-06, 6.478786840916272e-06, 6.656027067245378e-06, 4.5027369363722806e-06, 3.591239835878739e-06, 3.671417278479115e-06, 3.900101811816226e-06, 3.368517736429135e-06, 2.849311575416313e-06, 2.645817429492696e-06, 2.772347096705779e-06], [0.00018033743800379638, 8.327160283095786e-05, 0.00015196705235287462, 1.0935581166230879e-05, 1.4894005326796965e-05, 2.0555989259316976e-05, 6.431106783801393e-06, 1.0782595377159191e-05, 4.992748995380193e-06, 1.4280740463621986e-05, 7.866145303536524e-06, 4.554948351396421e-06, 5.590987602447115e-06, 7.593685978164779e-06, 5.0241192260652605e-06, 5.342699144918987e-06, 4.8420577475710145e-06, 2.8850911759760157e-06, 3.0787806003076114e-06, 3.9418634825035685e-06, 2.5518003875810253e-06, 2.6419589317067546e-06, 3.011860740619434e-06, 1.8829421355504324e-06, 2.168582042726225e-06, 2.104449721136579e-06, 2.338277700611075e-06, 2.1585806349402737e-06, 2.8272927353370615e-06, 1.5539287183383986e-06], [0.0001477618094437659, 3.2322417038805467e-05, 1.2085075341250334e-05, 3.5937411507673843e-06, 2.609175804830897e-06, 2.623172968355974e-06, 1.3370165080328878e-06, 2.277292452491565e-06, 9.189943206240239e-07, 1.3217447391786447e-06, 1.8893748457485368e-06, 8.5576080914068e-07, 8.961782498675487e-07, 8.503702970607676e-07, 5.5015497211041e-07, 7.895583682896497e-07, 7.113253712318166e-07, 1.1186647492122848e-06, 5.367543050467909e-07, 4.059565071410537e-07, 5.178320730764809e-07, 5.536504334441615e-07, 4.267864431443631e-07, 4.781201078115253e-07, 4.4010455367418574e-07, 3.5436960911927915e-07, 3.8064405678133617e-07, 3.676013145379302e-07, 3.445599424919867e-07, 3.4911482214158325e-07], [0.00021857217200294248, 9.14320286888742e-05, 4.8386241700938365e-05, 1.7333270257299414e-05, 1.8116532902491626e-05, 9.760679518511937e-06, 9.572278953753364e-06, 1.7881278061935687e-05, 6.492948790980434e-06, 5.987800189246398e-06, 5.626802820883563e-06, 5.627259385669985e-06, 9.71400170396045e-06, 4.108676106877697e-06, 4.861746848557351e-06, 4.06119844022384e-06, 2.8686534120690227e-06, 5.130769708703019e-06, 4.17518976360178e-06, 2.5837183093639245e-06, 2.9413343725745537e-06, 2.7093747021271517e-06, 2.516805778079082e-06, 1.9578413821967332e-06, 2.09772627150999e-06, 1.5605979766574058e-06, 2.024592211013787e-06, 3.426722121523047e-06, 2.9554724345485577e-06, 2.3821624495589e-06], [0.00019201186161671029, 0.00013255097707735362, 9.756587051962159e-05, 1.9470031112298378e-05, 2.5801705396600336e-05, 2.1652938049278383e-05, 3.0287221689383e-05, 1.1537101795630818e-05, 9.760279657590479e-06, 1.0500559209824564e-05, 1.1165839254530035e-05, 4.108010383422017e-06, 1.219868736472654e-05, 4.588228732221791e-06, 5.343076700978085e-06, 3.7873088066749664e-06, 2.701831296961047e-06, 2.6739202364155163e-06, 3.2591272430272394e-06, 2.000911819909588e-06, 2.8444625862176134e-06, 2.04669333560682e-06, 3.00424262011228e-06, 2.7512785794512053e-06, 2.508395541518069e-06, 3.820115759748413e-06, 9.375999629403368e-06, 1.0281259595184265e-06, 2.1723628259423833e-06, 3.0529502578736185e-06], [0.00029903298360405814, 0.0002891493206270839, 0.00012591527165401478, 1.8790142405776314e-05, 1.7565039797934393e-05, 3.1657550542239596e-05, 8.141057477823959e-06, 1.2434823303154699e-05, 1.0387360300668089e-05, 1.6691100348367514e-05, 8.397232986052485e-06, 8.547380964903176e-06, 1.1020169474226439e-05, 1.1245275679905004e-05, 9.322538923634375e-06, 5.781912847963505e-06, 5.644723109061315e-06, 7.955084629915317e-06, 5.2603995767892795e-06, 3.2151250090616563e-06, 5.439654294617627e-06, 3.6555875393363098e-06, 4.417333385401022e-06, 4.160094660563337e-06, 3.970359947754304e-06, 2.60825155798143e-06, 2.789444408423818e-06, 3.326197083337326e-06, 3.0081198493448482e-06, 2.9346270403731435e-06], [0.00012570094199265214, 5.1068942408464925e-05, 2.8903030704506047e-05, 2.4859178678453432e-05, 1.665772177909287e-05, 7.831470681923928e-06, 5.463299404141862e-06, 8.561887347698324e-06, 5.879782340405047e-06, 1.1533676087456447e-05, 4.445699302092854e-06, 6.8143783131648715e-06, 5.526435600480451e-06, 2.8725251675160095e-06, 2.4947564255656643e-06, 3.7228434155400875e-06, 3.934282970021952e-06, 2.4734392899072964e-06, 3.7610836193282048e-06, 2.6819505911731644e-06, 3.7575878541459256e-06, 2.0837275870120786e-06, 1.5182162152479678e-06, 2.595317988471816e-06, 1.6283797368350018e-06, 2.3497131198484093e-06, 1.5588669858064444e-06, 1.4582020544623245e-06, 2.089126932850192e-06, 1.6121987894697064e-06], [8.872873925914366e-05, 2.3030559532344338e-05, 9.327723334232965e-06, 2.9542859313854323e-06, 2.2103454587825883e-06, 1.3575180976962048e-06, 1.0514156504844624e-06, 8.720108477670389e-07, 7.961009032442235e-07, 7.052514168511456e-07, 5.684152711182833e-07, 4.977493517799303e-07, 4.066285631173135e-07, 3.640712445000342e-07, 3.023460218779898e-07, 2.7791190101803904e-07, 2.4498068948256947e-07, 2.2145662417945768e-07, 1.812940657449266e-07, 1.5814255978815109e-07, 1.3939684322394903e-07, 1.3051596094252703e-07, 1.2278202727126583e-07, 1.0695797906616165e-07, 9.540340973520269e-08, 9.200713672422965e-08, 8.893002814147627e-08, 8.631406368901184e-08, 7.693083716731059e-08, 7.031794666545472e-08], [0.00013278834877595777, 5.9262486853831666e-05, 5.245329486487342e-05, 1.0893486767616429e-05, 1.1154849913262165e-05, 8.829349788323567e-06, 3.993843203095353e-06, 1.1175144464495414e-05, 5.349390086813464e-06, 7.195555641715535e-06, 9.151266012285859e-06, 5.0831332214298055e-06, 3.76887727882942e-06, 2.9758718777564874e-06, 2.940680840622682e-06, 3.2269346773050346e-06, 3.5825390288437877e-06, 2.193715064655064e-06, 1.6741106786850199e-06, 2.498065056782244e-06, 1.8424712874211425e-06, 2.136054250115193e-06, 2.504568736497307e-06, 1.5665442772723325e-06, 1.8289349057649977e-06, 1.5195292000233642e-06, 1.4780730493904871e-06, 1.964693804339582e-06, 2.1313415069547267e-06, 1.5506743946975508e-06], [8.872873925914366e-05, 2.3030559532344338e-05, 9.327723334232965e-06, 2.9542859313854323e-06, 2.2103454587825883e-06, 1.3575180976962048e-06, 1.0514156504844624e-06, 8.720108477670389e-07, 7.961009032442235e-07, 7.052514168511456e-07, 5.684152711182833e-07, 4.977493517799303e-07, 4.066285631173135e-07, 3.640712445000342e-07, 3.023460218779898e-07, 2.7791190101803904e-07, 2.4498068948256947e-07, 2.2145662417945768e-07, 1.812940657449266e-07, 1.5814255978815109e-07, 1.3939684322394903e-07, 1.3051596094252703e-07, 1.2278202727126583e-07, 1.0695797906616165e-07, 9.540340973520269e-08, 9.200713672422965e-08, 8.893002814147627e-08, 8.631406368901184e-08, 7.693083716731059e-08, 7.031794666545472e-08], [8.872873925914366e-05, 2.3030559532344338e-05, 9.327723334232965e-06, 2.9542859313854323e-06, 2.2103454587825883e-06, 1.3575180976962048e-06, 1.0514156504844624e-06, 8.720108477670389e-07, 7.961009032442235e-07, 7.052514168511456e-07, 5.684152711182833e-07, 4.977493517799303e-07, 4.066285631173135e-07, 3.640712445000342e-07, 3.023460218779898e-07, 2.7791190101803904e-07, 2.4498068948256947e-07, 2.2145662417945768e-07, 1.812940657449266e-07, 1.5814255978815109e-07, 1.3939684322394903e-07, 1.3051596094252703e-07, 1.2278202727126583e-07, 1.0695797906616165e-07, 9.540340973520269e-08, 9.200713672422965e-08, 8.893002814147627e-08, 8.631406368901184e-08, 7.693083716731059e-08, 7.031794666545472e-08], [0.00014627621563444065, 4.8513903970752075e-05, 5.298890367677621e-05, 6.84539022433811e-06, 9.13886473322728e-06, 8.652827909825965e-06, 4.878403899941509e-06, 1.3596270989905893e-05, 5.043569168534773e-06, 4.3396391663776555e-06, 4.079285216136329e-06, 2.4093838726111776e-06, 3.3775093447077916e-06, 2.292404600144396e-06, 3.2247887333423132e-06, 2.2616094499540974e-06, 2.126719294528685e-06, 2.0570227543643852e-06, 1.6694239006851983e-06, 1.9106390567678995e-06, 2.3206570378534627e-06, 1.950570624408467e-06, 2.0267691215471133e-06, 1.5872316918118697e-06, 1.5918074425519218e-06, 1.2391883976388791e-06, 1.7577370261492694e-06, 1.69128387316754e-06, 1.7210972814149414e-06, 1.4055828831128794e-06], [0.00010591330419605016, 1.7653011414064462e-05, 5.54733031625771e-05, 8.403774534529607e-06, 2.7090245482734984e-06, 1.1528331073261237e-05, 2.2085428337589097e-06, 3.3520182706734745e-06, 4.997521171681703e-06, 3.501133660984035e-06, 4.4795436518834716e-06, 2.41842627301293e-06, 1.9064186514519949e-06, 3.2411807001883283e-06, 4.363908367193522e-06, 2.286637865013772e-06, 3.2634000659438802e-06, 2.6760106098301314e-06, 4.266207506221014e-06, 1.6443639287742814e-06, 1.4764604175286916e-06, 1.4608610546323194e-06, 1.2734270389571246e-06, 1.262622558597202e-06, 1.4306953582694977e-06, 1.1370889052629503e-06, 1.686212792053847e-06, 1.232909806813162e-06, 1.0676101939037301e-06, 9.771749959943485e-07], [0.0001347737846781435, 0.00014497045859903626, 7.23330302931809e-05, 5.0219612825626835e-05, 1.2513522794294235e-05, 2.5608717610759118e-05, 7.421461969630223e-06, 1.6617251135242746e-05, 1.4579103755313739e-05, 1.135612126164357e-05, 1.3577425134932154e-05, 5.059812215965393e-06, 1.253939443189382e-05, 8.597329858502684e-06, 6.871925250185731e-06, 6.849590477362066e-06, 4.455836405400869e-06, 3.954590806320822e-06, 3.415682277574281e-06, 5.310566032271374e-06, 3.3534889446579746e-06, 3.2231321810632728e-06, 2.1967040298883467e-06, 2.373592124261138e-06, 2.581949969417016e-06, 2.917272529099765e-06, 2.6917302759468814e-06, 2.8110948372890533e-06, 2.956850624993719e-06, 2.302506222711652e-06], [7.739191922096889e-05, 3.8007616929491864e-05, 2.4859177592262948e-05, 7.669715954656945e-06, 9.100012402334293e-06, 3.683813188821243e-06, 3.5472665582078826e-06, 5.82222607637273e-06, 1.2285705933058993e-05, 5.724489039436551e-06, 2.5476031533022987e-06, 4.804194971161247e-06, 2.4838904287070727e-06, 2.026752773469804e-06, 2.631069676953547e-06, 3.06260768409986e-06, 2.090531874778795e-06, 2.2265634648586047e-06, 2.2221325525140755e-06, 2.0060929369372775e-06, 1.6386560569046747e-06, 1.574211618768575e-06, 1.7419480268822235e-06, 1.7393362587679195e-06, 1.582437527176313e-06, 1.2213111447419594e-06, 1.7574710174117653e-06, 1.7132197171973955e-06, 1.3311780941434696e-06, 1.731246139409368e-06], [0.00011454247488539395, 3.8068140068737325e-05, 3.430814814938604e-05, 1.6667874217998348e-05, 1.1175076154746365e-05, 6.548276250504965e-06, 7.572893742555168e-06, 1.4628627687311795e-05, 6.139847234199316e-06, 3.776272071157932e-06, 6.7144506958512235e-06, 6.161443686904611e-06, 4.552498116296609e-06, 6.951562848052512e-06, 2.8274407184519386e-06, 2.9847534567714432e-06, 3.0111352286276202e-06, 2.4748964782682214e-06, 3.5330298285087315e-06, 3.3306574218976916e-06, 2.0334355773731105e-06, 1.7843341648251478e-06, 1.583547626323903e-06, 2.051493959638538e-06, 1.8336002726726414e-06, 1.9263648486143435e-06, 1.822887668391273e-06, 2.049975634861317e-06, 1.8592565327388965e-06, 1.6164517728082743e-06], [8.872873925914366e-05, 2.3030559532344338e-05, 9.327723334232965e-06, 2.9542859313854323e-06, 2.2103454587825883e-06, 1.3575180976962048e-06, 1.0514156504844624e-06, 8.720108477670389e-07, 7.961009032442235e-07, 7.052514168511456e-07, 5.684152711182833e-07, 4.977493517799303e-07, 4.066285631173135e-07, 3.640712445000342e-07, 3.023460218779898e-07, 2.7791190101803904e-07, 2.4498068948256947e-07, 2.2145662417945768e-07, 1.812940657449266e-07, 1.5814255978815109e-07, 1.3939684322394903e-07, 1.3051596094252703e-07, 1.2278202727126583e-07, 1.0695797906616165e-07, 9.540340973520269e-08, 9.200713672422965e-08, 8.893002814147627e-08, 8.631406368901184e-08, 7.693083716731059e-08, 7.031794666545472e-08], [0.00024406139356167788, 7.563690036076274e-05, 3.028649267480262e-05, 3.625336901633811e-05, 9.51876077211897e-06, 1.2350103749022394e-05, 1.024255285494508e-05, 7.594227029982347e-06, 4.207051662546447e-06, 7.2737624608487765e-06, 4.633489585022196e-06, 1.1539431400187565e-05, 5.095530009391055e-06, 6.323216260611379e-06, 3.965238690681629e-06, 2.5882917357342192e-06, 3.1083529847712183e-06, 4.494260340407348e-06, 1.712583336820506e-06, 2.490765582385015e-06, 4.661068550246937e-06, 2.281382883691701e-06, 1.6669248939220393e-06, 2.2301167710211064e-06, 1.908077769195719e-06, 1.7739686943330045e-06, 1.9918209845617586e-06, 1.5099517073195413e-06, 2.047055361378883e-06, 1.861732000595976e-06], [0.00013480536946408608, 2.2612938692776188e-05, 3.85936248470372e-05, 7.646888961738566e-06, 2.8995096286088614e-06, 1.0889485453038156e-05, 2.56347551522996e-06, 4.872441042411932e-06, 4.49371355716392e-06, 1.1434106026353908e-05, 3.913080882377758e-06, 3.7481888066143104e-06, 2.952348017126693e-06, 4.091329218652744e-06, 3.7853886390637754e-06, 2.3035353724028625e-06, 5.806696096645067e-06, 1.735984091712871e-06, 4.179781175160035e-06, 1.8144185291476092e-06, 2.204606486666757e-06, 1.7018225441477628e-06, 1.471801690640974e-06, 1.2350734938893881e-06, 1.4919469222783264e-06, 1.5527659182771943e-06, 1.1949306185759476e-06, 1.3354230685646817e-06, 1.4901722473833993e-06, 1.052689036409155e-06], [0.00015309538399609413, 4.590975692937017e-05, 3.424754775391709e-05, 7.890244269402922e-06, 9.82557509204786e-06, 4.589260452497262e-06, 2.4196990179898398e-06, 4.307089756781569e-06, 2.3317827605276426e-06, 2.7337281669141307e-06, 4.909806580747503e-06, 2.864517099283327e-06, 3.264346122311604e-06, 2.6142905594463917e-06, 2.0006928029159883e-06, 3.3228162375389413e-06, 1.7460962318848721e-06, 9.480509054021594e-07, 1.1520975093805074e-06, 2.2726082076367882e-06, 1.0360290150874043e-06, 1.5067045906784283e-06, 1.0441802265810413e-06, 1.2677503447547583e-06, 1.2403256216640557e-06, 7.507308796745846e-07, 1.0314766764230657e-06, 1.3509136336366357e-06, 8.588731819767005e-07, 8.415320081227367e-07], [8.872873925914366e-05, 2.3030559532344338e-05, 9.327723334232965e-06, 2.9542859313854323e-06, 2.2103454587825883e-06, 1.3575180976962048e-06, 1.0514156504844624e-06, 8.720108477670389e-07, 7.961009032442235e-07, 7.052514168511456e-07, 5.684152711182833e-07, 4.977493517799303e-07, 4.066285631173135e-07, 3.640712445000342e-07, 3.023460218779898e-07, 2.7791190101803904e-07, 2.4498068948256947e-07, 2.2145662417945768e-07, 1.812940657449266e-07, 1.5814255978815109e-07, 1.3939684322394903e-07, 1.3051596094252703e-07, 1.2278202727126583e-07, 1.0695797906616165e-07, 9.540340973520269e-08, 9.200713672422965e-08, 8.893002814147627e-08, 8.631406368901184e-08, 7.693083716731059e-08, 7.031794666545472e-08], [9.12183269892042e-05, 3.935055089918212e-05, 4.3584383817742605e-05, 1.3529772312493889e-05, 6.945549916229485e-06, 8.879245390539829e-06, 2.406453890770147e-06, 7.687560460260522e-06, 4.908771957772367e-06, 4.8928607204027625e-06, 3.7453800269649157e-06, 5.4961315924130235e-06, 2.347230798936184e-06, 2.8009748608812567e-06, 3.2151922638008757e-06, 2.2686267464187693e-06, 2.4636695477746273e-06, 3.071793815585191e-06, 2.8458086401607706e-06, 2.0569377313387843e-06, 2.0692250170263665e-06, 2.3157099712513134e-06, 1.7143434826527435e-06, 1.748090787510986e-06, 2.1448454726020142e-06, 1.692120913709263e-06, 1.8654736677969562e-06, 1.77719352421195e-06, 1.872991568510375e-06, 2.491789195235208e-06], [8.852786627303856e-05, 2.3824393207498155e-05, 3.3386741731793514e-05, 4.563815411444652e-06, 5.977431801025224e-06, 8.389926700013749e-06, 2.601854947228379e-06, 4.520827124918229e-06, 5.1725413754306306e-06, 7.912892884043784e-06, 4.620889028044788e-06, 8.96839602596417e-06, 2.577552615016449e-06, 3.097739650240998e-06, 3.262739204723542e-06, 2.433298053237011e-06, 2.3594013978825072e-06, 2.813484683685898e-06, 2.388149092879746e-06, 1.912253005890364e-06, 1.8064134645364375e-06, 2.195862759600978e-06, 1.8167441776152324e-06, 1.7791565252771509e-06, 1.7387329343244939e-06, 1.5233136229222175e-06, 1.6684634460093252e-06, 1.5591477619145518e-06, 1.8297333173310464e-06, 1.2952511425193645e-06], [8.872873925914366e-05, 2.3030559532344338e-05, 9.327723334232965e-06, 2.9542859313854323e-06, 2.2103454587825883e-06, 1.3575180976962048e-06, 1.0514156504844624e-06, 8.720108477670389e-07, 7.961009032442235e-07, 7.052514168511456e-07, 5.684152711182833e-07, 4.977493517799303e-07, 4.066285631173135e-07, 3.640712445000342e-07, 3.023460218779898e-07, 2.7791190101803904e-07, 2.4498068948256947e-07, 2.2145662417945768e-07, 1.812940657449266e-07, 1.5814255978815109e-07, 1.3939684322394903e-07, 1.3051596094252703e-07, 1.2278202727126583e-07, 1.0695797906616165e-07, 9.540340973520269e-08, 9.200713672422965e-08, 8.893002814147627e-08, 8.631406368901184e-08, 7.693083716731059e-08, 7.031794666545472e-08], [0.00026973728456921616, 0.00022159768447700735, 0.00021164659774689111, 2.6592964596647256e-05, 1.2879763660830159e-05, 4.535526182635175e-05, 1.829191177708428e-05, 2.8705373418693892e-05, 1.4386723025961101e-05, 1.9834319465454443e-05, 1.5634658286564524e-05, 7.907675850997355e-06, 1.1304750462411177e-05, 1.2280835611921394e-05, 1.5223804413850583e-05, 5.759990148934215e-06, 1.117143235373597e-05, 5.48316861173917e-06, 9.81030042070802e-06, 4.442617951958985e-06, 3.589456790501506e-06, 2.5415892460616277e-06, 2.9153029018365133e-06, 3.1990456826577136e-06, 3.4008743110014954e-06, 5.097335003894111e-06, 2.3233551355375826e-06, 3.370201911387393e-06, 2.7679822057769665e-06, 2.328817739709761e-06], [0.00013344378820109436, 6.548279210003389e-05, 4.86619926851494e-05, 9.753278639982631e-06, 1.0178762503638475e-05, 7.602050548912634e-06, 5.426094883408881e-06, 1.1444520031379858e-05, 7.21997498955024e-06, 2.8465377981686213e-06, 4.574033548536645e-06, 4.961877083459309e-06, 3.667617350579781e-06, 5.556897877365975e-06, 3.2915575485671437e-06, 2.2038171714602206e-06, 3.2971020046402525e-06, 2.6623866016596863e-06, 2.923263083576893e-06, 1.9384517226570872e-06, 2.8390814191537882e-06, 1.7284122948468273e-06, 1.5639933302417471e-06, 1.9807927900215143e-06, 1.6039901829173983e-06, 1.3502271728417376e-06, 1.6482694914548676e-06, 2.078960414229313e-06, 1.5371347957165168e-06, 1.708532083444473e-06], [0.00019207661343930034, 7.106123833946427e-05, 7.102202507787203e-05, 1.814832512044884e-05, 1.3276778534117472e-05, 1.128887518230714e-05, 4.386608890748362e-06, 9.803791801191998e-06, 1.3008020820013499e-05, 7.469679954963609e-06, 4.213817355002534e-06, 8.430646244815545e-06, 2.7535934189618295e-06, 4.182532499836393e-06, 4.965547886623836e-06, 3.3714157425069142e-06, 2.5252736620292825e-06, 2.4689267882397264e-06, 2.9080216516833136e-06, 2.75171912002636e-06, 2.1606867267778683e-06, 2.4369971855880822e-06, 1.9543181227364587e-06, 1.8261674146435938e-06, 1.6699949743197336e-06, 1.5808419293328525e-06, 1.8728146664736432e-06, 2.0853395170107466e-06, 2.0251258104039806e-06, 2.115627626957337e-06], [8.19708351180626e-05, 3.0319964713082123e-05, 4.0488705213392364e-05, 1.1943461185532284e-05, 7.554474598743748e-06, 1.1316980546038033e-05, 3.055366023426027e-06, 6.892272731943468e-06, 3.257583504018671e-06, 9.24831295458123e-06, 3.150146107506081e-06, 9.34532816473301e-06, 2.6781135093944633e-06, 3.6114319605398198e-06, 2.7266784415102214e-06, 2.8110028396521024e-06, 2.9950907182589277e-06, 2.515590541840272e-06, 2.6408241771892006e-06, 2.110391020109618e-06, 2.317013477779999e-06, 2.3492949086004556e-06, 1.7614290789361783e-06, 1.758162817100655e-06, 2.141058574304495e-06, 2.3997708960625887e-06, 2.206509304524433e-06, 1.5219990128418699e-06, 1.9417382635467318e-06, 1.7078391463156092e-06], [0.00011290362067787552, 4.816278183047881e-05, 3.5903116856587685e-05, 1.551866485113869e-05, 1.559800798532521e-05, 1.2334167193265352e-05, 6.383729221144089e-06, 4.353510258337476e-06, 5.285764519546312e-06, 5.967116946853395e-06, 4.268735289388094e-06, 7.266663635685145e-06, 3.9151643323981885e-06, 5.580577555619641e-06, 3.112048924750524e-06, 4.4605418080953725e-06, 4.401190048334841e-06, 2.7534066295170505e-06, 4.224584527110676e-06, 2.264880042387515e-06, 5.131428632205631e-06, 3.3971506843591027e-06, 1.8440549776204522e-06, 2.2461084939270676e-06, 2.8711525169406693e-06, 2.8537626894924948e-06, 2.5936072151783623e-06, 1.7408898558928128e-06, 1.8160773235970268e-06, 1.392180427656224e-06], [8.872873925914366e-05, 2.3030559532344338e-05, 9.327723334232965e-06, 2.9542859313854323e-06, 2.2103454587825883e-06, 1.3575180976962048e-06, 1.0514156504844624e-06, 8.720108477670389e-07, 7.961009032442235e-07, 7.052514168511456e-07, 5.684152711182833e-07, 4.977493517799303e-07, 4.066285631173135e-07, 3.640712445000342e-07, 3.023460218779898e-07, 2.7791190101803904e-07, 2.4498068948256947e-07, 2.2145662417945768e-07, 1.812940657449266e-07, 1.5814255978815109e-07, 1.3939684322394903e-07, 1.3051596094252703e-07, 1.2278202727126583e-07, 1.0695797906616165e-07, 9.540340973520269e-08, 9.200713672422965e-08, 8.893002814147627e-08, 8.631406368901184e-08, 7.693083716731059e-08, 7.031794666545472e-08], [0.0005569794937329242, 0.0003818892269104203, 7.215814156873193e-05, 6.989895925266093e-05, 3.0647433262826664e-05, 3.077110359650713e-05, 1.0680872304419194e-05, 1.3790321523807988e-05, 1.8529700351929426e-05, 1.2053436966834674e-05, 1.3011092463820061e-05, 1.497528010614697e-05, 7.683287799639574e-06, 1.1924757916325505e-05, 1.1634961380954137e-05, 9.347031306364113e-06, 7.370514415782208e-06, 5.403927918111807e-06, 4.2952538906463255e-06, 3.9362687809979765e-06, 3.397769363183607e-06, 3.820686097967199e-06, 4.756744403742454e-06, 3.328486766303706e-06, 3.2722862769730848e-06, 3.44860086808007e-06, 2.6338379299442075e-06, 2.554027302719415e-06, 3.4599713211250275e-06, 2.9236010100601113e-06], [0.00010588946243107861, 6.195689691909069e-05, 3.2840371797914576e-05, 1.2433031626067499e-05, 8.457206728332527e-06, 5.892788634317082e-06, 5.335369676221013e-06, 5.616184923176351e-06, 7.65847477030511e-06, 5.321443228787677e-06, 2.5660766959577738e-06, 3.3885333385802814e-06, 1.8251292448227675e-06, 3.9089136444974835e-06, 1.9137802114562824e-06, 2.867133267966486e-06, 2.414971475490503e-06, 1.9790369404573506e-06, 1.7227569301731923e-06, 1.8350641913043155e-06, 1.8545470051212122e-06, 1.6458876798381271e-06, 1.5341666553429593e-06, 1.9742975045792428e-06, 1.390912388958541e-06, 1.6771344813296634e-06, 1.5219064929232162e-06, 1.389251769940119e-06, 1.5076893592879044e-06, 1.4514968654709528e-06], [8.872873925914366e-05, 2.3030559532344338e-05, 9.327723334232965e-06, 2.9542859313854323e-06, 2.2103454587825883e-06, 1.3575180976962048e-06, 1.0514156504844624e-06, 8.720108477670389e-07, 7.961009032442235e-07, 7.052514168511456e-07, 5.684152711182833e-07, 4.977493517799303e-07, 4.066285631173135e-07, 3.640712445000342e-07, 3.023460218779898e-07, 2.7791190101803904e-07, 2.4498068948256947e-07, 2.2145662417945768e-07, 1.812940657449266e-07, 1.5814255978815109e-07, 1.3939684322394903e-07, 1.3051596094252703e-07, 1.2278202727126583e-07, 1.0695797906616165e-07, 9.540340973520269e-08, 9.200713672422965e-08, 8.893002814147627e-08, 8.631406368901184e-08, 7.693083716731059e-08, 7.031794666545472e-08], [8.872873925914366e-05, 2.3030559532344338e-05, 9.327723334232965e-06, 2.9542859313854323e-06, 2.2103454587825883e-06, 1.3575180976962048e-06, 1.0514156504844624e-06, 8.720108477670389e-07, 7.961009032442235e-07, 7.052514168511456e-07, 5.684152711182833e-07, 4.977493517799303e-07, 4.066285631173135e-07, 3.640712445000342e-07, 3.023460218779898e-07, 2.7791190101803904e-07, 2.4498068948256947e-07, 2.2145662417945768e-07, 1.812940657449266e-07, 1.5814255978815109e-07, 1.3939684322394903e-07, 1.3051596094252703e-07, 1.2278202727126583e-07, 1.0695797906616165e-07, 9.540340973520269e-08, 9.200713672422965e-08, 8.893002814147627e-08, 8.631406368901184e-08, 7.693083716731059e-08, 7.031794666545472e-08], [0.00017913392449322635, 0.00010741129929830296, 6.822623605273674e-05, 7.3822808061714315e-06, 8.875070518208291e-06, 9.896083580016422e-06, 4.28694296516601e-06, 7.974754590985461e-06, 4.937287142389463e-06, 6.905114244356326e-06, 3.94042301978577e-06, 4.0233730683801615e-06, 3.593123833389118e-06, 3.5710578971359645e-06, 2.7990554231596414e-06, 2.63646861844947e-06, 2.8737972358033398e-06, 2.13941701498418e-06, 2.0953993739346585e-06, 1.7174591588564741e-06, 2.0849113772772197e-06, 2.5214358598138863e-06, 2.171045247855608e-06, 1.5519441970749976e-06, 2.235432313120023e-06, 1.4989027495687003e-06, 1.672698070916872e-06, 1.7683688693975519e-06, 1.5698627913747596e-06, 1.321577519061517e-06], [8.872873925914366e-05, 2.3030559532344338e-05, 9.327723334232965e-06, 2.9542859313854323e-06, 2.2103454587825883e-06, 1.3575180976962048e-06, 1.0514156504844624e-06, 8.720108477670389e-07, 7.961009032442235e-07, 7.052514168511456e-07, 5.684152711182833e-07, 4.977493517799303e-07, 4.066285631173135e-07, 3.640712445000342e-07, 3.023460218779898e-07, 2.7791190101803904e-07, 2.4498068948256947e-07, 2.2145662417945768e-07, 1.812940657449266e-07, 1.5814255978815109e-07, 1.3939684322394903e-07, 1.3051596094252703e-07, 1.2278202727126583e-07, 1.0695797906616165e-07, 9.540340973520269e-08, 9.200713672422965e-08, 8.893002814147627e-08, 8.631406368901184e-08, 7.693083716731059e-08, 7.031794666545472e-08], [8.872873925914366e-05, 2.3030559532344338e-05, 9.327723334232965e-06, 2.9542859313854323e-06, 2.2103454587825883e-06, 1.3575180976962048e-06, 1.0514156504844624e-06, 8.720108477670389e-07, 7.961009032442235e-07, 7.052514168511456e-07, 5.684152711182833e-07, 4.977493517799303e-07, 4.066285631173135e-07, 3.640712445000342e-07, 3.023460218779898e-07, 2.7791190101803904e-07, 2.4498068948256947e-07, 2.2145662417945768e-07, 1.812940657449266e-07, 1.5814255978815109e-07, 1.3939684322394903e-07, 1.3051596094252703e-07, 1.2278202727126583e-07, 1.0695797906616165e-07, 9.540340973520269e-08, 9.200713672422965e-08, 8.893002814147627e-08, 8.631406368901184e-08, 7.693083716731059e-08, 7.031794666545472e-08], [0.0002346303756674405, 8.82494143991602e-05, 4.5359263083600875e-05, 4.918682728105981e-05, 1.1943712827331532e-05, 1.3534179951842692e-05, 1.40649627772572e-05, 1.20072929635407e-05, 1.076312359695775e-05, 1.2454391613625383e-05, 4.974174506746355e-06, 5.019381191155364e-06, 5.248731160984754e-06, 5.42309173883222e-06, 5.711222315275457e-06, 6.652156060017535e-06, 4.721064984926566e-06, 6.199010456821981e-06, 2.4283376688729373e-06, 3.7683427074498266e-06, 2.4374983938523497e-06, 2.539365551036574e-06, 1.7259007338924605e-06, 3.3978063518476874e-06, 2.5267893064283205e-06, 3.090351853376933e-06, 3.669943385337039e-06, 1.974416644820807e-06, 2.341841913245841e-06, 2.2908318702064545e-06], [8.872873925914366e-05, 2.3030559532344338e-05, 9.327723334232965e-06, 2.9542859313854323e-06, 2.2103454587825883e-06, 1.3575180976962048e-06, 1.0514156504844624e-06, 8.720108477670389e-07, 7.961009032442235e-07, 7.052514168511456e-07, 5.684152711182833e-07, 4.977493517799303e-07, 4.066285631173135e-07, 3.640712445000342e-07, 3.023460218779898e-07, 2.7791190101803904e-07, 2.4498068948256947e-07, 2.2145662417945768e-07, 1.812940657449266e-07, 1.5814255978815109e-07, 1.3939684322394903e-07, 1.3051596094252703e-07, 1.2278202727126583e-07, 1.0695797906616165e-07, 9.540340973520269e-08, 9.200713672422965e-08, 8.893002814147627e-08, 8.631406368901184e-08, 7.693083716731059e-08, 7.031794666545472e-08], [0.00011458473188621073, 5.340433532800471e-05, 3.812534045694404e-05, 2.2562964817222665e-05, 7.6067879970948196e-06, 8.683421269267976e-06, 9.995748571395773e-06, 1.331762153384906e-05, 2.1261507284046612e-05, 7.885100571933851e-06, 6.148242617272738e-06, 6.623198922626658e-06, 5.706329946191507e-06, 4.450854775817467e-06, 4.4287315002919045e-06, 5.3127838356466284e-06, 3.3300543237748294e-06, 3.4187095129419643e-06, 2.637551668811238e-06, 3.013606896531227e-06, 2.621171928659151e-06, 2.0583506371324218e-06, 